<GAP_2025_2_23_-480_13_8_28_251>
<Potential label="GAP_2025_2_23_-480_13_8_28_251" init_args="IP GAP label=GAP_2025_2_23_-480_13_8_28_251"/>
<GAP_params label="GAP_2025_2_23_-480_13_8_28_251" gap_version="1686220958">
  <GAP_data do_core="F">
    <e0 Z="1" value="-.18015600000000001"/>
    <e0 Z="2" value="-.18015600000000001"/>
    <e0 Z="3" value="-.18015600000000001"/>
    <e0 Z="4" value="-.18015600000000001"/>
    <e0 Z="5" value="-.18015600000000001"/>
    <e0 Z="6" value="-.18015600000000001"/>
    <e0 Z="7" value="-.18015600000000001"/>
    <e0 Z="8" value="-.18015600000000001"/>
    <e0 Z="9" value="-.18015600000000001"/>
    <e0 Z="10" value="-.18015600000000001"/>
    <e0 Z="11" value="-.18015600000000001"/>
    <e0 Z="12" value="-.18015600000000001"/>
    <e0 Z="13" value="-.18015600000000001"/>
    <e0 Z="14" value="-.18015600000000001"/>
    <e0 Z="15" value="-.18015600000000001"/>
    <e0 Z="16" value="-.18015600000000001"/>
    <e0 Z="17" value="-.18015600000000001"/>
    <e0 Z="18" value="-.18015600000000001"/>
    <e0 Z="19" value="-.18015600000000001"/>
    <e0 Z="20" value="-.18015600000000001"/>
    <e0 Z="21" value="-.18015600000000001"/>
    <e0 Z="22" value="-.18015600000000001"/>
    <e0 Z="23" value="-.18015600000000001"/>
    <e0 Z="24" value="-.18015600000000001"/>
    <e0 Z="25" value="-.18015600000000001"/>
    <e0 Z="26" value="-.18015600000000001"/>
    <e0 Z="27" value="-.18015600000000001"/>
    <e0 Z="28" value="-.18015600000000001"/>
    <e0 Z="29" value="-.18015600000000001"/>
    <e0 Z="30" value="-.18015600000000001"/>
    <e0 Z="31" value="-.18015600000000001"/>
    <e0 Z="32" value="-.18015600000000001"/>
    <e0 Z="33" value="-.18015600000000001"/>
    <e0 Z="34" value="-.18015600000000001"/>
    <e0 Z="35" value="-.18015600000000001"/>
    <e0 Z="36" value="-.18015600000000001"/>
    <e0 Z="37" value="-.18015600000000001"/>
    <e0 Z="38" value="-.18015600000000001"/>
    <e0 Z="39" value="-.18015600000000001"/>
    <e0 Z="40" value="-.18015600000000001"/>
    <e0 Z="41" value="-.18015600000000001"/>
    <e0 Z="42" value="-.18015600000000001"/>
    <e0 Z="43" value="-.18015600000000001"/>
    <e0 Z="44" value="-.18015600000000001"/>
    <e0 Z="45" value="-.18015600000000001"/>
    <e0 Z="46" value="-.18015600000000001"/>
    <e0 Z="47" value="-.18015600000000001"/>
    <e0 Z="48" value="-.18015600000000001"/>
    <e0 Z="49" value="-.18015600000000001"/>
    <e0 Z="50" value="-.18015600000000001"/>
    <e0 Z="51" value="-.18015600000000001"/>
    <e0 Z="52" value="-.18015600000000001"/>
    <e0 Z="53" value="-.18015600000000001"/>
    <e0 Z="54" value="-.18015600000000001"/>
    <e0 Z="55" value="-.18015600000000001"/>
    <e0 Z="56" value="-.18015600000000001"/>
    <e0 Z="57" value="-.18015600000000001"/>
    <e0 Z="58" value="-.18015600000000001"/>
    <e0 Z="59" value="-.18015600000000001"/>
    <e0 Z="60" value="-.18015600000000001"/>
    <e0 Z="61" value="-.18015600000000001"/>
    <e0 Z="62" value="-.18015600000000001"/>
    <e0 Z="63" value="-.18015600000000001"/>
    <e0 Z="64" value="-.18015600000000001"/>
    <e0 Z="65" value="-.18015600000000001"/>
    <e0 Z="66" value="-.18015600000000001"/>
    <e0 Z="67" value="-.18015600000000001"/>
    <e0 Z="68" value="-.18015600000000001"/>
    <e0 Z="69" value="-.18015600000000001"/>
    <e0 Z="70" value="-.18015600000000001"/>
    <e0 Z="71" value="-.18015600000000001"/>
    <e0 Z="72" value="-.18015600000000001"/>
    <e0 Z="73" value="-.18015600000000001"/>
    <e0 Z="74" value="-.18015600000000001"/>
    <e0 Z="75" value="-.18015600000000001"/>
    <e0 Z="76" value="-.18015600000000001"/>
    <e0 Z="77" value="-.18015600000000001"/>
    <e0 Z="78" value="-.18015600000000001"/>
    <e0 Z="79" value="-.18015600000000001"/>
    <e0 Z="80" value="-.18015600000000001"/>
    <e0 Z="81" value="-.18015600000000001"/>
    <e0 Z="82" value="-.18015600000000001"/>
    <e0 Z="83" value="-.18015600000000001"/>
    <e0 Z="84" value="-.18015600000000001"/>
    <e0 Z="85" value="-.18015600000000001"/>
    <e0 Z="86" value="-.18015600000000001"/>
    <e0 Z="87" value="-.18015600000000001"/>
    <e0 Z="88" value="-.18015600000000001"/>
    <e0 Z="89" value="-.18015600000000001"/>
    <e0 Z="90" value="-.18015600000000001"/>
    <e0 Z="91" value="-.18015600000000001"/>
    <e0 Z="92" value="-.18015600000000001"/>
    <e0 Z="93" value="-.18015600000000001"/>
    <e0 Z="94" value="-.18015600000000001"/>
    <e0 Z="95" value="-.18015600000000001"/>
    <e0 Z="96" value="-.18015600000000001"/>
    <e0 Z="97" value="-.18015600000000001"/>
    <e0 Z="98" value="-.18015600000000001"/>
    <e0 Z="99" value="-.18015600000000001"/>
    <e0 Z="100" value="-.18015600000000001"/>
    <e0 Z="101" value="-.18015600000000001"/>
    <e0 Z="102" value="-.18015600000000001"/>
    <e0 Z="103" value="-.18015600000000001"/>
    <e0 Z="104" value="-.18015600000000001"/>
    <e0 Z="105" value="-.18015600000000001"/>
    <e0 Z="106" value="-.18015600000000001"/>
    <e0 Z="107" value="-.18015600000000001"/>
    <e0 Z="108" value="-.18015600000000001"/>
    <e0 Z="109" value="-.18015600000000001"/>
    <e0 Z="110" value="-.18015600000000001"/>
    <e0 Z="111" value="-.18015600000000001"/>
    <e0 Z="112" value="-.18015600000000001"/>
    <e0 Z="113" value="-.18015600000000001"/>
    <e0 Z="114" value="-.18015600000000001"/>
    <e0 Z="115" value="-.18015600000000001"/>
    <e0 Z="116" value="-.18015600000000001"/>
    <e0 Z="117" value="-.18015600000000001"/>
    <e0 Z="118" value="-.18015600000000001"/>
  </GAP_data>
  <gpSparse label="GAP_2025_2_23_-480_13_8_28_251" n_coordinate="1" fitted="T">
    <gpCoordinates label="GAP_2025_2_23_-480_13_8_28_2511" dimensions="325" signal_variance=".20000000000000001" signal_mean=".00000000000000000E+000" sparsified="T" n_permutations="1" covariance_type="2" zeta="4.0000000000000000" n_sparseX="200">
      <descriptor> soap l_max=8 n_max=8 atom_sigma=0.5 cutoff=3.25 radial_scaling=-0.5 cutoff_transition_width=1.0 central_weight=1.0 n_sparse=200 delta=0.2 covariance_type=dot_product zeta=4 sparse_method=cur_points } n_species=1 Z=79 species_Z={79 }</descriptor>
      <permutation i="1">1  </permutation>
      <sparseX i="1" alpha="-196110.36452072259" sparseCutoff="1.0000000000000000" sliced="T">
        <sparseX_slice start="1" end="50">  0.91337890671767841E+000  0.59224670804073742E-005  0.52687605147174496E-005  0.40371686325402188E-005  0.24111344983355920E-005  0.11833700130875732E-005  0.51656366508136786E-006  0.18553547038231654E-006  0.56369434822484853E-007  0.43837009924866242E-001  0.11748364419917077E-003  0.10375006882947164E-003  0.87265536094599796E-004  0.55626421985620721E-004  0.28530243917219762E-004  0.14535519813885513E-004  0.63821480405026446E-005  0.21140202914940710E-005  0.10519639905297296E-002  0.11672732813387363E-002  0.10380678555220045E-002  0.95280483995302534E-003  0.64980075332764524E-003  0.35373589695639749E-003  0.20808932207889679E-003  0.11469810435214503E-003  0.42440515709321086E-004  0.22282865008765645E+000  0.51477231612217459E-003  0.42549329123174606E-003  0.40063756531415331E-003  0.26807398990409139E-003  0.13907370714061102E-003  0.84088596397226200E-004  0.44020960386170847E-004  0.15208224470538856E-004  0.75621620085485116E-002  
0.72553060390036965E-002  0.62239174451733121E-002  0.62992273029869456E-002  0.45224032127618241E-002  0.25526124138698070E-002  0.17395179234336844E-002  0.11624821536024930E-002  0.45530111857734512E-003  0.27180728027932578E-001  0.22670403262742587E-001  0.19885231952095937E-001  0.21477170422758363E-001  0.16271452988904683E-001  </sparseX_slice>
        <sparseX_slice start="51" end="100">  0.98544837548667202E-002  0.74594464360294276E-002  0.60759700523569842E-002  0.25345486528441830E-002  0.30649790786649583E+000  0.61303279449735854E-003  0.45566621919736628E-003  0.47308772313002197E-003  0.32180419021153497E-003  0.16162589031619277E-003  0.11264434137004330E-003  0.66168645414775614E-004  0.22273305336837206E-004  0.10401655413950786E-001  0.86651560943323287E-002  0.69660416634192328E-002  0.75963977243094297E-002  0.55628793031201138E-002  0.31430793440181495E-002  0.23830095583490273E-002  0.18086154854653376E-002  0.70364751661626057E-003  0.52872831393841684E-001  0.38486556508390592E-001  0.33960089751053919E-001  0.37901260286921257E-001  0.29364737515097005E-001  0.18508602586005979E-001  0.14824578015457638E-001  0.13722591759049198E-001  0.57338504848751630E-002  0.51424970970769167E-001  0.32828511424560336E-001  0.31362305453028587E-001  0.34649863868924956E-001  0.27517942997171828E-001  0.18703043340768763E-001  
0.15095058237547776E-001  0.15826248808730355E-001  0.66849076345245695E-002  0.29278416742301597E-001 -0.16728736458942068E-004 -0.67608442302631295E-004 -0.36605900364437797E-004 -0.27594849197995889E-004 -0.24266895871552013E-004 -0.21873048984641546E-005  0.52032472107472240E-005  0.39701972157500899E-006  0.99362505975773819E-003  </sparseX_slice>
        <sparseX_slice start="101" end="150"> -0.21726131782741592E-003 -0.71289767192249495E-003 -0.42455848733663747E-003 -0.33144497575993777E-003 -0.25899918014252551E-003  0.13029095149719374E-004  0.21032943591584214E-003  0.58243287503601511E-004  0.50507124262937370E-002 -0.81308339650475203E-003 -0.93964188629293613E-003 -0.82893337802733699E-003 -0.62588238088107421E-003  0.10409163978377483E-004  0.49158887140247757E-003  0.19760800371439397E-002  0.70330709997919389E-003  0.69471892024897943E-002 -0.80025702287884234E-003  0.19372698665166444E-002  0.60533906872558868E-003  0.65263194926621834E-003  0.19911194926560639E-002  0.12651279225729579E-002  0.37130169250756059E-002  0.14811532072948066E-002  0.46926072007531658E-003  0.11491173581398559E-003  0.20200271191058035E-002  0.11329007193075329E-002  0.10462825767274047E-002  0.14803918617820196E-002  0.47092701378914224E-003  0.79232419221764085E-003  0.41642727238262012E-003 -0.69119161339953042E-002  0.68234035051103227E-005  
0.19770518344815162E-004  0.10779401126260971E-004  0.78803512172921801E-005  0.67464242958888425E-005  0.76808604000891743E-006 -0.12883155238260290E-005 -0.10372332489869715E-006 -0.23457050776105843E-003  0.90822548855428505E-004  0.21587976281402843E-003  0.12958457299031329E-003  0.97678656344482516E-004  0.75137907025838845E-004  </sparseX_slice>
        <sparseX_slice start="151" end="200">  0.65925490307319548E-006 -0.52696902129651124E-004 -0.14866949018570219E-004 -0.11923493341438772E-002  0.35911688259417812E-003  0.36958579349565256E-003  0.30311986716087178E-003  0.21823806878596479E-003  0.38243104773269914E-004 -0.10369353416321148E-003 -0.49739037855456498E-003 -0.17909761955795089E-003 -0.16400609895421696E-002  0.38135872380725864E-003 -0.36910722832436476E-003 -0.54002440922846834E-004 -0.10225052387197226E-003 -0.46513001199642156E-003 -0.29485204766510994E-003 -0.93668123432817467E-003 -0.37643888898068831E-003 -0.15666791812335304E-003 -0.48571252052495432E-004 -0.76204628256762658E-003 -0.42408125706266747E-003 -0.38913468004922713E-003 -0.54594867214088081E-003 -0.17135859692098587E-003 -0.28438746535272422E-003 -0.14887754715543896E-003  0.26152664733121276E-004  0.10664306471406404E-004  0.14411983357370556E-003  0.79588710864920270E-004  0.72501728891321516E-004  0.10078451870419894E-003  0.31269336454057257E-004  
0.51061861897922348E-004  0.26639937470400774E-004  0.20753157998445746E-002 -0.21071228076038811E-005 -0.60140848845140071E-005 -0.32812475402097831E-005 -0.23947249045064955E-005 -0.20464695812814541E-005 -0.23560810703259046E-006  0.38818657012933583E-006  0.31408111456785054E-007  0.70430235479824714E-004 -0.28073323548833827E-004  </sparseX_slice>
        <sparseX_slice start="201" end="250"> -0.65790699751216246E-004 -0.39523180248104251E-004 -0.29736626883106129E-004 -0.22845760853401667E-004 -0.27090538922241141E-006  0.15889095568869939E-004  0.44889792783089410E-005  0.35800512681461122E-003 -0.11122887424603449E-003 -0.11397720914641386E-003 -0.93273378017059928E-004 -0.67017042174187210E-004 -0.12300559487962159E-004  0.30903481047702938E-004  0.15001207036059052E-003  0.54062445171610517E-004  0.49243139215263880E-003 -0.11842609113399042E-003  0.10905139871829274E-003  0.14327795696815540E-004  0.29589353036947411E-004  0.13958993192643188E-003  0.88486678472227909E-004  0.28253769341867293E-003  0.11361246441860875E-003  0.47039836639657301E-004  0.14789042310461479E-004  0.23061154800678191E-003  0.12828299011589535E-003  0.11766643185045010E-003  0.16499650871014266E-003  0.51746309722892829E-004  0.85811577872787418E-004  0.44913101296763033E-004 -0.11104951769485323E-004 -0.46010588855297146E-005 -0.61688751876902477E-004 
-0.34053138851147662E-004 -0.31007397667239595E-004 -0.43078509029032145E-004 -0.13356079293934917E-004 -0.21790054498158949E-004 -0.11366211324792139E-004  0.23576938537818579E-005  0.99264898286452084E-006  0.13202682748260305E-004  0.72851264869121804E-005  0.66306367288479146E-005  0.92065982012126042E-005  0.28524189993462552E-005  </sparseX_slice>
        <sparseX_slice start="251" end="300">  0.46493323863870433E-005  0.24247642787030918E-005 -0.70226626711048044E-003  0.71428695999239312E-006  0.20367862217193372E-005  0.11113060973545445E-005  0.81096888367449089E-006  0.69295410927069706E-006  0.79834742094869560E-007 -0.13138811714170518E-006 -0.10633975219435292E-007 -0.23832892596795557E-004  0.95170453495068770E-005  0.22283870800070672E-004  0.13387523088426121E-004  0.10071391578947252E-004  0.77369283128622632E-005  0.93239596341970266E-007 -0.53781559368945175E-005 -0.15195706677716367E-005 -0.12114538135995507E-003  0.37712060766555031E-004  0.38633561248262371E-004  0.31611574340486099E-004  0.22710073576865657E-004  0.41799941071539640E-005 -0.10452487514287802E-004 -0.50777070360917496E-004 -0.18300426072353879E-004 -0.16663389523702843E-003  0.40158714153830674E-004 -0.36863728127737800E-004 -0.48076603175798039E-005 -0.99887377128456144E-005 -0.47234462150001891E-004 -0.29942125184321641E-004 -0.95635986138991051E-004 
-0.38458001563241178E-004 -0.15917813802069529E-004 -0.50088878052516469E-005 -0.78075581445558747E-004 -0.43430214560237256E-004 -0.39835008921237779E-004 -0.55856349804192335E-004 -0.17516813639451390E-004 -0.29046936151758841E-004 -0.15202735545374357E-004  0.37578054511908207E-005  0.15585194866506030E-005  0.20885478028817496E-004  </sparseX_slice>
        <sparseX_slice start="301" end="325">  0.11528810864226370E-004  0.10497376330310200E-004  0.14583450179835766E-004  0.45212574062653823E-005  0.73758735734301324E-005  0.38473873169277644E-005 -0.11282881438971580E-005 -0.47551893860024632E-006 -0.63214378463147850E-005 -0.34880261236733458E-005 -0.31745770133547251E-005 -0.44077191305479548E-005 -0.13655537985318984E-005 -0.22256700359215574E-005 -0.11607395583774905E-005  0.26997443574297900E-006  0.11389642861974397E-006  0.15133506825773239E-005  0.83501135758888807E-006  0.75995261837876676E-006  0.10551122037035322E-005  0.32686944749991400E-006  0.53272241306009793E-006  0.27782418887706644E-006  0.00000000000000000E+000  </sparseX_slice>
      </sparseX>
      <sparseX i="2" alpha="15823.442495754131" sparseCutoff="1.0000000000000000" sliced="T">
        <sparseX_slice start="1" end="50">  0.78802827296687206E+000  0.16672298106104112E-003  0.98935703844963866E-004  0.11144148136851661E-003  0.65495258373184429E-004  0.19984386137444085E-004  0.73207797559469394E-005  0.36747254248796175E-005  0.10800931734951229E-005  0.16621776778392311E+000  0.19474738057840798E-002  0.11815905101649194E-002  0.15646717481397636E-002  0.10013221815074786E-002  0.33640193426232967E-003  0.13509167638949611E-003  0.73231029678835104E-004  0.24126788108946534E-004  0.17530047635887079E-001  0.11633992142804533E-001  0.72277564520718575E-002  0.11051505319661478E-001  0.77168177386859188E-002  0.28791701081846092E-002  0.12697463899559787E-002  0.73817742167274427E-003  0.27209710044051144E-003  0.41870017824073724E+000  0.39841009325972104E-002  0.23790084408068912E-002  0.39050913920310650E-002  0.25493568731403560E-002  0.96884467753005654E-003  0.42354458941326427E-003  0.24047248114678481E-003  0.95351884610953122E-004  0.62448756383566277E-001  
0.35298455506210330E-001  0.21560601308104606E-001  0.39354284627122982E-001  0.28318881763104552E-001  0.12165813647159893E-001  0.58692970257178340E-002  0.35261306864651080E-002  0.15507699612912166E-002  0.11123321667051089E+000  0.58766672553639848E-001  0.35272793793374148E-001  0.71243566681195650E-001  0.54340375285039766E-001  </sparseX_slice>
        <sparseX_slice start="51" end="100">  0.27751099100181559E-001  0.14800839969744954E-001  0.89906400587482227E-002  0.45926879048643378E-002  0.31302386721181275E+000  0.18166260082624766E-002  0.10723858090044339E-002  0.26796743521857952E-002  0.16737007767061961E-002  0.79631595452427919E-003  0.37658943207050463E-003  0.20246212588755598E-003  0.98203975522035650E-004  0.46687229291106101E-001  0.18264158664356683E-001  0.10852222548460355E-001  0.27277149848829924E-001  0.19256906174080633E-001  0.10466099253612783E-001  0.54691557670659367E-002  0.30904145015406858E-002  0.16307678237841550E-002  0.11760446242524386E+000  0.52490457161361428E-001  0.30518547225353718E-001  0.71627459053554374E-001  0.56533033059064527E-001  0.36853108268422509E-001  0.21332929155775792E-001  0.12144500628324277E-001  0.71214850090779410E-002  0.62170321044025374E-001  0.31398874763608704E-001  0.17831624750442004E-001  0.37693374603831487E-001  0.33192963348408759E-001  0.26740902612994714E-001  
0.16705111958389144E-001  0.90810792893107565E-002  0.58111422004545905E-002 -0.32936312287542457E-001 -0.70353683337977420E-003 -0.33597513175831175E-003 -0.50017599112744439E-003 -0.48640327822773431E-003 -0.10321277086980083E-003 -0.46978955461705912E-004 -0.59080740076259414E-004 -0.15856060099241104E-004 -0.49124214631578109E-002  </sparseX_slice>
        <sparseX_slice start="101" end="150"> -0.58732747883452783E-002 -0.31293838354202541E-002 -0.51577456516758071E-002 -0.52135286614983659E-002 -0.11969975313739815E-002 -0.57980619833554643E-003 -0.80136484853407313E-003 -0.23714268750376296E-003 -0.12374319362125014E-001 -0.12031297784593255E-001 -0.68020135001135157E-002 -0.13002574131309685E-001 -0.12720557732887300E-001 -0.30366079866709730E-002 -0.14492154946375163E-002 -0.23206771318703629E-002 -0.79107099993028956E-003 -0.92511479625386923E-002 -0.53030553341868961E-002 -0.29610006536257929E-002 -0.83078325515113446E-002 -0.73784220850900721E-002 -0.17857734152216310E-002 -0.67426696919893679E-003 -0.14287296442814879E-002 -0.50924929706837600E-003  0.68830060057256583E-003  0.17035621146414990E-002  0.14140433620331557E-002  0.19707703455969015E-002  0.21668114477452032E-002  0.60215622173781405E-003  0.45314681217446481E-003  0.71077144604957381E-003  0.33007625705233114E-003  0.11068914874363281E-001  0.21487868312365454E-003  
0.10492584651933552E-003  0.15880291654982591E-003  0.14894191743418554E-003  0.34124781745013430E-004  0.15579300140511651E-004  0.17786201728395373E-004  0.49570281237223520E-005  0.16509187345559429E-002  0.18037163346090687E-002  0.97513153472505868E-003  0.16330852674396152E-002  0.16010406866584248E-002  0.40004549319982828E-003  </sparseX_slice>
        <sparseX_slice start="151" end="200">  0.19538101397019805E-003  0.24254305062539327E-003  0.74801811809308041E-004  0.41586406654078754E-002  0.37461570412993944E-002  0.21347725542206781E-002  0.41239666848960190E-002  0.39431964550951087E-002  0.10556425969112790E-002  0.52032295914708796E-003  0.71515283095695454E-003  0.25705455470938427E-003  0.31090356562538143E-002  0.17258519236030858E-002  0.97061484654495345E-003  0.26692568111458953E-002  0.23446504102597682E-002  0.68990195236426474E-003  0.30368267266514044E-003  0.46348470383887435E-003  0.18363011534336187E-003 -0.32713214554399883E-003 -0.72916008790184983E-003 -0.59244018747071621E-003 -0.84286818037704976E-003 -0.92133765949248291E-003 -0.25394336717902326E-003 -0.18634491602193185E-003 -0.29157403474079353E-003 -0.13203470879302894E-003  0.77738883679019573E-004  0.15638647165272876E-003  0.12448591304536254E-003  0.18088938190691952E-003  0.19629316159407414E-003  0.54114559637625389E-004  0.38718328535169932E-004  
0.59982871898851582E-004  0.26567789483715745E-004 -0.33928091436966476E-002 -0.65533469025672600E-004 -0.32040379474921075E-004 -0.48533051877896047E-004 -0.45429590880823188E-004 -0.10451080765869218E-004 -0.47719581166815324E-005 -0.54198210517681543E-005 -0.15135702036617301E-005 -0.50603444345520847E-003 -0.55025828730822547E-003  </sparseX_slice>
        <sparseX_slice start="201" end="250"> -0.29772694902884542E-003 -0.49902568270449553E-003 -0.48841800172010671E-003 -0.12258323444757995E-003 -0.59892422022800043E-004 -0.73929345103086180E-004 -0.22850482492599740E-004 -0.12746935210084152E-002 -0.11436830318266784E-002 -0.65202564580979744E-003 -0.12602783220066467E-002 -0.12035309193810415E-002 -0.32409075631338071E-003 -0.15998007128585374E-003 -0.21819712320820988E-003 -0.78645004451352918E-004 -0.95297187866607582E-003 -0.52811136965726210E-003 -0.29712242122070369E-003 -0.81627675489915870E-003 -0.71657103088683340E-003 -0.21281608825107222E-003 -0.94242223501635327E-004 -0.14179167707670072E-003 -0.56463290130175118E-004  0.10027152139090116E-003  0.22226362614618660E-003  0.18036573301779437E-003  0.25690553189909138E-003  0.28073558170943513E-003  0.77341822067434542E-004  0.56671788229189032E-004  0.88661561766211847E-004  0.40089144926085532E-004 -0.33698275778693652E-004 -0.67423586353248271E-004 -0.53606939738310959E-004 
-0.77988343215810779E-004 -0.84596071555134486E-004 -0.23321911414038932E-004 -0.16662611151750529E-004 -0.25799011209623380E-004 -0.11412054636846742E-004  0.73037695984008790E-005  0.14534410093412135E-004  0.11542402545476875E-004  0.16812072484069224E-004  0.18229220497137863E-004  0.50257230691249345E-005  0.35855396859988408E-005  </sparseX_slice>
        <sparseX_slice start="251" end="300">  0.55482132319883264E-005  0.24510454534390472E-005  0.11495895966129543E-002  0.22197784173134441E-004  0.10853715525903479E-004  0.16441488844823705E-004  0.15388224942443669E-004  0.35409669581621643E-005  0.16168169271467853E-005  0.18357274117374909E-005  0.51272086542979655E-006  0.17146025817712385E-003  0.18638936300639940E-003  0.10085446271158024E-003  0.16905279208956101E-003  0.16544193192415371E-003  0.41534227002669245E-004  0.20293519828549506E-004  0.25040790433061734E-004  0.77408108373935272E-005  0.43190593651389595E-003  0.38741851329310734E-003  0.22087753005394062E-003  0.42694137771498783E-003  0.40768521347430960E-003  0.10982301698531350E-003  0.54216644574077467E-004  0.73910593073298007E-004  0.26644261965740439E-004  0.32289660608070280E-003  0.17892169268833214E-003  0.10066612518776032E-003  0.27653986616258725E-003  0.24275201487154380E-003  0.72137281320029762E-004  0.31956711986723726E-004  0.48037611830675805E-004  
0.19135267738844762E-004 -0.33975120009827379E-004 -0.75283663117306742E-004 -0.61087535672302976E-004 -0.87016930370404912E-004 -0.95086593066459905E-004 -0.26195311782884191E-004 -0.19192719910545157E-004 -0.30026244636284280E-004 -0.13575366194418443E-004  0.11418027250649321E-004  0.22837442944888398E-004  0.18156176503397703E-004  </sparseX_slice>
        <sparseX_slice start="301" end="325">  0.26415906762099163E-004  0.28653340071187561E-004  0.78993164526303694E-005  0.56432485547089693E-005  0.87372222267828481E-005  0.38645449617933268E-005 -0.34998179766206680E-005 -0.69622275743179528E-005 -0.55285962077531599E-005 -0.80532724297078996E-005 -0.87318915853790257E-005 -0.24073532821760081E-005 -0.17173412294843398E-005 -0.26572886430645527E-005 -0.11738198757534717E-005  0.83852082848827644E-006  0.16675122608416451E-005  0.13240474474088789E-005  0.19288282216750059E-005  0.20913108342954086E-005  0.57656883449685114E-006  0.41127160219050501E-006  0.63634749719636879E-006  0.28107459484344862E-006  0.00000000000000000E+000  </sparseX_slice>
      </sparseX>
      <sparseX i="3" alpha="54685.430211020066" sparseCutoff="1.0000000000000000" sliced="T">
        <sparseX_slice start="1" end="50">  0.78038581329583112E+000  0.58435332283520748E-003  0.18529749938636878E-002  0.89313295991977923E-003  0.19198520123735031E-003  0.15299298879421598E-003  0.27679090337571229E-004  0.81410181912145637E-005  0.28646485664867389E-005  0.33543881215755694E+000  0.41562923450367663E-002  0.14658468856952303E-001  0.80440513859871814E-002  0.20015270684908401E-002  0.18541023100127020E-002  0.38442152910398081E-003  0.12704621164036356E-003  0.49176070118285843E-004  0.72092031136795284E-001  0.14865195121284683E-001  0.58008176718041135E-001  0.36242279133697118E-001  0.10445385175757198E-001  0.11236471290533663E-001  0.26703168937441206E-002  0.99148383333436097E-003  0.42211293085470374E-003  0.43663297835035220E+000  0.54694728671121134E-002  0.20318981468025483E-001  0.11804357528907721E-001  0.31296362511308799E-002  0.31139288400299347E-002  0.69621846342819563E-003  0.25034607787494735E-003  0.10665573389688153E-003  0.13271056015561511E+000  
0.27791009389765850E-001  0.11375925915810071E+000  0.75244643157666297E-001  0.23122706992619705E-001  0.26692642881330785E-001  0.68422647627056450E-002  0.27638328988747450E-002  0.12948713926802884E-002  0.12215006637417403E+000  0.26072547878593939E-001  0.11158081926611568E+000  0.78136567154342071E-001  0.25618779822847798E-001  </sparseX_slice>
        <sparseX_slice start="51" end="100">  0.31710513943050751E-001  0.87714103893916043E-002  0.38543729382868254E-002  0.19866358430341026E-002  0.31476986695936182E-001  0.40668564807185155E-003  0.20135942096793937E-002  0.15143701020220858E-002  0.52794804909441753E-003  0.70242549859678811E-003  0.20502018070748005E-003  0.94671969509255418E-004  0.50656462618205460E-004  0.95671393219333659E-002  0.21725843746725868E-002  0.11313687774294359E-001  0.96837936996264206E-002  0.39276002210793656E-002  0.60262252513787204E-002  0.20182513752478584E-002  0.10461375807494394E-002  0.61517236181376134E-003  0.12453324973218743E-001  0.29941700561750481E-002  0.15738174870193185E-001  0.14259061568431609E-001  0.61934346845795626E-002  0.10133896016491463E-001  0.36676601967604123E-002  0.20667226871452110E-002  0.13356241695734151E-002  0.63481464845680576E-003  0.23771780890332526E-003  0.11385273942050537E-002  0.13277161057823241E-002  0.77879249468344833E-003  0.16268779774429800E-002  
0.77390143715611406E-003  0.55690006343939917E-003  0.44963190178000031E-003 -0.93468726712183092E-002 -0.12178914791059944E-003 -0.61042912319623230E-003 -0.46399254620247603E-003 -0.16293196597095392E-003 -0.21708694273337020E-003 -0.63192620179436425E-004 -0.28954530023564735E-004 -0.15296289654816117E-004 -0.28408956020387404E-002  </sparseX_slice>
        <sparseX_slice start="101" end="150"> -0.65087767094440714E-003 -0.34296535666067411E-002 -0.29667336252829015E-002 -0.12116295769501653E-002 -0.18622943926642137E-002 -0.62195786326697008E-003 -0.31990565284256798E-003 -0.18574746207976567E-003 -0.36979283939210885E-002 -0.89727319529547746E-003 -0.47707510455195761E-002 -0.43680312395398564E-002 -0.19099210667694606E-002 -0.31314496948762530E-002 -0.11299405063455179E-002 -0.63183002834805958E-003 -0.40322851548763342E-003 -0.26658463430258864E-003 -0.10095332663092376E-003 -0.48794390013181323E-003 -0.57481200986806075E-003 -0.33889004982576770E-003 -0.71067066069609879E-003 -0.33682583576722264E-003 -0.24058476823016642E-003 -0.19191333728355283E-003  0.55974895521870177E-004  0.21436524360375039E-004  0.10456049090708277E-003  0.12443021531739729E-003  0.73742674774559362E-004  0.15522657173632639E-003  0.73307458075095089E-004  0.51973528856985987E-004  0.40959189420982208E-004  0.29693520662259390E-002  0.38710874292363428E-004  
0.19417781701743704E-003  0.14769400784416463E-003  0.51886121983994382E-004  0.69138256751011701E-004  0.20122473973657033E-004  0.92156973638267757E-005  0.48647714258253680E-005  0.90250712966504800E-003  0.20688925322541983E-003  0.10909724505221558E-002  0.94433880393267745E-003  0.38583790308756159E-003  0.59310461946140828E-003  </sparseX_slice>
        <sparseX_slice start="151" end="200">  0.19804831139546143E-003  0.10181928363866316E-003  0.59074190988669443E-004  0.11747727505753980E-002  0.28521576815606432E-003  0.15175730949579750E-002  0.13903779194648675E-002  0.60819288616324079E-003  0.99730146308837702E-003  0.35979813261626664E-003  0.20109523241030661E-003  0.12823977097908615E-003  0.84689677770832353E-004  0.32095395454974699E-004  0.15521256129303736E-003  0.18296021080122679E-003  0.10790199834082033E-003  0.22632867973257652E-003  0.10724626116058667E-003  0.76568469734008231E-004  0.61033595459382862E-004 -0.25148011858221318E-004 -0.96381095834774138E-005 -0.47037003542265335E-004 -0.56010854652889394E-004 -0.33205314823348101E-004 -0.69912219261208098E-004 -0.33009806197751260E-004 -0.23392794343033040E-004 -0.18421787445779391E-004  0.56491619548815740E-005  0.21667029985561076E-005  0.10579903072590373E-004  0.12606327358463708E-004  0.74759518884193923E-005  0.15743821689081127E-004  0.74320388024292264E-005  
0.52644400039041894E-005  0.41426884933725986E-005 -0.90761288647578614E-003 -0.11832766104956101E-004 -0.59357312893124897E-004 -0.45149764801069905E-004 -0.15861925480412876E-004 -0.21136136939196862E-004 -0.61515450486114928E-005 -0.28172042471715053E-005 -0.14870706831881609E-005 -0.27586055231954541E-003 -0.63240039342419551E-004  </sparseX_slice>
        <sparseX_slice start="201" end="250"> -0.33349424971090570E-003 -0.28868238926949084E-003 -0.11795299297390960E-003 -0.18131694223903535E-003 -0.60544357850277786E-004 -0.31125758630020116E-004 -0.18057884252732631E-004 -0.35908132930091745E-003 -0.87182312337535399E-004 -0.46389975532667391E-003 -0.42503547894263299E-003 -0.18592802042424072E-003 -0.30488314396075531E-003 -0.10999197782774942E-003 -0.61473971390549540E-004 -0.39200499803676911E-004 -0.25886267839564664E-004 -0.98107505222080593E-005 -0.47446155482771771E-004 -0.55930404248234721E-004 -0.32985992439183273E-004 -0.69190415181938193E-004 -0.32785560442492753E-004 -0.23406594859346933E-004 -0.18656808146522306E-004  0.76867475202352160E-005  0.29461264684959695E-005  0.14378507674146225E-004  0.17122356645123688E-004  0.10150977363931685E-004  0.21372704742868183E-004  0.10091218643926029E-004  0.71510623382735988E-005  0.56311910075044340E-005 -0.24419568378256823E-005 -0.93664260856960132E-006 -0.45737334707419454E-005 
-0.54499801392434360E-005 -0.32320774835456138E-005 -0.68066208690654074E-005 -0.32130953872652980E-005 -0.22759129690768742E-005 -0.17908770594663426E-005  0.52779095779425344E-006  0.20245030745659416E-006  0.98862143246604788E-006  0.11780704515076212E-005  0.69866185817695588E-006  0.14713736153050184E-005  0.69455920900872384E-006  </sparseX_slice>
        <sparseX_slice start="251" end="300">  0.49195924420445160E-006  0.38709652559225551E-006  0.30747380921655125E-003  0.40086179126058630E-005  0.20108698608357454E-004  0.15295594608513619E-004  0.53736273062614548E-005  0.71604020635748623E-005  0.20839904674315664E-005  0.95439696472843745E-006  0.50378009039254761E-006  0.93453823869363100E-004  0.21424000569755570E-004  0.11297909183741803E-003  0.97798265674431633E-004  0.39959547644537684E-004  0.61425708512944104E-004  0.20510921741630913E-004  0.10544613025647200E-004  0.61175319670392904E-005  0.12164669076857740E-003  0.29534992489240073E-004  0.15715705081153665E-003  0.14399122850306418E-003  0.62987795298851811E-004  0.10328688851587021E-003  0.37262542524559399E-004  0.20825812095191971E-004  0.13280088626003522E-004  0.87695420565662014E-005  0.33236172773533251E-005  0.16073510253334976E-004  0.18947798068948702E-004  0.11174829336515974E-004  0.23440003830734357E-004  0.11106928610596103E-004  0.79295553584281306E-005  
0.63204308511561148E-005 -0.26040546313856855E-005 -0.99806807292461485E-006 -0.48710604327901651E-005 -0.58006188601401325E-005 -0.34388973740856082E-005 -0.72405445676834039E-005 -0.34186528052424168E-005 -0.24225969902733305E-005 -0.19076979093233725E-005  0.82726653847339143E-006  0.31730921724813544E-006  0.15494606703961901E-005  </sparseX_slice>
        <sparseX_slice start="301" end="325">  0.18463146310335682E-005  0.10949470568410392E-005  0.23059150618444700E-005  0.10885164581502054E-005  0.77102109546878655E-006  0.60670156997583058E-006 -0.25286249461923370E-006 -0.96993407288433348E-007 -0.47364692630789105E-006 -0.56441305765005521E-006 -0.33472903798155219E-006 -0.70493602771983163E-006 -0.33276347658681842E-006 -0.23569736840323086E-006 -0.18545716498917972E-006  0.60572694776998461E-007  0.23234642554070252E-007  0.11346173744247736E-006  0.13520502922323079E-006  0.80184375000173955E-007  0.16886764789350950E-006  0.79713529037271614E-007  0.56461231420088210E-007  0.44426076923985945E-007  0.00000000000000000E+000  </sparseX_slice>
      </sparseX>
      <sparseX i="4" alpha="-1606.1038539517251" sparseCutoff="1.0000000000000000" sliced="T">
        <sparseX_slice start="1" end="50">  0.74763735840941081E+000  0.32162117465731201E-004  0.24186832998655590E-004  0.15338970123096697E-004  0.73681953479419457E-005  0.28763065902167416E-005  0.12751313195992255E-005  0.58114685391465366E-006  0.21174524225799872E-006  0.87445916400657228E-001  0.54014654945739281E-003  0.41709828253966394E-003  0.29376890996125752E-003  0.15098424113473645E-003  0.57529490863793972E-004  0.28038228344906129E-004  0.15769027911920474E-004  0.62983482633318537E-005  0.51139688307036846E-002  0.45476394779233719E-002  0.36484339092343883E-002  0.28486665187422004E-002  0.16020540818299618E-002  0.60286538702889326E-003  0.31834327247017908E-003  0.23103622638428486E-003  0.10069220567275447E-003  0.37061078456657637E+000  0.18414417251639140E-002  0.14225066964575770E-002  0.11713902886461541E-002  0.63491083815304179E-003  0.21024162438566417E-003  0.11537255569752709E-003  0.86120356169975371E-004  0.36958442131394966E-004  0.30651490226479117E-001  
0.22055205805436850E-001  0.18131037056723670E-001  0.16429433800419790E-001  0.10101552265709555E-001  0.34356175092978415E-002  0.19697559395647972E-002  0.19555371930622791E-002  0.90285839115877245E-003  0.91857604553943581E-001  0.54227696886198357E-001  0.47757919649447901E-001  0.49285858954019296E-001  0.34750751129455318E-001  </sparseX_slice>
        <sparseX_slice start="51" end="100">  0.11568475772576546E-001  0.67589188936963435E-002  0.90701509566806834E-002  0.43480159916480642E-002  0.44196770705605115E+000  0.17274630097967622E-002  0.13236597907618692E-002  0.12974778907921907E-002  0.72719941509038555E-003  0.19810249379942417E-003  0.12088063882942871E-003  0.11283592084364881E-003  0.48218606018834112E-004  0.36553088623934422E-001  0.20846836993104752E-001  0.17488850142472763E-001  0.18568114547609114E-001  0.12138950719414392E-001  0.36264682210421072E-002  0.22057705788329570E-002  0.27374955969458499E-002  0.12540058379994189E-002  0.15491825588720251E+000  0.73810850846808010E-001  0.69450072478592750E-001  0.81552184592765115E-001  0.62936378455415387E-001  0.20066099536301819E-001  0.11797702225989880E-001  0.19012490484341546E-001  0.89891899574721188E-002  0.13063516147451296E+000  0.51428764031641677E-001  0.53727647405004644E-001  0.69516267892240732E-001  0.59417751014763445E-001  0.19298041247779271E-001  
0.11158839198144341E-001  0.20586165351571917E-001  0.96202702387760599E-002 -0.82710277180995397E-003 -0.30862909761899502E-003 -0.25041735187482806E-003 -0.79268501349665248E-004 -0.37418695149945534E-004 -0.47659966499913128E-004 -0.21595220940150221E-004 -0.22593931274125966E-005 -0.34411009998635966E-005 -0.68405814353393103E-004  </sparseX_slice>
        <sparseX_slice start="101" end="150"> -0.36054572724662256E-002 -0.28629735184066149E-002 -0.90912848549848325E-003 -0.27006178098743324E-003 -0.53376726096525948E-003 -0.26472412419970308E-003  0.94030943546535370E-004 -0.11301676590706469E-004 -0.28991556804402189E-003 -0.11711243817209609E-001 -0.83683958213945711E-002 -0.22235541344078472E-002  0.94660249176610847E-003 -0.75990173507824307E-003 -0.46252714501510974E-003  0.14974847136075690E-002  0.35508668635335686E-003 -0.34573553761561160E-003 -0.10163721754158681E-001 -0.61605104323346925E-002 -0.75484840900197597E-003  0.32883227082443748E-002  0.82480506208857925E-003  0.41120879686371194E-003  0.30192352002842322E-002  0.98193325049772602E-003  0.45750723090611782E-006  0.18128131179930317E-002  0.16628315612473370E-002  0.98527223723159411E-003  0.95671095307596954E-003  0.87374895208671473E-003  0.61440223634829597E-003  0.62083098717858709E-003  0.34866403758771500E-003  0.12320362951004898E-002  0.92857551074635667E-004  
0.75641815188993744E-004  0.26224733478664143E-004  0.12583010095382126E-004  0.14284814082207462E-004  0.65676535827484233E-005  0.87144665680003721E-006  0.10010583774020916E-005  0.10189597828920258E-003  0.10858268646577393E-002  0.86887174026274369E-003  0.30871186488506139E-003  0.10549113850878978E-003  0.16220276166426919E-003  </sparseX_slice>
        <sparseX_slice start="151" end="200">  0.82175028637942473E-004 -0.21643755923726812E-004  0.40105837703962399E-005  0.43185262402552135E-003  0.35385803786157498E-002  0.25714636511206769E-002  0.83713503995041117E-003 -0.14332852400940590E-003  0.25532260770894615E-003  0.16289244561395197E-003 -0.39277892291399771E-003 -0.93893573322497662E-004  0.51500097130177203E-003  0.30892368213039276E-002  0.19362216411584407E-002  0.44982611426144293E-003 -0.78372828880218987E-003 -0.19463519297097210E-003 -0.77762168396887951E-004 -0.80881659957238573E-003 -0.26606939860360446E-003 -0.96377795039784041E-006 -0.76045293809962251E-003 -0.69926392633944763E-003 -0.40179352708603682E-003 -0.38584154241512269E-003 -0.35686435209975281E-003 -0.24584959258909766E-003 -0.24428958469379112E-003 -0.13626748413931563E-003  0.10151401714825237E-005  0.15965486966644269E-003  0.14716215393286607E-003  0.82414606439627208E-004  0.78105749251206879E-004  0.72989663492989678E-004  0.49332997124113910E-004  
0.48131306787150836E-004  0.26660299598154159E-004 -0.39243521799477518E-003 -0.28292704670139009E-004 -0.23051870744068561E-004 -0.80313007103823353E-005 -0.38568748505660030E-005 -0.43513752666604039E-005 -0.20021291193877769E-005 -0.26874647796331067E-006 -0.30440934218618282E-006 -0.32456487371139135E-004 -0.33085848005983461E-003  </sparseX_slice>
        <sparseX_slice start="201" end="250"> -0.26485827849199322E-003 -0.94667722580133430E-004 -0.32562058981312826E-004 -0.49447735188144625E-004 -0.25078763599001439E-004  0.64815304663778155E-005 -0.12323293107859785E-005 -0.13755615749716870E-003 -0.10784324283214296E-002 -0.78439789693602734E-003 -0.25796934439752177E-003  0.41219757805167839E-004 -0.78250342457868722E-004 -0.50030435162566755E-004  0.11868789587348489E-003  0.28385865430958979E-004 -0.16404104265763325E-003 -0.94180739849857693E-003 -0.59134711678910247E-003 -0.14090744981891520E-003  0.23523221834599118E-003  0.58382424613526974E-004  0.22911079596530391E-004  0.24473196372297532E-003  0.80563040838798158E-004  0.30698804212751299E-006  0.23151202701869337E-003  0.21291220697985312E-003  0.12211811346650336E-003  0.11719475105940864E-003  0.10847365198037106E-003  0.74636921066892795E-004  0.74089741298997855E-004  0.41311138545164278E-004 -0.45728345128776706E-006 -0.68742087745070677E-004 -0.63371330771141936E-004 
-0.35436366592835262E-004 -0.33558123148524940E-004 -0.31378838322595685E-004 -0.21184240859650386E-004 -0.20645877551078187E-004 -0.11431048882087808E-004  0.10299471969288111E-006  0.14799078646207302E-004  0.13644599290374728E-004  0.76185653394902855E-005  0.72092210380210918E-005  0.67450422903237086E-005  0.45484438499557289E-005  </sparseX_slice>
        <sparseX_slice start="251" end="300">  0.44280377726274176E-005  0.24506371579719143E-005  0.13328286227385521E-003  0.95828524873845312E-005  0.78078588018915718E-005  0.27211055776897655E-005  0.13068286382483573E-005  0.14738056062770293E-005  0.67815100000958825E-006  0.91094169031940698E-007  0.10309180280530354E-006  0.11023204182042226E-004  0.11206349111862758E-003  0.89711160083649660E-004  0.32077265047371405E-004  0.11037855519932935E-004  0.16748704480609146E-004  0.84951463920136821E-005 -0.21929117534606474E-005  0.41761510580109775E-006  0.46718229032288247E-004  0.36527503720982244E-003  0.26569787383129114E-003  0.87437139721893475E-004 -0.13909041712263050E-004  0.26513424878373046E-004  0.16953997453844379E-004 -0.40179024758214436E-004 -0.96096650387530463E-005  0.55713296598390494E-004  0.31900567597041243E-003  0.20032147270986037E-003  0.47807999677653772E-004 -0.79598163575981081E-004 -0.19754736069491007E-004 -0.77434139187225176E-005 -0.82855351062931389E-004 
-0.27276252486665281E-004 -0.10426241851501341E-006 -0.78410001957608923E-004 -0.72111100638954582E-004 -0.41355408547165614E-004 -0.39686506955156083E-004 -0.36734935160167556E-004 -0.25274048685941548E-004 -0.25087187634489145E-004 -0.13987812549564129E-004  0.15530728248480512E-006  0.23282100442194291E-004  0.21463265147878023E-004  </sparseX_slice>
        <sparseX_slice start="301" end="325">  0.12000823789780616E-004  0.11364196213800993E-004  0.10626600714255441E-004  0.71736274133518630E-005  0.69908441531362203E-005  0.38705322235057279E-005 -0.49469360196997669E-007 -0.70884161332522402E-005 -0.65355001172764223E-005 -0.36488048446467019E-005 -0.34525881773417833E-005 -0.32304075875107462E-005 -0.21782314880301231E-005 -0.21204240993033283E-005 -0.11734882241154524E-005  0.11880306124418949E-007  0.16975936518087070E-005  0.15651893238506241E-005  0.87377198331724339E-006  0.82674436789781434E-006  0.77357064293462495E-006  0.52157317632019456E-006  0.50769648833495409E-006  0.28096257157664754E-006  0.00000000000000000E+000  </sparseX_slice>
      </sparseX>
      <sparseX i="5" alpha="28705.949018301639" sparseCutoff="1.0000000000000000" sliced="T">
        <sparseX_slice start="1" end="50">  0.98385135704887994E+000  0.44174557720256104E-006  0.41187967629701120E-006  0.29943427119282801E-006  0.17696004989311171E-006  0.85556562334748164E-007  0.33213857163291177E-007  0.97570331293494632E-008  0.18245183791524780E-008  0.15019816075934458E-001  0.12510034820212273E-004  0.12248096477062452E-004  0.95859273656955513E-005  0.62688014422627623E-005  0.34710003348400462E-005  0.16216205926669042E-005  0.62325512533660664E-006  0.18140890181271842E-006  0.11464886099846642E-003  0.17713926214496140E-003  0.18211127659920200E-003  0.15343935598009092E-003  0.11103599808615723E-003  0.70408645436929673E-004  0.39586690182249043E-004  0.19905997351279275E-004  0.90185963684792808E-005  0.95241677963168764E-001  0.80543539134777530E-004  0.81282724383099428E-004  0.66542787567735475E-004  0.46169720606265574E-004  0.27494156915359871E-004  0.13993601642249609E-004  0.59293047609429082E-005  0.19229614044720233E-005  0.10281279504398351E-002  
0.16128798622897223E-002  0.17091551564960381E-002  0.15063247814415589E-002  0.11565156945941612E-002  0.78872705519732688E-003  0.48310824103781503E-003  0.26781620667028569E-003  0.13519664721427539E-003  0.46099327689341591E-002  0.73427579484069451E-002  0.80204021506205727E-002  0.73938473369223765E-002  0.60229501013030606E-002  </sparseX_slice>
        <sparseX_slice start="51" end="100">  0.44177129366698301E-002  0.29478793438420239E-002  0.18016057997378271E-002  0.10133579922627861E-002  0.14003293861124072E+000  0.11918744794486779E-003  0.12181484944306809E-003  0.10158819942550709E-003  0.72185122352226225E-004  0.44230499696734845E-004  0.23258248497195060E-004  0.10217735625707141E-004  0.34465349574119562E-005  0.15116468047120923E-002  0.23867219728984758E-002  0.25614357742504267E-002  0.22996455046446753E-002  0.18081813322738647E-002  0.12688438450070328E-002  0.80295636594196864E-003  0.46151704227825104E-003  0.24231374049695401E-003  0.95854554703317125E-002  0.15366466791714330E-001  0.16998598798867608E-001  0.15963486521323650E-001  0.13317254930699419E-001  0.10050644889182810E-001  0.69290261679652593E-002  0.43906180387346394E-002  0.25685617744929433E-002  0.99655419264341582E-002  0.16078992615580406E-001  0.18013583090874422E-001  0.17232767347246429E-001  0.14722791647474268E-001  0.11433004377668345E-001  
0.81433800431216438E-002  0.53500956660073231E-002  0.32552709110500893E-002  0.10859530344689609E-001  0.96124593284454645E-005  0.10586960379585512E-004  0.97979936656910800E-005  0.78996161168312647E-005  0.55771481146795425E-005  0.34115415719231761E-005  0.17522492494340124E-005  0.69217304736967374E-006  0.11722795014534049E-003  </sparseX_slice>
        <sparseX_slice start="101" end="150">  0.19248895993985931E-003  0.22261505211247748E-003  0.22179654935577207E-003  0.19787925723649516E-003  0.15999208931673264E-003  0.11777838830734592E-003  0.79145998737572925E-004  0.48664250399846860E-004  0.74335042583604280E-003  0.12393044704303718E-002  0.14773526611481776E-002  0.15396487062748557E-002  0.14573806659102975E-002  0.12673140837058520E-002  0.10163560178578293E-002  0.75295128438907595E-003  0.51584830932429454E-003  0.10929411028225754E-002  0.18339091954985005E-002  0.22140435542475460E-002  0.23505198013993702E-002  0.22785756617341793E-002  0.20387581029518462E-002  0.16892478026233762E-002  0.12975310720410261E-002  0.92455793791461122E-003  0.59932528660107039E-004  0.10458437968542329E-003  0.13606368137243131E-003  0.16030342734399384E-003  0.17632209877594911E-003  0.18177788029499100E-003  0.17520723112254721E-003  0.15734175499037043E-003  0.13129588963844066E-003 -0.30652464052930229E-002 -0.27172661633431000E-005 
-0.30004030078274857E-005 -0.27851489546449836E-005 -0.22518303557695971E-005 -0.15931522039524475E-005 -0.97557774102955559E-006 -0.50099707054770666E-006 -0.19760146911174713E-006 -0.33089143027128323E-004 -0.54413102806466928E-004 -0.63090334524525764E-004 -0.63047236879237411E-004 -0.56406604021287321E-004 -0.45702883349827480E-004  </sparseX_slice>
        <sparseX_slice start="151" end="200"> -0.33680367536078147E-004 -0.22629151375527391E-004 -0.13892663704219491E-004 -0.20982051233746008E-003 -0.35032867120852475E-003 -0.41868989863023113E-003 -0.43765602745972603E-003 -0.41543462047683902E-003 -0.36201732212234178E-003 -0.29064113307128241E-003 -0.21528123802358977E-003 -0.14726430644568543E-003 -0.30849711546338947E-003 -0.51841253453477365E-003 -0.62747216400610320E-003 -0.66815186773016200E-003 -0.64952090926020630E-003 -0.58238581767166750E-003 -0.48306389372046742E-003 -0.37098561534390864E-003 -0.26394267662560675E-003 -0.23923898333123809E-004 -0.41809934598791952E-004 -0.54533769651212399E-004 -0.64442010044092420E-004 -0.71080655899900694E-004 -0.73434665837234946E-004 -0.70856262264168377E-004 -0.63620677794958171E-004 -0.53008023730605559E-004  0.47749771639004802E-005  0.83572261766682415E-005  0.10928456449121411E-004  0.12952850501479005E-004  0.14327357938213410E-004  0.14833075778733671E-004  0.14327633254294705E-004  
0.12862417364473926E-004  0.10700451429066580E-004  0.93028542844420729E-003  0.82475222320199167E-006  0.91083701235409792E-006  0.84565097099690455E-006  0.68384017268016603E-006  0.48387539868659712E-006  0.29632464220640584E-006  0.15217304234709495E-006  0.60014097507239492E-007  0.10042372953994569E-004  0.16515617099408022E-004  </sparseX_slice>
        <sparseX_slice start="201" end="250">  0.19152431075700247E-004  0.19142946375158958E-004  0.17129665978339623E-004  0.13880971853888782E-004  0.10230166638463974E-004  0.68733871173784542E-005  0.42193799364356552E-005  0.63679371707012119E-004  0.10633273778198799E-003  0.12710234437717470E-003  0.13288490152985069E-003  0.12615998442169882E-003  0.10995263078996492E-003  0.88280129963730914E-004  0.65389605800457941E-004  0.44726056370407614E-004  0.93627178140423057E-004  0.15735002193060729E-003  0.19048270172629441E-003  0.20287003852238452E-003  0.19724775874427564E-003  0.17688339445294407E-003  0.14672714377276288E-003  0.11268331308239843E-003  0.80162772081279331E-004  0.72607715883637649E-005  0.12690268247354426E-004  0.16554901355562445E-004  0.19566439445148251E-004  0.21585910270845029E-004  0.22303724729661605E-004  0.21522074234037759E-004  0.19324169072803318E-004  0.16099215856718075E-004 -0.20494490373397332E-005 -0.35873063629243073E-005 -0.46917504213292961E-005 
-0.55618987137746141E-005 -0.61531860897951289E-005 -0.63712183142281130E-005 -0.61545363352194759E-005 -0.55250998677101392E-005 -0.45960019924549365E-005  0.43981795226238917E-006  0.76991855128944152E-006  0.10071194463063130E-005  0.11941277828673875E-005  0.13213077812017566E-005  0.13683076731042345E-005  0.13218623351551367E-005  </sparseX_slice>
        <sparseX_slice start="251" end="300">  0.11866637383609398E-005  0.98702538181103457E-006 -0.31501311860809665E-003 -0.27927912871392014E-006 -0.30843245731947609E-006 -0.28636222310261798E-006 -0.23157091340092301E-006 -0.16385759281518457E-006 -0.10034660257953661E-006 -0.51531456775146035E-007 -0.20322890988507015E-007 -0.34005468921016848E-005 -0.55925489182534094E-005 -0.64854977347183411E-005 -0.64823631364869424E-005 -0.58006717875465807E-005 -0.47005957320568932E-005 -0.34643169003721354E-005 -0.23275847395502574E-005 -0.14288309255493085E-005 -0.21563099731635907E-004 -0.36006589041041374E-004 -0.43040069601473207E-004 -0.44998725389035018E-004 -0.42721945849827897E-004 -0.37233910741987550E-004 -0.29894952546571716E-004 -0.22143354649927350E-004 -0.15145820827380863E-004 -0.31704021659046484E-004 -0.53282156496998827E-004 -0.64502262175808095E-004 -0.68697745552989418E-004 -0.66794618806432715E-004 -0.59899071750103008E-004 -0.49687296588517309E-004 -0.38158764442266645E-004 
-0.27145943136907966E-004 -0.24586414358619688E-005 -0.42972021894132821E-005 -0.56059084518104871E-005 -0.66257703117281931E-005 -0.73097035794471225E-005 -0.75528424361618258E-005 -0.72881789842707312E-005 -0.65438829895996241E-005 -0.54517625432433960E-005  0.69398413964243902E-006  0.12147403393201097E-005  0.15887453978623684E-005  </sparseX_slice>
        <sparseX_slice start="301" end="325">  0.18834220440502752E-005  0.20836724428679346E-005  0.21575234018987822E-005  0.20841561035663186E-005  0.18710044868647221E-005  0.15563684426705807E-005 -0.21062037021426157E-006 -0.36870138412749265E-006 -0.48229791391526481E-006 -0.57186086140628336E-006 -0.63277365432474188E-006 -0.65528735652466097E-006 -0.63304725571109190E-006 -0.56829962039500262E-006 -0.47268903361645075E-006  0.50431025065033590E-007  0.88282527047736767E-007  0.11548346058659454E-006  0.13693042298332229E-006  0.15151749777909950E-006  0.15690970973176992E-006  0.15158493335703973E-006  0.13608086608730181E-006  0.11318600646889477E-006  0.00000000000000000E+000  </sparseX_slice>
      </sparseX>
      <sparseX i="6" alpha="-39554.387040691676" sparseCutoff="1.0000000000000000" sliced="T">
        <sparseX_slice start="1" end="50">  0.85717811376773734E+000  0.33227767761277476E-006  0.21442618797389480E-006  0.21860571639383654E-006  0.42747841102063571E-007  0.70237523448737237E-007  0.30251842502696711E-007  0.31224119371628261E-008  0.35112974677084300E-009  0.31576546277263695E-001  0.12406184058714467E-004  0.74424765297864169E-005  0.84382446014426326E-005  0.19950745897907792E-005  0.40464176427764338E-005  0.23092224053631968E-005  0.37852070593133178E-006  0.59819741352585064E-007  0.58160507062966489E-003  0.23315557784248165E-003  0.13002264557772931E-003  0.16419067353207632E-003  0.49635278765415538E-004  0.11827771368637467E-003  0.89674302738818900E-004  0.26927309812532374E-004  0.13908986237208407E-004  0.24471673815957093E+000  0.98652325086869672E-004  0.55318668269926817E-004  0.66546877982370938E-004  0.17292894041657797E-004  0.38041146285141522E-004  0.23519776083408004E-004  0.42109733732713943E-005  0.68532573731209660E-006  0.63744428310506243E-002  
0.26329617277160849E-002  0.13733045139453243E-002  0.18405221897287239E-002  0.62744355502743459E-003  0.15817384219215587E-002  0.12983783738857327E-002  0.43459427938226326E-003  0.24327309426814858E-003  0.34932227604499308E-001  0.14905541047581640E-001  0.72774786371168979E-002  0.10348354344643889E-001  0.40211438559052586E-002  </sparseX_slice>
        <sparseX_slice start="51" end="100">  0.10600857495209068E-001  0.94139919008683626E-002  0.35200115792947129E-002  0.21342292278878762E-002  0.40978616560830633E+000  0.16745270506324754E-003  0.86711420206685193E-004  0.10790950412616922E-003  0.29622043376351104E-004  0.67954411298018694E-004  0.43271542426323801E-004  0.79858664345644645E-005  0.12575602638313872E-005  0.10674212582558608E-001  0.44811865269541841E-002  0.21597770497408537E-002  0.29938506682254725E-002  0.10967274789255963E-002  0.28380314757736344E-002  0.24000430698267396E-002  0.84110638238849001E-003  0.47855523762500732E-003  0.82724641976011315E-001  0.35938627791272104E-001  0.16226486887238416E-001  0.23853587306061155E-001  0.10030659381447352E-001  0.26948058590427638E-001  0.24645036557779051E-001  0.96630557668489075E-002  0.59540922082577594E-002  0.97952046853974767E-001  0.43382810305086152E-001  0.18131236939303571E-001  0.27537277394031393E-001  0.12596967850080704E-001  0.34309901947322759E-001  
0.32306702645245114E-001  0.13299912331641978E-001  0.83298055075462299E-002  0.79418518570887525E-001  0.34339900772116386E-004  0.92793102928927176E-005  0.14873428510223158E-004  0.56172212939723195E-005  0.15488943230072310E-004  0.10779629177730587E-004  0.21635235720749710E-005  0.26972852140728044E-006  0.20687134446306173E-002  </sparseX_slice>
        <sparseX_slice start="101" end="150">  0.93030879452014729E-003  0.23822311816366538E-003  0.42144423526228728E-003  0.23047826179990345E-003  0.66063252271226743E-003  0.61127064576915920E-003  0.24744090887106074E-003  0.14317153679417185E-003  0.16032431220046797E-001  0.75208177316684940E-002  0.18313954456619917E-002  0.34046337296679266E-002  0.22006572421730958E-002  0.63273910844358410E-002  0.63188714065174640E-002  0.28755356963498886E-002  0.18012342920524268E-002  0.26846829376901478E-001  0.12923308461436004E-001  0.29611690301154276E-002  0.56293507477251734E-002  0.40421192002371067E-002  0.11489626036477527E-001  0.11795932721418823E-001  0.56585445713748239E-002  0.36063480669763365E-002  0.36791076385925114E-002  0.19889740117662704E-002  0.29890065634254797E-003  0.63401262840658012E-003  0.75443002236947536E-003  0.20057397230586345E-002  0.22240571490798298E-002  0.12556778606117557E-002  0.81805191106511124E-003 -0.21118904587948507E-001 -0.90869584121508514E-005 
-0.29734598628322165E-005 -0.44776253457378047E-005 -0.15861456499455332E-005 -0.42223527163592966E-005 -0.29398388771334252E-005 -0.59268277149602994E-006 -0.82526126048537186E-007 -0.55011051129044079E-003 -0.24589416257078889E-003 -0.75859517368970304E-004 -0.12659338788223459E-003 -0.64109448664524009E-004 -0.17935082106305573E-003  </sparseX_slice>
        <sparseX_slice start="151" end="200"> -0.16570104795071193E-003 -0.66477496981289937E-004 -0.39554477781161518E-004 -0.42633304088491430E-002 -0.19861058853685460E-002 -0.58012297502187799E-003 -0.10207744596479140E-002 -0.60806349087136737E-003 -0.17146464311026640E-002 -0.17097071276738693E-002 -0.77037865776515317E-003 -0.49601399420852075E-003 -0.71390859248229776E-002 -0.34090225913971815E-002 -0.93139167704377418E-003 -0.16824474729007822E-002 -0.11085222674894256E-002 -0.31064507249174205E-002 -0.31848659935642711E-002 -0.15110612850016160E-002 -0.98893039080342375E-003 -0.13835889927081104E-002 -0.73733911275574078E-003 -0.12442791156834574E-003 -0.26070762553766539E-003 -0.28240751349261684E-003 -0.75796862558949918E-003 -0.84080661009842679E-003 -0.46814512025551919E-003 -0.31195941976496584E-003  0.26016070862707754E-003  0.13691507167179061E-003  0.26524744110643419E-004  0.54191721658024175E-004  0.53478841644780920E-004  0.14378435924660601E-003  0.15945670198001962E-003  
0.87672784126412615E-004  0.59894577547016193E-004  0.63909020243335165E-002  0.27492231814249412E-005  0.90688943247922185E-006  0.13623225646717458E-005  0.48128080524802383E-006  0.12792401479548435E-005  0.89068765120647571E-006  0.17959596872092809E-006  0.25124068623000709E-007  0.16647181512527209E-003  0.74390025262420747E-004  </sparseX_slice>
        <sparseX_slice start="201" end="250">  0.23130869791448922E-004  0.38512004893690752E-004  0.19438785914459291E-004  0.54327167056076773E-004  0.50188988010338461E-004  0.20125888055344510E-004  0.11989024858495259E-004  0.12901486829892137E-002  0.60082783099911507E-003  0.17685204585052408E-003  0.31051139670117974E-003  0.18431484706589200E-003  0.51933956690414565E-003  0.51780749702974734E-003  0.23319967098959005E-003  0.15032067218822764E-003  0.21603960801488769E-002  0.10312282184369661E-002  0.28385898383741660E-003  0.51171928174580800E-003  0.33589957042104695E-003  0.94079831159784026E-003  0.96448713680216170E-003  0.45734295414497046E-003  0.29964784174609633E-003  0.41869509176104409E-003  0.22297892365038616E-003  0.37820821956676151E-004  0.79203870410574786E-004  0.85436424310758445E-004  0.22943140122657450E-003  0.25451129817682895E-003  0.14160760470527799E-003  0.94454944157113698E-004 -0.11133904098766694E-003 -0.58559659244654038E-004 -0.11412982258516610E-004 
-0.23293469173175190E-004 -0.22892334713782753E-004 -0.61560864696002667E-004 -0.68270417895608711E-004 -0.37512470155800410E-004 -0.25654183329103152E-004  0.23824470100561452E-004  0.12523262235315570E-004  0.24554657176857605E-005  0.50062583498629227E-005  0.48997985556147147E-005  0.13178658008541063E-004  0.14614878304673432E-004  </sparseX_slice>
        <sparseX_slice start="251" end="300">  0.80252863792386252E-005  0.54941996042560128E-005 -0.21636941240126138E-002 -0.93075957595223989E-006 -0.30718437373926146E-006 -0.46138042386979084E-006 -0.16296889374813634E-006 -0.43312914248394568E-006 -0.30157199669142098E-006 -0.60808825887337209E-007 -0.85091396877072343E-008 -0.56360445963467675E-004 -0.25184924875983679E-004 -0.78348357969548998E-005 -0.13042846928036647E-004 -0.65819725421092465E-005 -0.18394041054354402E-004 -0.16992865829097521E-004 -0.68139748038994750E-005 -0.40593903397514176E-005 -0.43679078694333244E-003 -0.20341117904297760E-003 -0.59902139035218705E-004 -0.10516021966656825E-003 -0.62407787162952483E-004 -0.17583657107147598E-003 -0.17531708735541964E-003 -0.78953223878145177E-004 -0.50896944836635805E-004 -0.73142042959819706E-003 -0.34912274697508270E-003 -0.96145171654808567E-004 -0.17330143339628441E-003 -0.11373098542743782E-003 -0.31853087682961648E-003 -0.32655006972034820E-003 -0.15483885695409671E-003 
-0.10145634847737213E-003 -0.14175277704883430E-003 -0.75488216973070661E-004 -0.12808083013943831E-004 -0.26821675993698307E-004 -0.28924705374066417E-004 -0.77677192699906848E-004 -0.86168456583396083E-004 -0.47941181738166312E-004 -0.31979594364727073E-004  0.37694777332052346E-004  0.19825133484954316E-004  0.38652564522692981E-005  </sparseX_slice>
        <sparseX_slice start="301" end="325">  0.78883409156087852E-005  0.77505057161666416E-005  0.20842515336961484E-004  0.23114142196140011E-004  0.12699990806974951E-004  0.86858928179007609E-005 -0.11407013453514345E-004 -0.59958416466510320E-005 -0.11760589300205477E-005 -0.23976193742217874E-005 -0.23460312950384906E-005 -0.63100356969511693E-005 -0.69977044862393769E-005 -0.38424084591662337E-005 -0.26307286080546036E-005  0.27308048275455845E-005  0.14353335778302716E-005  0.28164001676897656E-006  0.57413927335570766E-006  0.56164179677756835E-006  0.15106451536818052E-005  0.16752746174581972E-005  0.91984899955554121E-006  0.62982179831578465E-006  0.00000000000000000E+000  </sparseX_slice>
      </sparseX>
      <sparseX i="7" alpha="19009.214077307915" sparseCutoff="1.0000000000000000" sliced="T">
        <sparseX_slice start="1" end="50">  0.90835401305705277E+000  0.30763022731578808E-002  0.20586333318574849E-002  0.95675935426857894E-003  0.34293003581092370E-003  0.10103410037248460E-003  0.25893030118285552E-004  0.60211388978334057E-005  0.12704100603993792E-005  0.24680630874304971E+000  0.16719754953546981E-001  0.12753546645135880E-001  0.67804886575900808E-002  0.29690100421174096E-002  0.10286202380657584E-002  0.32049952025059003E-003  0.84079923004139176E-004  0.20315936226505970E-004  0.33529523269439032E-001  0.45436333840380198E-001  0.39505773311344611E-001  0.24027650135072475E-001  0.12853972679352571E-001  0.52375134919576335E-002  0.19847091335344104E-002  0.58790365969849643E-003  0.16297586388959288E-003  0.28255115206652648E+000  0.16354133892080139E-001  0.15833277862266446E-001  0.75280361091897511E-002  0.43125900906298134E-002  0.13343527054472809E-002  0.54494957193254730E-003  0.12819805229399807E-003  0.38991179817787999E-004  0.54285419979034556E-001  
0.62855599685804564E-001  0.69371579235506547E-001  0.37746229592485546E-001  0.26428455635020914E-001  0.96316273693948708E-002  0.47921724134341939E-002  0.12825774360883215E-002  0.45137787966611516E-003  0.43944955593600156E-001  0.43508557169320956E-001  0.60988539557782794E-001  0.29807894865167609E-001  0.27363950516771044E-001  </sparseX_slice>
        <sparseX_slice start="51" end="100">  0.90523767769048451E-002  0.59524775250586644E-002  0.15290209726398255E-002  0.70121310928746255E-003  0.36949043878553849E-001 -0.48594049675130396E-002  0.21558203615357368E-002 -0.22559751678071392E-002  0.88795393227536663E-003 -0.28194621919036821E-003  0.18226021042387242E-003 -0.74959379556647237E-005  0.15202771077262920E-004  0.70988716559853499E-002 -0.18665704076440279E-001  0.94685829293388625E-002 -0.11258269761890836E-001  0.54956474074631754E-002 -0.19726227766162403E-002  0.16472974373983077E-002 -0.34104625954028611E-004  0.19721135678535745E-003  0.81269979482546609E-002 -0.18149114223770382E-001  0.12023302316020728E-001 -0.11962226685840667E-001  0.86706985343956051E-002 -0.18728422875379520E-002  0.34251176731443815E-002  0.44151839447524691E-003  0.68151577158685728E-003  0.75148665823836062E-003  0.40229567931766080E-002  0.15767071228648859E-002  0.35688146498016275E-002  0.23672552842692973E-002  0.15944772383486982E-002  
0.18088642691731431E-002  0.94160501355169599E-003  0.69278580707932158E-003  0.31720103189013700E-001 -0.92340189848153333E-003  0.14659151234686458E-002 -0.77497955725977887E-003  0.38262894325460418E-003 -0.17858025950756522E-003  0.49157855339142081E-004 -0.26090250941636058E-004 -0.10199211754231595E-005  0.60942562463468294E-002  </sparseX_slice>
        <sparseX_slice start="101" end="150"> -0.35444118903226935E-002  0.64313996688231288E-002 -0.38633113164304993E-002  0.23693190353349844E-002 -0.12597788735970120E-002  0.45592939329845223E-003 -0.23651456210497604E-003  0.21771825578962920E-005  0.69768845543840396E-002 -0.34172909981282952E-002  0.80916567624209346E-002 -0.40559000020459713E-002  0.37527178140056485E-002 -0.13232980271903425E-002  0.10835254966677886E-002 -0.99294773021569555E-004  0.16859521841664516E-003  0.91236298861327664E-003  0.11538888044120221E-002  0.13435670311778732E-002  0.18551064325159085E-002  0.14841283063724417E-002  0.11259784915678111E-002  0.10632326165883280E-002  0.72707351836343427E-003  0.45475067316377827E-003  0.55383965494655715E-003  0.18163847576106268E-003  0.60097276614849335E-003  0.49247921706505081E-003  0.47003498893076397E-003  0.41056612202439115E-003  0.33655103824158143E-003  0.32335107247254109E-003  0.18024597672473014E-003 -0.80681301414082807E-002  0.21500456206549921E-003 
-0.39176600097217123E-003  0.18003484390446015E-003 -0.97042690673251376E-004  0.47049231642512256E-004 -0.10194357212819434E-004  0.70411916219053397E-005  0.40564794324905038E-006 -0.15500974955102405E-002  0.82527046858296563E-003 -0.17186837734995994E-002  0.89719471626159358E-003 -0.60068036470254489E-003  0.33221581287235918E-003  </sparseX_slice>
        <sparseX_slice start="151" end="200"> -0.95504794581487465E-004  0.64451473341615873E-004  0.12141354663511242E-005 -0.17745973974589086E-002  0.79567303570573372E-003 -0.21609650183508585E-002  0.93876243330056795E-003 -0.94862622199487804E-003  0.35291470752574412E-003 -0.23768661313667896E-003  0.35508397968261711E-004 -0.38071858044623277E-004 -0.23206303221881162E-003 -0.26830363017103922E-003 -0.35493308068338146E-003 -0.43781315259186970E-003 -0.36856916698937682E-003 -0.28634860836977195E-003 -0.25009518775469882E-003 -0.17482855117544014E-003 -0.11010229361846310E-003 -0.19922202459503048E-003 -0.59179169062101446E-004 -0.22432159061815641E-003 -0.16392607863049339E-003 -0.16395097302759502E-003 -0.14732338605751529E-003 -0.11278471247777870E-003 -0.11133974342619472E-003 -0.62116158326917752E-004  0.35831142397678958E-004  0.96821536386114731E-005  0.42014145606399348E-004  0.27392015056207499E-004  0.28724869994654725E-004  0.26564204647408335E-004  0.19039959173388859E-004  
0.19297603437805972E-004  0.10775898451825498E-004  0.24386059821628501E-002 -0.64395061023831207E-004  0.11857420679362300E-003 -0.54078352812179028E-004  0.29271680826686682E-004 -0.14224841813772759E-004  0.30392262705229262E-005 -0.21333968839045969E-005 -0.12616662257953068E-006  0.46851958994641575E-003 -0.24717173477799059E-003  </sparseX_slice>
        <sparseX_slice start="201" end="250">  0.52018480129927620E-003 -0.26949185140528824E-003  0.18118521634134829E-003 -0.10044721408513591E-003  0.28491915415448876E-004 -0.19538228873232718E-004 -0.41098440095368505E-006  0.53637506504308242E-003 -0.23829305900093962E-003  0.65402205331286007E-003 -0.28192246514178673E-003  0.28610926759714366E-003 -0.10677124174444553E-003  0.71123502841978413E-004 -0.10901091890842852E-004  0.11377237095339231E-004  0.70141444013552493E-004  0.80388527974088091E-004  0.10735687161371106E-003  0.13163301510477350E-003  0.11109502893865057E-003  0.86407922934577519E-004  0.75162745405075727E-004  0.52625089819582414E-004  0.33117117345782988E-004  0.60215193910002549E-004  0.17733622075657934E-004  0.67854620537898645E-004  0.49284329906812993E-004  0.49406669220672131E-004  0.44456238856155418E-004  0.33916034477685869E-004  0.33544247203687563E-004  0.18700875983388142E-004 -0.15315965968367393E-004 -0.41037510461658474E-005 -0.17975269545723781E-004 
-0.11648476565328342E-004 -0.12243742502524113E-004 -0.11338420571859640E-004 -0.80998677304955844E-005 -0.82244842024757520E-005 -0.45892662170407304E-005  0.32733928901940825E-005  0.86968813909441598E-006  0.38452752895524094E-005  0.24767783941646724E-005  0.26094124679313237E-005  0.24198104621073980E-005  0.17229254069352344E-005  </sparseX_slice>
        <sparseX_slice start="251" end="300">  0.17526271432439000E-005  0.97725662525395069E-006 -0.82555118731877280E-003  0.21787125272421038E-004 -0.40144740577938581E-004  0.18300129066891121E-004 -0.99081466121617394E-005  0.48156628971426809E-005 -0.10279831971133371E-005  0.72233691533344037E-006  0.42788455574421351E-007 -0.15860983963441228E-003  0.83626904307973626E-004 -0.17611484800194192E-003  0.91196008976478576E-004 -0.61329183538693489E-004  0.34005405534893038E-004 -0.96374767837435262E-005  0.66155752187832288E-005  0.14008181067873991E-006 -0.18158122920774916E-003  0.80622619676952914E-004 -0.22142651745492796E-003  0.95401346032981027E-004 -0.96844225901926407E-004  0.36147741353799501E-004 -0.24062370384542871E-004  0.36939837948829552E-005 -0.38487723448483619E-005 -0.23745267915025801E-004 -0.27198959056176675E-004 -0.36345497470192954E-004 -0.44547305655821134E-004 -0.37602814134855502E-004 -0.29248898002710002E-004 -0.25435941082760788E-004 -0.17810721976446008E-004 
-0.11207779808617163E-004 -0.20384894152905865E-004 -0.60001251383442476E-005 -0.22972162675542863E-004 -0.16678793752439622E-004 -0.16722641719518724E-004 -0.15048352549960522E-004 -0.11478012712913632E-004 -0.11353542090099248E-004 -0.63292893565957755E-005  0.51849761636790921E-005  0.13885064390545903E-005  0.60855713924291757E-005  </sparseX_slice>
        <sparseX_slice start="301" end="325">  0.39421143633211809E-005  0.41441720962529321E-005  0.38380774305911801E-005  0.27412486731845341E-005  0.27837461331262842E-005  0.15532578368267369E-005 -0.15671678156535798E-005 -0.41614593585358893E-006 -0.18410624401792561E-005 -0.11853931570101241E-005 -0.12490547499613666E-005 -0.11583977524405815E-005 -0.82461721306705757E-006 -0.83893021321053876E-006 -0.46776128643741550E-006  0.37514820933621452E-006  0.99562956945494891E-007  0.44073710171824019E-006  0.28366626904360337E-006  0.29894426823623709E-006  0.27727076354340902E-006  0.19733692071099251E-006  0.20078541538107070E-006  0.11194635398695797E-006  0.00000000000000000E+000  </sparseX_slice>
      </sparseX>
      <sparseX i="8" alpha="-128689.33303905318" sparseCutoff="1.0000000000000000" sliced="T">
        <sparseX_slice start="1" end="50">  0.85035143370317245E+000  0.32929890507662072E-007  0.12290641137235681E-006  0.40258052750324475E-007  0.23265845515203001E-007  0.16806564427652909E-007  0.43551093535396341E-008  0.69277583050661348E-009  0.53809686494473289E-009  0.25694480971015995E-001  0.15157701754259780E-005  0.52252969515773167E-005  0.19165867038153507E-005  0.13637964755739173E-005  0.14542974682450711E-005  0.54543837177712844E-006  0.58263381802115289E-007 -0.48536612776204372E-007  0.38819617760552734E-003  0.38152245308474336E-004  0.11445279742485519E-003  0.49294311257039422E-004  0.44340917484122705E-004  0.69772493732077760E-004  0.42282279319716214E-004  0.20352387325003523E-004  0.50301506451309438E-005  0.23168971624939005E+000  0.13558046159497624E-004  0.44052642989813938E-004  0.16952800568698095E-004  0.13089571974056383E-004  0.15480757630590179E-004  0.61641178543795095E-005  0.58850032257365302E-006 -0.76185103734261679E-006  0.49503187153475160E-002  
0.50254772916338961E-003  0.13872609722576298E-002  0.63982205940584349E-003  0.62502285119800415E-003  0.10754826148136726E-002  0.69756074813742512E-003  0.36578972395818424E-003  0.10011329016689870E-003  0.31563493920362277E-001  0.33656454219114984E-002  0.84813486496109810E-002  0.42202206720349314E-002  0.44604958747795362E-002  </sparseX_slice>
        <sparseX_slice start="51" end="100">  0.83304933860454088E-002  0.57777760888926997E-002  0.33061173494650961E-002  0.10064994613075253E-002  0.42467683914842602E+000  0.24889030790362422E-004  0.75059707554028064E-004  0.29598823391114527E-004  0.24196474158223901E-004  0.29861070577321501E-004  0.12048741661149391E-004  0.96207278841861219E-006 -0.17927774780349416E-005  0.90737117678032237E-002  0.94541729982439062E-003  0.23925048411703883E-002  0.11500891610792814E-002  0.11878916636387132E-002  0.21082544542929483E-002  0.13980208202289018E-002  0.75910340208175386E-003  0.21685434301068929E-003  0.81818570578736705E-001  0.90426023633454339E-002  0.20817732064625227E-001  0.10860611549532379E-001  0.12095091967851562E-001  0.23172852332618961E-001  0.16428295735692638E-001  0.97490426842515229E-002  0.31096844660997948E-002  0.10604463670020225E+000  0.12220804685412562E-001  0.25669263770279352E-001  0.14105427976631000E-001  0.16500434345239578E-001  0.32308769129637205E-001  
0.23417111344600387E-001  0.14431072742114224E-001  0.48388274069258389E-002  0.11726032543710585E+000  0.69968259509035698E-005  0.14236337210702597E-004  0.62462330552979715E-005  0.65687550731206934E-005  0.91069964025710142E-005  0.37290210956683752E-005  0.63292664510079067E-007 -0.88698925960800834E-006  0.25054024536601488E-002  </sparseX_slice>
        <sparseX_slice start="101" end="150">  0.28752538375134798E-003  0.48430230567068157E-003  0.27931070169795474E-003  0.35738793944595161E-003  0.67864348064678077E-003  0.47158132607148079E-003  0.27894076364881105E-003  0.88045419624927608E-004  0.22591465623837140E-001  0.28327452398847369E-002  0.43525805557253381E-002  0.27808276983220621E-002  0.37499197363969777E-002  0.75414651638437717E-002  0.55993688054751306E-002  0.36341179857587317E-002  0.12921696986295361E-002  0.41409141364455095E-001  0.55132727089726736E-002  0.77705339118780345E-002  0.53070226305612089E-002  0.73848056929226103E-002  0.14989308715487445E-001  0.11384606877338549E-001  0.76984187366754353E-002  0.28988040249410948E-002  0.80848831298705147E-002  0.13113337320544553E-002  0.13117847192395825E-002  0.11496092269628081E-002  0.17625794081673114E-002  0.35677285376954173E-002  0.28445528088154024E-002  0.21253195387241149E-002  0.91171221811123791E-003 -0.30800077013834623E-001 -0.18089767423830718E-005 
-0.40665244161304215E-005 -0.17563663106579333E-005 -0.17392022312374068E-005 -0.24204257208806816E-005 -0.10042915002260900E-005 -0.34410652954547479E-007  0.22080834363828088E-006 -0.65807926283448833E-003 -0.73888821657068754E-004 -0.13681161688286974E-003 -0.76387295708946234E-004 -0.93157414425892383E-004 -0.17889671145255033E-003  </sparseX_slice>
        <sparseX_slice start="151" end="200"> -0.12471076173168380E-003 -0.73251779389616763E-004 -0.22933895150430836E-004 -0.59339668253163193E-002 -0.72625265546543284E-003 -0.12229576873148387E-002 -0.75311420249963570E-003 -0.97321451598703090E-003 -0.19846510588208124E-002 -0.14775509528978244E-002 -0.95114006040476914E-003 -0.33464834518855168E-003 -0.10876694554170091E-001 -0.14108684702829305E-002 -0.21743506496825745E-002 -0.14270266050633923E-002 -0.19107960574369595E-002 -0.39390113044812059E-002 -0.29982533103861089E-002 -0.20091158814879114E-002 -0.74702864558870430E-003 -0.30032359326669644E-002 -0.47182119282969566E-003 -0.50951989890597195E-003 -0.42639994247175282E-003 -0.63901538675266390E-003 -0.13195813152611748E-002 -0.10527268799110053E-002 -0.77798139799326439E-003 -0.32818509438776338E-003  0.55779569861305243E-003  0.84971079628657370E-004  0.99301875402242127E-004  0.79441682113914330E-004  0.11600354364046688E-003  0.24430829888862532E-003  0.19511887705475568E-003  
0.14268415614732678E-003  0.59264683400795678E-004  0.93117452309476791E-002  0.54650363481942150E-006  0.12344813799480690E-005  0.53278177737780779E-006  0.52607669603317192E-006  0.73220390285874871E-006  0.30400040757711369E-006  0.10677403553634167E-007 -0.66562901935791078E-007  0.19895620502936168E-003  0.22314559241806638E-004  </sparseX_slice>
        <sparseX_slice start="201" end="250">  0.41509482966627938E-004  0.23140226352656940E-004  0.28155134471981118E-004  0.54094492157470560E-004  0.37715088429175028E-004  0.22144599788748104E-004  0.69299648169751170E-005  0.17940080884025565E-002  0.21930031148538638E-003  0.37095394945112149E-003  0.22803239513005679E-003  0.29406808902877294E-003  0.60006166963505133E-003  0.44679188976170175E-003  0.28748784494624818E-003  0.10109115661093364E-003  0.32883362141521619E-002  0.42598459327576930E-003  0.65940204012394585E-003  0.43192973108482685E-003  0.57727643745582433E-003  0.11908760894913629E-002  0.90654194191330231E-003  0.60717893082350735E-003  0.22560640152166232E-003  0.90796421907844509E-003  0.14241209703827674E-003  0.15437621971780307E-003  0.12889933711443191E-003  0.19295916396065384E-003  0.39884848329353701E-003  0.31819625725480039E-003  0.23501628247368713E-003  0.99050215088736273E-004 -0.23848959798787117E-003 -0.36272680353642538E-004 -0.42556588781348658E-004 
-0.33970185881676149E-004 -0.49541998735200877E-004 -0.10443583929687923E-003 -0.83412153046795012E-004 -0.60962802864236739E-004 -0.25300069320009597E-004  0.50983978981767529E-004  0.77421116485197884E-005  0.91190556039287187E-005  0.72631083257270960E-005  0.10579071522457026E-004  0.22321950831587366E-004  0.17829171819253129E-004  </sparseX_slice>
        <sparseX_slice start="251" end="300">  0.13023461228395006E-004  0.54003419865635660E-005 -0.31523804617739561E-002 -0.18500382948741592E-006 -0.41802610305797553E-006 -0.18040469007169164E-006 -0.17810270022562161E-006 -0.24788823907216043E-006 -0.10292364209912089E-006 -0.36205161961684815E-008  0.22529964001565117E-007 -0.67354254001580192E-004 -0.75538177223175579E-005 -0.14055664533112488E-004 -0.78348258846941649E-005 -0.95313966722893783E-005 -0.18313233595419997E-004 -0.12768235122847301E-004 -0.74967571392640426E-005 -0.23459798617017441E-005 -0.60734007491408779E-003 -0.74235866527512176E-004 -0.12560786137716208E-003 -0.77204945253945011E-004 -0.99549826906088015E-004 -0.20314466837537514E-003 -0.15125787419985017E-003 -0.97324105278331671E-004 -0.34221445716113814E-004 -0.11132270671221993E-002 -0.14420012984569849E-003 -0.22327578122237655E-003 -0.14623522486926661E-003 -0.19542137304313868E-003 -0.40315689255648386E-003 -0.30690072011641700E-003 -0.20554819260432521E-003 
-0.76371214467131464E-004 -0.30738047414570848E-003 -0.48206985729145843E-004 -0.52269294127554408E-004 -0.43637043927993082E-004 -0.65319089172605554E-004 -0.13502330040198406E-003 -0.10771998800995930E-003 -0.79557928127283779E-004 -0.33528668765652077E-004  0.80737813415968733E-004  0.12278469997799573E-004  0.14409129200623828E-004  </sparseX_slice>
        <sparseX_slice start="301" end="325">  0.11500292314231812E-004  0.16770666246902124E-004  0.35355083880733979E-004  0.28237925826931444E-004  0.20637319271041339E-004  0.85642087325941377E-005 -0.24409352895305954E-004 -0.37062875578494648E-005 -0.43665256846611990E-005 -0.34773531183867111E-005 -0.50645335631979078E-005 -0.10686845559933446E-004 -0.85359083190473408E-005 -0.62349061552934230E-005 -0.25852469348672390E-005  0.58431738819429152E-005  0.88713313901117245E-006  0.10454233429393563E-005  0.83242495663599709E-006  0.12122756031399677E-005  0.25582143370927219E-005  0.20433291222217646E-005  0.14924625219043451E-005  0.61880358323090392E-006  0.00000000000000000E+000  </sparseX_slice>
      </sparseX>
      <sparseX i="9" alpha="81904.736573644084" sparseCutoff="1.0000000000000000" sliced="T">
        <sparseX_slice start="1" end="50">  0.91165935243009322E+000  0.10187267275584610E-004  0.10525410950007124E-004  0.73616190647463280E-005  0.41911919126880280E-005  0.22658336486872703E-005  0.92623920076676188E-006  0.34524248649813023E-006  0.10517103521559394E-006  0.53007064694202549E-001  0.17484613032081660E-003  0.20367350929408434E-003  0.14689678710213131E-003  0.85281335236561627E-004  0.53950056416196689E-004  0.22388595519286150E-004  0.97608171189289040E-005  0.35720562561834074E-005  0.15410081079110238E-002  0.15086580088665925E-002  0.19773674015282783E-002  0.14783696755829585E-002  0.87772050917130963E-003  0.64835080334599618E-003  0.27492445598077876E-003  0.14249540390207948E-003  0.63485570102404622E-004  0.23413826701832421E+000  0.59801125801465518E-003  0.84993591941391014E-003  0.60540855734043670E-003  0.33541591547211108E-003  0.26412630771034744E-003  0.10554489944402484E-003  0.55265508511949813E-004  0.23900349631479938E-004  0.96262816796105922E-002  
0.74013618316149457E-002  0.11744071038419629E-001  0.87692068273527071E-002  0.50080881892087068E-002  0.45573700228515287E-002  0.18830403980834834E-002  0.11883529115942475E-002  0.62623623257692372E-003  0.30066454063250432E-001  0.18812765660268058E-001  0.35286484357155937E-001  0.26915305576225332E-001  0.15067623802257610E-001  </sparseX_slice>
        <sparseX_slice start="51" end="100">  0.16399988354512791E-001  0.67342216152975164E-002  0.51959566314832119E-002  0.31989328544361024E-002  0.29531983373369652E+000  0.56401469881528184E-003  0.98526162092245980E-003  0.66866946099591016E-003  0.33013029822922759E-003  0.32275925803542787E-003  0.11690155553080057E-003  0.71500999558139861E-004  0.34462168642704127E-004  0.12141679962437932E-001  0.71374861385960758E-002  0.13692352715333143E-001  0.98937385190094006E-002  0.51234327768781996E-002  0.56607041253004201E-002  0.21586497841539257E-002  0.16075050132274159E-002  0.93948688647269615E-003  0.53631189002760482E-001  0.27038233325743496E-001  0.58798551051186580E-001  0.44674045186910871E-001  0.23463098856993596E-001  0.29527400694469293E-001  0.11494092250775622E-001  0.10426080792939047E-001  0.70027951888021606E-002  0.47832451871427366E-001  0.20830764928530327E-001  0.49474753195920804E-001  0.38694795297418490E-001  0.19971461195865032E-001  0.27262173035998032E-001  
0.10386914689223599E-001  0.10940142413712854E-001  0.78778837184396606E-002  0.17067140270130156E-001 -0.94330486942973763E-004 -0.28191844292603239E-004 -0.64691802320802387E-004 -0.83772203544068831E-004 -0.21244016146040202E-004 -0.24416497867789599E-004 -0.46153834967868413E-005  0.92104071595391267E-006  0.70169264425639635E-003  </sparseX_slice>
        <sparseX_slice start="101" end="150"> -0.10429405822050264E-002 -0.34042537841346972E-003 -0.75861284943668590E-003 -0.10737853134570581E-002 -0.27818284780097762E-003 -0.36345597740099900E-003 -0.21172194807851443E-004  0.67330796023791270E-004  0.30994566602301796E-002 -0.26521965296868672E-002 -0.10492849980858808E-002 -0.18034042489078561E-002 -0.30480814141531989E-002 -0.71820069255029186E-003 -0.12648809051660265E-002  0.41238397474423525E-003  0.74283811356959156E-003  0.39093610678016125E-002 -0.11225755735387313E-002 -0.75157794594039352E-003 -0.10902857419885489E-003 -0.11296176522289901E-002  0.41548625268446627E-004 -0.69289183894891929E-003  0.13540543534853609E-002  0.15147075051951777E-002  0.15975664387353199E-003  0.10700109832639936E-002  0.28746946112050581E-003  0.13247487899078823E-002  0.17775734435062883E-002  0.69835538243693792E-003  0.73102935269404195E-003  0.63707455405993374E-003  0.40147263089202752E-003 -0.31375834949263614E-002  0.31116092385364236E-004  
0.12039289067074162E-004  0.19872772362971958E-004  0.23488044583003860E-004  0.59872257927924040E-005  0.66883737545099084E-005  0.13597418278938574E-005 -0.16494210572416222E-006 -0.12899754875649795E-003  0.35165333795234672E-003  0.15118825723068813E-003  0.24025919106225767E-003  0.30389238361018528E-003  0.79996913962978648E-004  </sparseX_slice>
        <sparseX_slice start="151" end="200">  0.99824645794270692E-004  0.90975889995611140E-005 -0.15444763075021722E-004 -0.56979692593243296E-003  0.96943488213268138E-003  0.52159814737184505E-003  0.64670263798684790E-003  0.89165828406520943E-003  0.22380403686387149E-003  0.35058851126859195E-003 -0.83556393072937329E-004 -0.17733182544743626E-003 -0.71868787435403760E-003  0.56272837908180834E-003  0.47429571490234756E-003  0.22979475046191837E-003  0.39784768563333879E-003  0.37453507920397211E-004  0.20301134769286710E-003 -0.31410136508696582E-003 -0.36616974225348883E-003 -0.41534449640462700E-004 -0.43209189175372886E-003 -0.11564053813375133E-003 -0.49803775854549660E-003 -0.66955235800244802E-003 -0.25416478481783428E-003 -0.27221160199057090E-003 -0.22652443151781963E-003 -0.14013501767513029E-003  0.53991823598328078E-005  0.88693729809427124E-004  0.24645146451102614E-004  0.94541485666909292E-004  0.12666239195690911E-003  0.46607058396651680E-004  0.51107869638957414E-004  
0.40527348129912132E-004  0.24646281341278813E-004  0.92520022249376803E-003 -0.95167014516115969E-005 -0.37237621858802021E-005 -0.60626276410925095E-005 -0.71307523352851341E-005 -0.18202151204286353E-005 -0.20279363904159459E-005 -0.41382741747770397E-006  0.48640263610733339E-007  0.38038369657303307E-004 -0.10765310240137233E-003  </sparseX_slice>
        <sparseX_slice start="201" end="250"> -0.46831864421116554E-004 -0.73409865009139541E-004 -0.92307769950356709E-004 -0.24355844660928867E-004 -0.30274473401450516E-004 -0.28135681180665567E-005  0.46342292459887548E-005  0.16801982911416504E-003 -0.29775781842305502E-003 -0.16219989524089229E-003 -0.19874487178428606E-003 -0.27133735440829115E-003 -0.68509471022384336E-004 -0.10640414557035643E-003  0.24836806945404730E-004  0.53336571768377740E-004  0.21192429853457477E-003 -0.17467342666369076E-003 -0.14848605414807147E-003 -0.73165917729077731E-004 -0.12216718139542004E-003 -0.12429858182809991E-004 -0.61837306613184479E-004  0.94276429804873702E-004  0.11021830451660680E-003  0.12247540857686142E-004  0.13125898883508926E-003  0.35126332205517620E-004  0.15074947702507248E-003  0.20268423891741440E-003  0.76798599969447054E-004  0.82344609828462803E-004  0.68345952581285767E-004  0.42236139992255689E-004 -0.22515595137965804E-005 -0.38134731011939401E-004 -0.10617311052254775E-004 
-0.40491579757363356E-004 -0.54237680414681679E-004 -0.19924262819019864E-004 -0.21873140292992263E-004 -0.17298302113900384E-004 -0.10509309569919751E-004  0.46947110750347742E-006  0.81985374225919108E-005  0.22873257091582347E-005  0.86714130833750626E-005  0.11612615479899416E-004  0.42588516683383300E-005  0.46807280923484022E-005  </sparseX_slice>
        <sparseX_slice start="251" end="300">  0.36917833814611291E-005  0.22406582158527548E-005 -0.31271645268548463E-003  0.32241002757049661E-005  0.12624306503189742E-005  0.20535988460171757E-005  0.24146680885853546E-005  0.61643109463928358E-006  0.68665967085875520E-006  0.14015495656354277E-006 -0.16440538285529314E-007 -0.12856918682000412E-004  0.36473222922463402E-004  0.15878400387780967E-004  0.24868591378824020E-004  0.31258981363488748E-004  0.82490739173668987E-005  0.10251101711329013E-004  0.95384817447944323E-006 -0.15681169418132258E-005 -0.56790480226842914E-004  0.10090195195255335E-003  0.55007267725036412E-004  0.67351850604148301E-004  0.91895863735303671E-004  0.23211400701840390E-004  0.36030729468142716E-004 -0.83991495482216917E-005 -0.18050609719584227E-004 -0.71630132877576418E-004  0.59230479262100208E-004  0.50377195710647777E-004  0.24848474421413165E-004  0.41398646000295682E-004  0.42318870722789769E-005  0.20944227594618002E-004 -0.31901576065583417E-004 
-0.37302809453889601E-004 -0.41396526265555954E-005 -0.44449536114954663E-004 -0.11895132257460770E-004 -0.51038328284291463E-004 -0.68621976559151394E-004 -0.25998392044214154E-004 -0.27877832777756464E-004 -0.23134783645074547E-004 -0.14295780309836524E-004  0.76102414055511522E-006  0.12914612581642705E-004  0.35960761546501908E-005  </sparseX_slice>
        <sparseX_slice start="301" end="325">  0.13709450248728806E-004  0.18363303616194798E-004  0.67450720923058822E-005  0.74053605508210584E-005  0.58555143994589762E-005  0.35572016602952347E-005 -0.22440827640229737E-006 -0.39265686728656106E-005 -0.10956229386651256E-005 -0.41520349452690984E-005 -0.55602599589317648E-005 -0.20389775980300804E-005 -0.22411144602972234E-005 -0.17673120968315062E-005 -0.10725695305955320E-005  0.53633837858144312E-007  0.94028625089325036E-006  0.26240038078044146E-006  0.99403615286285382E-006  0.13311597378806337E-005  0.48809283990472404E-006  0.53651849964952916E-006  0.42301943736624615E-006  0.25671150546368487E-006  0.00000000000000000E+000  </sparseX_slice>
      </sparseX>
      <sparseX i="10" alpha="27023.588293903638" sparseCutoff="1.0000000000000000" sliced="T">
        <sparseX_slice start="1" end="50">  0.89422383827082519E+000  0.28155365782335201E-004  0.31391561214598975E-004  0.20946314048902273E-004  0.10928213751423775E-004  0.62414752549097232E-005  0.23051774088978606E-005  0.88340110220616661E-006  0.28570217993243837E-006  0.79619263870112936E-001  0.40124419930218682E-003  0.52080569555789985E-003  0.36353295705091618E-003  0.19445977270591991E-003  0.13079002458271026E-003  0.48693087790446878E-004  0.21198249732895658E-004  0.79402996013995265E-005  0.35445415945726372E-002  0.28753407801300219E-002  0.43472041645590768E-002  0.31817282271283504E-002  0.17503469967704332E-002  0.13821872213060484E-002  0.52452862874326027E-003  0.26107539868094827E-003  0.11422224306111330E-003  0.27836922049753304E+000  0.97177556095325371E-003  0.17434202604399904E-002  0.12230922177715201E-002  0.61621522893201878E-003  0.53969044183002093E-003  0.18719422125090229E-003  0.97260126297897027E-004  0.43394813744539307E-004  0.17525811257446466E-001  
0.10036976867095166E-001  0.20868683392888551E-001  0.15442331352913261E-001  0.80875446873165079E-002  0.81985277704787092E-002  0.29747615665108962E-002  0.17695899742988365E-002  0.92214763795473505E-003  0.43327755089959744E-001  0.18606474639462661E-001  0.51622993745918735E-001  0.39159609953304683E-001  0.20133959157314717E-001  </sparseX_slice>
        <sparseX_slice start="51" end="100">  0.25051944996983704E-001  0.91594225511114659E-002  0.64102372458252873E-002  0.39148770453481399E-002  0.28502204199181380E+000  0.54486468064191375E-003  0.16737826081410102E-002  0.11569446735328836E-002  0.51923871056282743E-003  0.60197315386662019E-003  0.18600558502572222E-003  0.11162520540902797E-003  0.55699831977300404E-004  0.17944665373680488E-001  0.59087792054188393E-002  0.20354744559476567E-001  0.14955549447763802E-001  0.71276007962239041E-002  0.92845030669893372E-002  0.31069085313640736E-002  0.21168990902396090E-002  0.12260946796993852E-002  0.62739119521495579E-001  0.17741359396469265E-001  0.73577668338223920E-001  0.56316821797481986E-001  0.27648750439632355E-001  0.41202514855703039E-001  0.14733883018996540E-001  0.11480512867004487E-001  0.76426591343186669E-002  0.45423506366299535E-001  0.10648950498845908E-001  0.54211678151569485E-001  0.42538483293062444E-001  0.21073299034609236E-001  0.34651846162864076E-001  
0.12774082077001661E-001  0.10738487576837241E-001  0.76554904818012413E-002 -0.18476934094339894E-001 -0.26722682603111424E-003 -0.18805448156115919E-003 -0.15945324353531628E-003 -0.12960702162018601E-003 -0.45416073142447699E-004 -0.37244066473558203E-004 -0.13076165448920846E-004 -0.30104278768896539E-005 -0.11632868712097726E-002  </sparseX_slice>
        <sparseX_slice start="101" end="150"> -0.26357359777344673E-002 -0.21025140311074116E-002 -0.18393693184728930E-002 -0.15302109550914861E-002 -0.60512424174084584E-003 -0.48908708996194211E-003 -0.17194453394257951E-003 -0.27185921344445380E-004 -0.40671471175863722E-002 -0.59148796979786155E-002 -0.62544115960951954E-002 -0.52579301493274654E-002 -0.39923864521241789E-002 -0.19594945739237336E-002 -0.13097171301110788E-002 -0.39280971344977299E-003  0.80490888905778923E-004 -0.41643489695580788E-002 -0.26180925451816926E-002 -0.51358785474779544E-002 -0.39052883164788269E-002 -0.22634121319268156E-002 -0.16190337581585897E-002 -0.60099207489832599E-003 -0.41832377491616379E-006  0.35057277145435857E-003  0.19089017699793433E-003  0.13684610096068657E-002  0.76242089151689696E-003  0.86162427266444513E-003  0.10187567337930125E-002  0.35956926102116151E-003  0.52125246580094246E-003  0.28180290732408825E-003  0.14751502627880232E-003  0.60772962233644661E-002  0.81420356458780099E-004  
0.59571438078333811E-004  0.49946395783288066E-004  0.39701746041023851E-004  0.14646431911982779E-004  0.11367304516173680E-004  0.40441178602177425E-005  0.97016835750523835E-006  0.38261969615718258E-003  0.80403760742462683E-003  0.66902363853802934E-003  0.57913182001027223E-003  0.47060740731152988E-003  0.19753048836337140E-003  </sparseX_slice>
        <sparseX_slice start="151" end="200">  0.15051719593144394E-003  0.54352345780499202E-004  0.99700303336742925E-005  0.13377358868832605E-002  0.18124367416915269E-002  0.20139329904980377E-002  0.16805609754345402E-002  0.12447839078772193E-002  0.66062289538638996E-003  0.41506253941527872E-003  0.13619025030811325E-003 -0.10673272621357998E-004  0.13697067996372679E-002  0.81524354928893584E-003  0.16834060446920282E-002  0.12821162865251606E-002  0.73215800327561394E-003  0.57403071014853764E-003  0.21160176826114582E-003  0.27599391831535237E-004 -0.84035663824207833E-004 -0.88793070488891866E-004 -0.58726153373543080E-003 -0.33341919874922037E-003 -0.37255705448566227E-003 -0.43476416999947356E-003 -0.15434180715660764E-003 -0.21922887975809851E-003 -0.11710031973120394E-003 -0.60192138671819459E-004  0.20651165740525860E-004  0.12603527683899732E-003  0.73027717922004537E-004  0.80660006950308659E-004  0.92834938806097341E-004  0.33234984172184850E-004  0.46145217397711506E-004  
0.24365072796755882E-004  0.12300653436959664E-004 -0.18608772071600549E-002 -0.24825229237608117E-004 -0.18203466331398821E-004 -0.15252640970875152E-004 -0.12108709808744662E-004 -0.44797935486618662E-005 -0.34661287268548896E-005 -0.12340285327329629E-005 -0.29668775329400381E-006 -0.11715872411353845E-003 -0.24516968540314792E-003  </sparseX_slice>
        <sparseX_slice start="201" end="250"> -0.20448679285123099E-003 -0.17690634799713765E-003 -0.14356405488832229E-003 -0.60456570321668057E-004 -0.45917476244004039E-004 -0.16605222830460861E-004 -0.30685714663685819E-005 -0.40961673244273072E-003 -0.55279637724318096E-003 -0.61595877094861560E-003 -0.51378510006331809E-003 -0.38003022099570026E-003 -0.20253468205739272E-003 -0.12682810063331876E-003 -0.41808505442330239E-004  0.30160845408101705E-005 -0.41940627381925730E-003 -0.24887876766159061E-003 -0.51536174938303532E-003 -0.39254022783509083E-003 -0.22398052698700696E-003 -0.17643343016502928E-003 -0.65012459211233391E-004 -0.88909942606250790E-005  0.25228981719901860E-004  0.27188571192447146E-004  0.17901495529317870E-003  0.10174622125941148E-003  0.11361531662179313E-003  0.13248476135700450E-003  0.47047665876508221E-004  0.66747127104872447E-004  0.35627039628378842E-004  0.18293086256494507E-004 -0.89426633327198682E-005 -0.54333813354701979E-004 -0.31518967350918314E-004 
-0.34789886119998567E-004 -0.40008875882933206E-004 -0.14330058112415233E-004 -0.19870121517315088E-004 -0.10484347225094900E-004 -0.52872886144621841E-005  0.19362400284608826E-005  0.11711662970291977E-004  0.68018742113997062E-005  0.75027385242090568E-005  0.86212904710241182E-005  0.30894075303395323E-005  0.42780490786186617E-005  </sparseX_slice>
        <sparseX_slice start="251" end="300">  0.22557307888194863E-005  0.11363455004196169E-005  0.63048278038538188E-003  0.84087734929960615E-005  0.61667114370952265E-005  0.51668668371153129E-005  0.41015243771328726E-005  0.15176905737094643E-005  0.11740476047068594E-005  0.41800930718404707E-006  0.10051248470662923E-006  0.39694482710247048E-004  0.83043960917595749E-004  0.69274208168302259E-004  0.59928513542010972E-004  0.48629449897117172E-004  0.20482667514182927E-004  0.15553635423984831E-004  0.56252063396327685E-005  0.10399939852615336E-005  0.13878201923758380E-003  0.18724642073667590E-003  0.20867754491064048E-003  0.17405812416459155E-003  0.12873392108608809E-003  0.68625981248232869E-004  0.42964923422571749E-004  0.14167377803383120E-004 -0.10165282648518529E-005  0.14209880835296538E-003  0.84306537118649473E-004  0.17460730564847836E-003  0.13299535791022385E-003  0.75882303710508772E-004  0.59791414738734808E-004  0.22031493958715903E-004  0.30216932451074222E-005 
-0.85371405134772098E-005 -0.92117448126955265E-005 -0.60634840698834037E-004 -0.34465200642808089E-004 -0.38484118078612771E-004 -0.44873470403429055E-004 -0.15935686121335222E-004 -0.22606456127357513E-004 -0.12065904194769290E-004 -0.61949407434666506E-005  0.30298588323666235E-005  0.18403628068829343E-004  0.10676701949407787E-004  </sparseX_slice>
        <sparseX_slice start="301" end="325">  0.11784194686573464E-004  0.13551307374821775E-004  0.48538445530055982E-005  0.67297967167705347E-005  0.35507808380385151E-005  0.17905476501849265E-005 -0.92774731308757106E-006 -0.56100514542148077E-005 -0.32584336446028461E-005 -0.35940311739098787E-005 -0.41296399385266902E-005 -0.14798865093589324E-005 -0.20490958421034540E-005 -0.10804007447089177E-005 -0.54422491483201418E-006  0.22226456025325277E-006  0.13436468197353240E-005  0.78047533039735455E-006  0.86082303674681678E-006  0.98905878649633588E-006  0.35444727743184410E-006  0.49073698631283503E-006  0.25873339990851625E-006  0.13032161640768342E-006  0.00000000000000000E+000  </sparseX_slice>
      </sparseX>
      <sparseX i="11" alpha="-7955.9313751528571" sparseCutoff="1.0000000000000000" sliced="T">
        <sparseX_slice start="1" end="50">  0.85978079899725757E+000  0.10401668111369367E-004  0.34531101426599282E-004  0.78599759018552075E-005  0.13281128051868617E-004  0.29012576303563340E-005  0.24800689176698163E-005  0.58070104149210176E-006  0.24175320535615627E-006  0.82375220132440002E-001  0.14072331904394823E-003  0.62955301739382199E-003  0.12597250624595842E-003  0.27555101413682405E-003  0.57681826035748394E-004  0.60823884740738425E-004  0.14605988490163559E-004  0.73186141312186804E-005  0.39461668019231920E-002  0.95699839596662443E-003  0.57427962086515922E-002  0.10282814175850662E-002  0.28656514052920095E-002  0.58786724828680513E-003  0.75142961972469579E-003  0.18978770061409508E-003  0.11375730011382401E-003  0.30122037320900052E+000  0.28143808607849558E-003  0.24069020166067414E-002  0.33641452967532128E-003  0.11655463739234030E-002  0.20989198997985634E-003  0.29965000014876180E-003  0.71554621102311184E-004  0.43838210335686466E-004  0.20406954237671176E-001  
0.27612245500067910E-002  0.31084398868561295E-001  0.40892739160861818E-002  0.17210022247685801E-001  0.31849956837804844E-002  0.52900549705567120E-002  0.13775488923849300E-002  0.99039554160822250E-003  0.52765608014269536E-001  0.42742704392232812E-002  0.84273939337560208E-001  0.92366967339552828E-002  0.51999759676338651E-001  </sparseX_slice>
        <sparseX_slice start="51" end="100">  0.94892935222016441E-002  0.18887666069647351E-001  0.53108207280866109E-002  0.44282443439321740E-002  0.31006369018992891E+000  0.83350505945604660E-004  0.25478227701689936E-002  0.22262431599716234E-003  0.13106081180702641E-002  0.20188425399307223E-003  0.36565484042340018E-003  0.85108571112405075E-004  0.58398236299054555E-004  0.21006067647619090E-001  0.90558477010755137E-003  0.32933905214050499E-001  0.29702253628428764E-002  0.19409603211407920E-001  0.32308940311835958E-002  0.65008274233076396E-002  0.16957497070425960E-002  0.13416448498866375E-002  0.76812608528344706E-001  0.26319885723594884E-002  0.12645293740290175E+000  0.11394127360540835E-001  0.83322215136837088E-001  0.14825241575299783E-001  0.33135191183669852E-001  0.96297434356781963E-002  0.86177181518973956E-002  0.55909303909974201E-001  0.14864105859888688E-002  0.94981170777234475E-001  0.84742315335165196E-002  0.66984751284162217E-001  0.12356103097373124E-001  
0.29243118010360451E-001  0.89535802165379257E-002  0.84603627204098957E-002 -0.32083955916323813E-001 -0.93322528066817797E-004 -0.25220809013790617E-003 -0.85591231462405111E-004 -0.11546327906463272E-003 -0.39671301854663627E-004 -0.25738015628025824E-004 -0.92286149947862846E-005 -0.27863502269174157E-005 -0.21736106796919541E-002  </sparseX_slice>
