<GAP_2025_2_24_-480_15_40_49_103>
<Potential label="GAP_2025_2_24_-480_15_40_49_103" init_args="IP GAP label=GAP_2025_2_24_-480_15_40_49_103"/>
<GAP_params label="GAP_2025_2_24_-480_15_40_49_103" gap_version="1686220958">
  <GAP_data do_core="F">
    <e0 Z="1" value="-.36067000000000002E-001"/>
    <e0 Z="2" value="-.36067000000000002E-001"/>
    <e0 Z="3" value="-.36067000000000002E-001"/>
    <e0 Z="4" value="-.36067000000000002E-001"/>
    <e0 Z="5" value="-.36067000000000002E-001"/>
    <e0 Z="6" value="-.36067000000000002E-001"/>
    <e0 Z="7" value="-.36067000000000002E-001"/>
    <e0 Z="8" value="-.36067000000000002E-001"/>
    <e0 Z="9" value="-.36067000000000002E-001"/>
    <e0 Z="10" value="-.36067000000000002E-001"/>
    <e0 Z="11" value="-.36067000000000002E-001"/>
    <e0 Z="12" value="-.36067000000000002E-001"/>
    <e0 Z="13" value="-.36067000000000002E-001"/>
    <e0 Z="14" value="-.36067000000000002E-001"/>
    <e0 Z="15" value="-.36067000000000002E-001"/>
    <e0 Z="16" value="-.36067000000000002E-001"/>
    <e0 Z="17" value="-.36067000000000002E-001"/>
    <e0 Z="18" value="-.36067000000000002E-001"/>
    <e0 Z="19" value="-.36067000000000002E-001"/>
    <e0 Z="20" value="-.36067000000000002E-001"/>
    <e0 Z="21" value="-.36067000000000002E-001"/>
    <e0 Z="22" value="-.36067000000000002E-001"/>
    <e0 Z="23" value="-.36067000000000002E-001"/>
    <e0 Z="24" value="-.36067000000000002E-001"/>
    <e0 Z="25" value="-.36067000000000002E-001"/>
    <e0 Z="26" value="-.36067000000000002E-001"/>
    <e0 Z="27" value="-.36067000000000002E-001"/>
    <e0 Z="28" value="-.36067000000000002E-001"/>
    <e0 Z="29" value="-.36067000000000002E-001"/>
    <e0 Z="30" value="-.36067000000000002E-001"/>
    <e0 Z="31" value="-.36067000000000002E-001"/>
    <e0 Z="32" value="-.36067000000000002E-001"/>
    <e0 Z="33" value="-.36067000000000002E-001"/>
    <e0 Z="34" value="-.36067000000000002E-001"/>
    <e0 Z="35" value="-.36067000000000002E-001"/>
    <e0 Z="36" value="-.36067000000000002E-001"/>
    <e0 Z="37" value="-.36067000000000002E-001"/>
    <e0 Z="38" value="-.36067000000000002E-001"/>
    <e0 Z="39" value="-.36067000000000002E-001"/>
    <e0 Z="40" value="-.36067000000000002E-001"/>
    <e0 Z="41" value="-.36067000000000002E-001"/>
    <e0 Z="42" value="-.36067000000000002E-001"/>
    <e0 Z="43" value="-.36067000000000002E-001"/>
    <e0 Z="44" value="-.36067000000000002E-001"/>
    <e0 Z="45" value="-.36067000000000002E-001"/>
    <e0 Z="46" value="-.36067000000000002E-001"/>
    <e0 Z="47" value="-.36067000000000002E-001"/>
    <e0 Z="48" value="-.36067000000000002E-001"/>
    <e0 Z="49" value="-.36067000000000002E-001"/>
    <e0 Z="50" value="-.36067000000000002E-001"/>
    <e0 Z="51" value="-.36067000000000002E-001"/>
    <e0 Z="52" value="-.36067000000000002E-001"/>
    <e0 Z="53" value="-.36067000000000002E-001"/>
    <e0 Z="54" value="-.36067000000000002E-001"/>
    <e0 Z="55" value="-.36067000000000002E-001"/>
    <e0 Z="56" value="-.36067000000000002E-001"/>
    <e0 Z="57" value="-.36067000000000002E-001"/>
    <e0 Z="58" value="-.36067000000000002E-001"/>
    <e0 Z="59" value="-.36067000000000002E-001"/>
    <e0 Z="60" value="-.36067000000000002E-001"/>
    <e0 Z="61" value="-.36067000000000002E-001"/>
    <e0 Z="62" value="-.36067000000000002E-001"/>
    <e0 Z="63" value="-.36067000000000002E-001"/>
    <e0 Z="64" value="-.36067000000000002E-001"/>
    <e0 Z="65" value="-.36067000000000002E-001"/>
    <e0 Z="66" value="-.36067000000000002E-001"/>
    <e0 Z="67" value="-.36067000000000002E-001"/>
    <e0 Z="68" value="-.36067000000000002E-001"/>
    <e0 Z="69" value="-.36067000000000002E-001"/>
    <e0 Z="70" value="-.36067000000000002E-001"/>
    <e0 Z="71" value="-.36067000000000002E-001"/>
    <e0 Z="72" value="-.36067000000000002E-001"/>
    <e0 Z="73" value="-.36067000000000002E-001"/>
    <e0 Z="74" value="-.36067000000000002E-001"/>
    <e0 Z="75" value="-.36067000000000002E-001"/>
    <e0 Z="76" value="-.36067000000000002E-001"/>
    <e0 Z="77" value="-.36067000000000002E-001"/>
    <e0 Z="78" value="-.36067000000000002E-001"/>
    <e0 Z="79" value="-.36067000000000002E-001"/>
    <e0 Z="80" value="-.36067000000000002E-001"/>
    <e0 Z="81" value="-.36067000000000002E-001"/>
    <e0 Z="82" value="-.36067000000000002E-001"/>
    <e0 Z="83" value="-.36067000000000002E-001"/>
    <e0 Z="84" value="-.36067000000000002E-001"/>
    <e0 Z="85" value="-.36067000000000002E-001"/>
    <e0 Z="86" value="-.36067000000000002E-001"/>
    <e0 Z="87" value="-.36067000000000002E-001"/>
    <e0 Z="88" value="-.36067000000000002E-001"/>
    <e0 Z="89" value="-.36067000000000002E-001"/>
    <e0 Z="90" value="-.36067000000000002E-001"/>
    <e0 Z="91" value="-.36067000000000002E-001"/>
    <e0 Z="92" value="-.36067000000000002E-001"/>
    <e0 Z="93" value="-.36067000000000002E-001"/>
    <e0 Z="94" value="-.36067000000000002E-001"/>
    <e0 Z="95" value="-.36067000000000002E-001"/>
    <e0 Z="96" value="-.36067000000000002E-001"/>
    <e0 Z="97" value="-.36067000000000002E-001"/>
    <e0 Z="98" value="-.36067000000000002E-001"/>
    <e0 Z="99" value="-.36067000000000002E-001"/>
    <e0 Z="100" value="-.36067000000000002E-001"/>
    <e0 Z="101" value="-.36067000000000002E-001"/>
    <e0 Z="102" value="-.36067000000000002E-001"/>
    <e0 Z="103" value="-.36067000000000002E-001"/>
    <e0 Z="104" value="-.36067000000000002E-001"/>
    <e0 Z="105" value="-.36067000000000002E-001"/>
    <e0 Z="106" value="-.36067000000000002E-001"/>
    <e0 Z="107" value="-.36067000000000002E-001"/>
    <e0 Z="108" value="-.36067000000000002E-001"/>
    <e0 Z="109" value="-.36067000000000002E-001"/>
    <e0 Z="110" value="-.36067000000000002E-001"/>
    <e0 Z="111" value="-.36067000000000002E-001"/>
    <e0 Z="112" value="-.36067000000000002E-001"/>
    <e0 Z="113" value="-.36067000000000002E-001"/>
    <e0 Z="114" value="-.36067000000000002E-001"/>
    <e0 Z="115" value="-.36067000000000002E-001"/>
    <e0 Z="116" value="-.36067000000000002E-001"/>
    <e0 Z="117" value="-.36067000000000002E-001"/>
    <e0 Z="118" value="-.36067000000000002E-001"/>
  </GAP_data>
  <gpSparse label="GAP_2025_2_24_-480_15_40_49_103" n_coordinate="1" fitted="T">
    <gpCoordinates label="GAP_2025_2_24_-480_15_40_49_1031" dimensions="325" signal_variance=".20000000000000001" signal_mean=".00000000000000000E+000" sparsified="T" n_permutations="1" covariance_type="2" zeta="4.0000000000000000" n_sparseX="200">
      <descriptor> soap l_max=8 n_max=8 atom_sigma=0.5 cutoff=3.5 radial_scaling=-0.5 cutoff_transition_width=1.0 central_weight=1.0 n_sparse=200 delta=0.2 covariance_type=dot_product zeta=4 sparse_method=cur_points } n_species=1 Z=4 species_Z={4 }</descriptor>
      <permutation i="1">1  </permutation>
      <sparseX i="1" alpha="76531.836686221548" sparseCutoff="1.0000000000000000" sliced="T">
        <sparseX_slice start="1" end="50">  0.37914781709072265E+000  0.49886534675434955E-003  0.74209097512201798E-004  0.16413971037078042E-003  0.15089530482853858E-004  0.60666778507493780E-004  0.39584324849339329E-004  0.57553386862624656E-005  0.64714324267274180E-006  0.28710792382811734E+000  0.60857302863887280E-002  0.69661974726364191E-003  0.19987343478654754E-002  0.20846574747391511E-003  0.10451779585144705E-002  0.76087636176264606E-003  0.12315799473118009E-003  0.13939632445182425E-004  0.10870557103216542E+000  0.37178211385611039E-001  0.32873833954431735E-002  0.12235119086661778E-001  0.15023175765167083E-002  0.90275151694915907E-002  0.73261503083273203E-002  0.13253412181807630E-002  0.15337539828636494E-003  0.55396842324211237E+000  0.12789585685471972E-001  0.66415766824801993E-003  0.30403416767055100E-002  0.30285133471816440E-003  0.24673698395181417E-002  0.19261397881278662E-002  0.34811958911101928E-003  0.33747758155887518E-004  0.29662423496414642E+000  
0.11063408670498383E+000  0.45195638517956773E-002  0.26504404856013068E-001  0.34862040975000260E-002  0.30338200717978669E-001  0.26360964564571560E-001  0.53846060415870664E-002  0.57050538591635357E-003  0.40469837899122280E+000  0.16477942718971006E+000  0.36337642653610576E-002  0.29004615318217800E-001  0.54572788145522038E-002  </sparseX_slice>
        <sparseX_slice start="51" end="100">  0.51867090280000493E-001  0.48096964182332821E-001  0.11434993456500005E-001  0.13739203859186447E-002  0.22350129585096346E+000  0.63936779729844078E-002 -0.61008620258472159E-003 -0.43420542118493543E-004 -0.48311179481992215E-004  0.13977888018539832E-002  0.12138853719990592E-002  0.25730568419893074E-003  0.17826617122253800E-004  0.11967451232561084E+000  0.55428029768573153E-001 -0.39345588398100430E-002 -0.10297025543009476E-003  0.19600497222800468E-003  0.17431198364369058E-001  0.16774664776382151E-001  0.40761248710351776E-002  0.36191977368572420E-003  0.23090933893895838E+000  0.11696214582572885E+000 -0.24969022908940880E-002  0.48733996881496200E-003  0.38128155336220279E-002  0.43702714115571660E-001  0.44433113031856160E-001  0.13009432244390143E-001  0.17774417080108496E-002  0.65875137605113987E-001  0.41645370034582782E-001  0.40438861505230229E-002  0.70733334298742740E-003  0.43354483248296350E-002  0.19758297197747479E-001  
0.21496034904288169E-001  0.79687928016761184E-002  0.15169996143814650E-002 -0.47662099209198040E-001 -0.12602535130620946E-002  0.68822230706012277E-004 -0.14991299869205279E-003 -0.17722421769384247E-004 -0.32663346511989833E-003 -0.28865836583756777E-003 -0.58154619326279266E-004 -0.67666868010662878E-005 -0.25520829566371698E-001  </sparseX_slice>
        <sparseX_slice start="101" end="150"> -0.10954057017545147E-001  0.42931327407512101E-003 -0.13638690050498878E-002 -0.28236923495947801E-003 -0.40304170933446485E-002 -0.39487873115808267E-002 -0.89828709897009677E-003 -0.11192259038355354E-003 -0.49241879242515926E-001 -0.23159771217220383E-001  0.27429481068907112E-003 -0.22299767721864505E-002 -0.93306371822919241E-003 -0.97977878973023423E-002 -0.10174450602202354E-001 -0.26885014827022491E-002 -0.35691474983906330E-003 -0.19866879336602458E-001 -0.11698968539836156E-001 -0.60196960394217724E-003 -0.20257104541213775E-003 -0.83645286211363721E-003 -0.58912281030204915E-002 -0.66259796059562788E-002 -0.21502792510913796E-002 -0.30099201834660183E-003  0.29957652380257120E-002  0.16514419818649639E-002  0.55908228956499817E-004  0.11362258763369355E-003  0.11379896903208528E-003  0.93858992585669858E-003  0.10802021731838233E-002  0.32010153406301261E-003  0.50305936781004101E-004  0.14161291616178925E-001  0.37192717862799719E-003 
-0.15500612594435781E-004  0.49563961639519289E-004  0.65068001153897772E-005  0.89312223362288438E-004  0.78532769068407699E-004  0.16033551111970787E-004  0.17974613494668427E-005  0.75827107024787690E-002  0.32275813691739143E-002 -0.96134356307490631E-004  0.44887236216837819E-003  0.94130991871859692E-004  0.11024360799338992E-002  </sparseX_slice>
        <sparseX_slice start="151" end="200">  0.10760338323888691E-002  0.24806483496656094E-003  0.29705310119324187E-004  0.14630673496381846E-001  0.68155684911009361E-002 -0.52712780561626137E-004  0.72885793163414317E-003  0.28217028252618364E-003  0.26859906149727447E-002  0.27838474018557222E-002  0.74476093666870247E-003  0.94540083576197679E-004  0.59028174683244420E-002  0.34357253311179062E-002  0.15084431410582514E-003  0.59226127836371573E-004  0.22967756224309167E-003  0.16236720433611177E-002  0.18269787991155634E-002  0.59870276465415477E-003  0.79893936441504624E-004 -0.12587876536370155E-002 -0.68394898197844450E-003 -0.18976202180431443E-004 -0.50211796209837879E-004 -0.44618145104939476E-004 -0.36198512350194380E-003 -0.41675408505818524E-003 -0.12406655007488377E-003 -0.18143649247448100E-004  0.26446437404975705E-003  0.14186404776335139E-003  0.32892989512531312E-005  0.11290068760812657E-004  0.90588476769847124E-005  0.70046864427819540E-004  0.80680831206207033E-004  
0.24305337788562768E-004  0.33740092530159460E-005 -0.38862071922269935E-002 -0.10204249965780189E-003  0.42246915420141323E-005 -0.13633623330589808E-004 -0.17908211171161914E-005 -0.24486747787868891E-004 -0.21530013508103167E-004 -0.43964381366756674E-005 -0.49284552834381136E-006 -0.20808825682879901E-002 -0.88550451397223604E-003  </sparseX_slice>
        <sparseX_slice start="201" end="250">  0.26194350964887869E-004 -0.12345987081638710E-003 -0.25876898848522760E-004 -0.30225474959996935E-003 -0.29500094109644780E-003 -0.68018735406326193E-004 -0.81433666249037942E-005 -0.40150171403719502E-002 -0.18698568279382508E-002  0.14300485862835005E-004 -0.20043908407254326E-003 -0.77459526833381775E-004 -0.73642472203575796E-003 -0.76322489885960877E-003 -0.20419834483726502E-003 -0.25902707657037265E-004 -0.16198784914221867E-002 -0.94256753060413935E-003 -0.41212593507334890E-004 -0.16245937422402054E-004 -0.62949449370774691E-004 -0.44517868133268218E-003 -0.50090968697499914E-003 -0.16414005839195811E-003 -0.21876104456204081E-004  0.34544233433211874E-003  0.18762925492140224E-003  0.51827609647439719E-005  0.13796991850095534E-004  0.12233962238494831E-004  0.99240161137758537E-004  0.11425442633055028E-003  0.34012949432325706E-004  0.49700024410205953E-005 -0.10263730960693080E-003 -0.55039465111824075E-004 -0.12709605967824073E-005 
-0.43884334567263303E-005 -0.35144523028505256E-005 -0.27159198972147310E-004 -0.31281916823955114E-004 -0.94244370705635708E-005 -0.13074899507106938E-005  0.19916514958205666E-004  0.10676925344042580E-004  0.24554675607209644E-006  0.85289272666576461E-006  0.68173486761535951E-006  0.52652066200682445E-005  0.60643814991925711E-005  </sparseX_slice>
        <sparseX_slice start="251" end="300">  0.18271735878643328E-005  0.25333945166564284E-006  0.11555454222672405E-002  0.30341504405925797E-004 -0.12557593045006423E-005  0.40543756845166782E-005  0.53257033528325794E-006  0.72806854114731248E-005  0.64015353442445510E-005  0.13072077512166187E-005  0.14653922916512581E-006  0.61874064019807305E-003  0.26329725218618601E-003 -0.77859764349499673E-005  0.36714395206595119E-004  0.76950507637992277E-005  0.89869899765460465E-004  0.87712893788778140E-004  0.20224220163843789E-004  0.24212682480191320E-005  0.11938464542397764E-002  0.55598559591930722E-003 -0.42497257972477847E-005  0.59605971873573870E-004  0.23032599888122669E-004  0.21896245728731322E-003  0.22693057731429007E-003  0.60714719516704025E-004  0.77014370289082266E-005  0.48166324717221533E-003  0.28026383222435881E-003  0.12251636072265212E-004  0.48305456284826755E-005  0.18716519559587449E-004  0.13236592493588370E-003  0.14893638259136108E-003  0.48803917477888137E-004  
0.65040306681767840E-005 -0.10271565265310582E-003 -0.55789733262992281E-004 -0.15407007448720033E-005 -0.41027371517444669E-005 -0.36375570248708834E-005 -0.29507160351801075E-004 -0.33971352494898502E-004 -0.10113088856122021E-004 -0.14776737652776835E-005  0.30518721057213986E-004  0.16365468056514787E-004  0.37783068179433852E-006  </sparseX_slice>
        <sparseX_slice start="301" end="325">  0.13049826095183949E-005  0.10449872038705705E-005  0.80752824682080439E-005  0.93010908175404839E-005  0.28021886302380998E-005  0.38874736756360144E-006 -0.83750886913884640E-005 -0.44896805055823676E-005 -0.10323203827698541E-006 -0.35867797801417849E-006 -0.28667114457242305E-006 -0.22139672492058112E-005 -0.25500109645746184E-005 -0.76831053001681529E-006 -0.10652389636280547E-006  0.17609032186558353E-005  0.94396234910915003E-006  0.21700253961669321E-007  0.75419738803906356E-007  0.60272952516910893E-007  0.46547565363724016E-006  0.53612688499939051E-006  0.16153393321349639E-006  0.22395526189288483E-007  0.00000000000000000E+000  </sparseX_slice>
      </sparseX>
      <sparseX i="2" alpha="-37780.905045430620" sparseCutoff="1.0000000000000000" sliced="T">
        <sparseX_slice start="1" end="50">  0.38531528713931162E+000  0.52114644341253943E-003  0.60586077307740334E-004  0.19348692862531042E-003  0.37561398179217376E-004  0.46095448153083767E-004  0.35888056863464152E-004  0.68874024581187190E-005  0.76205555761220038E-006  0.27818745570833781E+000  0.60685872828927078E-002  0.60582000792562193E-003  0.24777037309333715E-002  0.52996880931986809E-003  0.79021259570898322E-003  0.68336263896170318E-003  0.14312702520583064E-003  0.17002289168775362E-004  0.10042199608537525E+000  0.35536080043002884E-001  0.31385186503676186E-002  0.15954486194675870E-001  0.37737603985329321E-002  0.67917839171124416E-002  0.65155957555702321E-002  0.14951014277637302E-002  0.19461858772566737E-003  0.54810046733174211E+000  0.12876062260752524E-001  0.45411198149377757E-003  0.39106010147113958E-002  0.84422907123267064E-003  0.18469431320989930E-002  0.16883865554143738E-002  0.37455703601331383E-003  0.47582671792453866E-004  0.27981209124654594E+000  
0.10730044095077214E+000  0.36776953895106346E-002  0.35993755206344895E-001  0.87145259642589304E-002  0.22605660277148068E-001  0.22886404606057401E-001  0.56466489240988684E-002  0.84652289270451962E-003  0.38982896904977787E+000  0.16314586485279836E+000  0.30409294097632901E-002  0.41582787834668615E-001  0.11266989105380971E-001  </sparseX_slice>
        <sparseX_slice start="51" end="100">  0.38688283243070852E-001  0.41080934801954523E-001  0.11492809501161159E-001  0.24210116918183520E-002  0.25439304743937696E+000  0.74645271443268659E-002 -0.94561873014011543E-003 -0.13938212109115703E-003 -0.53325556890388752E-004  0.10106305467337503E-002  0.99939242507400571E-003  0.24131448964933799E-003  0.38766391044076319E-004  0.12987080808217999E+000  0.62851170504732420E-001 -0.64943334738583568E-002 -0.67718909436659605E-003 -0.17196003859262717E-003  0.12571411798177796E-001  0.13710772125857413E-001  0.37979967067216713E-002  0.79086546334175805E-003  0.25587872185446059E+000  0.13670859742859154E+000 -0.32873421323081271E-002  0.10816426318197958E-002  0.27908619313857120E-002  0.32473809334287979E-001  0.36548954147893851E-001  0.12584337325790717E-001  0.42091043772612552E-002  0.83977751137206957E-001  0.58331878222208519E-001  0.95272883005485288E-002  0.24253563424288076E-002  0.39686172776325105E-002  0.15593248786123287E-001  
0.18008305927415917E-001  0.84990345006492867E-002  0.43826451586985483E-002 -0.21202744859734789E-001 -0.19323741898836806E-004 -0.19978713781819445E-003 -0.72104553472395199E-003 -0.17555019897961172E-003 -0.26880641979332479E-003 -0.28082573646294288E-003 -0.67687044308624563E-004  0.27428864621499545E-006 -0.10824264405851125E-001  </sparseX_slice>
        <sparseX_slice start="101" end="150"> -0.37362770924652183E-003 -0.17399558175982153E-002 -0.67369530391173807E-002 -0.18248660876251212E-002 -0.32868790041369971E-002 -0.37832633814466180E-002 -0.97724047104406951E-003  0.31127727483024350E-004 -0.21326570474800622E-001 -0.13422572299521443E-002 -0.17091311596251792E-002 -0.11437005277306284E-001 -0.33474372087018748E-002 -0.78166334182761758E-002 -0.92948243908714274E-002 -0.23243103002695510E-002  0.41937456371044960E-003 -0.98984247923135735E-002 -0.13104281554800498E-002  0.27791707082706484E-002 -0.79936007733534932E-003 -0.49322724241811981E-003 -0.43158557072620306E-002 -0.52461432257817735E-002 -0.94413158602132084E-003  0.93330301334502758E-003  0.58336173594959349E-003  0.13769941532528208E-003  0.12288100126572983E-002  0.17739362907798842E-002  0.63340751005793437E-003  0.97477598102224260E-003  0.13369938708693051E-002  0.65262048045784172E-003  0.28015783622333988E-003  0.80560218997124504E-002  0.91796527184057774E-004  
0.46436132535452218E-004  0.18711001317482686E-003  0.46190041798169963E-004  0.69211366034749723E-004  0.72435769460391610E-004  0.17584081418563358E-004  0.90640937942872355E-006  0.41126991660128571E-002  0.80928176779947885E-003  0.39939789031028737E-003  0.17414757209277115E-002  0.47851935612237286E-003  0.84566912815461969E-003  </sparseX_slice>
        <sparseX_slice start="151" end="200">  0.97497262583888034E-003  0.25394444263852450E-003  0.85358991814317430E-005  0.81030696698627253E-002  0.18536235946226191E-002  0.39295693872745528E-003  0.29161250963813910E-002  0.83252651049361558E-003  0.19805561034149598E-002  0.23802619212328312E-002  0.60692507000575577E-003 -0.46638391946970061E-004  0.37609247022997129E-002  0.12068195981106726E-002 -0.62098736686221946E-003  0.14665361129187517E-003  0.50742364561591896E-004  0.10571417971985398E-002  0.13333163510163178E-002  0.26953694670054339E-003 -0.15772748780286199E-003 -0.31345953713038356E-003 -0.50546455256570432E-004 -0.37520179153761792E-003 -0.61841651751781473E-003 -0.21550295872445335E-003 -0.34121693707405738E-003 -0.46672951856354354E-003 -0.20538300255896862E-003 -0.72873166324761803E-004  0.84216083574672744E-004  0.16522373380890583E-004  0.57612318894362966E-004  0.10932699173545013E-003  0.38335159795794006E-004  0.61233059502266112E-004  0.82962417695498750E-004  
0.33627789400756183E-004  0.10312260450547331E-004 -0.22273247581847872E-002 -0.25929811574375292E-004 -0.12642870529097789E-004 -0.51155995538707638E-004 -0.12631236215519985E-004 -0.18925668468533293E-004 -0.19810804567730790E-004 -0.48122335289047624E-005 -0.25750897950574721E-006 -0.11370769331887401E-002 -0.22810534989392404E-003  </sparseX_slice>
        <sparseX_slice start="201" end="250"> -0.10870532234627219E-003 -0.47606580315258954E-003 -0.13084227165684426E-003 -0.23123752174325965E-003 -0.26664144928060889E-003 -0.69500499253983243E-004 -0.24985167341869684E-005 -0.22403325012840002E-002 -0.52126519337760292E-003 -0.10697536532169501E-003 -0.79682122064023554E-003 -0.22724801077424905E-003 -0.54129863518449512E-003 -0.65085008624440823E-003 -0.16616745275348544E-003  0.12137478840117543E-004 -0.10398185118389387E-002 -0.33829726624535399E-003  0.16880616564206172E-003 -0.39578216520157990E-004 -0.13219229643289283E-004 -0.28864420727312760E-003 -0.36453868376101382E-003 -0.74081390346817896E-004  0.42304842403012642E-004  0.86665130312588558E-004  0.13817219210676919E-004  0.10185585789567849E-003  0.16874829044256811E-003  0.58714983926645225E-004  0.93126999120829814E-004  0.12740697218179513E-003  0.55851175169846060E-004  0.19651526426699848E-004 -0.32928575632937171E-004 -0.64861599273875970E-005 -0.22123013906427477E-004 
-0.42210531174262307E-004 -0.14794510302261398E-004 -0.23655402368580081E-004 -0.32048832617821683E-004 -0.12953083492529509E-004 -0.39478496590722116E-005  0.64375535360335527E-005  0.12735126073612541E-005  0.42476382110369878E-005  0.81487815094516816E-005  0.28549553533284738E-005  0.45693981765981602E-005  0.61904747848125929E-005  </sparseX_slice>
        <sparseX_slice start="251" end="300">  0.24948603656729416E-005  0.75580898168271787E-006  0.66253241969504192E-003  0.77211541597933778E-005  0.37577979941048360E-005  0.15208134622619288E-004  0.37551738448832699E-005  0.56264522139516589E-005  0.58896486151130825E-005  0.14306984885707206E-005  0.76700087337753636E-007  0.33823102318447483E-003  0.67916076716422852E-004  0.32309582420140455E-004  0.14152849520470239E-003  0.38898225304481620E-004  0.68744964803498640E-004  0.79270981616278189E-004  0.20662862990942277E-004  0.74525429074937384E-006  0.66640165855597782E-003  0.15518401503017689E-003  0.31795763670701142E-004  0.23687977920770900E-003  0.67552927551635888E-004  0.16091963988973832E-003  0.19349225273460315E-003  0.49403397525169393E-004 -0.35991377344264360E-005  0.30930086515708495E-003  0.10069756553972353E-003 -0.50169674578305454E-004  0.11758460721252907E-004  0.39201568141191983E-005  0.85805255291470725E-004  0.10837372973099955E-003  0.22029516968592651E-004 
-0.12564507238291473E-004 -0.25779113835191241E-004 -0.41076802238643213E-005 -0.30269796675519585E-004 -0.50162165036399089E-004 -0.17452269068269393E-004 -0.27683236079828909E-004 -0.37873797418528881E-004 -0.16599463769643553E-004 -0.58381160934128107E-005  0.97948217075361522E-005  0.19297351727457981E-005  0.65746477537660342E-005  </sparseX_slice>
        <sparseX_slice start="301" end="325">  0.12547835722538189E-004  0.43978310388524783E-005  0.70321962104325253E-005  0.95273561631335169E-005  0.38500817277871055E-005  0.11730642327120956E-005 -0.27080672275704417E-005 -0.53583957281826612E-006 -0.17852166664365737E-005 -0.34257534569920200E-005 -0.12001997961446813E-005 -0.19210353807778997E-005 -0.26025536721503978E-005 -0.10487197690683861E-005 -0.31760844119646347E-006  0.56959744629631581E-006  0.11272925720497510E-006  0.37514949125022166E-006  0.72009461276624500E-006  0.25227710905233920E-006  0.40381436475429080E-006  0.54707322837328519E-006  0.22041581014049043E-006  0.66733241674668764E-007  0.00000000000000000E+000  </sparseX_slice>
      </sparseX>
      <sparseX i="3" alpha="-2985.3532423745669" sparseCutoff="1.0000000000000000" sliced="T">
        <sparseX_slice start="1" end="50">  0.62389832652423782E+000  0.48464634970635653E-002  0.38169441334217923E-002  0.52976905097809157E-003  0.34283643558155819E-003  0.15440149076816659E-003  0.30456368912356610E-004  0.13733991288571795E-004  0.10318834810840809E-005  0.40503043803947547E+000  0.20322781587844823E-001  0.25993140084392390E-001  0.29738209964176874E-002  0.31205642733913076E-002  0.17436243998754182E-002  0.37932842472350377E-003  0.22854324294553549E-003  0.18376252317589170E-004  0.13147146639451371E+000  0.42733893724094328E-001  0.89332071344090616E-001  0.96221552082667618E-002  0.14963831958082425E-001  0.10104481607604536E-001  0.24532802877021819E-002  0.19151097854123401E-002  0.16989039295090756E-003  0.49849801573243735E+000  0.16200061424787030E-001  0.35462733638977048E-001  0.26266388182223195E-002  0.43827168339235396E-002  0.27894062113648392E-002  0.54008567445702261E-003  0.44222300161059290E-003  0.30156852806814737E-004  0.22883490890246805E+000  
0.48569510374484211E-001  0.17378133966727280E+000  0.15329630779331539E-001  0.31258829687073296E-001  0.23698629245605667E-001  0.51839099399995604E-002  0.53237756684907369E-002  0.44756627375479481E-003  0.19915125680299720E+000  0.28297599750926994E-001  0.17058859265365958E+000  0.16400545126147015E-001  0.34536161092007966E-001  </sparseX_slice>
        <sparseX_slice start="51" end="100">  0.29464216675091772E-001  0.60501316877994739E-002  0.78102254944764117E-002  0.87585619789678972E-003  0.58056241953614598E-001 -0.38448407557537053E-002  0.46096305674777930E-002 -0.15309353737072652E-002 -0.21739926954374007E-003  0.34231393292268562E-003 -0.88857545452698030E-004  0.13846821928805168E-003 -0.34882008708013117E-005  0.26650647383530922E-001 -0.10832559070392019E-001  0.24194257945912529E-001 -0.30342533560760374E-002  0.53882718352936875E-003  0.42914541575946718E-002 -0.53969703127618076E-003  0.18097504251315239E-002  0.61055140255285241E-004  0.32800731972099872E-001 -0.71418740049793506E-002  0.36729620579132941E-001  0.46415715543826749E-002  0.50996265648097904E-002  0.11746909349774036E-001  0.70335843993723319E-003  0.49363701302124023E-002  0.10471004666047638E-002  0.27011830986580611E-002  0.31542712387092899E-002  0.76366399991243316E-002  0.92139312247686376E-002  0.55955270814538960E-002  0.75495686057479010E-002  
0.24426902990768839E-002  0.32527020167530370E-002  0.16186740558015926E-002  0.24219170703301932E-001  0.45751109257798532E-002  0.60412999190458767E-003  0.27380463289180558E-003 -0.30834463454495331E-003 -0.79641524624145387E-004 -0.34882461269249470E-004 -0.32181345419610974E-004 -0.88385156189670421E-005  0.11117780907192466E-001  </sparseX_slice>
        <sparseX_slice start="101" end="150">  0.13810757977814041E-001  0.32668877318915122E-002  0.68590573542557883E-003 -0.24385207406869679E-002 -0.54535111126873361E-003 -0.56452199577154726E-003 -0.35826933519854132E-003 -0.10644672911751315E-003  0.13683395619376294E-001  0.11594416361562792E-001  0.54827022747448049E-002  0.67358799959495337E-003 -0.33160263417005469E-002 -0.64841462468981498E-004 -0.76692224718193276E-003 -0.22007494856060464E-003  0.81230791639929560E-004  0.15936001784446982E-002 -0.16997286843344053E-002  0.27476448330210467E-002  0.11760064974244767E-002  0.15120700048568852E-002  0.19055596012133198E-002  0.10599431991732179E-002  0.10965267981575991E-002  0.82669562350377000E-003  0.47008318873322950E-003  0.24097390684154844E-002  0.70377176692376978E-003  0.11840294155656560E-002  0.11611487353579046E-002  0.62262418250360219E-003  0.94179718984154957E-003  0.53136154520656126E-003  0.42375599370355488E-003 -0.57662053441831776E-002 -0.12006948206086073E-002 
-0.11964091205292517E-003 -0.83094860922364107E-004  0.75406068481622041E-004  0.22892515743639595E-004  0.79166403058227914E-005  0.93250588003254296E-005  0.21460658845326791E-005 -0.26469695625775812E-002 -0.36177989586127315E-002 -0.65004887366339767E-003 -0.20234254725616003E-003  0.61680129220871354E-003  0.17395670971915469E-003  </sparseX_slice>
        <sparseX_slice start="151" end="200">  0.13608512317816351E-003  0.10636763050889839E-003  0.26838704564499672E-004 -0.32578022556430156E-002 -0.30203846686437368E-002 -0.11159388452561230E-002 -0.13345218003024854E-003  0.87673630440604370E-003  0.11903638641771455E-003  0.19793497497719518E-003  0.10218084268389563E-003 -0.95771039496071786E-005 -0.37941125144249033E-003  0.47217121617905536E-003 -0.61110794090867406E-003 -0.18519815783609182E-003 -0.31214725108336523E-003 -0.38348733558337468E-003 -0.23295299154332209E-003 -0.22774916945713362E-003 -0.18059348737162141E-003 -0.15827800002592097E-003 -0.88430843899456877E-003 -0.23019556081130369E-003 -0.41407983509191693E-003 -0.40066440696229428E-003 -0.20397855503087963E-003 -0.32245746433579481E-003 -0.17575439278033216E-003 -0.13892493189371032E-003  0.26646268035786236E-004  0.16244798807255840E-003  0.37779471806390030E-004  0.73052883724433453E-004  0.69476400789701662E-004  0.33775260710285040E-004  0.55354008988412905E-004  
0.29260838746837854E-004  0.22847977408640409E-004  0.15687676072666701E-002  0.32820243091197661E-003  0.32217413351426892E-004  0.22854893026701156E-004 -0.20542447782888525E-004 -0.62823348260585781E-005 -0.21486410528266778E-005 -0.25599356818913616E-005 -0.58451079148819829E-006  0.72014086549683281E-003  0.98881820177772043E-003  </sparseX_slice>
        <sparseX_slice start="201" end="250">  0.17509688634852330E-003  0.55591113817424408E-004 -0.16830714803303703E-003 -0.47934394633871160E-004 -0.37048883014197028E-004 -0.29228890657521367E-004 -0.73230778724631013E-005  0.88632546787267147E-003  0.82532009473811410E-003  0.30099682827658278E-003  0.35936397050547432E-004 -0.23972918861511210E-003 -0.33809808304785072E-004 -0.54063990325285557E-004 -0.28481674052900075E-004  0.24734054371458312E-005  0.10322353186674516E-003 -0.12939398642054930E-003  0.16566178795363184E-003  0.49072823983797826E-004  0.84263513162315378E-004  0.10337017397667342E-003  0.63115543808086745E-004  0.61512829721405057E-004  0.48918775690263122E-004  0.43061490974146281E-004  0.24159335507078732E-003  0.62532683426401277E-004  0.11286753488745818E-003  0.10913996707051392E-003  0.55418569268328139E-004  0.87806655691592011E-004  0.47777327114530525E-004  0.37749994502374278E-004 -0.10252266785904677E-004 -0.62767407086607632E-004 -0.14516451387535127E-004 
-0.28172490680963377E-004 -0.26770933304916636E-004 -0.12984547896210602E-004 -0.21319544481244217E-004 -0.11252909493165150E-004 -0.87815816470626939E-005  0.19723019769260308E-005  0.12126211700666471E-004  0.27889400991575261E-005  0.54324061027142040E-005  0.51578063636275128E-005  0.24959588291878702E-005  0.41056286760206095E-005  </sparseX_slice>
        <sparseX_slice start="251" end="300">  0.21638161778719167E-005  0.16876075949017036E-005 -0.46626054096496122E-003 -0.97569947194551987E-004 -0.95704267445307512E-005 -0.67965796445759338E-005  0.61059292170472592E-005  0.18680250756939080E-005  0.63852866091432315E-006  0.76119915196450509E-006  0.17373499670664346E-006 -0.21403633524952784E-003 -0.29396040426939006E-003 -0.52014607898180518E-004 -0.16530726763652886E-004  0.50030919125370100E-004  0.14256039825434668E-004  0.11011852011355763E-004  0.86916679562631007E-005  0.21768493886345988E-005 -0.26342881520952110E-003 -0.24535171654069022E-003 -0.89420947491318322E-004 -0.10675175399878846E-004  0.71269293141002749E-004  0.10070440551633656E-004  0.16071851234482407E-004  0.84755445052254789E-005 -0.73312251012650028E-006 -0.30679534422794337E-004  0.38471988458007168E-004 -0.49227993458359450E-004 -0.14565177777999673E-004 -0.25034297010689119E-004 -0.30708478203694441E-004 -0.18754870568585096E-004 -0.18275679046173478E-004 
-0.14536122517161668E-004 -0.12798501182304351E-004 -0.71820370450233111E-004 -0.18584177701551997E-004 -0.33549097407882989E-004 -0.32440027799827322E-004 -0.16470044005564278E-004 -0.26098605816504394E-004 -0.14199528277762282E-004 -0.11219146883692348E-004  0.30471227449945949E-005  0.18659416107292789E-004  0.43142054427481192E-005  </sparseX_slice>
        <sparseX_slice start="301" end="325">  0.83742639794540710E-005  0.79573129918901404E-005  0.38590348674481187E-005  0.63368116907176367E-005  0.33444479502609113E-005  0.26098733846019421E-005 -0.82900749667807222E-006 -0.50980496551236138E-005 -0.11721812083679594E-005 -0.22836476386773378E-005 -0.21681195828618197E-005 -0.10490711004673356E-005 -0.17257889921141738E-005 -0.90948462106042145E-006 -0.70930554596008149E-006  0.17422621829431413E-006  0.10716500379141815E-005  0.24633171936196963E-006  0.47999419816971923E-006  0.45569204663651390E-006  0.22046642833994032E-006  0.36271518107678025E-006  0.19113507000800405E-006  0.14906141996986331E-006  0.00000000000000000E+000  </sparseX_slice>
      </sparseX>
      <sparseX i="4" alpha="-6316.2008674642984" sparseCutoff="1.0000000000000000" sliced="T">
        <sparseX_slice start="1" end="50">  0.33520536802281053E+000  0.54892514923834165E-003  0.26071836378859225E-003  0.13627228299384917E-003  0.56111057069547647E-004  0.52524835611649686E-004  0.14160039809143893E-004  0.44987390829558114E-005  0.15725784643662789E-005  0.22953617422273656E+000  0.50566489312507384E-002  0.22302580349739683E-002  0.15460436159920295E-002  0.71617988055902473E-003  0.84959453188646744E-003  0.25321191662383807E-003  0.91328265258051639E-004  0.38525354399088521E-004  0.78588919365433843E-001  0.25309361172225181E-001  0.97278434209587400E-002  0.96402716278428183E-002  0.50129211092929098E-002  0.69935375114482771E-002  0.23421843127310977E-002  0.94630098529954222E-003  0.47806714640918744E-003  0.51271026261845276E+000  0.91362349730753044E-002  0.27726593050622864E-002  0.25616217502078911E-002  0.95286197013366995E-003  0.18529375601803045E-002  0.56866538881494692E-003  0.24706182398462372E-003  0.14920613314981017E-003  0.24825453266226374E+000  
0.73826565144411299E-001  0.17406721166692164E-001  0.24721754703130528E-001  0.10993916865444682E-001  0.22207422955162009E-001  0.81098590902729095E-002  0.38524020473907883E-002  0.26993260578329070E-002  0.39210561415650491E+000  0.12699925932027878E+000  0.17545545095564798E-001  0.35243734226934824E-001  0.16217300059678579E-001  </sparseX_slice>
        <sparseX_slice start="51" end="100">  0.39057004110591410E-001  0.17306740095877817E-001  0.93407336763149263E-002  0.81856311567560201E-002  0.32967432124001816E+000  0.38170058644414308E-002 -0.73934912837568252E-003  0.36549282316967948E-003 -0.43724163879963835E-003  0.83053527311088057E-003  0.27703715029234215E-003  0.18348235180918847E-003  0.16661288995045606E-003  0.15962845005717297E+000  0.42667931510986280E-001 -0.42661797393609580E-002  0.62005682647357880E-002 -0.19812344982246453E-002  0.10796417654147364E-001  0.49220639618158821E-002  0.31497950821376269E-002  0.30889573866953197E-002  0.35655880746174251E+000  0.13472574121863792E+000 -0.35615032155691278E-003  0.19275626963289366E-001  0.74323594336698634E-002  0.35507715742709826E-001  0.21310412284833345E-001  0.13334402334005095E-001  0.14001360881019045E-001  0.16211726966984419E+000  0.92439468192675331E-001  0.76235680381646128E-002  0.11537822718678627E-001  0.14212066276993047E-001  0.25374730488703316E-001  
0.18450284995500894E-001  0.11362526110623534E-001  0.12480226972763554E-001 -0.23141005776196755E-001 -0.14269957549058044E-003 -0.18765336841689920E-003 -0.26160961882750811E-003 -0.29037405337021551E-003 -0.31122493787569738E-003 -0.79130567430272904E-004 -0.19747884968436734E-004 -0.37344082655221196E-005 -0.11204885084540749E-001  </sparseX_slice>
        <sparseX_slice start="101" end="150"> -0.15069143240388856E-002 -0.13128538015835288E-002 -0.31617698266060762E-002 -0.35858246313164414E-002 -0.37232081305542653E-002 -0.10078374126661304E-002 -0.26870290956263772E-003 -0.52012882549047775E-004 -0.25028122881972377E-001 -0.47003910469858709E-002 -0.20709009755554438E-002 -0.69567735317695011E-002 -0.61935574048373561E-002 -0.67209159382605726E-002 -0.17841869299779893E-002 -0.50061238111642509E-003 -0.92553445139161120E-005 -0.16093162209952314E-001 -0.45224570638533442E-002 -0.84418756434329105E-004 -0.27160467041145719E-002  0.90229673699206701E-003  0.55943072688958046E-004  0.23224713030779143E-003  0.33147038399945116E-004  0.26928021238428030E-003  0.79877322892026416E-003  0.13830647293619814E-003  0.33531704254218160E-003  0.13537225669340311E-002  0.22884347998907593E-002  0.20489603936299566E-002  0.70977405033107713E-003  0.20729029643504700E-003  0.15338048235969193E-003  0.72021675418437554E-002  0.55326603717589814E-004  
0.48866427126824140E-004  0.74872777903061855E-004  0.80452740701768795E-004  0.86663073003778390E-004  0.22740923433469626E-004  0.61617907040183300E-005  0.15640999416865864E-005  0.34872926633542209E-002  0.55824819702302367E-003  0.34451517805173594E-003  0.89038548105308413E-003  0.98139804238530325E-003  0.10368624254176711E-002  </sparseX_slice>
        <sparseX_slice start="151" end="200">  0.29312388280050398E-003  0.84886850188067354E-004  0.23848124475070878E-004  0.77894943719012287E-002  0.16710425581839519E-002  0.54295845343396362E-003  0.19346093261368258E-002  0.16830589624634322E-002  0.19097018734925977E-002  0.55510125314914922E-003  0.17169683768230191E-003  0.42670108983148315E-004  0.50086695295399677E-002  0.15545797859173292E-002  0.22039129806131278E-004  0.73567438710096214E-003 -0.25426272849475237E-003  0.76414424375570591E-004  0.17165211996517118E-004  0.25221200099734049E-004 -0.23194805059183084E-004 -0.35157621642530176E-003 -0.61802466831522958E-004 -0.11952513808328953E-003 -0.51532718329641157E-003 -0.86488673063198486E-003 -0.77672309074853206E-003 -0.26582342871773443E-003 -0.75850603440746659E-004 -0.54415207127494430E-004  0.77372295089943045E-004  0.14298904715805703E-004  0.21394791127949201E-004  0.98325795478469965E-004  0.16360664011429472E-003  0.14756169384937473E-003  0.50108942309921650E-004  
0.14105598586665804E-004  0.98452408842681527E-005 -0.19820924266772894E-002 -0.15303143477658400E-004 -0.13317454225368078E-004 -0.20522380897853203E-004 -0.22032196502979163E-004 -0.23739875863970033E-004 -0.62367744422948822E-005 -0.16964801387191271E-005 -0.43437040790312621E-006 -0.95973001703764441E-003 -0.15438132710868040E-003  </sparseX_slice>
        <sparseX_slice start="201" end="250"> -0.93977135879947835E-004 -0.24400089708890812E-003 -0.26868018770944937E-003 -0.28404862165740721E-003 -0.80438608036495371E-004 -0.23389328232247981E-004 -0.66380738294125676E-005 -0.21437293304396362E-002 -0.46190753590375004E-003 -0.14817828515958800E-003 -0.52998919874938796E-003 -0.46076224851475731E-003 -0.52362280391610313E-003 -0.15276709415840196E-003 -0.47507470391372647E-004 -0.12133174840099266E-004 -0.13784247429057997E-002 -0.42954342600033674E-003 -0.60905646773205167E-005 -0.20141264060342663E-003  0.69491885876914349E-004 -0.22007684543130349E-004 -0.57107021339515155E-005 -0.74396358588946423E-005  0.57847762445947085E-005  0.96756504472825824E-004  0.17023501598798792E-004  0.32599154496900202E-004  0.14099648337613887E-003  0.23657895486183357E-003  0.21247435078018017E-003  0.72668809285774940E-004  0.20712901501580425E-004  0.14840221303762408E-004 -0.30113494751090080E-004 -0.55769115016866786E-005 -0.82541418391737689E-005 
-0.38050213100261168E-004 -0.63292192686851057E-004 -0.57091008291605046E-004 -0.19378060741688243E-004 -0.54516100982170255E-005 -0.38005355770277086E-005  0.58601245127197976E-005  0.10876117198713466E-005  0.15922532012797868E-005  0.73623969093875342E-005  0.12242500559222436E-004  0.11044177251525680E-004  0.37469779815626835E-005  </sparseX_slice>
        <sparseX_slice start="251" end="300">  0.10535253872282129E-005  0.73358652157920364E-006  0.58945148247647073E-003  0.45521326695082806E-005  0.39584810863289610E-005  0.61018643489563398E-005  0.65504773751783699E-005  0.70583005351520608E-005  0.18544177020022188E-005  0.50452437612665981E-006  0.12923579573352228E-006  0.28541266477081074E-003  0.45922468592472427E-004  0.27935103685428207E-004  0.72547377269392249E-004  0.79881168791209406E-004  0.84453136433498057E-004  0.23918028274533418E-004  0.69561373662189932E-005  0.19752152149085573E-005  0.63752043792136956E-003  0.13739646479738669E-003  0.44047691636236788E-004  0.15757606653075666E-003  0.13698880125687088E-003  0.15569012734530265E-003  0.45431159627661091E-004  0.14132028889284283E-004  0.36141447706546026E-005  0.40992765889840088E-003  0.12776707408218587E-003  0.18116495363526823E-005  0.59881988217548487E-004 -0.20658771898747965E-004  0.65595734991344635E-005  0.17131715042979624E-005  0.22199877600687727E-005 
-0.17113041267182809E-005 -0.28774271185908842E-004 -0.50628200695878382E-005 -0.96901672397657494E-005 -0.41918293016848694E-004 -0.70334092043612242E-004 -0.63168049548524696E-004 -0.21603515423224568E-004 -0.61573412887998034E-005 -0.44112734062232007E-005  0.89554068643174681E-005  0.16586864400036325E-005  0.24535904559908273E-005  </sparseX_slice>
        <sparseX_slice start="301" end="325">  0.11312404348065822E-004  0.18816584739870986E-004  0.16973079478043011E-004  0.57609364583487803E-005  0.16206686918438837E-005  0.11297646582667149E-005 -0.24645975007453597E-005 -0.45746764712739970E-006 -0.66935667473815381E-006 -0.30955097693048019E-005 -0.51472567132812241E-005 -0.46434564588656837E-005 -0.15753577876528357E-005 -0.44292513214205476E-006 -0.30839721473540098E-006  0.51826892308309500E-006  0.96209275748933750E-007  0.14069319338268653E-006  0.65075144640964338E-006  0.10820604690352527E-005  0.97615637618477432E-006  0.33116717749085247E-006  0.93107719569081377E-007  0.64824563693308130E-007  0.00000000000000000E+000  </sparseX_slice>
      </sparseX>
      <sparseX i="5" alpha="-1821.9114296676773" sparseCutoff="1.0000000000000000" sliced="T">
        <sparseX_slice start="1" end="50">  0.57373648087281492E+000  0.52456872943824461E-003  0.32964531092223256E-003  0.38737660557566805E-003  0.13072522662582419E-003  0.38344292843099824E-004  0.22658463934229716E-004  0.63025861877891827E-005  0.95758552757381915E-006  0.24327254823544997E+000  0.53380682418114151E-002  0.31119214640256639E-002  0.41172956843909918E-002  0.16333012565488191E-002  0.60082890690382317E-003  0.40333159649577182E-003  0.12313000622329097E-003  0.20090766391488729E-004  0.51575535718887490E-001  0.27257949501927597E-001  0.14911198817384121E-001  0.22003835814809896E-001  0.10306611505773319E-001  0.47866916655992034E-002  0.36386817843584076E-002  0.12210404405363594E-002  0.21750645447534387E-003  0.51568568642702761E+000  0.11642180511630993E-001  0.38157270857664691E-002  0.53899921192366923E-002  0.24557039700738828E-002  0.13717821794128802E-002  0.98461911231562788E-003  0.29820155612955408E-003  0.49070668738721147E-004  0.15461467730248180E+000  
0.83935477440547260E-001  0.26930380254892732E-001  0.41655096126195251E-001  0.22843519086075400E-001  0.16371651289576114E-001  0.13238159208481247E-001  0.44523246430542606E-002  0.85667288276309174E-003  0.23175424262821626E+000  0.12959200132357160E+000  0.27605792406579063E-001  0.43132248134147462E-001  0.30063623439284971E-001  </sparseX_slice>
        <sparseX_slice start="51" end="100">  0.33624009811414314E-001  0.28872279269542941E-001  0.10191336541632293E-001  0.25072253022124600E-002  0.35262090223563591E+000  0.77377306858332096E-002 -0.16004491504892761E-002 -0.14883402948464208E-002 -0.21912657061195977E-003  0.77024954833140955E-003  0.60973312988941888E-003  0.16580928908166184E-003  0.31391325741939395E-004  0.10572402617381499E+000  0.55064279133373042E-001 -0.94058781742144808E-002 -0.94904940480663499E-002 -0.31637320511953984E-003  0.10560902101053369E-001  0.92874014113943758E-002  0.29116966596385513E-002  0.69883894185265741E-003  0.22411228642413683E+000  0.12198151969051046E+000 -0.48426214325208326E-002 -0.25291005941784164E-002  0.12129291082394534E-001  0.42551937020401845E-001  0.39284047584435849E-001  0.14119299977328364E-001  0.44365977768051961E-002  0.10836115955561638E+000  0.62079830732543383E-001  0.11433317010416791E-001  0.16084510470830080E-001  0.17394664057658566E-001  0.38021787679418467E-001  
0.36819163449517536E-001  0.14309037715110100E-001  0.50989526171170731E-002  0.41989178637356420E-001  0.10979067538905629E-003 -0.67426436295193082E-003 -0.34633048644879016E-003 -0.30871652501018014E-003 -0.12649610456390279E-003 -0.10600010962903908E-003 -0.52720588019196570E-004 -0.13002667846062110E-005  0.12589341678634703E-001  </sparseX_slice>
        <sparseX_slice start="101" end="150"> -0.16009910932055216E-004 -0.53800014912344278E-002 -0.25020610245911506E-002 -0.29636947666151774E-002 -0.12076258148104421E-002 -0.99169163447407273E-003 -0.62863349751936953E-003  0.35626199127143222E-005  0.26686707367112133E-001  0.17456089957726413E-002 -0.91027724925755952E-002 -0.25392771185615668E-002 -0.49098596424402823E-002  0.98141192774375572E-004  0.15379544552709269E-002  0.20083922781090419E-004  0.42628125207209983E-003  0.18248113292981771E-001  0.80633030535686920E-002  0.33177576149251003E-003  0.24631741719836576E-002  0.10052421126901551E-002  0.61907990911134530E-002  0.80961341054297999E-002  0.33863273262606628E-002  0.14001151304737750E-002  0.15364990561151615E-002  0.51446351771612256E-002  0.32152611537609867E-002  0.36896435972885960E-003  0.21479931317519452E-002  0.29631880739103642E-002  0.26135157336370373E-002  0.17481222907269156E-002  0.74018310910346026E-003 -0.80972275743922042E-002  0.18234140975216380E-005  
0.15398214844167591E-003  0.98933963616187586E-004  0.84242779212078566E-004  0.34306029834222217E-004  0.28607694045611387E-004  0.13727597646893364E-004  0.60516928357098904E-006 -0.24277389530309675E-002  0.19819729288954346E-003  0.12403156271297020E-002  0.74374652902369149E-003  0.80055544689233130E-003  0.33165890306790266E-003  </sparseX_slice>
        <sparseX_slice start="151" end="200">  0.28290403618666738E-003  0.16664102329984643E-003  0.35514251217801669E-005 -0.51462864903594249E-002  0.22065295913367258E-004  0.21266953242140584E-002  0.91491895302310512E-003  0.12908877212076193E-002  0.57887124457674299E-004 -0.21564765203631106E-003  0.43446112928057202E-004 -0.89931428796277392E-004 -0.35189811025526552E-002 -0.15741553546432918E-002 -0.34292244612649739E-004 -0.41896355091616621E-003 -0.29720404429925493E-003 -0.14549714824634034E-002 -0.17839293106273696E-002 -0.76627605403210678E-003 -0.31842761479518729E-003 -0.41903110450845066E-003 -0.16701609948192187E-002 -0.10587152801857247E-002 -0.12307243177554840E-003 -0.74732780057212107E-003 -0.10065250092564637E-002 -0.88656441342032982E-003 -0.58958892799939775E-003 -0.23743784779367016E-003  0.57138683504798632E-004  0.27180165309423956E-003  0.17538593931493927E-003  0.23729504968693985E-004  0.13166630583430535E-003  0.17190394585566053E-003  0.15137333469471915E-003  
0.10004530741397479E-003  0.38661446778797153E-004  0.21819722749711417E-002 -0.84883043341500823E-006 -0.41911754511476375E-004 -0.27158182652413674E-004 -0.23058243211424607E-004 -0.93933598159685730E-005 -0.78255012579280471E-005 -0.37486227518259800E-005 -0.17014237096362582E-006  0.65420652164128697E-003 -0.56435329426279669E-004  </sparseX_slice>
        <sparseX_slice start="201" end="250"> -0.33766645925389661E-003 -0.20441861013276855E-003 -0.21906434613948824E-003 -0.90901708085046248E-004 -0.77553208664088308E-004 -0.45541128897866132E-004 -0.10486039985517313E-005  0.13867776764154593E-002 -0.11522921618514653E-004 -0.57912668855667209E-003 -0.25289889518005805E-003 -0.35319085419366776E-003 -0.17323030795722888E-004  0.56784476420412585E-004 -0.12442928327987643E-004  0.24253330773170623E-004  0.94826520946505902E-003  0.42443244059760845E-003  0.90652851302405060E-005  0.11232425818101223E-003  0.80884590366087119E-004  0.39482617490022742E-003  0.48348178764187703E-003  0.20791007555973670E-003  0.86424013736524611E-004  0.11291695138710545E-003  0.45415500765521487E-003  0.28818913146106334E-003  0.33519837543262570E-004  0.20357584104949660E-003  0.27384556712336508E-003  0.24118377995553517E-003  0.16041579541722865E-003  0.64500350401976324E-004 -0.21774997322156197E-004 -0.10453616862483736E-003 -0.67531791307863122E-004 
-0.91853388118494930E-005 -0.50744324832420233E-004 -0.66154274389944269E-004 -0.58249679345435948E-004 -0.38501680946036838E-004 -0.14859561629899474E-004  0.41491199945137807E-005  0.20102665236484105E-004  0.13001562562852840E-004  0.17780480652862897E-005  0.97786144689121455E-005  0.12729257997253064E-004  0.11207563546651103E-004  </sparseX_slice>
        <sparseX_slice start="251" end="300">  0.74085831269471832E-005  0.28556966754552200E-005 -0.64819633532151055E-003  0.25764495145512577E-006  0.12457106002735460E-004  0.80754901346533834E-005  0.68553560433266578E-005  0.27927569189658123E-005  0.23264978719435389E-005  0.11143558508175704E-005  0.50652785243422186E-007 -0.19434448124549291E-003  0.16811613604005245E-004  0.10036302065016066E-003  0.60787709040029698E-004  0.65128312268896170E-004  0.27027525959689718E-004  0.23058844194940856E-004  0.13538592780294758E-004  0.31291924336279017E-006 -0.41196866617843194E-003  0.35086588741361454E-005  0.17213332007824704E-003  0.75225686838548356E-004  0.10500380918085937E-003  0.51727700808975463E-005 -0.16848527732869562E-004  0.37076965999815546E-005 -0.72051780383799911E-005 -0.28170020340715144E-003 -0.12608938015692525E-003 -0.26904191650416271E-005 -0.33359393166799983E-004 -0.24040238221593046E-004 -0.11733235358090032E-003 -0.14366957599846531E-003 -0.61785295587797408E-004 
-0.25683306050044019E-004 -0.33544126533764921E-004 -0.13497812163280681E-003 -0.85656471051395286E-004 -0.99631540981953968E-005 -0.60509573893558773E-004 -0.81390974442842570E-004 -0.71683038242736599E-004 -0.47678072662905281E-004 -0.19168977901043806E-004  0.64686768148985871E-005  0.31069094707057623E-004  0.20072243625272832E-004  </sparseX_slice>
        <sparseX_slice start="301" end="325">  0.27308558059859850E-005  0.15083237603331264E-004  0.19662207707992179E-004  0.17312766342938644E-004  0.11443392064685824E-004  0.44162434985607030E-005 -0.17431242158112142E-005 -0.84494957189090909E-005 -0.54651034765381877E-005 -0.74759382853977577E-006 -0.41105484529802533E-005 -0.53504783908826257E-005 -0.47108504227992213E-005 -0.31140484801485063E-005 -0.12002577067523538E-005  0.36615981651110663E-006  0.17757341668419186E-005  0.11486064283538738E-005  0.15716582097349679E-006  0.86395722732992004E-006  0.11244810793039703E-005  0.99005069555102292E-006  0.65446374252668712E-006  0.25223593338335674E-006  0.00000000000000000E+000  </sparseX_slice>
      </sparseX>
      <sparseX i="6" alpha="2167.1710124223696" sparseCutoff="1.0000000000000000" sliced="T">
        <sparseX_slice start="1" end="50">  0.50525674322596403E+000  0.61385189295898226E-003  0.25753712512386966E-003  0.15537310194028251E-003  0.93488700658590605E-004  0.34132639766942119E-004  0.10733094695097079E-004  0.41591184653125756E-005  0.13752214725883914E-005  0.20926357796115896E+000  0.61808962686078633E-002  0.20900124614204626E-002  0.15967361246409031E-002  0.12405168695973456E-002  0.50898130297256374E-003  0.19194935474994618E-003  0.92284589851052360E-004  0.33232138483044730E-004  0.43335636434565568E-001  0.33232610628955349E-001  0.93216821393942318E-002  0.84671576290082998E-002  0.84330112874095257E-002  0.39904205739695088E-002  0.18198293618243372E-002  0.10558433952816680E-002  0.41881326666429934E-003  0.50683189302651743E+000  0.11945821696029920E-001  0.15552908848867413E-002  0.26867189680338621E-002  0.25890727619583467E-002  0.88268085562715631E-003  0.45252378381834977E-003  0.33335068604219446E-003  0.12548791581866044E-003  0.14843300027708112E+000  
0.10127314703314327E+000  0.14466945926423296E-001  0.21084431535486260E-001  0.25504460892314524E-001  0.11101373048080483E-001  0.70104213098149152E-002  0.57258311745499047E-002  0.24667831836751556E-002  0.25420597669684175E+000  0.17997110734157715E+000  0.26033701943829594E-001  0.30177561185484758E-001  0.40479149340476854E-001  </sparseX_slice>
        <sparseX_slice start="51" end="100">  0.20233801985406554E-001  0.18051834623486408E-001  0.17310300044092442E-001  0.87506887017537970E-002  0.37000310847044776E+000  0.53981382921077957E-002 -0.26126272156417208E-002  0.69172447351197920E-003  0.12476504393845510E-002  0.80116851946277580E-004  0.24850857196213183E-003  0.34691296696051161E-003  0.13192110793015376E-003  0.10836072523802565E+000  0.59065841059239094E-001 -0.87593425881229391E-002  0.65846502965343327E-002  0.12845963692702314E-001  0.31814869871410884E-002  0.50643940728453624E-002  0.62430658340382646E-002  0.28215704716153360E-002  0.26244735007019987E+000  0.19065770316488501E+000  0.26908424382712570E-001  0.21896124613715585E-001  0.32328005030449462E-001  0.18472281577326232E-001  0.25954939688086834E-001  0.28831471170471971E-001  0.16066127027443297E-001  0.13547795463718099E+000  0.13093117954092909E+000  0.49576976305638044E-001  0.16458592818875822E-001  0.16270358750083681E-001  0.16972027583316614E-001  
0.23414085484636759E-001  0.25210295000592808E-001  0.15785472741875427E-001 -0.33319050913500209E-001 -0.89044899352525931E-003 -0.84286607796289561E-004 -0.43176932709171021E-004 -0.19464575103766150E-003 -0.16279415420553383E-003 -0.67090067265850113E-004 -0.22590787540847134E-004 -0.13365915567820855E-004 -0.97579626726783351E-002  </sparseX_slice>
        <sparseX_slice start="101" end="150"> -0.77211361690571389E-002 -0.13329099804485903E-002 -0.67615584221710325E-003 -0.22461415405902047E-002 -0.21224032641609116E-002 -0.10363626801112244E-002 -0.38915785295342420E-003 -0.19857257641466586E-003 -0.23633576094133347E-001 -0.19397693841853254E-001 -0.35907085752251602E-002 -0.12944927557237505E-002 -0.51182047345972505E-002 -0.52573612547299970E-002 -0.32204906541353135E-002 -0.14965581707179678E-002 -0.42836491191242023E-003 -0.17253248541414683E-001 -0.14348444875933270E-001 -0.23281847350267080E-002 -0.77038409797057728E-005 -0.24129676931743194E-002 -0.28582954293053481E-002 -0.25318371285326189E-002 -0.15162661018038664E-002 -0.84900881294355178E-004  0.10986089435326217E-002  0.11361351647051416E-002  0.54471366917387392E-003  0.44843207079415712E-003  0.84970624080730366E-003  0.99271657283450687E-003  0.60479063930637175E-003  0.21491609735650651E-003  0.15415124579635031E-003  0.10218326253958392E-001  0.27609707669805356E-003  
0.25481597731442737E-004  0.55191274233974392E-005  0.50594379124437075E-004  0.44597082101268411E-004  0.18796326850303100E-004  0.62832384281880696E-005  0.35860709572624365E-005  0.29925836249727789E-002  0.23982746019334559E-002  0.42236164451808572E-003  0.14618868810920794E-003  0.58807077098284918E-003  0.57395783298459801E-003  </sparseX_slice>
        <sparseX_slice start="151" end="200">  0.28255121643824967E-003  0.10544254275023890E-003  0.53693483362840140E-004  0.72479732902523053E-002  0.60390986028967799E-002  0.11788418317035749E-002  0.28948566835929941E-003  0.13326649690988302E-002  0.13895988270310332E-002  0.84033316373353950E-003  0.38922052793708431E-003  0.12119976429716437E-003  0.52912468303643670E-002  0.44815062230198167E-002  0.81310391964651196E-003 -0.20592842187848383E-004  0.61575235425770261E-003  0.72031409736958061E-003  0.62527006559535048E-003  0.38309379488450179E-003  0.36175273222949933E-004 -0.47648065246156713E-003 -0.49987614631097398E-003 -0.24338204775549446E-003 -0.17601005893577937E-003 -0.31339966258829821E-003 -0.36474777268564193E-003 -0.22017165986036049E-003 -0.75448937305544283E-004 -0.53708536671701973E-004  0.10332785542422593E-003  0.10997148858231445E-003  0.54746538312433035E-004  0.35623247600184843E-004  0.58633450116612317E-004  0.67713288506170242E-004  0.40700069017620761E-004  
0.13773313376177340E-004  0.98143828865969172E-005 -0.28070608386008885E-002 -0.75848477414683317E-004 -0.69896056264158193E-005 -0.14834232025928436E-005 -0.13854882467525918E-004 -0.12220173211804708E-004 -0.51533130614588861E-005 -0.17236968316238774E-005 -0.98265093567248077E-006 -0.82208808870682022E-003 -0.65888577561132159E-003  </sparseX_slice>
        <sparseX_slice start="201" end="250"> -0.11601658173424545E-003 -0.39888672022341700E-004 -0.16105254204307835E-003 -0.15723353269100039E-003 -0.77425980599533429E-004 -0.28912749766361796E-004 -0.14719700033297274E-004 -0.19910797009843962E-002 -0.16592888040189641E-002 -0.32409812729724294E-003 -0.79071702714081195E-004 -0.36494635183575421E-003 -0.38052125242379355E-003 -0.23009623720634840E-003 -0.10666349273572958E-003 -0.33306488048925969E-004 -0.14535503560706110E-002 -0.12314852377017685E-002 -0.22386101135627627E-003  0.56855630824977453E-005 -0.16860100110357081E-003 -0.19708934306030760E-003 -0.17105254125391448E-003 -0.10495711082931001E-003 -0.10097275445580541E-004  0.13089327416588781E-003  0.13733748884379603E-003  0.66863715049490701E-004  0.48233524477315470E-004  0.85784741770255669E-004  0.99825689194993217E-004  0.60245196772570382E-004  0.20631908870054781E-004  0.14680503773676080E-004 -0.40142505359716981E-004 -0.42728974569282773E-004 -0.21273132309756820E-004 
-0.13814144199210891E-004 -0.22704544997054513E-004 -0.26214479935104028E-004 -0.15754707684884518E-004 -0.53305875221289875E-005 -0.37972795868303353E-005  0.77976104794733662E-005  0.83010852666293884E-005  0.41331137266550719E-005  0.26784880828832652E-005  0.43959568295414683E-005  0.50743562616832055E-005  0.30492886074648496E-005  </sparseX_slice>
        <sparseX_slice start="251" end="300">  0.10315459806767117E-005  0.73461529252725812E-006  0.83470932537661746E-003  0.22554373934170576E-004  0.20782741995923680E-005  0.44063401416470360E-006  0.41192522455098257E-005  0.36333382276441705E-005  0.15322412476318245E-005  0.51252535498998165E-006  0.29216528502229893E-006  0.24445661614753061E-003  0.19592748570935046E-003  0.34498563292605933E-004  0.11857361372234318E-004  0.47883392280505539E-004  0.46748577776116563E-004  0.23020578559469389E-004  0.85967401101657671E-005  0.43766153754363644E-005  0.59206867593512250E-003  0.49341139786084043E-003  0.96377757648710008E-004  0.23506209561836866E-004  0.10850379138922725E-003  0.11313408872870208E-003  0.68410489528979450E-004  0.31713769451872585E-004  0.99042560131958795E-005  0.43222862163592361E-003  0.36620073854006852E-003  0.66574724509008089E-004 -0.16910207786435153E-005  0.50127226698745492E-004  0.58595006787500633E-004  0.50853785436002271E-004  0.31206039470805001E-004  
0.30049604811668343E-005 -0.38922503948935348E-004 -0.40839000725143585E-004 -0.19882680716635051E-004 -0.14340995580042638E-004 -0.25504431599084060E-004 -0.29678692392427961E-004 -0.17911024685122583E-004 -0.61337188369029375E-005 -0.43643111897753093E-005  0.11936799910769843E-004  0.12705990019182433E-004  0.63258480003676395E-005  </sparseX_slice>
        <sparseX_slice start="301" end="325">  0.41074036896545803E-005  0.67503365367383416E-005  0.77937920279696679E-005  0.46839825982961212E-005  0.15848061740957056E-005  0.11289299407301173E-005 -0.32791401189364543E-005 -0.34908879867497878E-005 -0.17381198553582946E-005 -0.11262852097097894E-005 -0.18483371873489169E-005 -0.21335539907625215E-005 -0.12820902584038255E-005 -0.43371556275314622E-006 -0.30886576049264422E-006  0.68949070666740964E-006  0.73401841729336910E-006  0.36547030288633696E-006  0.23679747159888119E-006  0.38857870476098024E-006  0.44853499227459872E-006  0.26953097429964277E-006  0.91178289787287730E-007  0.64930626413524100E-007  0.00000000000000000E+000  </sparseX_slice>
      </sparseX>
      <sparseX i="7" alpha="5004.9923419985598" sparseCutoff="1.0000000000000000" sliced="T">
        <sparseX_slice start="1" end="50">  0.79609210250232909E+000  0.87190172476295192E-003  0.49024653740162370E-003  0.19275493062333209E-003  0.78204865508946873E-004  0.40000339267319306E-004  0.19378951376821371E-004  0.73064211249586118E-005  0.20726929103997898E-005  0.24831110149830152E+000  0.90254557610075364E-002  0.53885633936352423E-002  0.23008004144780968E-002  0.10572576964822521E-002  0.63126528569223950E-003  0.35002002515384059E-003  0.14710839045749822E-003  0.45561107578919832E-004  0.38725671899954191E-001  0.46918024872000530E-001  0.30009375803528797E-001  0.14060962885584741E-001  0.73136461320633915E-002  0.50392503455221668E-002  0.31753585357822056E-002  0.14841994457274361E-002  0.50166874485312409E-003  0.43215011702847822E+000  0.15823261780585414E-001  0.95680957264268687E-002  0.41387182966638597E-002  0.19871760042630463E-002  0.12988894596826942E-002  0.78968222479875100E-003  0.36235483177999238E-003  0.12278677475176190E-003  0.95313069936717246E-001  
0.11673903660714298E+000  0.76233421157614875E-001  0.36625582794198273E-001  0.19973691883071069E-001  0.14904365666960287E-001  0.10214310176601122E-001  0.51964886706756539E-002  0.19215402763843889E-002  0.11729404365444075E+000  0.14564675897745383E+000  0.97794447287162897E-001  0.48796569496797899E-001  0.28117279154532073E-001  </sparseX_slice>
        <sparseX_slice start="51" end="100">  0.22543563181672499E-001  0.16672811553300585E-001  0.92064754386612623E-002  0.37312822294836515E-002  0.13587216488667520E+000  0.50042974973170222E-002  0.30079675898982534E-002  0.12570212487117230E-002  0.64645242626507743E-003  0.53849091397570120E-003  0.40262768374633995E-003  0.21484912748551097E-003  0.81138589416633497E-004  0.29967348483775684E-001  0.37270646230375293E-001  0.24768418417363106E-001  0.11993231468640437E-001  0.70996687198601237E-002  0.64779760110576729E-002  0.53241062631534074E-002  0.31214250909321274E-002  0.12837796413131945E-002  0.52153903213165174E-001  0.66268760424286893E-001  0.46201120269775339E-001  0.24178897617731426E-001  0.15491992624295936E-001  0.14765917673782070E-001  0.12796240710359591E-001  0.80726699242845909E-002  0.36429638948527669E-002  0.11594917932839208E-001  0.15409342368640704E-001  0.11800277949462380E-001  0.72009370088930722E-002  0.54306544927134959E-002  0.57257926349189997E-002  
0.54831746382096201E-002  0.38667790099416064E-002  0.19491489747925131E-002 -0.10634999810449661E-001 -0.39028313043648215E-003 -0.24468162815853816E-003 -0.13587197098570897E-003 -0.11255636164888267E-003 -0.10774009536137182E-003 -0.83835361938995931E-004 -0.50847226914830943E-004 -0.24791878318664412E-004 -0.23456073266400726E-002  </sparseX_slice>
        <sparseX_slice start="101" end="150"> -0.31177718111949633E-002 -0.24661742017496914E-002 -0.16961851275426076E-002 -0.13812029906552358E-002 -0.12864621876902680E-002 -0.10688701124602457E-002 -0.71455154760639188E-003 -0.38229961847659384E-003 -0.40821955788283475E-002 -0.58226445520708648E-002 -0.52216571177994648E-002 -0.39953527450553488E-002 -0.32101912294551635E-002 -0.28251580176579991E-002 -0.23566738957826834E-002 -0.16747973895430771E-002 -0.98516174447363771E-003 -0.12834816628076264E-002 -0.20994120940836048E-002 -0.22814101822094435E-002 -0.19720020886307794E-002 -0.15100238897556176E-002 -0.11837679059965374E-002 -0.97350674719052946E-003 -0.74430645240994905E-003 -0.47582140946160863E-003  0.71036517390858959E-004  0.29882762674114259E-003  0.59765723302801900E-003  0.71613457719118384E-003  0.61028117313605601E-003  0.45429422873046030E-003  0.37884429591077546E-003  0.35498494211984923E-003  0.30455525852382862E-003  0.57058446036372668E-002  0.21093460580543451E-003  
0.12984736271852339E-003  0.60772301435561218E-004  0.38492564867677139E-004  0.34229590983685438E-004  0.26211123547282770E-004  0.15091249932035015E-004  0.66422867078124665E-005  0.12584552087919047E-002  0.16102760906361025E-002  0.11526796150560837E-002  0.65321015378571711E-003  0.44971362036568728E-003  0.41058336764511846E-003  </sparseX_slice>
        <sparseX_slice start="151" end="200">  0.33971560002526958E-003  0.21499310123559008E-003  0.10330840318319006E-003  0.21901621090357876E-002  0.29151906341844673E-002  0.22652153838433136E-002  0.14226165227295940E-002  0.10179232842918325E-002  0.91774712434071113E-003  0.77935659095604737E-003  0.52578761740281876E-003  0.27583212898588946E-003  0.68860809121995103E-003  0.99337068611177280E-003  0.89199778340262657E-003  0.65253283247239716E-003  0.49012379417905962E-003  0.43799214914794687E-003  0.39216308720645316E-003  0.28903683638934824E-003  0.16386434189344623E-003 -0.53898802051960781E-004 -0.13630827205493294E-003 -0.21969572074754241E-003 -0.24169457401974025E-003 -0.20061075833767875E-003 -0.15003970968729358E-003 -0.12268960807551392E-003 -0.10729251446811492E-003 -0.84713017271223921E-004  0.20447799028857513E-004  0.37311928667459626E-004  0.46389613084086563E-004  0.44500109163801009E-004  0.35732859175894475E-004  0.27943279983713450E-004  0.23306721280856270E-004  
0.19008199035527966E-004  0.13395404055990892E-004 -0.15840193077816401E-002 -0.58561128546625212E-004 -0.36037800887681370E-004 -0.16825532537100618E-004 -0.10607503438393889E-004 -0.94167823184874512E-005 -0.72056076207178335E-005 -0.41416975076176328E-005 -0.18173828743397043E-005 -0.34936411472440403E-003 -0.44674953970113613E-003  </sparseX_slice>
        <sparseX_slice start="201" end="250"> -0.31925967874151450E-003 -0.18030310225165643E-003 -0.12374343395541939E-003 -0.11294510205396486E-003 -0.93420454915603082E-004 -0.59022470174927066E-004 -0.28272693873955143E-004 -0.60801849837847314E-003 -0.80838394254120370E-003 -0.62656074009067165E-003 -0.39197360342146714E-003 -0.27983519474785649E-003 -0.25251159119273764E-003 -0.21449599857726424E-003 -0.14448703953446500E-003 -0.75557502084770348E-004 -0.19116688023570395E-003 -0.27520047101355647E-003 -0.24620758930901486E-003 -0.17943610883902115E-003 -0.13474774534829581E-003 -0.12081159149408779E-003 -0.10834989902065285E-003 -0.79772635625030943E-004 -0.45092278239834840E-004  0.14963033353937119E-004  0.37472324490860393E-004  0.60035263982546879E-004  0.65861899799528261E-004  0.54617526179999564E-004  0.40866375400411174E-004  0.33415207990029819E-004  0.29169477585172989E-004  0.22970926319385192E-004 -0.80279026458202371E-005 -0.14564937757988754E-004 -0.17997216976852464E-004 
-0.17195644524682611E-004 -0.13794293540968192E-004 -0.10804756917030056E-004 -0.90205418423444301E-005 -0.73438260458952632E-005 -0.51577451689579216E-005  0.15758962810573073E-005  0.28429878648232391E-005  0.34914341897483756E-005  0.33226229612015798E-005  0.26627943408779750E-005  0.20891695302501547E-005  0.17458789067123420E-005  </sparseX_slice>
        <sparseX_slice start="251" end="300">  0.14188429354273612E-005  0.99308672033154899E-006  0.47127138982281611E-003  0.17422924745571496E-004  0.10721687241712787E-004  0.50051969165496619E-005  0.31547504092676944E-005  0.28003845358874091E-005  0.21427419082203885E-005  0.12315185778374966E-005  0.54030961414890784E-006  0.10394148044253784E-003  0.13291102250579537E-003  0.94974027041409343E-004  0.53627837077287667E-004  0.36799460956911067E-004  0.33587736981271354E-004  0.27781025154479649E-004  0.17550396836555095E-004  0.84055976316545236E-005  0.18089534727332060E-003  0.24049387161893210E-003  0.18637818849302277E-003  0.11657487456776787E-003  0.83215001797364092E-004  0.75092954015755045E-004  0.63788621751868665E-004  0.42965480814392301E-004  0.22464619167067745E-004  0.56875241920467369E-004  0.81868162286790854E-004  0.73229788344604874E-004  0.53359886178208284E-004  0.40070249197035295E-004  0.35931911680898606E-004  0.32228191405116024E-004  0.23726753688294893E-004  
0.13409808658268496E-004 -0.44517446788894716E-005 -0.11143197992900735E-004 -0.17847407036807184E-004 -0.19576798011861334E-004 -0.16233786149626682E-004 -0.12146837791727552E-004 -0.99320828851933656E-005 -0.86693366527042144E-005 -0.68261970341647505E-005  0.23884310113343030E-005  0.43320699636211132E-005  0.53512909479339235E-005  </sparseX_slice>
        <sparseX_slice start="301" end="325">  0.51119311770370772E-005  0.41005737970012916E-005  0.32121495860073224E-005  0.26818487915696402E-005  0.21831597868088848E-005  0.15330236853197478E-005 -0.66306061592463219E-006 -0.11958551972098067E-005 -0.14681629740316421E-005 -0.13968969508147812E-005 -0.11194369212060825E-005 -0.87835890060936103E-006 -0.73406376669410639E-006 -0.59650693564309419E-006 -0.41743977896061334E-006  0.13949185161328675E-006  0.25150827393766308E-006  0.30868447565194958E-006  0.29364172728442471E-006  0.23530530836324702E-006  0.18464623763218739E-006  0.15432049687466247E-006  0.12539113390048784E-006  0.87734544957020954E-007  0.00000000000000000E+000  </sparseX_slice>
      </sparseX>
      <sparseX i="8" alpha="1267.4307025419816" sparseCutoff="1.0000000000000000" sliced="T">
        <sparseX_slice start="1" end="50">  0.32709196318875366E+000  0.38205444337829182E-003  0.43137413774863481E-003  0.26233040832981735E-003  0.47963592846512511E-004  0.36946468425876296E-004  0.15896094631834634E-004  0.52459718595355280E-005  0.14320902735449596E-005  0.23861766413848451E+000  0.31239930975899954E-002  0.45064173311991267E-002  0.28400178112851725E-002  0.67119319599880870E-003  0.57637188081272397E-003  0.26671692657438364E-003  0.10803755988620086E-003  0.30789500831657585E-004  0.87037280102858092E-001  0.14502245019124919E-001  0.23844207805610959E-001  0.15655151271640799E-001  0.48017494225037413E-002  0.45840030717180626E-002  0.22926667183231085E-002  0.11351049171899111E-002  0.34522701861781772E-003  0.51644820065114594E+000  0.28435306893840650E-002  0.83245006422479721E-002  0.42104116912117986E-002  0.14860309938961498E-002  0.11289615216568834E-002  0.48546785234077560E-003  0.31032604271321213E-003  0.79508203769526777E-004  0.26640629788585934E+000  
0.29371903932660415E-001  0.63855665782147020E-001  0.34671255158788002E-001  0.15614022459949238E-001  0.13313994184211607E-001  0.64993149469937663E-002  0.49040069003475394E-002  0.14719643409201785E-002  0.40771216350841971E+000  0.58927974220025617E-001  0.91601161295243205E-001  0.45523305302961045E-001  0.28397498642849753E-001  </sparseX_slice>
        <sparseX_slice start="51" end="100">  0.21913069470800954E-001  0.12611156908953907E-001  0.12527823941137353E-001  0.46613981508647154E-002  0.31678090306373580E+000 -0.29893802414047133E-002  0.31721191483047653E-002 -0.96334396714991725E-004  0.86617148160420421E-003  0.33054067497650670E-003  0.88732578590169296E-004  0.24188586018939292E-003  0.48098255495808910E-004  0.16340927806456840E+000 -0.10394275463084573E-002  0.26309600952680832E-001  0.24033304152715649E-002  0.96587452860408228E-002  0.48438529279889462E-002  0.21776171126915377E-002  0.41624369224124904E-002  0.11890777852182754E-002  0.35367217230477538E+000  0.70166815972491650E-001  0.65525726368136403E-001  0.21768722850299040E-001  0.30144686207802526E-001  0.16948813382515804E-001  0.13426450804214526E-001  0.18124438396901150E-001  0.79785072938648640E-002  0.15339744145282974E+000  0.88006979260604662E-001  0.35101146084139875E-001  0.23244410252976164E-001  0.20540629006829195E-001  0.12245962784307925E-001  
0.13261899459351916E-001  0.15280423184041972E-001  0.84414174118072546E-002 -0.26702859301852466E-001 -0.29185512258016069E-003 -0.46059469843925320E-003 -0.25745082198819143E-003 -0.30027192068339202E-004 -0.19147850564141616E-003 -0.57676225579101861E-004 -0.42144541909899321E-004 -0.16878225946421095E-004 -0.13774488672057132E-001  </sparseX_slice>
        <sparseX_slice start="101" end="150"> -0.27632278004304811E-002 -0.38568694808962657E-002 -0.24389486752165483E-002 -0.61732369733047963E-003 -0.22159471406538907E-002 -0.79126301681302022E-003 -0.62671082188074049E-003 -0.24030869001589919E-003 -0.29812587074211389E-001 -0.72518283014185838E-002 -0.78456458409182986E-002 -0.51710181417124685E-002 -0.17816503289342113E-002 -0.44320678341130404E-002 -0.19417638130431705E-002 -0.17436973865435530E-002 -0.36801265680117868E-003 -0.18286554671170747E-001 -0.55712144019085209E-002 -0.34097501966311315E-002 -0.20176455272681105E-002 -0.78453796325181227E-003 -0.10120550352068682E-002 -0.84411408164090213E-003 -0.10717672416697170E-002  0.28628795257350302E-003  0.10899728136748138E-002  0.46708739440409904E-003  0.81617763080805397E-003  0.10042285723246623E-002  0.86827064645301859E-003  0.10177485376803421E-002  0.58486471038102434E-003  0.44577357807092680E-003  0.30572277372808971E-003  0.79557216406352157E-002  0.70502973621479957E-004  
0.13180116032441761E-003  0.69997300153927403E-004  0.11951765366749878E-004  0.52964572509732625E-004  0.16593888568397659E-004  0.11595701291909178E-004  0.46084924675118297E-005  0.41039049930269899E-002  0.72643543931472207E-003  0.10995697362949082E-002  0.66303536582283738E-003  0.20300799821536689E-003  0.61603441067246175E-003  </sparseX_slice>
        <sparseX_slice start="151" end="200">  0.22591742548767673E-003  0.17210440192104627E-003  0.66032783345392005E-004  0.88822189964192794E-002  0.20634871577652992E-002  0.22550786070370363E-002  0.14098545944331744E-002  0.55646991610444011E-003  0.12520382822661603E-002  0.55152220618004519E-003  0.47853009053750090E-003  0.10726139006023578E-003  0.54482082643486597E-002  0.17374213384800166E-002  0.10189897357290808E-002  0.56185302183928436E-003  0.25384448299355382E-003  0.32722608459774007E-003  0.24669076306292609E-003  0.29818967227986256E-003 -0.62801529504867250E-004 -0.45925350083625844E-003 -0.18571720733613338E-003 -0.31433400686060696E-003 -0.37676412817594449E-003 -0.32563736389785086E-003 -0.38605495322454057E-003 -0.21685208558830049E-003 -0.16524329579758058E-003 -0.11184121515685022E-003  0.96751852607804571E-004  0.37194292401940148E-004  0.60727512083210982E-004  0.70740389937586700E-004  0.61298567864497295E-004  0.73499118733380640E-004  0.40356610206568046E-004  
0.30711324060175183E-004  0.20509771703874078E-004 -0.21858041412393240E-002 -0.19219603311050979E-004 -0.36169821396629830E-004 -0.19154115307392130E-004 -0.33225811747870438E-005 -0.14507060128027910E-004 -0.45560887305619376E-005 -0.31760027107806870E-005 -0.12617608452896472E-005 -0.11275322257623518E-002 -0.19875187605108586E-003  </sparseX_slice>
        <sparseX_slice start="201" end="250"> -0.30167820439778645E-003 -0.18144725411783832E-003 -0.56049773888415263E-004 -0.16876370429029123E-003 -0.62007929479498689E-004 -0.47137923551895312E-004 -0.18085884387315172E-004 -0.24403557518407216E-002 -0.56632551599282237E-003 -0.61886387221163222E-003 -0.38588994226227796E-003 -0.15334365610828208E-003 -0.34320159229776271E-003 -0.15134392280483736E-003 -0.13110038116093657E-003 -0.29473158726432463E-004 -0.14968744162341973E-002 -0.47841211709985276E-003 -0.28004861537007280E-003 -0.15393921914243265E-003 -0.70096981313769936E-004 -0.90120466069620246E-004 -0.67788353030151020E-004 -0.81803279755862725E-004  0.16963690536709865E-004  0.12617814566051117E-003  0.50941258266190381E-004  0.86028979128421432E-004  0.10300484884932474E-003  0.89043773283017542E-004  0.10560336691815394E-003  0.59273999482867001E-004  0.45147185182438048E-004  0.30539957437734936E-004 -0.37592910656459599E-004 -0.14432356783034120E-004 -0.23508227628300248E-004 
-0.27352026310561597E-004 -0.23708814859819120E-004 -0.28437499635666101E-004 -0.15603041446801936E-004 -0.11867871516060150E-004 -0.79211911147732320E-005  0.73033585070109256E-005  0.28000995758116481E-005  0.45501691024426001E-005  0.52878930254494918E-005  0.45850381397458706E-005  0.55014018649679761E-005  0.30163228494160512E-005  </sparseX_slice>
        <sparseX_slice start="251" end="300">  0.22930828022321757E-005  0.15296519351495284E-005  0.64997762678007125E-003  0.57129301089534139E-005  0.10754939613121317E-004  0.56945611711395152E-005  0.98860100967948782E-006  0.43131897086328962E-005  0.13547678907521514E-005  0.94427728084555939E-006  0.37513474636493198E-006  0.33528654575772576E-003  0.59088937032272488E-004  0.89701590253000123E-004  0.53944879348391409E-004  0.16671284163660437E-004  0.50176720545147469E-004  0.18437943760758077E-004  0.14014862867931908E-004  0.53772255055801409E-005  0.72567189811489072E-003  0.16839519310811004E-003  0.18401661010904627E-003  0.11472738554837532E-003  0.45605652818212995E-004  0.10204356358658183E-003  0.45001329792593982E-004  0.38978784899934502E-004  0.87642863297457405E-005  0.44511530667156032E-003  0.14227818031627954E-003  0.83277424868219486E-004  0.45769388141401915E-004  0.20849620016701984E-004  0.26801766321516683E-004  0.20157926473302482E-004  0.24323429027861723E-004 
-0.50399857564274819E-005 -0.37520732128098570E-004 -0.15146792353573408E-004 -0.25576819534584446E-004 -0.30622152358207552E-004 -0.26471939248520073E-004 -0.31395549616571256E-004 -0.17621296374385153E-004 -0.13421293536550707E-004 -0.90786206657080260E-005  0.11178746709843259E-004  0.42913583723362817E-005  0.69891606286154286E-005  </sparseX_slice>
        <sparseX_slice start="301" end="325">  0.81314597446983444E-005  0.70484867055487349E-005  0.84544445382888097E-005  0.46385999317036877E-005  0.35280863924519212E-005  0.23547477584864996E-005 -0.30713179716390777E-005 -0.11774602870627116E-005 -0.19131447705186742E-005 -0.22231907424331754E-005 -0.19277209763135183E-005 -0.23130348480529700E-005 -0.12681501576104718E-005 -0.96405373866713428E-006 -0.64307502676036270E-006  0.64579837302645670E-006  0.24756490499710487E-006  0.40219636916070105E-006  0.46734843972867488E-006  0.40524289321150615E-006  0.48625154328329524E-006  0.26658367504625354E-006  0.20265287076844453E-006  0.13517633870018086E-006  0.00000000000000000E+000  </sparseX_slice>
      </sparseX>
      <sparseX i="9" alpha="108.71571706482074" sparseCutoff="1.0000000000000000" sliced="T">
        <sparseX_slice start="1" end="50">  0.67157747344190755E+000  0.15500820658287309E-003  0.12177509233321786E-003  0.78430586850549390E-004  0.41459200867561913E-004  0.17490091444691649E-004  0.62741835678974909E-005  0.21207953199976898E-005  0.67318068994908910E-006  0.11651633976057690E+000  0.18463239794931363E-002  0.14271733380734133E-002  0.10712357626355578E-002  0.66382091691412478E-003  0.30347847789817967E-003  0.11648704398490586E-003  0.44206708319839851E-004  0.15566582147834299E-004  0.10107588452619937E-001  0.11138366252859173E-001  0.83757242773540037E-002  0.73589731514348252E-002  0.53533645365607179E-002  0.26623572177977050E-002  0.10992193713262822E-002  0.47512536194576992E-003  0.18927412418809892E-003  0.38519823704429418E+000  0.39344945762039797E-002  0.17027907363804018E-002  0.20349882675587843E-002  0.16733612262121460E-002  0.69934974838695456E-003  0.24359136591978127E-003  0.11451914776072391E-003  0.47758681666769668E-004  0.47256331668112862E-001  
0.35740735215935356E-001  0.14336267619368036E-001  0.20418799344464441E-001  0.19674267116828729E-001  0.91479787557994068E-002  0.35659848020276595E-002  0.19972462119865414E-002  0.98295363310720355E-003  0.11046951966805892E+000  0.74142015195376915E-001  0.14477604921995671E-001  0.33409724073489570E-001  0.40648501964897714E-001  </sparseX_slice>
        <sparseX_slice start="51" end="100">  0.19467213460365784E-001  0.85351189130351817E-002  0.64220230003523985E-002  0.38937740936835744E-002  0.47563750681323463E+000  0.24993974710543821E-002 -0.12760721684287751E-002  0.58184144397487503E-003  0.11509498510096864E-002  0.33103883945075318E-003  0.79982469814766092E-004  0.77487514089618394E-004  0.36095294987213373E-004  0.58351471045740733E-001  0.26332318648106631E-001 -0.10133858400801167E-001  0.70838632100007461E-002  0.14458643859159251E-001  0.51329189935503403E-002  0.17954940439134765E-002  0.18017740800262538E-002  0.10218714257720976E-002  0.19290756834575337E+000  0.11531318068807644E+000 -0.41227620916636197E-002  0.30295071289262124E-001  0.52126006009316675E-001  0.24101278545183964E-001  0.13182861051716328E-001  0.13046465684771372E-001  0.84871488758039848E-002  0.16843256871619824E+000  0.12376655793269378E+000  0.22046682575774714E-001  0.30526085644903143E-001  0.43398398604066940E-001  0.23186193994571006E-001  
0.16624431289103358E-001  0.16859516157056074E-001  0.11238603560135016E-001  0.12046466368846655E+000  0.39572372061653298E-003 -0.73463269222096234E-003 -0.31475008610163437E-003 -0.15262610453456847E-003 -0.16905676317705712E-003 -0.54671172212630907E-004 -0.10982179492439599E-004 -0.13686089153432142E-004  0.14778671224539479E-001  </sparseX_slice>
        <sparseX_slice start="101" end="150">  0.48734741778273805E-002 -0.59801981366592195E-002 -0.27328020775591187E-002 -0.13963457293991546E-002 -0.19007083202023456E-002 -0.52406661432242020E-003  0.56045388835192176E-004 -0.81709766675526111E-004  0.48857680504275233E-001  0.28855815211643543E-001 -0.34522620980193533E-002 -0.81053025501639391E-003  0.42335008879900842E-003 -0.22464033767209631E-002  0.14771201804112837E-002  0.29756233204932914E-002  0.15542770890197813E-002  0.60328794654007818E-001  0.51624524647900981E-001  0.17249625597796341E-001  0.10198710511020953E-001  0.74278977392684921E-002  0.31445457686120268E-002  0.62205176441791250E-002  0.73980370425636597E-002  0.46394090617207237E-002  0.10804215277800438E-001  0.12792382550922330E-001  0.82113010662959156E-002  0.46572170989413481E-002  0.30556295638889852E-002  0.21204987991163687E-002  0.21859235397349019E-002  0.22693945671861423E-002  0.17195497437883943E-002 -0.26464209843392553E-001 -0.57339026388563936E-004  
0.19921765993365841E-003  0.83058280487784207E-004  0.35690182794376077E-004  0.40280225322188222E-004  0.14974047524793760E-004  0.37460500576269560E-005  0.34297304229612159E-005 -0.32466438249822210E-002 -0.84668577828337450E-003  0.16245476369672665E-002  0.72995714836565564E-003  0.32722479787968131E-003  0.44726542145664684E-003  </sparseX_slice>
        <sparseX_slice start="151" end="200">  0.14908178198827621E-003  0.39089400430847817E-005  0.21212065125379908E-004 -0.10733271232718850E-001 -0.61309639894191904E-002  0.10925812353688540E-002  0.36495399291453716E-003 -0.85124662545524852E-004  0.46411548616341370E-003 -0.31296973950206252E-003 -0.65421944919985444E-003 -0.37568053172656662E-003 -0.13253296298169619E-001 -0.11652320805384692E-001 -0.41432170842261411E-002 -0.22938587222576276E-002 -0.16849202790217019E-002 -0.85950834922166118E-003 -0.14668890497245080E-002 -0.16924006848426912E-002 -0.11142843261681416E-002 -0.33566610253667603E-002 -0.41019131444393628E-002 -0.27189956028336754E-002 -0.14995619087463266E-002 -0.96017465899878517E-003 -0.69421412092070148E-003 -0.70838034754967132E-003 -0.73119464548457888E-003 -0.56568158218418775E-003  0.52142487675005140E-003  0.66210531152370437E-003  0.45603388955953687E-003  0.24469131342934081E-003  0.15227509534433952E-003  0.11570191747330483E-003  0.11678089586396370E-003  
0.11927862574717914E-003  0.94351944805326686E-004  0.71745473481343641E-002  0.15173869549198496E-004 -0.54497919661291725E-004 -0.22720530813498966E-004 -0.97259886818031741E-005 -0.10971866772114075E-004 -0.41022196160063818E-005 -0.10340879722542416E-005 -0.93553369961364989E-006  0.88017741631831608E-003  0.22673199308267630E-003  </sparseX_slice>
        <sparseX_slice start="201" end="250"> -0.44444377428297057E-003 -0.19978834910980295E-003 -0.89219318721787339E-004 -0.12178207710170316E-003 -0.40916472140742788E-004 -0.12884425844858423E-005 -0.57999752124593348E-005  0.29098304130450517E-002  0.16595425904807469E-002 -0.30054639920470803E-003 -0.10172017187968756E-003  0.22465543097955736E-004 -0.12583538148487505E-003  0.84533991330217634E-004  0.17731715685107152E-003  0.10223207366757007E-003  0.35930187363524290E-002  0.31629954869187003E-002  0.11278419693719450E-002  0.62258789697873756E-003  0.45730418680474589E-003  0.23493144456263653E-003  0.39887847179004250E-003  0.45965831734872851E-003  0.30321766444977108E-003  0.91000349531100287E-003  0.11137426196691229E-002  0.73940643718384714E-003  0.40736417115720973E-003  0.26060103591960112E-003  0.18876602222551436E-003  0.19248152662039130E-003  0.19859269743749929E-003  0.15375592599167233E-003 -0.19991359059791042E-003 -0.25431340717722091E-003 -0.17547652971382016E-003 
-0.94058375236256848E-004 -0.58470840755302713E-004 -0.44524112253735098E-004 -0.44907932404619031E-004 -0.45838565144478514E-004 -0.36287235339085018E-004  0.38323299757815967E-004  0.48841285304426699E-004  0.33761407191049722E-004  0.18078269088646732E-004  0.11226053682123900E-004  0.85670688006088507E-005  0.86349042193333509E-005  </sparseX_slice>
        <sparseX_slice start="251" end="300">  0.88080280149834531E-005  0.69780741853557742E-005 -0.21319963786803888E-002 -0.45034578857931284E-005  0.16202091278872022E-004  0.67547570897925617E-005  0.28909632090453800E-005  0.32612051971021800E-005  0.12196712709735222E-005  0.30757279988138996E-006  0.27809132983337642E-006 -0.26155448882428470E-003 -0.67333346300165126E-004  0.13213248963110210E-003  0.59398229042336939E-004  0.26520377683975451E-004  0.36196989867243596E-004  0.12166412548374506E-004  0.38636067931188992E-006  0.17242814667245866E-005 -0.86468840501823495E-003 -0.49311231410327277E-003  0.89376666693031070E-004  0.30269725382548791E-004 -0.66662428210613964E-005  0.37393824942772390E-004 -0.25115355021809879E-004 -0.52691057972899384E-004 -0.30385180579338867E-004 -0.10677053983658099E-002 -0.93998006047216317E-003 -0.33522063852374663E-003 -0.18501975761586612E-003 -0.13590071651944084E-003 -0.69841392192175990E-004 -0.11854932189105142E-003 -0.13660534621210901E-003 
-0.90121605109319558E-004 -0.27041763925274743E-003 -0.33098680743195720E-003 -0.21975747023541089E-003 -0.12106544312483693E-003 -0.77445055191339835E-004 -0.56102520571190544E-004 -0.57204697780421609E-004 -0.59019557439739298E-004 -0.45696313524130239E-004  0.59406542395259240E-004  0.75579090010670618E-004  0.52154434880069519E-004  </sparseX_slice>
        <sparseX_slice start="301" end="325">  0.27954215396892075E-004  0.17376627878629380E-004  0.13233340334580776E-004  0.13346937670151475E-004  0.13623070766573936E-004  0.10784865244755002E-004 -0.16105338255929603E-004 -0.20527439054038929E-004 -0.14190844164894396E-004 -0.75984010110235275E-005 -0.47181163487434859E-005 -0.36009914204772456E-005 -0.36293743463553835E-005 -0.37020148312016959E-005 -0.29329986319994183E-005  0.33841282193479322E-005  0.43137252190250916E-005  0.29824004138531953E-005  0.15968260354100525E-005  0.99147142349726779E-006  0.75680144818440771E-006  0.76273915985153342E-006  0.77797859761862985E-006  0.61639366294870064E-006  0.00000000000000000E+000  </sparseX_slice>
      </sparseX>
      <sparseX i="10" alpha="-35197.143451072625" sparseCutoff="1.0000000000000000" sliced="T">
        <sparseX_slice start="1" end="50">  0.27842175692606946E+000  0.23454134548703043E-003  0.11490567575883626E-003  0.98677156671621996E-004  0.28665485233206301E-004  0.19405053085046248E-004  0.32004369014634618E-004  0.69568144644668253E-005  0.45781849520277905E-006  0.24088678466913099E+000  0.30190717550520833E-002  0.12642391907759149E-002  0.11523493748783944E-002  0.41540954871247958E-003  0.33034090116605686E-003  0.63886558419201341E-003  0.15498455703646810E-003  0.10062112154251480E-004  0.10420601405018837E+000  0.19531620781474197E-001  0.72688771597194919E-002  0.67694698753449651E-002  0.31647576443478037E-002  0.28374697524216606E-002  0.63945246267070694E-002  0.17379276504626041E-002  0.11635491841962986E-003  0.51023338060093160E+000  0.71931075304302143E-002  0.16161827736481419E-002  0.15127118948707382E-002  0.73494569897151693E-003  0.75781844367898271E-003  0.17666296067679363E-002  0.49289178816934052E-003  0.26169682300937127E-004  0.31215024127696656E+000  
0.66014846584764683E-001  0.14423591733157931E-001  0.12741782135415658E-001  0.88474944167464299E-002  0.94299799284537078E-002  0.25186456757593848E-001  0.79465791489313226E-002  0.51047937672557889E-003  0.46752471062917655E+000  0.11184351679182117E+000  0.16946783857589204E-001  0.12412446943395607E-001  0.15166424478897657E-001  </sparseX_slice>
        <sparseX_slice start="51" end="100">  0.16837196888537579E-001  0.50565392729763146E-001  0.18909045538399703E-001  0.16842087162782455E-002  0.26062278727943605E+000  0.46697417753230582E-002 -0.55085184971673045E-003 -0.46176047635144415E-003  0.13084763146765303E-003  0.40570762720100738E-003  0.12930380262405057E-002  0.42766040650511571E-003  0.16361643644398736E-004  0.15944363701907702E+000  0.43003462308395246E-001 -0.24517764558073399E-002 -0.35652465802339453E-002  0.30052445974738909E-002  0.53326881010912408E-002  0.18632757198923256E-001  0.70242711359232973E-002  0.42440964256215441E-003  0.33772490277245482E+000  0.10337883710630001E+000  0.25353732995686096E-002 -0.37892214591572354E-002  0.12807325999565617E-001  0.15574013610553411E-001  0.54426072532365789E-001  0.24670633421495922E-001  0.28380130519736085E-002  0.12198083583557441E+000  0.48001695626674716E-001  0.72084910080026108E-002  0.20351557855952992E-002  0.98657631783832991E-002  0.89855311734908933E-002  
0.30477622429378327E-001  0.16787596054821472E-001  0.28265048229631686E-002 -0.53148005183267025E-001 -0.78558716196423578E-003 -0.86426163940879375E-004 -0.70339968000640099E-004 -0.77055264256803668E-004 -0.92475962092286533E-004 -0.26406688686455123E-003 -0.77454427159458610E-004 -0.48774115653665328E-005 -0.32514851579892846E-001  </sparseX_slice>
        <sparseX_slice start="101" end="150"> -0.72707847833884415E-002 -0.11019651605087355E-002 -0.65419114390481876E-003 -0.10715170597927850E-002 -0.11670418298018359E-002 -0.37672965416876412E-002 -0.12458732315676515E-002 -0.86381372578814966E-004 -0.68871202976674789E-001 -0.17510059849989063E-001 -0.26392170360825186E-002 -0.10786594355473443E-002 -0.30669558974632852E-002 -0.29774127344488091E-002 -0.10672039781857880E-001 -0.41578686068129093E-002 -0.32495277222026515E-003 -0.35178813393056944E-001 -0.11509584570391805E-001 -0.14604009565872909E-002 -0.73392320644847633E-004 -0.23354962527866439E-002 -0.19636275852117136E-002 -0.80834365822121286E-002 -0.37976178905753362E-002 -0.32663570627106879E-003  0.50727186088956313E-002  0.13890062536304865E-002  0.32787889733560885E-003  0.97537712177740119E-004  0.36849016778290700E-003  0.28276516626101421E-003  0.11395380835374476E-002  0.46411705360260125E-003  0.40608272421264754E-004  0.15124087309102387E-001  0.22362370960707679E-003  
0.24781793911240380E-004  0.21149673579753430E-004  0.22533165033497701E-004  0.26038204061649736E-004  0.74443833618347046E-004  0.21787229448328508E-004  0.13802504163831459E-005  0.92526041653135972E-002  0.20690707224211556E-002  0.31306371133177271E-003  0.19506825679555242E-003  0.30964863635064887E-003  0.32784252585592126E-003  </sparseX_slice>
        <sparseX_slice start="151" end="200">  0.10617410004275388E-002  0.35035855117503090E-003  0.24379937605127464E-004  0.19598366548479240E-001  0.49809916851785117E-002  0.74318124405930574E-003  0.31652013983944676E-003  0.87364423659716181E-003  0.83101879352316167E-003  0.30049626227871083E-002  0.11682940242378262E-002  0.91109623941931404E-004  0.10010675722495829E-001  0.32721625379698348E-002  0.40387152759868662E-003  0.13697967321754142E-004  0.65297068034491095E-003  0.54172732130344412E-003  0.22729818198790317E-002  0.10660840406030978E-002  0.91030612310961457E-004 -0.20414463782737458E-002 -0.55850940849435325E-003 -0.13010118368967364E-003 -0.39235545077113199E-004 -0.14747674337857415E-003 -0.11149689652700654E-003 -0.45391454237559846E-003 -0.18455599285134412E-003 -0.16171576333232760E-004  0.41077611796352828E-003  0.11229509613600826E-003  0.25826336023011831E-004  0.79165108878405639E-005  0.29537437386748427E-004  0.21996169450816657E-004  0.90416262597878090E-004  
0.36703203551266246E-004  0.32274217381057996E-005 -0.41478256381591496E-002 -0.61317108386844431E-004 -0.68133636150188377E-005 -0.58164808846926847E-005 -0.61850963390048813E-005 -0.71417914823019412E-005 -0.20414876150884436E-004 -0.59739752904127480E-005 -0.37865229791977469E-006 -0.25375540349815411E-002 -0.56733493202161837E-003  </sparseX_slice>
        <sparseX_slice start="201" end="250"> -0.85984588056876355E-004 -0.53630013814811823E-004 -0.84966356498758844E-004 -0.89915650236666305E-004 -0.29115964659735696E-003 -0.96064494320783288E-004 -0.66861921097738049E-005 -0.53749099416331948E-002 -0.13657746069412129E-002 -0.20395852625536948E-003 -0.86973394093519410E-004 -0.23962790413714182E-003 -0.22787841793301086E-003 -0.82401716173412622E-003 -0.32031323362936056E-003 -0.24968031675196854E-004 -0.27454573997384530E-002 -0.89721403866253283E-003 -0.11067043660947464E-003 -0.36926868961443523E-005 -0.17900520133163266E-003 -0.14850133396758944E-003 -0.62326170480493800E-003 -0.29227064172554615E-003 -0.24929442722987463E-004  0.55987270198015900E-003  0.15314191286517768E-003  0.35684499447515998E-004  0.10766931856018197E-004  0.40443334459665854E-004  0.30574160497760667E-004  0.12447296409147802E-003  0.50600926621716156E-004  0.44335736740252130E-005 -0.15932044105009780E-003 -0.43545141122605861E-004 -0.10018011712090287E-004 
-0.30724748883795294E-005 -0.11455637010540162E-004 -0.85302269637215287E-005 -0.35064164382619524E-004 -0.14231489382793617E-004 -0.12513512802788827E-005  0.30896395659802417E-004  0.84428412356944345E-005  0.19429901513758093E-005  0.59622989147398737E-006  0.22214466103104328E-005  0.16540335140093506E-005  0.67990850106386259E-005  </sparseX_slice>
        <sparseX_slice start="251" end="300">  0.27590958297742571E-005  0.24259022680222218E-006  0.12332980220946567E-002  0.18231596706671425E-004  0.20261165481176328E-005  0.17296947597480807E-005  0.18391325283979610E-005  0.21235234421089367E-005  0.60700550236801799E-005  0.17762594487071390E-005  0.11258873158321597E-006  0.75450625106073259E-003  0.16868737694917060E-003  0.25568243340653366E-004  0.15948145025057905E-004  0.25264231437415006E-004  0.26735225622876374E-004  0.86571867226759475E-004  0.28563097629131414E-004  0.19880449187474091E-005  0.15981544014215337E-002  0.40608976740535334E-003  0.60646352226380510E-004  0.25862866122375718E-004  0.71250442506860212E-004  0.67756007604646411E-004  0.24500845462686855E-003  0.95239230692339730E-004  0.74236063462219314E-005  0.81632341284849734E-003  0.26677121818849842E-003  0.32904906440392291E-004  0.10969976639032441E-005  0.53223577415299096E-004  0.44153760827184385E-004  0.18531650396610513E-003  0.86900986342026770E-004  
0.74118747885749657E-005 -0.16647032836302356E-003 -0.45534136102098052E-004 -0.10610348769754269E-004 -0.32014958350484050E-005 -0.12025221484947076E-004 -0.90907377057988841E-005 -0.37010081084559111E-004 -0.15045265415741412E-004 -0.13182381085732216E-005  0.47371707966378790E-004  0.12947405599433004E-004  0.29787349353822289E-005  </sparseX_slice>
        <sparseX_slice start="301" end="325">  0.91358866251914870E-006  0.34061657697244841E-005  0.25363285886967766E-005  0.10425779841796542E-004  0.42314751087297366E-005  0.37206560505055057E-006 -0.12991830899314982E-004 -0.35501497417676109E-005 -0.81702611337052634E-006 -0.25072125140874760E-006 -0.93410871590836177E-006 -0.69551138353071956E-006 -0.28589761134933329E-005 -0.11601742507703954E-005 -0.10200667875704798E-006  0.27315106910026368E-005  0.74640531768176737E-006  0.17177947884982573E-006  0.52715527294381475E-007  0.19639434279832863E-006  0.14622922723594847E-006  0.60109150027167674E-006  0.24392126543806227E-006  0.21446376223775344E-007  0.00000000000000000E+000  </sparseX_slice>
      </sparseX>
      <sparseX i="11" alpha="23717.465335742458" sparseCutoff="1.0000000000000000" sliced="T">
        <sparseX_slice start="1" end="50">  0.26445468311785170E+000  0.22111080898733150E-003  0.40688609623979296E-004  0.52148935720557451E-004  0.29975707464876019E-004  0.37742407500800497E-004  0.21922582109609946E-004  0.53829802710358075E-005  0.85109164866090686E-006  0.22530681407169170E+000  0.29648946189622478E-002  0.52317749663740546E-003  0.60589484064036509E-003  0.45377753691593401E-003  0.66531106556900945E-003  0.44050640758565144E-003  0.12381963199836011E-003  0.21004373168724526E-004  0.95977049581144558E-001  0.19880756431115493E-001  0.34438485219390877E-002  0.35977302824195352E-002  0.35167026686172354E-002  0.58765525296871094E-002  0.44389979309546260E-002  0.14269802249690837E-002  0.26293509566635808E-003  0.49653921273873974E+000  0.69085055483191563E-002  0.10169191757417857E-002  0.68771975394131145E-003  0.79267452147820116E-003  0.14701217478412698E-002  0.11800055659747859E-002  0.42662717213506765E-003  0.78743866361645417E-004  0.29913113432382332E+000  
0.65509264270626755E-001  0.95294482986981732E-002  0.62361841563509648E-002  0.93324479261335698E-002  0.18484058845496035E-001  0.16973093638567888E-001  0.69919705055356300E-002  0.14437063188111694E-002  0.46615016773466300E+000  0.10822099890668403E+000  0.13518919542134879E-001  0.77571984838938780E-002  0.15267726451809420E-001  </sparseX_slice>
        <sparseX_slice start="51" end="100">  0.29790171303269882E-001  0.33478560458675893E-001  0.17425679055766578E-001  0.42950022345848212E-002  0.28283217771856439E+000  0.44434704383275484E-002  0.30611413878340178E-003 -0.48410537324009299E-003  0.49924977926016307E-004  0.60624130380157622E-003  0.79051086180474261E-003  0.41893391737320661E-003  0.86959624277165829E-004  0.17038716776784907E+000  0.42125500461274203E-001  0.28431826313478452E-002 -0.33346646121976543E-002  0.17215845869056571E-002  0.77902955906714883E-002  0.11577456803445376E-001  0.69080550483185572E-002  0.16405370757050187E-002  0.37550533255204049E+000  0.98859884526166258E-001  0.64635257102583360E-002  0.22003151212181106E-002  0.10980538512280005E-001  0.19262296771862187E-001  0.34321359309448372E-001  0.24864745814359775E-001  0.73334182608141086E-002  0.15124338092620773E+000  0.45498284284295878E-001  0.25477972146199621E-002  0.10248928663740237E-001  0.10968222722343582E-001  0.78239729234778031E-002  
0.19627361261856161E-001  0.18250460544446949E-001  0.65405268341999995E-002 -0.37671386394316511E-001 -0.35414634500464460E-003 -0.22588407885119137E-003 -0.90649374073805520E-004 -0.19804254617085973E-003 -0.34959906254508285E-003 -0.22765323300164269E-003 -0.37491427519762976E-004  0.54016596034242441E-006 -0.22694450417176014E-001  </sparseX_slice>
