<GAP_2025_3_3_-480_14_17_21_906>
<Potential label="GAP_2025_3_3_-480_14_17_21_906" init_args="IP GAP label=GAP_2025_3_3_-480_14_17_21_906"/>
<GAP_params label="GAP_2025_3_3_-480_14_17_21_906" gap_version="1686220958">
  <GAP_data do_core="F">
    <e0 Z="1" value="-.23515512000000000"/>
    <e0 Z="2" value="-.23515512000000000"/>
    <e0 Z="3" value="-.23515512000000000"/>
    <e0 Z="4" value="-.23515512000000000"/>
    <e0 Z="5" value="-.23515512000000000"/>
    <e0 Z="6" value="-.23515512000000000"/>
    <e0 Z="7" value="-.23515512000000000"/>
    <e0 Z="8" value="-.23515512000000000"/>
    <e0 Z="9" value="-.23515512000000000"/>
    <e0 Z="10" value="-.23515512000000000"/>
    <e0 Z="11" value="-.23515512000000000"/>
    <e0 Z="12" value="-.23515512000000000"/>
    <e0 Z="13" value="-.23515512000000000"/>
    <e0 Z="14" value="-.23515512000000000"/>
    <e0 Z="15" value="-.23515512000000000"/>
    <e0 Z="16" value="-.23515512000000000"/>
    <e0 Z="17" value="-.23515512000000000"/>
    <e0 Z="18" value="-.23515512000000000"/>
    <e0 Z="19" value="-.23515512000000000"/>
    <e0 Z="20" value="-.23515512000000000"/>
    <e0 Z="21" value="-.23515512000000000"/>
    <e0 Z="22" value="-.23515512000000000"/>
    <e0 Z="23" value="-.23515512000000000"/>
    <e0 Z="24" value="-.23515512000000000"/>
    <e0 Z="25" value="-.23515512000000000"/>
    <e0 Z="26" value="-.23515512000000000"/>
    <e0 Z="27" value="-.23515512000000000"/>
    <e0 Z="28" value="-.23515512000000000"/>
    <e0 Z="29" value="-.23515512000000000"/>
    <e0 Z="30" value="-.23515512000000000"/>
    <e0 Z="31" value="-.23515512000000000"/>
    <e0 Z="32" value="-.23515512000000000"/>
    <e0 Z="33" value="-.23515512000000000"/>
    <e0 Z="34" value="-.23515512000000000"/>
    <e0 Z="35" value="-.23515512000000000"/>
    <e0 Z="36" value="-.23515512000000000"/>
    <e0 Z="37" value="-.23515512000000000"/>
    <e0 Z="38" value="-.23515512000000000"/>
    <e0 Z="39" value="-.23515512000000000"/>
    <e0 Z="40" value="-.23515512000000000"/>
    <e0 Z="41" value="-.23515512000000000"/>
    <e0 Z="42" value="-.23515512000000000"/>
    <e0 Z="43" value="-.23515512000000000"/>
    <e0 Z="44" value="-.23515512000000000"/>
    <e0 Z="45" value="-.23515512000000000"/>
    <e0 Z="46" value="-.23515512000000000"/>
    <e0 Z="47" value="-.23515512000000000"/>
    <e0 Z="48" value="-.23515512000000000"/>
    <e0 Z="49" value="-.23515512000000000"/>
    <e0 Z="50" value="-.23515512000000000"/>
    <e0 Z="51" value="-.23515512000000000"/>
    <e0 Z="52" value="-.23515512000000000"/>
    <e0 Z="53" value="-.23515512000000000"/>
    <e0 Z="54" value="-.23515512000000000"/>
    <e0 Z="55" value="-.23515512000000000"/>
    <e0 Z="56" value="-.23515512000000000"/>
    <e0 Z="57" value="-.23515512000000000"/>
    <e0 Z="58" value="-.23515512000000000"/>
    <e0 Z="59" value="-.23515512000000000"/>
    <e0 Z="60" value="-.23515512000000000"/>
    <e0 Z="61" value="-.23515512000000000"/>
    <e0 Z="62" value="-.23515512000000000"/>
    <e0 Z="63" value="-.23515512000000000"/>
    <e0 Z="64" value="-.23515512000000000"/>
    <e0 Z="65" value="-.23515512000000000"/>
    <e0 Z="66" value="-.23515512000000000"/>
    <e0 Z="67" value="-.23515512000000000"/>
    <e0 Z="68" value="-.23515512000000000"/>
    <e0 Z="69" value="-.23515512000000000"/>
    <e0 Z="70" value="-.23515512000000000"/>
    <e0 Z="71" value="-.23515512000000000"/>
    <e0 Z="72" value="-.23515512000000000"/>
    <e0 Z="73" value="-.23515512000000000"/>
    <e0 Z="74" value="-.23515512000000000"/>
    <e0 Z="75" value="-.23515512000000000"/>
    <e0 Z="76" value="-.23515512000000000"/>
    <e0 Z="77" value="-.23515512000000000"/>
    <e0 Z="78" value="-.23515512000000000"/>
    <e0 Z="79" value="-.23515512000000000"/>
    <e0 Z="80" value="-.23515512000000000"/>
    <e0 Z="81" value="-.23515512000000000"/>
    <e0 Z="82" value="-.23515512000000000"/>
    <e0 Z="83" value="-.23515512000000000"/>
    <e0 Z="84" value="-.23515512000000000"/>
    <e0 Z="85" value="-.23515512000000000"/>
    <e0 Z="86" value="-.23515512000000000"/>
    <e0 Z="87" value="-.23515512000000000"/>
    <e0 Z="88" value="-.23515512000000000"/>
    <e0 Z="89" value="-.23515512000000000"/>
    <e0 Z="90" value="-.23515512000000000"/>
    <e0 Z="91" value="-.23515512000000000"/>
    <e0 Z="92" value="-.23515512000000000"/>
    <e0 Z="93" value="-.23515512000000000"/>
    <e0 Z="94" value="-.23515512000000000"/>
    <e0 Z="95" value="-.23515512000000000"/>
    <e0 Z="96" value="-.23515512000000000"/>
    <e0 Z="97" value="-.23515512000000000"/>
    <e0 Z="98" value="-.23515512000000000"/>
    <e0 Z="99" value="-.23515512000000000"/>
    <e0 Z="100" value="-.23515512000000000"/>
    <e0 Z="101" value="-.23515512000000000"/>
    <e0 Z="102" value="-.23515512000000000"/>
    <e0 Z="103" value="-.23515512000000000"/>
    <e0 Z="104" value="-.23515512000000000"/>
    <e0 Z="105" value="-.23515512000000000"/>
    <e0 Z="106" value="-.23515512000000000"/>
    <e0 Z="107" value="-.23515512000000000"/>
    <e0 Z="108" value="-.23515512000000000"/>
    <e0 Z="109" value="-.23515512000000000"/>
    <e0 Z="110" value="-.23515512000000000"/>
    <e0 Z="111" value="-.23515512000000000"/>
    <e0 Z="112" value="-.23515512000000000"/>
    <e0 Z="113" value="-.23515512000000000"/>
    <e0 Z="114" value="-.23515512000000000"/>
    <e0 Z="115" value="-.23515512000000000"/>
    <e0 Z="116" value="-.23515512000000000"/>
    <e0 Z="117" value="-.23515512000000000"/>
    <e0 Z="118" value="-.23515512000000000"/>
  </GAP_data>
  <gpSparse label="GAP_2025_3_3_-480_14_17_21_906" n_coordinate="1" fitted="T">
    <gpCoordinates label="GAP_2025_3_3_-480_14_17_21_9061" dimensions="325" signal_variance=".20000000000000001" signal_mean=".00000000000000000E+000" sparsified="T" n_permutations="1" covariance_type="2" zeta="4.0000000000000000" n_sparseX="200">
      <descriptor> soap l_max=8 n_max=8 atom_sigma=0.5 cutoff=4.25 radial_scaling=-0.5 cutoff_transition_width=1.0 central_weight=1.0 n_sparse=200 delta=0.2 covariance_type=dot_product zeta=4 sparse_method=cur_points } n_species=1 Z=29 species_Z={29 }</descriptor>
      <permutation i="1">1  </permutation>
      <sparseX i="1" alpha="360.77735334743664" sparseCutoff="1.0000000000000000" sliced="T">
        <sparseX_slice start="1" end="50">  0.63778815816543355E+000  0.19230598407116760E-002  0.63519206273424016E-002  0.19027827295483462E-002  0.46623372821320879E-003  0.21333454766274919E-003  0.21084634158187612E-004  0.60972877640526381E-005  0.93785575358471029E-006  0.34425329190232828E+000  0.59394380612349295E-002  0.30077633434364398E-001  0.91529724809425016E-002  0.30733977049027194E-002  0.16638532431987581E-002  0.25617387191285447E-003  0.91480131379921670E-004  0.21214071879942794E-004  0.92907282354127430E-001  0.11092146110560348E-001  0.71367140468003284E-001  0.22754306675311576E-001  0.10289036735110930E-001  0.66654912240653470E-002  0.16117592690172767E-002  0.73003974973434311E-003  0.24790950291085851E-003  0.39992043289655010E+000 -0.17098381304756444E-002  0.37298210301573681E-001  0.62240545106724190E-002  0.43325855064160548E-002  0.18428817291917029E-002  0.51700015999225826E-003  0.14864572622238514E-003  0.64298768267856301E-004  0.15263714931672870E+000  
0.49430478924143680E-002  0.12464535302990708E+000  0.24029642726510918E-001  0.20350605901759460E-001  0.11039461467945455E-001  0.47764213832592406E-002  0.20125942157369946E-002  0.11469924150659583E-002  0.12538360159289655E+000  0.20643509063702072E-001  0.11116876591369915E+000  0.16849782958531845E-001  0.22458787407175509E-001  </sparseX_slice>
        <sparseX_slice start="51" end="100">  0.11279537167427856E-001  0.87040555730094043E-002  0.44600864750070001E-002  0.34647968872049029E-002  0.26434903539129001E+000 -0.15523823428128842E-001  0.12912300407712875E-001 -0.77845760054938845E-002 -0.11454869180842739E-003 -0.11558446284021377E-002  0.26646339253508233E-004 -0.60372138506398588E-004  0.51386878128327193E-004  0.10089377753096947E+000 -0.24569226236904346E-001  0.41621796925717103E-001 -0.24411132338472277E-001 -0.89254725358979103E-003 -0.59380512763244457E-002  0.57137315393319195E-003 -0.15577224106534733E-003  0.97894977221574361E-003  0.11720870689074342E+000  0.40736847274458081E-001  0.62510520862294250E-001 -0.63052317024287650E-002  0.64067788459933458E-002 -0.13047128821124607E-002  0.63161720844446380E-002  0.42979701275718939E-002  0.60853858897561581E-002  0.54783403876071550E-001  0.87739800575419052E-001  0.39254465336212442E-001  0.35036579590356214E-001  0.14028703932926594E-001  0.12449946741994136E-001  
0.97988421105714551E-002  0.78114602125351753E-002  0.88090421444999203E-002  0.25783743059416481E+000 -0.90611885308677208E-002  0.77445173914186538E-002  0.41680268423243752E-002 -0.34143393525721410E-003  0.10861120973327276E-002 -0.31132175889356169E-003 -0.39641905154106807E-004 -0.89030066582574764E-005  0.98408501181092595E-001  </sparseX_slice>
        <sparseX_slice start="101" end="150"> -0.13471198087178751E-001  0.26123218529747416E-001  0.15752960070714694E-001 -0.57716741625257620E-003  0.51966064035862177E-002 -0.27866203564066543E-002 -0.96057476661066618E-003 -0.30018355511862097E-003  0.11432155136575771E+000  0.26395386334776491E-001  0.37062091682682347E-001  0.19092436266648059E-001 -0.18558893732914378E-002  0.46563736737586280E-002 -0.62764010057589099E-002 -0.37850962366896062E-002 -0.52078709540329397E-003  0.75567011190426636E-001  0.74939409682982627E-001  0.28925621226474296E-001  0.11076168884514976E-001  0.23291855742172463E-002 -0.76443150373101774E-004  0.36212616419942167E-002  0.12286788198021313E-002  0.60843793392532678E-002  0.52117728876173899E-001  0.32211683264636207E-001  0.16563781107425731E-001  0.19098908964925661E-001  0.10828034637509200E-001  0.10480734256374143E-001  0.11230732488947601E-001  0.92829481950885574E-002  0.97819677949645550E-002 -0.21095532923607857E-001  0.74114913748762933E-003 
-0.79142522928351753E-003 -0.35830350695885925E-003  0.14592520150650751E-003 -0.11041762141622932E-003  0.45923380676023589E-004  0.14038757577964226E-005 -0.16244863623352361E-005 -0.80515066095900780E-002  0.11172735127065534E-002 -0.26405806268113381E-002 -0.12482566779963020E-002  0.64112964347282390E-003 -0.44261880674188763E-003  </sparseX_slice>
        <sparseX_slice start="151" end="200">  0.40546089293092046E-003  0.54545258973018323E-004 -0.21355744089094324E-004 -0.93534675906316901E-002 -0.21632073706241385E-002 -0.38185442005591406E-002 -0.14711095355478781E-002  0.91163181755405537E-003 -0.35585689798131598E-003  0.71850559483516998E-003  0.12212705140206742E-003 -0.19145358809281141E-003 -0.61826801827521982E-002 -0.62341115521997968E-002 -0.31398183535383231E-002 -0.12617237435766193E-002 -0.70637510750203730E-003 -0.23084190563875683E-003 -0.71338118908600089E-003 -0.47739005682696393E-003 -0.76640059224686839E-003 -0.60303846773893423E-002 -0.37599671886911967E-002 -0.22921067124817593E-002 -0.26881989346841622E-002 -0.18192356059234859E-002 -0.16405387044785469E-002 -0.16613334331273342E-002 -0.11521107289388696E-002 -0.94935469241722839E-003  0.34887878022939910E-003  0.22466531834317949E-003  0.18102068104467717E-003  0.24209671804216015E-003  0.22724064908381480E-003  0.21080571218756508E-003  0.16365421223371495E-003  
0.10076625909792084E-003  0.74409156121612422E-004  0.40692755224757387E-002 -0.14162808960519721E-003  0.15254266752677632E-003  0.69306500627140671E-004 -0.28436716232049489E-004  0.21273315046125111E-004 -0.89166285719355384E-005 -0.26465245777486230E-006  0.32191734319380650E-006  0.15531154810879797E-002 -0.21183562752318148E-003  </sparseX_slice>
        <sparseX_slice start="201" end="250">  0.50923139533469170E-003  0.24110679377754588E-003 -0.12519909806671281E-003  0.84984314517601252E-004 -0.78650628111863344E-004 -0.10378603519630274E-004  0.42666086013475674E-005  0.18042604969809952E-002  0.41889918438214814E-003  0.73538923124051440E-003  0.28292639988346203E-003 -0.17812613857285154E-003  0.67849706411170289E-004 -0.13899429714489103E-003 -0.22720942133854671E-004  0.37449477035309746E-004  0.11926235389300860E-002  0.11976091894368868E-002  0.60181044082221536E-003  0.24066684616640439E-003  0.13547504390895297E-003  0.44713964557826111E-004  0.13810130650851598E-003  0.92442836491084387E-004  0.14802249140276604E-003  0.11632461169706434E-002  0.72264028699972008E-003  0.44059357772244782E-003  0.51700673661720525E-003  0.34902659771446945E-003  0.31700027897520758E-003  0.31967961609160055E-003  0.22001292070442612E-003  0.18228662383975271E-003 -0.95173523496043408E-004 -0.61071147819587651E-004 -0.49198016693745675E-004 
-0.65863698404832870E-004 -0.61897804646153778E-004 -0.57697850902094804E-004 -0.44640645143721932E-004 -0.27324365813796177E-004 -0.20218415253056023E-004  0.12981585708216468E-004  0.83010488822578037E-005  0.66858445107611729E-005  0.89594592621068483E-005  0.84306187866285573E-005  0.78962781000510107E-005  0.60888999453600588E-005  </sparseX_slice>
        <sparseX_slice start="251" end="300">  0.37051775813638481E-005  0.27471726652368423E-005 -0.81743844304158571E-003  0.28443731296765384E-004 -0.30642369616962907E-004 -0.13923369390308802E-004  0.57138860629272564E-005 -0.42732985032777391E-005  0.17914703851833301E-005  0.53133506113365923E-007 -0.64709533970634114E-007 -0.31199074471908300E-003  0.42535524881776353E-004 -0.10229441038608986E-003 -0.48435527785757643E-004  0.25157978529294939E-004 -0.17069866530745716E-004  0.15801607808072139E-004  0.20841643615567807E-005 -0.85781246226296335E-006 -0.36244090215751070E-003 -0.84156658521510107E-004 -0.14772012097178774E-003 -0.56830437235409963E-004  0.35793836645996909E-004 -0.13625860577083516E-004  0.27923302594078500E-004  0.45600428492374160E-005 -0.75255217103861517E-005 -0.23957491288391076E-003 -0.24055214263620886E-003 -0.12087377522068744E-003 -0.48332055026463547E-004 -0.27210652881674364E-004 -0.89830289125367767E-005 -0.27744464944972213E-004 -0.18571974307389619E-004 
-0.29736001198702089E-004 -0.23367355920695645E-003 -0.14515133157304375E-003 -0.88499491544859538E-004 -0.10384958629547045E-003 -0.70103759791632702E-004 -0.63682085039713137E-004 -0.64213812938957243E-004 -0.44185668317586213E-004 -0.36613827383282780E-004  0.19118512972563490E-004  0.12266945596933409E-004  0.98820888637395222E-005  </sparseX_slice>
        <sparseX_slice start="301" end="325">  0.13229956510552646E-004  0.12433705474964296E-004  0.11591382742452443E-004  0.89674668528818423E-005  0.54881769489792125E-005  0.40611286464141550E-005 -0.36879133201856094E-005 -0.23580281616240868E-005 -0.18992096449011338E-005 -0.25451261434037341E-005 -0.23949717723523746E-005 -0.22434346483423664E-005 -0.17297924960269554E-005 -0.10524546097866504E-005 -0.78037215583255141E-006  0.52384604480922978E-006  0.33491532810595898E-006  0.26974882290296508E-006  0.36149877888107193E-006  0.34018202806855807E-006  0.31869439410732544E-006  0.24570794806822905E-006  0.14947472362463019E-006  0.11083772593701291E-006  0.00000000000000000E+000  </sparseX_slice>
      </sparseX>
      <sparseX i="2" alpha="1111.6360483941296" sparseCutoff="1.0000000000000000" sliced="T">
        <sparseX_slice start="1" end="50">  0.68488635684993215E+000  0.65889892242384216E-004  0.29524514860553236E-004  0.24879030526188724E-004  0.13628717090276111E-004  0.90733913351931962E-005  0.50605139784662270E-005  0.13826674534563440E-005  0.39816665088662342E-006  0.18417537556596306E+000  0.14866468689274642E-002  0.69309905092996118E-003  0.65215280288119396E-003  0.38241571254267058E-003  0.29419499440790022E-003  0.18999085830149313E-003  0.58038448916232552E-004  0.18398602419897087E-004  0.24763647739223398E-001  0.17214221637554657E-001  0.84889156923910313E-002  0.86592769079946209E-002  0.54525498036607570E-002  0.48146899287478629E-002  0.35786236676120151E-002  0.12256712204126927E-002  0.42780361219804826E-003  0.48833814078686749E+000  0.37947223044910074E-002  0.15973435896198922E-002  0.15975169161555535E-002  0.97314997037614053E-003  0.80777276315257553E-003  0.55690343334398643E-003  0.18169577405297656E-003  0.66593956549750125E-004  0.92857865557040578E-001  
0.63309342094747784E-001  0.28687819520572297E-001  0.30364283371286212E-001  0.20020603972650573E-001  0.18931432779258586E-001  0.14908187059930019E-001  0.55110050677775200E-002  0.22351470041149929E-002  0.17409759835486641E+000  0.11837672531002424E+000  0.50299174994376084E-001  0.54541606852382532E-001  0.38551159214546681E-001  </sparseX_slice>
        <sparseX_slice start="51" end="100">  0.38539214895930506E-001  0.31687749438876631E-001  0.13074926614402970E-001  0.63330366533499551E-002  0.33766744268283116E+000  0.22769692766215922E-002  0.42813937587921975E-003  0.56490686102884805E-003  0.48914576856647486E-003  0.49402025427384521E-003  0.33335236537306603E-003  0.12585467510634719E-003  0.67806601140888608E-004  0.64207718744042963E-001  0.39078667017900588E-001  0.93363080417875905E-002  0.11303694155224978E-001  0.10726091920856213E-001  0.12005782934438460E-001  0.90276316262484658E-002  0.40071343072920667E-002  0.23641611290237037E-002  0.17024576656504284E+000  0.10745801764715492E+000  0.28378527680485321E-001  0.33018331911706646E-001  0.35226704772510338E-001  0.39479175884028959E-001  0.29643510938067594E-001  0.15919024237662512E-001  0.11019317305969646E-001  0.83239577418641894E-001  0.55143154363600684E-001  0.16632826115363968E-001  0.17963411827217748E-001  0.27162048446959883E-001  0.30112091333193983E-001  
0.19592591637161202E-001  0.14273447130025095E-001  0.12145040866661076E-001  0.65918347289311008E-001  0.28842980007895772E-003 -0.34474248155639078E-003 -0.38943674473798195E-003 -0.41020805087087346E-004 -0.45743284697397410E-004 -0.16855300031497808E-003 -0.53928709181028297E-004 -0.77311235310643231E-006  0.12534423423225187E-001  </sparseX_slice>
        <sparseX_slice start="101" end="150">  0.31970223824663905E-002 -0.65279551629001103E-002 -0.75476675632364333E-002 -0.88560388922715870E-003 -0.95960202014009244E-003 -0.45367308603882963E-002 -0.14893804626604943E-002  0.39900028767632198E-004  0.33234828551447035E-001  0.79352535598637922E-002 -0.14568246400179530E-001 -0.16965269902932813E-001  0.12047905731982496E-002  0.14486145827399251E-002 -0.11193272978861503E-001 -0.26495924377167583E-002  0.16147054516330375E-002  0.22980632941933945E-001  0.10427248507085813E-001  0.13940538401698652E-002  0.86470697976586829E-003  0.13429856019464097E-001  0.15011243547467284E-001  0.20777580874247505E-002  0.45226580039919046E-002  0.60297498720178894E-002  0.31722259217862566E-002  0.91445330032614153E-002  0.86272729247283391E-002  0.91262017548352694E-002  0.10433106362492403E-001  0.11556161456225723E-001  0.11051748902304006E-001  0.58931726383366738E-002  0.39487513608654655E-002 -0.36110025077423741E-002 -0.90785475236232334E-005  
0.84359338829791965E-004  0.82111199694680714E-004  0.13875164023149531E-004  0.84293124569246629E-005  0.19064013133074122E-004  0.81135579375442982E-005  0.34010514714618520E-006 -0.68663484865177037E-003 -0.55510808703599863E-004  0.15269978233151398E-002  0.15551426932195150E-002  0.29112496524115325E-003  0.21402588302279937E-003  </sparseX_slice>
        <sparseX_slice start="151" end="200">  0.51510624202449039E-003  0.23300365674420326E-003  0.33454676281724075E-005 -0.18206016106099116E-002 -0.31781114246478968E-003  0.34613495434173270E-002  0.34587392549147631E-002  0.21398467073685529E-003  0.16392145632564413E-003  0.11936225716699580E-002  0.44606463947416771E-003 -0.21586711673675092E-003 -0.12588774839669963E-002 -0.11958225629512768E-002  0.20297953652501530E-003  0.42266686550649039E-005 -0.16776175061860763E-002 -0.14752005437689685E-002 -0.50385010370058471E-003 -0.56885461487708386E-003 -0.83551027144225217E-003 -0.24575399548003210E-003 -0.15003994660228945E-002 -0.19821645974020885E-002 -0.20523645584719164E-002 -0.18510991457549079E-002 -0.19256253657105890E-002 -0.19552858344910086E-002 -0.11293212255605108E-002 -0.69928794409407748E-003  0.95193450566710648E-005  0.13832766999628197E-003  0.27707669036137962E-003  0.28154654090857610E-003  0.20079852224095331E-003  0.18906050546202755E-003  0.19726152771823500E-003  
0.14421449435915513E-003  0.91313199538277514E-004  0.68706407689487158E-003  0.16814784377026008E-005 -0.16336904521473415E-004 -0.15901484272934300E-004 -0.26996277700100912E-005 -0.16452545659980265E-005 -0.36954326519884656E-005 -0.15725152250479686E-005 -0.67957954938939725E-007  0.13064575209828025E-003  0.95240993934683167E-005  </sparseX_slice>
        <sparseX_slice start="201" end="250"> -0.29573965925921411E-003 -0.30117312692324580E-003 -0.56651531250113992E-004 -0.41760270845782834E-004 -0.99850023723104171E-004 -0.45171227367938969E-004 -0.72347980614925107E-006  0.34640517759403842E-003  0.58245114213857422E-004 -0.67057155084278329E-003 -0.67003284047768754E-003 -0.42495805224162473E-004 -0.32944065906646976E-004 -0.23162754242318407E-003 -0.86732437874837174E-004  0.41371008220265086E-004  0.23952614117299050E-003  0.22903077134795908E-003 -0.40013209014535176E-004 -0.15454644815021805E-005  0.32324553667541055E-003  0.28386284947182487E-003  0.96597914597050408E-004  0.10934486632036805E-003  0.16095240994487843E-003  0.46759519464659741E-004  0.28971641766356056E-003  0.38333607944502138E-003  0.39690146251449352E-003  0.35748871623915939E-003  0.37181438571440008E-003  0.37793177633005419E-003  0.21817976640927414E-003  0.13498205103737614E-003 -0.25614832439085494E-005 -0.37788931361006850E-004 -0.75813447746602165E-004 
-0.77025002332628193E-004 -0.54867716119775297E-004 -0.51652511697901119E-004 -0.53919606767934687E-004 -0.39411203663311997E-004 -0.24932981396602826E-004  0.34462436069728569E-006  0.51617111898898919E-005  0.10372019753177926E-004  0.10536199544137618E-004  0.74962585984928941E-005  0.70559213505813647E-005  0.73692286246458620E-005  </sparseX_slice>
        <sparseX_slice start="251" end="300">  0.53851961478936623E-005  0.34039713584742093E-005 -0.13796936430940498E-003 -0.33741554663466818E-006  0.32821205759589676E-005  0.31946437590182009E-005  0.54242661889624597E-006  0.33060214777467448E-006  0.74243931543388339E-006  0.31592842792970374E-006  0.13663777021499707E-007 -0.26234978618277956E-004 -0.19070538461783762E-005  0.59414881417965224E-004  0.60506394334093455E-004  0.11382835890952650E-004  0.83913558694561820E-005  0.20060596905077738E-004  0.90752525661568555E-005  0.14574120039340709E-006 -0.69561637339757068E-004 -0.11684440755329954E-004  0.13472063230458135E-003  0.13461224609133415E-003  0.85429820489436526E-005  0.66247619534489851E-005  0.46536967317785052E-004  0.17426553203064797E-004 -0.83092796063593327E-005 -0.48099253831573695E-004 -0.45999560652981666E-004  0.80423941283223504E-005  0.31426237205551977E-006 -0.64932259864801357E-004 -0.57019246884241862E-004 -0.19401663361984195E-004 -0.21963383216105129E-004 
-0.32331287499205458E-004 -0.93897809431528262E-005 -0.58200299692090770E-004 -0.77010356022953858E-004 -0.79735520973774559E-004 -0.71815157330647102E-004 -0.74692663520163884E-004 -0.75923595671537538E-004 -0.43830099868578602E-004 -0.27115913073819959E-004  0.51437155097446633E-006  0.75913880004831031E-005  0.15230724794147770E-004  </sparseX_slice>
        <sparseX_slice start="301" end="325">  0.15474063606710873E-004  0.11022395839355438E-004  0.10376452174186857E-004  0.10832025829274426E-004  0.79173567290597428E-005  0.50087015130645108E-005 -0.97869279817312382E-007 -0.14664436150001952E-005 -0.29468136835130001E-005 -0.29934476087363998E-005 -0.21297013782264452E-005 -0.20045930290199966E-005 -0.20936304419578777E-005 -0.15299493921084424E-005 -0.96705652577545546E-006  0.13896864273580685E-007  0.20830852488734458E-006  0.41861233891519197E-006  0.42523533076802723E-006  0.30252611418680622E-006  0.28475326059816051E-006  0.29740483417201388E-006  0.21733146591789852E-006  0.13736871246026950E-006  0.00000000000000000E+000  </sparseX_slice>
      </sparseX>
      <sparseX i="3" alpha="-5.1091690981014368" sparseCutoff="1.0000000000000000" sliced="T">
        <sparseX_slice start="1" end="50">  0.32985837861423778E+000  0.17026003366795659E-004  0.18755330870596014E-005  0.88816595952928914E-005  0.27436311403149228E-005  0.16441838428541526E-005  0.33156419843484820E-005  0.13203882763490501E-005  0.97054373140781766E-007  0.13536733972898687E+000  0.52068998146514143E-003  0.56838693881084501E-004  0.26107460407602436E-003  0.90201475009924880E-004  0.62836813200243641E-004  0.14470960450059189E-003  0.63587531615019841E-004  0.47483158020718397E-005  0.27776036404297062E-001  0.79712022721717436E-002  0.92393915476466693E-003  0.38843597210692156E-002  0.15254913354674645E-002  0.12107884511335645E-002  0.31637782615076188E-002  0.15336867817134056E-002  0.11818011325116475E-003  0.45991965307193489E+000  0.18278714529561390E-002  0.14036163064814623E-003  0.53412758622409511E-003  0.17983369919827356E-003  0.18746514264621515E-003  0.58094822862583687E-003  0.29470744502398165E-003  0.18237816913842350E-004  0.13346068341814890E+000  
0.39507470813661613E-001  0.35725722233537686E-002  0.11645855964409939E-001  0.47222832670190612E-002  0.52185921883888767E-002  0.18067305603612860E-001  0.10110435402251743E-001  0.70647001999691813E-003  0.32063167255360825E+000  0.98252255336799807E-001  0.86168269596618944E-002  0.19788837671039134E-001  0.99223189396032471E-002  </sparseX_slice>
        <sparseX_slice start="51" end="100">  0.12576883062203829E-001  0.52829370440564023E-001  0.34170837427268064E-001  0.31865254324076305E-002  0.43310203767994310E+000  0.18358230055237361E-002  0.33207829548477574E-004 -0.20045503398123725E-004 -0.35528566473701479E-004  0.11740937830447717E-003  0.63546289645951615E-003  0.37008574891461151E-003  0.18091112156992261E-004  0.12567867790054493E+000  0.39574879488274435E-001  0.15374708576186182E-002  0.43624212720818115E-003  0.57351238673857581E-004  0.34461502061434893E-002  0.19896238432377516E-001  0.12760143695181199E-001  0.79515214271300659E-003  0.42700177202478201E+000  0.13986813709378271E+000  0.98165915060479478E-002  0.82777809683766412E-002  0.83696007670189497E-002  0.15113780268869014E-001  0.84691331992550245E-001  0.62426440528900312E-001  0.71405357899036286E-002  0.28433016591930571E+000  0.10024898305792881E+000  0.10504773412269843E-001  0.11737732346815227E-001  0.13078806840353589E-001  0.12976640228550215E-001  
0.70254748675134399E-001  0.58270208186503220E-001  0.93523737827452321E-002 -0.34528202279279711E-001 -0.49536549539712233E-004 -0.69482327169601533E-004 -0.11844278911501354E-003 -0.72003099917306222E-004 -0.57406134658102261E-004 -0.88158669454192960E-004 -0.40315260568921680E-004 -0.43829423740036522E-005 -0.10019483713325918E-001  </sparseX_slice>
        <sparseX_slice start="101" end="150"> -0.10914696982965717E-002 -0.16109911885637317E-002 -0.26643761781830829E-002 -0.18815643964101858E-002 -0.15848439449011051E-002 -0.27176949439308472E-002 -0.13763171509542144E-002 -0.14059296619799367E-003 -0.34041870680317360E-001 -0.38728298228848795E-002 -0.43577163593460175E-002 -0.62532527736321375E-002 -0.49788645834547337E-002 -0.44058148705931515E-002 -0.10421767139187894E-001 -0.61457066748682714E-002 -0.16381414343777633E-003 -0.32056911374858228E-001 -0.38691365137055764E-002 -0.17737235843953607E-002 -0.12358316280703841E-002 -0.17555799827032664E-002 -0.19039121196710821E-002 -0.10489769448384733E-001 -0.72452575749876015E-002  0.51133712583157612E-003  0.18071342581130931E-002  0.18417202534417389E-003  0.14118307198562525E-002  0.14519196239935269E-002  0.16175364644158833E-002  0.14719358141576531E-002  0.16432162409628155E-002  0.97021905229888162E-003  0.35366497222513938E-003  0.11806086671027331E-001  0.40338813568257114E-004  
0.10639224304783959E-004  0.30583441188821392E-004  0.15291833974350729E-004  0.38696337980494229E-005  0.10931658128519170E-004  0.55317605217520886E-005  0.68294281597491284E-006  0.34259209952977655E-002  0.88229233868237979E-003  0.26458764624352565E-003  0.68384481984124033E-003  0.37478066165845200E-003  0.11045468669426135E-003  </sparseX_slice>
        <sparseX_slice start="151" end="200">  0.34368472636357364E-003  0.18451007923551822E-003  0.19413619279143227E-004  0.11639797300912790E-001  0.30594695698922605E-002  0.71881096899366543E-003  0.16283364580068184E-002  0.79243842243927173E-003  0.22481699445102505E-003  0.13896783969018836E-002  0.74275093082188564E-003 -0.43955294639620694E-004  0.10961088302130778E-001  0.30057102778795791E-002  0.28753062586533496E-003  0.39770453896345755E-003 -0.80697895470021555E-004 -0.10336080279376086E-003  0.14936731448711301E-002  0.78678443861367609E-003 -0.22756247721506328E-003 -0.87385105857363838E-003 -0.10922178956469022E-003 -0.33453112295916938E-003 -0.46859905564934233E-003 -0.36837003722450920E-003 -0.23126596221002206E-003 -0.28849022143869417E-003 -0.16233178724246587E-003 -0.63275290972494613E-004  0.21127806889334073E-003  0.53783876874000185E-004  0.46487248764180984E-004  0.86134771002042903E-004  0.63295683687739787E-004  0.31087371941799499E-004  0.37125793387237060E-004  
0.25403555274934971E-004  0.16114533597141931E-004 -0.22630148313436287E-002 -0.76537964674544733E-005 -0.20809094638366839E-005 -0.58925942838069224E-005 -0.29594031898484738E-005 -0.79336161787760268E-006 -0.21713481331269574E-005 -0.10969067747773501E-005 -0.13419773809274362E-006 -0.65668754087638208E-003 -0.16742519358856878E-003  </sparseX_slice>
        <sparseX_slice start="201" end="250"> -0.51634597769537138E-004 -0.13177003998251252E-003 -0.72667425416148937E-004 -0.22589891130330782E-004 -0.68205026360456178E-004 -0.36626440852306698E-004 -0.38366363033568481E-005 -0.22311401448916399E-002 -0.58060019681319196E-003 -0.14016383070431472E-003 -0.31365529386781754E-003 -0.15493855657119457E-003 -0.47452248022232403E-004 -0.27524868015049470E-003 -0.14827772453676629E-003  0.79975722950160185E-005 -0.21010438163444919E-002 -0.57036613193819517E-003 -0.55907558173243478E-004 -0.76285528527997889E-004  0.12812036448054692E-004  0.16948858673183051E-004 -0.29523588543642430E-003 -0.15812541546796649E-003  0.43321720235234823E-004  0.16750155754746755E-003  0.20876136258026859E-004  0.65253931267987957E-004  0.90514702187775191E-004  0.71888297933776405E-004  0.45826315696163972E-004  0.57167470671211969E-004  0.32355230338142776E-004  0.12506019279760311E-004 -0.57273120967673119E-004 -0.14458015620339831E-004 -0.12766026527061546E-004 
-0.23449060866365972E-004 -0.17239888799891930E-004 -0.85219930477481331E-005 -0.10251859144788033E-004 -0.69746021653285016E-005 -0.43503962799458974E-005  0.77627801185405177E-005  0.19433772250299267E-005  0.17530832920880147E-005  0.31921485752055224E-005  0.23486657830713284E-005  0.11689171431241024E-005  0.14161719992764979E-005  </sparseX_slice>
        <sparseX_slice start="251" end="300">  0.95826220362971542E-006  0.58765670376029483E-006  0.45453310281649850E-003  0.15369010016312242E-005  0.41816100168190050E-006  0.11836915692008142E-005  0.59454332591791438E-006  0.15960548602054978E-006  0.43649581836011161E-006  0.22049628500242701E-006  0.26970130732933637E-007  0.13189760022838944E-003  0.33619487682267302E-004  0.10375468527534447E-004  0.26469739399245634E-004  0.14599537641250903E-004  0.45442876881979695E-005  0.13710640046743667E-004  0.73627064828193725E-005  0.77116683652347642E-006  0.44813097944829979E-003  0.11658645450003278E-003  0.28164047079736966E-004  0.63006005604940868E-004  0.31134843041805775E-004  0.95525661534293942E-005  0.55328158005496880E-004  0.29811043320181596E-004 -0.16041941527223319E-005  0.42200075393649403E-003  0.11453129230595972E-003  0.11233186034757436E-004  0.15322400339133074E-004 -0.25602247805273066E-005 -0.33900183510552010E-005  0.59342844973781491E-004  0.31795951352020345E-004 
-0.86997377409219573E-005 -0.33643174416776923E-004 -0.41927308419053453E-005 -0.13111990771555376E-004 -0.18183525613045152E-004 -0.14445285159621735E-004 -0.92117766843826414E-005 -0.11491470175303426E-004 -0.65047301222235468E-005 -0.25137230953754768E-005  0.11503472721813638E-004  0.29033319120543049E-005  0.25648965692631218E-005  </sparseX_slice>
        <sparseX_slice start="301" end="325">  0.47102960941921571E-005  0.34630828956299962E-005  0.17121353987382150E-005  0.20600336347312677E-005  0.14012960388029477E-005  0.87369793391001325E-006 -0.22050091708462656E-005 -0.55190031164107702E-006 -0.49811887630151007E-006 -0.90682156428796328E-006 -0.66721910326572365E-006 -0.33212637102290251E-006 -0.40244630469646426E-006 -0.27228191084331928E-006 -0.16690867140177946E-006  0.31316521718189880E-006  0.78367174229151250E-007  0.70767440044662825E-007  0.12880437356005736E-006  0.94773260404144461E-007  0.47183829391941351E-007  0.57183405668183016E-007  0.38683293507268895E-007  0.23703053657211760E-007  0.00000000000000000E+000  </sparseX_slice>
      </sparseX>
      <sparseX i="4" alpha="1330.6767903888529" sparseCutoff="1.0000000000000000" sliced="T">
        <sparseX_slice start="1" end="50">  0.60789723806847251E+000  0.96225591260686342E-003  0.69792928593939837E-003  0.37329373397181802E-003  0.13041518015926120E-003  0.40359203315004675E-004  0.12437405272601995E-004  0.29827135992531698E-005  0.55488854907310333E-006  0.19752955786937038E+000  0.63667626465470379E-002  0.51981094698516838E-002  0.34187745768946456E-002  0.12306749053205067E-002  0.51412291633496081E-003  0.23473683315978025E-003  0.75023502565720203E-004  0.16821388217276170E-004  0.32092534550777166E-001  0.23308453951364456E-001  0.20596611970481266E-001  0.16420827237873005E-001  0.64422644262141027E-002  0.37337673099840808E-002  0.24100922428063054E-002  0.10078128675080971E-002  0.27643392247618894E-003  0.47474542606910775E+000  0.77770991760174298E-002  0.78724821369755595E-002  0.53413754543553404E-002  0.13412366694808752E-002  0.10158209816118514E-002  0.46432042169264039E-003  0.20349269153079302E-003  0.50578912563882170E-004  0.10908064890624537E+000  
0.53536266136090083E-001  0.50462932518759038E-001  0.40440522712680900E-001  0.13796654126677060E-001  0.12823919515214515E-001  0.79801201148269538E-002  0.43657365898702042E-002  0.14283110736506008E-002  0.18537937455487488E+000  0.97095220989855222E-001  0.77631523655217027E-001  0.62161735152190069E-001  0.28548103632759798E-001  </sparseX_slice>
        <sparseX_slice start="51" end="100">  0.29631257241892719E-001  0.18022997422923435E-001  0.12129907704871351E-001  0.56181035921102768E-002  0.39416153500555212E+000 -0.23599887027633687E-002 -0.18181419169830955E-003 -0.71436156425796105E-003 -0.13870536683347429E-002  0.35168974712260014E-003  0.16254705315744371E-004  0.10991173831758417E-003  0.39903909780108014E-004  0.90565161139706529E-001  0.13774508426965249E-001  0.11061765419971696E-001  0.27591063361326602E-002 -0.33012327886774613E-002  0.79848240938329915E-002  0.28684587122852754E-002  0.32828793676645497E-002  0.15346583423848721E-002  0.21766563179734830E+000  0.12146514021559776E+000  0.62851692203019255E-001  0.38783032992414243E-001  0.34364385660711233E-001  0.42035785032282426E-001  0.22421077208364761E-001  0.19405842603491569E-001  0.12437087471630959E-001  0.12778748277552893E+000  0.14251569869081929E+000  0.64759600280927657E-001  0.48731091674840847E-001  0.59759939839644616E-001  0.44282521424581479E-001  
0.28509478330383468E-001  0.22343540704912023E-001  0.16890959958738003E-001  0.26378808288205748E-001  0.92251568359835560E-003 -0.11084386662418167E-002 -0.65663679139839597E-003  0.42396917826780889E-003  0.22486301817371991E-003 -0.66265699711867023E-004 -0.52561947132482381E-004 -0.66883990699477050E-006  0.60609694531992544E-002  </sparseX_slice>
        <sparseX_slice start="101" end="150">  0.54488706041476128E-002 -0.65384627232574453E-002 -0.63207710375645576E-002  0.76231507643851942E-003  0.77985630912483477E-003 -0.12364167656553008E-002 -0.87045967536397944E-003  0.33513640757528995E-004  0.14567022558486218E-001  0.12186133114006193E-001 -0.10645062300149173E-001 -0.16081038310610564E-001 -0.41011582618736189E-002 -0.18214177228174589E-004 -0.21339589993195811E-002 -0.12320736417234153E-002  0.12020110607274662E-002  0.12094397664144356E-001  0.10263773248433451E-001  0.23757635783833763E-002 -0.61128423802395320E-002 -0.45076840062143785E-002  0.25140952070893557E-002  0.41770822614421305E-002  0.35873027775445965E-002  0.45301955486653648E-002  0.57233483155547246E-003  0.25388589873779452E-002  0.54608953122707842E-002  0.81800030783045208E-002  0.88725802900232100E-002  0.74685571581163505E-002  0.55498714002612083E-002  0.40049416081882347E-002  0.29991563342658743E-002 -0.31201237793051237E-002 -0.15757920999805977E-003  
0.17594187448202414E-003  0.10762603730760440E-003 -0.76013266371634093E-004 -0.38253140332749579E-004  0.12049878159850307E-004  0.90838673722377979E-005  0.24377628933237802E-006 -0.71690027502206266E-003 -0.83505984297759265E-003  0.10906336461090002E-002  0.10684048652676468E-002 -0.13929416526761840E-003 -0.11487985279209816E-003  </sparseX_slice>
        <sparseX_slice start="151" end="200">  0.23227970674203873E-003  0.15732595151060416E-003  0.12105571124360775E-007 -0.17230085977283747E-002 -0.15593087602970110E-002  0.19508474591625265E-002  0.28129494441746137E-002  0.78542697273806760E-003  0.12298566561700071E-003  0.46942721885969850E-003  0.27435490360397754E-003 -0.15944900761616273E-003 -0.14305429318860220E-002 -0.98465095953576606E-003 -0.50317819836179711E-004  0.12287755751772857E-002  0.98990985904875658E-003 -0.22776536702605451E-003 -0.54714190606668241E-003 -0.48053668213922455E-003 -0.66981080806205397E-003 -0.95737443654256136E-004 -0.56145042716357980E-003 -0.12731715417763506E-002 -0.19561362458336250E-002 -0.21366910897330292E-002 -0.17799479884458573E-002 -0.12952897558919797E-002 -0.91186935861000469E-003 -0.67034758037910920E-003  0.80072517101062560E-005  0.63676143811644496E-004  0.14943582405929824E-003  0.23437927900215975E-003  0.25776285677829813E-003  0.21269253452642711E-003  0.15172539495279274E-003  
0.10419024245609893E-003  0.75088508393545480E-004  0.59693849170962753E-003  0.30484108406593128E-004 -0.33971440363275491E-004 -0.20798790870770037E-004  0.14722290832527729E-004  0.73996226977695429E-005 -0.23346359133120095E-005 -0.17578713661505309E-005 -0.47769336815863660E-007  0.13715653581320225E-003  0.16108458495985842E-003  </sparseX_slice>
        <sparseX_slice start="201" end="250"> -0.21085640213750923E-003 -0.20663165298194118E-003  0.26990569264767792E-004  0.22137345477815862E-004 -0.45036821606604779E-004 -0.30477258509583355E-004 -0.29277488759910888E-007  0.32964402257136028E-003  0.29914191493171790E-003 -0.37802714813095500E-003 -0.54448844118221401E-003 -0.15234904541667392E-003 -0.24362360366571387E-004 -0.91313225427774630E-004 -0.53378760703747622E-004  0.30632323887255680E-004  0.27368982786833240E-003  0.18678852660805397E-003  0.80271192558192747E-005 -0.23859310529792728E-003 -0.19255144879175450E-003  0.43102769161664842E-004  0.10505950634854450E-003  0.92340610420568151E-004  0.12909594759159067E-003  0.18316377572634222E-004  0.10836415056246187E-003  0.24607593477742908E-003  0.37832453624703818E-003  0.41332097761622089E-003  0.34422713275593196E-003  0.25036930017843903E-003  0.17614828257875206E-003  0.12943359043839046E-003 -0.21664877575481378E-005 -0.17392494805728426E-004 -0.40853407733991552E-004 
-0.64109474958320400E-004 -0.70518204787115845E-004 -0.58174824700132928E-004 -0.41479069987241995E-004 -0.28466168500203843E-004 -0.20505095388704088E-004  0.29308865098382629E-006  0.23753349154117682E-005  0.55843651854779998E-005  0.87679041753272994E-005  0.96461200533962442E-005  0.79558882297664978E-005  0.56698399919417543E-005  </sparseX_slice>
        <sparseX_slice start="251" end="300">  0.38886786253736656E-005  0.27997600196218401E-005 -0.11988838301477380E-003 -0.61241580845509117E-005  0.68244138042436295E-005  0.41782962723511294E-005 -0.29577503675416512E-005 -0.14865572774161155E-005  0.46903924255161949E-006  0.35315362107681034E-006  0.95998753128582710E-008 -0.27546347784440464E-004 -0.32358977094036422E-004  0.42359690479534523E-004  0.41511344976693732E-004 -0.54225449398057128E-005 -0.44468712398508676E-005  0.90482796290506347E-005  0.61230011506464333E-005  0.60217292984940249E-008 -0.66205294825903390E-004 -0.60083583349247583E-004  0.75947700821580818E-004  0.10938759729368213E-003  0.30608538512415022E-004  0.48972842742145594E-005  0.18347135743574346E-004  0.10725199900604917E-004 -0.61528247940553338E-005 -0.54967524068940768E-004 -0.37505995541000515E-004 -0.16037467881245999E-005  0.47937169722739916E-004  0.38688421750830602E-004 -0.86542206476004042E-005 -0.21102024614861336E-004 -0.18547703500602964E-004 
-0.25932458185185270E-004 -0.36786384533221883E-005 -0.21768705455565420E-004 -0.49434697124863649E-004 -0.76003672481867485E-004 -0.83034695698105493E-004 -0.69153546766844427E-004 -0.50297297173885268E-004 -0.35386290541960800E-004 -0.26001504503066402E-004  0.43511470223651594E-006  0.34939487353432999E-005  0.82071618911334753E-005  </sparseX_slice>
        <sparseX_slice start="301" end="325">  0.12879318242516295E-004  0.14166870404433849E-004  0.11687058582228625E-004  0.83328518396189022E-005  0.57185603460153911E-005  0.41192102238610325E-005 -0.83245644226202738E-007 -0.67483049509804010E-006 -0.15865492972749060E-005 -0.24910443610862748E-005 -0.27405665134428013E-005 -0.22603402994473236E-005 -0.16108328498702302E-005 -0.11047773735399367E-005 -0.79540439459387692E-006  0.11822083965676882E-007  0.95859366964088641E-007  0.22537375302930487E-006  0.35386461178269075E-006  0.38931221977390874E-006  0.32109163223859639E-006  0.22882325410708395E-006  0.15693416256260733E-006  0.11298613938034805E-006  0.00000000000000000E+000  </sparseX_slice>
      </sparseX>
      <sparseX i="5" alpha="966.00911285247707" sparseCutoff="1.0000000000000000" sliced="T">
        <sparseX_slice start="1" end="50">  0.56411481445610345E+000  0.68518327594361099E-002  0.94277068193290535E-002  0.49690884040045520E-002  0.54145964121370582E-003  0.14042179830078052E-003  0.24608477835256791E-004  0.36919467631867365E-005  0.65887617557259314E-006  0.48051854710357417E+000  0.17246920318987991E-001  0.20651263274018200E-001  0.17610212691476047E-001  0.23723744991826392E-002  0.63136675911800225E-003  0.21577807878430660E-003  0.70519445199396805E-004  0.19466163693111149E-004  0.20465521219572322E+000  0.26456952039191448E-001  0.24651246685388331E-001  0.36258684549760341E-001  0.84601998233118769E-002  0.32506177774126749E-002  0.14429050736979555E-002  0.82115844864396887E-003  0.33357035120257770E-003  0.43888172073135817E+000  0.77179114560520616E-002  0.86148157368178522E-003  0.13824905363257894E-001  0.12116574767576521E-002  0.38512713957880888E-003  0.26133856837503059E-003  0.17337477986078151E-003  0.52815330803449617E-004  0.26434746217263688E+000  
0.24596452247162823E-001  0.66614904357859559E-002  0.55297445196469223E-001  0.16159438482515540E-001  0.80898779472098909E-002  0.43096254090134265E-002  0.33060509701742036E-002  0.14505365848996546E-002  0.17072514305251094E+000  0.16761653136451213E-001  0.84389454123214684E-002  0.65208069157719650E-001  0.26138522858947483E-001  </sparseX_slice>
        <sparseX_slice start="51" end="100">  0.16645517482205351E-001  0.11184931982564263E-001  0.82611630029104932E-002  0.40124880410067143E-002  0.23631470515585418E+000  0.12100661684026341E-001  0.86422019806952927E-002  0.23033227376026708E-002 -0.26197757004006203E-002 -0.70876829267259886E-003 -0.20184414737761452E-003  0.87351965921753617E-004  0.29587649318141819E-004  0.14233719389799493E+000  0.13020513674707641E-001  0.10598872877812285E-001  0.17022778778929333E-001 -0.28490060777334246E-002  0.60782317127317952E-003  0.14754428903728590E-002  0.23759439775588405E-002  0.11421510151308492E-002  0.13000370736690828E+000 -0.40927906019136949E-002  0.56373055857735826E-004  0.49569554461205652E-001  0.14276178320127505E-001  0.17707654021825281E-001  0.17772750657248839E-001  0.12088762282670872E-001  0.65199340314862440E-002  0.49497583153122304E-001  0.18543274077073572E-001  0.13576409430631556E-001  0.33984468902419129E-001  0.18404924964888793E-001  0.24441880958929203E-001  
0.23969560935315899E-001  0.12463832981878576E-001  0.72921278288517856E-002  0.47916935062016002E-002  0.22607020841025481E-002  0.16057934946506652E-002  0.19494767935017388E-002  0.53288074423967955E-003 -0.11937739863319483E-003 -0.18384449652747147E-004 -0.13379440721151500E-004 -0.81458945440480487E-005  0.28861352798259599E-002  </sparseX_slice>
        <sparseX_slice start="101" end="150">  0.43105122707529746E-002  0.92600804256553191E-003  0.24808804415795077E-002  0.54894108827742677E-003 -0.69677322354793334E-003 -0.20819324954540289E-003 -0.21913406066647074E-003 -0.90044338560634924E-004  0.26360522929002998E-002  0.23233086756930909E-002 -0.29850474472627275E-002 -0.33351726117817901E-002 -0.15664824967995933E-002  0.35845050471801799E-003  0.46154313046223690E-003 -0.21122076936628463E-003  0.16285331819106648E-003  0.14193754055969244E-002  0.29751008984282420E-002  0.22743593363336802E-002 -0.31947421505367645E-002 -0.88509685046237938E-003  0.38751957926981533E-002  0.24719687851654623E-002  0.10149383811378886E-002  0.10897978042863484E-002  0.20350756680191067E-004  0.97715453635755520E-003  0.10290073651589467E-002  0.17124170077538318E-002  0.18596372796463396E-002  0.73967551395071529E-003  0.74811140995152984E-003  0.80536160868849608E-003  0.49760820769643316E-003 -0.61737135926056013E-003 -0.41139401220343291E-003 
-0.30620737899881618E-003 -0.36934456013733031E-003 -0.10435817819257810E-003  0.21637700308124523E-004  0.34278100988018209E-005  0.26254301589484772E-005  0.16129566126353105E-005 -0.37185543240816861E-003 -0.78989762079805881E-003 -0.18227853242405444E-003 -0.45591461026439287E-003 -0.10418364970352227E-003  0.13646357199625179E-003  </sparseX_slice>
        <sparseX_slice start="151" end="200">  0.42076163205774628E-004  0.44999918721186150E-004  0.19539227684558118E-004 -0.33963424101384989E-003 -0.43227223449594213E-003  0.56654556704226102E-003  0.69125280047621261E-003  0.32170065006066628E-003 -0.36890658221275879E-004 -0.63969926459164414E-004  0.56297294259452911E-004 -0.19412546016484345E-004 -0.18287516142680314E-003 -0.53980808512749882E-003 -0.40877133790690796E-003  0.67175816895879634E-003  0.19772889822582964E-003 -0.68961591659895134E-003 -0.42491926003725329E-003 -0.16950881296352047E-003 -0.18982447002447304E-003 -0.37081133942826670E-005 -0.26047611880307495E-003 -0.27270866473158003E-003 -0.46291230828269484E-003 -0.50140976923995469E-003 -0.19331861462135183E-003 -0.19634106099426709E-003 -0.21280091055286455E-003 -0.12954296942255776E-003  0.33782785478051868E-006  0.34743276291058069E-004  0.36169875729628278E-004  0.62639830071170132E-004  0.67636007452571208E-004  0.25301647754399700E-004  0.25800429549870510E-004  
0.28141686213439208E-004  0.16879483458786600E-004  0.11828379370528001E-003  0.79683101462108168E-004  0.59381627600440726E-004  0.71613404769000781E-004  0.20250873413977293E-004 -0.41906100703379903E-005 -0.66436229698647179E-006 -0.50949525685894742E-006 -0.31308204855992765E-006  0.71244755033399542E-004  0.15302326533975344E-003  </sparseX_slice>
        <sparseX_slice start="201" end="250">  0.35377095618707427E-004  0.88330155677655950E-004  0.20201099332651786E-004 -0.26481185692250529E-004 -0.81711368680163595E-005 -0.87421710714913017E-005 -0.38006170699343744E-005  0.65071412686600768E-004  0.83774809755139557E-004 -0.10985348737446543E-003 -0.13431840566005023E-003 -0.62497507899219015E-004  0.70011475805711797E-005  0.12288886512754055E-004 -0.10994942368982785E-004  0.37083150610605561E-005  0.35037530561728527E-004  0.10454809902171254E-003  0.79149522345730591E-004 -0.13057386436118442E-003 -0.38484770918417028E-004  0.13349412959042173E-003  0.82177353624903661E-004  0.32755841193175277E-004  0.36724915165910673E-004  0.71044714528132551E-006  0.50497739150324675E-004  0.52861416323370148E-004  0.89775284272854903E-004  0.97235114035201028E-004  0.37459371358229881E-004  0.38049172416664185E-004  0.41246170573376927E-004  0.25099202871776305E-004 -0.91535428799327492E-007 -0.95257269993608101E-005 -0.99154414705673061E-005 
-0.17180505782590409E-004 -0.18549387997380099E-004 -0.69337472897708780E-005 -0.70711727100916528E-005 -0.77141144288006221E-005 -0.46252139947188471E-005  0.12400893838254222E-007  0.13058572596146015E-005  0.13590873147868567E-005  0.23560886718498666E-005  0.25436149543970508E-005  0.95007451100340548E-006  0.96900574800787894E-006  </sparseX_slice>
        <sparseX_slice start="251" end="300">  0.10572855996560975E-005  0.63368702316596023E-006 -0.23756835942031767E-004 -0.16008581458948962E-004 -0.11930328541880485E-004 -0.14387744445224136E-004 -0.40686593432366891E-005  0.84190440828747561E-006  0.13347467016900339E-006  0.10236424697959393E-006  0.62902628859934005E-007 -0.14309229557482162E-004 -0.30742990926552976E-004 -0.71077402877988781E-005 -0.17745925672677328E-004 -0.40585763932362534E-005  0.53204098305987356E-005  0.16417180227391396E-005  0.17564651905373954E-005  0.76363932078341653E-006 -0.13069337964959210E-004 -0.16830867118983943E-004  0.22070524989596680E-004  0.26987218548692877E-004  0.12556917211333951E-004 -0.14058012169395011E-005 -0.24683469364255597E-005  0.22093901395150264E-005 -0.74474274057042171E-006 -0.70371505621716692E-005 -0.21003996920046933E-004 -0.15901250557556564E-004  0.26235092111753086E-004  0.77326809417867300E-005 -0.26818977908763115E-004 -0.16509031323003592E-004 -0.65803520574461490E-005 
-0.73779289892579750E-005 -0.14269052206752018E-006 -0.10145391461731876E-004 -0.10620232092733702E-004 -0.18036723679289449E-004 -0.19535443422895192E-004 -0.75257837449974130E-005 -0.76442994246445788E-005 -0.82866325012834126E-005 -0.50425489832715426E-005  0.18384531783681565E-007  0.19137941431524899E-005  0.19920834702121779E-005  </sparseX_slice>
        <sparseX_slice start="301" end="325">  0.34517324612007894E-005  0.37267468564730772E-005  0.13930275630139470E-005  0.14206409177418214E-005  0.15498183629496559E-005  0.92922808681238650E-006 -0.35223405366159392E-008 -0.37102895354589947E-006 -0.38615160124594294E-006 -0.66943408126848484E-006 -0.72271435311123814E-006 -0.26993821814710494E-006 -0.27531776523179109E-006 -0.30040146590235948E-006 -0.18004468961159324E-006  0.50024147524008170E-009  0.52709621744964347E-007  0.54857792278131957E-007  0.95102954895298175E-007  0.10267199353762195E-006  0.38347856311865812E-007  0.39112188990835736E-007  0.42675810955918771E-007  0.25577366339605600E-007  0.00000000000000000E+000  </sparseX_slice>
      </sparseX>
      <sparseX i="6" alpha="-2135.9384630901236" sparseCutoff="1.0000000000000000" sliced="T">
        <sparseX_slice start="1" end="50">  0.87634712156762495E+000  0.84013734936848030E-004  0.68759799022331464E-004  0.42546789159232532E-004  0.21621020707615353E-004  0.95307624329853784E-005  0.37595049083708011E-005  0.13374423589452528E-005  0.42828927165447947E-006  0.12597170681492004E+000  0.14734398652898307E-002  0.12632258184473580E-002  0.84904017427306225E-003  0.48979278616346448E-003  0.25423987443405453E-003  0.11939283678729625E-003  0.49711259958069420E-004  0.18012240712757056E-004  0.90539870145734339E-002  0.12952204654856357E-001  0.11658847802901662E-001  0.85145394700890612E-002  0.55754419402017918E-002  0.34103071925083183E-002  0.19067647703571945E-002  0.92889130299291574E-003  0.38127479138082542E-003  0.33601939073795628E+000  0.36818114555064057E-002  0.27894380062073567E-002  0.16297383163004166E-002  0.89780678067312675E-003  0.52921204452514707E-003  0.30792980565712584E-003  0.15379298057066959E-003  0.61126743197379747E-004  0.34154363119977896E-001  
0.46209476566894642E-001  0.37246253013114149E-001  0.23845983189066930E-001  0.14984640021907957E-001  0.10457718487520057E-001  0.72247808123697167E-002  0.42060597305251532E-002  0.19104896694012161E-002  0.64420266908581658E-001  0.85473942018861465E-001  0.65826207261501096E-001  0.39591442646031524E-001  0.25214115241950694E-001  </sparseX_slice>
        <sparseX_slice start="51" end="100">  0.20550468737724072E-001  0.16996240550502681E-001  0.11513769541753033E-001  0.60726391241564511E-002  0.23136270308343734E+000  0.21040462383662725E-002  0.89998131901887696E-003 -0.19852389281029045E-004 -0.15072402855136291E-003  0.47749405851437255E-004  0.15318770663413301E-003  0.12132344947284782E-003  0.55911967343477138E-004  0.23516636216074013E-001  0.27156731037718849E-001  0.13665632845060153E-001  0.14079082326301795E-002 -0.11915173528813218E-002  0.18861150576638627E-002  0.40969274306175071E-002  0.35437032192396178E-002  0.18670402429160082E-002  0.62728734676439524E-001  0.78320093134454677E-001  0.51385028015769003E-001  0.23010767045483809E-001  0.14422438163280602E-001  0.19046082274518417E-001  0.22019143058932739E-001  0.18042830412306279E-001  0.10975184506781432E-001  0.30540809150101215E-001  0.44282860435197940E-001  0.41244538285518134E-001  0.33098326066615315E-001  0.27546566239207634E-001  0.25287322211786846E-001  
0.22827412758271454E-001  0.18020354569211840E-001  0.11961508984899819E-001 -0.13539678552196443E-001 -0.15056471705849781E-003 -0.12266751826650794E-003 -0.86393036448722104E-004 -0.60040311176419689E-004 -0.38839439861036502E-004 -0.21065440700644328E-004 -0.93549012156815598E-005 -0.37400204911701550E-005 -0.13762274158759056E-002  </sparseX_slice>
        <sparseX_slice start="101" end="150"> -0.18883288742664790E-002 -0.16270465237922854E-002 -0.12402640489600930E-002 -0.96973851945859435E-003 -0.73140177185203152E-003 -0.46594030034743087E-003 -0.23794531937994950E-003 -0.10391065145052198E-003 -0.36709758841238687E-002 -0.49263238732844168E-002 -0.39528459737872817E-002 -0.26357910513101230E-002 -0.18859908486045251E-002 -0.15038786866704442E-002 -0.10778498984155647E-002 -0.57813320495791597E-003 -0.18663012495635594E-003 -0.25276127715122085E-002 -0.31701601350040548E-002 -0.19840548508476821E-002 -0.55937833658971218E-003  0.46455790117679571E-004 -0.93884889796254714E-004 -0.30551236356452253E-003 -0.20496980497806898E-003  0.75380708005183398E-004  0.10459490924605142E-003  0.14199339148680685E-003  0.11960724076648193E-003  0.92933966828628685E-004  0.84516142310661453E-004  0.79176538546544276E-004  0.61322816361627150E-004  0.38952054014706427E-004  0.26972652811852208E-004  0.27318761846348923E-002  0.30409798840019622E-004  
0.24817421170568408E-004  0.17498696895449047E-004  0.12156549758189562E-004  0.78591453010885884E-005  0.42654672302113203E-005  0.18987663162896503E-005  0.76099989762682412E-006  0.27767888931625340E-003  0.38135163917839943E-003  0.32910642964484018E-003  0.25116735522469526E-003  0.19633505259092370E-003  0.14801258654652529E-003  </sparseX_slice>
        <sparseX_slice start="151" end="200">  0.94376174217751925E-004  0.48330051700565554E-004  0.21178736992349167E-004  0.74068609188510917E-003  0.99451893641284506E-003  0.79882817926961198E-003  0.53324418088280341E-003  0.38169383257628364E-003  0.30454845384132240E-003  0.21884154072557760E-003  0.11813249123740607E-003  0.38902064774024436E-004  0.50999180725402307E-003  0.63939561456296038E-003  0.39966273536029106E-003  0.11205097510719417E-003 -0.97479578279095568E-005  0.19493374454141039E-004  0.63115984762011297E-004  0.43309965067098529E-004 -0.13293437333615617E-004 -0.29845454960746082E-004 -0.40540100141201742E-004 -0.34191995891596164E-004 -0.26604816308834457E-004 -0.24198140687556963E-004 -0.22656989252967613E-004 -0.17546787628990221E-004 -0.11142821691571360E-004 -0.76884011479001995E-005  0.42581000750165556E-005  0.57872610021587300E-005  0.48872541071154458E-005  0.38081899142038146E-005  0.34641333441365191E-005  0.32417427208014323E-005  0.25104396920115210E-005  
0.15938837639159556E-005  0.10959197413226180E-005 -0.53050749089746845E-003 -0.59054813398202148E-005 -0.48196705537919580E-005 -0.33984379797576517E-005 -0.23609130911861866E-005 -0.15262937752220167E-005 -0.82839344283561453E-006 -0.36878016361168702E-006 -0.14781132143823306E-006 -0.53922916300121096E-004 -0.74057028243607444E-004  </sparseX_slice>
        <sparseX_slice start="201" end="250"> -0.63913813504046850E-004 -0.48779215397127003E-004 -0.38130004307368490E-004 -0.28745008317679356E-004 -0.18328874807422511E-004 -0.93868742387295044E-005 -0.41137832344979599E-005 -0.14383503994751365E-003 -0.19312996056551764E-003 -0.15513207563437527E-003 -0.10355867332144908E-003 -0.74127542365231953E-004 -0.59146285708976550E-004 -0.42503930903535066E-004 -0.22947638993096431E-004 -0.75605768069143441E-005 -0.99036140644403342E-004 -0.12416405635177309E-003 -0.77607839836468846E-004 -0.21755225793904750E-004  0.18949452301156194E-005 -0.37880643306372205E-005 -0.12263788281634525E-004 -0.84200063651557380E-005  0.25720816588566473E-005  0.57957375648907294E-005  0.78726638981020380E-005  0.66401131450934361E-005  0.51668666898435696E-005  0.46994883566848500E-005  0.44001221284382432E-005  0.34076837752378110E-005  0.21639838700091650E-005  0.14929857130785109E-005 -0.11693953711589627E-005 -0.15893699624974087E-005 -0.13422426514809096E-005 
-0.10459252655516527E-005 -0.95143294717600867E-006 -0.89034042012310624E-006 -0.68948785901765908E-006 -0.43775503756398145E-006 -0.30096423558594386E-006  0.16057461191570181E-006  0.21824632436523602E-006  0.18431774832943455E-006  0.14363249865119277E-006  0.13065672759324501E-006  0.12226541904743186E-006  0.94683316587807020E-007  </sparseX_slice>
        <sparseX_slice start="251" end="300">  0.60114007268582015E-007  0.41325781317733006E-007  0.10658772495287009E-003  0.11865096228979023E-005  0.96835323408652028E-006  0.68280412774247074E-006  0.47434757730713151E-006  0.30665824220510172E-006  0.16643832960159885E-006  0.74094320816307513E-007  0.29697901954536794E-007  0.10834005305996273E-004  0.14879290252511327E-004  0.12841363053073149E-004  0.98005747939626989E-005  0.76609658033054381E-005  0.57753588320888355E-005  0.36825833785784453E-005  0.18859864477358907E-005  0.82653252020209800E-006  0.28898837320044013E-004  0.38803015872013306E-004  0.31168631482952880E-004  0.20806686476998415E-004  0.14893478851177873E-004  0.11883495319427226E-004  0.85397774108503389E-005  0.46105979979728103E-005  0.15190767133528209E-005  0.19897997861522364E-004  0.24946605172201086E-004  0.15592680713249059E-004  0.43709629722548444E-005 -0.38073610675912508E-006  0.76109833405313607E-006  0.24640352143615468E-005  0.16917682757886258E-005 
-0.51672486407384396E-006 -0.11644594884428956E-005 -0.15817489256535689E-005 -0.13341101338910245E-005 -0.10381111925629322E-005 -0.94420704433509834E-006 -0.88405896465052622E-006 -0.68466127674275325E-006 -0.43478086791720783E-006 -0.29996531639790030E-006  0.23495086180854864E-006  0.31933082235259584E-006  0.26967906930979153E-006  </sparseX_slice>
        <sparseX_slice start="301" end="325">  0.21014413457945192E-006  0.19115904182375345E-006  0.17888445087830863E-006  0.13852976791756788E-006  0.87952375894566996E-007  0.60468656579269693E-007 -0.45625490965985772E-007 -0.62012290725945835E-007 -0.52371903620369001E-007 -0.40811666791941337E-007 -0.37124741043819830E-007 -0.34740426072539447E-007 -0.26903262146918206E-007 -0.17080756478935514E-007 -0.11742254848877774E-007  0.64819880336378754E-008  0.88100549053231638E-008  0.74404562601555923E-008  0.57981033609451239E-008  0.52743032179016431E-008  0.49355623736671062E-008  0.38221385785488705E-008  0.24266577388258438E-008  0.16682146658535798E-008  0.00000000000000000E+000  </sparseX_slice>
      </sparseX>
      <sparseX i="7" alpha="-1240.7480051493474" sparseCutoff="1.0000000000000000" sliced="T">
        <sparseX_slice start="1" end="50">  0.56580184030739755E+000  0.83574454584735671E-003  0.33369405508377900E-003  0.14425865277806142E-003  0.99602664428775345E-004  0.65496619908158169E-004  0.16891168918834332E-004  0.28238933118847731E-005  0.82729355875568080E-006  0.27708163259497182E+000  0.79407706038685088E-002  0.33393626816371823E-002  0.16267731682282033E-002  0.13967030078974616E-002  0.13096656161345431E-002  0.39555253063063944E-003  0.76022929723080558E-004  0.29494963856261951E-004  0.67845512025715454E-001  0.38840103436859862E-001  0.18155607134198368E-001  0.10461596965104540E-001  0.10406918600269866E-001  0.13408388116691677E-001  0.47895003986244758E-002  0.10695713760025853E-002  0.54561746490090096E-003  0.56476657811493769E+000  0.14227666940201389E-001  0.53027759426813263E-002  0.21828052162509485E-002  0.24759019307124836E-002  0.29322705034098722E-002  0.87532909034826164E-003  0.13964294972352564E-003  0.66115990616201630E-004  0.19556780995289788E+000  
0.99004641125596468E-001  0.46625279074228879E-001  0.23677974701576700E-001  0.27892488965657908E-001  0.43405373292652046E-001  0.15653560113502562E-001  0.31247167278805688E-002  0.19524647426065168E-002  0.28186660508418093E+000  0.12842267754497780E+000  0.72533862935602503E-001  0.33672256856876387E-001  0.41247999265584610E-001  </sparseX_slice>
        <sparseX_slice start="51" end="100">  0.72459405851113504E-001  0.27832083787620757E-001  0.65076620851922916E-002  0.50581633751612450E-002  0.23741944762855116E+000  0.35855377506315862E-002 -0.21939114727861231E-003 -0.13139524967494584E-002  0.42821722523555859E-004  0.94680012252335835E-003  0.18908959715762985E-003 -0.53160948799375552E-004  0.23926083383536479E-006  0.82213790992945443E-001  0.23211488011105102E-001  0.10430822751052839E-001 -0.62362683758337293E-002  0.40077775972860320E-002  0.15354013512855676E-001  0.46258558366111509E-002 -0.22892219867167460E-003  0.52944573957720744E-003  0.16757372539671209E+000  0.48533007695226095E-001  0.56876653916466423E-001  0.84364629034133966E-002  0.19360379165939783E-001  0.41905832197325119E-001  0.18352024713260386E-001  0.64892901830920597E-002  0.70347320671204135E-002  0.49812487426359263E-001  0.20693919685060073E-001  0.60175735145953695E-001  0.29449849633825954E-001  0.19640986376565677E-001  0.20701361427973439E-001  
0.16051374245695200E-001  0.12960160591305265E-001  0.11022932389748160E-001  0.38817633820337413E-001  0.14458895360601690E-002  0.80243533481687008E-003  0.30209802093569723E-003  0.32511750903288061E-003 -0.15780305258359734E-003 -0.12973234988780576E-003 -0.63828101784053936E-004 -0.35005392666111528E-004  0.13441800432199015E-001  </sparseX_slice>
        <sparseX_slice start="101" end="150">  0.77653604615790977E-002  0.78244044672226357E-002 -0.40185272212914480E-003  0.35082560166349885E-002 -0.30292953012509049E-002 -0.23792604898459548E-002 -0.11855048276684182E-002 -0.90217735994592256E-003  0.27397989403699970E-001  0.13788555301401802E-001  0.18765939916913603E-001 -0.28426638836604348E-002  0.72145242697393011E-002 -0.70156123954834169E-002 -0.44593928689465670E-002 -0.10889055369455555E-002 -0.10641884605860465E-002  0.11517706185927182E-001  0.69526479665375993E-002  0.13292446206440933E-001  0.22231339507764558E-002  0.47134556850213635E-002  0.18087333503159150E-002  0.31506505849407331E-002  0.50867580423809219E-002  0.37823797687441757E-002  0.13315692774975426E-002  0.30395451473932441E-002  0.35545642576129666E-002  0.69844843748345271E-002  0.45550955079349600E-002  0.68519959017023695E-002  0.41833823721097061E-002  0.34526675133392968E-002  0.32135439202901125E-002 -0.26973858853150006E-002 -0.22827037538347087E-003 
-0.16205621081525346E-003 -0.38516127290924419E-004 -0.73589188133180763E-004  0.28593213790113676E-004  0.34299101197735506E-004  0.11639337791063605E-004  0.44498369723041238E-005 -0.93405288243093463E-003 -0.10222356309702669E-002 -0.13125211952294906E-002  0.36700076294867513E-003 -0.72473740124754348E-003  0.58966600857704129E-003  </sparseX_slice>
        <sparseX_slice start="151" end="200">  0.62103935650948978E-003  0.21017552948089589E-003  0.11641461771262827E-003 -0.19038499421577541E-002 -0.18509390725456624E-002 -0.27476540084406735E-002  0.14867707131798618E-002 -0.14890880683709157E-002  0.15110890658553203E-002  0.12815845658847695E-002  0.16087740967265637E-003  0.11705070398620422E-003 -0.80035012543315292E-003 -0.14942370124036819E-002 -0.14395671451602440E-002  0.55771006319914199E-003 -0.96154798280721700E-003  0.17077340057098655E-003 -0.33307288990818155E-003 -0.91778595188088993E-003 -0.55919600495567235E-003 -0.13085574247368085E-003 -0.95370425184829882E-003 -0.66514648582072168E-003 -0.17062170694555664E-002 -0.11769166906029085E-002 -0.14260854311125113E-002 -0.10642645618297575E-002 -0.72555275891636787E-003 -0.63129439641244802E-003  0.64297162857791603E-005  0.15894105861133070E-003  0.79821388917978342E-004  0.23492257316411240E-003  0.17358838625870345E-003  0.16709289167560261E-003  0.15605508330240303E-003  
0.91606664871076533E-004  0.73985472280243021E-004  0.53035196497942902E-003  0.44204610075869623E-004  0.31299335661227749E-004  0.75468468848162710E-005  0.14175667428841404E-004 -0.55658695440649234E-005 -0.65958898070302406E-005 -0.22481181363803257E-005 -0.86857348371195627E-006  0.18365069094817174E-003  0.19860631429638605E-003  </sparseX_slice>
        <sparseX_slice start="201" end="250">  0.25397793312707356E-003 -0.69787516825754788E-004  0.13967882573696260E-003 -0.11446418109843953E-003 -0.11949829016663611E-003 -0.40647953472296172E-004 -0.22730292374127239E-004  0.37432929539164660E-003  0.35925600481017029E-003  0.53214902791744103E-003 -0.28442277675368443E-003  0.28663093477545307E-003 -0.29286079724698776E-003 -0.24657361224888162E-003 -0.31479986772376492E-004 -0.23213791708067868E-004  0.15736245377640358E-003  0.28755478909657072E-003  0.27934485258375137E-003 -0.10558911845737211E-003  0.18464767955524703E-003 -0.32103195117552975E-004  0.64577828733598661E-004  0.17681803976137478E-003  0.10807237845972897E-003  0.25728465670255515E-004  0.18376259983193672E-003  0.12913753031106764E-003  0.33039129552466212E-003  0.22741299270164210E-003  0.27703300866203766E-003  0.20571493004221275E-003  0.14072702053427211E-003  0.12269910619863928E-003 -0.17878369524264716E-005 -0.43275639342267009E-004 -0.21820835309196037E-004 
-0.64218135630110347E-004 -0.47326939390161139E-004 -0.45795549910810808E-004 -0.42552170506272135E-004 -0.25019183550931221E-004 -0.20244663946606832E-004  0.24856158704320147E-006  0.58915035050964446E-005  0.29828209149301391E-005  0.87775241397029762E-005  0.64518406851198906E-005  0.62759504750719670E-005  0.58016914155632394E-005  </sparseX_slice>
        <sparseX_slice start="251" end="300">  0.34168888114750411E-005  0.27700807553285447E-005 -0.10658740049418790E-003 -0.88807807180147827E-005 -0.62876875714523188E-005 -0.15166178470816509E-005 -0.28475473133389075E-005  0.11183411768344998E-005  0.13248990722022275E-005  0.45162195475135254E-006  0.17453201753762902E-006 -0.36909167948281979E-004 -0.39903537891363307E-004 -0.51023660616820059E-004  0.14014078431127868E-004 -0.28058417733449080E-004  0.22997512657123736E-004  0.24003659727661234E-004  0.81659885542991602E-005  0.45674844693049482E-005 -0.75230769676066299E-004 -0.72179132912430073E-004 -0.10690984294005824E-003  0.57123847777396592E-004 -0.57576030390093768E-004  0.58837677418755597E-004  0.49529237965836191E-004  0.63260317883312727E-005  0.46664343440824984E-005 -0.31625893729014911E-004 -0.57761279052883805E-004 -0.56123384519000988E-004  0.21201283438077146E-004 -0.37088235865785746E-004  0.64449387475451207E-005 -0.12974091119799201E-004 -0.35518477905324236E-004 
-0.21710798807519528E-004 -0.51707742321702471E-005 -0.36913675976595666E-004 -0.25945562292994186E-004 -0.66376160633092280E-004 -0.45685215471089647E-004 -0.55660765437143402E-004 -0.41326619110429702E-004 -0.28273400556397965E-004 -0.24652678458112371E-004  0.35931024272528163E-006  0.86929060170505758E-005  0.43836470962881907E-005  </sparseX_slice>
        <sparseX_slice start="301" end="325">  0.12900965224777718E-004  0.95070154055154243E-005  0.92005875107465785E-005  0.85478908557360304E-005  0.50260569451418586E-005  0.40671023418184501E-005 -0.70646507903831121E-007 -0.16736427486600229E-005 -0.84743660577671411E-006 -0.24937437329077197E-005 -0.18328834224532455E-005 -0.17831476349287394E-005 -0.16481902726060441E-005 -0.97073602224204548E-006 -0.78701522454803477E-006  0.10039622651223700E-007  0.23772200666686831E-006  0.12038081652581909E-006  0.35424328118023031E-006  0.26034909161767533E-006  0.25331745311704790E-006  0.23411545472411331E-006  0.13789276328697655E-006  0.11180053214517738E-006  0.00000000000000000E+000  </sparseX_slice>
      </sparseX>
      <sparseX i="8" alpha="-1255.0063559983439" sparseCutoff="1.0000000000000000" sliced="T">
        <sparseX_slice start="1" end="50">  0.16949084349090784E+000  0.41174830643228603E-006  0.50319059417583205E-006  0.27221815719171429E-007  0.23867117085437356E-006  0.79884424118880060E-007  0.12142826473515219E-004  0.41956026998358517E-008  0.32543198932809669E-008  0.15423767073778816E+000  0.62777945341014103E-005  0.80300261640699131E-005  0.68127996638700004E-006  0.54304546813152201E-005  0.22476283988984514E-005  0.49783202850576809E-003  0.15866779479364499E-006  0.12436135986662563E-006  0.70178596626945505E-001  0.47865149211759745E-004  0.64215832610970642E-004  0.89547677866118179E-005  0.62624244658858116E-004  0.32109562955116524E-004  0.10206583857425679E-001  0.32549228935676932E-005  0.24886982672509074E-005  0.42256188372186582E+000  0.45358737569668823E-005  0.56941804008418945E-005  0.12656588719054778E-005  0.79307477465291223E-005  0.39469545820369707E-005  0.16430690564330167E-002  0.38898856795009360E-006  0.13228166698172400E-006  0.27190646831848087E+000  
0.48937314064676862E-004  0.65168176568829324E-004  0.24374895990327916E-004  0.13543406345276898E-003  0.83576110823729683E-004  0.47650804434938694E-001  0.14542110485417501E-004  0.58474512566938171E-005  0.52674982877216681E+000  0.25080087040089028E-004  0.37394521004053486E-004  0.34256741894233776E-004  0.17089741905298793E-003  </sparseX_slice>
        <sparseX_slice start="51" end="100">  0.12486006334840068E-003  0.11127475919598848E+000  0.52466362563624396E-004  0.26271336025211094E-004  0.26732438378351864E+000 -0.25071828908056185E-004 -0.32188073487393109E-004 -0.25466604862870003E-005 -0.30042769119876590E-006  0.55630765662869708E-006  0.13403573468168701E-002  0.83267203399757756E-006 -0.30889907176987098E-006  0.17201558372887729E+000 -0.27026481340747342E-003 -0.36310021321619198E-003 -0.55831110150397221E-004  0.15765994037287080E-004  0.16878402040265767E-004  0.38878903007799108E-001  0.29545265752918087E-004 -0.42309625783650181E-005  0.47126767891589005E+000 -0.19516916033367516E-003 -0.24547815072010045E-003 -0.11363281891551713E-003  0.15699195684707544E-003  0.83345390725705367E-004  0.12845686470053200E+000  0.15389529585888478E-003  0.61567231193418063E-004  0.21081471038012586E+000  0.76341478274186191E-003  0.10591337802170824E-002  0.31245211370709415E-003  0.42733014062670669E-003  0.21683559037232066E-003  
0.74361853372526029E-001  0.34519940930096983E-003  0.21290677554344320E-003 -0.27571754268785220E-001 -0.20752215048583691E-004 -0.25572636910945376E-004 -0.57143369822989130E-005  0.14059948824921861E-004  0.42393938811840143E-005 -0.33045355534312996E-003  0.16298397397354843E-005 -0.61690305765898189E-007 -0.17741634107029260E-001  </sparseX_slice>
        <sparseX_slice start="101" end="150"> -0.22372094488843638E-003 -0.29097469982755956E-003 -0.13070950758534700E-003  0.24597656972166786E-003  0.78195591874316776E-004 -0.96041697074047052E-002  0.42050119759300444E-004 -0.26973650592655319E-005 -0.48606402655778973E-001 -0.16166741495119458E-003 -0.20583006514655926E-003 -0.27412638973272057E-003  0.50733189796653617E-003  0.14458717614338948E-003 -0.31777631134228365E-001  0.12068014252566811E-003  0.66699423348397264E-005 -0.30749760303610953E-001  0.89351785304250971E-003  0.11903614341580869E-002  0.10718777911147763E-002  0.76285208003698231E-003  0.46119462569473453E-003 -0.25408679392147956E-001  0.65021328670931034E-003  0.33184819338478050E-003  0.22426038416023825E-002  0.52309613131972747E-003  0.69087735326286981E-003  0.18666891821439422E-002  0.11945910062257027E-002  0.82247346014893967E-003  0.55810315413840073E-002  0.96722455396700403E-003  0.51824566834045782E-003  0.89491558332606049E-002  0.33674061884619386E-006  
0.35013632502225637E-006  0.17884607907345812E-006 -0.51206753181102684E-006 -0.11160881172332981E-006  0.51749550423783255E-004 -0.22878070747086772E-007 -0.31761004283755462E-008  0.57585254392117985E-002  0.36306959991920031E-005  0.40646923104505746E-005  0.41457279005278302E-005 -0.84830154848498694E-005 -0.18471231856540835E-005  </sparseX_slice>
        <sparseX_slice start="151" end="200">  0.15016009983742666E-002 -0.38237129779804712E-006  0.41045585107885004E-007  0.15776517794997127E-001  0.26317440717151516E-005  0.31582496049476758E-005  0.87931845761597122E-005 -0.14796137803422057E-004 -0.21401752888016155E-005  0.49622202264764069E-002  0.62916962074172024E-006  0.14613445338844328E-005  0.99806633306597208E-002 -0.14492771875761254E-004 -0.16345073655042142E-004 -0.34010442785438687E-004 -0.14703544857668406E-004 -0.89766887534649518E-005  0.40405794916316328E-002 -0.58371795697439775E-005 -0.53675219663702289E-006 -0.10294025292330675E-002 -0.12030297132345656E-004 -0.14423064561178024E-004 -0.84271016711388492E-004 -0.45107209720993000E-004 -0.29855149081357429E-004 -0.10368915365734290E-002 -0.21907815402774736E-004 -0.90532871825467332E-005  0.23625875144186916E-003  0.14104095159031783E-006  0.17485720842824133E-006  0.19078793637387565E-005  0.94197737530034034E-006  0.59496042335927318E-006  0.11126528982509342E-003  
0.33264026675124957E-006  0.14129678619705763E-006 -0.17401284233321348E-002 -0.62898113315790199E-007 -0.64975361910152807E-007 -0.34149600685130265E-007  0.98124844456872634E-007  0.21294987748160987E-007 -0.10042703893441104E-004  0.43253934029055715E-008  0.61983753300243687E-009 -0.11197227962006159E-002 -0.67816504424986261E-006  </sparseX_slice>
        <sparseX_slice start="201" end="250"> -0.75501883367863231E-006 -0.79174369828662609E-006  0.16240586347753127E-005  0.35159463858581786E-006 -0.29140466809739695E-003  0.71151559183362108E-007 -0.78708412206213286E-008 -0.30676823096818535E-002 -0.49161957497767142E-006 -0.58912547413417508E-006 -0.16795637670363756E-005  0.28237599405604283E-005  0.40176197601614962E-006 -0.96297793689152048E-003 -0.13166339377090200E-006 -0.28474090144795245E-006 -0.19407010302402901E-002  0.27069944887832929E-005  0.30336604613651482E-005  0.64952597173558917E-005  0.27770044014382989E-005  0.17000483339015621E-005 -0.78416484299692634E-003  0.10863306655247192E-005  0.84713055490100238E-007  0.20016330406393159E-003  0.22471939327453431E-005  0.26859586913892840E-005  0.16095271759835478E-004  0.85932111325837576E-005  0.56928489588991770E-005  0.20110744148708619E-003  0.41585085771280436E-005  0.17174870331162616E-005 -0.64968394201758264E-004 -0.37275600122122968E-007 -0.46326105989691438E-007 
-0.51534863404009090E-006 -0.25431839013508121E-006 -0.16073192874525224E-006 -0.30533538455858352E-004 -0.89853954444167915E-007 -0.38322293095095649E-007  0.89327743827377249E-005  0.49258235648710023E-008  0.61381162937275572E-008  0.69601975607427264E-007  0.34332353474879304E-007  0.21712095005294201E-007  0.41895291446566404E-005  </sparseX_slice>
        <sparseX_slice start="251" end="300">  0.12137236852051242E-007  0.51976614526239452E-008  0.34963220715500160E-003  0.12624529181468624E-007  0.13039207651653330E-007  0.68582529994760957E-008 -0.19708191702176507E-007 -0.42765829274649890E-008  0.20177114500397042E-005 -0.86844515513760280E-009 -0.12455113390038452E-009  0.22497831044431384E-003  0.13611721739772278E-006  0.15152050985899730E-006  0.15900635999491883E-006 -0.32618139524583951E-006 -0.70604926131121798E-007  0.58547027644776022E-004 -0.14279720133188302E-007  0.15808754856453606E-008  0.61636860958261697E-003  0.98675171119418464E-007  0.11824153631519755E-006  0.33730913096883641E-006 -0.56708717331089137E-006 -0.80649968399176903E-007  0.19347490486027632E-003  0.26501670920396137E-007  0.57214034399616979E-007  0.38993190130852092E-003 -0.54333136884260712E-006 -0.60879530070985331E-006 -0.13044469161086666E-005 -0.55754633080897500E-006 -0.34134761537528181E-006  0.15754922340508988E-003 -0.21802129594062604E-006 
-0.16920963230006368E-007 -0.40217455707838006E-004 -0.45104379327028783E-006 -0.53906670599200929E-006 -0.32324300130321492E-005 -0.17256694323380345E-005 -0.11432527734589185E-005 -0.40404543828737117E-004 -0.83502495312518622E-006 -0.34486505929086615E-006  0.13053659003270804E-004  0.74818346494777014E-008  0.92990244990554927E-008  </sparseX_slice>
        <sparseX_slice start="301" end="325">  0.10349809063864765E-006  0.51074428607766285E-007  0.32280120687023103E-007  0.61345749849967049E-005  0.18045509103580655E-007  0.76971306197525598E-008 -0.25382330449151180E-005 -0.13982262090933756E-008 -0.17424658112769099E-008 -0.19768229708501396E-007 -0.97509022454247335E-008 -0.61666616758461487E-008 -0.11903853487340361E-005 -0.34472125712975819E-008 -0.14763933496157156E-008  0.36061735773542111E-006  0.19844768302918964E-009  0.24732242191033977E-009  0.28072687774087020E-008  0.13847011300648041E-008  0.87572657359717031E-009  0.16911414515876964E-006  0.48953792247318399E-009  0.20968444796735974E-009  0.00000000000000000E+000  </sparseX_slice>
      </sparseX>
      <sparseX i="9" alpha="-2183.2138416328835" sparseCutoff="1.0000000000000000" sliced="T">
        <sparseX_slice start="1" end="50">  0.64469277847514617E+000  0.70378794884203434E-003  0.16037755259666732E-002  0.43781595903911617E-003  0.24111131293862916E-003  0.47040666225848805E-004  0.23243990485659150E-004  0.25434217655970389E-005  0.14279555842494747E-005  0.31605056875341137E+000  0.16227151711544852E-002  0.14496591802130651E-001  0.34103827999041915E-002  0.27475630339881827E-002  0.56648010886418401E-003  0.45970078644691243E-003  0.61254905373836103E-004  0.47817515558798879E-004  0.77469428341987875E-001  0.86562540593026881E-002  0.69212994571265798E-001  0.17953260708330913E-001  0.17159622458060103E-001  0.42899987122334525E-002  0.47311314027139546E-002  0.90791396402395094E-003  0.82418321556844887E-003  0.52499073118034656E+000 -0.62369415913835695E-003  0.24652830325233670E-001  0.53420152362882185E-002  0.50423742212952942E-002  0.10644910928566493E-002  0.98727767086443058E-003  0.13963189723746513E-003  0.11990526163699581E-003  0.18198701800036765E+000  
0.22128896416738850E-001  0.17056027339707167E+000  0.45764503509021788E-001  0.46029332724000824E-001  0.12453481153314370E-001  0.14491741623219112E-001  0.30973852394919374E-002  0.29521765148154237E-002  0.21375706152407303E+000  0.39757921333351751E-001  0.21233645831056250E+000  0.61226517006675446E-001  0.62487134719351717E-001  </sparseX_slice>
        <sparseX_slice start="51" end="100">  0.18665684693889240E-001  0.22323892927962493E-001  0.54394309691000080E-002  0.53778104670346759E-002  0.91609848852622244E-001 -0.11330006838936786E-003  0.49897983166542143E-002  0.13067599270131468E-002  0.13395923709179898E-002  0.44221142804261722E-003  0.37044096826440272E-003  0.73024695109805569E-004  0.68634653213326454E-004  0.31756376297672154E-001  0.35146914957502329E-002  0.35151198568601133E-001  0.10210752770807994E-001  0.11869409936109132E-001  0.51195964430865749E-002  0.51732936045761199E-002  0.14648377233208501E-002  0.16710043962217857E-002  0.52750429394609902E-001  0.90328026359625304E-002  0.62503440204518382E-001  0.19067754342545342E-001  0.23042279794649054E-001  0.11360559013859571E-001  0.11734789687909588E-001  0.41149756568092007E-002  0.47654312091187324E-002  0.65088090692207385E-002  0.11459016316266260E-002  0.97309996264257660E-002  0.40329880604452932E-002  0.57845919672741752E-002  0.51094804197687124E-002  
0.51281899566303427E-002  0.34063782041886836E-002  0.36623476223941165E-002  0.58998780311947489E-001  0.30488824336181723E-002  0.41443030658835757E-002  0.21174735087448569E-002  0.13858964513596486E-002  0.60365014225255247E-003  0.25268249431823278E-003  0.59215985583468450E-004  0.29001533070552902E-004  0.20451812683416139E-001  </sparseX_slice>
        <sparseX_slice start="101" end="150">  0.40749695688508780E-003  0.24768972007817351E-001  0.73816076023703586E-002  0.93009196248174178E-002  0.44418881061968228E-002  0.28750678774448809E-002  0.43814767875431068E-003  0.56989591896611051E-003  0.33972449842377420E-001 -0.12873162293010157E-001  0.40953652712963966E-001  0.80571228411992438E-002  0.16333915971913689E-001  0.84359837702967424E-002  0.66124090985156753E-002  0.13515650154725643E-002  0.19963564371282870E-002  0.59281256036963631E-002 -0.19012075652359603E-002  0.88625901962055709E-002  0.42776045175951360E-002  0.72095873077869443E-002  0.64824542639089697E-002  0.65222986144451945E-002  0.45074792123350627E-002  0.43162343225352775E-002  0.26996239096477130E-002  0.83022795383441376E-002  0.63831176207336674E-002  0.84821139539019378E-002  0.73284152093630386E-002  0.67804585643372068E-002  0.56201210591203202E-002  0.49572461282248077E-002  0.36812575159902755E-002 -0.79299921374322655E-002 -0.46017348472876491E-003 
-0.56933305089590239E-003 -0.30257897845699616E-003 -0.19153787927740694E-003 -0.84236983196447798E-004 -0.32770952020311468E-004 -0.77219764694590893E-005 -0.33141749372534212E-005 -0.27489163829863932E-002 -0.23425071663378045E-004 -0.33468550744181545E-002 -0.99288604624237354E-003 -0.12542628906612242E-002 -0.59901181395444235E-003  </sparseX_slice>
        <sparseX_slice start="151" end="200"> -0.36197379126639081E-003 -0.46377733981342068E-004 -0.61222132876105129E-004 -0.45662174491564898E-002  0.20352689762210938E-002 -0.54877700539983044E-002 -0.99693838015355138E-003 -0.21787562421834040E-002 -0.11192144332776808E-002 -0.83423053113028118E-003 -0.14763291392007623E-003 -0.22757471336093651E-003 -0.79679595372081542E-003  0.30374368291006745E-003 -0.11848014973483011E-002 -0.57737220403938905E-003 -0.98264824119870015E-003 -0.87627679379457353E-003 -0.87148777707388722E-003 -0.59578296531940481E-003 -0.55387521451714526E-003 -0.51315431709368479E-003 -0.17878434448336353E-002 -0.12607861803470351E-002 -0.17479285115368959E-002 -0.14620555724079926E-002 -0.13433793471315501E-002 -0.10883410667614608E-002 -0.96159164554001373E-003 -0.69142439388323825E-003  0.48771118119606677E-004  0.19260971631414260E-003  0.12490732235349140E-003  0.18045728813355407E-003  0.14610879456668756E-003  0.13333191517237727E-003  0.10555342490821575E-003  
0.93449697739703206E-004  0.65098617511106233E-004  0.15263035534002526E-002  0.88831570499090938E-004  0.10963551662068056E-003  0.58328691556610034E-004  0.36887715253655370E-004  0.16226996664372198E-004  0.63002992445603198E-005  0.14848226890078537E-005  0.63495981133979973E-006  0.52909016435807757E-003  0.43677419655833840E-005  </sparseX_slice>
        <sparseX_slice start="201" end="250">  0.64419223674063851E-003  0.19112129951602563E-003  0.24139014423880495E-003  0.11528484904403861E-003  0.69531357020763914E-004  0.88589649395135114E-005  0.11706660090716536E-004  0.87887021795995002E-003 -0.39326071601443637E-003  0.10560132428082377E-002  0.19148524453455328E-003  0.41918591359796549E-003  0.21530681557608051E-003  0.16025852835495046E-003  0.28233608180851572E-004  0.43599194255643222E-004  0.15336112248565408E-003 -0.58702479028544616E-004  0.22797914663471306E-003  0.11114707157968941E-003  0.18917789657493629E-003  0.16866496205101867E-003  0.16769428829017336E-003  0.11461566386940616E-003  0.10647981946522993E-003  0.98767974046993302E-004  0.34518772743922957E-003  0.24290418170633585E-003  0.33710275334920012E-003  0.28173517679325709E-003  0.25881746056499315E-003  0.20955979890676038E-003  0.18517296234801521E-003  0.13304486844457943E-003 -0.13275346600074781E-004 -0.52592543572660930E-004 -0.34035694442127794E-004 
-0.49220701789698321E-004 -0.39818910603282818E-004 -0.36329994508597189E-004 -0.28744129221284990E-004 -0.25450857097380999E-004 -0.17716135453299325E-004  0.18067540190478855E-005  0.71802616473040764E-005  0.46371634617203733E-005  0.67126134733250463E-005  0.54259146645394836E-005  0.49495659656659806E-005  0.39137808249250688E-005  </sparseX_slice>
        <sparseX_slice start="251" end="300">  0.34657524238804198E-005  0.24106657292981384E-005 -0.30658905312215236E-003 -0.17844986764512837E-004 -0.22022810204868287E-004 -0.11716977438085217E-004 -0.74097652799890945E-005 -0.32595954491068418E-005 -0.12655066398840382E-005 -0.29824958138877534E-006 -0.12752942855646713E-006 -0.10627850020096804E-003 -0.87660443387340869E-006 -0.12939921200480665E-003 -0.38390687267264234E-004 -0.48488033754657361E-004 -0.23157275963468303E-004 -0.13966075708982894E-004 -0.17791543634992179E-005 -0.23511215134972065E-005 -0.17653892460731279E-003  0.79002398728024407E-004 -0.21212057459220988E-003 -0.38461607634880857E-004 -0.84201199513906822E-004 -0.43248198508492450E-004 -0.32189604605972228E-004 -0.56703546778052477E-005 -0.87567343162631985E-005 -0.30805694728207878E-004  0.11792843162001259E-004 -0.45793930857546392E-004 -0.22326244800866081E-004 -0.38000478064253707E-004 -0.33879834327110294E-004 -0.33684603681357369E-004 -0.23022609717246510E-004 
-0.21387995078013976E-004 -0.19839552606951288E-004 -0.69343592363554587E-004 -0.48793484112979066E-004 -0.67717475061796178E-004 -0.56593976931884915E-004 -0.51990098081636151E-004 -0.42094810243097984E-004 -0.37196263873741116E-004 -0.26724601868207688E-004  0.26666228581582742E-005  0.10565141055756937E-004  0.68369505555480323E-005  </sparseX_slice>
        <sparseX_slice start="301" end="325">  0.98875063086927495E-005  0.79986934116577441E-005  0.72978166775653988E-005  0.57739129105103233E-005  0.51123990361611487E-005  0.35586301696867127E-005 -0.51325094318481925E-006 -0.20398883376721648E-005 -0.13173320362419095E-005 -0.19069777335290696E-005 -0.15414081401367514E-005 -0.14060790793907170E-005 -0.11118151424401261E-005 -0.98454343588547275E-006 -0.68480334949943335E-006  0.72900496664987578E-007  0.28976272977702146E-006  0.18711478588891346E-006  0.27087542677969561E-006  0.21894364392270542E-006  0.19972037881050104E-006  0.15792055907459540E-006  0.13984348266944737E-006  0.97266830142732131E-007  0.00000000000000000E+000  </sparseX_slice>
      </sparseX>
      <sparseX i="10" alpha="-637.60944921585906" sparseCutoff="1.0000000000000000" sliced="T">
        <sparseX_slice start="1" end="50">  0.52903295813295537E+000  0.38528598123305158E-004  0.12555162725988640E-004  0.89422294678508149E-005  0.62268438297421591E-005  0.36840377606020977E-005  0.26782141358536705E-005  0.13357184682689074E-005  0.37142670213114721E-006  0.14103300981750447E+000  0.10429405532511556E-002  0.32732926038655163E-003  0.24517301231349669E-003  0.18630116551913452E-003  0.13068518388443216E-003  0.11151158078274393E-003  0.60527430339488150E-004  0.17881507060739060E-004  0.18798743587148611E-001  0.14359346257376750E-001  0.44430430390717491E-002  0.33873222516049755E-002  0.28079945935791262E-002  0.23497698722551468E-002  0.23343851455394620E-002  0.13793426862247955E-002  0.43376391634871196E-003  0.46934818108977827E+000  0.32400933457624806E-002  0.78006462334558480E-003  0.50050284722928803E-003  0.35169634804270970E-003  0.37822069024249556E-003  0.43423892717645365E-003  0.24398407496704515E-003  0.70743429130541835E-004  0.88474514221859146E-001  
0.64452030587231257E-001  0.15929552219103006E-001  0.10012835794895205E-001  0.77611246144202615E-002  0.10004848971818145E-001  0.13054371016179322E-001  0.80534455926892616E-002  0.25220710660600817E-002  0.20819847960863819E+000  0.14872352188333673E+000  0.32906406149043471E-001  0.19693119367348102E-001  0.14291817844654782E-001  </sparseX_slice>
        <sparseX_slice start="51" end="100">  0.24624447025871004E-001  0.38694911490589116E-001  0.26098368022536345E-001  0.88050242902032502E-002  0.44841602178008111E+000  0.26245220085205473E-002  0.29742687643967376E-003 -0.11899184743872352E-005 -0.10378016520028935E-003  0.25425229961987628E-003  0.44630471096502694E-003  0.26961695901975036E-003  0.81507717683005368E-004  0.84528695954831978E-001  0.54507404274377447E-001  0.76544431247203447E-002  0.41214836109363360E-003 -0.16362752096481632E-002  0.72582464318799436E-002  0.13676189700610025E-001  0.91487132117536538E-002  0.30361216541443048E-002  0.28130570103856056E+000  0.18755751063719323E+000  0.32651104698745423E-001  0.16542627400366855E-001  0.82854874783719022E-002  0.32405575879219758E-001  0.61552716821446925E-001  0.46711181376734606E-001  0.17844988189379015E-001  0.19004196761077782E+000  0.12948881800367248E+000  0.27280343946398212E-001  0.25826112660139174E-001  0.19585124882085733E-001  0.28629753854329056E-001  
0.53182997577704609E-001  0.46163371401824908E-001  0.20626465617535547E-001 -0.29158440908167360E-002 -0.37080176332810009E-003 -0.49657017493275426E-004 -0.83539358769978706E-004 -0.13122415557632847E-003 -0.35172214406440147E-004 -0.97848105270215656E-004 -0.31091886308290788E-004  0.35353654725043460E-005 -0.54965140992491125E-003  </sparseX_slice>
        <sparseX_slice start="101" end="150"> -0.64215765415159762E-002 -0.14153160175424753E-002 -0.18693505985760835E-002 -0.28862334438902108E-002 -0.11480157502005708E-002 -0.28993288312142099E-002 -0.97293686548654233E-003  0.15910784962864497E-003 -0.18292021833435340E-002 -0.16749086229308024E-001 -0.56522638432874237E-002 -0.53056430444634014E-002 -0.64587118669877878E-002 -0.44987819462850593E-002 -0.11011452293052256E-001 -0.32358128591728529E-002  0.17343718758798541E-002 -0.17476227652184031E-002 -0.79790733620816283E-002 -0.45393070284616976E-002 -0.11579291458895247E-002  0.13618738538153333E-002 -0.26682069353442012E-002 -0.96201918611217799E-002 -0.13847194535818875E-002  0.43680998328923734E-002  0.80355549037590730E-005  0.31483982208584732E-002  0.33384975081144335E-002  0.41975276724573688E-002  0.49295697429744467E-002  0.39723063319236328E-002  0.40043605863917886E-002  0.25880201650068249E-002  0.17606731270672455E-002  0.62750699146811540E-002  0.66359152036039377E-004  
0.15626634086964161E-004  0.19161459556885546E-004  0.18055276142038034E-004  0.85617707192796870E-005  0.12697713098916446E-004  0.62054856370151318E-005  0.14882700226239637E-005  0.11828825268280331E-002  0.12813136056362639E-002  0.36444914619243238E-003  0.39397015603537190E-003  0.39251249303018756E-003  0.23902137201837052E-003  </sparseX_slice>
        <sparseX_slice start="151" end="200">  0.37765654367151642E-003  0.19771554044839529E-003  0.48402542732187264E-004  0.39365518975169097E-002  0.39722774667688985E-002  0.11447296701061200E-002  0.89512731938760069E-003  0.78763452377058154E-003  0.78597289279705223E-003  0.14560394100113403E-002  0.73987412605311517E-003  0.11266358751184338E-003  0.37609881374563317E-002  0.31845041840409551E-002  0.80564150831889322E-003  0.33584367334488886E-004 -0.27869064713325953E-003  0.49376424026552367E-003  0.13885479182904391E-002  0.66678476095241481E-003 -0.31982559719445332E-004 -0.24455983960386272E-004 -0.49008393238451832E-003 -0.39195276939476485E-003 -0.53397485760541734E-003 -0.66672433014006193E-003 -0.50050023032975198E-003 -0.53700174640022250E-003 -0.28864475642808375E-003 -0.14763796586767609E-003  0.37215547565413227E-004  0.61675771192587934E-004  0.34725242525204228E-004  0.43004406177999638E-004  0.49735746968659578E-004  0.37411615488914390E-004  0.41546798367487719E-004  
0.23264567700673417E-004  0.11228867978737101E-004 -0.12234545106344795E-002 -0.12859091114333233E-004 -0.30548360918925941E-005 -0.37139189033632986E-005 -0.34828711006046188E-005 -0.16668798624913495E-005 -0.24567504637768642E-005 -0.12061369466858751E-005 -0.29383595427088000E-006 -0.23062738466269385E-003 -0.24844916575337644E-003  </sparseX_slice>
        <sparseX_slice start="201" end="250"> -0.71079861754621927E-004 -0.76344832028072754E-004 -0.75700551997425196E-004 -0.46458135681889011E-004 -0.73066388295071018E-004 -0.38438272395554802E-004 -0.95725238380401067E-005 -0.76751211394407253E-003 -0.77082212814840497E-003 -0.22275069163041504E-003 -0.17343360502657459E-003 -0.15174356663767664E-003 -0.15245553224025869E-003 -0.28161910977983191E-003 -0.14393300845004503E-003 -0.22768574346609903E-004 -0.73328233211366917E-003 -0.61894619001104747E-003 -0.15638685467225344E-003 -0.68112153072506411E-005  0.53895658962487500E-004 -0.95824019030385160E-004 -0.26874625083066222E-003 -0.13017853282768882E-003  0.47561727498825630E-005  0.47681992862480152E-005  0.94695476713537379E-004  0.75484937328168937E-004  0.10262416865794666E-003  0.12805139130740573E-003  0.95946963209856946E-004  0.10318277566396139E-003  0.55329342859272228E-004  0.28204130610472219E-004 -0.10261448471326936E-004 -0.16910377804878059E-004 -0.95087264031138441E-005 
-0.11723578603933198E-004 -0.13521033734893083E-004 -0.10173835230136788E-004 -0.11323968345540549E-004 -0.63538213586616782E-005 -0.30717228997136887E-005  0.14146953574257950E-005  0.23183100679075053E-005  0.13019791834865596E-005  0.15980990819423825E-005  0.18379420020425407E-005  0.13834673565394119E-005  0.15433611382887419E-005  </sparseX_slice>
        <sparseX_slice start="251" end="300">  0.86779979892793061E-006  0.42026091771100266E-006  0.24583893742655854E-003  0.25834690123615515E-005  0.61386703894601820E-006  0.74615514851721842E-006  0.69965051275617320E-006  0.33492485598075416E-006  0.49355495870796370E-006  0.24233797522528329E-006  0.59060514646158832E-007  0.46341887413157568E-004  0.49915769334568489E-004  0.14282628389943311E-004  0.15338178431456413E-004  0.15206896801801895E-004  0.93344138979637870E-005  0.14678842000780338E-004  0.77230924973857820E-005  0.19241406600899105E-005  0.15422262202145255E-003  0.15486859268516530E-003  0.44756460412780061E-004  0.34843696903852265E-004  0.30481741203404570E-004  0.30629946973564994E-004  0.56576138636887067E-004  0.28919785160974644E-004  0.45790437541852747E-005  0.14734454595047116E-003  0.12436004199765818E-003  0.31420341482465732E-004  0.13697465020071796E-005 -0.10827460292774228E-004  0.19252322641390968E-004  0.53990997702779317E-004  0.26158531070807802E-004 
-0.94825449201140421E-006 -0.95811412339424330E-006 -0.19023383241839052E-004 -0.15162844050610871E-004 -0.20613407711174308E-004 -0.25720446069867832E-004 -0.19271043091900063E-004 -0.20725570836785090E-004 -0.11112905901299702E-004 -0.56642815753914308E-005  0.20619185811331490E-005  0.33974363297844739E-005  0.19103099667862326E-005  </sparseX_slice>
        <sparseX_slice start="301" end="325">  0.23550201262069529E-005  0.27159056680182175E-005  0.20435863509108341E-005  0.22747364785870527E-005  0.12764065777832658E-005  0.61709537241280207E-006 -0.40201362262855016E-006 -0.65869563494008151E-006 -0.36991454560810701E-006 -0.45399783860543581E-006 -0.52209778660767728E-006 -0.39300050295380246E-006 -0.43844582640752916E-006 -0.24654172259235373E-006 -0.11940080519559961E-006  0.57120054833928271E-007  0.93576772173918547E-007  0.52549526079849292E-007  0.64487254804087525E-007  0.74155251546665563E-007  0.55819677486636534E-007  0.62277955623459811E-007  0.35021226948392886E-007  0.16961551888784616E-007  0.00000000000000000E+000  </sparseX_slice>
      </sparseX>
      <sparseX i="11" alpha="1792.5457001259888" sparseCutoff="1.0000000000000000" sliced="T">
        <sparseX_slice start="1" end="50">  0.43434357803176238E+000  0.23477283582726846E-004  0.17972187486222054E-005  0.86783007047930418E-006  0.40541193200130729E-006  0.24513953965795956E-005  0.30912270423193062E-005  0.10963129976417194E-005  0.85343759484424044E-007  0.13626014947630916E+000  0.76524775083442159E-003  0.49946815372596331E-004  0.34378839183951016E-004  0.13630938948506650E-004  0.10183984093340632E-003  0.14218972954849614E-003  0.54065916476960536E-004  0.43078256242270923E-005  0.21373434850173352E-001  0.12517731234512643E-001  0.70112945959718224E-003  0.69852205947123645E-003  0.23952464031447426E-003  0.21244528205241475E-002  0.32734465201568058E-002  0.13349244136916904E-002  0.10959960046452308E-003  0.47248422931055734E+000  0.25700720504404652E-002  0.10003017523513718E-003  0.13866199223980060E-003  0.30296696270784222E-004  0.37999592207035301E-003  0.60810865823507029E-003  0.24958277656761629E-003  0.18549818148709857E-004  0.10481121986700856E+000  
0.59846873060522929E-001  0.20693630103085121E-002  0.41451061142263029E-002  0.88973664862746014E-003  0.11346569938070220E-001  0.19856298793849814E-001  0.87529404298648528E-002  0.69102407273959824E-003  0.25698704693507207E+000  0.14475789668734676E+000  0.35685489943550349E-002  0.13016826168730754E-001  0.25235197967877726E-002  </sparseX_slice>
        <sparseX_slice start="51" end="100">  0.31331609195081364E-001  0.60741673767779489E-001  0.29107175141432021E-001  0.24936060530635260E-002  0.44063797444862396E+000  0.22903393917265997E-002  0.93249369761304896E-006  0.15169762655464032E-003  0.47404383746791392E-005  0.37800953404721330E-003  0.69882126745024432E-003  0.30553717966835478E-003  0.21006944776898173E-004  0.97746762233903148E-001  0.53847229986281483E-001  0.20549644065640045E-003  0.47144957521557482E-002  0.42464452135407797E-003  0.11458921437755730E-001  0.22882971374291617E-001  0.10755595115478718E-001  0.80986307197458988E-003  0.33893844824908076E+000  0.18731382740831329E+000  0.20527598611700258E-002  0.22026569635414227E-001  0.38821243026899597E-002  0.46568764910859060E-001  0.99815946797047736E-001  0.51196311615903781E-001  0.46314498913536568E-002  0.22351179382694547E+000  0.12402510837571683E+000  0.25926884317630824E-002  0.19419438972900976E-001  0.47733720833860582E-002  0.36164285756547176E-001  
0.82657378176626412E-001  0.45478084849004764E-001  0.46469824879988002E-002 -0.65688275507228902E-001 -0.34001390095356909E-003 -0.24085894823101524E-005 -0.24508674594369782E-004 -0.47198314391507087E-005 -0.66116553671426146E-004 -0.11131736158035964E-003 -0.48532486064767058E-004 -0.43022302375203615E-005 -0.14571636172744030E-001  </sparseX_slice>
