<GAP_2025_2_18_-480_22_43_47_641>
<Potential label="GAP_2025_2_18_-480_22_43_47_641" init_args="IP GAP label=GAP_2025_2_18_-480_22_43_47_641"/>
<GAP_params label="GAP_2025_2_18_-480_22_43_47_641" gap_version="1686220958">
  <GAP_data do_core="F">
    <e0 Z="1" value="-1.4263310000000000"/>
    <e0 Z="2" value="-1.4263310000000000"/>
    <e0 Z="3" value="-1.4263310000000000"/>
    <e0 Z="4" value="-1.4263310000000000"/>
    <e0 Z="5" value="-1.4263310000000000"/>
    <e0 Z="6" value="-1.4263310000000000"/>
    <e0 Z="7" value="-1.4263310000000000"/>
    <e0 Z="8" value="-1.4263310000000000"/>
    <e0 Z="9" value="-1.4263310000000000"/>
    <e0 Z="10" value="-1.4263310000000000"/>
    <e0 Z="11" value="-1.4263310000000000"/>
    <e0 Z="12" value="-1.4263310000000000"/>
    <e0 Z="13" value="-1.4263310000000000"/>
    <e0 Z="14" value="-1.4263310000000000"/>
    <e0 Z="15" value="-1.4263310000000000"/>
    <e0 Z="16" value="-1.4263310000000000"/>
    <e0 Z="17" value="-1.4263310000000000"/>
    <e0 Z="18" value="-1.4263310000000000"/>
    <e0 Z="19" value="-1.4263310000000000"/>
    <e0 Z="20" value="-1.4263310000000000"/>
    <e0 Z="21" value="-1.4263310000000000"/>
    <e0 Z="22" value="-1.4263310000000000"/>
    <e0 Z="23" value="-1.4263310000000000"/>
    <e0 Z="24" value="-1.4263310000000000"/>
    <e0 Z="25" value="-1.4263310000000000"/>
    <e0 Z="26" value="-1.4263310000000000"/>
    <e0 Z="27" value="-1.4263310000000000"/>
    <e0 Z="28" value="-1.4263310000000000"/>
    <e0 Z="29" value="-1.4263310000000000"/>
    <e0 Z="30" value="-1.4263310000000000"/>
    <e0 Z="31" value="-1.4263310000000000"/>
    <e0 Z="32" value="-1.4263310000000000"/>
    <e0 Z="33" value="-1.4263310000000000"/>
    <e0 Z="34" value="-1.4263310000000000"/>
    <e0 Z="35" value="-1.4263310000000000"/>
    <e0 Z="36" value="-1.4263310000000000"/>
    <e0 Z="37" value="-1.4263310000000000"/>
    <e0 Z="38" value="-1.4263310000000000"/>
    <e0 Z="39" value="-1.4263310000000000"/>
    <e0 Z="40" value="-1.4263310000000000"/>
    <e0 Z="41" value="-1.4263310000000000"/>
    <e0 Z="42" value="-1.4263310000000000"/>
    <e0 Z="43" value="-1.4263310000000000"/>
    <e0 Z="44" value="-1.4263310000000000"/>
    <e0 Z="45" value="-1.4263310000000000"/>
    <e0 Z="46" value="-1.4263310000000000"/>
    <e0 Z="47" value="-1.4263310000000000"/>
    <e0 Z="48" value="-1.4263310000000000"/>
    <e0 Z="49" value="-1.4263310000000000"/>
    <e0 Z="50" value="-1.4263310000000000"/>
    <e0 Z="51" value="-1.4263310000000000"/>
    <e0 Z="52" value="-1.4263310000000000"/>
    <e0 Z="53" value="-1.4263310000000000"/>
    <e0 Z="54" value="-1.4263310000000000"/>
    <e0 Z="55" value="-1.4263310000000000"/>
    <e0 Z="56" value="-1.4263310000000000"/>
    <e0 Z="57" value="-1.4263310000000000"/>
    <e0 Z="58" value="-1.4263310000000000"/>
    <e0 Z="59" value="-1.4263310000000000"/>
    <e0 Z="60" value="-1.4263310000000000"/>
    <e0 Z="61" value="-1.4263310000000000"/>
    <e0 Z="62" value="-1.4263310000000000"/>
    <e0 Z="63" value="-1.4263310000000000"/>
    <e0 Z="64" value="-1.4263310000000000"/>
    <e0 Z="65" value="-1.4263310000000000"/>
    <e0 Z="66" value="-1.4263310000000000"/>
    <e0 Z="67" value="-1.4263310000000000"/>
    <e0 Z="68" value="-1.4263310000000000"/>
    <e0 Z="69" value="-1.4263310000000000"/>
    <e0 Z="70" value="-1.4263310000000000"/>
    <e0 Z="71" value="-1.4263310000000000"/>
    <e0 Z="72" value="-1.4263310000000000"/>
    <e0 Z="73" value="-1.4263310000000000"/>
    <e0 Z="74" value="-1.4263310000000000"/>
    <e0 Z="75" value="-1.4263310000000000"/>
    <e0 Z="76" value="-1.4263310000000000"/>
    <e0 Z="77" value="-1.4263310000000000"/>
    <e0 Z="78" value="-1.4263310000000000"/>
    <e0 Z="79" value="-1.4263310000000000"/>
    <e0 Z="80" value="-1.4263310000000000"/>
    <e0 Z="81" value="-1.4263310000000000"/>
    <e0 Z="82" value="-1.4263310000000000"/>
    <e0 Z="83" value="-1.4263310000000000"/>
    <e0 Z="84" value="-1.4263310000000000"/>
    <e0 Z="85" value="-1.4263310000000000"/>
    <e0 Z="86" value="-1.4263310000000000"/>
    <e0 Z="87" value="-1.4263310000000000"/>
    <e0 Z="88" value="-1.4263310000000000"/>
    <e0 Z="89" value="-1.4263310000000000"/>
    <e0 Z="90" value="-1.4263310000000000"/>
    <e0 Z="91" value="-1.4263310000000000"/>
    <e0 Z="92" value="-1.4263310000000000"/>
    <e0 Z="93" value="-1.4263310000000000"/>
    <e0 Z="94" value="-1.4263310000000000"/>
    <e0 Z="95" value="-1.4263310000000000"/>
    <e0 Z="96" value="-1.4263310000000000"/>
    <e0 Z="97" value="-1.4263310000000000"/>
    <e0 Z="98" value="-1.4263310000000000"/>
    <e0 Z="99" value="-1.4263310000000000"/>
    <e0 Z="100" value="-1.4263310000000000"/>
    <e0 Z="101" value="-1.4263310000000000"/>
    <e0 Z="102" value="-1.4263310000000000"/>
    <e0 Z="103" value="-1.4263310000000000"/>
    <e0 Z="104" value="-1.4263310000000000"/>
    <e0 Z="105" value="-1.4263310000000000"/>
    <e0 Z="106" value="-1.4263310000000000"/>
    <e0 Z="107" value="-1.4263310000000000"/>
    <e0 Z="108" value="-1.4263310000000000"/>
    <e0 Z="109" value="-1.4263310000000000"/>
    <e0 Z="110" value="-1.4263310000000000"/>
    <e0 Z="111" value="-1.4263310000000000"/>
    <e0 Z="112" value="-1.4263310000000000"/>
    <e0 Z="113" value="-1.4263310000000000"/>
    <e0 Z="114" value="-1.4263310000000000"/>
    <e0 Z="115" value="-1.4263310000000000"/>
    <e0 Z="116" value="-1.4263310000000000"/>
    <e0 Z="117" value="-1.4263310000000000"/>
    <e0 Z="118" value="-1.4263310000000000"/>
  </GAP_data>
  <gpSparse label="GAP_2025_2_18_-480_22_43_47_641" n_coordinate="1" fitted="T">
    <gpCoordinates label="GAP_2025_2_18_-480_22_43_47_6411" dimensions="325" signal_variance=".20000000000000001" signal_mean=".00000000000000000E+000" sparsified="T" n_permutations="1" covariance_type="2" zeta="4.0000000000000000" n_sparseX="200">
      <descriptor> soap l_max=8 n_max=8 atom_sigma=0.5 cutoff=3.5 radial_scaling=-0.5 cutoff_transition_width=1.0 central_weight=1.0 n_sparse=200 delta=0.2 covariance_type=dot_product zeta=4 sparse_method=cur_points } n_species=1 Z=77 species_Z={77 }</descriptor>
      <permutation i="1">1  </permutation>
      <sparseX i="1" alpha="7214.2737832894036" sparseCutoff="1.0000000000000000" sliced="T">
        <sparseX_slice start="1" end="50">  0.70559464307953546E+000  0.48854465796919204E-005  0.17710613345816852E-004  0.35285549775168998E-005  0.58036781808148974E-005  0.35329746971462431E-005  0.16342573600033740E-005  0.52796726933330633E-006  0.12577019154992680E-006  0.91435088229183462E-001  0.96397250060654440E-004  0.40062307260537550E-003  0.84128858900415368E-004  0.14511317037870956E-003  0.97412373089546706E-004  0.48649821969808191E-004  0.17175310461254148E-004  0.47573685803002862E-005  0.59243472448926825E-002  0.96298556172270055E-003  0.45430918258126275E-002  0.10304618163300265E-002  0.18194206353703342E-002  0.13501191855927394E-002  0.72768264224332591E-003  0.28131326184955771E-003  0.92604289492886921E-004  0.38695430609714171E+000  0.33845412514133617E-003  0.17232147441798055E-002  0.37804321787195843E-003  0.67163957753720244E-003  0.50333382423041700E-003  0.27049741920771186E-003  0.10501491626001504E-003  0.34119836094860565E-004  0.35457025479012388E-001  
0.49109720501720761E-002  0.27748012268200457E-001  0.68249842863796545E-002  0.11966560039435793E-001  0.99450887549278437E-002  0.57631343178665652E-002  0.24551937866255954E-002  0.96682889535806284E-003  0.10610457184993276E+000  0.13214976237817460E-001  0.85269469122933442E-001  0.23953920973982554E-001  0.39668467712600727E-001  </sparseX_slice>
        <sparseX_slice start="51" end="100">  0.37065394810600574E-001  0.23059964079229226E-001  0.10845912114737915E-001  0.51877873954530212E-002  0.45216495106915877E+000  0.32860604631844724E-003  0.19695037801654327E-002  0.44572642673847363E-003  0.80117286059049498E-003  0.63952350204112506E-003  0.35097188448487515E-003  0.14549675246020184E-003  0.52198031183098059E-004  0.41432344693305319E-001  0.49415699678541777E-002  0.31803187812349858E-001  0.82564780227032362E-002  0.14321790900056591E-001  0.12687273150316876E-001  0.75095425862661018E-002  0.34204703396762412E-002  0.14961711585553894E-002  0.17534214163593342E+000  0.20088744227789255E-001  0.13883208983585679E+000  0.42388140807363667E-001  0.67516774507641319E-001  0.67275083069085986E-001  0.42758543789750920E-001  0.21528977709352942E-001  0.11476621564142182E-001  0.14488002777561376E+000  0.16409353383237641E-001  0.11346672125911599E+000  0.38255451541875027E-001  0.57720862994370570E-001  0.61270511073765334E-001  
0.39820303275060552E-001  0.21503378369712636E-001  0.12768783510670055E-001 -0.28719731522265309E-001 -0.55942618480199733E-004 -0.24149443774005802E-003 -0.47772161572408328E-004 -0.90358027724305183E-004 -0.59856440077917498E-004 -0.40048519308448626E-004 -0.81753540389830622E-005  0.17061571946590211E-005 -0.26316188663364202E-002  </sparseX_slice>
        <sparseX_slice start="101" end="150"> -0.69716762076026974E-003 -0.38719290640039632E-002 -0.82890243619133583E-003 -0.15944995306651701E-002 -0.11784896928396151E-002 -0.83829705067859153E-003 -0.17835514254938183E-003  0.56626849236575698E-004 -0.11137040189461305E-001 -0.17996421298868282E-002 -0.16667769654016153E-001 -0.38613693426208877E-002 -0.73373579220119113E-002 -0.61662550559346699E-002 -0.46106081801668012E-002 -0.99716140905889211E-003  0.49432825194314445E-003 -0.13013886014383398E-001 -0.83881016848689268E-003 -0.18826479401381060E-001 -0.44943189623624100E-002 -0.86043816606246760E-002 -0.77948806094477836E-002 -0.58527408353146919E-002 -0.11917723948767828E-002  0.87169343023007855E-003  0.58448784071765160E-003  0.66859797729432798E-003  0.19625594100822884E-002  0.54997299493713206E-003  0.85777086073814319E-003  0.63626732518721823E-003  0.61812379364031150E-003  0.24442277379987221E-003  0.11903399529574431E-003  0.10753604658985153E-001  0.15597406847369369E-004  
0.63792485699130426E-004  0.13219202979811639E-004  0.24494368034812654E-004  0.16094763371071893E-004  0.93539130149934548E-005  0.25863384713194259E-005  0.16892861939330629E-006  0.98536397806397069E-003  0.20679888799502360E-003  0.10219561650178324E-002  0.22549596763596309E-003  0.43227419553048320E-003  0.31424752959647548E-003  </sparseX_slice>
        <sparseX_slice start="151" end="200">  0.19548645460301485E-003  0.57693193470342033E-004  0.20822297208893528E-005  0.41700712688016615E-002  0.64187795667679411E-003  0.43999120247737201E-002  0.10279804739125157E-002  0.19921401929649629E-002  0.16256603266975127E-002  0.10739319718284031E-002  0.33636194464791623E-003 -0.38676442590993508E-005  0.48728235905436687E-002  0.50491699733242541E-003  0.50006425739248178E-002  0.12017678505678458E-002  0.23546782923836865E-002  0.20555291463082220E-002  0.13724011451185583E-002  0.43937773236703932E-003 -0.24249900880010779E-004 -0.30950250554552647E-003 -0.19078452562060582E-003 -0.67524938600818565E-003 -0.16859792914379403E-003 -0.29802079453648372E-003 -0.21463682165848353E-003 -0.18474368400912843E-003 -0.60443304231106138E-004 -0.18720843027460276E-004  0.81945075898706986E-004  0.30871363138650541E-004  0.12062218298369068E-003  0.28669146173495440E-004  0.54311253119323911E-004  0.38568566067344082E-004  0.28882542077805189E-004  
0.92859530989004363E-005  0.22647366495290076E-005 -0.29653217558613582E-002 -0.42741470176632184E-005 -0.17457495687359403E-004 -0.36215049280775891E-005 -0.67066705049514088E-005 -0.44061195214340858E-005 -0.25511904926402727E-005 -0.71026154812644536E-006 -0.50041715356696874E-007 -0.27171551626214752E-003 -0.56751797032703467E-004  </sparseX_slice>
        <sparseX_slice start="201" end="250"> -0.27966150277478307E-003 -0.61747833671443596E-004 -0.11835871953607435E-003 -0.86009977669193415E-004 -0.53314221136340831E-004 -0.15850221154072454E-004 -0.67438956280860909E-006 -0.11499030742717410E-002 -0.17682797807946516E-003 -0.12040424718390047E-002 -0.28132151911142438E-003 -0.54547590769463909E-003 -0.44481125129664618E-003 -0.29287555045844028E-003 -0.92479474665250363E-004  0.28275031452786504E-006 -0.13436880249675493E-002 -0.14017058005562241E-003 -0.13686430955466469E-002 -0.32890300412338465E-003 -0.64486726610767683E-003 -0.56242907394621735E-003 -0.37433783254150013E-003 -0.12098866728415100E-003  0.53742342518758753E-005  0.85345755427312044E-004  0.51793599360644852E-004  0.18437743622880736E-003  0.45875285703957451E-004  0.81392144313873307E-004  0.58575229205851951E-004  0.50241133742395999E-004  0.16336770792115492E-004  0.49622229970789943E-005 -0.31956235819134833E-004 -0.11900021736904262E-004 -0.46627142515180842E-004 
-0.11066366585639085E-004 -0.21003520905136427E-004 -0.14910802536150685E-004 -0.11123139336075179E-004 -0.35743596936623076E-005 -0.86557467062951472E-006  0.62310089808841661E-005  0.22938325381253516E-005  0.90122397244036540E-005  0.21360114484168037E-005  0.40614270140685823E-005  0.28824247947497272E-005  0.21419362706903105E-005  </sparseX_slice>
        <sparseX_slice start="251" end="300">  0.68806132087036744E-006  0.16552324983285345E-006  0.88193495221531627E-003  0.12708051267573120E-005  0.51901772066213863E-005  0.10767448348069071E-005  0.19939695642765690E-005  0.13099790286509388E-005  0.75835028970155186E-006  0.21119991102088059E-006  0.14933920937147844E-007  0.80812616835642011E-004  0.16874881532913575E-004  0.83144270079682023E-004  0.18358423106256627E-004  0.35189396616038431E-004  0.25571262331228280E-004  0.15847795877051640E-004  0.47132399402404062E-005  0.20204337988179603E-006  0.34199988950794614E-003  0.52589003864363129E-004  0.35796561063934672E-003  0.83637936719850923E-004  0.16217647801491252E-003  0.13224295396986109E-003  0.87057842134673184E-004  0.27500829295348177E-004 -0.72603731003079861E-007  0.39963468778713362E-003  0.41702850573582719E-004  0.40690500442856325E-003  0.97784407061153865E-004  0.19172853916524010E-003  0.16721084403596386E-003  0.11127364368239556E-003  0.35981410907398202E-004 
-0.15791349114280010E-005 -0.25383216706850250E-004 -0.15392242149226612E-004 -0.54809968437784599E-004 -0.13634977290532294E-004 -0.24195737012124874E-004 -0.17412214734723403E-004 -0.14932182551917654E-004 -0.48539548856557239E-005 -0.14729066879376940E-005  0.95043046355498969E-005  0.35372129726948273E-005  0.13861596616373518E-004  </sparseX_slice>
        <sparseX_slice start="301" end="325">  0.32896398879500514E-005  0.62441888604491419E-005  0.44328004784773568E-005  0.33061357576828077E-005  0.10623815435588163E-005  0.25717708526220402E-006 -0.26208255002736722E-005 -0.96425693124327460E-006 -0.37889842885754579E-005 -0.89797406766808154E-006 -0.17075691124030792E-005 -0.12118562837372476E-005 -0.90035900005292370E-006 -0.28922029736879932E-006 -0.69553138044671616E-007  0.55117287777605538E-006  0.20267209877671872E-006  0.79649473363938089E-006  0.18875310918126523E-006  0.35896157958071429E-006  0.25475006654244610E-006  0.18923214959992498E-006  0.60785586942499138E-007  0.14613196121129518E-007  0.00000000000000000E+000  </sparseX_slice>
      </sparseX>
      <sparseX i="2" alpha="23218.140486202305" sparseCutoff="1.0000000000000000" sliced="T">
        <sparseX_slice start="1" end="50">  0.45390515537625320E+000  0.63707278250951102E-005  0.33487004569275753E-006  0.24865877291937392E-005  0.16803227155885079E-005  0.13710767837341830E-005  0.85181358901966260E-006  0.21226691115721691E-006  0.62458856368449231E-007  0.73937479036710663E-001  0.16320811398107474E-003  0.99724566075176350E-005  0.64064128118932661E-004  0.47997050476071139E-004  0.43327542110615432E-004  0.32110396682024653E-004  0.91558716000050925E-005  0.29609160717536622E-005  0.60219086978341371E-002  0.20931907017483807E-002  0.16325053380918540E-003  0.84017026367978027E-003  0.69732225055296184E-003  0.69160547076323241E-003  0.61129005446698172E-003  0.20105036188712769E-003  0.73156846359230220E-004  0.40297273993386906E+000  0.86401692108047188E-003  0.65532501167061771E-004  0.31735765532222226E-003  0.27031412495179225E-003  0.26894736619212882E-003  0.23807246209824086E-003  0.75135762517293561E-004  0.25649428130775370E-004  0.46415196546607383E-001  
0.15703128746565168E-001  0.16543062103427002E-002  0.60768579689722902E-002  0.57021351777251320E-002  0.61554727641250544E-002  0.64737308893171750E-002  0.23679841879856466E-002  0.92344070367203208E-003  0.17887770959023699E+000  0.59123637426472281E-001  0.89669363159902843E-002  0.23184466350228937E-001  0.24228331369376185E-001  </sparseX_slice>
        <sparseX_slice start="51" end="100">  0.27896505186558368E-001  0.34616804520514674E-001  0.14110425878454709E-001  0.59476839151364272E-002  0.54658916091392407E+000  0.11427331583273644E-002  0.10054261777130719E-003  0.38892731482575418E-003  0.36209719277434621E-003  0.37470720175656924E-003  0.36569372509986833E-003  0.12016982490086453E-003  0.41177129639732918E-004  0.62957219732104983E-001  0.20800932763335115E-001  0.26183099857713583E-002  0.76449522032164879E-002  0.77847447902128202E-002  0.86581351272851693E-002  0.10000170878233249E-001  0.38175740645203225E-002  0.15089091320396027E-002  0.34312832496586099E+000  0.11111296719438045E+000  0.20526990808701340E-001  0.42973538017510124E-001  0.48028699656760127E-001  0.56184899458747377E-001  0.76041321045798943E-001  0.32374631380185870E-001  0.13904681572484501E-001  0.32909927028801667E+000  0.10471828089914165E+000  0.23676618901815171E-001  0.41006025270369312E-001  0.48433207609669994E-001  0.57061710623585241E-001  
0.83787704223582393E-001  0.37272831227915408E-001  0.16364338742113575E-001 -0.12184272355568862E-001 -0.51192444720881899E-004  0.73530195069142696E-005 -0.49858437241263814E-004 -0.23796139344325541E-004 -0.22307093520924191E-004  0.59202142693109776E-005  0.48849854406237376E-005  0.10178968080936002E-005 -0.14034085686638069E-002  </sparseX_slice>
        <sparseX_slice start="101" end="150"> -0.90617672804541819E-003  0.21343724824391671E-003 -0.81848052594632719E-003 -0.38893221060934126E-003 -0.44078570931751338E-003  0.21207151384636724E-003  0.18388411242937697E-003  0.65854959358511723E-004 -0.76488325478385587E-002 -0.45187793667592459E-002  0.18126265713252477E-002 -0.32145100782910124E-002 -0.13676985050050691E-002 -0.22284438192367627E-002  0.19888477736468460E-002  0.17530009325835362E-002  0.77810751844506248E-003 -0.10374818318927196E-001 -0.55977657144373749E-002  0.30638932530651472E-002 -0.30343426928924923E-002 -0.99955719223356163E-003 -0.25687835528872744E-002  0.34558967104651537E-002  0.30422663183347432E-002  0.14657257102526509E-002  0.16353250351565219E-003  0.45840957863788816E-003  0.25742748933644567E-003  0.82458840710856736E-003  0.55286154997787214E-003  0.47972603826342296E-003  0.31634355851119320E-003  0.26221842969320630E-003  0.19854104684004979E-003  0.39416597791013782E-002  0.15454192876063175E-004 
-0.19416971908037239E-005  0.12982641299774383E-004  0.60600603265492569E-005  0.56184089565823523E-005 -0.14791635407624455E-005 -0.11818618497375019E-005 -0.23957435491409465E-006  0.45400816292653321E-003  0.27482339135712866E-003 -0.56673414492249257E-004  0.21177432113658973E-003  0.98107017430202668E-004  0.11067217501361086E-003  </sparseX_slice>
        <sparseX_slice start="151" end="200"> -0.53144061150052535E-004 -0.45011530011936364E-004 -0.16184802059514246E-004  0.24744272559794698E-002  0.13873942354907199E-002 -0.48147252809459625E-003  0.81785410789756341E-003  0.33454055427271570E-003  0.55610526696220797E-003 -0.49909628202697001E-003 -0.43192081510776668E-003 -0.19347895238304408E-003  0.33562943185941477E-002  0.17431079682650853E-002 -0.81159000564795330E-003  0.75354554086720193E-003  0.22777295838619975E-003  0.63694429545126943E-003 -0.86682865937555247E-003 -0.75109771841143402E-003 -0.36563770887283579E-003 -0.74816712455151349E-004 -0.17451329455865855E-003 -0.92533633546347074E-004 -0.30974827938202320E-003 -0.20423637556984161E-003 -0.17270822184440026E-003 -0.11100387475518273E-003 -0.92313962334371799E-004 -0.70774593594603643E-004  0.17114458417317143E-004  0.33616772301590489E-004  0.16799027195715738E-004  0.58282655027204761E-004  0.37830921140760181E-004  0.31205541722625813E-004  0.19604290732580206E-004  
0.16366325536980028E-004  0.12707736564408672E-004 -0.10843340302409935E-002 -0.42389309888377541E-005  0.52934972155242971E-006 -0.35500285483531015E-005 -0.16577128810842534E-005 -0.15349894481686760E-005  0.40319267930130151E-006  0.32250775596815575E-006  0.65542081437986928E-007 -0.12489573648100886E-003 -0.75389117890660592E-004  </sparseX_slice>
        <sparseX_slice start="201" end="250">  0.15462652825533763E-004 -0.57911009162580866E-004 -0.26846795957536332E-004 -0.30238386140514340E-004  0.14491921290647580E-004  0.12283936812182654E-004  0.44226805765611770E-005 -0.68070453295846758E-003 -0.38069665596678217E-003  0.13141735682686278E-003 -0.22367708348008250E-003 -0.91658209585560044E-004 -0.15196366173635058E-003  0.13613029220178053E-003  0.11787912171404921E-003  0.52853125746235368E-004 -0.92330245356331611E-003 -0.47846146912404361E-003  0.22153772103942237E-003 -0.20613511278484839E-003 -0.62595356546332693E-004 -0.17408855105066536E-003  0.23644625272902027E-003  0.20498639152594772E-003  0.99865351777891640E-004  0.20581762986244085E-004  0.47724954913133103E-004  0.25249140749806960E-004  0.84675304341181039E-004  0.55803788660598952E-004  0.47157968177316770E-004  0.30285529524588012E-004  0.25187303271902672E-004  0.19311668129784532E-004 -0.66582808540714164E-005 -0.13005581376173916E-004 -0.64836330642960682E-005 
-0.22532294277954785E-004 -0.14618386717144364E-004 -0.12050476282396817E-004 -0.75649219981683196E-005 -0.63157215595176535E-005 -0.49041166005454073E-005  0.12951827878712261E-005  0.25158075082637790E-005  0.12511935426171993E-005  0.43555368709027171E-005  0.28243753723338665E-005  0.23267360458946814E-005  0.14595824397035101E-005  </sparseX_slice>
        <sparseX_slice start="251" end="300">  0.12186124271142655E-005  0.94628992850908357E-006  0.32246132655086237E-003  0.12603933853326583E-005 -0.15734653662998425E-006  0.10553929976110256E-005  0.49283369398071878E-006  0.45631913977834382E-006 -0.11984628845314157E-006 -0.95868767856565018E-007 -0.19485637326726905E-007  0.37141732845239702E-004  0.22416132972863711E-004 -0.45963832316235988E-005  0.17216487938576641E-004  0.79816361103432769E-005  0.89892485953467359E-005 -0.43077145114801051E-005 -0.36515436353452041E-005 -0.13147814438605520E-005  0.20242921513603015E-003  0.11319763508217689E-003 -0.39065563790256139E-004  0.66497930418231159E-004  0.27252012399175951E-004  0.45176006901411553E-004 -0.40465119866381414E-004 -0.35041017676524902E-004 -0.15711991762512378E-004  0.27457344847650177E-003  0.14226972551605876E-003 -0.65855284458436812E-004  0.61283553404494514E-004  0.18613930257301860E-004  0.51753869317021516E-004 -0.70284567823307301E-004 -0.60934690370366088E-004 
-0.29687360837795474E-004 -0.61206440176231225E-005 -0.14188286869435416E-004 -0.75055341432742255E-005 -0.25172863748176081E-004 -0.16589317727708421E-004 -0.14018622007014449E-004 -0.90025985729498859E-005 -0.74871275609580721E-005 -0.57405651836923192E-005  0.19800522872780243E-005  0.38665299392030249E-005  0.19273342512975110E-005  </sparseX_slice>
        <sparseX_slice start="301" end="325">  0.66985594660343758E-005  0.43457487090509907E-005  0.35822443265707954E-005  0.22487398846307744E-005  0.18774079383231414E-005  0.14577981279846285E-005 -0.54470405795437801E-006 -0.10577528626417032E-005 -0.52599085386608461E-006 -0.18311870338065048E-005 -0.11874151870196035E-005 -0.97816727250569909E-006 -0.61359023416103481E-006 -0.51229051757747240E-006 -0.39781014930309194E-006  0.11454078664820318E-006  0.22236223167139871E-006  0.11056098509169047E-006  0.38494060043441753E-006  0.24960471683036415E-006  0.20561232483541548E-006  0.12897283739752192E-006  0.10768049374684597E-006  0.83617563131012774E-007  0.00000000000000000E+000  </sparseX_slice>
      </sparseX>
      <sparseX i="3" alpha="-3594.9947560558899" sparseCutoff="1.0000000000000000" sliced="T">
        <sparseX_slice start="1" end="50">  0.72776504998120273E+000  0.12101122994262009E-004  0.12611796067167645E-004  0.22923689598757486E-004  0.86989515479890615E-005  0.29030076158409125E-005  0.26486176370355964E-005  0.93183461189990728E-006  0.19617318478765427E-006  0.10015102159275700E+000  0.21623667716729077E-003  0.24235932738609327E-003  0.50336423231407408E-003  0.19666717654021873E-003  0.68810054049999665E-004  0.71970147003329110E-004  0.26927800677801724E-004  0.60746836151963558E-005  0.68911162512763878E-002  0.19561702284562736E-002  0.23555666296086329E-002  0.55459872363101030E-002  0.22462299918024364E-002  0.82967259265673624E-003  0.98729767865575490E-003  0.39721263238624486E-003  0.99015669610992170E-004  0.38724361552721109E+000  0.59016339517989726E-003  0.75628643546982210E-003  0.20185636800874344E-002  0.75981454342940590E-003  0.26947750945837453E-003  0.35020832652714280E-003  0.13753153097238141E-003  0.33425466740132870E-004  0.37681957624792088E-001  
0.78806581091041463E-002  0.10768041822414736E-001  0.31706197398060833E-001  0.12586601914405702E-001  0.48010292452246115E-002  0.69250736566797786E-002  0.29813005061016264E-002  0.83766160116573890E-003  0.10302611932962411E+000  0.18135263742316964E-001  0.27184870231337373E-001  0.92280912350030206E-001  0.37380242733749673E-001  </sparseX_slice>
        <sparseX_slice start="51" end="100">  0.15365902519107166E-001  0.25182490431213071E-001  0.11947020268778363E-001  0.39753588782549965E-002  0.43108707023031478E+000  0.38462265911490344E-003  0.61441581958139656E-003  0.22253437827805859E-002  0.78315300944819925E-003  0.28560495852800383E-003  0.43467032504757757E-003  0.16806895028443605E-003  0.42578876986316308E-004  0.41948282842310752E-001  0.56486572203226096E-002  0.92529242409429991E-002  0.35213231972765754E-001  0.13304398082569679E-001  0.53122527884464617E-002  0.87251948593978779E-002  0.37706443542849140E-002  0.11459550831384262E-002  0.16219709449463354E+000  0.23200454370306416E-001  0.37809677758479064E-001  0.14730569746828259E+000  0.58981162121124357E-001  0.26230944867863339E-001  0.46114959678630212E-001  0.22547860382460191E-001  0.83553521688365245E-002  0.12767586333292336E+000  0.19390112863452741E-001  0.30368686176441395E-001  0.11930598821235226E+000  0.48745730957757402E-001  0.23913288147866110E-001  
0.43111482566463910E-001  0.22171069810999675E-001  0.92607141840813072E-002 -0.22504872478763555E-001 -0.17271311723359150E-003 -0.18987062011972366E-003 -0.23755415690893854E-003 -0.14256052961531787E-003 -0.38996380272829851E-004 -0.35166528786154486E-004 -0.26151103953232813E-004 -0.57872125139999184E-005 -0.21899073789546524E-002  </sparseX_slice>
        <sparseX_slice start="101" end="150"> -0.20493610547950786E-002 -0.24580420378714839E-002 -0.36205540807809689E-002 -0.22265045966270427E-002 -0.59362258415927675E-003 -0.61645718017632400E-003 -0.46360317119563171E-003 -0.73247290994437407E-004 -0.84674887745473382E-002 -0.41731758885192594E-002 -0.64353609300836310E-002 -0.13886255272722687E-001 -0.80532085294765365E-002 -0.16766967369574487E-002 -0.24015441148241170E-002 -0.16641863283313697E-002  0.11651520703865805E-003 -0.94261720055942230E-002 -0.33400350671204009E-003 -0.33754931927483058E-002 -0.14475077063776669E-001 -0.75368982640975999E-002 -0.90958668270814586E-003 -0.22354882797981134E-002 -0.11335800281886410E-002  0.83002345404502981E-003  0.34796208288546607E-003  0.18773393916598107E-002  0.19553428571417678E-002  0.16022459317595423E-002  0.14794015600884127E-002  0.61304441049609478E-003  0.62801998255023232E-003  0.81757792878759165E-003  0.47441452576500726E-003  0.83232684817384061E-002  0.46434687420063509E-004  
0.49644129305556897E-004  0.66517722320876181E-004  0.37498716913254875E-004  0.12840114669968297E-004  0.10699433680900653E-004  0.64031462191526029E-005  0.15827228223031367E-005  0.80992181059366057E-003  0.55823679778704838E-003  0.64479767780410658E-003  0.10135505676089394E-002  0.58003499361836337E-003  0.19709676718847685E-003  </sparseX_slice>
        <sparseX_slice start="151" end="200">  0.18965660467444440E-003  0.11402808460652915E-003  0.22419905604452858E-004  0.31316410480960754E-002  0.12236051780608944E-002  0.17114951647795220E-002  0.38855686114605604E-002  0.20465880257658246E-002  0.58030882832701806E-003  0.76444115516468431E-003  0.41644225754066902E-003  0.51989590959259485E-005  0.34862032847172036E-002  0.29869673891752861E-003  0.95547901057372556E-003  0.40741222967850179E-002  0.18750778023738819E-002  0.38166655250285408E-003  0.76965111648237940E-003  0.30600325449839778E-003 -0.14155133651141337E-003 -0.18199701585967470E-003 -0.65153162454261696E-003 -0.67931092456223301E-003 -0.58611532234926686E-003 -0.52225153103749712E-003 -0.22514500222393520E-003 -0.21360215458920902E-003 -0.25946723292561731E-003 -0.14500575950929167E-003  0.47595579246962510E-004  0.11518888023289805E-003  0.12054077843601075E-003  0.11126514983310096E-003  0.95417841323748283E-004  0.45420663942994593E-004  0.39395814049258305E-004  
0.42334259425595899E-004  0.23240087898994796E-004 -0.22986373444464081E-002 -0.12709681804119303E-004 -0.13577378394361467E-004 -0.18235583033688986E-004 -0.10258676746461412E-004 -0.35337369934933480E-005 -0.29395566382254546E-005 -0.17478718906346656E-005 -0.43337726106425608E-006 -0.22367613444128603E-003 -0.15285993480967607E-003  </sparseX_slice>
        <sparseX_slice start="201" end="250"> -0.17637222449902370E-003 -0.27786543563431857E-003 -0.15864187137420917E-003 -0.54258623607895040E-004 -0.52126116486586113E-004 -0.31134648720561241E-004 -0.61593479537699032E-005 -0.86486541655465625E-003 -0.33581135660001643E-003 -0.46840692401065373E-003 -0.10652759214874309E-002 -0.55937970748326602E-003 -0.15996036017623986E-003 -0.21033615275868001E-003 -0.11381164252402141E-003 -0.17389332943984062E-005 -0.96278488170418682E-003 -0.83593597667885720E-004 -0.26208182785891656E-003 -0.11172248715413681E-002 -0.51222987141434520E-003 -0.10570572695648626E-003 -0.21223148284560048E-003 -0.83889602939574877E-004  0.38042497059044355E-004  0.50262122163993630E-004  0.17779278797202871E-003  0.18539452795496202E-003  0.16027878423071007E-003  0.14262583887350556E-003  0.61548041098032191E-004  0.58258457925942544E-004  0.70597914045667973E-004  0.39396943242915280E-004 -0.18589091656823191E-004 -0.44481682405401897E-004 -0.46556783443886011E-004 
-0.43079054090232014E-004 -0.36891680165968981E-004 -0.17608067564624900E-004 -0.15234652859596306E-004 -0.16305217277510966E-004 -0.89440472801500873E-005  0.36301094985394716E-005  0.85887750616071624E-005  0.89910820794792598E-005  0.83398517298476641E-005  0.71320030049502227E-005  0.34132887652425007E-005  0.29459061213750049E-005  </sparseX_slice>
        <sparseX_slice start="251" end="300">  0.31401110922129981E-005  0.17211703518692733E-005  0.68370567810298701E-003  0.37786678690869235E-005  0.40364795783556179E-005  0.54219896830744761E-005  0.30498933640439909E-005  0.10508891840443762E-005  0.87411321208450423E-006  0.51958279929356684E-006  0.12884824033908125E-006  0.66530130793844249E-004  0.45447178182298188E-004  0.52434847875266585E-004  0.82617857079150082E-004  0.47163452668290922E-004  0.16136068865449665E-004  0.15500639872733399E-004  0.92553978232130082E-005  0.18315525527215579E-005  0.25724518812067439E-003  0.99852236794842068E-004  0.13925966730201836E-003  0.31673969246063339E-003  0.16629537404140991E-003  0.47574010462674207E-004  0.62550748316698757E-004  0.33834383911691569E-004  0.52172011891681390E-006  0.28637031065524495E-003  0.24880372561387908E-004  0.77926984317555292E-004  0.33218957115068636E-003  0.15227441244039562E-003  0.31445536077091282E-004  0.63121283448768086E-004  0.24942973383564655E-004 
-0.11299781123350396E-004 -0.14949943452391183E-004 -0.52850859559168563E-004 -0.55110887560121169E-004 -0.47649717273862827E-004 -0.42398787199225953E-004 -0.18297466426194391E-004 -0.17317518863570226E-004 -0.20982918810487492E-004 -0.11708587605528007E-004  0.55291312251814821E-005  0.13223093800555590E-004  0.13840087654444671E-004  </sparseX_slice>
        <sparseX_slice start="301" end="325">  0.12807828159659742E-004  0.10967484015956296E-004  0.52353789174681241E-005  0.45291344802060705E-005  0.48464225668819940E-005  0.26583461103148585E-005 -0.15269803616730585E-005 -0.36107595821206886E-005 -0.37799263406265645E-005 -0.35065773362858973E-005 -0.29985120912344461E-005 -0.14352452229411614E-005 -0.12385634291466617E-005 -0.13199436559633356E-005 -0.72346491116126705E-006  0.32115684470031851E-006  0.75898980822306511E-006  0.79455641978568264E-006  0.73718850730484381E-006  0.63033312635463598E-006  0.30175138773673800E-006  0.26036805075141411E-006  0.27741875111516152E-006  0.15204815393780736E-006  0.00000000000000000E+000  </sparseX_slice>
      </sparseX>
      <sparseX i="4" alpha="32979.212703666308" sparseCutoff="1.0000000000000000" sliced="T">
        <sparseX_slice start="1" end="50">  0.56423841856039669E+000  0.11964748157875712E-004  0.18765719126353762E-004  0.99169404016035916E-005  0.88386115914689401E-005  0.88944954439401039E-005  0.15678775100470624E-005  0.10332437065140173E-005  0.32696389850899000E-006  0.11931622914306393E+000  0.25018440915757162E-003  0.36887800751078523E-003  0.21461543311759713E-003  0.20962032047415125E-003  0.22412366104155196E-003  0.43154809003263977E-004  0.31045786776958212E-004  0.11025182766877228E-004  0.12615555825889106E-001  0.26357798832534144E-002  0.36415254405947127E-002  0.23397789423493065E-002  0.24961386508910613E-002  0.28283707298026235E-002  0.59882311762812432E-003  0.47081315401411986E-003  0.18819115571957286E-003  0.45133961159344471E+000  0.10002398143184026E-002  0.12225519529616884E-002  0.81234378423895620E-003  0.88688385309328545E-003  0.99496985590733010E-003  0.21273378955696467E-003  0.17015354687125657E-003  0.68933816719227986E-004  0.67487807439634034E-001  
0.15111347707588381E-001  0.17235767244564569E-001  0.12689031563627808E-001  0.15037170791965853E-001  0.17815755286779394E-001  0.42405665752075737E-002  0.37060219194656550E-002  0.16923444792569643E-002  0.18051539765145971E+000  0.44398647385585951E-001  0.41710453008294568E-001  0.35220645066844358E-001  0.45819701699972647E-001  </sparseX_slice>
        <sparseX_slice start="51" end="100">  0.56495920998138625E-001  0.15457268222220606E-001  0.14951783338234818E-001  0.77824362196463560E-002  0.48805136889476025E+000  0.11391623899383401E-002  0.10590232278912645E-002  0.82031871094686063E-003  0.98929886117688826E-003  0.11360243865242200E-002  0.26179083685655896E-003  0.22596827673695196E-003  0.96468476066039616E-004  0.72977234788531381E-001  0.17451501934072845E-001  0.15135769980104838E-001  0.12937059577815286E-001  0.16833485282929224E-001  0.20408769906264022E-001  0.53021284486462683E-002  0.49849376837755406E-002  0.24004075794099972E-002  0.27605227755837186E+000  0.74273471481912920E-001  0.53497597460533869E-001  0.51796191356196460E-001  0.73103131566107815E-001  0.92221966722654050E-001  0.28141432199213948E-001  0.29028666843053511E-001  0.15896955663132675E-001  0.21107578892605375E+000  0.63545000600788909E-001  0.35986935722054234E-001  0.38956859779913595E-001  0.58863806930299550E-001  0.76050615732844634E-001  
0.26418148317137298E-001  0.28712271179324358E-001  0.16529509779344455E-001 -0.36821963950144934E-001 -0.52476005000414508E-004 -0.31506008809980776E-003 -0.16280333918094333E-003 -0.14275014633577547E-003 -0.17042018706648918E-003 -0.28468035773043079E-004 -0.12312990156955379E-004 -0.49473495565304322E-005 -0.55059063037768167E-002  </sparseX_slice>
        <sparseX_slice start="101" end="150"> -0.64285271765765863E-003 -0.43488230862244450E-002 -0.25613268020315315E-002 -0.24473386286807501E-002 -0.30049637699610336E-002 -0.49266359243368334E-003 -0.21322357449020670E-003 -0.89486745183489218E-004 -0.20827289216766093E-001 -0.15588236285498367E-002 -0.13960331282523036E-001 -0.98958348171196576E-002 -0.10512090635627493E-001 -0.12915013346895689E-001 -0.17906330429310101E-002 -0.68806044133110425E-003 -0.28558250991188267E-003 -0.22521371383121481E-001 -0.54295464507232282E-003 -0.11107455811537634E-001 -0.95143339817221166E-002 -0.11201607469810236E-001 -0.13793034193088279E-001 -0.11509129992707502E-002 -0.16844327238131954E-003  0.87563173369345954E-004  0.12014930076944420E-002  0.64887677736234371E-003  0.32637316763075050E-002  0.22108617314208477E-002  0.20081546468249489E-002  0.23989281080618900E-002  0.99637030335368430E-003  0.63624891309833084E-003  0.46268156010334765E-003  0.12329419520833319E-001  0.21831792709435889E-004  
0.81809535438515508E-004  0.42733106036882737E-004  0.37086838217147219E-004  0.45281633820558039E-004  0.83192837198623499E-005  0.42679956442461100E-005  0.16712451304237035E-005  0.18435906556634907E-002  0.29575356171696992E-003  0.11318563368745015E-002  0.66798112877208588E-003  0.63304076795503504E-003  0.79960588794279633E-003  </sparseX_slice>
        <sparseX_slice start="151" end="200">  0.14869632173121743E-003  0.80662098044068925E-004  0.33896789067342637E-004  0.69737830003558637E-002  0.97561519518591896E-003  0.36624767070812829E-002  0.25609866815374327E-002  0.27069091998959687E-002  0.34546122150320314E-002  0.59654392200462212E-003  0.34272421483742371E-003  0.15486739740096616E-003  0.75410273157334373E-002  0.85696748972193383E-003  0.29708554769188144E-002  0.24660487513157715E-002  0.28964343082807796E-002  0.37365757064256647E-002  0.51302647937587903E-003  0.30214478191190004E-003  0.11652262587050724E-003 -0.56894715118987961E-003 -0.22585983801146650E-003 -0.11582663723191903E-002 -0.77418052315406940E-003 -0.69393126899782581E-003 -0.84577862373640491E-003 -0.32236324073985057E-003 -0.19839419821088904E-003 -0.14066673669745435E-003  0.13470775891914375E-003  0.43444273441102741E-004  0.20694153609457578E-003  0.13654335446707121E-003  0.12064376995510869E-003  0.15077231152167545E-003  0.53792380676881235E-004  
0.32441211451412996E-004  0.22161088819473738E-004 -0.33974131662596364E-002 -0.60423840827809047E-005 -0.22351701777747242E-004 -0.11686358411750077E-004 -0.10151427263050361E-004 -0.12391266395337307E-004 -0.22806803988747918E-005 -0.11766826664480179E-005 -0.45990749005600348E-006 -0.50800762810940888E-003 -0.82025490525372099E-004  </sparseX_slice>
        <sparseX_slice start="201" end="250"> -0.30926451282948397E-003 -0.18263900914406862E-003 -0.17324377873007224E-003 -0.21882906652606482E-003 -0.40807102323990580E-004 -0.22287382231228062E-004 -0.93537041088454676E-005 -0.19216494453783734E-002 -0.27199039471509883E-003 -0.10009987540936028E-002 -0.70011947526795089E-003 -0.74069785075595908E-003 -0.94567670427955232E-003 -0.16419953841199307E-003 -0.95245704833901151E-004 -0.43028586947556702E-004 -0.20779555311834135E-002 -0.24099837701836187E-003 -0.81252947615260333E-003 -0.67439250717022043E-003 -0.79284734218468527E-003 -0.10234511701411380E-002 -0.14221056815243911E-003 -0.85079445291445796E-004 -0.33103412348477911E-004  0.15677530796095134E-003  0.61548079725154309E-004  0.31603231303428816E-003  0.21109122399878206E-003  0.18923288359495893E-003  0.23078739561234267E-003  0.87614250156499822E-004  0.53859888168677677E-004  0.38127959987924673E-004 -0.52494444483610992E-004 -0.16802833872227917E-004 -0.79870206938601908E-004 
-0.52667689416111543E-004 -0.46542641032975605E-004 -0.58208161799394049E-004 -0.20698845192494145E-004 -0.12477788820879700E-004 -0.85056986864333288E-005  0.10228314700480479E-004  0.32497955468466233E-005  0.15413300891697212E-004  0.10157679510815149E-004  0.89779339839118566E-005  0.11236334372682090E-004  0.39825335165825567E-005  </sparseX_slice>
        <sparseX_slice start="251" end="300">  0.23998248556551969E-005  0.16323767758317194E-005  0.10104132975057381E-002  0.17974398028438124E-005  0.66446882364365271E-005  0.34742742569570072E-005  0.30180913204799973E-005  0.36839587155765119E-005  0.67811372317401628E-006  0.34996228793435731E-006  0.13677018852775568E-006  0.15108485119612604E-003  0.24402804664345231E-004  0.91938142317285262E-004  0.54296786934557058E-004  0.51506114873048754E-004  0.65058773336791115E-004  0.12133802254893391E-004  0.66293158083214566E-005  0.27820466173499210E-005  0.57151134046274851E-003  0.80938765609923783E-004  0.29758102492797889E-003  0.20813711643459187E-003  0.22021113565370842E-003  0.28115730047803317E-003  0.48831291040220604E-004  0.28338718854160285E-004  0.12802238733481111E-004  0.61799781115373057E-003  0.71746934139257131E-004  0.24156051656704618E-003  0.20049226828646989E-003  0.23571969336947857E-003  0.30428916016864409E-003  0.42306919301865546E-004  0.25330354213168013E-004  
0.98599785629300502E-005 -0.46626020484491365E-004 -0.18294514599430306E-004 -0.93943316183783940E-004 -0.62746500354609699E-004 -0.56249523769055738E-004 -0.68603811462207264E-004 -0.26038921246856744E-004 -0.16006219808797129E-004 -0.11330050093488532E-004  0.15612197326536115E-004  0.49953731344424991E-005  0.23742378254634162E-004  </sparseX_slice>
        <sparseX_slice start="301" end="325">  0.15655618990302718E-004  0.13835057631802295E-004  0.17303333578496497E-004  0.61520346192102743E-005  0.37085237170185552E-005  0.25277044060080562E-005 -0.43019936714613772E-005 -0.13663411356775605E-005 -0.64796306668393366E-005 -0.42700780652265080E-005 -0.37741732101738919E-005 -0.47237399266675047E-005 -0.16739712849148360E-005 -0.10086943027032752E-005 -0.68604529661682121E-006  0.90470180529468623E-006  0.28723171357982431E-006  0.13619929564016659E-005  0.89752622030270577E-006  0.79329967442959274E-006  0.99292702047894422E-006  0.35180873556538834E-006  0.21198721724409814E-006  0.14416347265122131E-006  0.00000000000000000E+000  </sparseX_slice>
      </sparseX>
      <sparseX i="5" alpha="4977.5246057823560" sparseCutoff="1.0000000000000000" sliced="T">
        <sparseX_slice start="1" end="50">  0.57469460312766907E+000  0.17865171956014933E-003  0.42054191890294741E-003  0.24532159571081786E-003  0.59343498331148330E-004  0.53315621467366731E-004  0.12982138219720244E-004  0.32822432801672174E-005  0.14449979723204999E-005  0.21550080810232078E+000  0.11816290165229764E-002  0.45084416872265172E-002  0.29276344359755310E-002  0.75644448586106091E-003  0.87408816623342283E-003  0.23967774258808072E-003  0.66296943251459989E-004  0.30469844785527274E-004  0.40404588837278883E-001  0.48276407063211754E-002  0.24343379887271772E-001  0.17543136954020610E-001  0.51248181964099844E-002  0.73099466667307933E-002  0.22858478312351017E-002  0.69701844732107340E-003  0.33180518038499786E-003  0.51277357578286253E+000 -0.21567135789306644E-003  0.80226712401559735E-002  0.52042140744552367E-002  0.11543053762376257E-002  0.20457192853992829E-002  0.61821511562927273E-003  0.17947117550906142E-003  0.69243098977324371E-004  0.13596352747530002E+000  
0.46307152993090121E-002  0.61778144578381586E-001  0.44246200583312509E-001  0.13127049318648198E-001  0.25565380255838911E-001  0.91607127568707550E-002  0.30586445206530607E-002  0.12364838079793404E-002  0.22876214478973569E+000  0.17789574355541751E-001  0.84481155540678546E-001  0.59236969443245954E-001  0.25320021726991181E-001  </sparseX_slice>
        <sparseX_slice start="51" end="100">  0.51971078728297843E-001  0.23282383313759487E-001  0.95154235875197970E-002  0.36485472014504521E-002  0.39247774308407385E+000 -0.32256571302924169E-002  0.24094527173746149E-002  0.13699646498127080E-002 -0.18592602099372338E-003  0.11150824115256730E-002  0.43973710865550814E-003  0.14774019708930396E-003  0.30673411586837647E-004  0.10406670882715688E+000 -0.90322277364499881E-002  0.19193897569918600E-001  0.11722464284804562E-001  0.20242057556352448E-002  0.15912095590580877E-001  0.75038617725544637E-002  0.30031796722712074E-002  0.81808640006607119E-003  0.24762161624896736E+000  0.29378090420686658E-001  0.52218424946189779E-001  0.30663036909703713E-001  0.26859796544687425E-001  0.60565089865341266E-001  0.34951477939626711E-001  0.17570429436176302E-001  0.60662266877856523E-002  0.13401794446827994E+000  0.49235997731040877E-001  0.33964978749020582E-001  0.18193723110413722E-001  0.32478164379885877E-001  0.48823944230789680E-001  
0.31777450455064443E-001  0.18766778024632055E-001  0.68543271938312465E-002  0.14958999318583976E-001  0.29197803575899893E-003 -0.61194382490361795E-003 -0.37697798696505565E-003 -0.34442748115943994E-003 -0.34193543574318218E-003 -0.34363690858615002E-004  0.11779264445054090E-004 -0.13833024404911875E-004  0.39664257499035906E-002  </sparseX_slice>
        <sparseX_slice start="101" end="150">  0.54195754406274291E-003 -0.47801304270508336E-002 -0.33933567694550853E-002 -0.33759947280631968E-002 -0.38573100636746746E-002 -0.49102688589881067E-003  0.26347045611317530E-003 -0.18848290243155311E-003  0.94379150257737857E-002 -0.50291070261626811E-002 -0.65915476587570070E-002 -0.56736309552577625E-002 -0.52359948198823928E-002 -0.68475076016695476E-002 -0.10226670065404877E-002  0.17979009235140439E-002 -0.13884570965965766E-003  0.72237957720027307E-002 -0.84349308205236631E-002  0.22984351745023186E-002  0.91267834940175015E-004  0.17678453632092718E-002  0.91339879298529564E-003  0.71142212192533362E-003  0.32454598441364799E-002  0.81895797376571242E-003  0.19468745608150825E-003  0.25661057960728166E-002  0.17113948208547548E-002  0.13920450762972727E-002  0.23086026014544022E-002  0.30887936010222492E-002  0.14910340425811782E-002  0.73917837912986959E-003  0.63271822408240866E-003 -0.97612340880908421E-003 -0.56821230796995146E-004  
0.16402044423110366E-003  0.10450797049081450E-003  0.79950458423257652E-004  0.86592530832516548E-004  0.12156042253933442E-004 -0.74972074824558299E-006  0.40296093403959158E-005 -0.25882219400692643E-003 -0.36628905497319218E-004  0.12908703158549062E-002  0.93384424169181877E-003  0.80231463255143911E-003  0.98867122046445159E-003  </sparseX_slice>
        <sparseX_slice start="151" end="200">  0.16680040191270317E-003 -0.30273243374520731E-004  0.53802757470694144E-004 -0.61585468324500527E-003  0.13041376705223864E-002  0.19348230142308207E-002  0.15282819065393261E-002  0.13083153888109535E-002  0.18806612442648664E-002  0.35524965258471297E-003 -0.31257827448012856E-003  0.32097076181492282E-004 -0.47137619324227870E-003  0.19813858984623059E-002 -0.27724594774001913E-003 -0.51927068956048187E-004 -0.29787309713356545E-003  0.68894069383759244E-004 -0.82551994101106286E-004 -0.63292015937401142E-003 -0.21616326763398554E-003 -0.17966155476993432E-004 -0.81169642748408371E-003 -0.57397489980435938E-003 -0.47805072643120826E-003 -0.76565502680012209E-003 -0.10102179064061698E-002 -0.45752486193271645E-003 -0.21735661655440409E-003 -0.19621331658371675E-003  0.82897673306790812E-006  0.12976177492097300E-003  0.97753313022759159E-004  0.83425239212652963E-004  0.12818836779234424E-003  0.16642269878182741E-003  0.71663393313141707E-004  
0.32889626592249288E-004  0.31359460380473431E-004  0.23571623925254466E-003  0.15375415257036955E-004 -0.44912785788597811E-004 -0.28691281703690082E-004 -0.21748993282854508E-004 -0.23631990414532191E-004 -0.33547176502418839E-005  0.17997713031725698E-006 -0.11077285028795819E-005  0.62500902709462235E-004  0.91570612672664564E-005  </sparseX_slice>
        <sparseX_slice start="201" end="250"> -0.35357166477838464E-003 -0.25627118213449328E-003 -0.21847391215909143E-003 -0.26995214563117385E-003 -0.45989162109691715E-004  0.78674495616553476E-005 -0.14791568609493536E-004  0.14871782456041109E-003 -0.35629110698684127E-003 -0.53152996656573369E-003 -0.41921554938258762E-003 -0.35709145961270561E-003 -0.51490150699496826E-003 -0.98111703185347769E-004  0.83844136074554110E-004 -0.89137506236797721E-005  0.11382886891301101E-003 -0.53975384512630164E-003  0.72357642228913522E-004  0.14024013229016886E-004  0.79446156350914310E-004 -0.22155826769079794E-004  0.21249916595362933E-004  0.17084281726967296E-003  0.58863314510992508E-004  0.43385032718662002E-005  0.22041545528276161E-003  0.15625904959848909E-003  0.13021681810646265E-003  0.20824537523403722E-003  0.27466132781668861E-003  0.12400276125900872E-003  0.58799234797449438E-004  0.53230774000410419E-004 -0.28310146371905040E-006 -0.49854374437834167E-004 -0.37660459715687740E-004 
-0.32160878836374615E-004 -0.49326873595579199E-004 -0.64009819035612338E-004 -0.27492658080487422E-004 -0.12598690554182227E-004 -0.12046081876614898E-004  0.48340583977103822E-007  0.95771878221642461E-005  0.72547603422940186E-005  0.61993246704982841E-005  0.94906644540910718E-005  0.12309961614543288E-004  0.52737962642393319E-005  </sparseX_slice>
        <sparseX_slice start="251" end="300">  0.24131718942088973E-005  0.23137474076744293E-005 -0.69606194971849061E-004 -0.45685559709438860E-005  0.13353137963068725E-004  0.85314129399642900E-005  0.64640891627570882E-005  0.70248939672447875E-005  0.99779276735335623E-006 -0.53128887010553216E-007  0.32940673095692608E-006 -0.18456301668933199E-004 -0.27094479569642519E-005  0.10512281685955636E-003  0.76201212114492160E-004  0.64936663402735811E-004  0.80248545259167239E-004  0.13677906128742348E-004 -0.23327467684272069E-005  0.43986120804241927E-005 -0.43915862245920614E-004  0.10591756072228452E-003  0.15805649306640336E-003  0.12464936360234691E-003  0.10615033384235795E-003  0.15308558435855665E-003  0.29182477634667416E-004 -0.24901657866651045E-004  0.26520909590767779E-005 -0.33613273604349509E-004  0.16043366081976130E-003 -0.21459409307887509E-004 -0.41663961345431169E-005 -0.23588402666399693E-004  0.66367303764220464E-005 -0.62973780862044360E-005 -0.50756652839579122E-004 
-0.17495801608743066E-004 -0.12811450988066098E-005 -0.65504463109230545E-004 -0.46444073884424381E-004 -0.38704756886338910E-004 -0.61892697866916798E-004 -0.81630712711226370E-004 -0.36848319552645660E-004 -0.17470934435682003E-004 -0.15818691028389709E-004  0.83598888828917808E-007  0.14816375272317749E-004  0.11194000487119573E-004  </sparseX_slice>
        <sparseX_slice start="301" end="325">  0.95596406475919283E-005  0.14660766348104955E-004  0.19024341551626791E-004  0.81700151048447327E-005  0.37436744837880381E-005  0.35799785012809789E-005 -0.20187627407159346E-007 -0.40252431633513366E-005 -0.30495689019783698E-005 -0.26059966610596533E-005 -0.39891935534460218E-005 -0.51741026469949374E-005 -0.22163857829416198E-005 -0.10140918081867363E-005 -0.97244873737168703E-006  0.42153017899341031E-008  0.84589462092872567E-006  0.64094958260259168E-006  0.54773863350346698E-006  0.83838523882635742E-006  0.10873851604911230E-005  0.46573343012165593E-006  0.21307689704368482E-006  0.20435607467943531E-006  0.00000000000000000E+000  </sparseX_slice>
      </sparseX>
      <sparseX i="6" alpha="1296.6995477837274" sparseCutoff="1.0000000000000000" sliced="T">
        <sparseX_slice start="1" end="50">  0.41711131948072544E+000  0.16249605160866750E-005  0.79532415787857825E-005  0.78667684361104134E-005  0.22317388529031477E-005  0.36053540056525133E-005  0.14267204533186203E-005  0.64233443467535869E-006  0.19317882172395530E-006  0.97596058063532332E-001  0.41195438859211430E-004  0.17838562431769409E-003  0.18768041118105548E-003  0.59341354837694539E-004  0.99389439078360957E-004  0.45590180100800500E-004  0.22811422214230733E-004  0.71839600735741516E-005  0.11417803958663030E-001  0.53716413068407871E-003  0.20320375983790880E-002  0.22496124107392545E-002  0.79554333701446181E-003  0.13779895104821566E-002  0.73589665303586062E-003  0.40780204104136830E-003  0.13532391486071138E-003  0.43392542867632600E+000  0.21308234854643668E-003  0.75326947318867822E-003  0.84312541682164720E-003  0.30385669361455503E-003  0.51266935001850300E-003  0.28036982772590587E-003  0.15513927063414681E-003  0.50250780869664687E-004  0.71792719434309912E-001  
0.40598949264466257E-002  0.12466839798790421E-001  0.14411671235832365E-001  0.58330755344820863E-002  0.10148028166852145E-001  0.64837825715307806E-002  0.39519040898948511E-002  0.13576391977202242E-002  0.22570866439964130E+000  0.15901402861325256E-001  0.39964706651355819E-001  0.46821375782294061E-001  0.21776015525142571E-001  </sparseX_slice>
        <sparseX_slice start="51" end="100">  0.37935487818315808E-001  0.29025427632268126E-001  0.19307574992655605E-001  0.69122298591691817E-002  0.51376766831489340E+000  0.27625172506049600E-003  0.85286741206469442E-003  0.99435824773431059E-003  0.38859565152904544E-003  0.65162517205016553E-003  0.39069317219772142E-003  0.22528757300852427E-003  0.73011152764142559E-004  0.85002573318338215E-001  0.53558323998604326E-002  0.14407173450518881E-001  0.17098738530815505E-001  0.75150859753329319E-002  0.12976684286791915E-001  0.90946776541371583E-002  0.57594402821266452E-002  0.19868518348775789E-002  0.37793307227367490E+000  0.30211836754287368E-001  0.67400492870838880E-001  0.79351244534458326E-001  0.40095538876997447E-001  0.69252183495338571E-001  0.58037362788907178E-001  0.39949355746979442E-001  0.14412954659097952E-001  0.31641099711023268E+000  0.28958834539435430E-001  0.58044094723279482E-001  0.67708606041644970E-001  0.37134333525063817E-001  0.63576434409124888E-001  
0.58249499372349120E-001  0.41405180607433048E-001  0.15082087497849336E-001 -0.48176419733235408E-001 -0.17346046761901795E-004 -0.10116799316433837E-003 -0.10559827929896594E-003 -0.29367581066879856E-004 -0.59319412566749663E-004 -0.20168295903640631E-004 -0.84543530113557147E-005 -0.37822966026015369E-005 -0.79707616947188639E-002  </sparseX_slice>
        <sparseX_slice start="101" end="150"> -0.30344259724560363E-003 -0.15850759336392783E-002 -0.17704419999387427E-002 -0.54383015142268508E-003 -0.11396709387141051E-002 -0.43725964443259855E-003 -0.20345124922025622E-003 -0.92255889814326270E-004 -0.35439097171385672E-001 -0.15153234949491644E-002 -0.65475927047326278E-002 -0.78645116068179095E-002 -0.27192275796787116E-002 -0.57371673283335770E-002 -0.25428291586673713E-002 -0.13158270817993174E-002 -0.58976633512686368E-003 -0.41959887846326427E-001 -0.19221740318125517E-002 -0.72845906873778687E-002 -0.91971780782114133E-002 -0.34265013442369430E-002 -0.71755888976973428E-002 -0.34382136820563986E-002 -0.18630198396169227E-002 -0.81458891752366380E-003  0.27821918393419734E-002  0.99769962249475684E-004  0.65018434912522238E-003  0.71720444455633601E-003  0.19972953346511458E-003  0.50712538179571026E-003  0.16663374665265836E-003  0.70715665263512616E-004  0.52555274393849602E-004  0.13406189599237459E-001  0.48017069788805050E-005  
0.28169792224083180E-004  0.29370536949818615E-004  0.81490270026445418E-005  0.16416520410633993E-004  0.55408970018356558E-005  0.23022030545940424E-005  0.10258459053086704E-005  0.22180465697002115E-002  0.83878121989958010E-004  0.44111957611059843E-003  0.49234103628661801E-003  0.15084211890259493E-003  0.31533127200992079E-003  </sparseX_slice>
        <sparseX_slice start="151" end="200">  0.12001451975924842E-003  0.55341278650146140E-004  0.24980321833918247E-004  0.98617385545907953E-002  0.41814901641462989E-003  0.18203791756658753E-002  0.21864336048051389E-002  0.75375571405289531E-003  0.15868064090215437E-002  0.69698768911513067E-003  0.35744144947980787E-003  0.15934846345893764E-003  0.11676297556883937E-001  0.52990998198094714E-003  0.20236795327979165E-002  0.25564282872646608E-002  0.94944264141513432E-003  0.19841717666522129E-002  0.94171062624439652E-003  0.50573895220647701E-003  0.21981425003240776E-003 -0.10948960916042233E-002 -0.39058845378288617E-004 -0.25612499191311847E-003 -0.28213051555085283E-003 -0.78417652622491955E-004 -0.19855605811428570E-003 -0.64925587909909048E-004 -0.27360857156399633E-004 -0.20270775717936314E-004  0.21544119180755977E-003  0.76462035581878034E-005  0.50448194589272520E-004  0.55492076832807474E-004  0.15394525390918707E-004  0.38871045750854827E-004  0.12649389642482257E-004  
0.52937550077563691E-005  0.39096988187509275E-005 -0.36733929337826789E-002 -0.13153620237156462E-005 -0.77189554259542263E-005 -0.80475302386233580E-005 -0.22325726040355010E-005 -0.44970039412048178E-005 -0.15172722059039738E-005 -0.63013316351523228E-006 -0.28072549723865992E-006 -0.60776080597883743E-003 -0.22975633674527116E-004  </sparseX_slice>
        <sparseX_slice start="201" end="250"> -0.12087032255989961E-003 -0.13490041427997174E-003 -0.41325075222412007E-004 -0.86378253631314022E-004 -0.32862187824994806E-004 -0.15146558858268289E-004 -0.68353538482971189E-005 -0.27021877061403458E-002 -0.11452831182888125E-003 -0.49877445447053565E-003 -0.59907009286915979E-003 -0.20649430842309489E-003 -0.43466368027109516E-003 -0.19083522539689105E-003 -0.97822841626371635E-004 -0.43597655749656266E-004 -0.31993899997237898E-002 -0.14513200712681240E-003 -0.55445604800064289E-003 -0.70043968582909053E-003 -0.26009854789737146E-003 -0.54350493389266176E-003 -0.25783077991975846E-003 -0.13840339381892012E-003 -0.60137167711422986E-004  0.30000944984054199E-003  0.10699649218122475E-004  0.70183452597251210E-004  0.77304117427234796E-004  0.21484463606972324E-004  0.54391827106643383E-004  0.17781171532213006E-004  0.74906745465187508E-005  0.55487181601590793E-005 -0.83484484492536601E-004 -0.29621893435593820E-005 -0.19549866773971959E-004 
-0.21502983836667653E-004 -0.59647537261004032E-005 -0.15058856271883585E-004 -0.48992609565300411E-005 -0.20496163194756715E-005 -0.15135021918634050E-005  0.16175317014608209E-004  0.57378589659917247E-006  0.37880177031286325E-005  0.41661652447605133E-005  0.11555500504008476E-005  0.29169418333823515E-005  0.94877155228964181E-006  </sparseX_slice>
        <sparseX_slice start="251" end="300">  0.39678151545267852E-006  0.29294961606658195E-006  0.10921820618736029E-002  0.39108143975323915E-006  0.22950219449563430E-005  0.23927079410042503E-005  0.66378901442222291E-006  0.13370411891431218E-005  0.45110422897713207E-006  0.18734226392186247E-006  0.83460451258794958E-007  0.18070091116454448E-003  0.68310557076014934E-005  0.35937461819457145E-004  0.40108847133339601E-004  0.12286768394926182E-004  0.25681813814333214E-004  0.97703204619037798E-005  0.45031475726429127E-005  0.20321604185172563E-005  0.80342097718982114E-003  0.34051111641964448E-004  0.14829648175418257E-003  0.17811653290906074E-003  0.61394774909991455E-004  0.12923323595211538E-003  0.56737393554236924E-004  0.29083118350202020E-004  0.12961572111152733E-004  0.95125036434309232E-003  0.43149978051443663E-004  0.16485150011444572E-003  0.20825580833207845E-003  0.77332282749601209E-004  0.16159357612246478E-003  0.76655756706873177E-004  0.41147804392100784E-004  
0.17878705545709059E-004 -0.89199534439947644E-004 -0.31812036455153231E-005 -0.20867164592014102E-004 -0.22984221255031541E-004 -0.63877739550334795E-005 -0.16171696898566881E-004 -0.52866053489996131E-005 -0.22270481306786393E-005 -0.16496727902574218E-005  0.24821808625199405E-004  0.88071387846213412E-006  0.58126280775522216E-005  </sparseX_slice>
        <sparseX_slice start="301" end="325">  0.63933120968060316E-005  0.17734443646449521E-005  0.44772768205560344E-005  0.14566230227983260E-005  0.60937042604667238E-006  0.44997493735691635E-006 -0.68013551302228157E-005 -0.24126087388739552E-006 -0.15927797737737549E-005 -0.17517763828672891E-005 -0.48587976358504062E-006 -0.12264920173859400E-005 -0.39892683698181807E-006 -0.16683041838047396E-006 -0.12317234457151885E-006  0.14299080372159450E-005  0.50721714881367703E-007  0.33486477715656365E-006  0.36829078006466741E-006  0.10215011656881437E-006  0.25785270237687667E-006  0.83867723980886965E-007  0.35072687907689415E-007  0.25894259023522601E-007  0.00000000000000000E+000  </sparseX_slice>
      </sparseX>
      <sparseX i="7" alpha="-11299.334686328693" sparseCutoff="1.0000000000000000" sliced="T">
        <sparseX_slice start="1" end="50">  0.72481180652111710E+000  0.59770891154369829E-005  0.16103353780326308E-004  0.14892279419441605E-004  0.39250639002397237E-005  0.42034604684789038E-005  0.17677265833612837E-005  0.43682964480035239E-006  0.27023714798289909E-006  0.84818406112852893E-001  0.10828513462172513E-003  0.32297911189316161E-003  0.33832821733502036E-003  0.92752450292862699E-004  0.10439013079418833E-003  0.49320314370580073E-004  0.12963771976364865E-004  0.86933776352263085E-005  0.49627792695973692E-002  0.99092172762980653E-003  0.32603424802560969E-002  0.38558183234450763E-002  0.11037278974156948E-002  0.13034095560700543E-002  0.69828592337325469E-003  0.19912146695021284E-003  0.14502913265144167E-003  0.36643756040452213E+000  0.27788372941302638E-003  0.10574923300019651E-002  0.14359667964761313E-002  0.39321613983131363E-003  0.44440618574394491E-003  0.24948708186454363E-003  0.68865534357958515E-004  0.50447556487631881E-004  0.30321440750558284E-001  
0.37608948130514277E-002  0.15422896262055159E-001  0.23313581266175575E-001  0.67365861632270214E-002  0.79551003237818118E-002  0.51451152278107429E-002  0.15947976226507931E-002  0.12633092530788387E-002  0.92628517131712620E-001  0.86438317546588695E-002  0.39020652567895601E-001  0.71624030509143455E-001  0.21508487652008516E-001  </sparseX_slice>
        <sparseX_slice start="51" end="100">  0.25097956838861527E-001  0.20033957676309604E-001  0.70871861564982905E-002  0.59988405626999561E-002  0.46848341602066373E+000  0.12880105375024623E-003  0.82843640879019906E-003  0.16681048168288989E-002  0.45383118876606547E-003  0.48522668935308450E-003  0.31361164344752946E-003  0.85385478226844406E-004  0.65374774248018062E-004  0.38765382363664495E-001  0.20802036541432670E-002  0.12659363760196848E-001  0.27266632139192185E-001  0.79377386846847184E-002  0.88220835232532286E-002  0.66816437707926911E-002  0.21321562935199163E-002  0.17587925770274604E-002  0.16747652770778895E+000  0.11041606953619014E-001  0.51638493952106790E-001  0.12023237823226071E+000  0.37748172343123713E-001  0.40887052742285074E-001  0.38920661373579482E-001  0.14867503127326953E-001  0.12922987737834526E-001  0.15140254967686972E+000  0.12102722903669831E-001  0.41683278452416074E-001  0.10236592014666918E+000  0.35088959603640134E-001  0.34899281121919971E-001  
0.39821616075404992E-001  0.17046011104583970E-001  0.15113992460432636E-001  0.33682469687074522E-001 -0.13667361163123787E-003 -0.40507694791389921E-003 -0.12544456298958399E-003 -0.36556892866974306E-004 -0.90584734609687099E-004 -0.29273043032283411E-004 -0.13855925570598660E-004 -0.93546912081675565E-005  0.27871078713155358E-002  </sparseX_slice>
        <sparseX_slice start="101" end="150"> -0.16001127165885284E-002 -0.54213477509037098E-002 -0.19328888324958114E-002 -0.49270720630980279E-003 -0.15231741181273104E-002 -0.38674617770070402E-003 -0.14870427218742919E-003 -0.86948837536249875E-004  0.12041030429058529E-001 -0.19362405920156629E-002 -0.13939741537494662E-001 -0.73754451531453510E-002 -0.55600951043148765E-003 -0.56106040602372405E-002  0.32801831561583420E-004  0.70735159557344305E-003  0.76930602299156144E-003  0.15394227222741011E-001  0.37359480282846283E-002 -0.37437308650491554E-002 -0.73684388039867181E-002  0.19175392639023672E-002 -0.43667569146001659E-002  0.29793319792306978E-002  0.34177570700763484E-002  0.32764336081214035E-002  0.78262298848717792E-003  0.32169833876306837E-002  0.83468299318797384E-002  0.12069930069742070E-002  0.18460246687355469E-002  0.22285194943515428E-002  0.21580684999243081E-002  0.20050263498178340E-002  0.19255999085119086E-002 -0.42532366405434122E-002  0.37170403578700832E-004  
0.10019153734994722E-003  0.35170099402184824E-004  0.11181080699089801E-004  0.25615998310983059E-004  0.79781028964957254E-005  0.33567883141189302E-005  0.27368732073755180E-005 -0.35194062162179253E-003  0.44148636556988144E-003  0.13515790796818407E-002  0.53798436084987280E-003  0.15910906778430654E-003  0.42923172718016187E-003  </sparseX_slice>
        <sparseX_slice start="151" end="200">  0.11409017865698916E-003  0.37397313180877500E-004  0.34920084620031405E-004 -0.15204749617995727E-002  0.61458083155912775E-003  0.36106558874236657E-002  0.20158184693988704E-002  0.31703201190724502E-003  0.15764725721696406E-002  0.12552021118432513E-003 -0.14829509098758289E-003 -0.73018149212229321E-004 -0.19438981726966041E-002 -0.82897069976087018E-003  0.12982328895152805E-002  0.19971320582355765E-002 -0.22487193192194960E-003  0.12806274827429839E-002 -0.50468868678135693E-003 -0.75790493306964173E-003 -0.57953854636663086E-003 -0.13976010470715351E-003 -0.11727746155166636E-002 -0.27578612585828764E-002 -0.43931627222254608E-003 -0.61464270616959555E-003 -0.77783325477205211E-003 -0.69922095715358476E-003 -0.63204666245207013E-003 -0.59057181376924602E-003  0.12479116480792289E-004  0.21511532733006284E-003  0.45839450448141643E-003  0.84684758598711088E-004  0.10415591648264860E-003  0.14246697167503007E-003  0.11515034998119457E-003  
0.10171927286479733E-003  0.92677379290748976E-004  0.11184033373688308E-002 -0.10171868919556214E-004 -0.27331265775931892E-004 -0.96527161628905805E-005 -0.30784841683956656E-005 -0.70151622446390542E-005 -0.21858481815257361E-005 -0.91657498214650687E-006 -0.74951312150111214E-006  0.92544008020956038E-004 -0.12087683543016697E-003  </sparseX_slice>
        <sparseX_slice start="201" end="250"> -0.36880702462809727E-003 -0.14766587792485790E-003 -0.43902552774167945E-004 -0.11755186604896483E-003 -0.31361188912067054E-004 -0.10252715293749873E-004 -0.96325481239337419E-005  0.39981416868569141E-003 -0.16912231099419948E-003 -0.98660478373986497E-003 -0.55344394352909679E-003 -0.88946497621918781E-004 -0.43188703671075688E-003 -0.35979307771536137E-004  0.39827820233223901E-004  0.18884470628173013E-004  0.51115477166849711E-003  0.22479079045035921E-003 -0.35790418074900429E-003 -0.54878932237373550E-003  0.57852242336416424E-004 -0.35158673870545881E-003  0.13467303067789786E-003  0.20526369748153535E-003  0.15595085040548526E-003  0.36750404631971550E-004  0.32016860188324411E-003  0.75070708674041149E-003  0.11995522876739653E-003  0.16719216853812465E-003  0.21194472457808800E-003  0.19006828457674606E-003  0.17163004503059989E-003  0.16024846401585023E-003 -0.46406385573169598E-005 -0.83069581421238764E-004 -0.17650120273047143E-003 
-0.32754714632174243E-004 -0.40094300816401803E-004 -0.54979620869870906E-004 -0.44288243183656386E-004 -0.39088887488488233E-004 -0.35589044072928942E-004  0.86286261742985022E-006  0.16039325311723652E-004  0.33980483909891755E-004  0.63348436235336302E-005  0.77172828955144388E-005  0.10609116750499215E-004  0.85170507320371404E-005  </sparseX_slice>
        <sparseX_slice start="251" end="300">  0.75107532419496064E-005  0.68334284182751324E-005 -0.33182105082456222E-003  0.30241233704320506E-005  0.81243665392352146E-005  0.28702144905944332E-005  0.91552598825317793E-006  0.20857049957245759E-005  0.64989919541315277E-006  0.27247044854878543E-006  0.22284017190538151E-006 -0.27457044308607373E-004  0.35937931322748913E-004  0.10963153084402720E-003  0.43908332402408211E-004  0.13057829656702392E-004  0.34949853648079179E-004  0.93258978307197246E-005  0.30484585392449316E-005  0.28649204845026569E-005 -0.11862156804713078E-003  0.50294663030295648E-004  0.29329848421662485E-003  0.16456849358986362E-003  0.26477135302640024E-004  0.12840847295224588E-003  0.10721390854908886E-004 -0.11829478644319808E-004 -0.55980011163962368E-005 -0.15165540713429998E-003 -0.66799802010357169E-004  0.10644551047910274E-003  0.16319186095479677E-003 -0.17144017965923309E-004  0.10454497432257357E-003 -0.39986820333888431E-004 -0.60993129511032280E-004 
-0.46325054847945915E-004 -0.10903542108429077E-004 -0.95175376773178313E-004 -0.22312751422086965E-003 -0.35659041759816659E-004 -0.49691561565903122E-004 -0.62998014897318021E-004 -0.56488658501215529E-004 -0.51006072496854175E-004 -0.47621848872133071E-004  0.13768392056202112E-005  0.24694060734949945E-004  0.52460823093628996E-004  </sparseX_slice>
        <sparseX_slice start="301" end="325">  0.97377811261494773E-005  0.11916921537846713E-004  0.16343234638925930E-004  0.13162875819386265E-004  0.11617067828630884E-004  0.10576552616775504E-004 -0.36204464804694119E-006 -0.67429782073300124E-005 -0.14283418850245330E-004 -0.26634115018339195E-005 -0.32438556438331146E-005 -0.44599655683829801E-005 -0.35798674554143059E-005 -0.31567647418240156E-005 -0.28719835631349785E-005  0.75954343444534385E-007  0.14173836846751317E-005  0.30019592858612955E-005  0.55990030903569194E-006  0.68175550909336542E-006  0.93746235693145106E-006  0.75234092034499162E-006  0.66339313151995090E-006  0.60352502088048508E-006  0.00000000000000000E+000  </sparseX_slice>
      </sparseX>
      <sparseX i="8" alpha="5069.8685266783805" sparseCutoff="1.0000000000000000" sliced="T">
        <sparseX_slice start="1" end="50">  0.85083896173665585E+000  0.71362180174349895E-005  0.35012484991157901E-005  0.41583798557157210E-005  0.38325353622173176E-005  0.17526301605999590E-005  0.53040229850861788E-006  0.22977751827667360E-006  0.10489875357612650E-006  0.62481615140781599E-001  0.16675043832721086E-003  0.82708499542960106E-004  0.10579818475640744E-003  0.10541309423985971E-003  0.51953642843735460E-004  0.16950854024031698E-004  0.82268129046813185E-005  0.43934134167960243E-005  0.22941781031232704E-002  0.19551372537903143E-002  0.98732938269233974E-003  0.13531123367589843E-002  0.14530012828954963E-002  0.77306560620461155E-003  0.27380012234664696E-003  0.14911638531758177E-003  0.92878954701106325E-004  0.29078721122339829E+000  0.77298911559765717E-003  0.37845424304036552E-003  0.52412959750944895E-003  0.56441315131786226E-003  0.29811121282330774E-003  0.10404434567103881E-003  0.56379263464322933E-004  0.34490586122349884E-004  0.15099590975045872E-001  
0.12888075183444703E-001  0.65021072248597411E-002  0.95597994324402302E-002  0.11039615078168401E-001  0.63079643945158585E-002  0.24105186002498589E-002  0.14653247945540849E-002  0.10397169342158889E-002  0.49690485517077575E-001  0.42838135349146780E-001  0.22015292516406323E-001  0.34207094892215947E-001  0.42147691040271731E-001  </sparseX_slice>
        <sparseX_slice start="51" end="100">  0.25933483736878950E-001  0.10803481737821920E-001  0.73082088961566255E-002  0.58607731268486007E-002  0.35451757709983367E+000  0.93815313665989981E-003  0.45329197207381790E-003  0.65845123767422644E-003  0.73889542537291662E-003  0.40297715563199595E-003  0.14454908673119585E-003  0.82002293280033361E-004  0.52848443714410435E-004  0.18408892141956210E-001  0.15700112131360071E-001  0.78841041183981830E-002  0.12074399246580627E-001  0.14481501822922259E-001  0.85534573755738398E-002  0.33746827337109530E-002  0.21461042798138221E-002  0.15991608318303115E-002  0.85674328290176377E-001  0.74217364201462604E-001  0.38468165691298767E-001  0.61597509339007275E-001  0.78419619071436242E-001  0.49944248507901225E-001  0.21593840893353110E-001  0.15248629211318579E-001  0.12789144611528889E-001  0.73858108364128192E-001  0.64530414513259693E-001  0.34020688685696437E-001  0.55738621210933106E-001  0.73079300894624707E-001  0.48206618472259634E-001  
0.21687244010856220E-001  0.15964627758732388E-001  0.13974183929632279E-001 -0.29836010148965818E-001 -0.82464996413956731E-004 -0.44407665110858008E-004 -0.53785081019153084E-004 -0.50801351368845427E-004 -0.24450171937640108E-004 -0.80660514689384154E-005 -0.31959244064011942E-005 -0.79526079099233456E-006 -0.15492825412827191E-002  </sparseX_slice>
        <sparseX_slice start="101" end="150"> -0.13547032562435102E-002 -0.72757732538445146E-003 -0.95522454087008295E-003 -0.98078788426444975E-003 -0.50414349001176530E-003 -0.17226295442486335E-003 -0.73395176703379072E-004 -0.19429786326355381E-004 -0.72103057605284833E-002 -0.62232020708791443E-002 -0.32205390337350652E-002 -0.46357840690022054E-002 -0.51938790982511045E-002 -0.28250939050332982E-002 -0.97586546135243664E-003 -0.44494256737589733E-003 -0.12408529307348894E-003 -0.87905520934610064E-002 -0.75062289891284469E-002 -0.37648317859548894E-002 -0.57456568657537378E-002 -0.67546147862115845E-002 -0.37670681497962433E-002 -0.12937344412560935E-002 -0.60440153819064533E-003 -0.16999914826478125E-003  0.52312337683280304E-003  0.48092439714510487E-003  0.29127290646794858E-003  0.35842072592697535E-003  0.34458811002758069E-003  0.18207234954059832E-003  0.78396760234422276E-004  0.37553164566906588E-004  0.12717946141011734E-004  0.82905431312071901E-002  0.22911318379808260E-004  
0.12333969832962311E-004  0.14910831770003479E-004  0.14048450895194903E-004  0.67388454942620269E-005  0.22125413186358784E-005  0.86742304041985145E-006  0.20629480237261882E-006  0.43049971047740384E-003  0.37634953505521714E-003  0.20203737319845691E-003  0.26478355736588407E-003  0.27120616635364708E-003  0.13892893251520416E-003  </sparseX_slice>
        <sparseX_slice start="151" end="200">  0.47223271482365612E-004  0.19884012533550879E-004  0.49743055735179180E-005  0.20035303178406066E-002  0.17286560571428864E-002  0.89396013613528128E-003  0.12847544996932936E-002  0.14360609921132848E-002  0.77835156180353342E-003  0.26726937277584518E-003  0.12023124288149663E-003  0.31216477351433027E-004  0.24426339485103124E-002  0.20848763313073607E-002  0.10447500229185010E-002  0.15921261995143102E-002  0.18674771688182081E-002  0.10377438954994164E-002  0.35412144888954825E-003  0.16306058003333685E-003  0.42287720174837114E-004 -0.20557076992952381E-003 -0.18898410290017404E-003 -0.11445029837055315E-003 -0.14056341515838205E-003 -0.13478996319942372E-003 -0.71008598377931049E-004 -0.30481680417733707E-004 -0.14519849473896972E-004 -0.48849590752345609E-005  0.40391371635188687E-004  0.37131666011083557E-004  0.22485648964820524E-004  0.27562756936884474E-004  0.26362440046584138E-004  0.13846818156842896E-004  0.59259485993846623E-005  
0.28072488839266006E-005  0.93874313457864112E-006 -0.22715059293808518E-002 -0.62773709048358112E-005 -0.33792756611639882E-005 -0.40849105367162474E-005 -0.38481753438687465E-005 -0.18456070483805259E-005 -0.60581606725074180E-006 -0.23738206526163103E-006 -0.56322636633298070E-007 -0.11795157801727434E-003 -0.10311395908675430E-003  </sparseX_slice>
        <sparseX_slice start="201" end="250"> -0.55353860706440036E-004 -0.72538573804220517E-004 -0.74289008051477108E-004 -0.38048997175046311E-004 -0.12929810279719739E-004 -0.54410218201899396E-005 -0.13571277649189717E-005 -0.54894244256908703E-003 -0.47362224414186112E-003 -0.24492118565019898E-003 -0.35196039108733413E-003 -0.39336502624814787E-003 -0.21316778663074305E-003 -0.73175383454670336E-004 -0.32895509951608558E-004 -0.85085968445925175E-005 -0.66925138794136202E-003 -0.57121817863775809E-003 -0.28622960977983214E-003 -0.43616240080532743E-003 -0.51153677531836988E-003 -0.28420595572105801E-003 -0.96951696465927669E-004 -0.44610088257834040E-004 -0.11519070274954327E-004  0.56323839754791396E-004  0.51779229885289414E-004  0.31357784256270160E-004  0.38508719788766498E-004  0.36922267248771456E-004  0.19448091520240829E-004  0.83471460619565393E-005  0.39750174217812850E-005  0.13368809708554794E-005 -0.15650726101475266E-004 -0.14387647228038762E-004 -0.87126234342587418E-005 
-0.10678850114595347E-004 -0.10212485385348098E-004 -0.53632882660146371E-005 -0.22949455908760233E-005 -0.10868622641127647E-005 -0.36333511663478607E-006  0.30321479264893866E-005  0.27874374596265730E-005  0.16879612396688942E-005  0.20686943757124041E-005  0.19780956925140611E-005  0.10386812710337818E-005  0.44438248354483136E-006  </sparseX_slice>
        <sparseX_slice start="251" end="300">  0.21039634512638479E-006  0.70313494012045054E-007  0.67536715439521142E-003  0.18663955390128915E-005  0.10047295161197148E-005  0.12145238306814575E-005  0.11441305115494923E-005  0.54872688101144387E-006  0.18011606174449096E-006  0.70574475400600616E-007  0.16742886003904163E-007  0.35069519551579858E-004  0.30657961622247144E-004  0.16457854750306160E-004  0.21567130528664631E-004  0.22087430802305071E-004  0.11312537863778499E-004  0.38441747900595750E-005  0.16176261083795536E-005  0.40341527962585980E-006  0.16321229479057252E-003  0.14081787087439406E-003  0.72820096918939451E-004  0.10464462430438489E-003  0.11695432252242631E-003  0.63377946597267096E-004  0.21755794279573046E-004  0.97798315974640107E-005  0.25291131758733631E-005  0.19898270992944455E-003  0.16983516268838719E-003  0.85101879090968325E-004  0.12967946421406465E-003  0.15208883318067374E-003  0.84498620810183605E-004  0.28824693829011664E-004  0.13262519441004332E-004  
0.34238427528657534E-005 -0.16746278707788265E-004 -0.15395068214861061E-004 -0.93233352697911001E-005 -0.11449404104029409E-004 -0.10977647997528461E-004 -0.57822200447968384E-005 -0.24817167478820503E-005 -0.11818081501885675E-005 -0.39745984336442753E-006  0.46532946335972322E-005  0.42777540706082090E-005  0.25904480198188962E-005  </sparseX_slice>
        <sparseX_slice start="301" end="325">  0.31750333904438087E-005  0.30363539024269335E-005  0.15945890251259401E-005  0.68231766161204157E-006  0.32313391331955632E-006  0.10802110023896459E-006 -0.12749449805748867E-005 -0.11720500628225635E-005 -0.70974673934977420E-006 -0.86983151319887241E-006 -0.83173166618481719E-006 -0.43673191450320526E-006 -0.18684700895275566E-006 -0.88462910371099223E-007 -0.29563437788977106E-007  0.26804178801643772E-006  0.24640935799869482E-006  0.14921564020288514E-006  0.18287062367685355E-006  0.17485947903340341E-006  0.91815829586357348E-007  0.39281256633230425E-007  0.18597486830385266E-007  0.62150009032589833E-008  0.00000000000000000E+000  </sparseX_slice>
      </sparseX>
      <sparseX i="9" alpha="-25311.994848250222" sparseCutoff="1.0000000000000000" sliced="T">
        <sparseX_slice start="1" end="50">  0.70443634446388048E+000  0.91845481417264925E-005  0.12104182062142244E-004  0.96700665638741286E-005  0.45287874519373911E-005  0.36610305915666861E-005  0.11958751002953125E-005  0.38350988686826206E-006  0.18993314037821635E-006  0.78221304755249743E-001  0.18165445358830183E-003  0.23793685695979225E-003  0.20502297912654554E-003  0.10434040122585092E-003  0.97675829912706946E-004  0.32430879027325280E-004  0.10710035192024798E-004  0.67361575624788650E-005  0.43428853193756400E-002  0.18884159666201158E-002  0.23669813433189442E-002  0.22147590776145664E-002  0.12626506004660525E-002  0.13301403970239765E-002  0.45668735474619623E-003  0.16333843393740382E-003  0.13065902696875249E-003  0.37143144091233388E+000  0.72180659675207296E-003  0.78936329655353559E-003  0.73851778602324796E-003  0.42383068554731828E-003  0.49052909569217192E-003  0.15736149903847885E-003  0.51721048700304818E-004  0.45178299828826358E-004  0.29163991728259637E-001  
0.11666356433032064E-001  0.11457947006189163E-001  0.11806615919943404E-001  0.80492623507384797E-002  0.97995056278688524E-002  0.33679116594015927E-002  0.13122481430296298E-002  0.13715064709951231E-002  0.97923195177564010E-001  0.41797053797748063E-001  0.30052716467155398E-001  0.34778859230272616E-001  0.30645599618794941E-001  </sparseX_slice>
        <sparseX_slice start="51" end="100">  0.38353153347687109E-001  0.13987969299065449E-001  0.65607718666152856E-002  0.79128432985069892E-002  0.48523824646472774E+000  0.87110172081895443E-003  0.70209759423804749E-003  0.69224608137183189E-003  0.45341934992537838E-003  0.62350829933986165E-003  0.19424689446408998E-003  0.63579793001569394E-004  0.66637056549528941E-004  0.38099855444043026E-001  0.15020452781411427E-001  0.10609167345220050E-001  0.11675091038123838E-001  0.94882071965425412E-002  0.12817014718531677E-001  0.44089879251854027E-002  0.18344336263440384E-002  0.21505423576227110E-002  0.18091598254991734E+000  0.82720217219700506E-001  0.43434352069472437E-001  0.53946025859447154E-001  0.58166458258336835E-001  0.74140557783475128E-001  0.28177749114502739E-001  0.14748652074599019E-001  0.18442276497035746E-001  0.16712379882341286E+000  0.85131671899874944E-001  0.35025126520213251E-001  0.45883072013683301E-001  0.59557137630671324E-001  0.73918474306587281E-001  
0.30013365958018411E-001  0.17679915232162915E-001  0.22067890298721523E-001  0.88258658684381326E-002  0.49321028412006205E-004 -0.17083024846342300E-003 -0.18861196376889332E-003 -0.80042185923715961E-004 -0.43091979193500458E-004 -0.17299809703524856E-004 -0.56331141469487122E-005 -0.64980595259331764E-008  0.69298785948120729E-003  </sparseX_slice>
        <sparseX_slice start="101" end="150">  0.10370451768173148E-002 -0.23174137801350069E-002 -0.27351661634071466E-002 -0.10464756987469382E-002 -0.61090634521954494E-003 -0.19418242757922338E-003  0.20110662805808355E-004  0.11516313034558209E-003  0.32906313693851267E-002  0.69445559344286723E-002 -0.65807555272833600E-002 -0.87894662179537550E-002 -0.17185548371853720E-002 -0.11083970094486562E-002  0.52244153798425698E-003  0.14886895861653696E-002  0.17622273398925060E-002  0.42988826996450498E-002  0.10902845165027351E-001 -0.36022111689357349E-002 -0.64841830801939844E-002  0.13670251783804497E-002  0.94216307758420012E-003  0.26719229047295458E-002  0.37214934172696049E-002  0.37369661568116110E-002  0.55289529664277043E-004  0.79162521227901946E-003  0.25378137338614966E-002  0.26472284946858654E-002  0.18230350198190515E-002  0.14911843654076837E-002  0.13156745010594599E-002  0.11177797310609828E-002  0.84507414762287781E-003 -0.10173701494321072E-002 -0.82629626677915308E-005  
0.46815841022449516E-004  0.49714764635876587E-004  0.20942155109720194E-004  0.11857727374899034E-004  0.49792430370815657E-005  0.17935453044963408E-005  0.14703723183898840E-006 -0.79881699162939651E-004 -0.20202721476501634E-003  0.63523068659747611E-003  0.72013716237687717E-003  0.27542971447350173E-003  0.17364172081561649E-003  </sparseX_slice>
        <sparseX_slice start="151" end="200">  0.61004546073214120E-004  0.27072207256048283E-005 -0.25014664664170895E-004 -0.37931577228804712E-003 -0.15066543216839044E-002  0.18263575621572721E-002  0.23132700266756635E-002  0.47599720637528473E-003  0.38832449651960490E-003 -0.68690768796345590E-004 -0.33207240238824272E-003 -0.41334197841123605E-003 -0.49553834147526528E-003 -0.24470890376239881E-002  0.10686930461729571E-002  0.17223805699643293E-002 -0.29336701479987850E-003 -0.79665089581079605E-004 -0.58037432539077502E-003 -0.87052492762393959E-003 -0.88681840335918713E-003 -0.90132114819743530E-005 -0.26395728328442196E-003 -0.91715226081613471E-003 -0.95538589977783568E-003 -0.64192307379871136E-003 -0.51782470649915059E-003 -0.45351323247102030E-003 -0.38376625667390024E-003 -0.28720031563597974E-003  0.73465972411122479E-006  0.44774930241998512E-004  0.16663933967409679E-003  0.17304973544618877E-003  0.11345335751248766E-003  0.90358974666956550E-004  0.78615655536073346E-004  
0.66271637542664226E-004  0.49017637588758728E-004  0.26163317777717915E-003  0.21993607010392830E-005 -0.12819433028372387E-004 -0.13590032291044508E-004 -0.57233843694942569E-005 -0.32479593067772599E-005 -0.13662799077577834E-005 -0.49398300880874180E-006 -0.41951886372703074E-007  0.20542870075268748E-004  0.54331068949816545E-004  </sparseX_slice>
        <sparseX_slice start="201" end="250"> -0.17394565880289568E-003 -0.19684801777868926E-003 -0.75296951256177024E-004 -0.47629993489941845E-004 -0.16797758354786735E-004 -0.83727631720360901E-006  0.67724837428128540E-005  0.97547181760859584E-004  0.40778849790501276E-003 -0.50038839888216378E-003 -0.63232804823735317E-003 -0.13045757594754316E-003 -0.10738304983232651E-003  0.17916681885680606E-004  0.90032813573959119E-004  0.11235848829096365E-003  0.12743569394381820E-003  0.66356685186649378E-003 -0.29362563280338683E-003 -0.47101975226427852E-003  0.79298168312692965E-004  0.19636094261248803E-004  0.15710466715685399E-003  0.23660140880015762E-003  0.24120534859986927E-003  0.23178930139861317E-005  0.71762473365011260E-004  0.25034804929434010E-003  0.26077699956613787E-003  0.17501854641458958E-003  0.14108669987368097E-003  0.12351470289848049E-003  0.10449765394569229E-003  0.78166515056087485E-004 -0.26718683437504120E-006 -0.17230431837936242E-004 -0.64343708733457031E-004 
-0.66811545753311149E-004 -0.43753505871173645E-004 -0.34825221659644699E-004 -0.30288181724499996E-004 -0.25527359192964226E-004 -0.18870961147658503E-004  0.48586306095465001E-007  0.33154821274371731E-005  0.12422522195777192E-004  0.12897500431258138E-004  0.84368849247289265E-005  0.67110658367275159E-005  0.58346275992514255E-005  </sparseX_slice>
        <sparseX_slice start="251" end="300">  0.49165444322325873E-005  0.36325364726041747E-005 -0.77530439656156111E-004 -0.65294075425165026E-006  0.38113772648350620E-005  0.40401355516769898E-005  0.17014656608995254E-005  0.96567413586611470E-006  0.40625480859805926E-006  0.14691048472675251E-006  0.12498319010126169E-007 -0.60875220882395327E-005 -0.16138342810727481E-004  0.51716250677296965E-004  0.58520161819361122E-004  0.22384870621063450E-004  0.14162239461781219E-004  0.49955899282372361E-005  0.25038175410813048E-006 -0.20123775456711679E-005 -0.28906409933908939E-004 -0.12116841607996321E-003  0.14877598941103368E-003  0.18798229722269253E-003  0.38788469230933150E-004  0.31942209669792636E-004 -0.53133568648549578E-005 -0.26754317346495946E-004 -0.33393102847556484E-004 -0.37763350440845224E-004 -0.19718822991781707E-003  0.87313518993613191E-004  0.14003078667361441E-003 -0.23560665664673127E-004 -0.58050954262770584E-005 -0.46681701979543635E-004 -0.70317776282118771E-004 
-0.71688735423414450E-004 -0.68686726193161149E-006 -0.21328073496430668E-004 -0.74419612018259036E-004 -0.77519664242115875E-004 -0.52023760323905703E-004 -0.41936146090914607E-004 -0.36712345458046565E-004 -0.31059571229202789E-004 -0.23232677889599950E-004  0.79176169151894049E-007  0.51211793081351154E-005  0.19127355432293256E-004  </sparseX_slice>
        <sparseX_slice start="301" end="325">  0.19860855280619459E-004  0.13005725344483275E-004  0.10351461157656946E-004  0.90027010278397847E-005  0.75875419917464852E-005  0.56088932847945359E-005 -0.20361431629379548E-007 -0.13935947319222886E-005 -0.52224450532254700E-005 -0.54220953638340949E-005 -0.35466557436531835E-005 -0.28210742739673207E-005 -0.24526075459357607E-005 -0.20666669057605642E-005 -0.15268921358051458E-005  0.42665097567130648E-008  0.29288447775212815E-006  0.10977614989139191E-005  0.11397215645405632E-005  0.74546277208107646E-006  0.59293564482085464E-006  0.51548139795946497E-006  0.43436119709058121E-006  0.32090519562725582E-006  0.00000000000000000E+000  </sparseX_slice>
      </sparseX>
      <sparseX i="10" alpha="-7948.6191563341299" sparseCutoff="1.0000000000000000" sliced="T">
        <sparseX_slice start="1" end="50">  0.78676229010390220E+000  0.28318760809624438E-003  0.15179806439863088E-003  0.75661827094581632E-004  0.50753304791596740E-004  0.30636265471080465E-004  0.12798582454679972E-004  0.36567366601927318E-005  0.84065530171249776E-006  0.18378251043549926E+000  0.35990033881611039E-002  0.19309745149341548E-002  0.10346556621039444E-002  0.81314698518884874E-003  0.55651140586325423E-003  0.25767473629319888E-003  0.81507340387417760E-004  0.20450554234995913E-004  0.21465194485562996E-001  0.23116052194565747E-001  0.12602545345431874E-001  0.72643178186052515E-002  0.65996359583226300E-002  0.50899582090546654E-002  0.26134723081021206E-002  0.91795764829474911E-003  0.25304628549486624E-003  0.42629118805358562E+000  0.77211742797520496E-002  0.35901262850887928E-002  0.20177773039566599E-002  0.19035551005490159E-002  0.13923138622382509E-002  0.69899363027515972E-003  0.25796779946869671E-003  0.73844438875418693E-004  0.70412862702444873E-001  
0.71492678273094232E-001  0.34767667899566673E-001  0.20905631381789067E-001  0.22251567781318652E-001  0.18299110499823138E-001  0.10255542282704897E-001  0.42321619924611965E-002  0.13516085228808148E-002  0.11548861663675980E+000  0.11457190699664911E+000  0.52564708132352603E-001  0.32707427075690305E-001  0.38937918082061991E-001  </sparseX_slice>
        <sparseX_slice start="51" end="100">  0.34390587959974010E-001  0.21542444121593174E-001  0.10584699356300140E-001  0.40284999616506632E-002  0.28178523743620520E+000  0.40260945616432805E-002  0.88658591520172361E-003  0.68516155773637075E-003  0.11259036643980569E-002  0.85019991900838908E-003  0.47461647383520818E-003  0.23084491614744416E-003  0.78183207274836692E-004  0.46544019185020657E-001  0.39229282226046110E-001  0.11105880830747383E-001  0.81527151312916525E-002  0.13504239234463155E-001  0.11563527841793937E-001  0.73147663202819870E-002  0.39513042262703342E-002  0.15014420234129163E-002  0.10796079119908905E+000  0.97234333687495650E-001  0.34094492323898044E-001  0.23557920349259919E-001  0.36132264015353667E-001  0.34045366898869660E-001  0.24884505431485845E-001  0.15588450739616837E-001  0.70553213720432693E-002  0.50461823752694292E-001  0.49744361485072254E-001  0.22106323245092076E-001  0.14615105775489022E-001  0.19950444373645588E-001  0.20684946561048915E-001  
0.17762439071831650E-001  0.13041396095330057E-001  0.68420606133959075E-002 -0.12642703149067283E-001 -0.71803914667481570E-003 -0.71113360912477175E-003 -0.26605680118844304E-003 -0.17148601127847933E-003 -0.24047699807312880E-003 -0.14123009712378140E-003 -0.25437625880315118E-004 -0.13273337311921753E-005 -0.20882648902213314E-002  </sparseX_slice>
        <sparseX_slice start="101" end="150"> -0.62206939685147478E-002 -0.66515229297345949E-002 -0.30595132916213259E-002 -0.22578117118475247E-002 -0.30870027635407989E-002 -0.19112070977042480E-002 -0.34201404965696677E-003  0.87460435796843056E-005 -0.48438173954287768E-002 -0.11870396778575121E-001 -0.12186918724150843E-001 -0.61034939279180668E-002 -0.51524408113239432E-002 -0.68036912309886958E-002 -0.40434626964191978E-002 -0.33851162984866042E-003  0.45084234278770248E-003 -0.32018401344410287E-002 -0.36493312516166715E-002 -0.16958691600466238E-002 -0.42960664681827084E-003 -0.11965785097725647E-002 -0.18778712024515717E-002 -0.61684207228844545E-003  0.10424969496253497E-002  0.12636197223075440E-002  0.10157956534389000E-003  0.15430174142194613E-002  0.28282643310940255E-002  0.26121700017423754E-002  0.22814821693110106E-002  0.22450081351336427E-002  0.16124806290738324E-002  0.78988701429382878E-003  0.52448846842044386E-003  0.50050794014027313E-002  0.20958433215392366E-003  
0.18835681638404065E-003  0.73262593370076900E-004  0.51497069852909635E-004  0.66625116261543883E-004  0.38777403225313543E-004  0.80093437257741354E-005  0.91749598803665742E-006  0.82671652284190618E-003  0.18413355068130756E-002  0.17758303331789063E-002  0.83938432271147894E-003  0.66641971577047817E-003  0.85872983294757075E-003  </sparseX_slice>
        <sparseX_slice start="151" end="200">  0.53037894297026380E-003  0.11337736860872462E-003  0.88779534776085060E-005  0.19176034099800386E-002  0.36480337362972898E-002  0.33297297180302234E-002  0.17131316545855749E-002  0.15511059541539246E-002  0.19465721800655663E-002  0.11829499966158207E-002  0.19215739333450986E-003 -0.61670328245838304E-004  0.12675662723804144E-002  0.13659857730033414E-002  0.61500886880673262E-003  0.23680209318712494E-003  0.49039907130384714E-003  0.66660547719631807E-003  0.31991117779683165E-003 -0.13481911737449624E-003 -0.24503855838941136E-003 -0.56871198254675905E-004 -0.58299392862023796E-003 -0.10328555089313240E-002 -0.93921725444205597E-003 -0.82103216190351259E-003 -0.81296472779197708E-003 -0.57769016508373136E-003 -0.27118022376809486E-003 -0.17360500966340803E-003  0.15920196055048362E-004  0.11182369330928583E-003  0.18933677145396429E-003  0.16943405695167853E-003  0.14862959166721794E-003  0.14807653928780736E-003  0.10424881856428505E-003  
0.47126020851751006E-004  0.28982275006287428E-004 -0.13894379626470655E-002 -0.57552060677689992E-004 -0.51503740933512662E-004 -0.20068241011884937E-004 -0.14157658421198087E-004 -0.18254488617165800E-004 -0.10620310475683684E-004 -0.22058732003494973E-005 -0.25788114304005676E-006 -0.22950111857610012E-003 -0.50592430147225183E-003  </sparseX_slice>
        <sparseX_slice start="201" end="250"> -0.48575247098092851E-003 -0.22988562473442398E-003 -0.18308326264330395E-003 -0.23532264408502817E-003 -0.14532686329970986E-003 -0.31284775818849641E-004 -0.25659114572498648E-005 -0.53233740395427186E-003 -0.10038428976169573E-002 -0.91174192344028928E-003 -0.46964593189157832E-003 -0.42646840551613895E-003 -0.53407072486148647E-003 -0.32485676465165303E-003 -0.53814245465518297E-004  0.16150865849085436E-004 -0.35188346832675232E-003 -0.37853229634097547E-003 -0.17024163449924851E-003 -0.66292477457569990E-004 -0.13626881399656551E-003 -0.18438836481936394E-003 -0.89422449095488145E-004  0.35113816205440319E-004  0.65897922203194095E-004  0.15787761891275540E-004  0.15947402232086572E-003  0.28208346998137638E-003  0.25631831675652250E-003  0.22407492602888419E-003  0.22194344843846130E-003  0.15763479831551282E-003  0.73844802496133381E-004  0.47188086386889202E-004 -0.62501666696258599E-005 -0.43288605885055698E-004 -0.73142237914275519E-004 
-0.65403525138735797E-004 -0.57382455392782349E-004 -0.57186600178710358E-004 -0.40243478282151603E-004 -0.18159389937261337E-004 -0.11145780230973314E-004  0.12268876357748890E-005  0.83790885160410534E-005  0.14127824433522134E-004  0.12623362246819339E-004  0.11077173644865230E-004  0.11042771051410205E-004  0.77677829966458009E-005  </sparseX_slice>
        <sparseX_slice start="251" end="300">  0.34988446825677170E-005  0.21432276069010343E-005  0.41338349014396255E-003  0.17113404634901364E-004  0.15311598225546512E-004  0.59666458604651919E-005  0.42101025354872702E-005  0.54274510585214236E-005  0.31575820613799791E-005  0.65602580065720295E-006  0.76771766733327502E-007  0.68280827168553694E-004  0.15044362425947611E-003  0.14441247709132387E-003  0.68348483922564662E-004  0.54442023743666502E-004  0.69967087925787097E-004  0.43208934426583972E-004  0.93049699838738372E-005  0.76491663963060595E-006  0.15838022272081188E-003  0.29852942413418655E-003  0.27107189769471284E-003  0.13963986798372002E-003  0.12682063884754432E-003  0.15880176234358602E-003  0.96598103581445056E-004  0.16017737592769966E-004 -0.47907286939081391E-005  0.10469183955773688E-003  0.11261030861014062E-003  0.50642738251162941E-004  0.19731513524085408E-004  0.40544445184001307E-004  0.54849011467484524E-004  0.26613967637173239E-004 -0.10412516427478426E-004 
-0.19574138228974310E-004 -0.46971511414181194E-005 -0.47411126505938046E-004 -0.83855758179925786E-004 -0.76193570229926056E-004 -0.66609004348826690E-004 -0.65976466246394716E-004 -0.46858452056286106E-004 -0.21948762839222299E-004 -0.14024324964224595E-004  0.18595401747546041E-005  0.12870017678712093E-004  0.21743406669319474E-004  </sparseX_slice>
        <sparseX_slice start="301" end="325">  0.19442115006241490E-004  0.17057886800845206E-004  0.16999934348847056E-004  0.11962973003118874E-004  0.53976515327037530E-005  0.33126073130105553E-005 -0.51621872595013950E-006 -0.35230434750935864E-005 -0.59394991360099949E-005 -0.53067981560294075E-005 -0.46568298224891802E-005 -0.46424402856567421E-005 -0.32655479284755350E-005 -0.14707671173847452E-005 -0.90083090222594571E-006  0.10860072481424844E-006  0.74064358530021090E-006  0.12485167460886581E-005  0.11154756830692894E-005  0.97886272572807273E-006  0.97585345426396594E-006  0.68641230954711359E-006  0.30912433645809232E-006  0.18931642161378185E-006  0.00000000000000000E+000  </sparseX_slice>
      </sparseX>
      <sparseX i="11" alpha="5531.0697693239399" sparseCutoff="1.0000000000000000" sliced="T">
        <sparseX_slice start="1" end="50">  0.58271448390370739E+000  0.10869498741679041E-004  0.15122147051256905E-004  0.11934502539417489E-004  0.18909835253263202E-004  0.46678571809717263E-005  0.14128914723595274E-005  0.13473294441923272E-005  0.33749814844406624E-006  0.12107673799102728E+000  0.22672365258289120E-003  0.28535148825262614E-003  0.25311197568928261E-003  0.43742674028588282E-003  0.11700260108216561E-003  0.38369415831380815E-004  0.39720619275076097E-004  0.11059990474091220E-004  0.12578695817152831E-001  0.23993420905620397E-002  0.27124941770558012E-002  0.27025717058662513E-002  0.50709977937340748E-002  0.14797683068764821E-002  0.53002255068886517E-003  0.58973949279952605E-003  0.18386123645941038E-003  0.44897141111571665E+000  0.91816927946137834E-003  0.87157665669795675E-003  0.92709474765553313E-003  0.17725039523291827E-002  0.51713584827548821E-003  0.18613872092173499E-003  0.21071026816996447E-003  0.66678705268613625E-004  0.65964243862436114E-001  
0.14038124812205748E-001  0.11950176492835085E-001  0.14204098767442556E-001  0.29198478867673978E-001  0.94104305372421666E-002  0.37496636396809279E-002  0.44796638535081141E-002  0.16001720452629882E-002  0.17296234568330018E+000  0.42335159052222737E-001  0.27678243751555871E-001  0.38481714956744482E-001  0.84892415360171974E-001  </sparseX_slice>
        <sparseX_slice start="51" end="100">  0.30884880499957801E-001  0.13964708911019577E-001  0.17373329491917472E-001  0.71618822221057111E-002  0.47732920550715158E+000  0.10706397872238911E-002  0.71654132163542371E-003  0.91212519766838964E-003  0.18876263470032758E-002  0.58776643191527534E-003  0.23278714054130110E-003  0.27106600678745811E-003  0.92450191086956870E-004  0.70130657175900571E-001  0.16609036464265033E-001  0.10100837677699183E-001  0.14153123748382887E-001  0.31217805159013370E-001  0.10831854787349300E-001  0.47818409299046870E-002  0.58191980808456360E-002  0.22485464955152384E-002  0.26005540483812867E+000  0.72264708677588663E-001  0.35349587084533202E-001  0.55664741862106189E-001  0.12941293047396793E+000  0.51432476149504081E-001  0.25979976479024620E-001  0.32432470036743322E-001  0.14492399338865918E-001  0.19550155069402675E+000  0.62460782110175542E-001  0.24437032738547044E-001  0.41185525597529526E-001  0.99383742501518421E-001  0.43605078894418850E-001  
0.24642688612158098E-001  0.30661764985212114E-001  0.14869189556930482E-001 -0.38119679399804478E-001 -0.18454269939040731E-004 -0.17089582778492449E-003 -0.18527922260449143E-003 -0.34546579748481483E-003 -0.91279694083229101E-004 -0.14419597686441633E-004 -0.23734884331478980E-004 -0.39195505861549738E-005 -0.56006591191137024E-002  </sparseX_slice>
