<GAP_2025_2_18_-480_23_50_39_849>
<Potential label="GAP_2025_2_18_-480_23_50_39_849" init_args="IP GAP label=GAP_2025_2_18_-480_23_50_39_849"/>
<GAP_params label="GAP_2025_2_18_-480_23_50_39_849" gap_version="1686220958">
  <GAP_data do_core="F">
    <e0 Z="1" value="-1.4622360000000001"/>
    <e0 Z="2" value="-1.4622360000000001"/>
    <e0 Z="3" value="-1.4622360000000001"/>
    <e0 Z="4" value="-1.4622360000000001"/>
    <e0 Z="5" value="-1.4622360000000001"/>
    <e0 Z="6" value="-1.4622360000000001"/>
    <e0 Z="7" value="-1.4622360000000001"/>
    <e0 Z="8" value="-1.4622360000000001"/>
    <e0 Z="9" value="-1.4622360000000001"/>
    <e0 Z="10" value="-1.4622360000000001"/>
    <e0 Z="11" value="-1.4622360000000001"/>
    <e0 Z="12" value="-1.4622360000000001"/>
    <e0 Z="13" value="-1.4622360000000001"/>
    <e0 Z="14" value="-1.4622360000000001"/>
    <e0 Z="15" value="-1.4622360000000001"/>
    <e0 Z="16" value="-1.4622360000000001"/>
    <e0 Z="17" value="-1.4622360000000001"/>
    <e0 Z="18" value="-1.4622360000000001"/>
    <e0 Z="19" value="-1.4622360000000001"/>
    <e0 Z="20" value="-1.4622360000000001"/>
    <e0 Z="21" value="-1.4622360000000001"/>
    <e0 Z="22" value="-1.4622360000000001"/>
    <e0 Z="23" value="-1.4622360000000001"/>
    <e0 Z="24" value="-1.4622360000000001"/>
    <e0 Z="25" value="-1.4622360000000001"/>
    <e0 Z="26" value="-1.4622360000000001"/>
    <e0 Z="27" value="-1.4622360000000001"/>
    <e0 Z="28" value="-1.4622360000000001"/>
    <e0 Z="29" value="-1.4622360000000001"/>
    <e0 Z="30" value="-1.4622360000000001"/>
    <e0 Z="31" value="-1.4622360000000001"/>
    <e0 Z="32" value="-1.4622360000000001"/>
    <e0 Z="33" value="-1.4622360000000001"/>
    <e0 Z="34" value="-1.4622360000000001"/>
    <e0 Z="35" value="-1.4622360000000001"/>
    <e0 Z="36" value="-1.4622360000000001"/>
    <e0 Z="37" value="-1.4622360000000001"/>
    <e0 Z="38" value="-1.4622360000000001"/>
    <e0 Z="39" value="-1.4622360000000001"/>
    <e0 Z="40" value="-1.4622360000000001"/>
    <e0 Z="41" value="-1.4622360000000001"/>
    <e0 Z="42" value="-1.4622360000000001"/>
    <e0 Z="43" value="-1.4622360000000001"/>
    <e0 Z="44" value="-1.4622360000000001"/>
    <e0 Z="45" value="-1.4622360000000001"/>
    <e0 Z="46" value="-1.4622360000000001"/>
    <e0 Z="47" value="-1.4622360000000001"/>
    <e0 Z="48" value="-1.4622360000000001"/>
    <e0 Z="49" value="-1.4622360000000001"/>
    <e0 Z="50" value="-1.4622360000000001"/>
    <e0 Z="51" value="-1.4622360000000001"/>
    <e0 Z="52" value="-1.4622360000000001"/>
    <e0 Z="53" value="-1.4622360000000001"/>
    <e0 Z="54" value="-1.4622360000000001"/>
    <e0 Z="55" value="-1.4622360000000001"/>
    <e0 Z="56" value="-1.4622360000000001"/>
    <e0 Z="57" value="-1.4622360000000001"/>
    <e0 Z="58" value="-1.4622360000000001"/>
    <e0 Z="59" value="-1.4622360000000001"/>
    <e0 Z="60" value="-1.4622360000000001"/>
    <e0 Z="61" value="-1.4622360000000001"/>
    <e0 Z="62" value="-1.4622360000000001"/>
    <e0 Z="63" value="-1.4622360000000001"/>
    <e0 Z="64" value="-1.4622360000000001"/>
    <e0 Z="65" value="-1.4622360000000001"/>
    <e0 Z="66" value="-1.4622360000000001"/>
    <e0 Z="67" value="-1.4622360000000001"/>
    <e0 Z="68" value="-1.4622360000000001"/>
    <e0 Z="69" value="-1.4622360000000001"/>
    <e0 Z="70" value="-1.4622360000000001"/>
    <e0 Z="71" value="-1.4622360000000001"/>
    <e0 Z="72" value="-1.4622360000000001"/>
    <e0 Z="73" value="-1.4622360000000001"/>
    <e0 Z="74" value="-1.4622360000000001"/>
    <e0 Z="75" value="-1.4622360000000001"/>
    <e0 Z="76" value="-1.4622360000000001"/>
    <e0 Z="77" value="-1.4622360000000001"/>
    <e0 Z="78" value="-1.4622360000000001"/>
    <e0 Z="79" value="-1.4622360000000001"/>
    <e0 Z="80" value="-1.4622360000000001"/>
    <e0 Z="81" value="-1.4622360000000001"/>
    <e0 Z="82" value="-1.4622360000000001"/>
    <e0 Z="83" value="-1.4622360000000001"/>
    <e0 Z="84" value="-1.4622360000000001"/>
    <e0 Z="85" value="-1.4622360000000001"/>
    <e0 Z="86" value="-1.4622360000000001"/>
    <e0 Z="87" value="-1.4622360000000001"/>
    <e0 Z="88" value="-1.4622360000000001"/>
    <e0 Z="89" value="-1.4622360000000001"/>
    <e0 Z="90" value="-1.4622360000000001"/>
    <e0 Z="91" value="-1.4622360000000001"/>
    <e0 Z="92" value="-1.4622360000000001"/>
    <e0 Z="93" value="-1.4622360000000001"/>
    <e0 Z="94" value="-1.4622360000000001"/>
    <e0 Z="95" value="-1.4622360000000001"/>
    <e0 Z="96" value="-1.4622360000000001"/>
    <e0 Z="97" value="-1.4622360000000001"/>
    <e0 Z="98" value="-1.4622360000000001"/>
    <e0 Z="99" value="-1.4622360000000001"/>
    <e0 Z="100" value="-1.4622360000000001"/>
    <e0 Z="101" value="-1.4622360000000001"/>
    <e0 Z="102" value="-1.4622360000000001"/>
    <e0 Z="103" value="-1.4622360000000001"/>
    <e0 Z="104" value="-1.4622360000000001"/>
    <e0 Z="105" value="-1.4622360000000001"/>
    <e0 Z="106" value="-1.4622360000000001"/>
    <e0 Z="107" value="-1.4622360000000001"/>
    <e0 Z="108" value="-1.4622360000000001"/>
    <e0 Z="109" value="-1.4622360000000001"/>
    <e0 Z="110" value="-1.4622360000000001"/>
    <e0 Z="111" value="-1.4622360000000001"/>
    <e0 Z="112" value="-1.4622360000000001"/>
    <e0 Z="113" value="-1.4622360000000001"/>
    <e0 Z="114" value="-1.4622360000000001"/>
    <e0 Z="115" value="-1.4622360000000001"/>
    <e0 Z="116" value="-1.4622360000000001"/>
    <e0 Z="117" value="-1.4622360000000001"/>
    <e0 Z="118" value="-1.4622360000000001"/>
  </GAP_data>
  <gpSparse label="GAP_2025_2_18_-480_23_50_39_849" n_coordinate="1" fitted="T">
    <gpCoordinates label="GAP_2025_2_18_-480_23_50_39_8491" dimensions="325" signal_variance=".20000000000000001" signal_mean=".00000000000000000E+000" sparsified="T" n_permutations="1" covariance_type="2" zeta="4.0000000000000000" n_sparseX="200">
      <descriptor> soap l_max=8 n_max=8 atom_sigma=0.5 cutoff=4.25 radial_scaling=-0.5 cutoff_transition_width=1.0 central_weight=1.0 n_sparse=200 delta=0.2 covariance_type=dot_product zeta=4 sparse_method=cur_points } n_species=1 Z=46 species_Z={46 }</descriptor>
      <permutation i="1">1  </permutation>
      <sparseX i="1" alpha="176.54931895310992" sparseCutoff="1.0000000000000000" sliced="T">
        <sparseX_slice start="1" end="50">  0.48329347580658749E+000  0.36705105285334143E-004  0.10453023945209371E-004  0.41705574342305572E-005  0.59489781517184069E-005  0.63973851167832172E-005  0.29776253605125737E-005  0.73194595495235130E-006  0.19980325792502344E-006  0.13339325190766557E+000  0.95981629410962787E-003  0.24413589333279807E-003  0.98694357378812322E-004  0.17948313533475382E-003  0.23231907135567214E-003  0.12226329780939331E-003  0.33208164273386267E-004  0.97646576801426426E-005  0.18408855638704015E-001  0.12830995933615686E-001  0.29581280394788720E-002  0.11995694131623736E-002  0.27614085006082401E-002  0.42526202408395665E-002  0.25330768858536109E-002  0.76546060618420259E-003  0.24220521050983350E-003  0.46492132848510143E+000  0.28513346457484596E-002  0.42182562578384046E-003  0.18871605917078344E-003  0.40170475631644764E-003  0.68771805260321684E-003  0.44347761306675433E-003  0.14634624312054220E-003  0.45154228171387527E-004  0.90737623369855275E-001  
0.55629210774852049E-001  0.79436302236136538E-002  0.37052339964749252E-002  0.92080238565719463E-002  0.18319490922281356E-001  0.13331283353036620E-001  0.50053754837732336E-002  0.16867833983644426E-002  0.22362379434111671E+000  0.12574770642032160E+000  0.16501912457853908E-001  0.11356174090288201E-001  0.18235074753826675E-001  </sparseX_slice>
        <sparseX_slice start="51" end="100">  0.44586902609778656E-001  0.38299756859594983E-001  0.19027145269684791E-001  0.74023387595087958E-002  0.47343275610573593E+000  0.22156280146168141E-002 -0.16588291589272059E-003 -0.32143432854775179E-005  0.53446095127409838E-004  0.42658163691441697E-003  0.42360770822472436E-003  0.18514558385591991E-003  0.59301617210927536E-004  0.92398779067524389E-001  0.45716352818076691E-001 -0.12975950004145925E-002  0.90956018909307758E-003  0.21307256200859409E-002  0.12274972278021001E-001  0.13149543420884837E-001  0.65979714993416273E-002  0.23537966738943626E-002  0.32204150135128523E+000  0.15634244709000730E+000  0.17885443325475089E-001  0.21166334826365478E-001  0.14378073421671980E-001  0.55342441395900263E-001  0.59616582750448593E-001  0.39979296137345091E-001  0.17377373801520855E-001  0.23188661318032430E+000  0.10714616928162883E+000  0.36291213228616601E-001  0.33835219752018086E-001  0.16697131744696059E-001  0.49428318624458012E-001  
0.52356473569409340E-001  0.45638494385328347E-001  0.22482130077341539E-001 -0.31283380288122764E-002 -0.11335980797903758E-003 -0.84062981322398513E-004  0.11272689405338059E-004 -0.11503751956541999E-003 -0.20102532319853550E-003 -0.80878189713884393E-004  0.34485942491639024E-006  0.29448269443735102E-006 -0.61055051777660096E-003  </sparseX_slice>
        <sparseX_slice start="101" end="150"> -0.22931177306665779E-002 -0.15955134986234607E-002 -0.46075460957981206E-004 -0.27524725452187596E-002 -0.51495997351842706E-002 -0.24852239542505401E-002  0.40589432153401735E-004  0.83001681387703870E-004 -0.21279783930033395E-002 -0.76892345247622298E-002 -0.34404587230669722E-003  0.11762843887351932E-002 -0.67831500836662856E-002 -0.13615167823720608E-001 -0.92563412182391155E-002  0.16456376968895872E-002  0.20042495558914085E-002 -0.21669358100126612E-002 -0.63419872179570477E-002  0.85560410248334516E-002  0.56129926472553758E-002 -0.19451203121240961E-004 -0.44845555569039911E-002 -0.75580970700072653E-002  0.50391826350214899E-002  0.51420895818153891E-002  0.10124799229060569E-004  0.16600593599694553E-002  0.30303835947032664E-002  0.40475875082927595E-002  0.47193144681061706E-002  0.49245420535850518E-002  0.37045397922554194E-002  0.21971583635937929E-002  0.13295239797357775E-002  0.46272992467571309E-002  0.58019601137754159E-004  
0.27823533655680306E-004 -0.46842006379123210E-005  0.13852219669747799E-004  0.31815168723092795E-004  0.13363210011128692E-004  0.34780966383853915E-006  0.40463446959789610E-006  0.90309932142706257E-003  0.11251792422790278E-002  0.51251047268177131E-003 -0.50924881872072690E-004  0.33335377116528711E-003  0.79980457670467576E-003  </sparseX_slice>
        <sparseX_slice start="151" end="200">  0.40948671338043516E-003  0.12430654101417991E-004  0.45532667552008001E-005  0.31476115190781648E-002  0.35746085591089076E-002  0.55469211913808923E-003 -0.31739633681097636E-003  0.71560107593878744E-003  0.17974411543423667E-002  0.14445907047535747E-002 -0.10698145801681604E-003 -0.21057461460398310E-003  0.32052356072433683E-002  0.29131785902276144E-002 -0.14719875103397792E-002 -0.89361540946591316E-003 -0.32612952799567375E-003 -0.11229727210883952E-003  0.10493121158832350E-002 -0.49727842806255619E-003 -0.64553175154995256E-003 -0.21179481799952197E-004 -0.59692774851023223E-003 -0.87667058406258266E-003 -0.82391145531901197E-003 -0.97645435399919918E-003 -0.12147150759141911E-002 -0.86593320498715566E-003 -0.41409246709780468E-003 -0.28277473755550388E-003  0.22152066385030279E-004  0.12042972672193341E-003  0.14588550257140894E-003  0.99460109581189757E-004  0.11583403337342753E-003  0.16849776795286231E-003  0.11924439329838199E-003  
0.52707455752157708E-004  0.44739661111799914E-004 -0.89051276707059388E-003 -0.11155080167833969E-004 -0.53504712027390492E-005  0.89526860516219979E-006 -0.27181795636428126E-005 -0.61979177769859248E-005 -0.26045876631225634E-005 -0.69088078130254723E-007 -0.77644030566701881E-007 -0.17379932283981798E-003 -0.21643766260569388E-003  </sparseX_slice>
        <sparseX_slice start="201" end="250"> -0.98610550993654151E-004  0.95989582329275494E-005 -0.65397331852419158E-004 -0.15590275806202103E-003 -0.79808433807170476E-004 -0.24438186483748118E-005 -0.84466994001021379E-006 -0.60575037274322415E-003 -0.68804724141026874E-003 -0.10608557976115160E-003  0.60909946024726481E-004 -0.14111132749763505E-003 -0.35229065815510388E-003 -0.28203696488284273E-003  0.20871501427026376E-004  0.41145226183187292E-004 -0.61683999186346527E-003 -0.56123707090493917E-003  0.28513787578524877E-003  0.17333039465340129E-003  0.61616211640252145E-004  0.16930223710058174E-004 -0.20592004494682277E-003  0.97067029826781965E-004  0.12575299193323252E-003  0.40759410483370963E-005  0.11512412808109119E-003  0.16954186896725562E-003  0.16038161260107799E-003  0.19014302188389418E-003  0.23583644081556578E-003  0.16824512485660455E-003  0.80751258600547212E-004  0.54932648033875715E-004 -0.60289517210381003E-005 -0.32826508701343135E-004 -0.39814078933428934E-004 
-0.27276237658926631E-004 -0.31795305433783479E-004 -0.46139462195773136E-004 -0.32647216759954801E-004 -0.14433999915698297E-004 -0.12191744015802439E-004  0.82042591925355012E-006  0.44739191705408241E-005  0.54330670726212297E-005  0.37404533128868368E-005  0.43640765205351789E-005  0.63175285642220555E-005  0.44694903187920732E-005  </sparseX_slice>
        <sparseX_slice start="251" end="300">  0.19766750623131693E-005  0.16613826406898601E-005  0.17887949727410216E-003  0.22406870778630830E-005  0.10747354083458304E-005 -0.17980232523715062E-006  0.54626615121774633E-006  0.12453599590808375E-005  0.52335185901257611E-006  0.13888997013944604E-007  0.15595474599325068E-007  0.34911498909146450E-004  0.43475712855809714E-004  0.19807924559467125E-004 -0.19271412826025858E-005  0.13142670466385953E-004  0.31326312040804340E-004  0.16036259573485817E-004  0.49116562021268401E-006  0.16951843790269182E-006  0.12167857234248745E-003  0.13820989508808661E-003  0.21306273335173806E-004 -0.12234161148740062E-004  0.28362209731164406E-004  0.70797042013426436E-004  0.56673350148675487E-004 -0.41938078631699875E-005 -0.82679427754712221E-005  0.12390617150394084E-003  0.11273977046261337E-003 -0.57285184984335573E-004 -0.34823802051770893E-004 -0.12371149337829081E-004 -0.33772625832631322E-005  0.41383442653676802E-004 -0.19504649032230193E-004 
-0.25267664489592155E-004 -0.81874433765149877E-006 -0.23126355734727210E-004 -0.34060207443040165E-004 -0.32225120517769772E-004 -0.38205364606559196E-004 -0.47383088618700442E-004 -0.33803581110613454E-004 -0.16225872414932150E-004 -0.11036929990817441E-004  0.12110504114351856E-005  0.65941547708119458E-005  0.79980472204022323E-005  </sparseX_slice>
        <sparseX_slice start="301" end="325">  0.54800401200183161E-005  0.63881053555561821E-005  0.92694922023315967E-005  0.65588510574760662E-005  0.28998166889957746E-005  0.24490438679279980E-005 -0.23306377985061671E-006 -0.12709768265260250E-005 -0.15435037841842677E-005 -0.10627701624222476E-005 -0.12399872701451325E-005 -0.17949248903344374E-005 -0.12698588137017396E-005 -0.56161112727275305E-006 -0.47197272033259297E-006  0.33103979410887980E-007  0.18053322349853830E-006  0.21925037429694973E-006  0.15098176314935849E-006  0.17616195466206888E-006  0.25498543055785609E-006  0.18039433674488887E-006  0.79782229389476724E-007  0.67040025084615661E-007  0.00000000000000000E+000  </sparseX_slice>
      </sparseX>
      <sparseX i="2" alpha="-1423.7786846100398" sparseCutoff="1.0000000000000000" sliced="T">
        <sparseX_slice start="1" end="50">  0.59336670405784220E+000  0.27671909767194160E-002  0.17980158820218983E-002  0.80497472760238521E-003  0.25821307454383522E-003  0.69613901137231661E-004  0.16953261136655955E-004  0.33992968274824986E-005  0.60410170526006665E-006  0.22120806452046340E+000  0.14481685245195731E-001  0.93179618898466699E-002  0.45505255799352280E-002  0.15540106070268214E-002  0.60812401182193875E-003  0.24336357849549242E-003  0.69812118317306705E-004  0.15654368434316848E-004  0.41233361658357767E-001  0.38235475074013564E-001  0.26042463733861331E-001  0.13749367613610588E-001  0.53330067354648370E-002  0.31026581084406682E-002  0.19420034744948949E-002  0.88235436391939951E-003  0.22705799984566635E-003  0.47367886655655550E+000  0.20427628292062107E-001  0.88437321284873405E-002  0.39645069506920013E-002  0.74693177850901978E-003  0.94065009181277571E-003  0.68147348366507992E-003  0.20375955210114085E-003  0.34421729878157473E-004  0.12486674595135991E+000  
0.77779730316405782E-001  0.43204841648204345E-001  0.21861369232891292E-001  0.77205692250862865E-002  0.87995721995250444E-002  0.87124871854012340E-002  0.50250927172637667E-002  0.97653588213952901E-003  0.18906661520430629E+000  0.87337849254714051E-001  0.53404047767006989E-001  0.36321120930425450E-001  0.22714591431179442E-001  </sparseX_slice>
        <sparseX_slice start="51" end="100">  0.19497630203402925E-001  0.24395614849339380E-001  0.20328277872697174E-001  0.42149357836098050E-002  0.41450190634784778E+000  0.69768955798400183E-002 -0.54435022823211884E-002 -0.42553452399993232E-002 -0.29392671690222309E-002 -0.33789068255388047E-004  0.55094584926194056E-003  0.16202866227698902E-003  0.81739466909398173E-005  0.10926707499649747E+000  0.28364504815986617E-001 -0.88283292325117332E-002 -0.94037327313532138E-002 -0.68495304025345070E-002  0.33974096697737769E-002  0.83077764792775042E-002  0.59170863929072989E-002  0.77692447671221594E-003  0.23397657019644105E+000  0.64811009993308952E-001  0.29072760055162159E-001  0.42320690298404351E-001  0.41718397382795584E-001  0.27080460186332291E-001  0.41499474280459178E-001  0.42950679036591846E-001  0.93262328353495520E-002  0.14477710763936918E+000  0.47077315748208892E-001  0.46519188953347224E-001  0.78508511787336283E-001  0.75061393994241499E-001  0.31613191903693542E-001  
0.41559607230844585E-001  0.50326588418956618E-001  0.12845761090641641E-001 -0.16561236176692591E-001 -0.95095604632628900E-004 -0.46135492366429520E-004  0.24834530646601990E-003  0.42596171191512818E-003  0.56642314381352444E-004 -0.42882458836122993E-004 -0.71458294899816426E-005 -0.33383972800349628E-006 -0.43657165567648117E-002  </sparseX_slice>
        <sparseX_slice start="101" end="150"> -0.70950250417774023E-003 -0.16843098124534033E-002  0.57942881247999040E-003  0.10529230098387419E-002 -0.16925135073455586E-003 -0.70919321057994909E-003 -0.39366746880639518E-003 -0.40178811598438073E-004 -0.93484280276962661E-002 -0.11751257446613000E-002 -0.59729336185551998E-002 -0.10172409819395863E-002 -0.22809911423277837E-002 -0.23522457582884058E-002 -0.30178908632301628E-002 -0.24134850347692078E-002 -0.12097620952755044E-003 -0.81805237945381266E-002  0.21427194634871574E-003 -0.54272236897688585E-002 -0.31227592964817885E-002 -0.66250968810317376E-002 -0.39108458040400824E-002 -0.36158756263817236E-002 -0.34456059739798443E-002  0.67903096491114446E-004  0.23111723477616520E-003  0.27818418498418374E-003  0.75236597987738925E-003  0.27333970712453909E-003  0.97198536434024132E-003  0.51552818590664534E-003  0.43763080832685412E-003  0.52365574448167156E-003  0.26191214474617408E-003  0.69990793234099300E-002 -0.25921543965594107E-005 
-0.12978193345784112E-003 -0.28920653681687089E-004 -0.44609246135458599E-004 -0.16244237795694515E-004 -0.40858547500220375E-006  0.20584717303138583E-005  0.13608773114727466E-005  0.18450311412939019E-002  0.41901947974842414E-004 -0.46024405602086008E-004  0.79858384316922978E-004 -0.53849663499870218E-004  0.28577860666712284E-004  </sparseX_slice>
        <sparseX_slice start="151" end="200">  0.31754897571458958E-004  0.69075515521890488E-004  0.33628839902619212E-004  0.39508155440182713E-002  0.45793446667779142E-003  0.12405552358524302E-002  0.90154722576653214E-003  0.58336500626848884E-003  0.33647239485144054E-003  0.15864976670399602E-003  0.39570352656139243E-003  0.10378500620573051E-003  0.34572379944435550E-002  0.84227837854569112E-003  0.19781098221892282E-002  0.14533399873460780E-002  0.12189799415795104E-002  0.47468347844265441E-003  0.20399149793792634E-003  0.58412652294223392E-003  0.84921994278901259E-004 -0.13813238025729539E-003 -0.59916298262727784E-005 -0.22348170555692442E-003 -0.52218002821555232E-004 -0.13714458297849419E-003 -0.78677728835950975E-004 -0.81972399019891395E-005 -0.32845129135254784E-004  0.40425388787902644E-005  0.41278951987343943E-004  0.96338133044883848E-005  0.56808161597195737E-004  0.29567625452530679E-004  0.25942579098407207E-004  0.27148990948305182E-004  0.84567931936904575E-005  
0.95011259493586096E-005  0.67454682910335496E-005 -0.13455455690057456E-002  0.42261325501775116E-006  0.24687313706465108E-004  0.57005746916863371E-005  0.88215381993752546E-005  0.31358553471107024E-005  0.42925427436194078E-007 -0.39722016462916323E-006 -0.25863423712053003E-006 -0.35470000583392753E-003 -0.85087094539007211E-005  </sparseX_slice>
        <sparseX_slice start="201" end="250">  0.75198793378159008E-005 -0.14747454237864703E-004  0.11070279261039978E-004 -0.55656398448165989E-005 -0.66143239613936979E-005 -0.13456096795379703E-004 -0.64188643682962862E-005 -0.75952880422890665E-003 -0.88096477453667400E-004 -0.24073192670789930E-003 -0.17241400755679923E-003 -0.11278471001562725E-003 -0.65860110920483149E-004 -0.32620088660785049E-004 -0.77213688684153427E-004 -0.19808817104792401E-004 -0.66464045476133556E-003 -0.16027285209804529E-003 -0.38082459172072682E-003 -0.27909964829884364E-003 -0.23712579380270849E-003 -0.93390164458968103E-004 -0.41728325459301440E-004 -0.11388054424133578E-003 -0.16066418267332003E-004  0.26555408733511605E-004  0.14321517533144341E-005  0.43357533609937478E-004  0.10237321643545088E-004  0.27167797647504839E-004  0.15543815694626014E-004  0.20623740516202263E-005  0.68618780040183541E-005 -0.44639825545241903E-006 -0.11222798238515245E-004 -0.25994621959045419E-005 -0.15468639681182087E-004 
-0.80015561344715518E-005 -0.70886846804589029E-005 -0.73663225924945892E-005 -0.22804923497624458E-005 -0.25801563242744559E-005 -0.18071414462458403E-005  0.15256104411400424E-005  0.35085354145836556E-006  0.21061967752255451E-005  0.10828180983928239E-005  0.96884232726547734E-006  0.99960120814054317E-006  0.30777078467337996E-006  </sparseX_slice>
        <sparseX_slice start="251" end="300">  0.35066745389553964E-006  0.24226636689502960E-006  0.27027482797130142E-003 -0.84509662579691838E-007 -0.49575362749866549E-005 -0.11457586699406428E-005 -0.17731795668347467E-005 -0.62995289506337746E-006 -0.84441183242224050E-008  0.79795640977460112E-007  0.51935995111777715E-007  0.71247295718882505E-004  0.17113823679250330E-005 -0.15038449074474230E-005  0.29592370261869082E-005 -0.22272402137239236E-005  0.11183077759168279E-005  0.13311440921050453E-005  0.27037610999088603E-005  0.12891036835030391E-005  0.15256377905796477E-003  0.17695919791152046E-004  0.48366157863438932E-004  0.34627644465510186E-004  0.22657832359955883E-004  0.13234957381084682E-004  0.65628848035525580E-005  0.15515343579201514E-004  0.39782095391138728E-005  0.13350390258883940E-003  0.32185152931277896E-004  0.76497560169246651E-004  0.56060236408599011E-004  0.47644517695577670E-004  0.18769620631145871E-004  0.83943816297887001E-005  0.22882699781670360E-004  
0.32259075568355055E-005 -0.53340880401849836E-005 -0.28907408185740938E-006 -0.87110422207556647E-005 -0.20573278838743923E-005 -0.54611120540731811E-005 -0.31243228781080362E-005 -0.41669492871255179E-006 -0.13810584376162663E-005  0.88013393285683836E-007  0.22542825253496715E-005  0.52204559778825411E-006  0.31072486091609169E-005  </sparseX_slice>
        <sparseX_slice start="301" end="325">  0.16070573698108491E-005  0.14240559793856585E-005  0.14795722257395618E-005  0.45798067099700338E-006  0.51825179455739831E-006  0.36286007401639571E-006 -0.43337698047313289E-006 -0.99648437119595153E-007 -0.59832713814508291E-006 -0.30755922380659832E-006 -0.27525397079925053E-006 -0.28394218912388438E-006 -0.87412009726834454E-007 -0.99612864453710290E-007 -0.68796132318431110E-007  0.61554248102700848E-007  0.14150938415955297E-007  0.84986214611479305E-007  0.43678935330897629E-007  0.39100668900133622E-007  0.40327672028665683E-007  0.12413237904371897E-007  0.14148345452498155E-007  0.97679886802374159E-008  0.00000000000000000E+000  </sparseX_slice>
      </sparseX>
      <sparseX i="3" alpha="-897.42676734962208" sparseCutoff="1.0000000000000000" sliced="T">
        <sparseX_slice start="1" end="50">  0.65307143719792127E+000  0.18080646985716146E-005  0.12533755107539218E-005  0.63615665237910350E-006  0.35349668443594485E-006  0.26685353507627796E-006  0.19399860567689382E-006  0.10432280468214961E-006  0.45486135168612477E-007  0.42224943884970861E-001  0.77444905066600955E-004  0.53307609741230992E-004  0.28453042896686440E-004  0.16908414369409507E-004  0.13230369978964278E-004  0.10277654804938631E-004  0.61704660279173462E-005  0.28396006640082757E-005  0.13650465971524293E-002  0.16672125362017099E-002  0.11397330953088485E-002  0.63832588731507658E-003  0.40550518537836182E-003  0.33016185055226559E-003  0.27519224098189075E-003  0.18481784647220468E-003  0.90603915257451168E-004  0.28099431174537004E+000  0.40068726016685295E-003  0.22573699680545630E-003  0.13656933467379420E-003  0.92819022757483283E-004  0.69107486848200400E-004  0.59699738545819315E-004  0.48620105799798947E-004  0.23865027370646053E-004  0.12846680459031437E-001  
0.12526012386466013E-001  0.70353423880733928E-002  0.44009398919032652E-002  0.31861291080824295E-002  0.25156842838408447E-002  0.23702347844642125E-002  0.21445283045415445E-002  0.11488673682839799E-002  0.60451122753149185E-001  0.53237911639469893E-001  0.25688207370763327E-001  0.16810486501008581E-001  0.13412616429804222E-001  </sparseX_slice>
        <sparseX_slice start="51" end="100">  0.11018855747872371E-001  0.12245731889584742E-001  0.13984539597255694E-001  0.85761011379561283E-002  0.53764182649080250E+000  0.50959714749419717E-003  0.22427954927720000E-003  0.17583792480770977E-003  0.12565519441729079E-003  0.94714147523977898E-004  0.71121974042514234E-004  0.89498479107437645E-004  0.44791000934967414E-004  0.24580258238808172E-001  0.16651900173809662E-001  0.73559435915061455E-002  0.57269766255363197E-002  0.43478696848958847E-002  0.35262121086440178E-002  0.30075082376340560E-002  0.40563547577159654E-002  0.22686336604036171E-002  0.16357423150527253E+000  0.11883484290071407E+000  0.49116695191791050E-001  0.34029274959179803E-001  0.27119716094132915E-001  0.24141931161134125E-001  0.26671077741499471E-001  0.40202070318941741E-001  0.26700104197116728E-001  0.22130713205940095E+000  0.15823100644267077E+000  0.63833765062300624E-001  0.39381915713667219E-001  0.28794830272837392E-001  0.28629419251184562E-001  
0.33978838745525639E-001  0.61003020915727707E-001  0.44886544342043248E-001  0.17982146810824781E+000 -0.14755542196664756E-003 -0.11726202489451743E-003 -0.20051490348453578E-004 -0.26466878878395791E-004 -0.84079013192247922E-005 -0.45969070008042027E-004  0.11220203554404829E-004  0.55901007807918749E-005  0.82211946786806666E-002  </sparseX_slice>
        <sparseX_slice start="101" end="150"> -0.36474497913176846E-002 -0.33672324540986137E-002 -0.66651701288048004E-003 -0.90576148259576504E-003 -0.29278833612720202E-003 -0.16146083504836068E-002  0.62218783121982871E-003  0.42961982873847770E-003  0.54709579881355636E-001  0.31402912456969566E-002 -0.61397008300764222E-002 -0.18737299996168981E-002 -0.51334765489395758E-002 -0.80183277277038646E-003 -0.63209649041710090E-002  0.91387276977515381E-002  0.85332157653907198E-002  0.10467883947989268E+000  0.54053290369306665E-001  0.22699479731786345E-001  0.69756850602094318E-002 -0.51768530095925780E-002  0.16481316976626169E-002 -0.92224345800527541E-003  0.25646879153030940E-001  0.26676268612661379E-001  0.24756679400454194E-001  0.47641786510595453E-001  0.34210284174912377E-001  0.13379260481172347E-001  0.42110505554418341E-002  0.34330273112542524E-002  0.99968270887712089E-002  0.11603777729361407E-001  0.14113768038805078E-001 -0.20325960233338169E-001  0.16640271104991334E-004  
0.21055212188417147E-004  0.56910698378273312E-005  0.41942459998126130E-005  0.44987852416237163E-005  0.52473082819620994E-005 -0.11134554965701067E-005 -0.15018797056927143E-006 -0.92927545229918023E-003  0.39737907741364527E-003  0.59626966889483998E-003  0.17744495628416504E-003  0.14310254253475157E-003  0.15240089382484963E-003  </sparseX_slice>
        <sparseX_slice start="151" end="200">  0.17513241845753066E-003 -0.71883410709853838E-004 -0.33770981129171658E-004 -0.61840488610718216E-002 -0.80217167946535081E-003  0.11749873777972743E-002  0.42750970381768362E-003  0.68961094282016830E-003  0.57544295097822912E-003  0.41450521920820922E-003 -0.12537289375593021E-002 -0.10039254811329847E-002 -0.11832279821336292E-001 -0.74689190826852563E-002 -0.27711864070522284E-002 -0.79999884872098629E-003  0.66513945396083781E-003  0.31146120216628601E-003 -0.72020371652253552E-003 -0.35150278515616424E-002 -0.32658575371895772E-002 -0.39574635448804442E-002 -0.84834072960343707E-002 -0.61456876653284837E-002 -0.21731151844752087E-002 -0.60321073630154585E-003 -0.68200804083453108E-003 -0.19368837363528549E-002 -0.20793026052560895E-002 -0.24427575434417112E-002  0.31630893335336314E-003  0.75903637156122064E-003  0.60022742291263888E-003  0.22995436849555041E-003  0.84692774266031357E-004  0.10941343217257690E-003  0.20900426907390356E-003  
0.20933457966599702E-003  0.23100050786318950E-003  0.39072932247829094E-002 -0.32061610243121003E-005 -0.40786591924866355E-005 -0.11080442602211426E-005 -0.81155048730258754E-006 -0.87688634402517481E-006 -0.10109800935352294E-005  0.21312858552093874E-006  0.27303999336855891E-007  0.17863616956065165E-003 -0.76556742246053632E-004  </sparseX_slice>
        <sparseX_slice start="201" end="250"> -0.11549756541815211E-003 -0.34532805174271753E-004 -0.27682054598903605E-004 -0.29697947958565883E-004 -0.33718527618291971E-004  0.13806708200154991E-004  0.64445865165954920E-005  0.11887700231234819E-002  0.15482591374133686E-003 -0.22810882590542085E-003 -0.83257444814788348E-004 -0.13300316246070125E-003 -0.11211242372087444E-003 -0.79084665252880605E-004  0.24160520326460978E-003  0.19314675114966219E-003  0.22745388778146803E-002  0.14397774053126419E-002  0.53295989229741733E-003  0.15344630812008878E-003 -0.12806332502048021E-003 -0.61180326389254417E-004  0.14073925784517416E-003  0.67752492302872625E-003  0.62877080339603249E-003  0.76074981544412869E-003  0.16347966937832741E-002  0.11843667476136575E-002  0.41802370171276852E-003  0.11586189691357833E-003  0.13165576047628993E-003  0.37375123302393459E-003  0.40049359315946770E-003  0.47037681389002362E-003 -0.85990680973244016E-004 -0.20686804638358323E-003 -0.16378707223588330E-003 
-0.62795458130820102E-004 -0.23197792138009411E-004 -0.30005957257047726E-004 -0.57093738824925681E-004 -0.57101135436627043E-004 -0.62977178849897759E-004  0.11688568412928149E-004  0.28189966567181308E-004  0.22347094660207205E-004  0.85744536063523118E-005  0.31772514100023435E-005  0.41146399405723579E-005  0.77982449126560639E-005  </sparseX_slice>
        <sparseX_slice start="251" end="300">  0.77880037778378200E-005  0.85847935668423024E-005 -0.78483473585714311E-003  0.64404145821212070E-006  0.81941783129018198E-006  0.22263915311783564E-006  0.16303878943251563E-006  0.17619744121897963E-006  0.20308156627260570E-006 -0.42805095083662753E-007 -0.54762845718728460E-008 -0.35881584228799579E-004  0.15378389743920172E-004  0.23203854486276659E-004  0.69385917531457015E-005  0.55612299697621839E-005  0.59673284538249281E-005  0.67731194373026310E-005 -0.27732093869780943E-005 -0.12942412742206820E-005 -0.23878115959542428E-003 -0.31102088597529075E-004  0.45830507202915904E-004  0.16729033223220194E-004  0.26717835956838002E-004  0.22527078165464203E-004  0.15882222101402555E-004 -0.48532883077955726E-004 -0.38797072223833659E-004 -0.45687308749797512E-003 -0.28922023163186042E-003 -0.10705374147011468E-003 -0.30820056064901968E-004  0.25724376695048618E-004  0.12295672221562694E-004 -0.28281274514499784E-004 -0.13609982224609907E-003 
-0.12630248083247950E-003 -0.15280728783559266E-003 -0.32839278634181555E-003 -0.23791214995852965E-003 -0.83967413316837913E-004 -0.23272014494361020E-004 -0.26447774033891682E-004 -0.75080567632672643E-004 -0.80448837575121225E-004 -0.94485955135141227E-004  0.17272436314671909E-004  0.41555053100722357E-004  0.32902107566748773E-004  </sparseX_slice>
        <sparseX_slice start="301" end="325">  0.12614804690030050E-004  0.46604998039560121E-005  0.60284691654717599E-005  0.11469502323294893E-004  0.11470559281095577E-004  0.12650774296514689E-004 -0.33203092308091206E-005 -0.80082937557137374E-005 -0.63486350295056045E-005 -0.24359832918916391E-005 -0.90272049866393881E-006 -0.11690870222737192E-005 -0.22154812925165339E-005 -0.22124893897312888E-005 -0.24388153707021491E-005  0.47159125902889221E-006  0.11375105528398658E-005  0.90179882035439366E-006  0.34602874218559823E-006  0.12824045627754755E-006  0.16608555320282685E-006  0.31470910760987228E-006  0.31427240508952059E-006  0.34641604504113081E-006  0.00000000000000000E+000  </sparseX_slice>
      </sparseX>
      <sparseX i="4" alpha="-708.17643565763638" sparseCutoff="1.0000000000000000" sliced="T">
        <sparseX_slice start="1" end="50">  0.16683841471187327E+000  0.93743664623485911E-015  0.55547469826227285E-007  0.92419315835217965E-016  0.22513151325750309E-006  0.26470553012479931E-015  0.56345307554803383E-006  0.40252417081756638E-016  0.54143304118770015E-007  0.46750091660704325E-001  0.31074880050478868E-013  0.19187440124597648E-005  0.34580651666024560E-014  0.11470925453538151E-004  0.11212860583369641E-013  0.32910234993941618E-004  0.17617820410442519E-014  0.36373113748565691E-005  0.65499635502371985E-002  0.51516695620261763E-012  0.33139030426351308E-004  0.65680726474627907E-013  0.29351832230775009E-003  0.23776509633592119E-012  0.96234796486712110E-003  0.39143453491635093E-013  0.12240055180856604E-003  0.28027553205963485E+000  0.47407242028864422E-013  0.15057935581605758E-005  0.67488421596116547E-014  0.71752334525870573E-004  0.25480574336922653E-013  0.25625220247201561E-003  0.11151267851100804E-014  0.35708571273702664E-004  0.55533698743567374E-001  
0.11138055533231972E-011  0.36779277441735657E-004  0.20613948596997570E-012  0.26262734383034297E-002  0.77250726421643374E-012  0.10630412912922795E-001  0.57998002453752893E-013  0.17058071083806017E-002  0.23542052352563192E+000  0.12267778875288578E-011  0.20409698656280416E-004  0.63372498751774551E-012  0.12093022659298158E-001  </sparseX_slice>
        <sparseX_slice start="51" end="100">  0.13820611462463476E-011  0.59164225499549958E-001  0.48451450175156363E-012  0.11978160827042330E-001  0.43348581447193724E+000 -0.30218050944101746E-013 -0.67115199563092992E-005 -0.59712962286888798E-014  0.90393585347196928E-004 -0.52178302714344163E-014  0.41673460621006743E-003 -0.43975459817551096E-014  0.71703727157831657E-004  0.85890732072082615E-001 -0.70557838585692727E-012 -0.16393007739099000E-003 -0.92564098886565323E-013  0.33270421246788104E-002 -0.13477080442254586E-012  0.17308989452618544E-001 -0.76038829685686570E-013  0.34278174521507731E-002  0.51493098249321867E+000 -0.10388769506027729E-011 -0.12864918557409133E-003  0.10108853947380946E-011  0.21963400738310754E-001  0.16198490410710291E-012  0.13663878469736304E+000  0.16160129204633622E-011  0.34091055085427070E-001  0.56314953505436871E+000  0.51801706055627517E-012  0.40545951296269049E-003  0.25876970793812949E-011  0.20070484697522973E-001  0.96528785070409023E-012  
0.15796252243808603E+000  0.33907211603742288E-011  0.48529903037315920E-001 -0.18660960514580438E-002  0.13115405078623218E-013 -0.25879263339895182E-005 -0.12418754828768100E-013 -0.56736238610683417E-004 -0.25915891569073752E-013 -0.65403287631831137E-004  0.37445502381998553E-014  0.13486470975498697E-004 -0.36974763792860005E-003  </sparseX_slice>
        <sparseX_slice start="101" end="150">  0.30154804015848749E-012 -0.63210564373167286E-004 -0.31134388008203262E-012 -0.20880610015055188E-002 -0.77273629990855512E-012 -0.27130376623084396E-002  0.13638421943098998E-012  0.64239239772684341E-003 -0.22167061553665058E-002  0.37910624708116113E-012 -0.49606440520212782E-004 -0.25362765391221372E-012 -0.13781356722443763E-001 -0.16644908145757881E-011 -0.21350472195657128E-001  0.66558999681198876E-012  0.63423659914113436E-002 -0.34284500903188062E-002 -0.39340040960856064E-012  0.22110243027925931E-003  0.19799006082575304E-011 -0.17808329838660972E-001  0.76840833036181522E-012 -0.34855380750303866E-001  0.14345371252275149E-011  0.12759131694148095E-001  0.10436189049390071E-004  0.23573495072234686E-012  0.60285038640969699E-004  0.18027844860291578E-011  0.79005835987158417E-002  0.15744500329746660E-011  0.38678777574788557E-002  0.88362471117208150E-012  0.17032936651578843E-002  0.93385635957954835E-002  0.11729718764906362E-015  
0.34114659376256654E-006  0.13917154494593957E-014  0.15232397609754331E-006  0.36667768141575263E-014  0.49718225513715804E-005  0.26032729277412958E-015  0.18785220382192655E-005  0.18503398195894136E-002  0.34575179441454777E-014  0.83325666740209070E-005  0.35484841522185343E-013  0.36279872703770872E-005  0.10922385792666370E-012  </sparseX_slice>
        <sparseX_slice start="151" end="200">  0.20439368366896587E-003  0.61301225260192831E-014  0.89169195037659525E-004  0.11093132847533301E-001  0.15031590485877052E-013  0.65392387666775529E-005  0.41359631344402854E-013 -0.77980220130424379E-005  0.23263322469633291E-012  0.15734249423114074E-002 -0.50384844023590590E-013  0.87409119791123896E-003  0.17157101414172721E-001  0.87139290898517613E-014 -0.29146247314259199E-004 -0.17868400135465688E-012 -0.28730331218336240E-004 -0.11775333260556003E-012  0.25478590382917851E-002 -0.17853982008657535E-012  0.17552962539897868E-002 -0.73858931791009311E-004 -0.23389165013640018E-013 -0.11238637688881231E-004 -0.24903294774638700E-012  0.17845496135529086E-004 -0.32099938114314021E-012 -0.40052367437029443E-003 -0.69619359201965475E-013  0.33203619815457426E-003  0.26135698479071661E-003  0.21001573707086648E-014  0.10475814560874337E-005  0.17532508158946557E-013  0.13983518012782935E-005  0.33476386756085218E-013  0.22340488220792244E-004  
0.63807954029972036E-014  0.32667404247247239E-004 -0.18018585472337355E-002 -0.54783319600932875E-016 -0.66487392250793007E-007 -0.26312501613690023E-015 -0.45119190681422114E-007 -0.69940630735829084E-015 -0.97765989959018067E-006 -0.53555869331068847E-016 -0.35658757890038516E-006 -0.35701964065600067E-003 -0.14162754057370172E-014  </sparseX_slice>
        <sparseX_slice start="201" end="250"> -0.16239664679047807E-005 -0.67165077942070279E-014 -0.12791637126426001E-005 -0.20837439980729444E-013 -0.40199378822806009E-004 -0.13027163209014113E-014 -0.16925599015064552E-004 -0.21403994342263223E-002 -0.39817864879243865E-014 -0.12744577868778777E-005 -0.79825881560995882E-014 -0.23225197729937830E-005 -0.44479527926772989E-013 -0.30959666992882924E-003  0.91674948410472366E-014 -0.16589866477677702E-003 -0.33104309363810396E-002 -0.87681246383330518E-015  0.56804259906135148E-005  0.33255374124023956E-013  0.59526383447696259E-006  0.22066175079370342E-013 -0.50141796342352888E-003  0.33308162227911472E-013 -0.33313929069544047E-003  0.14250944074215219E-004  0.40402730815468915E-014  0.21903419995248326E-005  0.46659074762933562E-013 -0.33873497562058293E-006  0.60861187519514232E-013  0.78820316622579630E-004  0.12446212711527101E-013 -0.63019325319477114E-004 -0.71316450958245741E-004 -0.55728120258612274E-015 -0.28873608268710085E-006 
-0.46518738995817314E-014 -0.37632108695385412E-006 -0.89681104342607731E-014 -0.62080991857202438E-005 -0.16873331473595902E-014 -0.87694740026091700E-005  0.97300559641682209E-005  0.74512813234261304E-016  0.39790951319971331E-007  0.61719644407750980E-015  0.51237458709452818E-007  0.12014317483342649E-014  0.86259630463161706E-006  </sparseX_slice>
        <sparseX_slice start="251" end="300">  0.22343936258486906E-015  0.11770725311962856E-005  0.36196489893857163E-003  0.11166614277379237E-016  0.13359618197353423E-007  0.52830606636166563E-016  0.91431018873122825E-008  0.14045930811991189E-015  0.19648903642516253E-006  0.10775136148404832E-016  0.71603147665498633E-007  0.71719602156079267E-004  0.28827075694812697E-015  0.32631106803940829E-006  0.13485884589274187E-014  0.25988628090048537E-006  0.41847296757582016E-014  0.80792644904017109E-005  0.26229392259908128E-015  0.33986733091778094E-005  0.42997241158986883E-003  0.80531117624705464E-015  0.25608267770670021E-006  0.16035890746727287E-014  0.48586992634609061E-006  0.89332088060530063E-014  0.62223387266076050E-004 -0.18388373703698071E-014  0.33312495076013092E-004  0.66501324489088600E-003  0.17209667878889065E-015 -0.11413941781121821E-005 -0.66743596974343963E-014 -0.94609620337098026E-007 -0.44294712072933184E-014  0.10077645672429212E-003 -0.66853865226473014E-014  
0.66894414088256130E-004 -0.28627893901670478E-005 -0.80925374843436157E-015 -0.44011551430429964E-006 -0.93661011541727842E-014  0.52380554712293644E-007 -0.12220676938702737E-013 -0.15841526008050945E-004 -0.24953207179111259E-014  0.12654298571610357E-004  0.14326347649980343E-004  0.11186978907286289E-015  0.58017072017829388E-007  </sparseX_slice>
        <sparseX_slice start="301" end="325">  0.93382568978800824E-015  0.75570485621146539E-007  0.18007187277386545E-014  0.12476743641357803E-005  0.33868992671647224E-015  0.17609186573451369E-005 -0.27642422412137691E-005 -0.21157804640479812E-016 -0.11307173791974152E-007 -0.17521745405991363E-015 -0.14555456381653856E-007 -0.34116204599848938E-015 -0.24516897723847097E-006 -0.63429768223256096E-016 -0.33425967923029611E-006  0.39265114179452301E-006  0.30038791067587215E-017  0.16065484101373762E-008  0.24871463894137083E-016  0.20674610621984268E-008  0.48438687097362128E-016  0.34841227679309317E-007  0.90032022263660501E-017  0.47460768272725679E-007  0.00000000000000000E+000  </sparseX_slice>
      </sparseX>
      <sparseX i="5" alpha="65.996081025180715" sparseCutoff="1.0000000000000000" sliced="T">
        <sparseX_slice start="1" end="50">  0.17282241488255071E+000  0.62227023101206672E-008  0.22249669316233914E-006  0.36697138469628141E-006  0.83846492081752117E-006  0.40265872519546282E-006  0.14911718733733443E-005  0.53620262360178073E-007  0.30459819298605314E-007  0.69466001158444202E-001 -0.15176735447215207E-006  0.60596041606166783E-005  0.12174753968417804E-004  0.31780094751651299E-004  0.17903368358712630E-004  0.77705966636179224E-004  0.29464620425017237E-005  0.16924689091747663E-005  0.13960935912810774E-001  0.19232367729350749E-005  0.87908951702655200E-004  0.20320087016777757E-003  0.60351368575908186E-003  0.39871561229530621E-003  0.20266129246730076E-002  0.81700237051216649E-004  0.48440576684314922E-004  0.32012290315115999E+000 -0.13071379700214852E-005 -0.42784989623243052E-005  0.19644466456922147E-004  0.80864583605299507E-004  0.71423727542832278E-004  0.46536337301272802E-003  0.19260287259696155E-004  0.10434641025402497E-004  0.90985875603679406E-001  
0.24295653304741980E-004 -0.47966559839393259E-005  0.48293380832548647E-003  0.22095608014652025E-002  0.22622490839314612E-002  0.17208072569641450E-001  0.77153104110571637E-003  0.46657790417319766E-003  0.29648547959352078E+000  0.28596087728280080E-003  0.64835901519711304E-003  0.74958048737932962E-003  0.46731506417355319E-002  </sparseX_slice>
        <sparseX_slice start="51" end="100">  0.67015486184296078E-002  0.73580150293758653E-001  0.38394183140433523E-002  0.29180776778463817E-002  0.40931446794149495E+000 -0.10442900478747948E-005 -0.34658020444685522E-004 -0.15827045170309756E-004  0.19789557626210452E-004  0.70048324252088319E-004  0.68206594453134575E-003  0.30840825601369384E-004  0.16981158519074812E-004  0.11633605373535463E+000  0.20307625856269388E-004 -0.54260550292275567E-003 -0.33896589500552574E-003  0.61229889088297324E-003  0.22358356643687842E-002  0.25260190046404830E-001  0.12489778585182394E-002  0.79124584510551768E-003  0.53611600843363072E+000  0.50065451937300956E-003  0.18810890822917878E-002 -0.12431331088115098E-003  0.35278789063008693E-002  0.99478879431934755E-002  0.15342912794985308E+000  0.90221547192547435E-002  0.76193307926782682E-002  0.48471239619029544E+000  0.49190961377468679E-003  0.43506636534776412E-002  0.88108554591491623E-003  0.33419625955890993E-002  0.79921227775923073E-002  
0.16044196044684156E+000  0.10769313871210200E-001  0.10213141946969479E-001 -0.28948941089872549E-001  0.28298701739994844E-005  0.94361719065476101E-005 -0.10128698894513057E-004 -0.44761674889151861E-004 -0.28517561963972178E-004 -0.89560373492210795E-004 -0.41476088626706809E-006  0.16888090244614995E-005 -0.82279172372045333E-002  </sparseX_slice>
        <sparseX_slice start="101" end="150"> -0.52085745640730861E-004  0.13300789488460821E-003 -0.26449685277498184E-003 -0.12234287958296280E-002 -0.89858952158690722E-003 -0.33034742482845746E-002 -0.12890767168792455E-004  0.67697812628113237E-004 -0.37917034361221576E-001 -0.78005586043419675E-003 -0.68372327830835110E-003 -0.77987568098409623E-003 -0.35621110971040459E-002 -0.35338582774993061E-002 -0.19779867651488744E-001 -0.18889309561885411E-004  0.44691388073848378E-003 -0.48481350733453617E-001 -0.92511541463484892E-003 -0.19332576041780664E-002 -0.17013460962873018E-003 -0.16450190113316155E-002 -0.32555563956920002E-002 -0.28852418437353370E-001  0.16037305638546190E-003  0.90800016102690400E-003  0.24245731978529516E-002  0.10792941095874738E-002  0.49731485404285629E-003  0.70049868771207785E-003  0.15274946806915909E-002  0.12529567229846786E-002  0.29250392390576313E-002  0.24866333148242239E-003  0.33249311501062874E-003  0.10752018709649643E-001 -0.19367838427143135E-006  
0.47151321227229639E-006  0.13912781437899420E-005  0.32103128416086269E-005  0.23373270132327364E-005  0.12406656116305459E-004  0.64031170416871777E-006  0.56316372104995776E-006  0.30559570314238889E-002  0.32022169980166731E-005  0.73417036024694931E-005  0.31968778692287588E-004  0.82630656928434909E-004  0.73939516057240396E-004  </sparseX_slice>
        <sparseX_slice start="151" end="200">  0.45645797326896164E-003  0.25256330554369175E-004  0.22626718954197561E-004  0.14082886886971716E-001  0.64052681958541913E-006 -0.27193313987790878E-004  0.40799691317172148E-004  0.12969442050572716E-003  0.28086133691215403E-003  0.27190661120023167E-002  0.16380020131540095E-003  0.14888875034931170E-003  0.18006613386544246E-001 -0.23883175948896425E-004 -0.87675571366341206E-004 -0.56721619573868814E-004 -0.12395210147515300E-003  0.25740480023240305E-003  0.39743942703095621E-002  0.26637596783243177E-003  0.26250421805226043E-003 -0.12735254455498197E-002 -0.14468948661658045E-004  0.25439549166213197E-004 -0.15597297400651262E-005 -0.78554336839269226E-004 -0.11285179917268458E-003 -0.52005431683433973E-003  0.10281080056737507E-004  0.57165347778033028E-004  0.33446444551541880E-003  0.57498216198751970E-005  0.97274238122765124E-006  0.33189853743986395E-005  0.11776312294709810E-004  0.84483370837929406E-005  0.53063685253667310E-004  
0.59440077510314893E-005  0.85515775324025827E-005 -0.20729244900900799E-002  0.37424805310160820E-007 -0.94418741377272664E-007 -0.27395631591247389E-006 -0.63363094535207483E-006 -0.46339563492181857E-006 -0.24269163104068347E-005 -0.12296044331083126E-006 -0.10693895377412541E-006 -0.58917012164574065E-003 -0.61943454795754376E-006  </sparseX_slice>
        <sparseX_slice start="201" end="250"> -0.15462624481165757E-005 -0.63083099459950081E-005 -0.16356036741033380E-004 -0.14656883289531552E-004 -0.89313950524415759E-004 -0.48580731337181314E-005 -0.42861945690189657E-005 -0.27150958259561453E-002 -0.25027337033380523E-006  0.46759936807690997E-005 -0.82337948272679409E-005 -0.26795777167409895E-004 -0.55713810213054952E-004 -0.53242138049150727E-003 -0.31644802738551138E-004 -0.27980597280158136E-004 -0.34715666778976171E-002  0.44044995138999058E-005  0.16281443315533963E-004  0.10910608536590018E-004  0.22109877185718439E-004 -0.51102046474155870E-004 -0.77853943894697303E-003 -0.51551535639169021E-004 -0.49154146499834701E-004  0.24552804046591215E-003  0.30110364875495549E-005 -0.47069890593852350E-005  0.66833494315910703E-006  0.16127993105831379E-004  0.22413806033932179E-004  0.10185235997516105E-003 -0.19489350661258640E-005 -0.10708837196192513E-004 -0.91192354035935663E-004 -0.15539070906552430E-005 -0.25418393634152151E-006 
-0.91194920517243631E-006 -0.31821617556493876E-005 -0.23591071216867568E-005 -0.14655347101050303E-004 -0.16073954037161867E-005 -0.22714602564755442E-005  0.12431882590390402E-004  0.21000296190086292E-006  0.33624513925150632E-007  0.12538943503730847E-006  0.43046540490331651E-006  0.32940318381843185E-006  0.20240789300549604E-005  </sparseX_slice>
        <sparseX_slice start="251" end="300">  0.21742714660496806E-006  0.30179206832078502E-006  0.41641111687621947E-003 -0.75184234025370415E-008  0.18983670588996563E-007  0.55060537415465565E-007  0.12735780776992273E-006  0.93150393513320250E-007  0.48769397093030142E-006  0.24698019410833727E-007  0.21473856935087033E-007  0.11835307535680650E-003  0.12444422827463805E-006  0.31124645653389487E-006  0.12679276384099248E-005  0.32877381692003404E-005  0.29462713022973182E-005  0.17947944505314718E-004  0.97583837260344057E-006  0.86063745295088700E-006  0.54541112844068396E-003  0.50928898308586305E-007 -0.93652912663335389E-006  0.16558219549471636E-005  0.53916473381212110E-005  0.11199561407602761E-004  0.10699376702094086E-003  0.63571313097771871E-005  0.56172034085290024E-005  0.69737173957108028E-003 -0.88375612538707923E-006 -0.32675214295119736E-005 -0.21915935387004920E-005 -0.44326516181045065E-005  0.10272680443756178E-004  0.15645438524521723E-003  0.10356617004796664E-004  
0.98669716678766371E-005 -0.49321915025663649E-004 -0.60600608286270045E-006  0.94455474115397827E-006 -0.13607421232183065E-006 -0.32446966002061619E-005 -0.45057843708502474E-005 -0.20468052104327649E-004  0.39131926975342584E-006  0.21496391904096652E-005  0.18318810056137368E-004  0.31208163754480607E-006  0.51005742024808090E-007  </sparseX_slice>
        <sparseX_slice start="301" end="325">  0.18322688573019723E-006  0.63909772965387573E-006  0.47417306619442193E-006  0.29449055594928088E-005  0.32282935746128931E-006  0.45599471679550201E-006 -0.35317563166622283E-005 -0.59646522690623765E-007 -0.95450368079482219E-008 -0.35628961729632591E-007 -0.12226763290695421E-006 -0.93633843221579957E-007 -0.57520044815492937E-006 -0.61756597978066306E-007 -0.85680466179725734E-007  0.50166588163908340E-006  0.84706138527341781E-008  0.13547919155354251E-008  0.50619238084818453E-008  0.17364212293920116E-007  0.13307851062701579E-007  0.81729911420556821E-007  0.87704740823910129E-008  0.12162586233928540E-007  0.00000000000000000E+000  </sparseX_slice>
      </sparseX>
      <sparseX i="6" alpha="608.22698877924404" sparseCutoff="1.0000000000000000" sliced="T">
        <sparseX_slice start="1" end="50">  0.62778434921097515E+000  0.12856226117204697E-005  0.95456420001557596E-006  0.59042824704000279E-006  0.41034007595359235E-006  0.30320532252719309E-006  0.18069181056623108E-006  0.78189930813363306E-007  0.27402608351743505E-007  0.36297388898968358E-001  0.57397203297983299E-004  0.40343597578788160E-004  0.23658158811459605E-004  0.17194386149352465E-004  0.14301837652750559E-004  0.96371539910507757E-005  0.47076326644618612E-005  0.17723670462391969E-005  0.10493256502323123E-002  0.12904752048998732E-002  0.86486899582736867E-003  0.47745898774764940E-003  0.36258481921938178E-003  0.34311741822052124E-003  0.26319080082278705E-003  0.14595445823219362E-003  0.60444860286354957E-004  0.28059286384312498E+000  0.39015103462937802E-003  0.19902361922612244E-003  0.65686082655157439E-004  0.45415670106923995E-004  0.61188094845357328E-004  0.60737919023449957E-004  0.39960246597622276E-004  0.16768228849168863E-004  0.11471666794133558E-001  
0.12630062763414197E-001  0.63484648595461719E-002  0.19499612150044954E-002  0.14162280602162259E-002  0.22783777745338063E-002  0.25664904056223064E-002  0.18929848122420220E-002  0.91077807090640954E-003  0.62706529191624880E-001  0.64530761590145119E-001  0.27658359381394357E-001  0.53286905986536159E-002  0.38697388062067612E-002  </sparseX_slice>
        <sparseX_slice start="51" end="100">  0.11128061762691859E-001  0.16394986080747614E-001  0.14569890000345562E-001  0.84530311679671989E-002  0.54529004510062284E+000  0.67826480737419759E-003  0.24126542962647313E-003  0.73275412321880043E-005  0.53295328134849771E-005  0.56489060477350355E-004  0.87618348278786819E-004  0.74314923975256909E-004  0.33186304695526470E-004  0.22293459704840150E-001  0.22211558000580556E-001  0.81133992646351353E-002  0.31188909528624768E-003  0.26639094044470234E-003  0.24501126877724206E-002  0.40336356118397662E-002  0.36664407349161978E-002  0.18994336998452378E-002  0.17233707143408866E+000  0.16476617238903227E+000  0.58623474004975078E-001  0.55625138987450851E-002  0.44871825127967618E-002  0.25196991372931656E-001  0.44244959673812097E-001  0.43165449738398580E-001  0.26953924837807671E-001  0.23681797233361249E+000  0.21359940596262689E+000  0.70522692853348945E-001  0.11025962344355416E-001  0.82633231108988747E-002  0.36374518223178380E-001  
0.66849256179049701E-001  0.66574292299006535E-001  0.44700178654914963E-001  0.13299173809073067E+000  0.77445424735044432E-004 -0.79265573884588757E-004 -0.77550424237030110E-004 -0.42368007023277093E-004 -0.42001372621255886E-004 -0.20382344454336235E-004  0.65295845339326568E-005  0.51537797296988574E-005  0.54371906856565712E-002  </sparseX_slice>
        <sparseX_slice start="101" end="150">  0.27333280682611950E-002 -0.22660651976713791E-002 -0.23832992746651402E-002 -0.13499627491201421E-002 -0.12987273666847340E-002 -0.49492807461082484E-003  0.45940034284443730E-003  0.38227941927041962E-003  0.42031588277494626E-001  0.23526527082248665E-001 -0.71762894663172832E-002 -0.65516674693731469E-002 -0.35538397281543832E-002 -0.20234421895953753E-002  0.44777953218150960E-002  0.85295286769448853E-002  0.73093372517794297E-002  0.81682072571523864E-001  0.46629952801438189E-001  0.10134949489552464E-002  0.88100849771198878E-002  0.54881231825046426E-002  0.87952181828635182E-002  0.22009672585787340E-001  0.23073017475658038E-001  0.20373033542923732E-001  0.14086686314036806E-001  0.70419518214135312E-002  0.11329023385244899E-001  0.20490641192775456E-001  0.11823893318140533E-001  0.11737450359027821E-001  0.14566667538812328E-001  0.83837892983881588E-002  0.81111329015468893E-002 -0.17524053309630160E-001 -0.10220846800153849E-004  
0.10909512305204074E-004  0.12370493249062491E-004  0.91525342904869581E-005  0.80733986098447172E-005  0.29735166630342294E-005 -0.14343655286630215E-005 -0.80321666936072031E-006 -0.71644765906485526E-003 -0.35777881822903097E-003  0.31179213119814433E-003  0.37421934106489965E-003  0.28578447043279171E-003  0.24558950272932317E-003  </sparseX_slice>
        <sparseX_slice start="151" end="200">  0.61725791976967401E-004 -0.89858535583081634E-004 -0.57469384913191701E-004 -0.55384176809595322E-002 -0.30384492197883389E-002  0.85834252801815318E-003  0.84077536593180795E-003  0.76154005985541284E-003  0.32471047572953587E-003 -0.98537225952705239E-003 -0.14920127401304266E-002 -0.10649164786389084E-002 -0.10763082088662699E-001 -0.59662752779532325E-002 -0.65632878268788431E-003 -0.19344219239418982E-002 -0.74884382760604176E-003 -0.15774874383142172E-002 -0.40736706155641324E-002 -0.38638893277691761E-002 -0.29162530469423729E-002 -0.26250268220472024E-002 -0.12063877445346296E-002 -0.26759707454495716E-002 -0.47834524617152811E-002 -0.26358634978575772E-002 -0.26185829087001927E-002 -0.32916401462021881E-002 -0.17781206239246524E-002 -0.15655208587608926E-002  0.24458434236591427E-003  0.10765523562860074E-003  0.33039187530644096E-003  0.57920448768091057E-003  0.32360443058725700E-003  0.31991695561169243E-003  0.39110418277432939E-003  
0.20258934550798023E-003  0.16175037645706417E-003  0.33973581332633783E-002  0.19813775823964402E-005 -0.21184335444901657E-005 -0.24016944095819914E-005 -0.17708572869853982E-005 -0.15598425792436084E-005 -0.57758666740537229E-006  0.27389241778649032E-006  0.15466247099665774E-006  0.13889647780538871E-003  0.69362893959381582E-004  </sparseX_slice>
        <sparseX_slice start="201" end="250"> -0.60548307541236493E-004 -0.72646905030968701E-004 -0.55276089126670417E-004 -0.47462891465468868E-004 -0.12072166624162443E-004  0.17229253904241748E-004  0.11099836375329981E-004  0.10737235285330612E-002  0.58911494984219986E-003 -0.16751470430828138E-003 -0.16402130544735858E-003 -0.14683246426019529E-003 -0.63027265049908241E-004  0.18870195256605440E-003  0.28729685300918416E-003  0.20620204183566400E-003  0.20866202485702967E-002  0.11569635328971168E-002  0.12409564624596151E-003  0.37144477226238134E-003  0.14589931939555054E-003  0.30420981516580329E-003  0.78351339189376788E-003  0.74492273008330075E-003  0.56494064420371142E-003  0.50890944385655935E-003  0.23428020225577648E-003  0.51653824956724901E-003  0.92370971666553539E-003  0.50979719559973539E-003  0.50608566921774250E-003  0.63533528915903168E-003  0.34367912409177592E-003  0.30345292067405285E-003 -0.67057971810492232E-004 -0.29521053137742359E-004 -0.90088601127224572E-004 
-0.15806994539566087E-003 -0.88400036131723705E-004 -0.87323405038460770E-004 -0.10664379155198750E-003 -0.55269888980955271E-004 -0.44257347836959858E-004  0.91926808148031500E-005  0.40478424094790086E-005  0.12282720662673023E-004  0.21569802163816809E-004  0.12074701400641443E-004  0.11918141004683080E-004  0.14539882567524896E-004  </sparseX_slice>
        <sparseX_slice start="251" end="300">  0.75397792759925224E-005  0.60551436086010424E-005 -0.68255226545942582E-003 -0.39807141853264923E-006  0.42562547631847108E-006  0.48253562525204968E-006  0.35576188697054223E-006  0.31335783753055945E-006  0.11604693753468566E-006 -0.55006133320288465E-007 -0.31067495732103221E-007 -0.27905243389615084E-004 -0.13935473802531225E-004  0.12165093704795074E-004  0.14595791388603374E-004  0.11104767274009572E-004  0.95349172698896614E-005  0.24259108736739010E-005 -0.34605286476602795E-005 -0.22298267462221133E-005 -0.21571833116497456E-003 -0.11835740485755402E-003  0.33660402547036475E-004  0.32958137642537103E-004  0.29495775777527465E-004  0.12663039581138902E-004 -0.37900015981140991E-004 -0.57710269758039895E-004 -0.41426179214884435E-004 -0.41921614441251307E-003 -0.23244314032177016E-003 -0.24916112621546810E-004 -0.74608240060861328E-004 -0.29315816333995789E-004 -0.61109938519723106E-004 -0.15738247194355465E-003 -0.14963959789381830E-003 
-0.11349837303057833E-003 -0.10224335504020952E-003 -0.47070431363633346E-004 -0.10376508458018443E-003 -0.18556178415285432E-003 -0.10241588768939324E-003 -0.10166839523484483E-003 -0.12762939079725410E-003 -0.69042351976386954E-004 -0.60965503888218663E-004  0.13472400842356954E-004  0.59310014495583219E-005  0.18096989923161785E-004  </sparseX_slice>
        <sparseX_slice start="301" end="325">  0.31753762183229934E-004  0.17758611922597085E-004  0.17541977438868478E-004  0.21422588922109493E-004  0.11102748087673867E-004  0.88911613485668434E-005 -0.26118712245193326E-005 -0.11500994465557230E-005 -0.34893652158099584E-005 -0.61278380552597135E-005 -0.34304284625731981E-005 -0.33858815410053875E-005 -0.41305946174057484E-005 -0.21419839769794042E-005 -0.17203359530741537E-005  0.37104906778046334E-006  0.16338689224992042E-006  0.49564221923520147E-006  0.87043913178403681E-006  0.48729319722275767E-006  0.48095563047406117E-006  0.58672455249110700E-006  0.30425927411262755E-006  0.24438362675692695E-006  0.00000000000000000E+000  </sparseX_slice>
      </sparseX>
      <sparseX i="7" alpha="-3420.7613903517718" sparseCutoff="1.0000000000000000" sliced="T">
        <sparseX_slice start="1" end="50">  0.73400897039669188E+000  0.13485654660508818E-004  0.30912414103128654E-005  0.20222631227577302E-005  0.41329451972273032E-005  0.31822137454046001E-005  0.12685290797758974E-005  0.38564710725867836E-006  0.16567490553508935E-006  0.11590344962419599E+000  0.45797180088940210E-003  0.10680886017670743E-003  0.74072019842143653E-004  0.16563227266889796E-003  0.13734521493095555E-003  0.58798801922962451E-004  0.19163145462983123E-004  0.87816488606962853E-005  0.91508484068855457E-002  0.77840071194738960E-002  0.18596058841420396E-002  0.13699140408758579E-002  0.33264713053493102E-002  0.29666627779352489E-002  0.13636541741131793E-002  0.47656502064573889E-003  0.23298528991382022E-003  0.40500759488682603E+000  0.16095480953856440E-002  0.36882138949568199E-003  0.25732528226469472E-003  0.62687813987037753E-003  0.55093564941401422E-003  0.25146403090971269E-003  0.88980758578706949E-004  0.45009475355114709E-004  0.45221312598284075E-001  
0.38746441769524319E-001  0.92001436276869658E-002  0.68486550614462668E-002  0.17879642386329862E-001  0.16861619314986215E-001  0.82616925718954834E-002  0.31384968671804869E-002  0.16950239834993555E-002  0.11173647634535133E+000  0.96652206779184707E-001  0.23250915471886829E-001  0.17643490439092469E-001  0.48428033980691829E-001  </sparseX_slice>
        <sparseX_slice start="51" end="100">  0.48112644584413652E-001  0.25138071323547239E-001  0.10428798915131463E-001  0.62457134080923914E-002  0.39869822593928855E+000  0.16053409187847731E-002  0.35571390041053109E-003  0.20778309818789357E-003  0.61152451407707649E-003  0.58456092224796162E-003  0.28528077682226998E-003  0.10807310960825359E-003  0.59652246728094367E-004  0.44516837054919940E-001  0.38747236596052510E-001  0.90761343545306700E-002  0.57052405340323959E-002  0.17517731104638046E-001  0.17903057160664742E-001  0.93770579818398900E-002  0.38230137699360699E-002  0.22570982517607532E-002  0.15555755386091619E+000  0.13722708471459164E+000  0.33640569831132693E-001  0.21903348882046644E-001  0.67704106907249761E-001  0.72417628374577270E-001  0.40461923775879594E-001  0.18170331465056970E-001  0.11976716707094796E-001  0.10828224298214403E+000  0.98136791756544814E-001  0.26096972912330003E-001  0.15104528800671488E-001  0.48260388547259614E-001  0.55013095361548366E-001  
0.33050260012080529E-001  0.16406587002080052E-001  0.12003449882565029E-001 -0.14658235810662836E-001 -0.31492159623539161E-004 -0.13478402099774281E-004 -0.10775253388856980E-003 -0.16878839822341880E-003 -0.12313195107812740E-003 -0.54240533233009603E-004 -0.20394290390462759E-004 -0.86686880383451199E-005 -0.16366721812181692E-002  </sparseX_slice>
        <sparseX_slice start="101" end="150"> -0.69185553565499801E-003 -0.22600287935073992E-003 -0.28235458507300756E-002 -0.48523242302914334E-002 -0.38292796192281389E-002 -0.18092562945211403E-002 -0.71511095465149525E-003 -0.31497056533353197E-003 -0.57191107415923408E-002 -0.21033677081274127E-002 -0.10377840389173539E-003 -0.99213885762971799E-002 -0.18705109437140429E-001 -0.15807728247008015E-001 -0.79363582177190348E-002 -0.31969602938678224E-002 -0.13779825981820510E-002 -0.56300161661421849E-002 -0.13263098980202772E-002  0.21794370978108113E-002 -0.69841185019900130E-002 -0.17085138933977329E-001 -0.15574260582933749E-001 -0.76783861950630600E-002 -0.24781518427672072E-002 -0.57382703264432860E-003  0.14636325014180421E-003  0.62130872486962059E-003  0.23417313823183763E-002  0.49214053535749456E-002  0.62293326702094346E-002  0.54130110199496527E-002  0.38323101678360829E-002  0.26898040051290951E-002  0.19440384258896900E-002  0.10601170220415793E-001  0.41385676029854598E-004  
0.97380262064848368E-005  0.10570704618673970E-004  0.22978515284497511E-004  0.19805366598337964E-004  0.92467117175973047E-005  0.34212696257377526E-005  0.17452848879693828E-005  0.11836786235552060E-002  0.99456446199462797E-003  0.24046167351387954E-003  0.28129653470824518E-003  0.65750016225806028E-003  0.60834679947691030E-003  </sparseX_slice>
        <sparseX_slice start="151" end="200">  0.30466858224650157E-003  0.12062938357363611E-003  0.65519292051791111E-004  0.41361912350274289E-002  0.35001041169143206E-002  0.84265675063207115E-003  0.10211285503013948E-002  0.25282749168600541E-002  0.24684867714428638E-002  0.13164233373618467E-002  0.56367761639416862E-003  0.33658464240096360E-003  0.40717560074691626E-002  0.34910147746345121E-002  0.79114567738931157E-003  0.84783992731970710E-003  0.24582922627222068E-002  0.25899885917055501E-002  0.14609596430984735E-002  0.65991532359629577E-003  0.43175880620369709E-003 -0.14969908526769939E-003 -0.82871725347488873E-004 -0.12091610570868296E-003 -0.51061691875768926E-003 -0.81678511678729348E-003 -0.70065163613056440E-003 -0.39773399480823443E-003 -0.19741179871329948E-003 -0.10110660889241944E-003  0.76555474507002770E-004  0.64117821868390899E-004  0.18347612578291358E-004  0.32202097764061597E-004  0.69096396232938581E-004  0.66218596744188916E-004  0.36573420123460330E-004  
0.16530209251741124E-004  0.97342285808555598E-005 -0.20632972218798040E-002 -0.80595463550763052E-005 -0.18949289623952199E-005 -0.20425303891237290E-005 -0.44540840408778861E-005 -0.38442245238016562E-005 -0.17953718151142124E-005 -0.66390905679951274E-006 -0.33895817489894570E-006 -0.23037841717479536E-003 -0.19369473680630133E-003  </sparseX_slice>
        <sparseX_slice start="201" end="250"> -0.46810545065125143E-004 -0.54364201236765048E-004 -0.12744687334619365E-003 -0.11807380954269038E-003 -0.59151783221644540E-004 -0.23408097468755167E-004 -0.12725153600991737E-004 -0.80502356880945980E-003 -0.68171131753951746E-003 -0.16416015840170137E-003 -0.19742006823103778E-003 -0.49007977394356433E-003 -0.47907034306976336E-003 -0.25556114995726879E-003 -0.10938669337451258E-003 -0.65384567351100612E-004 -0.79248259236554535E-003 -0.68008073538756682E-003 -0.15452774148484057E-003 -0.16413954659575522E-003 -0.47668241013342812E-003 -0.50277803786141773E-003 -0.28376032008028306E-003 -0.12820408082941917E-003 -0.83977711680681915E-004  0.29135812398895482E-004  0.15973333550758050E-004  0.22969572982351236E-004  0.98412916214156375E-004  0.15795410128771254E-003  0.13557054067623477E-003  0.76814340833763732E-004  0.37982024169458559E-004  0.19418129519864122E-004 -0.21071683573688182E-004 -0.17654959099858460E-004 -0.50338258166078288E-005 
-0.87942233855864357E-005 -0.18928763460230208E-004 -0.18161291057382366E-004 -0.10029442011724551E-004 -0.45283997623773679E-005 -0.26697719593185215E-005  0.28999614429208767E-005  0.24306863508511848E-005  0.69059988878122952E-006  0.12008522333348568E-005  0.25927695527560803E-005  0.24905135766592024E-005  0.13752072851010354E-005  </sparseX_slice>
        <sparseX_slice start="251" end="300">  0.62029594212508412E-006  0.36613032357046855E-006  0.41457486477914013E-003  0.16194147365169192E-005  0.38074308062087664E-006  0.41032668306954477E-006  0.89485747517677366E-006  0.77235822301524360E-006  0.36071814121307468E-006  0.13338791044144821E-006  0.68102461031685598E-007  0.46289550596718124E-004  0.38919381024892327E-004  0.94056150497158428E-005  0.10921349901759203E-004  0.25604986450726304E-004  0.23722639395049752E-004  0.11884495592674326E-004  0.47029874273135173E-005  0.25567020740419524E-005  0.16175204117181938E-003  0.13697757894902296E-003  0.32985212418908103E-004  0.39660540900918046E-004  0.98460569269780826E-004  0.96251577895248430E-004  0.51346014644440472E-004  0.21977222709241277E-004  0.13136954055094188E-004  0.15923220372023909E-003  0.13665064820394664E-003  0.31051772252299446E-004  0.32975804161954483E-004  0.95769797551303060E-004  0.10101542186189014E-003  0.57012358451674398E-004  0.25758603217763412E-004  
0.16873191697829779E-004 -0.58542101241709241E-005 -0.32087139121459285E-005 -0.46123893759141724E-005 -0.19769005745718832E-004 -0.31732208744725858E-004 -0.27235824044419946E-004 -0.15431112881818379E-004 -0.76294323951735901E-005 -0.39003265357261893E-005  0.42338981876162797E-005  0.35474154387689014E-005  0.10113560875248456E-005  </sparseX_slice>
        <sparseX_slice start="301" end="325">  0.17666549256816672E-005  0.38028601723605108E-005  0.36487760850188398E-005  0.20150043621591098E-005  0.90977380560356308E-006  0.53638345105365897E-006 -0.82404019429922686E-006 -0.69069985023798428E-006 -0.19622232165591708E-006 -0.34116072147631420E-006 -0.73666010591210180E-006 -0.70762724135256734E-006 -0.39073528956325333E-006 -0.17623941837496267E-006 -0.10402850816102121E-006  0.11707780520294914E-006  0.98134069384044628E-007  0.27876634770795209E-007  0.48461682520909849E-007  0.10465027926309326E-006  0.10052872657014141E-006  0.55509474977972988E-007  0.25036705282167443E-007  0.14778796108324457E-007  0.00000000000000000E+000  </sparseX_slice>
      </sparseX>
      <sparseX i="8" alpha="782.05815105361228" sparseCutoff="1.0000000000000000" sliced="T">
        <sparseX_slice start="1" end="50">  0.68066905136198608E+000  0.55113338492310585E-003  0.34623090921367375E-003  0.17786235067508715E-003  0.87318845302155292E-004  0.36450167132471977E-004  0.10998151236771377E-004  0.24367415231808604E-005  0.51912296345598812E-006  0.19271482188404410E+000  0.54407901703387414E-002  0.32473672225705641E-002  0.18486135893219960E-002  0.12227998482551114E-002  0.69986567578495299E-003  0.26073612420916869E-003  0.68264399069988476E-004  0.17623080066090778E-004  0.27281248133351650E-001  0.28245874248496505E-001  0.16665858934592798E-001  0.10606408886400669E-001  0.92623800184919516E-002  0.70097369149765805E-002  0.32291840580526820E-002  0.10146271897117447E-002  0.31558168118415807E-003  0.44848564572496735E+000  0.84153001805713414E-002  0.49626563361443374E-002  0.32206702648125778E-002  0.19573595147028841E-002  0.15232262412721716E-002  0.57078265605061838E-003  0.15763633654860057E-003  0.50412911956620217E-004  0.89786835041779617E-001  
0.68972077581914579E-001  0.39803331370897560E-001  0.27562679387483264E-001  0.22400039097840909E-001  0.22299905746585840E-001  0.10686769791539680E-001  0.36786365905577770E-002  0.14057664593017008E-002  0.14775122654605102E+000  0.10212272956889046E+000  0.58264392121467341E-001  0.40712229667976697E-001  0.30918443181921641E-001  </sparseX_slice>
        <sparseX_slice start="51" end="100">  0.38508984356893455E-001  0.20802854450075417E-001  0.93917792380812312E-002  0.48208051016124217E-002  0.35888642626153405E+000 -0.57317478453143913E-003 -0.52401135716087174E-003  0.50284158059929940E-003 -0.80764944526155974E-003  0.18445019346793876E-003  0.47940013478419944E-004  0.57606287160287733E-004  0.43952017814737196E-004  0.71849069553586109E-001  0.11445276633906976E-001  0.23953981556911054E-002  0.51955540409408252E-002 -0.66913014527950803E-002  0.38444028294255380E-002  0.22704467654751791E-002  0.20998766288945750E-002  0.14615827555003102E-002  0.16720704737940084E+000  0.75357046809639686E-001  0.37763685164816811E-001  0.26927348190336781E-001  0.13488595974126814E-002  0.19412960427667474E-001  0.15373396103568115E-001  0.16407612155694518E-001  0.11520758979340883E-001  0.94612401355000597E-001  0.88956252752484519E-001  0.55836323491536520E-001  0.36833579768052002E-001  0.28046970084345740E-001  0.21599485517551475E-001  
0.17921907532195219E-001  0.25388078243521170E-001  0.18221461893253854E-001  0.16442656131107067E+000  0.19833920039548755E-002  0.59184350781942366E-003  0.50596166929684839E-003 -0.52418301834017086E-003 -0.63559245721648292E-003 -0.23222275492413997E-003  0.10711184274345626E-004  0.20324084348813836E-004  0.32918200788922783E-001  </sparseX_slice>
        <sparseX_slice start="101" end="150">  0.16792101469901403E-001  0.38322809913295254E-002  0.26279478469932692E-002 -0.69277470648468073E-002 -0.95195755874987603E-002 -0.43045273839160394E-002  0.37421536718023089E-003  0.63482236751510976E-003  0.76607187722214837E-001  0.37558768812363995E-001  0.11162709366853167E-001  0.10521458624953052E-001 -0.92630769589421066E-002 -0.19060069648461495E-001 -0.10307540594506660E-001  0.57468018614829182E-002  0.49807676809674019E-002  0.61302474426198982E-001  0.24461578367908778E-001  0.13647108210243866E-001  0.24746930480391411E-001  0.21094992817344404E-001  0.62367143483936073E-002  0.98966354280350920E-004  0.17057580639878566E-001  0.12954673464148607E-001  0.19859940752767698E-001  0.80385273622691471E-002  0.29838655341131583E-002  0.14840108157152431E-001  0.19724239095358368E-001  0.13122725702418880E-001  0.72549641274155469E-002  0.86838149032530849E-002  0.69969257691491447E-002 -0.15423497835621117E-001  0.15640923228993305E-004  
0.13979628804704829E-004 -0.12125568967061233E-003  0.28860606427849697E-004  0.63215130315314960E-004  0.23336833553248660E-004 -0.22530112164457514E-005 -0.15954909467608835E-005 -0.30877845682120222E-002 -0.39157259680331204E-003  0.10862033352210255E-003 -0.69729986604915879E-003  0.59257948584920232E-003  0.97969532432834613E-003  </sparseX_slice>
        <sparseX_slice start="151" end="200">  0.43588074583750383E-003 -0.42048547599484442E-004 -0.51460806368877390E-004 -0.71858876364341295E-002 -0.25873693682587841E-002 -0.12093155373665396E-002 -0.19963170165627096E-002  0.85104490976468754E-003  0.18472780801427136E-002  0.72573428990117296E-003 -0.63014695117534004E-003 -0.62061746787448857E-003 -0.57502788727786863E-002 -0.44599826424022351E-002 -0.36830903633055696E-002 -0.32333275087097269E-002 -0.20194295055784100E-002 -0.96860894401483541E-003 -0.81960328280145382E-003 -0.18785772409295053E-002 -0.16602858349673852E-002 -0.26345342493997769E-002 -0.10645822833950257E-002 -0.82758378561062084E-003 -0.24293666735972675E-002 -0.28800003045346143E-002 -0.19707213632479325E-002 -0.11362744786475147E-002 -0.13415245028302900E-002 -0.10116676335347105E-002  0.17474298633779088E-003  0.13689796670555816E-003  0.17539558582578993E-003  0.24805635166025650E-003  0.24192531790135570E-003  0.19489505523518882E-003  0.14387254542487925E-003  
0.12916833389573439E-003  0.10331163379868912E-003  0.29845411677704601E-002 -0.32261881734457124E-005 -0.29783629882491672E-005  0.23273490511495027E-004 -0.55961763615561601E-005 -0.12135891611824943E-004 -0.44590305595492013E-005  0.44358918949159027E-006  0.30243946945637456E-006  0.59750520013374098E-003  0.74688515076536517E-004  </sparseX_slice>
        <sparseX_slice start="201" end="250"> -0.23104479882022894E-004  0.13281922911605082E-003 -0.11510218279699566E-003 -0.18833888020443123E-003 -0.83356084628963010E-004  0.83098506055229049E-005  0.98150534845778710E-005  0.13905132095508711E-002  0.49979301088612328E-003  0.22960547498086380E-003  0.38179711822823446E-003 -0.16530641021272522E-003 -0.35511342981320082E-003 -0.13843746867730740E-003  0.12228037168961339E-003  0.12006816721709781E-003  0.11127141329985851E-002  0.86446876456184544E-003  0.71033617059279672E-003  0.62437314113761473E-003  0.39098002701660074E-003  0.18619325726128364E-003  0.15787988599981790E-003  0.36325366928962981E-003  0.32162528230120208E-003  0.50979849117463439E-003  0.20517042447818734E-003  0.15941332640833213E-003  0.47044130344785332E-003  0.55623166351210813E-003  0.37837532450535799E-003  0.21788936311166528E-003  0.25901062676604824E-003  0.19511768759528068E-003 -0.47819986397206764E-004 -0.37399595519054824E-004 -0.47872778227404555E-004 
-0.67918160451097242E-004 -0.66193764584793679E-004 -0.53074650119728072E-004 -0.39138107637617329E-004 -0.35275092166579033E-004 -0.28255751074635377E-004  0.65431842128661575E-005  0.51089452359446816E-005  0.65335582130117606E-005  0.92984179253285093E-005  0.90564491906229429E-005  0.72274493862856075E-005  0.53238394732191089E-005  </sparseX_slice>
        <sparseX_slice start="251" end="300">  0.48171481934940894E-005  0.38645065721701314E-005 -0.59958490152935574E-003  0.64922997393455057E-006  0.59971192445778637E-006 -0.46746843602326379E-005  0.11243045225374294E-005  0.24375935700151550E-005  0.89553020586319352E-006 -0.89152921668160244E-007 -0.60728362666101987E-007 -0.12003690900772329E-003 -0.14998641135957808E-004  0.46520767701279470E-005 -0.26672867995907519E-004  0.23125830537493861E-004  0.37830711878964619E-004  0.16741188329024255E-004 -0.16702589255433639E-005 -0.19711128757005452E-005 -0.27934971540253493E-003 -0.10040182306732834E-003 -0.46105525003658812E-004 -0.76680349768190869E-004  0.33212694426876164E-004  0.71329783036340488E-004  0.27801837540651911E-004 -0.24567457750256845E-004 -0.24121284304231201E-004 -0.22354075764438930E-003 -0.17367714901693208E-003 -0.14269403814146764E-003 -0.12542882912888246E-003 -0.78547769815302885E-004 -0.37399841201736502E-004 -0.31714483927039725E-004 -0.72975448525800931E-004 
-0.64615476527286439E-004 -0.10241690797620987E-003 -0.41213961661087005E-004 -0.32022344671714861E-004 -0.94512181138005575E-004 -0.11174018222183369E-003 -0.76000079529668066E-004 -0.43763696714003439E-004 -0.52031719973863037E-004 -0.39195448248095190E-004  0.96068843495039738E-005  0.75131963703278793E-005  0.96169740629201909E-005  </sparseX_slice>
        <sparseX_slice start="301" end="325">  0.13644794791466978E-004  0.13298110370446676E-004  0.10661312128891560E-004  0.78616327123730336E-005  0.70863322916236532E-005  0.56764396406100537E-005 -0.18589908813605832E-005 -0.14514587017580915E-005 -0.18561586605653675E-005 -0.26418343499470060E-005 -0.25730407844890534E-005 -0.20531685521085243E-005 -0.15123548275280209E-005 -0.13685457741784835E-005 -0.10979426922231468E-005  0.26407991770936313E-006  0.20618076119764290E-006  0.26366376195234159E-006  0.37529442948967885E-006  0.36551517401896509E-006  0.29163132973460650E-006  0.21480899664232556E-006  0.19440108153756668E-006  0.15596793946592890E-006  0.00000000000000000E+000  </sparseX_slice>
      </sparseX>
      <sparseX i="9" alpha="-305.99136922484655" sparseCutoff="1.0000000000000000" sliced="T">
        <sparseX_slice start="1" end="50">  0.60362006238433286E+000  0.25927062814102448E-014  0.49404954348728724E-014  0.24948140211247207E-004  0.72750810680767661E-005  0.11985222792278736E-014  0.28918104993488612E-005  0.11960272570460264E-005  0.57920200521751731E-007  0.15499569207512739E+000  0.44335898054577219E-013  0.11435189122609961E-012  0.86354702619854604E-003  0.27201957296416751E-003  0.40751774685316404E-013  0.12717212494142881E-003  0.56639504317365928E-004  0.29256172033215784E-005  0.19899657134450511E-001  0.37907899461637305E-012  0.13369107880313099E-011  0.14945271674473123E-001  0.50854861536372212E-002  0.71004060729507618E-012  0.27963017227134613E-002  0.13411205432097887E-002  0.73888176694098665E-004  0.47639195420772795E+000  0.23101933528195684E-013  0.19816279519174931E-012  0.28087424192051870E-002  0.92043941832135369E-003  0.95207868822987518E-013  0.47789026289113363E-003  0.22896163364215461E-003  0.12916699645536948E-004  0.86497863790896051E-001  
0.27945121236742227E-012  0.33718247239805338E-011  0.68745572368133959E-001  0.24335626363469066E-001  0.25257383161321581E-011  0.14860563636599227E-001  0.76670109596534575E-002  0.46134307662611942E-003  0.18799018470111450E+000  0.10634092609808596E-012  0.45852862316221398E-011  0.15810865881846098E+000  0.58226754790717511E-001  </sparseX_slice>
        <sparseX_slice start="51" end="100">  0.54089408561908013E-011  0.39487218029336017E-001  0.21915650071245275E-001  0.14402671979055351E-002  0.40163952632834865E+000 -0.85518411624699822E-013 -0.57863910196306896E-013  0.23424924766482914E-002  0.84440421537630890E-003  0.42332909142655512E-014  0.41893725061552121E-003  0.24778585403775825E-003  0.20134884695553318E-004  0.72925163270580573E-001 -0.10317686861198126E-011 -0.75368892389991338E-012  0.57333839149995243E-001  0.22325321011517737E-001  0.51569542193764095E-012  0.13027349908552220E-001  0.82973589433112654E-002  0.71915349186534841E-003  0.22414146210302635E+000 -0.43772176976342937E-012 -0.34149650873969440E-012  0.18648201104815898E+000  0.75542745926371863E-001  0.43205287915849552E-011  0.48954467621905952E-001  0.33541551635866494E-001  0.31750871740860525E-002  0.13362238861980474E+000  0.29055074236573420E-011  0.17207475407324503E-011  0.10997354827032386E+000  0.49004160397650251E-001  0.62002903578446302E-011  
0.30345767818094539E-001  0.25667403946111174E-001  0.34997598291899696E-002  0.27983263127257619E-001  0.13741690063518407E-012 -0.13370969074042871E-014 -0.40771709763468597E-003 -0.49311310964303043E-004 -0.66553792490371833E-013 -0.23936519260030279E-003 -0.41167384380170075E-004  0.10860630230180129E-004  0.50808844713420391E-002  </sparseX_slice>
        <sparseX_slice start="101" end="150">  0.16667223571178964E-011 -0.50924955386821053E-013 -0.99791084616082520E-002 -0.13037486393157869E-002 -0.16458382479190882E-011 -0.74433441174078553E-002 -0.13785313381546038E-002  0.38790687263625501E-003  0.15616514562437678E-001  0.10914066933372118E-011 -0.23313389677879256E-012 -0.32457694130105290E-001 -0.44115268115380891E-002 -0.40405855871537826E-011 -0.27970765439799844E-001 -0.55726262258764927E-002  0.17126220613916533E-002  0.13166069360235809E-001  0.15135796305389243E-011 -0.28246898819781800E-012 -0.27069731917236078E-001 -0.40471015935970144E-002  0.30323613344826897E-011 -0.24520264339908750E-001 -0.60307830861196475E-002  0.26696794615414248E-002  0.64863899002643582E-003  0.11087567752770789E-010  0.31358199987938185E-013  0.33315756283958590E-002  0.16711878317693840E-003  0.83845106928761548E-011  0.99065439192493540E-002  0.70849286408901824E-003  0.10182396489665233E-002  0.29262288897738350E-001  0.40120035269552942E-014  
0.31794422234658043E-015  0.82241013321708375E-004  0.45164504120438485E-004 -0.26555406869118088E-014 -0.15291106458452645E-004  0.82950815601247083E-005  0.33824038168364513E-005  0.53131155069481694E-002  0.48822512827489167E-013  0.11042157768567144E-013  0.20128956981815571E-002  0.11941106337862652E-002 -0.49842748043740018E-013  </sparseX_slice>
        <sparseX_slice start="151" end="200"> -0.47549506288175101E-003  0.27776916255410096E-003  0.12080861412300088E-003  0.16330295670795605E-001  0.38965808846966217E-013  0.48263086892359665E-013  0.65470731314545083E-002  0.40405419553411802E-002 -0.25831911113999471E-014 -0.17868260102055892E-002  0.11228643683549916E-002  0.53337414818145732E-003  0.13767848428355829E-001  0.19271777956742337E-012  0.56381103415907960E-013  0.54602620197393877E-002  0.37067628698299018E-002  0.52733190076397331E-012 -0.15664013984438580E-002  0.12151813479223479E-002  0.83143738520744860E-003  0.95924155869040568E-003  0.78925346152599309E-012 -0.89250308165164136E-014 -0.95037324772441771E-003 -0.21646663202359298E-003  0.76042964864419526E-012  0.89498360885564431E-003 -0.20189141783349978E-003  0.44847209931152320E-003  0.70928851184331196E-003  0.30514039718545927E-013  0.12703440984697610E-014  0.13555287519097017E-003  0.14019310668813529E-003  0.44937319912719766E-013  0.40427603546523229E-004  
0.28765388844618440E-004  0.98762223662476629E-004 -0.54919907785810585E-002 -0.77675889378956219E-015 -0.61988944550480003E-016 -0.15970398256661933E-004 -0.85702633299021911E-005  0.50474759198572364E-015  0.25919007732659707E-005 -0.16107793305976441E-005 -0.62172631637617376E-006 -0.99717357967683178E-003 -0.94525393774907065E-014  </sparseX_slice>
        <sparseX_slice start="201" end="250"> -0.21482263600831432E-014 -0.39088460429515795E-003 -0.22659038941950918E-003  0.94475804215024380E-014  0.80598223844508132E-004 -0.53938568593525112E-004 -0.22206069621660163E-004 -0.30648946686615262E-002 -0.75474189616662613E-014 -0.93785613866063145E-014 -0.12713773955564289E-002 -0.76671955614715699E-003  0.20927516056972334E-015  0.30287381296712081E-003 -0.21804327088316018E-003 -0.98040554102111027E-004 -0.25839706823233485E-002 -0.37380830662782684E-013 -0.10945601021913567E-013 -0.10603293359227981E-002 -0.70338276738948779E-003 -0.10142962387016432E-012  0.26551100189664204E-003 -0.23596983151642320E-003 -0.15282814554227564E-003 -0.18003191114576814E-003 -0.15296030987452120E-012  0.17330493254091649E-014  0.18455316448181582E-003  0.41075974921353190E-004 -0.14621735540007295E-012 -0.15170312980120098E-003  0.39204258635651185E-004 -0.82434541053489531E-004 -0.18826059601419011E-003 -0.83642095052761443E-014 -0.34885083657140618E-015 
-0.37226398766418092E-004 -0.37621714003434391E-004 -0.12216300374484472E-013 -0.96910861724624669E-005 -0.78995187553390189E-005 -0.25673179205560100E-004  0.24984228152455648E-004  0.11463577286759963E-014  0.47899196226755180E-016  0.51116760273955128E-005  0.50480134080516183E-005  0.16606244067392805E-014  0.11615473459128363E-005  </sparseX_slice>
        <sparseX_slice start="251" end="300">  0.10846784811959758E-005  0.33368635601675763E-005  0.11024969860563099E-002  0.15602671242482194E-015  0.12455886742800783E-016  0.32087164072329249E-005  0.17209252568581099E-005 -0.10134543842630915E-015 -0.51890565574577693E-006  0.32363190403124516E-006  0.12474319777373346E-006  0.20017893519710738E-003  0.18987225454213678E-014  0.43163462536336179E-015  0.78535163806164616E-004  0.45499783274197536E-004 -0.18967254089655935E-014 -0.16135985847668434E-004  0.10837140335148063E-004  0.44554268681077792E-005  0.61526635258706919E-003  0.15160974717972789E-014  0.18843406333209857E-014  0.25544068741086695E-003  0.15395875229376132E-003 -0.39908265707640929E-016 -0.60636169465664050E-004  0.43808458164742302E-004  0.19670861451531307E-004  0.51872262794574390E-003  0.75098106861281085E-014  0.21991358833045912E-014  0.21303765144533549E-003  0.14124060405658448E-003  0.20373219430949121E-013 -0.53156032039493811E-004  0.47410197298255460E-004  
0.30663446411423907E-004  0.36140745211420116E-004  0.30727568278344447E-013 -0.34819765118084608E-015 -0.37079774553061949E-004 -0.82481342720936688E-005  0.29367701323475156E-013  0.30371383372444214E-004 -0.78767765561660801E-005  0.16539670249050297E-004  0.37792623488787929E-004  0.16802672476356404E-014  0.70089786843403826E-016  </sparseX_slice>
        <sparseX_slice start="301" end="325">  0.74793974817860953E-005  0.75545120776987276E-005  0.24536654458691042E-014  0.19401820768299935E-005  0.15871424764126998E-005  0.51510679003994893E-005 -0.70929769172927199E-005 -0.32567815264942863E-015 -0.13610002204613023E-016 -0.14524256411656343E-005 -0.14335186247641232E-005 -0.47169660497866434E-015 -0.32886825024402189E-006 -0.30819905472104704E-006 -0.94682794974055385E-006  0.10068416210869102E-005  0.46262286442245625E-016  0.19335622997649591E-017  0.20634526051822680E-006  0.20354300607323283E-006  0.66992179227090461E-016  0.46556141856433920E-007  0.43785628173527457E-007  0.13433021012775232E-006  0.00000000000000000E+000  </sparseX_slice>
      </sparseX>
      <sparseX i="10" alpha="323.88597175336577" sparseCutoff="1.0000000000000000" sliced="T">
        <sparseX_slice start="1" end="50">  0.66227323042019171E+000  0.22013230343942559E-002  0.11277154691552833E-002  0.40556018962923312E-003  0.21094518487811903E-003  0.94085328487573437E-004  0.23464654188937529E-004  0.55170311818973198E-005  0.65582967770395977E-006  0.29530876590325239E+000  0.13665996240993763E-001  0.88645376610417964E-002  0.27894287043733002E-002  0.21539792567071298E-002  0.13733455444884374E-002  0.39664979188645149E-003  0.13920861291754307E-003  0.18648747935008962E-004  0.65839341840807628E-001  0.43579158982519274E-001  0.38379881387687519E-001  0.11670391126755308E-001  0.12164759455429726E-001  0.10616279598658761E-001  0.35081279440974653E-002  0.18210709207663871E-002  0.29126009589596917E-003  0.50696932495290570E+000  0.15007518209390365E-001  0.16143313073485162E-001  0.25967342369718374E-002  0.32615445071508872E-002  0.25357767134433925E-002  0.62267932770508725E-003  0.35676295342599272E-003  0.43360743260443160E-004  0.15984749044056865E+000  
0.69390474657500950E-001  0.10342835239129546E+000  0.19949816613937767E-001  0.28008766737956051E-001  0.29440691121479061E-001  0.81803939508817581E-002  0.68574656695668717E-002  0.11040669292508116E-002  0.19404219032085526E+000  0.56635341883450485E-001  0.14356914163408901E+000  0.23234358647953136E-001  0.36495266842175120E-001  </sparseX_slice>
        <sparseX_slice start="51" end="100">  0.45385932211021086E-001  0.10834177450069222E-001  0.14233240585255514E-001  0.29114819885142171E-002  0.20272208964484106E+000 -0.74897442663417061E-002  0.75877397814499807E-002 -0.42265144689901876E-002 -0.69806812730382171E-003 -0.46193113838407119E-003 -0.17242414824817211E-003  0.16691200423328152E-003  0.39748781492706356E-004  0.63918299770121229E-001 -0.32081795791788423E-001  0.48154223530816082E-001 -0.18706276795677289E-001 -0.41127647902152167E-002 -0.11059048428166561E-002 -0.19563981607915630E-002  0.38365170924229961E-002  0.10625553497998657E-002  0.10973130847464266E+000 -0.33558969368783984E-001  0.99717796533011147E-001 -0.84644750337242690E-002  0.43447648671433589E-002  0.13997686165027359E-001  0.17471778736523241E-003  0.15472232506397099E-001  0.56691873076122794E-002  0.31026654666304929E-001  0.15191142574224405E-001  0.45036550666210012E-001  0.33329539997824849E-001  0.18584098823406774E-001  0.29445685757119176E-001  
0.71435474039535200E-002  0.15154557722235612E-001  0.81331562468368555E-002  0.10525134966519338E+000  0.17462286491832003E-002  0.32184948159838882E-002 -0.21205697861931918E-002  0.26993483603583257E-003 -0.12819881679630239E-002  0.24690187449984656E-003 -0.72934785515521813E-004  0.57167695817425166E-004  0.33185763479924156E-001  </sparseX_slice>
        <sparseX_slice start="101" end="150">  0.96758853298165061E-002  0.15898979379666524E-001 -0.11287258384628655E-001 -0.76840529179230505E-003 -0.12711747865112852E-001  0.17666038390527965E-002 -0.91826873052531209E-003  0.92377426527609236E-003  0.56971434823495204E-001  0.13395559349258882E-001  0.30517871784066605E-001 -0.13658178725633262E-001 -0.38639767110147491E-002 -0.19837805959667193E-001  0.13639072647782659E-002 -0.26336858163722481E-003  0.27948254658617493E-002  0.22781197498599502E-001 -0.76349425445747536E-003  0.24225242039469439E-001  0.16052863936725937E-001  0.18018246494848334E-002  0.15486373172040515E-001  0.25614195351671516E-002  0.69485159083367510E-002  0.73711442007613152E-002  0.83635017221791175E-002  0.38272651241226447E-002  0.10435334781646294E-001  0.13656759262577112E-001  0.77137280755329475E-002  0.13312230588119050E-001  0.10237464920584350E-001  0.56938779704865531E-002  0.81700819884789264E-002 -0.12725791682536043E-001 -0.62937873260093932E-003 
-0.30169108645915958E-003  0.19990593472413379E-003  0.51316704029267747E-004  0.14770077997942359E-003 -0.16125062214619153E-004  0.40934675344003917E-005 -0.68888474368805252E-005 -0.40124436809106977E-002 -0.30106535002470481E-002 -0.15462234525196687E-002  0.12533413086569236E-002  0.73123772319538024E-003  0.14929181090131618E-002  </sparseX_slice>
        <sparseX_slice start="151" end="200"> -0.36904366763828358E-004  0.42947259687448317E-004 -0.11437161285604638E-003 -0.68883355294277948E-002 -0.36802886195194937E-002 -0.32309769812049281E-002  0.17888588135163462E-002  0.14811766818260508E-002  0.22375985454752409E-002  0.14394750402933908E-003 -0.19096482531975675E-003 -0.34347688585648165E-003 -0.27544423379661548E-002  0.97099335545835119E-003 -0.30563800427587180E-002 -0.16223730711855289E-002 -0.47304002362795521E-003 -0.21255725062707316E-002 -0.44958752510207807E-003 -0.10710101770990278E-002 -0.89945104413264958E-003 -0.14300798406024432E-002 -0.99501741454061771E-003 -0.18273886596161953E-002 -0.25618306383928175E-002 -0.15194773872071582E-002 -0.23555089649950180E-002 -0.19304285873432056E-002 -0.99376238464439861E-003 -0.14130831905339405E-002  0.12226507618657184E-003  0.15753481746612176E-003  0.17172381862527421E-003  0.25999029668504874E-003  0.17189904020290881E-003  0.21668541440802319E-003  0.19730219438642395E-003  
0.10070446465168656E-003  0.12997072487006995E-003  0.24485470128488046E-002  0.12252190539213515E-003  0.57767696690871448E-004 -0.38284860732997715E-004 -0.10102852292817257E-004 -0.28422984388461221E-004  0.30723594515283334E-005 -0.77898842016358991E-006  0.13262469327469301E-005  0.77202717396361261E-003  0.58557589216824528E-003  </sparseX_slice>
        <sparseX_slice start="201" end="250">  0.29614488766619589E-003 -0.24082717346397451E-003 -0.14252970696538585E-003 -0.28742420253418803E-003  0.66708148370026098E-005 -0.81575630455663154E-005  0.22019998075704014E-004  0.13253724251377586E-002  0.71519789426905734E-003  0.61973919828971148E-003 -0.34481394264526991E-003 -0.28812109954536101E-003 -0.43076005130152003E-003 -0.28543059076948467E-004  0.37119728807078362E-004  0.66087846291474663E-004  0.52997736619772009E-003 -0.18983179437428150E-003  0.58821558624658394E-003  0.31092599978546225E-003  0.91451935795633789E-004  0.40951030794614149E-003  0.86825568857055234E-004  0.20657150634292992E-003  0.17310327878549867E-003  0.27515912637857923E-003  0.19262702676873920E-003  0.35178433827491460E-003  0.49383007719788579E-003  0.29320420132235634E-003  0.45370017180074249E-003  0.37227648392891782E-003  0.19136782717747667E-003  0.27212172701958077E-003 -0.33269100424660805E-004 -0.43216274308186525E-004 -0.46797991942296260E-004 
-0.70957104084346832E-004 -0.46981346217270588E-004 -0.59053216388129967E-004 -0.53859672322874410E-004 -0.27473701932544712E-004 -0.35423620708092871E-004  0.45263663083036907E-005  0.59278349374347992E-005  0.63767601323073344E-005  0.96830392252712959E-005  0.64202870069175246E-005  0.80469315494024262E-005  0.73514001775741619E-005  </sparseX_slice>
        <sparseX_slice start="251" end="300">  0.37476952669216897E-005  0.48274142384080428E-005 -0.49183666074560162E-003 -0.24618195154970174E-004 -0.11602279262371396E-004  0.76893101393923396E-005  0.20305272269717193E-005  0.57093145481901085E-005 -0.61698625405088041E-006  0.15643052150069895E-006 -0.26640569179255041E-006 -0.15507615955690605E-003 -0.11765652378407172E-003 -0.59479211367370130E-004  0.48372979501474366E-004  0.28639221238604352E-004  0.57735484718263068E-004 -0.13377506646250909E-005  0.16380642598940955E-005 -0.44232026859695213E-005 -0.26622594722640401E-003 -0.14369756977125633E-003 -0.12447624713187946E-003  0.69265595365694267E-004  0.57890700146121204E-004  0.86527503346119268E-004  0.57377694418082676E-005 -0.74581056641763878E-005 -0.13274982975880946E-004 -0.10645590903241978E-003  0.38146829110868195E-004 -0.11815485728039022E-003 -0.62448936410493887E-004 -0.18372045280377141E-004 -0.82260558002481910E-004 -0.17442192748202571E-004 -0.41496326893238915E-004 
-0.34771259026517483E-004 -0.55270879089334467E-004 -0.38698850669032517E-004 -0.70663425246553747E-004 -0.99199783801640613E-004 -0.58899955972447267E-004 -0.91136709496775204E-004 -0.74783124930551058E-004 -0.38440656846115264E-004 -0.54661979931113682E-004  0.66827237431056994E-005  0.86826117229096630E-005  0.94006218851083202E-005  </sparseX_slice>
        <sparseX_slice start="301" end="325">  0.14254166091316679E-004  0.94381549157006595E-005  0.11862424089744785E-004  0.10819621040386834E-004  0.55189778896239208E-005  0.71157995546886187E-005 -0.12858110259128782E-005 -0.16842802691995800E-005 -0.18115261331380312E-005 -0.27508873260377961E-005 -0.18240270018138077E-005 -0.22859949558763930E-005 -0.20884953932187510E-005 -0.10646845708307253E-005 -0.13713882662876472E-005  0.18263104240216980E-006  0.23927792265073644E-006  0.25731146331813952E-006  0.39075444111615261E-006  0.25910637129944744E-006  0.32470594094399746E-006  0.29666546045599576E-006  0.15123338069420204E-006  0.19479432424355689E-006  0.00000000000000000E+000  </sparseX_slice>
      </sparseX>
      <sparseX i="11" alpha="-1941.3935809615148" sparseCutoff="1.0000000000000000" sliced="T">
        <sparseX_slice start="1" end="50">  0.44361649645942441E+000  0.31286944647167189E-004  0.24260082354642926E-004  0.17649637630083055E-004  0.90629668433776780E-005  0.47411629787097236E-005  0.19845681077566355E-005  0.54293100567980667E-006  0.18756227956060905E-006  0.93280803926429484E-001  0.55237777210763006E-003  0.43723227955821113E-003  0.38190410694906107E-003  0.22602286631395572E-003  0.14485736239371286E-003  0.70088645926870270E-004  0.21480008011107244E-004  0.78786665085704535E-005  0.98072416722637026E-002  0.50571918368457957E-002  0.41322036434439449E-002  0.42495762877510380E-002  0.29400887345427747E-002  0.22620466207287858E-002  0.12709560922128710E-002  0.44625251812114902E-003  0.17508354262328569E-003  0.39768952965396087E+000  0.94039074045965218E-003  0.82429424110439832E-003  0.77204803787485332E-003  0.54421232171174608E-003  0.44853761900383836E-003  0.22307051258336452E-003  0.87827604419020379E-004  0.21461747697355808E-004  0.59130799621569224E-001  
0.13607581717929461E-001  0.13728380899309531E-001  0.13393456127467363E-001  0.11319456182654121E-001  0.10630815623827974E-001  0.63811648036604081E-002  0.30294343477697944E-002  0.97178490768567950E-003  0.17825865726214546E+000  0.24600309333058581E-001  0.41507393183039892E-001  0.28884278867510257E-001  0.29413214322763750E-001  </sparseX_slice>
        <sparseX_slice start="51" end="100">  0.31268409374138911E-001  0.22964124022349788E-001  0.15109439057246985E-001  0.71322417982727362E-002  0.54528357479829226E+000 -0.32688169916596251E-004  0.11602166314533829E-003 -0.34046673670483952E-004  0.12728557089723483E-003  0.30742432507682238E-003  0.18088989730078719E-003  0.11071428374620078E-003  0.14141665502974723E-004  0.81075943403353432E-001  0.21485115020000562E-002  0.79157517609513891E-002  0.23137742862948387E-002  0.52192820801251726E-002  0.82256535885776687E-002  0.62567084274902348E-002  0.42545965178350104E-002  0.12017150136807429E-002  0.34565583100849834E+000  0.20926138911081183E-001  0.80623274161386427E-001  0.30416760756591717E-001  0.38979071663920478E-001  0.46152297652390574E-001  0.46030833836100196E-001  0.36232802003445419E-001  0.20950248959974417E-001  0.33512524817931411E+000  0.23362180127488957E-001  0.11076164699988965E+000  0.42073526678501928E-001  0.46322440464568640E-001  0.44151944939638137E-001  
0.57320323652331515E-001  0.47459321678272208E-001  0.34642004033211715E-001  0.83438222733308365E-001  0.47304140048182451E-003  0.26397550897766688E-003 -0.27156416949136578E-003 -0.26177761513741831E-003 -0.16301527799244997E-003 -0.26212835299654293E-004  0.15028144708412321E-004  0.37128844676636272E-005  0.12406081783234546E-001  </sparseX_slice>
