<GAP_2025_2_23_-480_12_34_0_504>
<Potential label="GAP_2025_2_23_-480_12_34_0_504" init_args="IP GAP label=GAP_2025_2_23_-480_12_34_0_504"/>
<GAP_params label="GAP_2025_2_23_-480_12_34_0_504" gap_version="1686220958">
  <GAP_data do_core="F">
    <e0 Z="1" value="-.13840100000000000"/>
    <e0 Z="2" value="-.13840100000000000"/>
    <e0 Z="3" value="-.13840100000000000"/>
    <e0 Z="4" value="-.13840100000000000"/>
    <e0 Z="5" value="-.13840100000000000"/>
    <e0 Z="6" value="-.13840100000000000"/>
    <e0 Z="7" value="-.13840100000000000"/>
    <e0 Z="8" value="-.13840100000000000"/>
    <e0 Z="9" value="-.13840100000000000"/>
    <e0 Z="10" value="-.13840100000000000"/>
    <e0 Z="11" value="-.13840100000000000"/>
    <e0 Z="12" value="-.13840100000000000"/>
    <e0 Z="13" value="-.13840100000000000"/>
    <e0 Z="14" value="-.13840100000000000"/>
    <e0 Z="15" value="-.13840100000000000"/>
    <e0 Z="16" value="-.13840100000000000"/>
    <e0 Z="17" value="-.13840100000000000"/>
    <e0 Z="18" value="-.13840100000000000"/>
    <e0 Z="19" value="-.13840100000000000"/>
    <e0 Z="20" value="-.13840100000000000"/>
    <e0 Z="21" value="-.13840100000000000"/>
    <e0 Z="22" value="-.13840100000000000"/>
    <e0 Z="23" value="-.13840100000000000"/>
    <e0 Z="24" value="-.13840100000000000"/>
    <e0 Z="25" value="-.13840100000000000"/>
    <e0 Z="26" value="-.13840100000000000"/>
    <e0 Z="27" value="-.13840100000000000"/>
    <e0 Z="28" value="-.13840100000000000"/>
    <e0 Z="29" value="-.13840100000000000"/>
    <e0 Z="30" value="-.13840100000000000"/>
    <e0 Z="31" value="-.13840100000000000"/>
    <e0 Z="32" value="-.13840100000000000"/>
    <e0 Z="33" value="-.13840100000000000"/>
    <e0 Z="34" value="-.13840100000000000"/>
    <e0 Z="35" value="-.13840100000000000"/>
    <e0 Z="36" value="-.13840100000000000"/>
    <e0 Z="37" value="-.13840100000000000"/>
    <e0 Z="38" value="-.13840100000000000"/>
    <e0 Z="39" value="-.13840100000000000"/>
    <e0 Z="40" value="-.13840100000000000"/>
    <e0 Z="41" value="-.13840100000000000"/>
    <e0 Z="42" value="-.13840100000000000"/>
    <e0 Z="43" value="-.13840100000000000"/>
    <e0 Z="44" value="-.13840100000000000"/>
    <e0 Z="45" value="-.13840100000000000"/>
    <e0 Z="46" value="-.13840100000000000"/>
    <e0 Z="47" value="-.13840100000000000"/>
    <e0 Z="48" value="-.13840100000000000"/>
    <e0 Z="49" value="-.13840100000000000"/>
    <e0 Z="50" value="-.13840100000000000"/>
    <e0 Z="51" value="-.13840100000000000"/>
    <e0 Z="52" value="-.13840100000000000"/>
    <e0 Z="53" value="-.13840100000000000"/>
    <e0 Z="54" value="-.13840100000000000"/>
    <e0 Z="55" value="-.13840100000000000"/>
    <e0 Z="56" value="-.13840100000000000"/>
    <e0 Z="57" value="-.13840100000000000"/>
    <e0 Z="58" value="-.13840100000000000"/>
    <e0 Z="59" value="-.13840100000000000"/>
    <e0 Z="60" value="-.13840100000000000"/>
    <e0 Z="61" value="-.13840100000000000"/>
    <e0 Z="62" value="-.13840100000000000"/>
    <e0 Z="63" value="-.13840100000000000"/>
    <e0 Z="64" value="-.13840100000000000"/>
    <e0 Z="65" value="-.13840100000000000"/>
    <e0 Z="66" value="-.13840100000000000"/>
    <e0 Z="67" value="-.13840100000000000"/>
    <e0 Z="68" value="-.13840100000000000"/>
    <e0 Z="69" value="-.13840100000000000"/>
    <e0 Z="70" value="-.13840100000000000"/>
    <e0 Z="71" value="-.13840100000000000"/>
    <e0 Z="72" value="-.13840100000000000"/>
    <e0 Z="73" value="-.13840100000000000"/>
    <e0 Z="74" value="-.13840100000000000"/>
    <e0 Z="75" value="-.13840100000000000"/>
    <e0 Z="76" value="-.13840100000000000"/>
    <e0 Z="77" value="-.13840100000000000"/>
    <e0 Z="78" value="-.13840100000000000"/>
    <e0 Z="79" value="-.13840100000000000"/>
    <e0 Z="80" value="-.13840100000000000"/>
    <e0 Z="81" value="-.13840100000000000"/>
    <e0 Z="82" value="-.13840100000000000"/>
    <e0 Z="83" value="-.13840100000000000"/>
    <e0 Z="84" value="-.13840100000000000"/>
    <e0 Z="85" value="-.13840100000000000"/>
    <e0 Z="86" value="-.13840100000000000"/>
    <e0 Z="87" value="-.13840100000000000"/>
    <e0 Z="88" value="-.13840100000000000"/>
    <e0 Z="89" value="-.13840100000000000"/>
    <e0 Z="90" value="-.13840100000000000"/>
    <e0 Z="91" value="-.13840100000000000"/>
    <e0 Z="92" value="-.13840100000000000"/>
    <e0 Z="93" value="-.13840100000000000"/>
    <e0 Z="94" value="-.13840100000000000"/>
    <e0 Z="95" value="-.13840100000000000"/>
    <e0 Z="96" value="-.13840100000000000"/>
    <e0 Z="97" value="-.13840100000000000"/>
    <e0 Z="98" value="-.13840100000000000"/>
    <e0 Z="99" value="-.13840100000000000"/>
    <e0 Z="100" value="-.13840100000000000"/>
    <e0 Z="101" value="-.13840100000000000"/>
    <e0 Z="102" value="-.13840100000000000"/>
    <e0 Z="103" value="-.13840100000000000"/>
    <e0 Z="104" value="-.13840100000000000"/>
    <e0 Z="105" value="-.13840100000000000"/>
    <e0 Z="106" value="-.13840100000000000"/>
    <e0 Z="107" value="-.13840100000000000"/>
    <e0 Z="108" value="-.13840100000000000"/>
    <e0 Z="109" value="-.13840100000000000"/>
    <e0 Z="110" value="-.13840100000000000"/>
    <e0 Z="111" value="-.13840100000000000"/>
    <e0 Z="112" value="-.13840100000000000"/>
    <e0 Z="113" value="-.13840100000000000"/>
    <e0 Z="114" value="-.13840100000000000"/>
    <e0 Z="115" value="-.13840100000000000"/>
    <e0 Z="116" value="-.13840100000000000"/>
    <e0 Z="117" value="-.13840100000000000"/>
    <e0 Z="118" value="-.13840100000000000"/>
  </GAP_data>
  <gpSparse label="GAP_2025_2_23_-480_12_34_0_504" n_coordinate="1" fitted="T">
    <gpCoordinates label="GAP_2025_2_23_-480_12_34_0_5041" dimensions="325" signal_variance=".20000000000000001" signal_mean=".00000000000000000E+000" sparsified="T" n_permutations="1" covariance_type="2" zeta="4.0000000000000000" n_sparseX="200">
      <descriptor> soap l_max=8 n_max=8 atom_sigma=0.5 cutoff=7.25 radial_scaling=-0.5 cutoff_transition_width=1.0 central_weight=1.0 n_sparse=200 delta=0.2 covariance_type=dot_product zeta=4 sparse_method=cur_points } n_species=1 Z=37 species_Z={37 }</descriptor>
      <permutation i="1">1  </permutation>
      <sparseX i="1" alpha="-627.30174778856997" sparseCutoff="1.0000000000000000" sliced="T">
        <sparseX_slice start="1" end="50">  0.92540437515976259E+000  0.11053921687103544E-009  0.15438984895449406E-009  0.15260650548862316E-009  0.11718542224642532E-009  0.88621596248919446E-010  0.78916424303515044E-010  0.67577599633693468E-010  0.44287973609501975E-010  0.14334303813451339E-002 -0.19764899524862543E-007 -0.25199647585077242E-007 -0.25113257989376997E-007 -0.20776678176847712E-007 -0.16412815346177766E-007 -0.13798870976739655E-007 -0.11167049989160022E-007 -0.74114693662552588E-008  0.11101755693604360E-005  0.18084639886844362E-005  0.20935941105665090E-005  0.21091053424481494E-005  0.19004662423407609E-005  0.15765815743694893E-005  0.12587588282366162E-005  0.96070172127841842E-006  0.65640710597583237E-006  0.62589493470499816E-001 -0.54414868812684617E-006 -0.40054063224428417E-006 -0.42833498471047853E-006 -0.55500092841229663E-006 -0.52702321308705214E-006 -0.34891896547894010E-006 -0.20325265068388244E-006 -0.14831313023070730E-006  0.68553794081121881E-004  
0.77560154812485337E-004  0.54075756946706805E-004  0.58916872664014594E-004  0.82009143574992424E-004  0.81067166881703756E-004  0.54280976846194912E-004  0.31840228680294665E-004  0.25279338349681250E-004  0.21166123686293509E-002  0.22655458994579139E-002  0.13508967819244957E-002  0.15640457235442935E-002  0.26316025828435909E-002  </sparseX_slice>
        <sparseX_slice start="51" end="100">  0.28464532816122839E-002  0.19564350740211610E-002  0.11661293171388038E-002  0.10720425483786722E-002  0.32469308637418809E+000 -0.26327743699717604E-005 -0.15405728253776724E-005 -0.15583096166683155E-005 -0.23931565000442066E-005 -0.23836678849373895E-005 -0.15016274713527888E-005 -0.84213688781943580E-006 -0.65080762652880850E-006  0.35563385719603681E-003  0.37816549008185522E-003  0.22062699683807733E-003  0.23255109778245152E-003  0.36581016950702105E-003  0.37776127581601852E-003  0.24801751718388015E-003  0.14174620280815823E-003  0.11966149552284126E-003  0.15528443705771168E-001  0.15935942835348639E-001  0.92435908805159287E-002  0.10781339993556668E-001  0.17876363133111018E-001  0.19876297605740251E-001  0.14077629638817191E-001  0.83125191530752755E-002  0.79710802319846192E-002  0.56961909392850660E-001  0.56108621610517904E-001  0.32705453836444229E-001  0.38893101606355410E-001  0.61589531054827014E-001  0.70275396839268242E-001  
0.51713493342204209E-001  0.30237571654188649E-001  0.30130972760784917E-001  0.89491300774098351E-001 -0.96677323137514897E-006 -0.27238261015285361E-006  0.57078106980043739E-006  0.63955597657273949E-006  0.54415431662404326E-006  0.28417608345240482E-006 -0.20727198261116857E-006 -0.23397941662602427E-006  0.98019138119576958E-004  </sparseX_slice>
        <sparseX_slice start="101" end="150">  0.10815770239495400E-003  0.32189151348671395E-004 -0.55413275184236847E-004 -0.91107676961648082E-004 -0.71021966384484517E-004 -0.24763843924520019E-004  0.20207579998667581E-004  0.31201499950029565E-004  0.42799205913036497E-002  0.12609752822503345E-002  0.62436818205243707E-003  0.53014048784415376E-003 -0.37683760333094693E-002 -0.22391975246410551E-002  0.68509916573262521E-003 -0.14968560184290403E-003  0.10953951177658391E-002  0.22202777961157463E-001  0.54154976077674249E-002  0.46946056327468507E-002  0.72919021747344399E-002 -0.15849691025675672E-001 -0.77495971335685403E-002  0.73381371243160442E-002  0.97415515135089946E-003  0.75269945220871820E-002  0.43271315379600989E-002  0.66659325756671288E-002  0.90249364596747192E-002  0.10974259841616599E-001  0.11086172112512662E-001  0.11412382378531656E-001  0.11369569953345956E-001  0.10169161264586038E-001  0.95950446877943237E-002  0.17294862578575477E-001 -0.19504989015986549E-006 
-0.71757018675043765E-007  0.92471697120819028E-007  0.11169918823315067E-006  0.90934656555893916E-007  0.35713170841970858E-007 -0.61482516732204065E-007 -0.59534051366950967E-007  0.18942930867970416E-004  0.21786006657346310E-004  0.81433611751499597E-005 -0.88583733152488723E-005 -0.16357640666486601E-004 -0.12247770859645725E-004  </sparseX_slice>
        <sparseX_slice start="151" end="200"> -0.25090118695287529E-005  0.63308005559415635E-005  0.74957133161875455E-005  0.82712663503083279E-003  0.24913142323341255E-003  0.11308649470491465E-003  0.10383875545145518E-003 -0.72513573707426579E-003 -0.43128154097550484E-003  0.17715789017096672E-003  0.43627585199209713E-005  0.21073300781333337E-003  0.42908527463485328E-002  0.10629201225608406E-002  0.78722251438329927E-003  0.12969907487248265E-002 -0.31579605488005831E-002 -0.16331466130710198E-002  0.14899861356040347E-002  0.21371532851707935E-003  0.13277288939092450E-002  0.11826368032312026E-002  0.18965729126670862E-002  0.23558523430424368E-002  0.26227856470543301E-002  0.25909187443879794E-002  0.25373606806702496E-002  0.24503336300093674E-002  0.22580540753487431E-002  0.21702007048160902E-002  0.16161165844940563E-003  0.27181269557552591E-003  0.31541946727113373E-003  0.32166251926713619E-003  0.31513969312958208E-003  0.29455962104755541E-003  0.27409328224771732E-003  
0.26629309667798075E-003  0.26007814776489137E-003  0.33892050898850037E-003 -0.29655731143510334E-008  0.39814346724315812E-009  0.38130744937352489E-008  0.27848368880051618E-008  0.11415839876381085E-009 -0.12987074411582381E-008 -0.22144180222392790E-008 -0.11675493306521108E-008  0.37121704450312633E-006  0.32976668545941877E-006  </sparseX_slice>
        <sparseX_slice start="201" end="250"> -0.76096170617658969E-007 -0.41290053345439202E-006 -0.37203731714702168E-006 -0.47272974551042440E-007  0.22850338400937317E-006  0.28683488477361225E-006  0.12535490107468976E-006  0.16208870054270486E-004  0.35642254963830582E-005 -0.52387676578347277E-005 -0.29878381957068903E-005 -0.12845657269090872E-004 -0.54467819273647217E-005  0.14137148503501670E-004  0.87871115926674313E-005  0.70045735051761398E-006  0.84086126164925655E-004  0.14378741347158733E-004 -0.26069980354647482E-004 -0.90410675317926075E-005 -0.74017214037941064E-004 -0.49301979279969630E-004  0.48496419845179467E-004  0.15063275410235480E-004 -0.23500018619442477E-004  0.23175660718818285E-004  0.25593955851676774E-004  0.73992188047397717E-005 -0.27353808757113980E-004 -0.75157562736828123E-004 -0.11746046644438811E-003 -0.14306217166926480E-003 -0.15178925673225928E-003 -0.13907590016830598E-003  0.44788696089180341E-005  0.59257197039393569E-005  0.36924548622908929E-005 
-0.12927659120718258E-005 -0.76514000586621910E-005 -0.13496908837457961E-004 -0.17498026211402969E-004 -0.18812914122912479E-004 -0.17253342793584817E-004  0.62063198800628824E-007  0.19970645280569853E-006  0.47593394078088587E-006  0.87044948498704336E-006  0.13026024159803996E-005  0.16891804276589833E-005  0.19526446497303510E-005  </sparseX_slice>
        <sparseX_slice start="251" end="300">  0.20403355624583255E-005  0.19598788293400730E-005 -0.11293513419662503E-004  0.98433718003718633E-010 -0.14075571525361142E-010 -0.12794733045520921E-009 -0.93051291583534091E-010 -0.30491086117379503E-011  0.44169412306051719E-010  0.74218701903710015E-010  0.38884569484845919E-010 -0.12369698978133417E-007 -0.10944812875132844E-007  0.26412592051220390E-008  0.13865005349394866E-007  0.12418411640957181E-007  0.14877418497381695E-008 -0.77378878262727470E-008 -0.96281972117220710E-008 -0.41649502110374657E-008 -0.54011216972909887E-006 -0.11817524792893020E-006  0.17790131965872219E-006  0.10180891672961578E-006  0.42736520403645261E-006  0.18009884298352507E-006 -0.47577425042488146E-006 -0.29665272111922240E-006 -0.21754810292940522E-007 -0.28019189428375471E-005 -0.47623285274925924E-006  0.88727234689015552E-006  0.31672239036985681E-006  0.24715047127267370E-005  0.16502977111022728E-005 -0.16242579429396433E-005 -0.50669210643314598E-006  
0.80536788178097868E-006 -0.77225965498122210E-006 -0.84764711551763154E-006 -0.22916329457615078E-006  0.94678695205556640E-006  0.25607724226160007E-005  0.39887425529053205E-005  0.48523945411855137E-005  0.51452667679354191E-005  0.47151282215528141E-005 -0.14924494886484023E-006 -0.19673418027330067E-006 -0.12077066571751821E-006  </sparseX_slice>
        <sparseX_slice start="301" end="325">  0.47659912912319557E-007  0.26230508813571950E-006  0.45943800183881476E-006  0.59428180282352114E-006  0.63857450453888613E-006  0.58583115419896434E-006 -0.29246936079095838E-008 -0.94853769307485694E-008 -0.22696476656947461E-007 -0.41580315950329148E-007 -0.62272938789509250E-007 -0.80783737404186483E-007 -0.93398175596383987E-007 -0.97594445995396240E-007 -0.93735517985624499E-007  0.68912277045414762E-010  0.22527572323314408E-009  0.54120134818423699E-009  0.99314548804713927E-009  0.14885502672606032E-008  0.19317285309976697E-008  0.22337089610353394E-008  0.23341098023378550E-008  0.22415685990758082E-008  0.00000000000000000E+000  </sparseX_slice>
      </sparseX>
      <sparseX i="2" alpha="-515.61583862545194" sparseCutoff="1.0000000000000000" sliced="T">
        <sparseX_slice start="1" end="50">  0.74135597815512377E+000  0.11431352162896747E-010  0.12431140535291519E-010  0.91390713216911965E-011  0.12992690978330044E-010  0.14993244824207318E-010  0.26646245044258570E-010  0.13511069976907086E-010  0.83529665971690864E-011 -0.42090060241037987E-003 -0.10733421419907778E-008 -0.11724885962863275E-008 -0.86158869822698615E-009 -0.12244246857507153E-008 -0.14174549220570051E-008 -0.25488977036047326E-008 -0.12921634618867914E-008 -0.80027890203704270E-009  0.11948195086406362E-006  0.50476013777400780E-007  0.55325424357764903E-007  0.40659164027320194E-007  0.57719681816702343E-007  0.67062119184501818E-007  0.12192925494478849E-006  0.61830756942780501E-007  0.38363798738023606E-007  0.33365071674792801E-001  0.88346047061578661E-007  0.94613500159089413E-007  0.69680850192983195E-007  0.99363551928309241E-007  0.11381715324046554E-006  0.19897357844351224E-006  0.10102817205584147E-006  0.62298745915470174E-007 -0.13394602120699231E-004 
-0.58493931243169897E-005 -0.63031802739261466E-005 -0.46353542541497927E-005 -0.66158432951857529E-005 -0.75974574525079368E-005 -0.13454917693265378E-004 -0.68239419069212993E-005 -0.42152326537765866E-005  0.75080530856063690E-003  0.34297385099580952E-003  0.36081669880059521E-003  0.26668255843139972E-003  0.38056225636391765E-003  </sparseX_slice>
        <sparseX_slice start="51" end="100">  0.43307475950283056E-003  0.74326348177416448E-003  0.37857463206709393E-003  0.23286901514186063E-003  0.28509357612497399E+000  0.61491309875916853E-006  0.53974660329990066E-006  0.40898474975341089E-006  0.62496357731074882E-006  0.68621581702647855E-006  0.14239887738106043E-005  0.74077266689245055E-006  0.46704168926017222E-006 -0.11445247462921920E-003 -0.41125243042710506E-004 -0.35935911554954357E-004 -0.27225567961487629E-004 -0.41597154458863460E-004 -0.46096752006604368E-004 -0.96403839903408208E-004 -0.50172021445448018E-004 -0.31718963181366611E-004  0.90727240528823017E-002  0.33337961715652624E-002  0.29168865551681788E-002  0.22118413092509131E-002  0.33909571840074269E-002  0.36583020737674739E-002  0.75187237502416411E-002  0.39187088889579055E-002  0.24627820497043441E-002  0.54817354646541597E-001  0.18867812524989817E-001  0.12119328762971863E-001  0.93116174855771526E-002  0.15586444639266100E-001  0.16736884706205300E-001  
0.39720006194940136E-001  0.22081263776059241E-001  0.14563853770784700E-001  0.50404328569806323E+000  0.48530910127867132E-006 -0.17571982422002270E-006 -0.62170012275456462E-007  0.10967788950817654E-006 -0.49989009180601498E-007  0.12909137017051315E-005  0.79187894054652889E-006  0.50276458901152638E-006 -0.20235110924806402E-003  </sparseX_slice>
        <sparseX_slice start="101" end="150"> -0.34222140457798013E-004  0.11862397835110468E-004  0.39911224240241436E-005 -0.72303373401331243E-005  0.17389829427659255E-005 -0.87905771220543258E-004 -0.54277388568469707E-004 -0.34617563196084323E-004  0.16040507485310711E-001  0.24622302998741985E-002 -0.91080631656757468E-003 -0.35281579049528504E-003  0.62655010112699330E-003 -0.45576675423953457E-003  0.68012174135585329E-002  0.41568536519426703E-002  0.26352328634584457E-002  0.13706086671774076E+000  0.38227463372220924E-001 -0.27868176491515225E-002 -0.10392909973327591E-002  0.78763744968753085E-002  0.75546020634638432E-002  0.62335944215522889E-001  0.45222863722733465E-001  0.32315827121937299E-001  0.17134793631092773E+000  0.94509481933529663E-001  0.10199675317609220E-001  0.41800243746948533E-002  0.16749582245797860E-001  0.41524311049342913E-001  0.86921296829372136E-001  0.84012941740802233E-001  0.66923190701728988E-001  0.11863614505321780E+000  0.17311202529927317E-007 
-0.28673197050367780E-007 -0.17105760793497574E-007 -0.27066495029915046E-006 -0.32372679165914829E-006  0.14142854221092283E-007  0.20450839045213105E-006 -0.12726266011243921E-006 -0.47627170581562395E-004  0.14659752236849230E-006  0.19420032567930462E-005  0.74188982168518504E-006  0.17860261798098196E-004  0.21817052931698929E-004  </sparseX_slice>
        <sparseX_slice start="151" end="200"> -0.86546487511237287E-006 -0.14004470752681199E-004  0.89666192613387464E-005  0.37754375998066379E-002  0.28552286570547342E-003 -0.15849192868511630E-003 -0.15580708740271071E-003 -0.14900936182482938E-002 -0.17121395650728101E-002  0.87265079167895749E-004  0.10607122174460949E-002 -0.61481558698257670E-003  0.32259873956115126E-001  0.70543635826253882E-003 -0.24809130194026799E-002 -0.14668719360336621E-002 -0.92919492713702655E-002 -0.10536946669032755E-001  0.39153229100837695E-003  0.89064818050204261E-002 -0.39733766521859006E-002  0.57035213090587934E-001 -0.20590846006111065E-002 -0.67575594401636675E-002 -0.14938842496956784E-002 -0.12660725776505246E-003  0.10705536434446555E-002  0.25162804911237320E-002  0.17770291338768788E-001  0.18992179423927766E-002  0.94924269364582703E-002  0.12760931065229032E-001  0.82746161757925665E-002  0.71781337973869843E-002  0.75412955160161351E-002  0.94277638219237084E-002  0.13278738389286296E-001  
0.13927309465193638E-001  0.13204071433515258E-001 -0.12625942583779459E-002  0.42305955326552709E-008  0.64772730981648139E-008 -0.28964554029989995E-008 -0.34617039497356652E-009  0.23588768425863423E-008 -0.31230656229059508E-008 -0.23503222652110636E-009  0.57586747756271392E-008  0.50687580999949791E-006 -0.29714252141992814E-006  </sparseX_slice>
        <sparseX_slice start="201" end="250"> -0.43542197777504016E-006  0.20702782832428167E-006  0.27573396577474197E-007 -0.16922835855479063E-006  0.20588367032124316E-006  0.12970629023632353E-007 -0.39161252483111534E-006 -0.40180383762821717E-004  0.20079434799433374E-004  0.34752547174347480E-004 -0.13496734321909231E-004 -0.12090706654095557E-005  0.11143586862151123E-004 -0.17467329087438463E-004 -0.19569622664567597E-005  0.29799607562839212E-004 -0.34332817890126170E-003  0.38348527752658076E-004  0.27370514729736431E-003 -0.79173968491035927E-004 -0.11951864699695640E-004  0.11027143134633567E-003 -0.15375004179571305E-003 -0.63064893331540067E-004  0.16076149884945097E-003 -0.60700162282949861E-003 -0.54832134872633909E-003  0.30390762251324778E-003 -0.20130990038461662E-004 -0.52549832519346533E-004  0.20678144237897995E-003 -0.33179397254377136E-003 -0.37046930403289099E-003 -0.20055148175951326E-003 -0.14286934201257568E-003 -0.37690691473891578E-003 -0.38266534844760472E-003 
-0.22355810343194726E-003 -0.15983761031586357E-003 -0.20815070215016534E-003 -0.28926608480457644E-003 -0.42323165626141618E-003 -0.51663001591170752E-003  0.10751543848449222E-005  0.96624914503926035E-005  0.13736836274235410E-004  0.76357544956377697E-005  0.68804319656377659E-005  0.94778155336703796E-005  0.87064978404480205E-005  </sparseX_slice>
        <sparseX_slice start="251" end="300">  0.12309334998483946E-004  0.16503755356772649E-004  0.43077436544814716E-004 -0.14354827213122556E-009 -0.22007646944709136E-009  0.98294273271058629E-010  0.11232351155308271E-010 -0.80659956646277346E-010  0.10613997208412905E-009  0.83395891634235701E-011 -0.19579793803777757E-009 -0.17293687498156556E-007  0.10084826210647364E-007  0.14794319157970451E-007 -0.70268643853049756E-008 -0.90165018737042065E-009  0.57844941259114511E-008 -0.69971579568603866E-008 -0.46504641388616095E-009  0.13315563963402194E-007  0.13708821503060698E-005 -0.68093146072965631E-006 -0.11807641093620390E-005  0.45784407651122276E-006  0.38199489018015164E-007 -0.38131807814685539E-006  0.59363488046526410E-006  0.68308779088289777E-007 -0.10131313591369852E-005  0.11713737602186004E-004 -0.12978935056175492E-005 -0.93001384207241498E-005  0.26846678524577630E-005  0.38672142724088902E-006 -0.37625596965588204E-005  0.52249198791506985E-005  0.21576943124392359E-005 
-0.54674669322248056E-005  0.20709799459748610E-004  0.18618811645284389E-004 -0.10327799029318707E-004  0.67972527630783552E-006  0.17759785643471729E-005 -0.70209141823761190E-005  0.11277954372583507E-004  0.12613962290490352E-004  0.68088751310132762E-005  0.48744440059887260E-005  0.12827530070568118E-004  0.13010283529365021E-004  </sparseX_slice>
        <sparseX_slice start="301" end="325">  0.76064544839334905E-005  0.54438132267631206E-005  0.70882449481908680E-005  0.98527585104156623E-005  0.14402271118768917E-004  0.17570440744951453E-004 -0.51876643597829307E-007 -0.46459842317296176E-006 -0.66017866341179475E-006 -0.36688986305681617E-006 -0.33058771440861109E-006 -0.45546523448348864E-006 -0.41851219134103581E-006 -0.59165580672152921E-006 -0.79318989709015540E-006  0.12515347511531452E-008  0.11169582687280261E-007  0.15863772900772644E-007  0.88143517091806659E-008  0.79419805040116751E-008  0.10943921799318473E-007  0.10058748854241891E-007  0.14219177613378576E-007  0.19060838922996654E-007  0.00000000000000000E+000  </sparseX_slice>
      </sparseX>
      <sparseX i="3" alpha="-18.463398448262350" sparseCutoff="1.0000000000000000" sliced="T">
        <sparseX_slice start="1" end="50">  0.92628985522860596E+000  0.18016115446454385E-007  0.21644144162553479E-007  0.22922425020531233E-007  0.21818011194631701E-007  0.18829297522247403E-007  0.15100668864492818E-007  0.11424107746883482E-007  0.80740423386626057E-008  0.20812953712895418E-001 -0.36654798330790789E-005 -0.42754811635578766E-005 -0.44074123403943038E-005 -0.40899909006673885E-005 -0.34229798333019102E-005 -0.26491993730082981E-005 -0.19425327017511594E-005 -0.13414809592206244E-005  0.23382477947370999E-003  0.37293369652266120E-003  0.42230991823146764E-003  0.42373878496502386E-003  0.38339826572155692E-003  0.31119347873816643E-003  0.23244841370676053E-003  0.16520078726683845E-003  0.11147294673356739E-003  0.16063566180732536E+000 -0.22917920689706190E-004 -0.21577132697433520E-004 -0.23444817865837156E-004 -0.25406147779512152E-004 -0.21742656156216566E-004 -0.15305192619930650E-004 -0.10995703064952818E-004 -0.83606573315975358E-005  0.25521945666528894E-002  
0.33076232711093671E-002  0.30194941389476856E-002  0.31921993649089249E-002  0.33765724063492485E-002  0.28070071759386879E-002  0.19115858413436746E-002  0.13316900358999939E-002  0.98856064887320222E-003  0.13928586013666902E-001  0.15707012704684331E-001  0.11438786830929444E-001  0.12670315316708380E-001  0.15762735351828403E-001  </sparseX_slice>
        <sparseX_slice start="51" end="100">  0.13783245337656397E-001  0.90390805310561970E-002  0.62553048222680086E-002  0.49753594481040091E-002  0.28946067172880918E+000 -0.19706885354144846E-004  0.75346162311829091E-005  0.16949313074367253E-005 -0.19394388319101898E-004 -0.19633908448832886E-004 -0.68246962279199905E-005 -0.34125731473087328E-005 -0.63238737945349040E-005  0.45989784916631348E-002  0.28944041048221377E-002 -0.10206898938076713E-002 -0.20458281334619855E-003  0.26206169890896766E-002  0.25913220471941692E-002  0.91910406626885099E-003  0.46429830779957487E-003  0.77808573374708585E-003  0.35495199952721615E-001  0.26654066135611155E-001 -0.12334155793002204E-004  0.39913517217055544E-002  0.23570747726738926E-001  0.25674386366534310E-001  0.15021245887386167E-001  0.99394205980245422E-002  0.96879670083462512E-002  0.45227463090921412E-001  0.46061524689785804E-001  0.21898067468645279E-001  0.20091825318147096E-001  0.38433613165583171E-001  0.48084189554225019E-001  
0.41566975747596963E-001  0.30657457670438995E-001  0.22317355660521638E-001  0.69575133287859858E-001 -0.49941637203435914E-005  0.42843484804463714E-005  0.80276135785915703E-005  0.31189059611749676E-005 -0.28613914789041776E-005 -0.33269479698019434E-005 -0.22693556371986045E-007  0.19955133935584302E-005  0.11054162889708276E-002  </sparseX_slice>
        <sparseX_slice start="101" end="150">  0.73182872618641895E-003 -0.59194999199024573E-003 -0.10886214880031215E-002 -0.40416299689980214E-003  0.37527131369727572E-003  0.42379754881052530E-003  0.13476231192131011E-004 -0.22945166504431306E-003  0.85316711698353066E-002  0.58798161993622372E-002 -0.32223339796486894E-002 -0.61096038041125447E-002 -0.17123365282598938E-002  0.30436483613711378E-002  0.37955775733381240E-002  0.13702617496475955E-002 -0.90725022579289086E-003  0.15373816996825947E-001  0.11976368266846286E-001  0.57920061373417273E-003 -0.80728638265846627E-003  0.32320152488046982E-002  0.64358218564229477E-002  0.91913562823656668E-002  0.79701226863193135E-002  0.25346648320993658E-002  0.26129505492796267E-002  0.41878503746231120E-002  0.45050749813745862E-002  0.39447268916174838E-002  0.30652584781028685E-002  0.24697849921198724E-002  0.24744650662063303E-002  0.29426715725378531E-002  0.34107130375470350E-002  0.86420389258044197E-001 -0.45531682807786334E-005  
0.72507332228456856E-005  0.79927110762177515E-005 -0.17302291667515396E-005 -0.71275795079880170E-005 -0.24744800359405105E-005  0.34347684124182512E-005  0.30463648104084564E-005  0.13730553068406510E-002  0.66392136145887297E-003 -0.10175203463808219E-002 -0.10850956719090858E-002  0.23080415090485988E-003  0.89742994967110113E-003  </sparseX_slice>
        <sparseX_slice start="151" end="200">  0.29577139213612642E-003 -0.41012622517145030E-003 -0.35641257493767474E-003  0.10597325634551872E-001  0.45205332423803096E-002 -0.67974696564083075E-002 -0.51577733665824294E-002  0.21398838888696120E-002  0.33862107296013335E-002  0.42357520690501567E-003 -0.17979543035366958E-002 -0.20030209795089651E-002  0.19096064735523305E-001  0.64223140921702507E-002 -0.69828221336730809E-002  0.38796417705615699E-002  0.49647988106505444E-002 -0.83315319673870018E-002 -0.68130808077128567E-002  0.22668247748289919E-002 -0.20851746918342079E-003  0.45899542805331005E-002  0.66795096314808313E-002  0.59591960491807002E-002  0.38459217705328697E-002  0.17225402520340324E-002  0.59140823166438036E-003  0.97080480504899472E-003  0.25853839420327388E-002  0.42960615000257338E-002  0.40313966720863402E-002  0.62068318292500656E-002  0.73858062651263679E-002  0.90305141999969009E-002  0.10418154781558621E-001  0.10583551359696254E-001  0.10215724764136399E-001  
0.10275653339684773E-001  0.10309822465679417E-001 -0.10218938127035514E-002  0.23258187399353465E-007 -0.13387809406652303E-006 -0.87008779712442232E-007  0.10029130189842293E-006  0.14075734845720942E-006 -0.15974970670063531E-007 -0.12466365541425809E-006 -0.49001007413538844E-007 -0.16235945412958575E-004 -0.32312781908646895E-005  </sparseX_slice>
        <sparseX_slice start="201" end="250">  0.19102776128695588E-004  0.11831897670621972E-004 -0.13299157432696024E-004 -0.17577420205343247E-004  0.23266074977224326E-005  0.14924639321090769E-004  0.56689994792843428E-005 -0.12531002915084968E-003  0.23696564627926528E-004  0.18788461859952607E-003  0.67785107786017784E-004 -0.84659781600308310E-004 -0.42310870512112731E-004  0.55414610977658550E-004  0.69909856645657267E-004  0.21003463195145080E-004 -0.22580493524450683E-003  0.21564391960272034E-003  0.46600280048807066E-003  0.12627863483901934E-004 -0.80112751817197251E-004  0.29529073059345371E-003  0.24828264994841448E-003 -0.52516376251061316E-004 -0.54756093098092721E-004 -0.54274759928049723E-004 -0.12577849980828249E-003 -0.17066127910368524E-003 -0.14027388649062836E-003 -0.78048520826994849E-004 -0.48213710752837025E-004 -0.46334933327168068E-004 -0.47445989027045148E-004 -0.67488108260204473E-004 -0.67415550042322240E-004 -0.22406956392223746E-003 -0.36961667962269782E-003 
-0.36952285650942811E-003 -0.33178218220119605E-003 -0.39320017959970405E-003 -0.46244079046245319E-003 -0.41446959758615687E-003 -0.33149573297591316E-003  0.56368260893026761E-006  0.57338427493722126E-005  0.10831597827925483E-004  0.96223872561542277E-005  0.72119166489676909E-005  0.98428224987297673E-005  0.13154494793233278E-004  </sparseX_slice>
        <sparseX_slice start="251" end="300">  0.11255437754816003E-004  0.77909711236963017E-005  0.35079390390451493E-004 -0.81214866298013504E-009  0.45720904577671947E-008  0.29874158106651278E-008 -0.34042456728471830E-008 -0.48000214162358152E-008  0.52800351463395539E-009  0.42344461700030288E-008  0.16730543944553766E-008  0.55734466773257400E-006  0.11301818848668124E-006 -0.65227221570873850E-006 -0.40623512436302563E-006  0.45142411380220420E-006  0.59945246640614000E-006 -0.77226284123328769E-007 -0.50693805894982797E-006 -0.19358033955973417E-006  0.43016205576114218E-005 -0.77475065769709470E-006 -0.63948112406650186E-005 -0.23216940294302982E-005  0.28767258869876315E-005  0.14495158873970033E-005 -0.18727408579299659E-005 -0.23736876125599432E-005 -0.72094334338018031E-006  0.77513919519449764E-005 -0.72496947610633921E-005 -0.15797510848883179E-004 -0.40699517365519326E-006  0.27351231180687059E-005 -0.10034643780112789E-004 -0.84349642674168781E-005  0.17894301368824849E-005  
0.18497622518333756E-005  0.18631343767773774E-005  0.42935707459956490E-005  0.58064799311381193E-005  0.47654856910308881E-005  0.26480226314563203E-005  0.16321965927389276E-005  0.15709582033777851E-005  0.16182615397811005E-005  0.23062604019679495E-005  0.23142290998562787E-005  0.76292792434688973E-005  0.12558826266599094E-004  </sparseX_slice>
        <sparseX_slice start="301" end="325">  0.12567048043347331E-004  0.11301361048995658E-004  0.13380208830725923E-004  0.15719978901873240E-004  0.14099698875512800E-004  0.11294616529358533E-004 -0.27365028306691069E-007 -0.27551206512169871E-006 -0.52010834851603556E-006 -0.46225031246158337E-006 -0.34673751168201231E-006 -0.47289189854765238E-006 -0.63166446483390592E-006 -0.54060610065381336E-006 -0.37448601599136430E-006  0.66424328368683281E-009  0.66192711115933995E-008  0.12487240201630777E-007  0.11103089999474855E-007  0.83353820459133490E-008  0.11359981239687066E-007  0.15165998037142118E-007  0.12982936484150858E-007  0.90002662298971710E-008  0.00000000000000000E+000  </sparseX_slice>
      </sparseX>
      <sparseX i="4" alpha="-359.71848964196647" sparseCutoff="1.0000000000000000" sliced="T">
        <sparseX_slice start="1" end="50">  0.77663078748589309E+000  0.75909171616132952E-011  0.21889350789408134E-012  0.15963888755953659E-011  0.21863701264099558E-011  0.83865747901142916E-011  0.11067847074883557E-010  0.97210347402557406E-011  0.42808527851307070E-011 -0.40633454355280715E-003 -0.75344789884593878E-009 -0.21855417916963863E-010 -0.15865769286540779E-009 -0.21699986193656857E-009 -0.83333444028194150E-009 -0.11001753737812832E-008 -0.96667796276489941E-009 -0.42570288842653620E-009  0.10629746073984170E-006  0.37392304391533607E-007  0.10911034168891183E-008  0.78842125070669410E-008  0.10768807832386722E-007  0.41402297802178418E-007  0.54680300923767138E-007  0.48064161704419639E-007  0.21166709990631072E-007  0.28572231039549669E-001  0.53013330551656292E-007  0.15269780295163195E-008  0.11129882759916904E-007  0.15260860654101747E-007  0.58516303025394564E-007  0.77193638971075264E-007  0.67791583223818066E-007  0.29834857904067474E-007 -0.10570567328957347E-004 
-0.37207381130434383E-005 -0.10780552036447961E-006 -0.78216463804388155E-006 -0.10710264383298039E-005 -0.41114653328019966E-005 -0.54258194126898138E-005 -0.47668359411995860E-005 -0.20979041516299496E-005  0.52558590242099716E-003  0.18511686968935719E-003  0.53260855040378527E-005  0.38798310969370714E-004  0.53260437866804076E-004  </sparseX_slice>
        <sparseX_slice start="51" end="100">  0.20414522989765417E-003  0.26919689099727127E-003  0.23637916012125414E-003  0.10396522873071523E-003  0.25909182770576550E+000  0.47274740641822872E-006  0.16870947386499459E-007  0.10152730566957906E-006  0.13416288529059603E-006  0.53720761291641839E-006  0.71483533608858269E-006  0.63693471616620611E-006  0.27723262262318499E-006 -0.95853474142618985E-004 -0.33179899171452589E-004 -0.11920093119307685E-005 -0.71383788616253420E-005 -0.94182282773903804E-005 -0.37746802053055875E-004 -0.50245763921617923E-004 -0.44787921509696732E-004 -0.19495412926082781E-004  0.67401299067512896E-002  0.23345761201162760E-002  0.83216292961997378E-004  0.50053304474334103E-003  0.66221341954357884E-003  0.26504723410512463E-002  0.35254507839253941E-002  0.31408705536433916E-002  0.13663052918428500E-002  0.43217817440139389E-001  0.14725954191606114E-001  0.66750728814729901E-003  0.32982037245932747E-002  0.41709942742444855E-002  0.17240016084084580E-001  
0.23112151830792002E-001  0.20896682028250135E-001  0.90110133694342922E-002  0.49741359704692240E+000  0.88851441065505602E-006  0.40415737324031893E-007  0.19233440899851587E-006  0.22297587615495205E-006  0.10052662029827875E-005  0.13906316890657252E-005  0.13020221456190487E-005  0.56582947664146158E-006 -0.18402286859032143E-003  </sparseX_slice>
        <sparseX_slice start="101" end="150"> -0.62361028694162966E-004 -0.28585909972760327E-005 -0.13536817326567504E-004 -0.15663100534165234E-004 -0.70640844457794044E-004 -0.97751751281231094E-004 -0.91560085473675607E-004 -0.39794429456020400E-004  0.12939938288165823E-001  0.43878129825229142E-002  0.19934290668411719E-003  0.94825640677159706E-003  0.11007348261736667E-002  0.49598592402437013E-002  0.68585161426819655E-002  0.64207460418210360E-002  0.27888972677313512E-002  0.11733883352825983E+000  0.39161672559504861E-001  0.23443756459184846E-002  0.92284834368427972E-002  0.10115894532480836E-001  0.45805786064883676E-001  0.63733443425473255E-001  0.60572999913673528E-001  0.26186231508838267E-001  0.15929080491909564E+000  0.52114409107425166E-001  0.43216218690306091E-002  0.14020707396183083E-001  0.13160368439355089E-001  0.61343737543577866E-001  0.88332062232218053E-001  0.88266353859649274E-001  0.38516466843010251E-001  0.31519086487453031E-001  0.12513776421492432E-006 
-0.19013091084355342E-007 -0.15936439625166761E-007 -0.90980447232549790E-007 -0.23454569547555105E-006 -0.13840264609683570E-006  0.43192659906595519E-007  0.80930161505863613E-007 -0.11660784395928751E-004 -0.87819357661048467E-005  0.13424094752741859E-005  0.11166634893453362E-005  0.63853485404726359E-005  0.16480568777745973E-004  </sparseX_slice>
        <sparseX_slice start="151" end="200">  0.97278596219013934E-005 -0.30382299333736297E-005 -0.56910887242936288E-005  0.81995151814985351E-003  0.61788356334473128E-003 -0.93758400196777497E-004 -0.78653235732890626E-004 -0.44907332230422674E-003 -0.11572345114154927E-002 -0.68262956757506781E-003  0.21297504853664593E-003  0.39880861100714002E-003  0.74352869810376185E-002  0.54717467037602692E-002 -0.10323059828600037E-002 -0.64058487926217417E-003 -0.39592482523540095E-002 -0.10657839421803988E-001 -0.63222956434581352E-002  0.20306769702180352E-002  0.37108293151393240E-002  0.14274525271843513E-001  0.10175412078919869E-001 -0.23632340947702230E-002 -0.66652881219673348E-003 -0.65275235177128226E-002 -0.19974301719496448E-001 -0.11762474851466215E-001  0.46122869112447526E-002  0.76751890188623629E-002  0.63959144358643474E-003  0.11949117628393406E-002  0.12291389443080552E-002  0.11190120762536195E-002  0.23023743929550533E-002  0.36972444767076913E-002  0.31028904647977151E-002  
0.15502834595418401E-002  0.11081855361195934E-002  0.30996013454980573E-002  0.91203174055331304E-008 -0.88395570086520868E-009 -0.25473556376317528E-009 -0.41240062042855059E-008 -0.94716926381069899E-008 -0.32585828063969390E-008  0.62481957299969202E-008  0.61433347051069461E-008 -0.11467268576318498E-005 -0.64006906141063228E-006  </sparseX_slice>
        <sparseX_slice start="201" end="250">  0.62390982142473966E-007  0.17674973519683396E-007  0.28940245473928315E-006  0.66552493765879561E-006  0.22900987591969705E-006 -0.43942631231630865E-006 -0.43201868148226536E-006  0.80634406390939591E-004  0.45035474872963927E-004 -0.43581603873064748E-005 -0.12608116050331435E-005 -0.20356349342016916E-004 -0.46733093559431694E-004 -0.16073271760538904E-004  0.30810497419185294E-004  0.30275419057374783E-004  0.73118951400328832E-003  0.39992382119547094E-003 -0.47268035871499173E-004 -0.60167509104858502E-005 -0.17856974937374137E-003 -0.43011198246394798E-003 -0.14831536608013939E-003  0.29169650752585634E-003  0.28246604200309652E-003  0.14037633278669150E-002  0.74704092707497227E-003 -0.10543288166313452E-003  0.22934012240325196E-004 -0.29013947411603253E-003 -0.80388781761552962E-003 -0.25745274268364053E-003  0.62352574734338584E-003  0.58506547871209390E-003  0.88950800705149178E-004  0.11745960307021600E-003  0.82559658889051548E-004  
0.79245975752999996E-004  0.15096483571001184E-003  0.21753766555490848E-003  0.19904172226880573E-003  0.13106781470902934E-003  0.10749510064633126E-003  0.61853899277640208E-005  0.58933469735022101E-005  0.28629811423091081E-005  0.30198365903799521E-005  0.50461333356976860E-005  0.65036228837523152E-005  0.70262954255696532E-005  </sparseX_slice>
        <sparseX_slice start="251" end="300">  0.63786345467802969E-005  0.54604443953633979E-005 -0.10526300331273561E-003 -0.30967570018925668E-009  0.30002349959197487E-010  0.86299377648224915E-011  0.13997018497879748E-009  0.32142510869260990E-009  0.11048478177122615E-009 -0.21221174987314950E-009 -0.20858378282607939E-009  0.38943044462483424E-007  0.21733217022475652E-007 -0.21176127513124376E-008 -0.59877609916683553E-009 -0.98224171096118213E-008 -0.22584814397359230E-007 -0.77647559944283219E-008  0.14924535904653962E-007  0.14668270048371528E-007 -0.27383585309697575E-005 -0.15291564506510805E-005  0.14792039495560221E-006  0.42714113074359303E-007  0.69090142875568099E-006  0.15859034182474902E-005  0.54497684540088422E-006 -0.10464380632153922E-005 -0.10279370713827090E-005 -0.24831323662494494E-004 -0.13579216028966463E-004  0.16043228663390158E-005  0.20341297200147066E-006  0.60606683705057859E-005  0.14595981920970320E-004  0.50287071155093407E-005 -0.99070714768575241E-005 
-0.95905387603832772E-005 -0.47672047905827851E-004 -0.25365419902113567E-004  0.35784482628204927E-005 -0.78031087308415846E-006  0.98471130897706150E-005  0.27280067422820808E-004  0.87277469805026565E-005 -0.21176791164629790E-004 -0.19864674075952877E-004 -0.30207847350744001E-005 -0.39881840844548978E-005 -0.28023781269432941E-005  </sparseX_slice>
        <sparseX_slice start="301" end="325"> -0.26900455355926590E-005 -0.51239935475471748E-005 -0.73825422376315891E-005 -0.67554096139737488E-005 -0.44495355533541072E-005 -0.36496332811157073E-005 -0.29706534905521052E-006 -0.28298492885282665E-006 -0.13742932666779543E-006 -0.14496976116100793E-006 -0.24221508379310195E-006 -0.31213516899071756E-006 -0.33727379853503303E-006 -0.30626038055240973E-006 -0.26217706912993781E-006  0.71335698023806793E-008  0.67941419043705916E-008  0.32984535845453436E-008  0.34796971557776020E-008  0.58131786146335583E-008  0.74903148645670706E-008  0.80948508445254973E-008  0.73523125661442873E-008  0.62940682278304688E-008  0.00000000000000000E+000  </sparseX_slice>
      </sparseX>
      <sparseX i="5" alpha="-218.56627919633007" sparseCutoff="1.0000000000000000" sliced="T">
        <sparseX_slice start="1" end="50">  0.83522278812327666E+000  0.14346525821215374E-009  0.17059517665831295E-009  0.87989562466034647E-010  0.10391774103613215E-009  0.12511601322761720E-009  0.73383888779945554E-010  0.51481106953341991E-010  0.50727344465627024E-010  0.10449952004538310E-002 -0.22580590053704745E-007 -0.27021569208314218E-007 -0.16756407916257557E-007 -0.18370245389631063E-007 -0.20238820291972289E-007 -0.12449501238798952E-007 -0.86162982200015580E-008 -0.79154385050695212E-008  0.65372675680058415E-006  0.18246886962743969E-005  0.21678955049921274E-005  0.16449438152442457E-005  0.16719120638749671E-005  0.16611024411990228E-005  0.11217250968666962E-005  0.79996041135692574E-006  0.65930507833603574E-006  0.67933872841888482E-001 -0.24655924043174545E-006 -0.32017161460691008E-006 -0.58792157426878307E-006 -0.48480998470546675E-006 -0.30485179532668238E-006 -0.26714641108208343E-006 -0.17107014775280369E-006 -0.83243185827391665E-007  0.60101226782008455E-004  
0.37500414271313743E-004  0.41739161192840008E-004  0.89633190291613793E-004  0.70814439668252506E-004  0.39996309706562494E-004  0.46002215277387514E-004  0.37039976181577869E-004  0.18081890188033755E-004  0.27627425549940268E-002  0.12734821868144116E-002  0.92112638492195019E-003  0.30718350903207142E-002  0.22130411469297325E-002  </sparseX_slice>
        <sparseX_slice start="51" end="100">  0.91484965809786789E-003  0.19683323634467321E-002  0.20713105162118543E-002  0.10163900118230088E-002  0.37452377963714467E+000 -0.55993805889183402E-006 -0.77971919475057420E-006 -0.28585297606283436E-005 -0.22101702534106844E-005 -0.10056256136526285E-005 -0.10414421942716886E-005 -0.63358016261785229E-006 -0.17420829805451752E-006  0.33134190166981886E-003  0.11964315537364527E-003  0.11808034861586676E-003  0.44381261241623488E-003  0.33325719065626291E-003  0.14203831880915126E-003  0.20407669945822149E-003  0.17180103531810916E-003  0.70101459191706643E-004  0.21540135883352778E-001  0.92355112305408608E-002  0.56253451257859636E-002  0.22320903619714842E-001  0.15830247776053175E-001  0.57827030566893799E-002  0.14568552248401428E-001  0.16059472307447094E-001  0.78710460443550730E-002  0.83970446872547067E-001  0.35812904341899564E-001  0.18929920410969813E-001  0.81690152671124408E-001  0.57390045193095325E-001  0.19399635766849731E-001  
0.55356931445953987E-001  0.63510505820593602E-001  0.31567223637687949E-001  0.17869463875547598E+000  0.69038876366788886E-006  0.10694086481345513E-005 -0.27335101935238025E-006 -0.14057235531824676E-006  0.60796281414747314E-006  0.49852454145435552E-006  0.42739897650886967E-006  0.33380047785682912E-006  0.15809148749060760E-003  </sparseX_slice>
        <sparseX_slice start="101" end="150"> -0.58781045547356263E-004 -0.12748525173330872E-003  0.47143330456222193E-004  0.23139932899627835E-004 -0.72274818740598017E-004 -0.43268914190071496E-004 -0.23038586584803376E-004 -0.23828411265516837E-004  0.10277336205857947E-001  0.18538869285858318E-002 -0.25715591118227344E-002  0.28394526015862857E-002  0.12985025243069594E-002 -0.14538408761989969E-002  0.12042754270233681E-002  0.31455895530704209E-002  0.15793801132961854E-002  0.56659610874506272E-001  0.15275393907152685E-001 -0.81088166373863239E-002  0.16777328102154022E-001  0.83324221429418085E-002 -0.33934567712659985E-002  0.11313990400514900E-001  0.21957801866242330E-001  0.12457352847546784E-001  0.19115722400067595E-001  0.11830375941158624E-001  0.10525574468621677E-001  0.10698391349878853E-001  0.71819901138712502E-002  0.11378530703474546E-001  0.12691975180745736E-001  0.14567628110540101E-001  0.11887797625431367E-001  0.27145163358670527E+000 -0.86676883564568404E-006 
-0.70505373648264269E-006  0.74103269739543191E-007  0.25533762292184905E-006  0.18088391986615741E-006 -0.43488977379075721E-007  0.13854388220384649E-006  0.94529629436219087E-007  0.24015377760829736E-003  0.11403911618979688E-003  0.75279138268746112E-004 -0.15618056474881014E-004 -0.47375409824975699E-004 -0.73884835852063454E-005  </sparseX_slice>
        <sparseX_slice start="151" end="200"> -0.65109000038729893E-005 -0.38390484640289688E-004 -0.17529357379187822E-004  0.15612106336427173E-001  0.36770011971218324E-002  0.39296411397256472E-003 -0.11929553836837877E-002 -0.31622403747889960E-002  0.16846245732328958E-002 -0.16514265444736659E-002 -0.36355735148702888E-002 -0.11801590134879131E-002  0.86070539314378025E-001  0.16217673734139213E-001 -0.69537182772758707E-003 -0.45775183366995997E-002 -0.16954961939514079E-001  0.96989508522459331E-002 -0.10491649534317676E-001 -0.20088360865311624E-001 -0.65242512269386849E-002  0.41066401565136766E-001 -0.40946764799061706E-002  0.18358818075670063E-002  0.14761741358528251E-001  0.19123879004553338E-002  0.60386988655788815E-002 -0.28340016401260573E-002  0.23746315103006107E-002  0.33163823901828432E-002  0.44111577428617189E-001  0.83950066568082380E-002  0.22304272402636674E-001  0.20878457976722054E-001  0.20787211391809723E-001  0.25429160526271647E-001  0.20743940058333785E-001  
0.27170391662806055E-001  0.22987971632482684E-001  0.75941485120949734E-003  0.15521214180457659E-007 -0.31721108802155327E-007 -0.49835187410861419E-008 -0.14073567788829055E-007  0.54608916691895582E-008  0.20317481941642468E-007  0.31797124126458031E-008  0.13286417329719932E-007  0.67185576627429068E-006 -0.19036632720057595E-005  </sparseX_slice>
        <sparseX_slice start="201" end="250">  0.41983671172889648E-005  0.63005198040638406E-006  0.13439681628402972E-005 -0.84643760907034303E-006 -0.24130761104552190E-005 -0.23646470420310898E-006 -0.16590292012174317E-005  0.43676529972908434E-004 -0.45175199937281290E-004  0.13828782345346071E-003  0.17461315924659508E-004 -0.15696184881427798E-004 -0.42702688247620827E-004 -0.48591293912741993E-004  0.13574645259242562E-004 -0.44580607848062930E-004  0.24079149918275104E-003 -0.18147929833215934E-003  0.64447391719582451E-003  0.58732891685664650E-004 -0.13525089408568982E-003 -0.21698812273665408E-003 -0.18346426148529489E-003  0.96440611907898244E-004 -0.21667462859807133E-003  0.11488763144369305E-003  0.64380452169267961E-004 -0.11202331387327593E-003 -0.17698761790468169E-003 -0.86474040058130043E-004 -0.67361637755546569E-004  0.12620676280562156E-003  0.22242954870089968E-004 -0.67489423898154687E-004  0.17452362002294330E-003 -0.14828925625480453E-003 -0.36516961503150423E-003 
-0.33597902892256853E-003 -0.29942722285340452E-003 -0.33176006985941861E-003  0.15283100116276043E-003 -0.29263497963734965E-003  0.12904816190831690E-003  0.34524376276502049E-006  0.14213345107030459E-005  0.18335747155510289E-004  0.37568024266635320E-005  0.19669689183312298E-004  0.38620831949473365E-005  0.15811265349384658E-004  </sparseX_slice>
        <sparseX_slice start="251" end="300">  0.45222170608613268E-005  0.15892796191551047E-004 -0.25536011154143500E-004 -0.52899823719615142E-009  0.10757230334005390E-008  0.16964638181020224E-009  0.47782946762166064E-009 -0.18474660613502736E-009 -0.68918706884229802E-009 -0.10778408045420083E-009 -0.45089855187250888E-009 -0.22591757738515705E-007  0.64858933167225090E-007 -0.14238680131665901E-006 -0.21442401377634191E-007 -0.45665251567923127E-007  0.28674456808747285E-007  0.81850782773101621E-007  0.79931859652817976E-008  0.56294358528102652E-007 -0.14686628195196987E-005  0.15363544501062782E-005 -0.46914163114891591E-005 -0.59358035419352205E-006  0.52775347711055004E-006  0.14504830858123244E-005  0.16478192573729439E-005 -0.46350903641898532E-006  0.15117462604109890E-005 -0.80968319215255935E-005  0.61668136387845631E-005 -0.21864912957525669E-004 -0.19953286525773732E-005  0.45627673336818333E-005  0.73726606623698412E-005  0.62190355360695035E-005 -0.32876835343967490E-005  
0.73456251880097679E-005 -0.38632005067411348E-005 -0.21975877694438537E-005  0.38064488848049976E-005  0.60185411893680226E-005  0.29308036406780948E-005  0.22906743971258409E-005 -0.42864418571358555E-005 -0.74993508009624888E-006  0.22888780669487998E-005 -0.58685145549490232E-005  0.50466435158172992E-005  0.12417650529539138E-004  </sparseX_slice>
        <sparseX_slice start="301" end="325">  0.11416390645896286E-004  0.10176203615625744E-004  0.11287301046621209E-004 -0.51541696450786043E-005  0.99528012142216035E-005 -0.43476041441873869E-005 -0.16417794391883342E-007 -0.68433620979673371E-007 -0.87998295060699665E-006 -0.18052531724809555E-006 -0.94377703472449194E-006 -0.18573121619101501E-006 -0.75843741978651468E-006 -0.21732853761492812E-006 -0.76239066350542986E-006  0.39036762103304515E-009  0.16474556534571835E-008  0.21116421067095949E-007  0.43373905893038373E-008  0.22641835608650925E-007  0.44660091271522686E-008  0.18190455154914265E-007  0.52222009583322423E-008  0.18286288229083401E-007  0.00000000000000000E+000  </sparseX_slice>
      </sparseX>
      <sparseX i="6" alpha="735.11803701328165" sparseCutoff="1.0000000000000000" sliced="T">
        <sparseX_slice start="1" end="50">  0.95011592913722076E+000  0.25733399711776224E-010  0.11318780973411947E-010  0.60461387552370097E-011  0.14838780258814694E-010  0.24186361647209271E-010  0.24394572703639826E-010  0.18439863066949790E-010  0.12644046391563028E-010 -0.45623768435458181E-003 -0.24294464764516476E-008 -0.10522797529372463E-008 -0.55926037941300568E-009 -0.14090221763511230E-008 -0.23015387448779400E-008 -0.23175438369982157E-008 -0.17524249503336873E-008 -0.12080321632585379E-008  0.10954075089249897E-006  0.11470757498832342E-006  0.48980892705768391E-007  0.25975930905731859E-007  0.67013356033272738E-007  0.10957208593195237E-006  0.11011510029416231E-006  0.83298106096966184E-007  0.57748840062657884E-007  0.36452926922586504E-001  0.19648170337818161E-006  0.88782021461706996E-007  0.47829503679561546E-007  0.11210211003098312E-006  0.18199021200460421E-006  0.18406772451515833E-006  0.13900574392905270E-006  0.94364951573425151E-007 -0.12377472272866277E-004 
-0.13110768908973316E-004 -0.58224730866272090E-005 -0.31054548475577436E-005 -0.75028805475801977E-005 -0.12231858971043969E-004 -0.12359144222370008E-004 -0.93354998381801515E-005 -0.63669418114235166E-005  0.69929144458724104E-003  0.75068703724766339E-003  0.34963311709692668E-003  0.19155877604422268E-003  0.42593770943357486E-003  </sparseX_slice>
        <sparseX_slice start="51" end="100">  0.68611541577703514E-003  0.69504769476204582E-003  0.52451050462933209E-003  0.35296373134513010E-003  0.24397804495166725E+000  0.12999386232769576E-005  0.56403436783876216E-006  0.29884003353751706E-006  0.74882559171926312E-006  0.12189973102895513E-005  0.12197708299719173E-005  0.91365365594550736E-006  0.62537603830283194E-006 -0.82841948274564302E-004 -0.86786807037671776E-004 -0.37088150824970265E-004 -0.19563429973568793E-004 -0.50305159679198175E-004 -0.82041359163751958E-004 -0.81955177485397402E-004 -0.61419489978145963E-004 -0.42286415463524025E-004  0.66189874053244812E-002  0.70173605744109904E-002  0.31271239000868604E-002  0.16692640323174239E-002  0.39964558886473522E-002  0.64832477428483967E-002  0.65060222742148264E-002  0.48670883771508777E-002  0.32950406409847028E-002  0.31325275470589865E-001  0.32846669269204591E-001  0.14079176304434712E-001  0.74097928144570670E-002  0.18912189527714042E-001  0.30736184181714563E-001  
0.30521967512504189E-001  0.22666012771699308E-001  0.15497596713273196E-001  0.15079480301610870E+000  0.72107195550911930E-006  0.18795733385770467E-006  0.64500062207715628E-007  0.40777036546364218E-006  0.66212287505654046E-006  0.59193950282491293E-006  0.42659331022493225E-006  0.34371326500064579E-006 -0.51201882833384942E-004  </sparseX_slice>
        <sparseX_slice start="101" end="150"> -0.48334940022361995E-004 -0.12803009056259278E-004 -0.50151371940615502E-005 -0.28311215422521425E-004 -0.45104476047270458E-004 -0.40021437007340920E-004 -0.28975143246537739E-004 -0.23708002259646538E-004  0.40909783589328222E-002  0.38647002115420885E-002  0.97820550728560068E-003  0.24496980297011948E-003  0.20422690018154720E-002  0.34426845020975191E-002  0.31218781367511762E-002  0.22303693489535118E-002  0.17443948077987914E-002  0.27380761607199620E-001  0.25924938707763301E-001  0.69131957475228002E-002  0.25201408440181533E-002  0.14775012965129369E-001  0.23797526815415675E-001  0.21202129724260405E-001  0.15297329520822247E-001  0.12459906610158120E-001  0.11966472679452852E-001  0.11533722426313136E-001  0.43226292833595239E-002  0.40498529964576634E-002  0.96328116663134625E-002  0.11770724006633430E-001  0.91736655019242514E-002  0.75209249147187530E-002  0.82629349547434436E-002  0.58591161909859045E-001  0.25779700632928918E-006  
0.49968380448374028E-007 -0.26423552852819458E-007 -0.89047781094771410E-007 -0.24049471647513510E-006 -0.26612322051608572E-006 -0.67058562616185716E-007  0.11548959738421924E-006 -0.19894437654194325E-004 -0.17088045582979624E-004 -0.30393871286246592E-005  0.18406882812715096E-005  0.58128701298549631E-005  0.16088562728101613E-004  </sparseX_slice>
        <sparseX_slice start="151" end="200">  0.17959576189166683E-004  0.44836220918411346E-005 -0.79069971225150310E-005  0.15895453331528728E-002  0.14107059598739442E-002  0.31452594422906772E-003 -0.13151111860795409E-003 -0.50131061896432254E-003 -0.12940401078621519E-002 -0.14079615315755467E-002 -0.36077385907908933E-003  0.59447209748570795E-003  0.10638766087789565E-001  0.93957075114177203E-002  0.20062464649364064E-002 -0.96459115573742078E-003 -0.33925905562008354E-002 -0.86915882374090179E-002 -0.94391982069413263E-002 -0.23388742347180192E-002  0.41266161159184932E-002  0.65754713169395860E-002  0.60996219575535403E-002  0.19122380374347390E-002  0.33357053108926777E-003 -0.81680752806653181E-003 -0.36783690130761820E-002 -0.39275259048762723E-002  0.51081351473004780E-003  0.44468789526197049E-002  0.18065817805331815E-002  0.33646175945785325E-002  0.45492935151620600E-002  0.52953960426105904E-002  0.57899353346634128E-002  0.61891959952637497E-002  0.63012852137209214E-002  
0.60350756462366189E-002  0.56703679808633427E-002 -0.11335711560844981E-003 -0.42786556640572674E-009 -0.25666145074268157E-010  0.19045086860456629E-009  0.83087594588639078E-009  0.17392972315686410E-008  0.17314785575645967E-008  0.72977691807410585E-009 -0.39757480647825806E-010  0.38490038354268044E-007  0.27788193747239128E-007  </sparseX_slice>
        <sparseX_slice start="201" end="250">  0.87162301880372865E-010 -0.13808174131247836E-007 -0.56050019904382416E-007 -0.11722484912175182E-006 -0.11692623588543352E-006 -0.49285134420590389E-007  0.25376600384916803E-008 -0.30753149147698065E-005 -0.24276308900524067E-005 -0.38205232964716863E-006  0.86900480515535084E-006  0.44063041022174049E-005  0.92297833464061884E-005  0.91505259088231943E-005  0.38559204700187005E-005 -0.23071397347459652E-006 -0.20582965041727374E-004 -0.15978624282310398E-004 -0.17299273795316920E-005  0.71192035123334773E-005  0.30829464039878787E-004  0.62710550583335055E-004  0.61630420403361772E-004  0.25902184690855254E-004 -0.12348316126221088E-005 -0.12721653538823969E-004 -0.10972668856795409E-004 -0.22916723436132139E-005  0.45693185870819845E-005  0.18186747390141805E-004  0.33598611101599905E-004  0.30105224875689766E-004  0.96323951457345927E-005 -0.33674242369177094E-005 -0.49429850853330889E-005 -0.15644997734784827E-004 -0.27550697651122926E-004 
-0.33413159514561465E-004 -0.36839018484747937E-004 -0.41180333515594105E-004 -0.40631581442910744E-004 -0.32532254435871765E-004 -0.24310015756641437E-004  0.67622461980698025E-008  0.43243061777159401E-007  0.87860191518838278E-007  0.10995929114055877E-006  0.12819360897782412E-006  0.14942940292229766E-006  0.14035806518145255E-006  </sparseX_slice>
        <sparseX_slice start="251" end="300">  0.96624439593842037E-007  0.59956791662987731E-007  0.38509404357616784E-005  0.14531670333061989E-010  0.86818428200714328E-012 -0.64775391801378411E-011 -0.28262221068204716E-010 -0.59157407465691778E-010 -0.58889724214803113E-010 -0.24824942825628826E-010  0.13432360806582135E-011 -0.13075742468999440E-008 -0.94373931033674866E-009 -0.26541786579624381E-011  0.46964568605436860E-009  0.19065588774502522E-008  0.39870920043806037E-008  0.39768067593549555E-008  0.16765445575960147E-008 -0.85692621583465440E-010  0.10447385234196311E-006  0.82455428920185793E-007  0.12967326742963926E-007 -0.29555143824788428E-007 -0.14987744846585674E-006 -0.31392397534033563E-006 -0.31122054541531923E-006 -0.13116692443797460E-006  0.78010809693933504E-008  0.69923949583230710E-006  0.54270874167072426E-006  0.58656197056525214E-007 -0.24213784784595853E-006 -0.10486546233013678E-005 -0.21329247960981556E-005 -0.20961297569570910E-005 -0.88112252692433846E-006  
0.41675252099539668E-007  0.43217692828059271E-006  0.37271966570229854E-006  0.77779560776240969E-007 -0.15550727146068435E-006 -0.61873296139972441E-006 -0.11428563973743725E-005 -0.10239799466518392E-005 -0.32778865081129083E-006  0.11421043558755007E-006  0.16792189035777802E-006  0.53183785674017310E-006  0.93677019106287149E-006  </sparseX_slice>
        <sparseX_slice start="301" end="325">  0.11361477873494668E-005  0.12526614413039445E-005  0.14003443635227786E-005  0.13816860657084226E-005  0.11061709836799652E-005  0.82648881233364259E-006 -0.32488075876974657E-009 -0.20792140066379469E-008 -0.42249642937765379E-008 -0.52878134143522346E-008 -0.61649699585862121E-008 -0.71865020529936901E-008 -0.67501764782846983E-008 -0.46466199977513432E-008 -0.28830391794894518E-008  0.78041751458955649E-011  0.49986416375231129E-010  0.10158368311773773E-009  0.12714237652350921E-009  0.14824005706414698E-009  0.17281007667648011E-009  0.16231658443842817E-009  0.11172679664056232E-009  0.69315879684032592E-010  0.00000000000000000E+000  </sparseX_slice>
      </sparseX>
      <sparseX i="7" alpha="1197.0429264380246" sparseCutoff="1.0000000000000000" sliced="T">
        <sparseX_slice start="1" end="50">  0.89646317502152439E+000  0.13103666179189375E-010  0.26350440369458693E-011  0.26821375062718207E-010  0.39060770987837632E-010  0.30585603718403237E-010  0.11317751494108788E-010  0.22252853835706230E-010  0.29162414113176768E-010 -0.46816812935354619E-003 -0.10694926566818519E-008 -0.29973358666761675E-009 -0.21818122944799573E-008 -0.30724308799592416E-008 -0.25208912081091484E-008 -0.10254603745041249E-008 -0.18495621658810642E-008 -0.24546974220685532E-008  0.12224785325796351E-006  0.51658544296914562E-007  0.25789870770842227E-007  0.96676399991732647E-007  0.12607143050368061E-006  0.10962109415624986E-006  0.53190381570402370E-007  0.80455866672809605E-007  0.10530368442556078E-006  0.60633784530035949E-001  0.12509487683703007E-006  0.12524949126122162E-007  0.25747001221477101E-006  0.39061917815351945E-006  0.28897781443609321E-006  0.92908503205625280E-007  0.20765520212091367E-006  0.26760951757342801E-006 -0.22390772102802562E-004 
-0.55154176388671817E-005  0.86232299248076294E-006 -0.13117400677021504E-004 -0.20611043996853859E-004 -0.15617398822892205E-004 -0.45176159211751946E-005 -0.11436720355414260E-004 -0.15502507726594856E-004  0.20505336576410703E-002  0.77830519890359311E-003  0.22970131979798948E-003  0.14162469232621784E-002  0.20718625877048876E-002  </sparseX_slice>
        <sparseX_slice start="51" end="100">  0.14958640178282243E-002  0.53422866891097737E-003  0.10508856610701330E-002  0.12732693908822144E-002  0.38006882413859411E+000  0.74751145641545652E-006  0.11103707485596725E-006  0.15939913343969955E-005  0.23614210442696373E-005  0.18486082871603999E-005  0.60388478372960900E-006  0.12763774722529522E-005  0.16712207037878539E-005 -0.14035136501255042E-003 -0.35184556401526334E-004  0.17624415770611700E-005 -0.83020961866296411E-004 -0.12604539351938917E-003 -0.10138649445285801E-003 -0.31915538382926262E-004 -0.71060448064028169E-004 -0.97409740324505030E-004  0.18177304030537481E-001  0.62427199151575243E-002  0.19903373380289564E-002  0.12127775586762281E-001  0.17496703440970283E-001  0.13309803931347328E-001  0.45270791292727703E-002  0.90208376886621883E-002  0.11156178066346938E-001  0.80567900114037153E-001  0.25319005598345899E-001  0.88831855048468952E-002  0.52265841344515854E-001  0.74214439889269498E-001  0.59470336582215996E-001  
0.19650995173503494E-001  0.38950511854009801E-001  0.49092071067487759E-001  0.13720193855517646E+000  0.54409389198602269E-007  0.18108038676197694E-006  0.43575329909433885E-006  0.36240869886490785E-006  0.80418607835787763E-006  0.27781838977314871E-006  0.27357737997086145E-006  0.49394525466804757E-006 -0.50665769291208959E-004  </sparseX_slice>
        <sparseX_slice start="101" end="150"> -0.10759038315308125E-004 -0.11599225181300244E-004 -0.28121112150126456E-004 -0.24562358237779708E-004 -0.48626146287767231E-004 -0.23638221781241958E-004 -0.17331084877507902E-004 -0.30858575969914085E-004  0.65618677257967576E-002 -0.77639129018421658E-003  0.10572266500167760E-002  0.25036585214316333E-002  0.19056603476869341E-002  0.51107876692890481E-002  0.73821972249608501E-003  0.16227877599090928E-002  0.29906611748794889E-002  0.41131546876496533E-001 -0.27662563348510626E-002  0.79888554645010570E-002  0.17276727181232045E-001  0.13566588834951491E-001  0.33680062869191667E-001  0.73595897061687629E-002  0.11435889002925260E-001  0.20053178499261155E-001  0.10499244401671286E-001  0.52947503186956410E-002  0.68270808863236682E-002  0.93346868741915924E-002  0.83162834190435454E-002  0.13536156394908202E-001  0.99555373800792966E-002  0.70298866225022112E-002  0.90510074628926875E-002  0.35497202483507568E-002  0.71993465074517807E-008  
0.74015695411011628E-008  0.23388373662080938E-007 -0.42370879437341958E-007 -0.62129459226862089E-007 -0.86079758906594524E-008 -0.36217270998654445E-007 -0.32329760520312972E-007 -0.13108364870438409E-005 -0.76704782897614002E-006 -0.71944080619816468E-006 -0.98355210511891051E-006  0.25107219914442300E-005  0.37944112566380557E-005  </sparseX_slice>
        <sparseX_slice start="151" end="200">  0.11372477762302123E-005  0.22693538274139299E-005  0.19518118827927748E-005  0.16977015761255273E-003 -0.40524175151247667E-005  0.60214975597114213E-005  0.21308802950995151E-003 -0.27685603068114352E-003 -0.38906166811205874E-003  0.37822863693605748E-004 -0.21820566082757315E-003 -0.20581714311411413E-003  0.10641648822969892E-002  0.85444507165271670E-004  0.96265318815167870E-004  0.12189184654818933E-002 -0.17866705994298137E-002 -0.25535195701115948E-002  0.14639417695121287E-005 -0.14557137472709474E-002 -0.13272404478909393E-002  0.38415538323723812E-003  0.49555912639232035E-003  0.24449448857610155E-003 -0.57338387908220850E-004 -0.82331553682036466E-003 -0.13641955691954179E-002 -0.98889028238895627E-003 -0.86321009004003651E-003 -0.58630446250896239E-003  0.70279037626106701E-005  0.27856459389541916E-004  0.50043545875399558E-004  0.78683556455698175E-004  0.12763377590245306E-003  0.14586311313862470E-003  0.13279121491072495E-003  
0.13607616529462516E-003  0.11695607050074948E-003  0.17681156271566179E-002  0.16890892026467606E-008  0.24143890293028993E-008  0.73790188311130559E-008 -0.49662177656426491E-008 -0.51488759287149153E-008  0.42577292270022606E-009 -0.41119417923015561E-008 -0.18504971413929523E-008 -0.65292764365477398E-006 -0.22655336061904925E-006  </sparseX_slice>
        <sparseX_slice start="201" end="250"> -0.19220171891148329E-006 -0.38025172419912425E-006  0.26526771273010815E-006  0.32606283082402149E-006  0.30600442538518221E-007  0.25452947915946201E-006  0.10543217770151807E-006  0.84562514141518823E-004 -0.79589916152176037E-005  0.84016443917422498E-005  0.56758799823973614E-004 -0.36796579018458015E-004 -0.30477863179031940E-004  0.11142922574957611E-004 -0.25233572472360193E-004 -0.12709941992176211E-004  0.53006051931410328E-003 -0.13158124215704647E-004  0.70778530436671209E-004  0.34563310807298180E-003 -0.22602768144123930E-003 -0.20008773456141012E-003  0.47678855525951839E-004 -0.16533854521553397E-003 -0.76855238488471412E-004  0.19134779330108598E-003  0.14476318174252761E-003  0.10321137398157173E-003  0.82991261925693054E-004 -0.55152028613840081E-004 -0.10043169173628125E-003 -0.77627415340986993E-004 -0.82798565668341177E-004 -0.68170402699046384E-005  0.49505943101885838E-005  0.10383108026948293E-004  0.13943326512781055E-004  
0.19966315374946859E-004  0.26706350333273233E-004  0.26399502490609908E-004  0.26256406039601295E-004  0.29095939966230849E-004  0.26160400087844802E-004  0.17436482379325724E-005  0.20497330329949402E-005  0.21973915997561108E-005  0.30206114568636102E-005  0.32040460958362534E-005  0.27978937931716815E-005  0.29149664792219536E-005  </sparseX_slice>
        <sparseX_slice start="251" end="300">  0.34044066316536833E-005  0.34385526033579063E-005 -0.59804705735859663E-004 -0.57182358197643221E-010 -0.81821102473453637E-010 -0.24979220593565493E-009  0.16784644028216781E-009  0.17401346024944258E-009 -0.14519200959946627E-010  0.13919148191885113E-009  0.62597975644683680E-010  0.22084610868112163E-007  0.76643514347100465E-008  0.65144134684194030E-008  0.12874782839567663E-007 -0.89664557808643102E-008 -0.11016829431799455E-007 -0.10283713251741474E-008 -0.86166207195454542E-008 -0.35655619441382235E-008 -0.28602406974088915E-005  0.26863354752710156E-006 -0.28458786875430399E-006 -0.19209878202978835E-005  0.12434827411785101E-005  0.10304836659110183E-005 -0.37771926788302604E-006  0.85406689019088636E-006  0.43009182513838074E-006 -0.17928755842034610E-004  0.44141821683696642E-006 -0.23980320099440433E-005 -0.11698693634412967E-004  0.76386118478669767E-005  0.67646950510185955E-005 -0.16182329751693067E-005  0.55955433781944843E-005  
0.26003930529776119E-005 -0.64721437307696475E-005 -0.48986805754862653E-005 -0.34985360475480151E-005 -0.28125721903032794E-005  0.18653673321841816E-005  0.33943582611849426E-005  0.26215705200094239E-005  0.27989523367014154E-005  0.22934286174779022E-006 -0.16744879768670463E-006 -0.35150315163201955E-006 -0.47198912767777913E-006  </sparseX_slice>
        <sparseX_slice start="301" end="325"> -0.67531400802189698E-006 -0.90313748483848226E-006 -0.89305080703529675E-006 -0.88823255306100697E-006 -0.98392258934419555E-006 -0.88477072341113844E-006 -0.83406244781122294E-007 -0.98109054616686777E-007 -0.10521587438843371E-006 -0.14451154617539999E-006 -0.15322121307226848E-006 -0.13386039904154392E-006 -0.13947282289403320E-006 -0.16280428648214792E-006 -0.16446136571059937E-006  0.19948409080311023E-008  0.23479633934008913E-008  0.25189860631862667E-008  0.34568523639502394E-008  0.36636111550947236E-008  0.32021649029876522E-008  0.33366939645199252E-008  0.38927875920646916E-008  0.39329877384068575E-008  0.00000000000000000E+000  </sparseX_slice>
      </sparseX>
      <sparseX i="8" alpha="-517.98129525080287" sparseCutoff="1.0000000000000000" sliced="T">
        <sparseX_slice start="1" end="50">  0.87488294786889365E+000  0.23451336648399908E-008  0.13013893702424394E-007  0.63774109336397432E-008  0.82948239542209506E-008  0.80582544303644968E-008  0.38767645495668824E-008  0.52932516362883132E-008  0.19999258914336382E-008  0.14133274693090857E-001 -0.39003912827631377E-006 -0.21084752091910745E-005 -0.10282487937227883E-005 -0.13304152585594154E-005 -0.12993717021176254E-005 -0.62132734265171738E-006 -0.83529227130856149E-006 -0.31318346714066806E-006  0.11415781621811657E-003  0.32490508250862853E-004  0.17083171897455893E-003  0.82924887594915461E-004  0.10673837398930520E-003  0.10479213721658424E-003  0.49822781068826409E-004  0.65934865662260132E-004  0.24553267814326834E-004  0.14250411627324289E+000 -0.23604685517529602E-005 -0.16692295494205207E-004 -0.68767852218201257E-005 -0.10014491259923702E-004 -0.12296154553859455E-004 -0.55624845222217702E-005 -0.69979875506141460E-005 -0.24011034731379410E-005  0.16278157997821833E-002  
0.28318078901521098E-003  0.19193895266124163E-002  0.79059886215714656E-003  0.11424231473503605E-002  0.14090555943143729E-002  0.63756698875514872E-003  0.78695739445903317E-003  0.27339826092599397E-003  0.11605794354710134E-001  0.15832696931822152E-002  0.11893775368273561E-001  0.51327701139486925E-002  0.68281474509486149E-002  </sparseX_slice>
        <sparseX_slice start="51" end="100">  0.10370389810349842E-001  0.49475406361623080E-002  0.53106840291605078E-002  0.23684539141188080E-002  0.39366267418621659E+000 -0.21654506483891540E-005 -0.30136357172398961E-004 -0.70496376836979185E-005 -0.15234647062714448E-004 -0.29292816729142491E-004 -0.12379552950718746E-004 -0.14826711488881096E-004 -0.43170244565374078E-005  0.44967846374073485E-002  0.28192642160110461E-003  0.34900231457602720E-002  0.83911884168915167E-003  0.17639458268986158E-002  0.33789659110339018E-002  0.14404016676389647E-002  0.16880884486276929E-002  0.52048861853984418E-003  0.45340541009798202E-001  0.44786431810963740E-002  0.36139945685735454E-001  0.16651605391358439E-001  0.19311077527177326E-001  0.39239888273455301E-001  0.19662927886010963E-001  0.19218357585533072E-001  0.11042486598851065E-001  0.88566305598327025E-001  0.12046056488398217E-001  0.67741945680637988E-001  0.48908767588238984E-001  0.39629434339062172E-001  0.83079369444709603E-001  
0.46442764490052441E-001  0.41963686116086189E-001  0.34333567934767516E-001  0.11435781788937466E+000 -0.33251252331313148E-005  0.14863690933947590E-006  0.37722453690146259E-005  0.61467286497456702E-005  0.38656362826095385E-005  0.16090216108291076E-005 -0.42403126800209354E-005 -0.16109852824563601E-005  0.13063023557298504E-002  </sparseX_slice>
        <sparseX_slice start="101" end="150">  0.37811612611048811E-003 -0.22963159731449462E-004 -0.43199339957583220E-003 -0.69530715929678934E-003 -0.43623973721878428E-003 -0.19209447719894211E-003  0.47580027404268315E-003  0.18749695973108900E-003  0.13171290223343639E-001  0.18929690424084643E-002 -0.27051599626139286E-002 -0.21674960369331060E-002 -0.40209106574593074E-002 -0.43889833423238281E-002 -0.35039487041090222E-002  0.43468475887840745E-002  0.27802303720558591E-002  0.36385232001735449E-001  0.43582877844248574E-003 -0.11678639464436910E-001  0.42262252330563460E-002  0.73335270137377649E-003 -0.77286028364367057E-002 -0.10804072015975918E-001  0.12480591878439695E-001  0.13230670859721924E-001  0.74739772584864412E-002  0.47748782193851617E-002  0.12491096774712314E-001  0.14838736097175413E-001  0.97814795212461340E-002  0.16737256300718109E-001  0.13610332870172003E-001  0.10085168117602433E-001  0.14308657408612448E-001  0.70790382474305025E-001  0.23501474420290457E-005 
-0.48401797108797404E-005  0.16781601976209469E-005  0.36856855083008645E-005 -0.10262405473503094E-005  0.35549855215235292E-005 -0.22596835862172039E-005 -0.46385004087467799E-006  0.80863420705226435E-003 -0.28837227163531722E-003  0.55935103891892747E-003 -0.18859617309336798E-003 -0.42603819886794664E-003  0.12408539582498240E-003  </sparseX_slice>
        <sparseX_slice start="151" end="200"> -0.40391378315324223E-003  0.25026996506011815E-003  0.58262068182337813E-004  0.81533618759019946E-002 -0.27622139037992328E-002  0.47701598186537034E-002 -0.89172559436560719E-003 -0.47408896301678570E-002  0.12220990118197825E-002 -0.40207279585593387E-002  0.17040583131377473E-002  0.15864888745965723E-002  0.22523379138895700E-001 -0.71570586466647799E-002  0.10887805958321055E-001  0.20058288319482896E-002 -0.13769190000846119E-001  0.46444698249893581E-002 -0.95001053903758480E-002  0.23725088586670972E-002  0.85823751680725157E-002  0.65429736134972379E-002 -0.10242773877432712E-002  0.64381129012614563E-002  0.89978783148607164E-002  0.15355842629934252E-002  0.10211164805858276E-001  0.68378004097016396E-002  0.32671678115637078E-002  0.95591972948431189E-002  0.28639706963458616E-002  0.27182236790000373E-002  0.47626120655743006E-002  0.56232454915734580E-002  0.46680741166614855E-002  0.63660372590570941E-002  0.58080861964026819E-002  
0.52242064032893666E-002  0.61681384080570379E-002 -0.23398100991296120E-002 -0.75712357240660372E-007  0.15808561265361022E-006 -0.55511387947709802E-007 -0.12142717861890220E-006  0.32644784993237891E-007 -0.11600874338955283E-006  0.74907283623749905E-007  0.15614491223739876E-007 -0.26727507579851221E-004  0.92981543283335104E-005  </sparseX_slice>
        <sparseX_slice start="201" end="250"> -0.18267195877446038E-004  0.62403471443327265E-005  0.14032643773076269E-004 -0.39537183255937983E-005  0.13183349226918663E-004 -0.82982515589626721E-005 -0.19560298243137691E-005 -0.26949025831324471E-003  0.89520239012721449E-004 -0.15512934825574854E-003  0.29455024960296605E-004  0.15524923272918447E-003 -0.38926717664949142E-004  0.13166248855811467E-003 -0.56860590395735787E-004 -0.52458021251158864E-004 -0.74445748325829733E-003  0.23312902727030477E-003 -0.35255558641003533E-003 -0.66864703705702585E-004  0.44783196297221216E-003 -0.14997034148535635E-003  0.31173176897830837E-003 -0.81164039106069780E-004 -0.28304247147835820E-003 -0.21626265043498346E-003  0.31577507529035393E-004 -0.21432801290251129E-003 -0.29863944284549163E-003 -0.53623480069547996E-004 -0.33871301969062465E-003 -0.22776328570523830E-003 -0.11041661418375924E-003 -0.31662541295469665E-003 -0.13387205196595345E-003 -0.12501271454979827E-003 -0.22125231443879517E-003 
-0.26141864223702021E-003 -0.21530591967463812E-003 -0.29584538724747599E-003 -0.26908156655301642E-003 -0.24126325983065574E-003 -0.28633579743197964E-003  0.31288250121485633E-005  0.28750318303195606E-005  0.51397577705733856E-005  0.60770726212590789E-005  0.49659466623684071E-005  0.68749213819457813E-005  0.62338505814662899E-005  </sparseX_slice>
        <sparseX_slice start="251" end="300">  0.55717556348839411E-005  0.66466924139561915E-005  0.79603250364413354E-004  0.25757731112945932E-008 -0.53782157777686504E-008  0.18885677233746558E-008  0.41310926125070301E-008 -0.11105802816372641E-008  0.39467198300294493E-008 -0.25484452671924763E-008 -0.53123242166110116E-009  0.90930305766570479E-006 -0.31632819534513998E-006  0.62146650280307578E-006 -0.21230456477145744E-006 -0.47740662217985724E-006  0.13450625811553475E-006 -0.44850924820906473E-006  0.28231759272328080E-006  0.66547426046134540E-007  0.91683938415599194E-005 -0.30455397307311006E-005  0.52776218766074237E-005 -0.10020960649369781E-005 -0.52817312315232513E-005  0.13242940479734127E-005 -0.44792870527459536E-005  0.19344832478839688E-005  0.17846878292756525E-005  0.25327369707274933E-004 -0.79312427443035677E-005  0.11994173353088392E-004  0.22748364186465750E-005 -0.15235595550969591E-004  0.51020778877394697E-005 -0.10605438923768610E-004  0.27613791001947387E-005  
0.96294399211833462E-005  0.73575244048444337E-005 -0.10742418339265668E-005  0.72917488548163597E-005  0.10160120310057462E-004  0.18244184144211913E-005  0.11523472612838716E-004  0.77488400863481942E-005  0.37565791675914235E-005  0.10772009943541155E-004  0.45544937486199095E-005  0.42530303327287076E-005  0.75272404005690915E-005  </sparseX_slice>
        <sparseX_slice start="301" end="325">  0.88937471269641312E-005  0.73248936801483891E-005  0.10064979721895204E-004  0.91544220778231173E-005  0.82079939607640535E-005  0.97414447570829712E-005 -0.15053811120898550E-006 -0.13832541800315128E-006 -0.24728948434104005E-006 -0.29238674362727933E-006 -0.23892547154386950E-006 -0.33077362065589895E-006 -0.29992896878265657E-006 -0.26807292052860202E-006 -0.31979254623521004E-006  0.36214430078988469E-008  0.33276016400082708E-008  0.59489271478810858E-008  0.70338148959373405E-008  0.57476836582251081E-008  0.79572683125995299E-008  0.72152344002224941E-008  0.64488731592771520E-008  0.76930950211526944E-008  0.00000000000000000E+000  </sparseX_slice>
      </sparseX>
      <sparseX i="9" alpha="-2236.4989323345885" sparseCutoff="1.0000000000000000" sliced="T">
        <sparseX_slice start="1" end="50">  0.92611073751095452E+000  0.71095301547892411E-010  0.11945738097573357E-009  0.13312166447507294E-009  0.10513484839194972E-009  0.67893062350836528E-010  0.48789283458728628E-010  0.43960737064571497E-010  0.37057668482230035E-010  0.10648649813054735E-002 -0.13102479936283607E-007 -0.20261717233221720E-007 -0.22186467630885297E-007 -0.18012148269331662E-007 -0.12302975132815146E-007 -0.90131904426432092E-008 -0.77601972082589464E-008 -0.63154379759099409E-008  0.61220401755534858E-006  0.12339426040301064E-005  0.17445782926240247E-005  0.18711473131431625E-005  0.15756349513327192E-005  0.11551254589773633E-005  0.87187653663776263E-006  0.71707626617441930E-006  0.55998792675663777E-006  0.50852469290246685E-001 -0.40950671591770717E-006 -0.42768025585385590E-006 -0.41985768787396206E-006 -0.40661539145125001E-006 -0.36451257546652293E-006 -0.28916669988370950E-006 -0.20754184241197946E-006 -0.14162121558421152E-006  0.41345540535250292E-004  
0.58970693829351394E-004  0.56825903654543628E-004  0.54184634117837356E-004  0.56153719663675132E-004  0.55252613864591970E-004  0.46119292914174771E-004  0.32743449416486212E-004  0.21723409549428600E-004  0.13961470956840587E-002  0.17703392092003961E-002  0.13487618403061790E-002  0.11581250531791734E-002  0.15136597252582182E-002  </sparseX_slice>
        <sparseX_slice start="51" end="100">  0.18821521471867823E-002  0.17421600308076717E-002  0.12172509733851691E-002  0.76707975368286139E-003  0.27488891121487702E+000 -0.19773811308102453E-005 -0.17446889003922315E-005 -0.15928751652099355E-005 -0.16552517786342670E-005 -0.16335962980436150E-005 -0.13587424908799255E-005 -0.94487063563421797E-006 -0.58913417311765476E-006  0.22349810697403763E-003  0.29065136269930641E-003  0.24076933277927717E-003  0.21342127213496082E-003  0.23702234002286147E-003  0.25532482251511670E-003  0.22422742982659824E-003  0.15744128905599691E-003  0.98190093993991552E-004  0.10673118959543624E-001  0.12969825751827858E-001  0.91171243125129173E-002  0.73858145438149550E-002  0.99733187204340545E-002  0.13082884939300590E-001  0.12706922918608317E-001  0.90977489691366435E-002  0.56932964671125106E-002  0.40796370481562802E-001  0.48055616684204154E-001  0.31833684167651463E-001  0.24506205064005256E-001  0.33583439353496190E-001  0.46070519887574178E-001  
0.46930290524572801E-001  0.34597200215361452E-001  0.21786356035208596E-001  0.14328542860015664E+000 -0.39899270513412303E-006  0.38990093495990175E-006  0.58385198902447580E-006  0.49130277355602531E-006  0.30367303693510931E-006  0.32962081642592843E-008 -0.73840391212855972E-007  0.10837639040003492E-006  0.11649804973059054E-003  </sparseX_slice>
        <sparseX_slice start="101" end="150">  0.66144634261629419E-004 -0.41369406687278773E-004 -0.67678785893243899E-004 -0.64945911930452317E-004 -0.42461605355112370E-004  0.77706898132696955E-005  0.22149958374829963E-004 -0.33523710366796599E-005  0.55633470912299929E-002  0.37413450638741999E-002 -0.17523101600624283E-003 -0.11262912386780263E-002 -0.21452616383940285E-002 -0.16733539546688505E-002  0.12273487400250667E-002  0.21993669619884242E-002  0.11788400877585012E-002  0.30073316909941687E-001  0.21509793388612749E-001  0.20042464141698251E-002 -0.25716718615983155E-002 -0.82370008558305622E-002 -0.60628224978704565E-002  0.88826571110106230E-002  0.13734739603828150E-001  0.88770138972135027E-002  0.11084373184307094E-001  0.11675601710638858E-001  0.78470461622498506E-002  0.76673706323126560E-002  0.85722658786728731E-002  0.93795743739304924E-002  0.95367434608907790E-002  0.84584304311797389E-002  0.94663222173033707E-002  0.15424712318271858E+000 -0.16788560995461975E-006  
0.46891368011163120E-006 -0.46071182095981328E-007 -0.23352554397391121E-006  0.10035124808259624E-006  0.42705160486613224E-007 -0.11401613700634216E-006  0.20123450053286411E-007  0.12541044265907466E-003  0.21198711338167978E-004 -0.72732486682730718E-004  0.81216001433271229E-005  0.30239408503412225E-004 -0.17399936149977193E-004  </sparseX_slice>
        <sparseX_slice start="151" end="200"> -0.26405302811254693E-005  0.12442655471621884E-004 -0.80380769314006436E-005  0.59889570940518770E-002  0.59286966093154961E-003 -0.36404280539145844E-002  0.50659220129645969E-003  0.93478956984314814E-003 -0.10558261806262715E-002  0.26444571377531639E-003  0.11252537306776174E-003 -0.89523575644064144E-003  0.32374001063745557E-001  0.46692118148867704E-002 -0.17800624543288634E-001  0.30569919907113704E-002  0.51549237095201332E-002 -0.45515752724076862E-002  0.21441101211101586E-002  0.38560405915688691E-003 -0.41441189046790474E-002  0.16874899018006154E-001  0.15426717089602075E-001  0.63639673924429816E-002  0.51486243620718561E-002  0.70012575431888397E-002  0.71544166437151335E-002  0.50008614158748212E-002  0.27164775293514083E-002  0.67629144916577268E-002  0.12845210646239445E-001  0.16810019919483558E-001  0.13480409450483828E-001  0.10572815642054052E-001  0.98542358486688117E-002  0.86099516098288656E-002  0.69880280875635331E-002  
0.80853179470813333E-002  0.12058130370394431E-001 -0.17147835682817553E-002 -0.13759432119367883E-007 -0.25951094912227087E-007 -0.63837401383173330E-008 -0.20642696996119595E-008 -0.10235023732527157E-007 -0.75447538186741189E-009  0.10070323412967192E-007  0.59684751191051136E-008 -0.13942027697202221E-005  0.18534917238865369E-005  </sparseX_slice>
        <sparseX_slice start="201" end="250">  0.32956929350578383E-005  0.54241670173590763E-006  0.60263432084855267E-006  0.17625441974216096E-005 -0.17653758981625016E-006 -0.15359427577062086E-005 -0.59951710206679080E-006 -0.66579946543698050E-004  0.64870662027908019E-004  0.92932363016940683E-004 -0.17217417538543994E-004  0.58062997914768859E-004  0.10610535944056152E-003 -0.38282940254516225E-004 -0.75567822426086397E-004  0.17905219408135301E-005 -0.35990561067311130E-003  0.28987654477985171E-003  0.40798029174826130E-003 -0.14721795672440074E-003  0.26698504934031690E-003  0.49861989699716215E-003 -0.25015154415314913E-003 -0.39333986601744817E-003  0.13594138718892114E-004 -0.18760025441909105E-003 -0.18047396541497881E-003 -0.16903287990469669E-003 -0.24985221912361937E-003 -0.28292363708847478E-003 -0.30706398858684183E-003 -0.26765548793908361E-003 -0.11671573677201298E-003 -0.13370100315592204E-003 -0.20195214429821827E-003 -0.38125321862818475E-003 -0.43191707629048850E-003 
-0.32550040227084185E-003 -0.22647727586862213E-003 -0.22439158882110136E-003 -0.23112557521027315E-003 -0.22171707363210244E-003 -0.28316846976186177E-003  0.15875437822652001E-005  0.62943542069691873E-005  0.97667052714977540E-005  0.87340127175906098E-005  0.91308182777697590E-005  0.12848634771492466E-004  0.13029643481264619E-004  </sparseX_slice>
        <sparseX_slice start="251" end="300">  0.85626406860125492E-005  0.73513803261746019E-005  0.58608318487143117E-004  0.46506822757722325E-009  0.87915809641209428E-009  0.21458069417357524E-009  0.69262086670915911E-010  0.34790431569053027E-009  0.25582511490663499E-010 -0.34201310276713499E-009 -0.20187250494521266E-009  0.47651424631562467E-007 -0.62665693545363988E-007 -0.11168328335371363E-006 -0.18127104112674421E-007 -0.20342965762441545E-007 -0.59911848373088624E-007  0.59891712531264208E-008  0.52159789664642647E-007  0.20252633668663659E-007  0.22755867178037126E-005 -0.21952296997651537E-005 -0.31532983284608078E-005  0.59452360334641080E-006 -0.19664206544227830E-005 -0.36067110902741421E-005  0.12985925914621211E-005  0.25657881351007604E-005 -0.64286437362343312E-007  0.12300947504865280E-004 -0.98053365210710480E-005 -0.13848620711913883E-004  0.50449921849803326E-005 -0.90381200289624845E-005 -0.16947088290814688E-004  0.84900560008653270E-005  0.13357412569668327E-004 
-0.47600529609647242E-006  0.64118502548285402E-005  0.61548580438988710E-005  0.57322170739756544E-005  0.84803049081619988E-005  0.96245328337979456E-005  0.10452337547990861E-004  0.91099588805891800E-005  0.39794346751340549E-005  0.45564461007748743E-005  0.69023728773255189E-005  0.12982870276867612E-004  0.14671529025477820E-004  </sparseX_slice>
        <sparseX_slice start="301" end="325">  0.11061405821199222E-004  0.77214817041082739E-005  0.76492790276104372E-005  0.78615481920571776E-005  0.75422445688375778E-005  0.96407970244678047E-005 -0.76734498173885816E-007 -0.30255269972130072E-006 -0.46885750376235800E-006 -0.41944130684056355E-006 -0.43892907092139152E-006 -0.61742971193052319E-006 -0.62584258347243040E-006 -0.41134087824625750E-006 -0.35329067058836301E-006  0.18544947470980868E-008  0.72715081783452173E-008  0.11253943584672962E-007  0.10071664166451452E-007  0.10550014675015236E-007  0.14835110843907553E-007  0.15030378905233558E-007  0.98803037727550453E-008  0.84892834152109268E-008  0.00000000000000000E+000  </sparseX_slice>
      </sparseX>
      <sparseX i="10" alpha="4779.1403637926605" sparseCutoff="1.0000000000000000" sliced="T">
        <sparseX_slice start="1" end="50">  0.55405494549588252E+000  0.18524063516412297E-012  0.82934719715881208E-013  0.61448112890666757E-012  0.12795953924068805E-011  0.79689769950567849E-011  0.26713590908120373E-010  0.96021584203648440E-011  0.88717254671656343E-011 -0.54481042379782220E-003 -0.18107643319370330E-010 -0.81147311352864497E-011 -0.60991075971908845E-010 -0.12688099272456750E-009 -0.79113902460773402E-009 -0.26528515318670451E-008 -0.95404999578801724E-009 -0.88167913376189237E-009  0.26786007443098293E-006  0.88502925321590065E-009  0.39699411728218911E-009  0.30268831642144337E-008  0.62906113681262074E-008  0.39271211734333797E-007  0.13172367330582559E-006  0.47396288176328214E-007  0.43811001987018295E-007  0.38358284580880683E-001  0.13064278827739527E-008  0.58396006017364742E-009  0.42890270882260252E-008  0.89395201319148103E-008  0.55586870312433838E-007  0.18629880783885758E-006  0.66911664998358172E-007  0.61812496699809923E-007 -0.26670843533958125E-004 
-0.90301731929149272E-007 -0.40401850073184168E-007 -0.30102317098747682E-006 -0.62679014104215323E-006 -0.39021755383110776E-005 -0.13082047033725989E-004 -0.47009853973720811E-005 -0.43437395114949682E-005  0.13278087380584197E-002  0.46068564284280462E-005  0.20559375227684461E-005  0.14968581542805583E-004  0.31226703265413951E-004  </sparseX_slice>
        <sparseX_slice start="51" end="100">  0.19387071944334321E-003  0.64961777954146232E-003  0.23313359311965401E-003  0.21533493294640581E-003  0.33298902557834525E+000  0.62060664523741795E-008  0.27941578442747094E-008  0.37754616969418461E-007  0.76657260696383068E-007  0.48791628682381262E-006  0.16508986378122995E-005  0.59713298884477146E-006  0.55575576356885153E-006 -0.23153011915845486E-003 -0.42897050387697893E-006 -0.19331504557450405E-006 -0.26500318434845740E-005 -0.53758897810795327E-005 -0.34254938124293446E-004 -0.11592963652209311E-003 -0.41956104744161284E-004 -0.39055162418540827E-004  0.16301263360227081E-001  0.30949244984924584E-004  0.13912433831475804E-004  0.18632335031463205E-003  0.37865589919874160E-003  0.24064545847146024E-002  0.81410708577980551E-002  0.29422593416557723E-002  0.27380292234526586E-002  0.10006380419217817E+000  0.10396140977191435E-003  0.47086004536629566E-004  0.11622846133103255E-002  0.23134355723706569E-002  0.14986636045392026E-001  
0.51052603656403309E-001  0.18629706161206305E-001  0.17420406825124992E-001  0.58470112056352830E+000 -0.58614346319845480E-008 -0.63415000433273566E-008  0.57486636817157646E-007  0.11699693551480605E-006  0.81177662854678182E-006  0.29218194295800844E-005  0.11146394153382919E-005  0.10779550501747275E-005 -0.40654769291880068E-003  </sparseX_slice>
        <sparseX_slice start="101" end="150">  0.40514882662534576E-006  0.43880725583070357E-006 -0.40364002872250303E-005 -0.82080362037304517E-005 -0.57007784345070790E-004 -0.20518555636880352E-003 -0.78330653568690979E-004 -0.75754662017165717E-004  0.28623666911459306E-001 -0.29230626780149242E-004 -0.31564181836341535E-004  0.28360775440400851E-003  0.57783194549342466E-003  0.40031927872129433E-002  0.14408222581168020E-001  0.54919671716826858E-002  0.53107573125700420E-002  0.24848261744417990E+000 -0.13885735381558102E-003 -0.15095534067470766E-003  0.25227628264249762E-002  0.50650312645818220E-002  0.35592063432528985E-001  0.12801013564483515E+000  0.49508115850997653E-001  0.47857986407480319E-001  0.30852120639611386E+000  0.92734569598089463E-004  0.24341013521560973E-003  0.28198717410108406E-002  0.57098698278882174E-002  0.43360479982827264E-001  0.16119676652987841E+000  0.66673743349531342E-001  0.65948193561411461E-001  0.54881740904440791E-001  0.23373696861405677E-007 
-0.11958377460282605E-007 -0.57444960948267079E-007 -0.68101899239621241E-007 -0.30694654940636745E-006 -0.37768720870789008E-006  0.10605872000726263E-006  0.24167204681964724E-006 -0.38159744121173708E-004 -0.16156035226911667E-005  0.82766840038507544E-006  0.40297818891165270E-005  0.47835760069906819E-005  0.21536987207198969E-004  </sparseX_slice>
        <sparseX_slice start="151" end="200">  0.26520342543751204E-004 -0.74474993907785723E-005 -0.16983523635223635E-004  0.26867002916903817E-002  0.11656465747762924E-003 -0.59494161880361848E-004 -0.28366267008646820E-003 -0.33616162267039319E-003 -0.15143451769383562E-002 -0.18625486469170613E-002  0.52263372602063608E-003  0.11906325701981336E-002  0.23323298263368167E-001  0.55365376638424207E-003 -0.28487255572003236E-003 -0.24669737883027489E-002 -0.30737050162831410E-002 -0.13064594778317147E-001 -0.16480595901350249E-001  0.45661379301583562E-002  0.10719480341191407E-001  0.40953777999570208E-001 -0.52297626070699807E-003  0.65223662279592415E-003 -0.35873220903454143E-002 -0.50993727218852690E-002 -0.20615970157846938E-001 -0.28651163073444563E-001  0.84198355027503297E-002  0.20901850222997502E-001  0.27181469177270903E-002  0.14764455921443961E-002  0.89104693742061416E-003  0.28634963866838946E-002  0.34517383132021168E-002  0.67094727628528522E-002  0.44045257029769842E-002  
0.17274936223141378E-002  0.35187339770841163E-002  0.40863793659359181E-002  0.10484633936339456E-008 -0.56156563115514287E-009 -0.24665097077042820E-008 -0.28091246836693890E-008 -0.11984469426869749E-007 -0.95535088460468117E-008  0.81441605518278846E-008  0.14625022383951608E-007 -0.28412945438022927E-005 -0.72471231210052900E-007  </sparseX_slice>
        <sparseX_slice start="201" end="250">  0.38866479085411582E-007  0.17301800917371899E-006  0.19734682952735804E-006  0.84075997134406459E-006  0.67076627314255464E-006 -0.57205257804125138E-006 -0.10277778697261696E-005  0.20004607094249862E-003  0.52285915702290419E-005 -0.27939083092914954E-005 -0.12180242141701538E-004 -0.13865296317980629E-004 -0.59131143095766790E-004 -0.47114378188835916E-004  0.40130626588708670E-004  0.72052411660056690E-004  0.17366038904440954E-002  0.24839705047931340E-004 -0.13366004420845033E-004 -0.10581000293327312E-003 -0.12742381791977923E-003 -0.50727704018907287E-003 -0.41547899355326797E-003  0.35481402748717200E-003  0.64880512444355888E-003  0.30493324485816858E-002 -0.23458747832233369E-004  0.30639570769981472E-004 -0.15314223865296218E-003 -0.21248989030606984E-003 -0.78650241205687746E-003 -0.70738435909227797E-003  0.66235649910043807E-003  0.12648341950452415E-002  0.28621917675353780E-003  0.93488168644116870E-004  0.58837436663079480E-004  
0.17510656792530784E-003  0.21038406559276918E-003  0.38266383251300210E-003  0.21181788359789106E-003  0.13910695637649423E-003  0.29726993827234303E-003  0.15069350484184907E-004  0.29681173108214940E-005  0.19485523054111591E-005  0.53681468916332455E-005  0.64434993129449265E-005  0.11002493580152289E-004  0.56224353078069683E-005  </sparseX_slice>
        <sparseX_slice start="251" end="300">  0.59790363456359539E-005  0.12604466512967637E-004 -0.13878950633225892E-003 -0.35596881377709054E-010  0.19066556057005208E-010  0.83737405333132989E-010  0.95364313217352210E-010  0.40682086076470325E-009  0.32410541209769369E-009 -0.27659736468486492E-009 -0.49662239562299646E-009  0.96501531494138076E-007  0.24605053475573820E-008 -0.13196140733735648E-008 -0.58739189898334978E-008 -0.66995415340834046E-008 -0.28540156818448884E-007 -0.22755926747326669E-007  0.19428430929350284E-007  0.34900289064548640E-007 -0.67943509262161905E-005 -0.17751841311402287E-006  0.94860167087669539E-007  0.41351628703796597E-006  0.47069978407292489E-006  0.20072465264158894E-005  0.15983683172984649E-005 -0.13629428323302233E-005 -0.24466862634420949E-005 -0.58981894500197494E-004 -0.84334450527263949E-006  0.45380968532763365E-006  0.35922179214776929E-005  0.43258109601675068E-005  0.17219756686702936E-004  0.14095161124407720E-004 -0.12050506788260237E-004 
-0.22031501023560615E-004 -0.10356731651239140E-003  0.79645915685133300E-006 -0.10402892276406032E-005  0.51990994208918680E-005  0.72136808309195603E-005  0.26697678814682892E-004  0.23997233380138359E-004 -0.22495687297145568E-004 -0.42950021357581821E-004 -0.97211283356583038E-005 -0.31740681806357652E-005 -0.19976884404286732E-005  </sparseX_slice>
        <sparseX_slice start="301" end="325"> -0.59448678362181206E-005 -0.71424541257047426E-005 -0.12990226748913492E-004 -0.71890491124555508E-005 -0.47235502220320407E-005 -0.10094327957801406E-004 -0.72381483513098177E-006 -0.14251292877403518E-006 -0.93562035580949176E-007 -0.25773804389206447E-006 -0.30936489343468908E-006 -0.52821269094984597E-006 -0.26989700887148869E-006 -0.28713334065964485E-006 -0.60529341387537402E-006  0.17383228165856424E-007  0.34213497674625904E-008  0.22462457148995557E-008  0.61873213261471007E-008  0.74266041791810506E-008  0.12679337066517289E-007  0.64780118329867624E-008  0.68945523561678899E-008  0.14533741575504990E-007  0.00000000000000000E+000  </sparseX_slice>
      </sparseX>
      <sparseX i="11" alpha="-99.562975725779282" sparseCutoff="1.0000000000000000" sliced="T">
        <sparseX_slice start="1" end="50">  0.56065974751545511E+000  0.80020234468351139E-012  0.23661519217625442E-011  0.74235206210102634E-011  0.76875458485085723E-011  0.66715887456158934E-011  0.10341362260779888E-009  0.28930314063359117E-011  0.31494945562098451E-011 -0.79013176013410617E-003 -0.79791258697150656E-010 -0.21498881595072538E-009 -0.69802933742342470E-009 -0.72241656615088934E-009 -0.64933351492501072E-009 -0.10092482181730318E-007 -0.27597258251475856E-009 -0.29912609505575301E-009  0.55676210138075853E-006  0.39809080955575999E-008  0.97758988266147200E-008  0.32828328538281404E-007  0.33953869781757679E-007  0.31617095665682285E-007  0.49250341589270279E-006  0.13167316210290095E-007  0.14217033528209774E-007  0.58774513048201533E-001  0.53839020085184588E-008  0.19142032777237304E-007  0.56599810959090281E-007  0.58824254482052352E-007  0.47705551249490613E-007  0.74312668665700413E-006  0.21534626883962029E-007  0.23655251543995998E-007 -0.58569859705997805E-004 
-0.37898355648843218E-006 -0.12278902612194053E-005 -0.37610298453335749E-005 -0.39065908807527937E-005 -0.32795035396575469E-005 -0.51277880074630261E-004 -0.14516304733108591E-005 -0.15863316128117638E-005  0.30806950198952769E-002  0.18183008599047596E-004  0.77640365578537422E-004  0.21600219132150925E-003  0.22529280150234405E-003  </sparseX_slice>
        <sparseX_slice start="51" end="100">  0.17093648050458003E-003  0.26704669630697665E-002  0.80253842154105152E-004  0.89057464955813662E-004  0.43824894079232124E+000  0.21286195011337330E-007  0.89119187343376644E-007  0.28105203233874579E-006  0.31870861742636725E-006  0.26748115479543881E-006  0.56021835353802437E-005  0.12033557528978127E-006  0.13446133712187148E-006 -0.43672295434345291E-003 -0.14910641427636194E-005 -0.57105321036426226E-005 -0.18686469135051092E-004 -0.21168549964976942E-004 -0.18420245091942967E-004 -0.38668978750650338E-003 -0.81178337168643822E-005 -0.90718251115012523E-005  0.32485947627458781E-001  0.10284760512741112E-003  0.51222471780588334E-003  0.15154802271394557E-002  0.17261267997439806E-002  0.13510754546687974E-002  0.28454837657895291E-001  0.63575108461406959E-003  0.70924706704287102E-003  0.17128225715927384E+000  0.30141689024569605E-003  0.17033926717853682E-002  0.53475722891132265E-002  0.66520707679513687E-002  0.54122555271936901E-002  
0.15199644623590483E+000  0.28376522842635896E-002  0.30395156709882871E-002  0.47261521369331322E+000 -0.65874203487817345E-007 -0.14531717783944129E-006 -0.34033727904396638E-006 -0.20086400062839094E-006 -0.12251107138907781E-006  0.63072960866217723E-005 -0.54641952639087965E-007 -0.46253536679847393E-007 -0.47096956359699775E-003  </sparseX_slice>
