<GAP_2025_3_2_-480_20_55_11_413>
<Potential label="GAP_2025_3_2_-480_20_55_11_413" init_args="IP GAP label=GAP_2025_3_2_-480_20_55_11_413"/>
<GAP_params label="GAP_2025_3_2_-480_20_55_11_413" gap_version="1686220958">
  <GAP_data do_core="F">
    <e0 Z="1" value="-1.4062213400000001"/>
    <e0 Z="2" value="-1.4062213400000001"/>
    <e0 Z="3" value="-1.4062213400000001"/>
    <e0 Z="4" value="-1.4062213400000001"/>
    <e0 Z="5" value="-1.4062213400000001"/>
    <e0 Z="6" value="-1.4062213400000001"/>
    <e0 Z="7" value="-1.4062213400000001"/>
    <e0 Z="8" value="-1.4062213400000001"/>
    <e0 Z="9" value="-1.4062213400000001"/>
    <e0 Z="10" value="-1.4062213400000001"/>
    <e0 Z="11" value="-1.4062213400000001"/>
    <e0 Z="12" value="-1.4062213400000001"/>
    <e0 Z="13" value="-1.4062213400000001"/>
    <e0 Z="14" value="-1.4062213400000001"/>
    <e0 Z="15" value="-1.4062213400000001"/>
    <e0 Z="16" value="-1.4062213400000001"/>
    <e0 Z="17" value="-1.4062213400000001"/>
    <e0 Z="18" value="-1.4062213400000001"/>
    <e0 Z="19" value="-1.4062213400000001"/>
    <e0 Z="20" value="-1.4062213400000001"/>
    <e0 Z="21" value="-1.4062213400000001"/>
    <e0 Z="22" value="-1.4062213400000001"/>
    <e0 Z="23" value="-1.4062213400000001"/>
    <e0 Z="24" value="-1.4062213400000001"/>
    <e0 Z="25" value="-1.4062213400000001"/>
    <e0 Z="26" value="-1.4062213400000001"/>
    <e0 Z="27" value="-1.4062213400000001"/>
    <e0 Z="28" value="-1.4062213400000001"/>
    <e0 Z="29" value="-1.4062213400000001"/>
    <e0 Z="30" value="-1.4062213400000001"/>
    <e0 Z="31" value="-1.4062213400000001"/>
    <e0 Z="32" value="-1.4062213400000001"/>
    <e0 Z="33" value="-1.4062213400000001"/>
    <e0 Z="34" value="-1.4062213400000001"/>
    <e0 Z="35" value="-1.4062213400000001"/>
    <e0 Z="36" value="-1.4062213400000001"/>
    <e0 Z="37" value="-1.4062213400000001"/>
    <e0 Z="38" value="-1.4062213400000001"/>
    <e0 Z="39" value="-1.4062213400000001"/>
    <e0 Z="40" value="-1.4062213400000001"/>
    <e0 Z="41" value="-1.4062213400000001"/>
    <e0 Z="42" value="-1.4062213400000001"/>
    <e0 Z="43" value="-1.4062213400000001"/>
    <e0 Z="44" value="-1.4062213400000001"/>
    <e0 Z="45" value="-1.4062213400000001"/>
    <e0 Z="46" value="-1.4062213400000001"/>
    <e0 Z="47" value="-1.4062213400000001"/>
    <e0 Z="48" value="-1.4062213400000001"/>
    <e0 Z="49" value="-1.4062213400000001"/>
    <e0 Z="50" value="-1.4062213400000001"/>
    <e0 Z="51" value="-1.4062213400000001"/>
    <e0 Z="52" value="-1.4062213400000001"/>
    <e0 Z="53" value="-1.4062213400000001"/>
    <e0 Z="54" value="-1.4062213400000001"/>
    <e0 Z="55" value="-1.4062213400000001"/>
    <e0 Z="56" value="-1.4062213400000001"/>
    <e0 Z="57" value="-1.4062213400000001"/>
    <e0 Z="58" value="-1.4062213400000001"/>
    <e0 Z="59" value="-1.4062213400000001"/>
    <e0 Z="60" value="-1.4062213400000001"/>
    <e0 Z="61" value="-1.4062213400000001"/>
    <e0 Z="62" value="-1.4062213400000001"/>
    <e0 Z="63" value="-1.4062213400000001"/>
    <e0 Z="64" value="-1.4062213400000001"/>
    <e0 Z="65" value="-1.4062213400000001"/>
    <e0 Z="66" value="-1.4062213400000001"/>
    <e0 Z="67" value="-1.4062213400000001"/>
    <e0 Z="68" value="-1.4062213400000001"/>
    <e0 Z="69" value="-1.4062213400000001"/>
    <e0 Z="70" value="-1.4062213400000001"/>
    <e0 Z="71" value="-1.4062213400000001"/>
    <e0 Z="72" value="-1.4062213400000001"/>
    <e0 Z="73" value="-1.4062213400000001"/>
    <e0 Z="74" value="-1.4062213400000001"/>
    <e0 Z="75" value="-1.4062213400000001"/>
    <e0 Z="76" value="-1.4062213400000001"/>
    <e0 Z="77" value="-1.4062213400000001"/>
    <e0 Z="78" value="-1.4062213400000001"/>
    <e0 Z="79" value="-1.4062213400000001"/>
    <e0 Z="80" value="-1.4062213400000001"/>
    <e0 Z="81" value="-1.4062213400000001"/>
    <e0 Z="82" value="-1.4062213400000001"/>
    <e0 Z="83" value="-1.4062213400000001"/>
    <e0 Z="84" value="-1.4062213400000001"/>
    <e0 Z="85" value="-1.4062213400000001"/>
    <e0 Z="86" value="-1.4062213400000001"/>
    <e0 Z="87" value="-1.4062213400000001"/>
    <e0 Z="88" value="-1.4062213400000001"/>
    <e0 Z="89" value="-1.4062213400000001"/>
    <e0 Z="90" value="-1.4062213400000001"/>
    <e0 Z="91" value="-1.4062213400000001"/>
    <e0 Z="92" value="-1.4062213400000001"/>
    <e0 Z="93" value="-1.4062213400000001"/>
    <e0 Z="94" value="-1.4062213400000001"/>
    <e0 Z="95" value="-1.4062213400000001"/>
    <e0 Z="96" value="-1.4062213400000001"/>
    <e0 Z="97" value="-1.4062213400000001"/>
    <e0 Z="98" value="-1.4062213400000001"/>
    <e0 Z="99" value="-1.4062213400000001"/>
    <e0 Z="100" value="-1.4062213400000001"/>
    <e0 Z="101" value="-1.4062213400000001"/>
    <e0 Z="102" value="-1.4062213400000001"/>
    <e0 Z="103" value="-1.4062213400000001"/>
    <e0 Z="104" value="-1.4062213400000001"/>
    <e0 Z="105" value="-1.4062213400000001"/>
    <e0 Z="106" value="-1.4062213400000001"/>
    <e0 Z="107" value="-1.4062213400000001"/>
    <e0 Z="108" value="-1.4062213400000001"/>
    <e0 Z="109" value="-1.4062213400000001"/>
    <e0 Z="110" value="-1.4062213400000001"/>
    <e0 Z="111" value="-1.4062213400000001"/>
    <e0 Z="112" value="-1.4062213400000001"/>
    <e0 Z="113" value="-1.4062213400000001"/>
    <e0 Z="114" value="-1.4062213400000001"/>
    <e0 Z="115" value="-1.4062213400000001"/>
    <e0 Z="116" value="-1.4062213400000001"/>
    <e0 Z="117" value="-1.4062213400000001"/>
    <e0 Z="118" value="-1.4062213400000001"/>
  </GAP_data>
  <gpSparse label="GAP_2025_3_2_-480_20_55_11_413" n_coordinate="1" fitted="T">
    <gpCoordinates label="GAP_2025_3_2_-480_20_55_11_4131" dimensions="325" signal_variance=".20000000000000001" signal_mean=".00000000000000000E+000" sparsified="T" n_permutations="1" covariance_type="2" zeta="4.0000000000000000" n_sparseX="200">
      <descriptor> soap l_max=8 n_max=8 atom_sigma=0.5 cutoff=3.75 radial_scaling=-0.5 cutoff_transition_width=1.0 central_weight=1.0 n_sparse=200 delta=0.2 covariance_type=dot_product zeta=4 sparse_method=cur_points } n_species=1 Z=51 species_Z={51 }</descriptor>
      <permutation i="1">1  </permutation>
      <sparseX i="1" alpha="16385.521627666651" sparseCutoff="1.0000000000000000" sliced="T">
        <sparseX_slice start="1" end="50">  0.63702698211531339E+000  0.68805107353849977E-007  0.63624366373954940E-007  0.47178854287623552E-007  0.33474995139538966E-007  0.10688739468928403E-007  0.51724990292777957E-008  0.77976769030093734E-008  0.19647429984376127E-008  0.14123373891440704E-001  0.27801511203514935E-005  0.25294745970091341E-005  0.24908954875586568E-005  0.15115755775441321E-005  0.63863142445471225E-006  0.30094143844577827E-006  0.71699211372102219E-007 -0.23332532981208264E-007  0.15656298373349067E-003  0.59044783541804348E-004  0.67784842996685763E-004  0.73097708408246203E-004  0.49450854352245209E-004  0.53449752210411746E-004  0.27480218807342136E-004  0.90431936760032370E-005  0.56809961050455654E-005  0.22181869365016679E+000  0.21415752385944302E-004  0.19223756172680369E-004  0.25478843240762696E-004  0.12445962040810078E-004  0.70011130834351970E-005  0.31205949525978758E-005 -0.29259787007357733E-005 -0.14859538120710210E-005  0.34774730589439834E-002  
0.69085948174675397E-003  0.10145371474029061E-002  0.11488828914583877E-002  0.81518310298693607E-003  0.12281311765746429E-002  0.64057365681009272E-003  0.21380712233575461E-003  0.16227901391938226E-003  0.38619661516754875E-001  0.44177321939462971E-002  0.93264938015730787E-002  0.95431742008111192E-002  0.80126311300645469E-002  </sparseX_slice>
        <sparseX_slice start="51" end="100">  0.14940284426257699E-001  0.79490418317616652E-002  0.36638938769291336E-002  0.25886152040573507E-002  0.55619445190984917E+000  0.25227584999422169E-004  0.28324125343502333E-004  0.43977490356048385E-004  0.14365882597115402E-004  0.13199816182164067E-004  0.52338240605997749E-005 -0.13532011634130537E-004 -0.46909842483674913E-005  0.87195140780199128E-002  0.89272680621900469E-003  0.18429864908533846E-002  0.20700826810066842E-002  0.14295539873959478E-002  0.27287951820636545E-002  0.14914617926370640E-002  0.44503413293733944E-003  0.41175491294782862E-003  0.13694682566060110E+000  0.89032629028304843E-002  0.26118088055513668E-001  0.24980631464587913E-001  0.22555134246189729E-001  0.47797244094802252E-001  0.26970444822826480E-001  0.13744975147354668E-001  0.96705789110749403E-002  0.24280939192564624E+000  0.98696900480162962E-002  0.37766576353217736E-001  0.33262371912383612E-001  0.34387447487403799E-001  0.77095853661444280E-001  
0.46673747021071799E-001  0.28868177493410023E-001  0.18558809112895647E-001  0.29292872523292074E+000 -0.18375668592633822E-004 -0.44427893305751118E-005 -0.55500010768789639E-007 -0.11925371532835151E-004  0.19968826220206432E-005 -0.21148935878991791E-006 -0.14346211475583484E-004 -0.33028308186495880E-005  0.45922718839685166E-002  </sparseX_slice>
        <sparseX_slice start="101" end="150"> -0.48467679843769277E-003  0.16147192314792315E-003  0.10117835295141279E-003 -0.31868685949439313E-004  0.87866775212828453E-003  0.60296622931061176E-003  0.90827611993949864E-004  0.20828514068725533E-003  0.72125241321100181E-001 -0.32388075024431459E-002  0.45658494950711389E-002  0.19987847072239985E-002  0.36948715089513665E-002  0.16229036054753475E-001  0.11837245033415933E-001  0.74316479580419223E-002  0.52971801988772925E-002  0.18084886537435776E+000 -0.28086527619725428E-002  0.11107296973297744E-001  0.48604100819383727E-002  0.13334802172418017E-001  0.38139073540264912E-001  0.30660489115173509E-001  0.27613748326509008E-001  0.15278997273835344E-001  0.67349767337681873E-001  0.30293861904579916E-002  0.29818927247476919E-002  0.14689278273978751E-002  0.76901820025011124E-002  0.10491161504338030E-001  0.11643498108795003E-001  0.17683156887269198E-001  0.71241165550537380E-002 -0.47985732519230613E-001  0.25375173408070226E-005  
0.13116658077980577E-005 -0.78496159228436687E-006  0.18214617330893353E-005 -0.30467255330729867E-006  0.19611138697412177E-006  0.23035021889000618E-005  0.67352472889525041E-006 -0.75227695783155286E-003  0.55427914043712358E-004 -0.46612741273753256E-004 -0.62223064599297717E-004 -0.29254299083978048E-004 -0.20073765987236499E-003  </sparseX_slice>
        <sparseX_slice start="151" end="200"> -0.10150561178409398E-003 -0.24165654018501668E-004 -0.32387013138714536E-004 -0.11815101216745781E-001  0.22424981245835275E-003 -0.13227559432084743E-002 -0.93541648885142950E-003 -0.12187827573960086E-002 -0.37515063401562551E-002 -0.20454679414181089E-002 -0.13642868304998470E-002 -0.87756036334333306E-003 -0.29625518198530654E-001 -0.95334513621155975E-004 -0.31612102854375631E-002 -0.19768723812924739E-002 -0.35215142060098219E-002 -0.87474774181767745E-002 -0.52734518985137228E-002 -0.47076800250714576E-002 -0.24975837680761745E-002 -0.15602754127556240E-001 -0.70096763241183605E-003 -0.11017153504650561E-002 -0.49129107752375568E-003 -0.21352861599130651E-002 -0.32645466580798603E-002 -0.27670605708765192E-002 -0.39103257144640314E-002 -0.15754278626792320E-002  0.18073257413375383E-002  0.10215127920923529E-003  0.22056453655401733E-003  0.10088390222152010E-003  0.32194093477730531E-003  0.53050458444551510E-003  0.34319830762531261E-003  
0.45095224922730824E-003  0.19026237132447775E-003  0.11639924652878313E-001 -0.61006383362427385E-006 -0.32037917624758587E-006  0.19335309254899582E-006 -0.43933900020788940E-006  0.73684785138431854E-007 -0.47782179566155139E-007 -0.55815860222110331E-006 -0.16386940382453586E-006  0.18248022167311056E-003 -0.13238988351373936E-004  </sparseX_slice>
        <sparseX_slice start="201" end="250">  0.11433942282202808E-004  0.15294083140989271E-004  0.73117739381339847E-005  0.48959293232569963E-004  0.24672170179309155E-004  0.59228927980371475E-005  0.78533840095407348E-005  0.28659953846476537E-002 -0.52230344094980610E-004  0.32399867878735422E-003  0.22973344360846851E-003  0.29887664307480646E-003  0.91516628090691744E-003  0.49717379998456205E-003  0.33178743315133153E-003  0.21296901967834917E-003  0.71862777023394501E-002  0.26560130619126382E-004  0.77391153576035260E-003  0.48494634330312360E-003  0.86054730274009105E-003  0.21336945404473264E-002  0.12813103241139090E-002  0.11427360275717072E-002  0.60588166760665481E-003  0.37847683652501769E-002  0.16933617039522909E-003  0.26916727586253112E-003  0.11962791390623706E-003  0.51864080256028777E-003  0.79582595675099159E-003  0.67161287790323257E-003  0.94694885388272947E-003  0.38176028092883085E-003 -0.61999683464887437E-003 -0.35089731818627760E-004 -0.76307960877399105E-004 
-0.34868366014893963E-004 -0.11078807066212396E-003 -0.18300617298925748E-003 -0.11788715760168748E-003 -0.15460508551697131E-003 -0.65300728902521689E-004  0.10634388317020972E-003  0.60274808722763805E-005  0.13200296614727401E-004  0.60262193497774820E-005  0.19063250868106125E-004  0.31565760083164452E-004  0.20247220667673107E-004  </sparseX_slice>
        <sparseX_slice start="251" end="300">  0.26503259650205860E-004  0.11206385823404020E-004 -0.30375955800560498E-002  0.15914643867157578E-006  0.83630211105498959E-007 -0.50489286568904248E-007  0.11462470993171254E-006 -0.19226758095175457E-007  0.12471513900810170E-007  0.14565256617391569E-006  0.42769077810040410E-007 -0.47620678941836754E-004  0.34527094436120923E-005 -0.29851981455161139E-005 -0.39933207797436522E-005 -0.19103927473610232E-005 -0.12779398396464489E-004 -0.64390728059684528E-005 -0.15463046548300240E-005 -0.20494198179462015E-005 -0.74792021189879463E-003  0.13607312630201924E-004 -0.84585117812044019E-004 -0.59981979316987334E-004 -0.78030126168863155E-004 -0.23887945195601664E-003 -0.12975495938305457E-003 -0.86593398402578535E-004 -0.55578207908910881E-004 -0.18753562447059139E-002 -0.69675032557781101E-005 -0.20203789286114227E-003 -0.12661058232369188E-003 -0.22463830118914257E-003 -0.55694102864352031E-003 -0.33439799505789790E-003 -0.29822069983969333E-003 
-0.15811348490673224E-003 -0.98768643274482282E-003 -0.44183135960742719E-004 -0.70263197657444192E-004 -0.31223307096229125E-004 -0.13535336490501921E-003 -0.20772310631121346E-003 -0.17527082208762144E-003 -0.24710232020662317E-003 -0.99621369823906552E-004  0.16179654944007400E-003  0.91576243410924540E-005  0.19920400970597490E-004  </sparseX_slice>
        <sparseX_slice start="301" end="325">  0.91021187419993148E-005  0.28915282122891817E-004  0.47768668882763441E-004  0.30765886930365138E-004  0.40345292146543293E-004  0.17041439274088260E-004 -0.39247075030550321E-004 -0.22246188599077556E-005 -0.48733466224814615E-005 -0.22247037602141419E-005 -0.70363444348922322E-005 -0.11652223506852559E-004 -0.74728052286530621E-005 -0.97810138902996127E-005 -0.41358931520190932E-005  0.72422261277983043E-005  0.41053054314778827E-006  0.89958236703120609E-006  0.41064780053127421E-006  0.12985756352724570E-005  0.21506580907269718E-005  0.13790243237319575E-005  0.18048390729048640E-005  0.76320828261831566E-006  0.00000000000000000E+000  </sparseX_slice>
      </sparseX>
      <sparseX i="2" alpha="-4232.1739254153408" sparseCutoff="1.0000000000000000" sliced="T">
        <sparseX_slice start="1" end="50">  0.85243308205558777E+000  0.78614116579709963E-005  0.14882823689021769E-004  0.73047638018617207E-005  0.53109421427924612E-005  0.30664227066855080E-005  0.10558696610348981E-005  0.62512829086935934E-006  0.16098614328513503E-006  0.74982404129390667E-001  0.14855012055521108E-003  0.36153505244898039E-003  0.17190465503276738E-003  0.13980344600009374E-003  0.88620566311773085E-004  0.30458142435967764E-004  0.21543900231227969E-004  0.53497422203771245E-005  0.32978312593554544E-002  0.14202950559938851E-002  0.44114545689351616E-002  0.20595620543871151E-002  0.18654098259634809E-002  0.12953592586745673E-002  0.45075433395905045E-003  0.37596602473702719E-003  0.93190167799696441E-004  0.29843011716952855E+000  0.28156602512816801E-003  0.14404958069883808E-002  0.56155779416949239E-003  0.54837401972913436E-003  0.39225089309146956E-003  0.11741141489006573E-003  0.11958704879306166E-003  0.25181458382000070E-004  0.18562083270880408E-001  
0.40558484572121222E-002  0.25112994232816748E-001  0.10057446798647996E-001  0.10731533223006918E-001  0.83424941329683280E-002  0.26627178687374680E-002  0.30296719831756904E-002  0.69956116556605763E-003  0.52239018351478539E-001  0.76115674983076326E-002  0.73085275016496365E-001  0.28484193951100804E-001  0.33734670399253049E-001  </sparseX_slice>
        <sparseX_slice start="51" end="100">  0.28697120167860177E-001  0.96603117055467716E-002  0.12847023957754297E-001  0.33215215748284791E-002  0.33377867160324665E+000  0.16089443280947960E-004  0.16020401901511161E-002  0.49722734591264883E-003  0.59106796568276316E-003  0.46499306625263806E-003  0.12015023493160964E-003  0.16253069984505439E-003  0.29775117538993731E-004  0.20760731373582419E-001  0.73455020105822903E-003  0.28178677950107350E-001  0.95654905631406308E-002  0.11966441677062584E-001  0.10112705962287395E-001  0.29585957470473381E-002  0.41825320758949050E-002  0.90928667404171625E-003  0.82627752047694430E-001  0.68356128492087307E-002  0.11816941972697985E+000  0.44704357287434632E-001  0.57265610222534277E-001  0.51596733666848769E-001  0.17847031290190090E-001  0.25812703494121955E-001  0.70100195574229630E-002  0.65347183234943318E-001  0.80578886093309009E-002  0.96998431637364782E-001  0.39564894181571060E-001  0.51246509078838882E-001  0.47857221365262069E-001  
0.18098532391128019E-001  0.26328369877718406E-001  0.78619603146481906E-002 -0.34826295306075082E-001 -0.85021312776165968E-004 -0.17771427789353076E-003 -0.99484860642572696E-004 -0.81357009673718099E-004 -0.53009055960105209E-004 -0.24364701558925722E-004 -0.13450482223522229E-004 -0.55846062553379206E-005 -0.21661640574982938E-002  </sparseX_slice>
        <sparseX_slice start="101" end="150"> -0.11377540872122250E-002 -0.30516141953830654E-002 -0.16441979513931255E-002 -0.14968129396183414E-002 -0.10651711641928372E-002 -0.47520828274290257E-003 -0.31504006547947980E-003 -0.11597259199275792E-003 -0.86213372456305452E-002 -0.21747171822431161E-002 -0.12149856244527775E-001 -0.52535246080152968E-002 -0.56834140702532515E-002 -0.45118891616243700E-002 -0.15556609497749815E-002 -0.15996640832750704E-002 -0.34724099490013159E-003 -0.96425204017042045E-002 -0.16103748045610787E-003 -0.13503656220629360E-001 -0.45087030228288397E-002 -0.59304490523737043E-002 -0.51553758660951073E-002 -0.12776100222824671E-002 -0.20505315102862061E-002 -0.20468268098597147E-003  0.71141704274380491E-003  0.45984330054869328E-003  0.10610589023993329E-002  0.67917849448583380E-003  0.62921233688431795E-003  0.46926741191550723E-003  0.30181515872094734E-003  0.16184889610367431E-003  0.12391298029562666E-003  0.87942094089236474E-002  0.21580027044962871E-004  
0.44888390845752635E-004  0.25167853622454153E-004  0.20555267304340547E-004  0.13382049026926284E-004  0.61478478831061061E-005  0.33914277646810134E-005  0.14041882800684526E-005  0.54699186830821768E-003  0.28871170370419982E-003  0.77071610380384276E-003  0.41581254945940316E-003  0.37809396994108521E-003  0.26886667466881835E-003  </sparseX_slice>
        <sparseX_slice start="151" end="200">  0.11990229277608538E-003  0.79445638319384324E-004  0.29178730002438351E-004  0.21770287208758145E-002  0.55109463596097867E-003  0.30678258863601577E-002  0.13271362107627844E-002  0.14347218501011337E-002  0.11384871279082338E-002  0.39244909231438293E-003  0.40353002868330620E-003  0.87641284081295092E-004  0.24348941768610449E-002  0.39299896839958178E-004  0.34089325446983914E-002  0.11371601281711049E-002  0.14961104976239431E-002  0.13004723226843699E-002  0.32221377088683940E-003  0.51738570659922724E-003  0.52109245485988056E-004 -0.25405560887126660E-003 -0.16505747563299997E-003 -0.37902648013375277E-003 -0.24302005384663745E-003 -0.22486368708855397E-003 -0.16756539895432292E-003 -0.10770746495710154E-003 -0.57691703457260874E-004 -0.44015176293984522E-004  0.45363161493864870E-004  0.29623256402074462E-004  0.67697201255325203E-004  0.43478338260045306E-004  0.40180274893978794E-004  0.29917055954412102E-004  0.19218548696095081E-004  
0.10282233483820818E-004  0.78173553899302037E-005 -0.21569478909414315E-002 -0.52940021463451892E-005 -0.11009857039239510E-004 -0.61733492092721745E-005 -0.50416788127206981E-005 -0.32821631811502720E-005 -0.15078290456616941E-005 -0.83175992694758531E-006 -0.34434385930250654E-006 -0.13416020722821598E-003 -0.70825916787597973E-004  </sparseX_slice>
        <sparseX_slice start="201" end="250"> -0.18903411852965520E-003 -0.10199207457424342E-003 -0.92735911798176349E-004 -0.65943547554654655E-004 -0.29407335413050671E-004 -0.19484432939354114E-004 -0.71555700321494923E-005 -0.53395789088751496E-003 -0.13518557602097960E-003 -0.75244065547354106E-003 -0.32551061368998109E-003 -0.35188836869061641E-003 -0.27922704407248714E-003 -0.96251665915473233E-004 -0.98968972490889431E-004 -0.21495115675368122E-004 -0.59720432107481587E-003 -0.96256364462961863E-005 -0.83609618845479901E-003 -0.27889672186179299E-003 -0.36693532568676698E-003 -0.31895194513970678E-003 -0.79024853469464488E-004 -0.12689412317555342E-003 -0.12784718143391259E-004  0.62311992386793679E-004  0.40491771321957865E-004  0.92964540933678411E-004  0.59609974916486412E-004  0.55153685972720716E-004  0.41098406616071419E-004  0.26416544056973029E-004  0.14148903308000213E-004  0.10793229279607109E-004 -0.15734797655641817E-004 -0.10277310132900806E-004 -0.23481916150878781E-004 
-0.15082205939072165E-004 -0.13937445275351544E-004 -0.10377064441932717E-004 -0.66660072781814401E-005 -0.35662508945451110E-005 -0.27109648087829517E-005  0.27289087566954029E-005  0.17827733556243877E-005  0.40725493678600379E-005  0.26159341329524212E-005  0.24172604888505756E-005  0.17997002582894316E-005  0.11560616189097620E-005  </sparseX_slice>
        <sparseX_slice start="251" end="300">  0.61845247355032224E-006  0.47006499470688968E-006  0.56313823486590963E-003  0.13821753460359538E-005  0.28744664130745857E-005  0.16117493846008525E-005  0.13162879756447148E-005  0.85691020055808454E-006  0.39366508356076377E-006  0.21715619600442933E-006  0.89901013155590939E-007  0.35026688685913018E-004  0.18491453801398284E-004  0.49353241017869420E-004  0.26628264039270482E-004  0.24211602063438129E-004  0.17216598799037809E-004  0.76776875351527772E-005  0.50870042143069088E-005  0.18681722873021215E-005  0.13940629044861981E-003  0.35294597759628259E-004  0.19644797719475441E-003  0.84984709656490010E-004  0.91871337931955803E-004  0.72900798501663902E-004  0.25129443950092470E-004  0.25838875720708909E-004  0.56119611845966979E-005  0.15591873528181477E-003  0.25129274643953647E-005  0.21828877285702452E-003  0.72814505734048089E-004  0.95799708439459611E-004  0.83272163312033681E-004  0.20631846772505944E-004  0.33129602107407458E-004  
0.33378897753280717E-005 -0.16268480824708907E-004 -0.10571723163561766E-004 -0.24271291893821185E-004 -0.15563085250956532E-004 -0.14399599441891070E-004 -0.10730013164912103E-004 -0.68968509671131497E-005 -0.36939989267914721E-005 -0.28178826689092894E-005  0.41080576007345868E-005  0.26832335304022058E-005  0.61306863646459445E-005  </sparseX_slice>
        <sparseX_slice start="301" end="325">  0.39376909564285625E-005  0.36388072128156568E-005  0.27092543842800657E-005  0.17403661375504344E-005  0.93107760460447684E-006  0.70777527304420168E-006 -0.10075796203782797E-005 -0.65824890126987702E-006 -0.15036851870690597E-005 -0.96586974921185204E-006 -0.89251253235085647E-006 -0.66449305764815169E-006 -0.42684561262070697E-006 -0.22834700286759304E-006 -0.17355791125198901E-006  0.18601147599948052E-006  0.12152178925662941E-006  0.27759873946163023E-006  0.17831190027039112E-006  0.16476888280862575E-006  0.12267349010768863E-006  0.78800806995652279E-007  0.42155505838163223E-007  0.32040620869088931E-007  0.00000000000000000E+000  </sparseX_slice>
      </sparseX>
      <sparseX i="3" alpha="-14002.483082778237" sparseCutoff="1.0000000000000000" sliced="T">
        <sparseX_slice start="1" end="50">  0.75057525553012427E+000  0.87112769669136603E-007  0.25701870499516236E-007  0.10108613216628326E-006  0.65198368688669097E-007  0.14445157307958986E-007  0.48091694637591880E-008  0.16237914624064652E-008  0.43220821418024257E-009  0.21692649106263246E-001  0.45320487914852233E-005  0.10254996115611036E-005  0.63527908454934459E-005  0.46356528758960056E-005  0.10407780197262296E-005  0.51598588013879539E-006  0.22966861186717455E-006 -0.17754715026216690E-007  0.31347358028416727E-003  0.11938251025343189E-003  0.24967874157537382E-004  0.20364121089707445E-003  0.17129129467238291E-003  0.46457931790461723E-004  0.32871306651611714E-004  0.33480190413576763E-004  0.12641043302866677E-004  0.25027052320046628E+000  0.46874768918291505E-004  0.79375825050905923E-005  0.73902173010913753E-004  0.57047648506778224E-004  0.12602789227660651E-004  0.73708954293123657E-005  0.34915364415120940E-005 -0.56211399418569295E-006  0.51146162274059428E-002  
0.17625905253941536E-002  0.34956422439933041E-003  0.33933512251248638E-002  0.30469991843659599E-002  0.88675082610822941E-003  0.69739226618984634E-003  0.80890168263468250E-003  0.33640483339358851E-003  0.41724886559707054E-001  0.13102868775076390E-001  0.29759740507176533E-002  0.28502993136743052E-001  0.27424974185618310E-001  </sparseX_slice>
        <sparseX_slice start="51" end="100">  0.88389861875657946E-002  0.74902398013768842E-002  0.98844895723549375E-002  0.45394023370218693E-002  0.50652643872395453E+000  0.81328407492910906E-004  0.12526119191799246E-004  0.13874886490597237E-003  0.10866215728479891E-003  0.22455097918096589E-004  0.14912201141022143E-004  0.71126932095183358E-005 -0.15569830156686374E-005  0.10351552032488233E-001  0.30635948686187162E-002  0.67234328510225511E-003  0.64217605711031469E-002  0.59118613311695285E-002  0.17419937288618993E-002  0.14366260281139843E-002  0.17582003060937824E-002  0.70736266235302552E-003  0.11942701559486710E+000  0.32280299243881060E-001  0.90275159084520409E-002  0.76710850670559452E-001  0.76019472437402411E-001  0.25430619143146840E-001  0.21951303670701337E-001  0.30574476853090938E-001  0.13663480018090549E-001  0.17091492907340769E+000  0.39955404286592971E-001  0.14415074628483538E-001  0.10391460945598713E+000  0.10646078142665356E+000  0.37725802489303892E-001  
0.32504792416238902E-001  0.47554346941138137E-001  0.20898944570294304E-001  0.13003021628239933E+000  0.38868235498900565E-006 -0.29665279440612691E-006  0.16032766393506446E-004  0.13658966440053274E-004  0.89226453102755181E-008  0.28754177117746832E-005  0.13881312281033974E-005 -0.89949222386036046E-006  0.26573431251364602E-002  </sparseX_slice>
        <sparseX_slice start="101" end="150">  0.13937128311436768E-004  0.15117402315680141E-003  0.80944488628964593E-003  0.90592008359622321E-003  0.26903888069200899E-003  0.30481258014138383E-003  0.49177693748861406E-003  0.14069732974787168E-003  0.30658065365517996E-001  0.20050354854265958E-003  0.30938637884635549E-002  0.10259489362018853E-001  0.12798392784572749E-001  0.52508904386557604E-002  0.48219870937278361E-002  0.88001664858704792E-002  0.29816487553067997E-002  0.62049339527385110E-001  0.84149280498622319E-003  0.80771456179881719E-002  0.21213460962923994E-001  0.27764384411921524E-001  0.13466092684293310E-001  0.10900249375824168E-001  0.19920294273417793E-001  0.72436070629399085E-002  0.11263265756413517E-001  0.66899880134954615E-003  0.30648490524679680E-002  0.39695045911801582E-002  0.62700056706585031E-002  0.49700856265141990E-002  0.27894354215547215E-002  0.47750802600235584E-002  0.21843132676061185E-002 -0.23897733629395689E-001 -0.13951242598123815E-005  
0.33488501502317146E-006 -0.44273678141607538E-005 -0.34022438529762623E-005 -0.35852124335833138E-006 -0.67926309211628402E-006 -0.25096277605867188E-006  0.15937288991761340E-006 -0.48838246972148479E-003 -0.52628728237529651E-004 -0.21985901898618126E-004 -0.21755113092693950E-003 -0.21034427326541329E-003 -0.67969221664372688E-004  </sparseX_slice>
        <sparseX_slice start="151" end="200"> -0.72630296049386653E-004 -0.10036229354694160E-003 -0.37779346072976752E-004 -0.56345232719336941E-002 -0.56410818639099835E-003 -0.54812883558430731E-003 -0.27018895648636722E-002 -0.28804507586001533E-002 -0.11883112611789013E-002 -0.11421001967553003E-002 -0.18047645001619829E-002 -0.76267514913619004E-003 -0.11403800057403247E-001 -0.10627663664514858E-002 -0.14806716796255666E-002 -0.53899462159554641E-002 -0.60508070191451690E-002 -0.28377391947910632E-002 -0.24832546712399641E-002 -0.40627849567423501E-002 -0.17384224887453889E-002 -0.29274653296301003E-002 -0.15824239732189149E-003 -0.82889550838230789E-003 -0.11114681121766742E-002 -0.16439150426583655E-002 -0.12208830258593545E-002 -0.73555380974584883E-003 -0.13332995734978907E-002 -0.57080652147367499E-003  0.38044264609961439E-003  0.29506921687063407E-004  0.11554374097500472E-003  0.17477259495894980E-003  0.22749685312726557E-003  0.15796216712365337E-003  0.10867339577835231E-003  
0.19201678577651719E-003  0.84505864552570571E-004  0.58149239598430380E-002  0.34662679189175156E-006 -0.81701348980772028E-007  0.10846270412548768E-005  0.83396791899822077E-006  0.89596168968129957E-007  0.16582737551991338E-006  0.61437039335064216E-007 -0.38761477090983927E-007  0.11883582639223659E-003  0.13084211720765779E-004  </sparseX_slice>
        <sparseX_slice start="201" end="250">  0.53346232820066832E-005  0.53271789170983931E-004  0.51473217995020412E-004  0.16649373734671807E-004  0.17735437121374438E-004  0.24483995682685463E-004  0.92588503969464988E-005  0.13710222435469066E-002  0.14022896367556944E-003  0.13314073885166552E-003  0.66138325320057648E-003  0.70431657568617589E-003  0.29039265734248523E-003  0.27886201242488328E-003  0.44018713709787903E-003  0.18677161881077635E-003  0.27748334304590889E-002  0.26355367226407630E-003  0.35965321569290964E-003  0.13185922786108229E-002  0.14782842826505105E-002  0.69229878311351928E-003  0.60590128437555582E-003  0.99063670328893624E-003  0.42522805331531726E-003  0.71232647207752550E-003  0.38082595540140042E-004  0.20128429359831616E-003  0.27061541000607145E-003  0.39978260999979547E-003  0.29628983187372971E-003  0.17874221298121425E-003  0.32465657523256844E-003  0.13883454366210473E-003 -0.13091563463914709E-003 -0.10172038495458350E-004 -0.39698145523441067E-004 
-0.60306265762979144E-004 -0.78344676346621037E-004 -0.54287884178795694E-004 -0.37426775370529762E-004 -0.66153238538861313E-004 -0.29146369525348341E-004  0.22524950302867766E-004  0.17538334591948129E-005  0.68197484540020506E-005  0.10404936867958062E-004  0.13490595919706987E-004  0.93291087547722234E-005  0.64451232454004237E-005  </sparseX_slice>
        <sparseX_slice start="251" end="300">  0.11395664776534154E-004  0.50266606389578353E-005 -0.15176745910193549E-002 -0.90544074772976166E-007  0.21325984599910215E-007 -0.28316166584198723E-006 -0.21772778965272958E-006 -0.23409290620413945E-007 -0.43286137648446856E-007 -0.16038822459285744E-007  0.10116413688878501E-007 -0.31015730465915315E-004 -0.34178783223171612E-005 -0.13921560081254764E-005 -0.13907312532238102E-004 -0.13437427578636992E-004 -0.43466005610024410E-005 -0.46295490351058872E-005 -0.63909079582597566E-005 -0.24172280421882681E-005 -0.35783195741215761E-003 -0.36630676238146399E-004 -0.34746739431001247E-004 -0.17266050774120411E-003 -0.18386065877658360E-003 -0.75804648987385555E-004 -0.72792150728310845E-004 -0.11489833250772582E-003 -0.48759368701208208E-004 -0.72422171309571273E-003 -0.68839040879119991E-004 -0.93861376933075533E-004 -0.34422296342465146E-003 -0.38589056496727084E-003 -0.18070661662172039E-003 -0.15815565650427365E-003 -0.25857448078416500E-003 
-0.11100658142635043E-003 -0.18591469031208096E-003 -0.99349486679610393E-005 -0.52530100160212284E-004 -0.70631397364720930E-004 -0.10433952142807175E-003 -0.77322285525802332E-004 -0.46648556229202696E-004 -0.84736652308397425E-004 -0.36234711117897063E-004  0.34168517702228040E-004  0.26550585427530173E-005  0.10360400685826016E-004  </sparseX_slice>
        <sparseX_slice start="301" end="325">  0.15741457936509412E-004  0.20448326434188702E-004  0.14168207999682210E-004  0.97685761187380045E-005  0.17266578360533477E-004  0.76078039837051998E-005 -0.83140659001491736E-005 -0.64740280090305521E-006 -0.25170385143196744E-005 -0.38409414714238885E-005 -0.49796076297444769E-005 -0.34432445535034591E-005 -0.23790078500813214E-005 -0.42063955198301334E-005 -0.18555408678201062E-005  0.15343805616126663E-005  0.11948984798068640E-006  0.46449535695820427E-006  0.70893425757985532E-006  0.91902885343159554E-006  0.63542692830569551E-006  0.43906676072762346E-006  0.77633749593020136E-006  0.34247709528294037E-006  0.00000000000000000E+000  </sparseX_slice>
      </sparseX>
      <sparseX i="4" alpha="-2045.5332366515615" sparseCutoff="1.0000000000000000" sliced="T">
        <sparseX_slice start="1" end="50">  0.68680533196580107E+000  0.10517125493500980E-004  0.79052377034158273E-005  0.72907510678815743E-005  0.56017901941598005E-005  0.22663164818054828E-005  0.92569025543004805E-006  0.44907473490639837E-006  0.18269391991163113E-006  0.70435941263844823E-001  0.21729571676067818E-003  0.16146504975892776E-003  0.17771385030001743E-003  0.15648311863564199E-003  0.59657538951304749E-004  0.27353117347180164E-004  0.14452611632353097E-004  0.68623851668091531E-005  0.36118107932589815E-002  0.22498672769505541E-002  0.17643498538023397E-002  0.21744285724924653E-002  0.22358408605213181E-002  0.78888625803594985E-003  0.44687187496799150E-003  0.23969750969483642E-003  0.14237857748817173E-003  0.35633292685568491E+000  0.58486690635742994E-003  0.35137554432616809E-003  0.68465741175121296E-003  0.72801379685501558E-003  0.19512241033131907E-003  0.11756200551433912E-003  0.68532515019264351E-004  0.42643008882485498E-004  0.25840542184667012E-001  
0.86801490899286442E-002  0.74091423308885358E-002  0.12001981737899219E-001  0.15498676243421968E-001  0.37205688696588120E-002  0.35193909767492742E-002  0.17473776763163034E-002  0.14828846261518212E-002  0.92437513842613436E-001  0.18196015016282142E-001  0.31593756218556569E-001  0.34577770095060585E-001  0.59838669330145616E-001  </sparseX_slice>
        <sparseX_slice start="51" end="100">  0.95127411649373710E-002  0.20695987369556603E-001  0.77082549913717055E-002  0.95254729275214764E-002  0.50171730440807238E+000  0.33278586295823291E-003  0.71479089426059519E-004  0.78440275366307370E-003  0.90057028934991431E-003  0.15093242809876862E-003  0.14535200111727336E-003  0.82320632269199139E-004  0.59743375201857045E-004  0.36383522801935457E-001  0.51813966855754380E-002  0.54253325988439256E-002  0.13963930834706003E-001  0.19938560885490810E-001  0.29917493105877740E-002  0.52178822406673203E-002  0.22947210401457422E-002  0.23293263777404800E-002  0.18406295048674312E+000  0.19683772414995460E-001  0.66034541592955520E-001  0.59786323895798410E-001  0.11711169210822943E+000  0.12624632119486705E-001  0.51517074761211694E-001  0.16795665971152587E-001  0.23530224890363886E-001  0.18325444039726563E+000  0.16601842026247062E-001  0.86546142901926720E-001  0.54556275326880128E-001  0.12003276378547595E+000  0.10749587200582684E-001  
0.67558790358537651E-001  0.20335247569476401E-001  0.30471468515854784E-001  0.27002859387840247E-001 -0.21265652836119863E-003 -0.16184875022151693E-003  0.28616336122762698E-005 -0.86963741620564358E-004 -0.73190446398858764E-004  0.20001263705206765E-005 -0.13803429189502263E-004 -0.71194481353860029E-005  0.19581926746856998E-002  </sparseX_slice>
        <sparseX_slice start="101" end="150"> -0.29813987593049771E-002 -0.20407602177043489E-002  0.18665566704716399E-003 -0.15444033299111324E-002 -0.13284263949092222E-002  0.41968735436237605E-003 -0.18138464183043519E-003 -0.24551953343844073E-004  0.99064272386785897E-002 -0.56175664220223243E-002  0.77982936674797420E-005  0.27295021757880594E-002 -0.47369500365570085E-002 -0.34980157760937983E-002  0.69738042262005332E-002  0.10750706293991056E-002  0.19093374452708956E-002  0.13948264659014992E-001  0.20277045004427272E-002  0.10258775103915612E-001  0.63034248066995650E-002 -0.21724760225595536E-002 -0.28062807565162006E-003  0.14809443833410393E-001  0.44293657237041966E-002  0.53467272806646208E-002  0.53083048513358059E-003  0.42641061701694394E-002  0.41417157246447312E-002  0.18126491592127944E-002  0.28624674313374870E-002  0.29701583737975277E-002  0.25614043925566150E-002  0.21088022440631017E-002  0.17741958702317071E-002 -0.50423807995858853E-002  0.49962102428326692E-004  
0.38667787709799753E-004  0.30411383650725998E-005  0.20663812001266063E-004  0.17268738750673947E-004  0.47326607834828901E-006  0.33078669642163540E-005  0.15814658704190694E-005 -0.36566324339604118E-003  0.70295185071712581E-003  0.48750661296476528E-003  0.23212565294485959E-004  0.36626186250919812E-003  0.31393771917111082E-003  </sparseX_slice>
        <sparseX_slice start="151" end="200"> -0.75772524006865533E-004  0.46543598111950983E-004  0.49988825591534634E-005 -0.18498773697759427E-002  0.13722077786873883E-002  0.20404558625958445E-004 -0.33851071675086074E-003  0.11295588030044792E-002  0.84410153521971933E-003 -0.14943762465979729E-002 -0.19725482014082752E-003 -0.43114315547017492E-003 -0.26046301576429062E-002 -0.34837752739340648E-003 -0.23626409272659481E-002 -0.10625928049555961E-002  0.56625636949706696E-003  0.13818644201178012E-003 -0.32333027715893874E-002 -0.91010753706936788E-003 -0.11931168930637162E-002 -0.14018344850022272E-003 -0.13619162696553312E-002 -0.13185608766019196E-002 -0.54197988606897399E-003 -0.88597344602268165E-003 -0.92330825429432297E-003 -0.79220005055965462E-003 -0.64220791484588394E-003 -0.54269634649942178E-003  0.18510051498332309E-004  0.21786434968351200E-003  0.21065778967670090E-003  0.81985433543329595E-004  0.13770864316820178E-003  0.14408458522762103E-003  0.12323750823232967E-003  
0.97998109669697456E-004  0.83223971456242420E-004  0.12215483892479221E-002 -0.12222587925507761E-004 -0.94653168255293771E-005 -0.77778234098843365E-006 -0.50577054277818878E-005 -0.42252474645291119E-005 -0.12425800105724593E-006 -0.80985366289934518E-006 -0.38612644056035622E-006  0.88584215221168718E-004 -0.17199092934171769E-003  </sparseX_slice>
        <sparseX_slice start="201" end="250"> -0.11933645168977916E-003 -0.62889827576930757E-005 -0.89642883324760633E-004 -0.76817655393035070E-004  0.18330016571526888E-004 -0.11422700678805580E-004 -0.12181487120890902E-005  0.44814440066517165E-003 -0.33617285788700680E-003 -0.52268555988654076E-005  0.80059718963316128E-004 -0.27654831129758851E-003 -0.20670099549129897E-003  0.36425854533096925E-003  0.47752071002107059E-004  0.10529731135404566E-003  0.63098799954112051E-003  0.84052888031350577E-004  0.57749071961172042E-003  0.25615023511599597E-003 -0.13912720592170705E-003 -0.34458065300479028E-004  0.78872163792836566E-003  0.22146406302723105E-003  0.29128209560032911E-003  0.33960320039440411E-004  0.33267145233037448E-003  0.32204134905263772E-003  0.13204389077576257E-003  0.21615848185453304E-003  0.22530492627236467E-003  0.19326616407231218E-003  0.15658398084813767E-003  0.13234481467927123E-003 -0.63415826914900056E-005 -0.75265381015930414E-004 -0.72772096140182675E-004 
-0.28261628191120649E-004 -0.47522855072960446E-004 -0.49730666871057107E-004 -0.42528452418813448E-004 -0.33794156035951984E-004 -0.28705063209880130E-004  0.10863198040434654E-005  0.13000962075593188E-004  0.12569690486573435E-004  0.48712033666209037E-005  0.82000557447106725E-005  0.85823000827426125E-005  0.73382106094192832E-005  </sparseX_slice>
        <sparseX_slice start="251" end="300">  0.58268924500517152E-005  0.49504003335505887E-005 -0.31876104961939570E-003  0.31907494620999375E-005  0.24710154819136647E-005  0.20340432243738440E-006  0.13203594009251565E-005  0.11030228600298903E-005  0.32528620027330747E-007  0.21142185252496007E-006  0.10079157488832340E-006 -0.23115905740742012E-004  0.44899079066418477E-004  0.31153993347643248E-004  0.16482874458722936E-005  0.23402038509822376E-004  0.20053698297648013E-004 -0.47829045469203129E-005  0.29823256522967407E-005  0.31795196361100408E-006 -0.11694254668456897E-003  0.87764236063122522E-004  0.13670169670904583E-005 -0.20870437228227932E-004  0.72196245768748083E-004  0.53962183952902284E-004 -0.95076835820570804E-004 -0.12460458172884516E-004 -0.27486339564603775E-004 -0.16465528406517236E-003 -0.21929752461842909E-004 -0.15075061421076607E-003 -0.66828291605676473E-004  0.36326097320583230E-004  0.90023744790652476E-005 -0.20587432510090620E-003 -0.57801332208345811E-004 
-0.76033800640647146E-004 -0.88618898411772752E-005 -0.86839659546896590E-004 -0.84064379956659438E-004 -0.34464699675747272E-004 -0.56422693415883838E-004 -0.58810542866253741E-004 -0.50447084559195122E-004 -0.40871197787525950E-004 -0.34544601405356952E-004  0.16548256072214255E-005  0.19647126041893201E-004  0.18996244880515255E-004  </sparseX_slice>
        <sparseX_slice start="301" end="325">  0.73766981723562533E-005  0.12404724570572705E-004  0.12981102105869461E-004  0.11101047424202700E-004  0.88209055082709910E-005  0.74926183385760649E-005 -0.40089188725166530E-006 -0.47994812828452085E-005 -0.46402625307435032E-005 -0.17981107937132183E-005 -0.30270286072594039E-005 -0.31681525493363315E-005 -0.27088796413886523E-005 -0.21509168703458012E-005 -0.18273868434121913E-005  0.73971911708686596E-007  0.88589677253136336E-006  0.85650623504884811E-006  0.33186897480047113E-006  0.55870975633456104E-006  0.58476111194437975E-006  0.49998762733557803E-006  0.39699063004066416E-006  0.33728006554693419E-006  0.00000000000000000E+000  </sparseX_slice>
      </sparseX>
      <sparseX i="5" alpha="796.16519464839348" sparseCutoff="1.0000000000000000" sliced="T">
        <sparseX_slice start="1" end="50">  0.75900475868275485E+000  0.37248622329605074E-007  0.28966151281574902E-007  0.26077553747324686E-007  0.20722234205359595E-007  0.76817480952426127E-008  0.23159813552515597E-008  0.20519011489265850E-008  0.21348988521763331E-008  0.15857447874013820E-001  0.12815657169629842E-005  0.15118322663879157E-005  0.23836277963753406E-005  0.11098405930735112E-005  0.18968341333927842E-006  0.66918552360220528E-007  0.38806898586000849E-008 -0.92706677920443272E-007  0.16565024803893812E-003  0.27622666232322011E-004  0.52850723786042118E-004  0.11378928286048976E-003  0.49802739241415784E-004  0.37337333541723150E-004  0.27627384426933478E-004  0.12909525149280635E-004  0.56073089107179807E-005  0.23140028663174705E+000  0.73516511396449361E-005  0.15484240202392291E-004  0.33324642469239079E-004  0.11007674539923031E-004 -0.23356712051617415E-006  0.97996733204776950E-007 -0.10038270139496261E-005 -0.28437225289838707E-005  0.34185165630563805E-002  
0.33380067167595350E-003  0.93834173594065627E-003  0.22868824574423861E-002  0.96231286892692932E-003  0.94437059818260397E-003  0.71740367851623108E-003  0.34061661678372584E-003  0.18110790274599101E-003  0.35273884676417178E-001  0.28785625739772228E-002  0.91631019360425784E-002  0.23116998146916461E-001  0.10331668935163888E-001  </sparseX_slice>
        <sparseX_slice start="51" end="100">  0.12856902575066534E-001  0.96009207150096285E-002  0.47761736639459536E-002  0.31178276925945500E-002  0.50520130635284277E+000  0.67365729299004176E-005  0.27054351683989322E-004  0.68298206808816101E-004  0.16918962145299193E-004 -0.37827054266858157E-005 -0.71987945250542338E-006 -0.35057250906721773E-005 -0.74937045764366569E-005  0.74634265090316957E-002  0.54927323816196711E-003  0.18615879262464904E-002  0.47261299616060725E-002  0.19021914992508125E-002  0.21552854880786260E-002  0.16225652919067371E-002  0.75023021327093038E-003  0.42533377144698492E-003  0.10891027655686486E+000  0.85149656187714796E-002  0.26954280294424326E-001  0.67774657875676048E-001  0.30597413744789106E-001  0.42667314107418690E-001  0.31052632396837747E-001  0.15362290664932188E-001  0.10665537624453275E-001  0.16813357032409465E+000  0.13937709463611834E-001  0.40552789913347251E-001  0.99578202141074837E-001  0.46666894377622045E-001  0.71579675694842401E-001  
0.50463217582461160E-001  0.25128871775061030E-001  0.18505474390984926E-001  0.16100801944107326E+000 -0.73672322489903734E-005  0.71612252752494824E-006  0.14950904492295446E-004 -0.37865089660537834E-005 -0.50849381255118175E-005 -0.12886671203886740E-005 -0.27505356364781419E-005 -0.37458673759517486E-005  0.23785993926625460E-002  </sparseX_slice>
        <sparseX_slice start="101" end="150">  0.29297600576296578E-005  0.35774408666421569E-003  0.10830282638493770E-002  0.30523798520103526E-003  0.75342643989662192E-003  0.53573645724507870E-003  0.21306616334483436E-003  0.15130307417396193E-003  0.34709783416421461E-001  0.25542237863434417E-002  0.67098173283063750E-002  0.15796884421389240E-001  0.72212866777128558E-002  0.16277546603867793E-001  0.10640361974678544E-001  0.50222324306391092E-002  0.42068291672816812E-002  0.75779629232294046E-001  0.79794852076713607E-002  0.15837774951518415E-001  0.33276944262213552E-001  0.18084010808688423E-001  0.39936093290358139E-001  0.24882175864679949E-001  0.12425903193460118E-001  0.10820042688660304E-001  0.17077351642252641E-001  0.37208680869341760E-002  0.44290221244220138E-002  0.60277493464388245E-002  0.57737353515719247E-002  0.12263027055773592E-001  0.65203460488872326E-002  0.38374557156393317E-002  0.36316414872637872E-002 -0.33397181039643571E-001  0.18681010336653914E-005 
-0.35513337220240660E-006 -0.36780755754356007E-005  0.54421815305985316E-006  0.10412461403060573E-005  0.34080192538966774E-006  0.55644429379935995E-006  0.80606278232354190E-006 -0.49338234712346561E-003  0.11644678949563106E-004 -0.84439538993889894E-004 -0.26542645572848357E-003 -0.83284657371165367E-004 -0.16064015213481568E-003  </sparseX_slice>
        <sparseX_slice start="151" end="200"> -0.11562151339314527E-003 -0.46153305555526238E-004 -0.34232559402430045E-004 -0.71996967891981324E-002 -0.40443767937634544E-003 -0.15184644337580444E-002 -0.38636229126798607E-002 -0.17937207874218141E-002 -0.34520231436762621E-002 -0.23170787272952884E-002 -0.10718302738483394E-002 -0.93484904653632359E-003 -0.15718633179723312E-001 -0.14189984407841181E-002 -0.35129557002187700E-002 -0.81027537983459578E-002 -0.43343391047547201E-002 -0.84232498687645922E-002 -0.54151294616065545E-002 -0.26210783115792257E-002 -0.23741775814749250E-002 -0.50095396919271045E-002 -0.10494334359917995E-002 -0.12992048658291529E-002 -0.20145571680239543E-002 -0.17688354872747389E-002 -0.35898813107055989E-002 -0.19905547649488680E-002 -0.10999987341119917E-002 -0.10837443882866782E-002  0.73475935996135540E-003  0.15089520500113105E-003  0.19674959215524614E-003  0.34361580480890032E-003  0.28039119569606895E-003  0.53173600792882209E-003  0.30937839296631847E-003  
0.16192015325744975E-003  0.16618706972083917E-003  0.81432064813534346E-002 -0.45575490888218461E-006  0.87796911531965421E-007  0.89928523939566628E-006 -0.13097270584488048E-006 -0.25351873602692117E-006 -0.83150368061490408E-007 -0.13545233241302579E-006 -0.19651009779129237E-006  0.12030100151602659E-003 -0.28625437745564395E-005  </sparseX_slice>
        <sparseX_slice start="201" end="250">  0.20640315193116096E-004  0.64885701225084075E-004  0.20402405875000454E-004  0.39181533629479705E-004  0.28212722185767134E-004  0.11273360358837692E-004  0.83574172408135562E-005  0.17554959949459090E-002  0.98244439934844281E-004  0.37082852161067769E-003  0.94443134892953958E-003  0.43857174064867576E-003  0.84180607144286655E-003  0.56537936338355119E-003  0.26162727807503105E-003  0.22812170601311952E-003  0.38326610690644718E-002  0.34513153591099731E-003  0.85756549586635765E-003  0.19804897486937626E-002  0.10590160338234287E-002  0.20538362036202022E-002  0.13212458101193915E-002  0.63956937373269886E-003  0.57919992158711518E-003  0.12214718373827593E-002  0.25552716361425314E-003  0.31673514821117430E-003  0.49214499816866168E-003  0.43129204147793264E-003  0.87498438759768798E-003  0.48555525699809206E-003  0.26811912681202799E-003  0.26419000285020182E-003 -0.25336449842380685E-003 -0.51969264588120473E-004 -0.67865960941245008E-004 
-0.11874650292311559E-003 -0.96740667130934858E-004 -0.18331968456641480E-003 -0.10674719735538950E-003 -0.55835100541160958E-004 -0.57312380743733250E-004  0.43683396605470601E-004  0.89492853902404470E-005  0.11704785030136076E-004  0.20518249787687305E-004  0.16688915532590644E-004  0.31600458101113510E-004  0.18415951626001675E-004  </sparseX_slice>
        <sparseX_slice start="251" end="300">  0.96269022231208346E-005  0.98826153541222375E-005 -0.21255256151494518E-002  0.11896269851871862E-006 -0.22929387379358427E-007 -0.23475580923797254E-006  0.34167906559497748E-007  0.66169053078062817E-007  0.21704247507356046E-007  0.35353111579058634E-007  0.51292345332035964E-007 -0.31400758513978960E-004  0.74741185388166785E-006 -0.53880438034498216E-005 -0.16938109385164849E-004 -0.53264059513292295E-005 -0.10227228545412957E-004 -0.73642553790888876E-005 -0.29427650026270762E-005 -0.21815488925739704E-005 -0.45821651619591956E-003 -0.25639756701043981E-004 -0.96799163080013367E-004 -0.24653871865340933E-003 -0.11448796510671739E-003 -0.21972776379796429E-003 -0.14757861575408500E-003 -0.68292526570079210E-004 -0.59545783080467332E-004 -0.10003945368616822E-002 -0.90076608165141954E-004 -0.22385083959590373E-003 -0.51699446574733686E-003 -0.27644536788087360E-003 -0.53608859169171634E-003 -0.34487848151636521E-003 -0.16694434931538896E-003 
-0.15118490752474254E-003 -0.31882645791749713E-003 -0.66693462236728040E-004 -0.82673126903272056E-004 -0.12846866773473644E-003 -0.11257498499412605E-003 -0.22838329636963884E-003 -0.12674085452889220E-003 -0.69983010280148203E-004 -0.68957755616849158E-004  0.66132761413141545E-004  0.13564245932752976E-004  0.17714476342685280E-004  </sparseX_slice>
        <sparseX_slice start="301" end="325">  0.30997720287980575E-004  0.25251631591266909E-004  0.47849374274360035E-004  0.27863644112763032E-004  0.14573986724856017E-004  0.14959637245552618E-004 -0.16125095430360970E-004 -0.33033338317280352E-005 -0.43207077045499200E-005 -0.75746803190032280E-005 -0.61606091417372481E-005 -0.11664754097524797E-004 -0.67981484441064578E-005 -0.35536343680784606E-005 -0.36480400096216348E-005  0.29761731326277555E-005  0.60965842260543947E-006  0.79747365065502594E-006  0.13981646317361179E-005  0.11370752503756874E-005  0.21529195613530894E-005  0.12547497791125928E-005  0.65588686086622367E-006  0.67331346740886758E-006  0.00000000000000000E+000  </sparseX_slice>
      </sparseX>
      <sparseX i="6" alpha="3633.9325689670009" sparseCutoff="1.0000000000000000" sliced="T">
        <sparseX_slice start="1" end="50">  0.72160743326694921E+000  0.35613029138256653E-004  0.64876206175921286E-004  0.40170011443589074E-004  0.13094409361351015E-004  0.15572462519490660E-004  0.43027962507615600E-005  0.17506701765455699E-005  0.93657992092863310E-006  0.16450856900376917E+000  0.70554507076470499E-003  0.12008331873870819E-002  0.79339394171248695E-003  0.29221364586352503E-003  0.37884740783688544E-003  0.11447623392435835E-003  0.50771381235565427E-004  0.29326846452858360E-004  0.18751933550036095E-001  0.70007600858500709E-002  0.11190965387208448E-001  0.79100896675848020E-002  0.33178671759024354E-002  0.46351122600800290E-002  0.15340424186289104E-002  0.74126253728061813E-003  0.46176808270871676E-003  0.45806681071106703E+000  0.22141829098662061E-002  0.30138615580809517E-002  0.20060388699811951E-002  0.85432001772737327E-003  0.11739204541025576E-002  0.38812296501601243E-003  0.19169204773181094E-003  0.12319778113999353E-003  0.73841643562821496E-001  
0.31098197113512398E-001  0.40422069885297458E-001  0.28994863760378044E-001  0.14292056576429228E-001  0.20636199224603701E-001  0.75162483306486791E-002  0.40391750747423173E-002  0.27878748122103264E-002  0.14538736257542573E+000  0.69103217382444834E-001  0.76209108311886223E-001  0.56521501443096353E-001  0.33637350766220819E-001  </sparseX_slice>
        <sparseX_slice start="51" end="100">  0.47897496111413536E-001  0.19566264734502872E-001  0.11655648992274753E-001  0.87932361496507530E-002  0.34372838509854114E+000  0.19498238554196056E-002  0.18345989046338201E-002  0.12126691821131763E-002  0.66181895103689778E-003  0.97478322110030669E-003  0.35689544620877970E-003  0.19559847290666720E-003  0.13690529666865480E-003  0.55409971430740654E-001  0.27405757276118946E-001  0.25538056842575894E-001  0.18481243777870388E-001  0.11751826551375782E-001  0.17510269450880491E-001  0.70871523974803206E-002  0.42039099843027899E-002  0.31401021793897414E-002  0.15428660676204156E+000  0.86156980335982833E-001  0.74030428507321971E-001  0.57217690934190137E-001  0.43715110967227092E-001  0.60629972663666189E-001  0.27835578437167427E-001  0.18072054287973715E-001  0.14502463505120123E-001  0.81865289405038053E-001  0.53727421467798096E-001  0.41227392189356504E-001  0.34426307474304495E-001  0.31797578517168766E-001  0.40806925333216712E-001  
0.21042189929767356E-001  0.14619387124481048E-001  0.12270967308656936E-001 -0.61752717455863776E-001 -0.30841909102985573E-003 -0.40531966014487210E-003 -0.28316906833921547E-003 -0.12869255751029899E-003 -0.18710587027678994E-003 -0.64799980222633762E-004 -0.33272450734583137E-004 -0.22278359907942010E-004 -0.99547097602051791E-002  </sparseX_slice>
        <sparseX_slice start="101" end="150"> -0.43395769027587700E-002 -0.54584542635033638E-002 -0.41104744591040085E-002 -0.21585590391622147E-002 -0.32813075529666562E-002 -0.12446176335682911E-002 -0.69254217717154738E-003 -0.49774471701896259E-003 -0.27718447610513484E-001 -0.13650108576122888E-001 -0.14684950576428836E-001 -0.11437643030163822E-001 -0.72139280847373253E-002 -0.10702220533748539E-001 -0.44766297741636613E-002 -0.27298510472377802E-002 -0.21444437999965228E-002 -0.20799623574147157E-001 -0.12043633805057545E-001 -0.10250286530201335E-001 -0.83163488333986325E-002 -0.66584865263126332E-002 -0.95040816805769552E-002 -0.43964930620631806E-002 -0.29019737957153183E-002 -0.24333708898905881E-002  0.26422940905134946E-002  0.13507495630395493E-002  0.14183166742680045E-002  0.11598405455045858E-002  0.77484888706977925E-003  0.11972630968066678E-002  0.51738653571005877E-003  0.32687469172712865E-003  0.26895646864593900E-003  0.15645868995945968E-001  0.77904760452396208E-004  
0.10312552095278667E-003  0.72106522526476762E-004  0.32655259997676002E-004  0.47458093362051284E-004  0.16415690603843688E-004  0.84160181735206688E-005  0.56280510706072304E-005  0.25221575862172129E-002  0.10961675408252341E-002  0.13879476641635914E-002  0.10458056816961560E-002  0.54707255498744284E-003  0.83188289297956935E-003  </sparseX_slice>
        <sparseX_slice start="151" end="200">  0.31508755933892167E-003  0.17506106263795096E-003  0.12567729123583323E-003  0.70228358840248133E-002  0.34480154310097917E-002  0.37286062588772406E-002  0.29041625518456595E-002  0.18238837108475591E-002  0.27098822043238741E-002  0.11311952090196594E-002  0.68878557382823441E-003  0.54068055818857911E-003  0.52698601618412604E-002  0.30422409015448148E-002  0.25958855940614060E-002  0.21044699887245669E-002  0.16788377013075961E-002  0.24028088148352411E-002  0.11087695220775339E-002  0.73098059223447728E-003  0.61281203602511997E-003 -0.94675970828769686E-003 -0.48253644820982639E-003 -0.50914352030552619E-003 -0.41636843674503778E-003 -0.27702775009019536E-003 -0.42881000021838950E-003 -0.18502658787445983E-003 -0.11677034548826420E-003 -0.96011157122546893E-004  0.16961661240797200E-003  0.86189721555884525E-004  0.91389788546426942E-004  0.74740254067361258E-004  0.49525312294104216E-004  0.76793789163775230E-004  0.33086287004726139E-004  
0.20858323418464379E-004  0.17137667275608139E-004 -0.38379694649025449E-002 -0.19107887090839339E-004 -0.25301201816469282E-004 -0.17691467974812585E-004 -0.80108976149339850E-005 -0.11642094920729461E-004 -0.40267838901088631E-005 -0.20643299822458712E-005 -0.13804106356485544E-005 -0.61869134939594381E-003 -0.26885980279289800E-003  </sparseX_slice>
        <sparseX_slice start="201" end="250"> -0.34051596462438764E-003 -0.25658161442804292E-003 -0.13419988573487080E-003 -0.20406791223977097E-003 -0.77289205169808251E-004 -0.42938894365223720E-004 -0.30824644838560019E-004 -0.17227186094229126E-002 -0.84570379293578577E-003 -0.91471478994997702E-003 -0.71245991498152526E-003 -0.44736491643479161E-003 -0.66472395435556548E-003 -0.27745508553485450E-003 -0.16893254462096679E-003 -0.13260411637968836E-003 -0.12927094296068711E-002 -0.74617860986110108E-003 -0.63676559185104015E-003 -0.51620600189867464E-003 -0.41174225233442396E-003 -0.58936361351417021E-003 -0.27193316956990171E-003 -0.17926920236545119E-003 -0.15028761181217626E-003  0.23224244380096366E-003  0.11835305814746325E-003  0.12490346984135806E-003  0.10214391612838949E-003  0.67949563962417723E-004  0.10518630096762202E-003  0.45383921087821347E-004  0.28640562670531926E-004  0.23548212348275091E-004 -0.58841699615976772E-004 -0.29896464948662822E-004 -0.31706461155745248E-004 
-0.25930170040050858E-004 -0.17179350251302553E-004 -0.26640109770973262E-004 -0.11477093080230922E-004 -0.72350977059878573E-005 -0.59443415777084740E-005  0.10206387111920973E-004  0.51850649966850339E-005  0.55000660962927862E-005  0.44980699792253317E-005  0.29795885362674250E-005  0.46207870332066139E-005  0.19906083401819510E-005  </sparseX_slice>
        <sparseX_slice start="251" end="300">  0.12548142704751551E-005  0.10309220874136154E-005  0.10020267164879463E-002  0.49887101106115813E-005  0.66057470978752656E-005  0.46189711608102562E-005  0.20915104731824289E-005  0.30395528774511371E-005  0.10513225954846967E-005  0.53895896320851002E-006  0.36039932041245469E-006  0.16152949288002118E-003  0.70194241997618992E-004  0.88903290228746878E-004  0.66989433666930130E-004  0.35037261400113689E-004  0.53278617449186656E-004  0.20178832785420657E-004  0.11210551491902099E-004  0.80477296468479878E-005  0.44977170543397075E-003  0.22079737047623179E-003  0.23881688076599804E-003  0.18601148883125567E-003  0.11679874762830893E-003  0.17354762188498101E-003  0.72438351214565474E-004  0.44105030709838188E-004  0.34620335737473986E-004  0.33750382773169618E-003  0.19481321729577673E-003  0.16624823909272370E-003  0.13477208639168939E-003  0.10749783676763552E-003  0.15387198465344911E-003  0.70996451994747344E-004  0.46803602417580303E-004  
0.39237074241972681E-004 -0.60634441081183834E-004 -0.30899760584204813E-004 -0.32610212036442401E-004 -0.26668073348229193E-004 -0.17740378482554376E-004 -0.27462284264819148E-004 -0.11848910146414663E-004 -0.74775127129103956E-005 -0.61479883212407976E-005  0.15362538862790147E-004  0.78054054867970686E-005  0.82780286461449122E-005  </sparseX_slice>
        <sparseX_slice start="301" end="325">  0.67699357361548133E-005  0.44852121175973874E-005  0.69552622798578523E-005  0.29964589710749073E-005  0.18889482354905028E-005  0.15519541299691042E-005 -0.37684678987178496E-005 -0.19144535471667437E-005 -0.20307761803664592E-005 -0.16608116737254239E-005 -0.11001389653239165E-005 -0.17061155976483525E-005 -0.73498292626652427E-006 -0.46330832608509362E-006 -0.38064135211525422E-006  0.69570897850228834E-006  0.35343167217806712E-006  0.37490930318546488E-006  0.30660877096082743E-006  0.20309947640474193E-006  0.31497128215496776E-006  0.13568713922347203E-006  0.85532421054137641E-007  0.70270993670317452E-007  0.00000000000000000E+000  </sparseX_slice>
      </sparseX>
      <sparseX i="7" alpha="-57070.339922276944" sparseCutoff="1.0000000000000000" sliced="T">
        <sparseX_slice start="1" end="50">  0.86374173828105116E+000  0.25201512962676527E-006  0.25652273245268425E-006  0.18863324190448181E-006  0.10834669022914924E-006  0.62686962837519899E-007  0.35197628024039360E-007  0.12470259257425179E-007  0.23188989851118512E-008  0.18600235711232434E-001  0.10002376132418450E-004  0.88076001114825651E-005  0.78249693017311851E-005  0.57547953345186626E-005  0.32110686610707668E-005  0.15749244770461765E-005  0.66199919920583560E-006  0.16589776279232722E-006  0.20027327219472184E-003  0.21147432562895825E-003  0.15483564734174488E-003  0.17010940936100242E-003  0.16264220868036710E-003  0.97168297674778546E-004  0.44603775035307369E-004  0.24945485790836532E-004  0.14486812484140505E-004  0.19784574822947404E+000  0.80905787799396504E-004  0.53073429283959690E-004  0.63542203516962135E-004  0.59674407362561765E-004  0.31103125127579681E-004  0.12434780230702415E-004  0.61995400771037803E-005  0.19234265720017914E-005  0.30126332513258796E-002  
0.26325583632043170E-002  0.13864403607721108E-002  0.20782495848040254E-002  0.25114696533795051E-002  0.15371852467302373E-002  0.64877367622960590E-003  0.43171883248483366E-003  0.32553568835455110E-003  0.22658937479610251E-001  0.18035759758899698E-001  0.68122508449047622E-002  0.13648476016658260E-001  0.20157615023782924E-001  </sparseX_slice>
        <sparseX_slice start="51" end="100">  0.13364801555349793E-001  0.56770411143509418E-002  0.42271896368961124E-002  0.38437409684876681E-002  0.39697987063920082E+000  0.13398196365464035E-003  0.60000999815047886E-004  0.10185587580087337E-003  0.11277751058923208E-003  0.53476628178649019E-004  0.15488749317543091E-004  0.89839459705631077E-005  0.32718063608149740E-005  0.60448848110072010E-002  0.46528756155731930E-002  0.16746315195878580E-002  0.34968674585035206E-002  0.48923019141336350E-002  0.29473900836037422E-002  0.11092780864493000E-002  0.81112481199882049E-003  0.69434403817158488E-003  0.64297828100774085E-001  0.48044107635755180E-001  0.12965471767479517E-001  0.34195221367746484E-001  0.56745226000739994E-001  0.38434252522793491E-001  0.15818313487884570E-001  0.12217782503696872E-001  0.11911164951162628E-001  0.91226932026201177E-001  0.66485339587735948E-001  0.13791275698192679E-001  0.44463838838843861E-001  0.80932548158035703E-001  0.57162114627276543E-001  
0.24008120148462642E-001  0.18616364541130973E-001  0.18783655903176925E-001  0.10504904442620820E+000  0.45889741805305725E-005 -0.35467249080770662E-004 -0.30854227258074578E-005  0.19228608800332334E-004  0.11593832321784735E-005 -0.89758969255584942E-005 -0.28830795824328188E-005 -0.22779476394994239E-006  0.15996009370458514E-002  </sparseX_slice>
        <sparseX_slice start="101" end="150">  0.53448826982855854E-003 -0.79696603920655291E-003  0.11210614707917992E-003  0.10068600108469317E-002  0.50035585763321983E-003 -0.16022710249502112E-004  0.84294938423051143E-004  0.18150267267972401E-003  0.17014528695853556E-001  0.90817952565855897E-002 -0.39126977662068390E-002  0.32775573472111018E-002  0.13087773986407385E-001  0.93524991215281680E-002  0.29477041300918351E-002  0.26880140492382947E-002  0.35310958224456707E-002  0.34139856232001019E-001  0.21827655315006488E-001 -0.26192226558569079E-002  0.89854120280249174E-002  0.28226426520412108E-001  0.22995123546754731E-001  0.10052762943583333E-001  0.76438727264035704E-002  0.85138601549637812E-002  0.63880794720080477E-002  0.67875802316547367E-002  0.36004235405894254E-002  0.35782411592671878E-002  0.65232918362190043E-002  0.74620003383739615E-002  0.53560475572609649E-002  0.32797028053411698E-002  0.25507213872408749E-002 -0.21829102836644226E-001 -0.10830629156543303E-005  
0.71611178258003670E-005  0.52154698730648499E-006 -0.40751355946622784E-005 -0.38570975919274653E-006  0.17256316848933116E-005  0.54519207465368119E-006  0.38093547251099835E-007 -0.33239572566406771E-003 -0.11503717293649747E-003  0.15850541832787869E-003 -0.28595655374772619E-004 -0.21306936718307195E-003 -0.10892511266597314E-003  </sparseX_slice>
        <sparseX_slice start="151" end="200"> -0.12832973893060398E-005 -0.19930487749240862E-004 -0.38963323517935680E-004 -0.35356047134700030E-002 -0.19216949283689178E-002  0.74593112176542459E-003 -0.74107941993144287E-003 -0.27650093992301317E-002 -0.19871845370278110E-002 -0.64996818292176357E-003 -0.58355537507201157E-003 -0.75268248058946489E-003 -0.70942333325087576E-002 -0.45865585916852938E-002  0.44442051581393784E-003 -0.19616609411542080E-002 -0.59388371785233139E-002 -0.48355570729977058E-002 -0.21261518115355056E-002 -0.16150244361744092E-002 -0.17961281491507893E-002 -0.18772801535670825E-002 -0.19817781149209829E-002 -0.10304274653720321E-002 -0.10293622666517209E-002 -0.19028954359791015E-002 -0.21618811886991935E-002 -0.15270684181522603E-002 -0.93095218987889134E-003 -0.73366879658501825E-003  0.27584039854384020E-003  0.28993501091079940E-003  0.14890767244385655E-003  0.14979164056960745E-003  0.27886598785078045E-003  0.31412516229250301E-003  0.21863991859279796E-003  
0.13321623473389345E-003  0.10658092530931715E-003  0.53161492287902385E-002  0.26487537541984160E-006 -0.17421627531440160E-005 -0.12591953100533816E-006  0.99319410101771417E-006  0.95229111047492625E-007 -0.41900463675991859E-006 -0.13226561637346634E-006 -0.91763347969959097E-008  0.80949972789346892E-004  0.28049367490118491E-004  </sparseX_slice>
        <sparseX_slice start="201" end="250"> -0.38540766756213027E-004  0.70107613848130360E-005  0.51925134107017282E-004  0.26571451202679975E-004  0.35358327786758165E-006  0.48761593053566103E-005  0.95009533730978157E-005  0.86104327839201997E-003  0.46829075663060664E-003 -0.18109416271185370E-003  0.18099605155090878E-003  0.67378622268653360E-003  0.48434291960335068E-003  0.15862240847021840E-003  0.14234682761812367E-003  0.18348463698753084E-003  0.17276936822233683E-002  0.11174136579023193E-002 -0.10739572191199103E-003  0.47854661445678596E-003  0.14469864049563262E-002  0.11781558254300316E-002  0.51813021816964099E-003  0.39357589554335574E-003  0.43769316715181269E-003  0.45718330777459786E-003  0.48252224912642873E-003  0.25070717011496429E-003  0.25050012496980601E-003  0.46331662568957168E-003  0.52623970235891361E-003  0.37149389301629571E-003  0.22644710898848302E-003  0.17855700180241586E-003 -0.95002305781270174E-004 -0.99841220531000940E-004 -0.51254129616352117E-004 
-0.51572176966780565E-004 -0.96038050149680637E-004 -0.10814715221167983E-003 -0.75232134117926685E-004 -0.45838948436363223E-004 -0.36695964396510269E-004  0.16359891718912805E-004  0.17190566664436603E-004  0.88209574197589760E-005  0.88780841836888577E-005  0.16537257288847397E-004  0.18616542328430292E-004  0.12943436595964442E-004  </sparseX_slice>
        <sparseX_slice start="251" end="300">  0.78865376805219393E-005  0.63173080533345475E-005 -0.13875427227202787E-002 -0.69145720539291285E-007  0.45469415147423069E-006  0.32853938136463934E-007 -0.25923694970260571E-006 -0.24869141584592628E-007  0.10934907022935992E-006  0.34516580084892622E-007  0.23939872692475162E-008 -0.21128365817869102E-004 -0.73213920169359737E-005  0.10058692233071787E-004 -0.18303444594752281E-005 -0.13553108946641483E-004 -0.69357620242068209E-005 -0.92725872327811933E-007 -0.12729426898348898E-005 -0.24799273156480194E-005 -0.22473679414600187E-003 -0.12222943654971726E-003  0.47260484563046350E-004 -0.47246437236079151E-004 -0.17586610658446949E-003 -0.12642024579789297E-003 -0.41404830161028237E-004 -0.37155734606672306E-004 -0.47892378802385226E-004 -0.45093707732586787E-003 -0.29165534956378665E-003  0.28021928243293426E-004 -0.12491185140217238E-003 -0.37767820120682090E-003 -0.30751048419856914E-003 -0.13523830870038850E-003 -0.10272816381998040E-003 
-0.11424313598244438E-003 -0.11932723186481850E-003 -0.12593965484471932E-003 -0.65433341884470815E-004 -0.65379862950628949E-004 -0.12092694680744237E-003 -0.13734860654237733E-003 -0.96957571749890163E-004 -0.59100976135575731E-004 -0.46603069323909366E-004  0.24796098144604841E-004  0.26058915632315282E-004  0.13377262063669431E-004  </sparseX_slice>
        <sparseX_slice start="301" end="325">  0.13460419578447347E-004  0.25066366664447916E-004  0.28226536835717343E-004  0.19635235769458767E-004  0.11963756054358882E-004  0.95777156899733767E-005 -0.60387162502695256E-005 -0.63452931834790467E-005 -0.32558868441100818E-005 -0.32770089767747413E-005 -0.61041701597752272E-005 -0.68715797821857858E-005 -0.47774640841262352E-005 -0.29109480610541200E-005 -0.23317978055617978E-005  0.11144968004009684E-005  0.11710709291413715E-005  0.60088711711078196E-006  0.60479197173264232E-006  0.11265741660194867E-005  0.12681895529923084E-005  0.88168868858598153E-006  0.53722045690547113E-006  0.43034794748337698E-006  0.00000000000000000E+000  </sparseX_slice>
      </sparseX>
      <sparseX i="8" alpha="-45753.454308083354" sparseCutoff="1.0000000000000000" sliced="T">
        <sparseX_slice start="1" end="50">  0.88501126901483917E+000  0.59758891454967591E-006  0.58696183925080498E-006  0.52837391466951350E-006  0.31349443814302134E-006  0.16648068326168319E-006  0.80795078040942722E-007  0.31336866726789244E-007  0.11862837510634100E-007  0.26217102248563079E-001  0.19178684070398385E-004  0.19556665364615045E-004  0.21089255898754712E-004  0.12390502570483920E-004  0.65421764165348706E-005  0.40537283739019412E-005  0.17116446853754260E-005  0.58121644697922883E-006  0.38832073351830187E-003  0.31796617598502119E-003  0.33805739329577551E-003  0.43030612827576570E-003  0.25657747286745810E-003  0.13792776663159489E-003  0.10986773959266982E-003  0.53963419740861614E-004  0.19196356742278263E-004  0.20952792772986290E+000  0.11377130147747273E-003  0.12043316596635157E-003  0.16788221799718601E-003  0.93663982847129787E-004  0.46825880724688105E-004  0.38117141267645044E-004  0.16932155874830116E-004  0.49938119182202444E-005  0.43889719683949885E-002  
0.28469422859125149E-002  0.31610458961173343E-002  0.49863843276332278E-002  0.29298542918279064E-002  0.15505692177696729E-002  0.15700287706592192E-002  0.84564946082872280E-003  0.30372089173821907E-003  0.24803047167772575E-001  0.14270687761365060E-001  0.16628551228083273E-001  0.29936986264021508E-001  0.18150755001174780E-001  </sparseX_slice>
        <sparseX_slice start="51" end="100">  0.98999535774274856E-002  0.11891137616308691E-001  0.71198497800802115E-002  0.27742062834998091E-002  0.35900681679366364E+000  0.15910412672565010E-003  0.16931316239478077E-003  0.27693345674553222E-003  0.14931903024040759E-003  0.70715392334589488E-004  0.66250567549527067E-004  0.29124044630552178E-004  0.73377575266424276E-005  0.75200994561525130E-002  0.41682491272575671E-002  0.47141712102070493E-002  0.83473652367262972E-002  0.48715953092320127E-002  0.25105341239433114E-002  0.28340140801486938E-002  0.15499690639710459E-002  0.53866480124428978E-003  0.60100877680196910E-001  0.31654850422446146E-001  0.38105769480956266E-001  0.72109610082087439E-001  0.44707054615316273E-001  0.24320039098389732E-001  0.31211927730606548E-001  0.19112713321172377E-001  0.74884366417099432E-002  0.72815962359321154E-001  0.36408798784920586E-001  0.45880614969784919E-001  0.87562426617755623E-001  0.56404583352354702E-001  0.30903280771767964E-001  
0.41494303267114556E-001  0.26074318857649766E-001  0.10444533400441464E-001  0.37967145713908246E-001 -0.14270998547829142E-004 -0.18910909212289184E-004  0.95639470841166366E-005  0.18136890252399854E-006 -0.48523381285212577E-005  0.37678147562602859E-005  0.39119242869232843E-006 -0.17669972656295927E-005  0.79529607372030235E-003  </sparseX_slice>
        <sparseX_slice start="101" end="150"> -0.21165304149799803E-003 -0.21688280647783330E-003  0.39256421101318086E-003  0.22149090594794044E-003  0.11197966799865369E-004  0.27649514727288857E-003  0.13972318581621465E-003  0.12699294969869576E-004  0.63560319015593843E-002  0.13903442387107673E-003  0.15272133288995147E-002  0.44341494814090707E-002  0.41199756212067368E-002  0.17841426836839429E-002  0.39517082391469791E-002  0.24933841148968576E-002  0.85477275870307547E-003  0.10890475580705087E-001  0.16538321494577416E-002  0.57319441213101166E-002  0.84772718489577650E-002  0.92473150618455676E-002  0.46130728738910578E-002  0.82278214086898595E-002  0.55014144222534150E-002  0.22659443661807652E-002  0.81439875633774052E-003  0.79676551293335384E-003  0.24678743350247745E-002  0.94400504169794516E-003  0.20804160440565165E-002  0.12937406609364304E-002  0.14237966155976577E-002  0.11486709944986146E-002  0.73481990673405638E-003 -0.66670853183650198E-002  0.38190765592950459E-005  
0.38482293189538985E-005 -0.30458638596202045E-005  0.23095224008379164E-006  0.15398865261311075E-005 -0.77418864864635839E-006 -0.21118412308308760E-006  0.34883260205416918E-006 -0.13965513280371806E-003  0.52840356417461987E-004  0.46154432898786810E-004 -0.11938429177194227E-003 -0.37987337694157896E-004  0.70955225379587837E-005  </sparseX_slice>
        <sparseX_slice start="151" end="200"> -0.59333105349388402E-004 -0.36203146212856274E-004 -0.65005610141107372E-005 -0.11161283308801083E-002 -0.10682943924541552E-003 -0.27274870364596594E-003 -0.13062820472914179E-002 -0.78855576284587320E-003 -0.36465701317438948E-003 -0.85855155201238246E-003 -0.60742313787100991E-003 -0.24265963691437359E-003 -0.19123831536151990E-002 -0.58750816477482956E-003 -0.10777487896083974E-002 -0.24616130397157976E-002 -0.17972177372958709E-002 -0.10063465081000926E-002 -0.17833031063735280E-002 -0.13076233946133320E-002 -0.60174046888560972E-003 -0.20224610357708709E-003 -0.32780303023171068E-003 -0.67610900172371301E-003 -0.34875614668038781E-003 -0.58341870442053106E-003 -0.42731855631554207E-003 -0.42157714005817970E-003 -0.34563730894415122E-003 -0.23328220518079013E-003  0.25112689633793288E-004  0.68247280026140390E-004  0.93449276418239771E-004  0.68035449152453520E-004  0.84423324359290960E-004  0.75049668708081698E-004  0.65857218562476538E-004  
0.55216831991894224E-004  0.39967244047496667E-004  0.16253350757985446E-002 -0.93531402148298200E-006 -0.94099284577760108E-006  0.74451299560880594E-006 -0.57235430103033380E-007 -0.37691082515833484E-006  0.18911981521423198E-006  0.51780810282334383E-007 -0.85103669477272648E-007  0.34045819878130973E-004 -0.12946779888188935E-004  </sparseX_slice>
        <sparseX_slice start="201" end="250"> -0.11301893380647665E-004  0.29186913868104663E-004  0.92553317107095682E-005 -0.17484336863051081E-005  0.14495601704247894E-004  0.88525188169361213E-005  0.15936703054477226E-005  0.27209529181738366E-003  0.26055239183253455E-004  0.66396384255987495E-004  0.31939804414336071E-003  0.19242915149057612E-003  0.89034509364960843E-004  0.20975793758537683E-003  0.14848006977450295E-003  0.59345039064643571E-004  0.46621023573450597E-003  0.14365530030850072E-003  0.26286522823467913E-003  0.60190236715931518E-003  0.43867732048667377E-003  0.24582271560641563E-003  0.43568286333841406E-003  0.31960111580416512E-003  0.14711416889031241E-003  0.49304556697654074E-004  0.80231308554038437E-004  0.16510485515929080E-003  0.85275483028958370E-004  0.14247279478942846E-003  0.10443635289046471E-003  0.10297969695056518E-003  0.84434496454132766E-004  0.56985678692869690E-004 -0.86579509706732647E-005 -0.23623502052142593E-004 -0.32274649664794918E-004 
-0.23531329645073830E-004 -0.29161335768156633E-004 -0.25946381647289057E-004 -0.22755481433592690E-004 -0.19079891102932937E-004 -0.13810019389747796E-004  0.14924748424738795E-005  0.40885878106385016E-005  0.55733638660768020E-005  0.40693788244935650E-005  0.50364305958316067E-005  0.44851327147338773E-005  0.39313258137892656E-005  </sparseX_slice>
        <sparseX_slice start="251" end="300">  0.32964813179405899E-005  0.23859133859034479E-005 -0.42423922259546645E-003  0.24417776702481617E-006  0.24564509632088258E-006 -0.19435067041867847E-006  0.14949309919033328E-007  0.98395837549048405E-007 -0.49367454545924309E-007 -0.13518784848918705E-007  0.22214111149820020E-007 -0.88865196923331493E-005  0.33800159687003897E-005  0.29505166510401527E-005 -0.76191286789487841E-005 -0.24157355055990178E-005  0.45656648895142344E-006 -0.37839191790399678E-005 -0.23109352889030488E-005 -0.41606871137202865E-006 -0.71021352329937086E-004 -0.68009218090012250E-005 -0.17329512563261846E-004 -0.83378043335626524E-004 -0.50229192341672967E-004 -0.23240912762530941E-004 -0.54755091269248730E-004 -0.38759956696679281E-004 -0.15492017872599644E-004 -0.12168854959146327E-003 -0.37500851141526681E-004 -0.68613468740688600E-004 -0.15712525134484401E-003 -0.11450773910775427E-003 -0.64168947520044711E-004 -0.11373033283648009E-003 -0.83429827196208561E-004 
-0.38403635187994052E-004 -0.12869301299948968E-004 -0.20945043696017972E-004 -0.43098064701722231E-004 -0.22260977443563907E-004 -0.37190334637359010E-004 -0.27262376891341362E-004 -0.26881568813967396E-004 -0.22040623559201333E-004 -0.14875409940784825E-004  0.22598677920388104E-005  0.61671168997033789E-005  0.84248186616825180E-005  </sparseX_slice>
        <sparseX_slice start="301" end="325">  0.61428546416580474E-005  0.76121736675194608E-005  0.67731911142340458E-005  0.59400860058464714E-005  0.49806203417039972E-005  0.36049656531501586E-005 -0.55092176171053353E-006 -0.15094760713987804E-005 -0.20574601438761164E-005 -0.15023354217704540E-005 -0.18592557991216094E-005 -0.16557960527938820E-005 -0.14513118963233823E-005 -0.12169512345244659E-005 -0.88079841881307728E-006  0.10168170976441427E-006  0.27864364379944917E-006  0.37976546566281268E-006  0.27731649232953613E-006  0.34318274289834676E-006  0.30563873440757340E-006  0.26788751720850541E-006  0.22462895525432555E-006  0.16258047337652376E-006  0.00000000000000000E+000  </sparseX_slice>
      </sparseX>
      <sparseX i="9" alpha="-188.10287090322421" sparseCutoff="1.0000000000000000" sliced="T">
        <sparseX_slice start="1" end="50">  0.58115822866844191E+000  0.15836135247112047E-003  0.17231423868967956E-003  0.95369825423691502E-004  0.39297869554595510E-004  0.21965684016917140E-004  0.58209967981018856E-005  0.21148261701314518E-005  0.71162338028320917E-006  0.13524031651398202E+000  0.15523562954105107E-002  0.22536030533030437E-002  0.12773412395890222E-002  0.59114893006247734E-003  0.42309845014372861E-003  0.11839977374969104E-003  0.52527405321944404E-004  0.18811951445765117E-004  0.15735768942571993E-001  0.76675291949383547E-002  0.15149556792258791E-001  0.87240878342682172E-002  0.45511264323008036E-002  0.41585904850202004E-002  0.12251168558084478E-002  0.68812659343696423E-003  0.25931130504799627E-003  0.42764970948861936E+000  0.18453737283505435E-002  0.50745723406340508E-002  0.16277508241256309E-002  0.10439482908436368E-002  0.10220943203457789E-002  0.23966157812612635E-003  0.17179023822831512E-003  0.52039932209063727E-004  0.70369581890678559E-001  
0.12877714614254337E-001  0.51914937660997078E-001  0.16782236422086948E-001  0.12114202737845876E-001  0.15406206268985969E-001  0.37668990126939672E-002  0.38157806800394327E-002  0.12378656817045091E-002  0.15734464815608612E+000  0.11221169473662477E-001  0.10578545701987645E+000  0.20432651493808601E-001  0.20931318034403894E-001  </sparseX_slice>
        <sparseX_slice start="51" end="100">  0.38560151476733993E-001  0.83141451623539239E-002  0.16061362639207585E-001  0.52715480606477265E-002  0.48467360932229364E+000 -0.10350901634723941E-002  0.30152300579794344E-002 -0.13087566933850899E-002  0.15657343694726867E-003  0.50016370718553981E-003  0.40595480225650214E-004  0.18387762297899883E-003  0.35975675727311569E-004  0.79752840899248958E-001 -0.73734373476146984E-002  0.36503493207480163E-001 -0.10839792061613989E-001  0.28630089206262799E-002  0.97461827671625530E-002  0.11079511941257964E-002  0.48760795884493363E-002  0.12715337239078081E-002  0.25219017612939232E+000 -0.72615992275857190E-002  0.14039744884605965E+000 -0.27441274742610470E-002  0.19321571881862728E-001  0.60367512357573337E-001  0.10757961590719858E-001  0.37356143997349149E-001  0.12814304988413123E-001  0.20210374385623439E+000  0.63940243587464534E-002  0.12493106241791535E+000  0.24762093414862157E-001  0.22729131434651703E-001  0.72894822573998111E-001  
0.15030686380156828E-001  0.47909832613421029E-001  0.19011822887710219E-001  0.86878043109744660E-001 -0.36286953990882786E-005 -0.51436114583487548E-004 -0.76580282486952468E-003  0.21100576988835218E-004 -0.25228160639039713E-003 -0.70031629600936335E-004  0.32871314932784330E-004 -0.67966142701665603E-005  0.14295745872068165E-001  </sparseX_slice>
        <sparseX_slice start="101" end="150"> -0.10538211835435519E-003  0.52039215186131785E-003 -0.79219672973226442E-002 -0.41020733808904103E-003 -0.28590723921349650E-002 -0.10609271466389548E-002  0.91842403458142706E-003  0.76095667730442481E-004  0.45205244461854074E-001  0.41486807327095092E-003  0.97276574836678269E-002 -0.10899552589285686E-001 -0.64866538386094703E-003  0.35051706110579071E-002 -0.41995378375040213E-003  0.78467388646905802E-002  0.36200633763306734E-002  0.51233026721386118E-001  0.15641966652267456E-002  0.21384671121976315E-001  0.98122370458912558E-002  0.41997844115223108E-002  0.24735977973708894E-001  0.56349329756353950E-002  0.15404449755194061E-001  0.96166574741493368E-002  0.64937516172422320E-002  0.39825685562881269E-003  0.46819704029706722E-002  0.74584136153087463E-002  0.52195494838544881E-002  0.10237395735822750E-001  0.36866173643093770E-002  0.33716405671178023E-002  0.32816196459035207E-002 -0.17793566979009568E-001 -0.27560393116649432E-005  
0.10533314388238615E-004  0.18087441626554168E-003  0.48156473552140707E-006  0.56596426171415294E-004  0.14832255092413553E-004 -0.60232426468104887E-005  0.22110784656288271E-005 -0.29279240482917007E-002  0.19101094342578870E-004 -0.97477578666958631E-004  0.18663959961579136E-002  0.13901368732840166E-003  0.64872444797384611E-003  </sparseX_slice>
        <sparseX_slice start="151" end="200">  0.22511670834074915E-003 -0.18110943084096489E-003 -0.47801618867615345E-006 -0.92585251272111237E-002 -0.97199332303554142E-004 -0.19388125788193692E-002  0.26069727713952584E-002  0.14892725862482970E-003 -0.63448510257225576E-003  0.55387220149279886E-004 -0.16676104866677147E-002 -0.70779727879289288E-003 -0.10493080413342315E-001 -0.37147187462238977E-003 -0.43058760759338323E-002 -0.21475235647931169E-002 -0.10672077448873839E-002 -0.51716608472283264E-002 -0.12787492118305453E-002 -0.33238395518484475E-002 -0.19628780957745276E-002 -0.18808911295563687E-002 -0.14176260558494181E-003 -0.13589416565578448E-002 -0.23284925784661662E-002 -0.16049205435711682E-002 -0.30745931277994529E-002 -0.11287587762489164E-002 -0.10107218764089532E-002 -0.96551738235792304E-003  0.27239657826227763E-003  0.28458836768029067E-004  0.19815585127645540E-003  0.36607388324390251E-003  0.24927203127753192E-003  0.46238394738919760E-003  0.17486792525648055E-003  
0.15349423562724190E-003  0.14322642853079824E-003  0.43300489730098025E-002  0.70615894215371789E-006 -0.25898533799326866E-005 -0.44246188313203548E-004 -0.16128461392685154E-006 -0.13824827267004440E-004 -0.36162721703170525E-005  0.14590119321147590E-005 -0.54574733474255947E-006  0.71250775818654136E-003 -0.45996158931515731E-005  </sparseX_slice>
        <sparseX_slice start="201" end="250">  0.23390407662330977E-004 -0.45653731583322418E-003 -0.34352046236091737E-004 -0.15854008294684523E-003 -0.54890587573716520E-004  0.44003955940884961E-004 -0.22602731573726918E-007  0.22530539978835346E-002  0.23809583348542542E-004  0.47077017663479167E-003 -0.63801744572782200E-003 -0.36494234436833024E-004  0.15349050441182773E-003 -0.13274786473508313E-004  0.40634457745113611E-003  0.17197933651021141E-003  0.25534819477792646E-002  0.90879877024890261E-004  0.10468688381867258E-002  0.52399659212282233E-003  0.26152176851558344E-003  0.12596308272820036E-002  0.31234678774073448E-003  0.81038737045128768E-003  0.47773666750130361E-003  0.45771321250463140E-003  0.34750251728211996E-004  0.33078058313760388E-003  0.56838519602683542E-003  0.39153706835549137E-003  0.74942364853238148E-003  0.27533809179287357E-003  0.24629936936341866E-003  0.23516788447882893E-003 -0.93744638027710013E-004 -0.98985451878304132E-005 -0.68223623334810282E-004 
-0.12640218006717730E-003 -0.86030913035533952E-004 -0.15939702675676673E-003 -0.60347389162693664E-004 -0.52921157360573049E-004 -0.49349352305513787E-004  0.16130997707476290E-004  0.17216027990667642E-005  0.11744522840759599E-004  0.21822967521084014E-004  0.14846030884732149E-004  0.27474418231358066E-004  0.10413153554242328E-004  </sparseX_slice>
        <sparseX_slice start="251" end="300">  0.91231109285191530E-005  0.85018629796799400E-005 -0.11301296405728258E-002 -0.18468633220120678E-006  0.67623885976673879E-006  0.11550592748089217E-004  0.42566852970181200E-007  0.36087988180926284E-005  0.94391039352677697E-006 -0.38072546264529913E-006  0.14252070693807229E-006 -0.18596236247762251E-003  0.11999558011450379E-005 -0.61011884940458915E-005  0.11918006920432408E-003  0.89713878146328406E-005  0.41385728048486120E-004  0.14327454279229512E-004 -0.11484160008067628E-004  0.73864664657825578E-008 -0.58804025559309147E-003 -0.62159175390126321E-005 -0.12285825923539039E-003  0.16655935923865704E-003  0.95276346013527499E-005 -0.40050746873769249E-004  0.34625301775015769E-005 -0.10606039877944525E-003 -0.44883292851159579E-004 -0.66645103873896677E-003 -0.23724542211090857E-004 -0.27321917732924303E-003 -0.13677654352581891E-003 -0.68275811122723654E-004 -0.32877177930114705E-003 -0.81534033695209162E-004 -0.21152505842970173E-003 
-0.12468864304702247E-003 -0.11946175933750150E-003 -0.90724161682229119E-005 -0.86333643638514951E-004 -0.14836560904342823E-003 -0.10220053804642496E-003 -0.19561048829520882E-003 -0.71869461962895115E-004 -0.64287050089014685E-004 -0.61380380965135562E-004  0.24467066017095082E-004  0.25846094171344639E-005  0.17806471053674286E-004  </sparseX_slice>
        <sparseX_slice start="301" end="325">  0.32995084881546709E-004  0.22456434979520729E-004  0.41605034790176679E-004  0.15752280544016770E-004  0.13813295863626006E-004  0.12880660950583007E-004 -0.59540391313817745E-005 -0.63573046427636311E-006 -0.43350445295350454E-005 -0.80560773849041881E-005 -0.54803946673341633E-005 -0.10141663803766701E-004 -0.38439917323978819E-005 -0.33676441404531666E-005 -0.31382386621589222E-005  0.10988341397381460E-005  0.11737703971380267E-006  0.80005852620869524E-006  0.14869742994338130E-005  0.10115406097595160E-005  0.18718020553970680E-005  0.70950037710431998E-006  0.62155483048006169E-006  0.57919905841993392E-006  0.00000000000000000E+000  </sparseX_slice>
      </sparseX>
      <sparseX i="10" alpha="11081.301412940255" sparseCutoff="1.0000000000000000" sliced="T">
        <sparseX_slice start="1" end="50">  0.89713896616484823E+000  0.49463287286986575E-003  0.38247270317662990E-003  0.21781086730089211E-003  0.97566013313750012E-004  0.37100959609220408E-004  0.12056237041848580E-004  0.36531373999205381E-005  0.98055599998616163E-006  0.17034010825060125E+000  0.46974428064606244E-002  0.41099341661758474E-002  0.25682520353004592E-002  0.13819426922754442E-002  0.59462936246775552E-003  0.23302540023083528E-003  0.78237379007398914E-004  0.24105182678261987E-004  0.16171269765967864E-001  0.22305761829365597E-001  0.22083364254413648E-001  0.15143427338092227E-001  0.97899400916914917E-002  0.47680250236950749E-002  0.22546920075793421E-002  0.83996252445852650E-003  0.29787004296724147E-003  0.31398764973056464E+000  0.60164615496230735E-002  0.79329702138129631E-002  0.35214813137379049E-002  0.29044638374460790E-002  0.90398280301481372E-003  0.53502362446037385E-003  0.13960499681011195E-003  0.58441859031805235E-004  0.42155550687080212E-001  
0.40411934257776796E-001  0.60316410869720234E-001  0.29418988190034821E-001  0.29177456784800999E-001  0.10330718543477401E-001  0.73942497197829861E-002  0.21796025949197186E-002  0.10621728841942685E-002  0.54945915795395428E-001  0.36722660232043312E-001  0.82843734179679107E-001  0.29296834727289622E-001  0.44554811685698789E-001  </sparseX_slice>
        <sparseX_slice start="51" end="100">  0.12299873448605397E-001  0.13112701548876544E-001  0.36516255230684908E-002  0.24199962278506396E-002  0.15685056119363916E+000 -0.27713932048204211E-002  0.40415440617219394E-002 -0.16437159017117697E-002  0.15597111991697470E-002 -0.36894973138240514E-003  0.31158351419527028E-003 -0.20059866388810821E-004  0.34533366266005206E-004  0.21058540959714014E-001 -0.18590533473854618E-001  0.30812726070422285E-001 -0.13575850043828420E-001  0.15849348374425740E-001 -0.39729088355174415E-002  0.44676100561524684E-002 -0.13195011122967042E-003  0.71891968884834061E-003  0.38817174948414364E-001 -0.23451522354143710E-001  0.61436584814657830E-001 -0.16188793955751297E-001  0.37706124911932780E-001 -0.19345160222076063E-002  0.14257469432791544E-001  0.31144833521158811E-002  0.39169310866157964E-002  0.13711420122531456E-001  0.83251454528942646E-002  0.25429386892665908E-001  0.10294473017700242E-001  0.21465243262162773E-001  0.94631394346633181E-002  
0.12143512315423457E-001  0.68752787167803879E-002  0.50946665589973244E-002  0.61051149286103633E-001 -0.12878015678028383E-002  0.13754339895331519E-002 -0.10622805084996149E-002  0.37996134987827696E-003 -0.37357236325332116E-003  0.43957459870188431E-004 -0.58154047168474976E-004  0.10006630682973338E-005  0.81966434681214635E-002  </sparseX_slice>
        <sparseX_slice start="101" end="150"> -0.86451567748546745E-002  0.10510168135627119E-001 -0.88229479256540476E-002  0.39260394833214203E-002 -0.41477181315851819E-002  0.70341228433287663E-003 -0.78862225839254954E-003  0.76405534178684601E-004  0.15108859825593998E-001 -0.11022968541072207E-001  0.21406727196474979E-001 -0.11455173678459786E-001  0.10579587093711222E-001 -0.46049664314108466E-002  0.35841547688313610E-002  0.39236694387607491E-003  0.12705527435010384E-002  0.75475361679799213E-002  0.52127693377156167E-002  0.13573126267422051E-001  0.72298988889319847E-002  0.11077560505488963E-001  0.71674217570558228E-002  0.65249173662568580E-002  0.54659616491055298E-002  0.32384806758149086E-002  0.20772940256332788E-002  0.16884825870037339E-002  0.38114479927661288E-002  0.29252605740201702E-002  0.33429529014028670E-002  0.33176192468431205E-002  0.21781305205838273E-002  0.25420331168749073E-002  0.12048812954507362E-002 -0.10835267776240881E-001  0.34247927397286092E-003 
-0.26323714706513474E-003  0.23967134565992213E-003 -0.87629904296939438E-004  0.74566583254123795E-004 -0.12658902435371781E-004  0.11778685201058989E-004  0.10382322181624788E-006 -0.14547281727206932E-002  0.22980966050232146E-002 -0.20096185286583692E-002  0.19863643962095357E-002 -0.89939347165887478E-003  0.82417973948550535E-003  </sparseX_slice>
        <sparseX_slice start="151" end="200"> -0.19476077477440738E-003  0.15973249396471453E-003 -0.12081387861530005E-004 -0.26814981194999738E-002  0.29122552021364702E-002 -0.40578390983314382E-002  0.24990530838201815E-002 -0.23092552046675720E-002  0.84163052548890695E-003 -0.86296079272427703E-003 -0.78223129491223475E-004 -0.28358357945393694E-003 -0.13395255681049065E-002 -0.14256686436426745E-002 -0.24924796563133662E-002 -0.18147107250219645E-002 -0.22034396521906996E-002 -0.16043797608961852E-002 -0.14230948435758025E-002 -0.10896601020568238E-002 -0.73748506942024415E-003 -0.52138529061406935E-003 -0.64010828447099452E-003 -0.96994065721919939E-003 -0.97111909529620549E-003 -0.88741347385083876E-003 -0.98392941312236285E-003 -0.62410752816732893E-003 -0.69665172806947326E-003 -0.37126211490976836E-003  0.65431907547571237E-004  0.12278347090301377E-003  0.12447299618052391E-003  0.16693566082506611E-003  0.12109530660718108E-003  0.15140149177243545E-003  0.94171366686662280E-004  
0.98954564757644528E-004  0.61157600831875461E-004  0.26350754973798497E-002 -0.83735840085654873E-004  0.64063748833017255E-004 -0.58514598772826957E-004  0.21352471755608253E-004 -0.18186189528831965E-004  0.30834116474051227E-005 -0.28745098960996251E-005 -0.27920714459709189E-007  0.35378161781012929E-003 -0.56188046778537842E-003  </sparseX_slice>
        <sparseX_slice start="201" end="250">  0.48907518149847418E-003 -0.48495325059805277E-003  0.21914584001141198E-003 -0.20100673984141040E-003  0.47443255353331693E-004 -0.38989219301158215E-004  0.29012478847204971E-005  0.65212509158827097E-003 -0.71200806258893152E-003  0.98747712535760023E-003 -0.60997177567990231E-003  0.56255286015430663E-003 -0.20518417765523877E-003  0.21028152098799373E-003  0.18926339962982110E-004  0.69049719954671003E-004  0.32576499958468508E-003  0.34864714207273346E-003  0.60638953065614959E-003  0.44339307594701050E-003  0.53652854467524976E-003  0.39145912681469729E-003  0.34681136330060188E-003  0.26546318829743273E-003  0.17976750776754603E-003  0.12679793728808566E-003  0.15651508876019418E-003  0.23593330555090887E-003  0.23715806230675455E-003  0.21599750169683227E-003  0.23997811589638321E-003  0.15204695517976929E-003  0.16971621896273018E-003  0.90491946881549241E-004 -0.22503910574278557E-004 -0.42461593914931468E-004 -0.42822079919911161E-004 
-0.57669919158100658E-004 -0.41693369464411582E-004 -0.52237892572154013E-004 -0.32459025748003863E-004 -0.34103760413687084E-004 -0.21092057323808661E-004  0.38698702981182166E-005  0.73421452363643891E-005  0.73659825622137449E-005  0.99614029950811720E-005  0.71775732466767965E-005  0.90118159029768307E-005  0.55940172942282046E-005  </sparseX_slice>
        <sparseX_slice start="251" end="300">  0.58767903158826218E-005  0.36371345386323165E-005 -0.68773010575892235E-003  0.21858984775914324E-004 -0.16720515455539209E-004  0.15274176390605670E-004 -0.55732203946335895E-005  0.47469802140159641E-005 -0.80478856281042727E-006  0.75032697219261778E-006  0.73157320794376025E-008 -0.92333699612800850E-004  0.14667715724410389E-003 -0.12764764678192353E-003  0.12658818175619052E-003 -0.57199314410520621E-004  0.52466971418939838E-004 -0.12383018314918424E-004  0.10177351638547625E-004 -0.75679988145658982E-006 -0.17019856116152815E-003  0.18586715881460734E-003 -0.25772886563508746E-003  0.15922043773773504E-003 -0.14683088545784954E-003  0.53556595465367682E-004 -0.54885745587692355E-004 -0.49385339783795695E-005 -0.18022175770221994E-004 -0.85021623797762236E-004 -0.91014020924618964E-004 -0.15826442492899737E-003 -0.11574323859461731E-003 -0.14003585948692623E-003 -0.10218070817196020E-003 -0.90522056817597595E-004 -0.69288299952272389E-004 
-0.46921963681958357E-004 -0.33093077943253309E-004 -0.40857880659409219E-004 -0.61576906722510450E-004 -0.61906474195842925E-004 -0.56375261375581431E-004 -0.62639377361768198E-004 -0.39685644358713803E-004 -0.44297467611747249E-004 -0.23619677574602114E-004  0.58733105805229793E-005  0.11084534224291348E-004  0.11176290915719882E-004  </sparseX_slice>
        <sparseX_slice start="301" end="325">  0.15054012366242196E-004  0.10882053658280313E-004  0.13635363057687288E-004  0.84722441155605325E-005  0.89015073103654031E-005  0.55054384174769022E-005 -0.14283557286119312E-005 -0.27105606945831736E-005 -0.27187898295162505E-005 -0.36773796727220377E-005 -0.26493329299425496E-005 -0.33266599790403832E-005 -0.20649134417663042E-005 -0.21692846188870654E-005 -0.13426023612933922E-005  0.26360057705946879E-006  0.50034009476472778E-006  0.50175370922391910E-006  0.67877593698957061E-006  0.48895112294340586E-006  0.61400869604375715E-006  0.38110961448231324E-006  0.40037125119804145E-006  0.24780236944112015E-006  0.00000000000000000E+000  </sparseX_slice>
      </sparseX>
      <sparseX i="11" alpha="4248.0413681623795" sparseCutoff="1.0000000000000000" sliced="T">
        <sparseX_slice start="1" end="50">  0.84442303982700040E+000  0.21088997952893539E-002  0.14425066895559393E-002  0.68511009580404813E-003  0.24667498495471138E-003  0.72394320327408043E-004  0.18615424297124369E-004  0.44539906498939758E-005  0.10147078502348910E-005  0.23241595494757272E+000  0.13594682180653395E-001  0.10073282067830907E-001  0.53858610697469344E-002  0.22695852763985314E-002  0.81056036671578241E-003  0.26179251196454108E-003  0.79395508045610838E-004  0.22453102823012329E-004  0.31984665011780600E-001  0.43933051414052050E-001  0.35409689918231700E-001  0.21393678072824735E-001  0.10578129381966199E-001  0.46125142912257014E-002  0.18824350244758044E-002  0.72799557476950732E-003  0.25674232894220834E-003  0.36868488317608900E+000  0.20942893316409791E-001  0.14722945974789224E-001  0.71898654906301356E-002  0.27020789503065870E-002  0.91373999565476621E-003  0.34013789204814739E-003  0.14264514078055984E-003  0.57201784222967100E-004  0.71754013353776111E-001  
0.96592704916342725E-001  0.75137772241409176E-001  0.42415579846306811E-001  0.19223540488010064E-001  0.82420803590902234E-002  0.40288582156805131E-002  0.21660621496397926E-002  0.10678577715304753E-002  0.80486045898519362E-001  0.10953434380720854E+000  0.87626686231388001E-001  0.51128065624836828E-001  0.24648719806493843E-001  </sparseX_slice>
        <sparseX_slice start="51" end="100">  0.12556533108002156E-001  0.81289742449535182E-002  0.56121135885886051E-002  0.34067027747603051E-002  0.15200238127076440E+000  0.71656827452239256E-002  0.26869228174214196E-002 -0.69817445346457196E-003 -0.13452448065077852E-002 -0.73571448222362729E-003 -0.19138712835722630E-003  0.13109709530183802E-004  0.37500034509674927E-004  0.29582934894292822E-001  0.34339018782375504E-001  0.16936048799458602E-001 -0.13117791164605257E-003 -0.61881227750627491E-002 -0.42105155268011042E-002 -0.81958225701429929E-003  0.81409890795126351E-003  0.90482099515805609E-003  0.46927849243260836E-001  0.61954084172932702E-001  0.45978384118292095E-001  0.23848683416789005E-001  0.11306698687437378E-001  0.88150119671141190E-002  0.94333730914295272E-002  0.85963114247843697E-002  0.61666240486559906E-002  0.13680775406552362E-001  0.24390694258606058E-001  0.30819642757266417E-001  0.31832755590529338E-001  0.27657452985683062E-001  0.21172778376110146E-001  
0.15114552985308031E-001  0.10386518464859827E-001  0.67893585415874074E-002  0.64620793616137553E-002  0.43967675121300587E-003  0.39509568639570713E-003  0.22004677152415381E-003  0.56299584362089693E-004 -0.16688635155433264E-004 -0.22718840183917802E-004 -0.10155268682314726E-004 -0.17651826278137850E-005  0.12576597250528831E-002  </sparseX_slice>
