<GAP_2025_3_3_-480_18_6_19_500>
<Potential label="GAP_2025_3_3_-480_18_6_19_500" init_args="IP GAP label=GAP_2025_3_3_-480_18_6_19_500"/>
<GAP_params label="GAP_2025_3_3_-480_18_6_19_500" gap_version="1686220958">
  <GAP_data do_core="F">
    <e0 Z="1" value="-3.6609329200000000"/>
    <e0 Z="2" value="-3.6609329200000000"/>
    <e0 Z="3" value="-3.6609329200000000"/>
    <e0 Z="4" value="-3.6609329200000000"/>
    <e0 Z="5" value="-3.6609329200000000"/>
    <e0 Z="6" value="-3.6609329200000000"/>
    <e0 Z="7" value="-3.6609329200000000"/>
    <e0 Z="8" value="-3.6609329200000000"/>
    <e0 Z="9" value="-3.6609329200000000"/>
    <e0 Z="10" value="-3.6609329200000000"/>
    <e0 Z="11" value="-3.6609329200000000"/>
    <e0 Z="12" value="-3.6609329200000000"/>
    <e0 Z="13" value="-3.6609329200000000"/>
    <e0 Z="14" value="-3.6609329200000000"/>
    <e0 Z="15" value="-3.6609329200000000"/>
    <e0 Z="16" value="-3.6609329200000000"/>
    <e0 Z="17" value="-3.6609329200000000"/>
    <e0 Z="18" value="-3.6609329200000000"/>
    <e0 Z="19" value="-3.6609329200000000"/>
    <e0 Z="20" value="-3.6609329200000000"/>
    <e0 Z="21" value="-3.6609329200000000"/>
    <e0 Z="22" value="-3.6609329200000000"/>
    <e0 Z="23" value="-3.6609329200000000"/>
    <e0 Z="24" value="-3.6609329200000000"/>
    <e0 Z="25" value="-3.6609329200000000"/>
    <e0 Z="26" value="-3.6609329200000000"/>
    <e0 Z="27" value="-3.6609329200000000"/>
    <e0 Z="28" value="-3.6609329200000000"/>
    <e0 Z="29" value="-3.6609329200000000"/>
    <e0 Z="30" value="-3.6609329200000000"/>
    <e0 Z="31" value="-3.6609329200000000"/>
    <e0 Z="32" value="-3.6609329200000000"/>
    <e0 Z="33" value="-3.6609329200000000"/>
    <e0 Z="34" value="-3.6609329200000000"/>
    <e0 Z="35" value="-3.6609329200000000"/>
    <e0 Z="36" value="-3.6609329200000000"/>
    <e0 Z="37" value="-3.6609329200000000"/>
    <e0 Z="38" value="-3.6609329200000000"/>
    <e0 Z="39" value="-3.6609329200000000"/>
    <e0 Z="40" value="-3.6609329200000000"/>
    <e0 Z="41" value="-3.6609329200000000"/>
    <e0 Z="42" value="-3.6609329200000000"/>
    <e0 Z="43" value="-3.6609329200000000"/>
    <e0 Z="44" value="-3.6609329200000000"/>
    <e0 Z="45" value="-3.6609329200000000"/>
    <e0 Z="46" value="-3.6609329200000000"/>
    <e0 Z="47" value="-3.6609329200000000"/>
    <e0 Z="48" value="-3.6609329200000000"/>
    <e0 Z="49" value="-3.6609329200000000"/>
    <e0 Z="50" value="-3.6609329200000000"/>
    <e0 Z="51" value="-3.6609329200000000"/>
    <e0 Z="52" value="-3.6609329200000000"/>
    <e0 Z="53" value="-3.6609329200000000"/>
    <e0 Z="54" value="-3.6609329200000000"/>
    <e0 Z="55" value="-3.6609329200000000"/>
    <e0 Z="56" value="-3.6609329200000000"/>
    <e0 Z="57" value="-3.6609329200000000"/>
    <e0 Z="58" value="-3.6609329200000000"/>
    <e0 Z="59" value="-3.6609329200000000"/>
    <e0 Z="60" value="-3.6609329200000000"/>
    <e0 Z="61" value="-3.6609329200000000"/>
    <e0 Z="62" value="-3.6609329200000000"/>
    <e0 Z="63" value="-3.6609329200000000"/>
    <e0 Z="64" value="-3.6609329200000000"/>
    <e0 Z="65" value="-3.6609329200000000"/>
    <e0 Z="66" value="-3.6609329200000000"/>
    <e0 Z="67" value="-3.6609329200000000"/>
    <e0 Z="68" value="-3.6609329200000000"/>
    <e0 Z="69" value="-3.6609329200000000"/>
    <e0 Z="70" value="-3.6609329200000000"/>
    <e0 Z="71" value="-3.6609329200000000"/>
    <e0 Z="72" value="-3.6609329200000000"/>
    <e0 Z="73" value="-3.6609329200000000"/>
    <e0 Z="74" value="-3.6609329200000000"/>
    <e0 Z="75" value="-3.6609329200000000"/>
    <e0 Z="76" value="-3.6609329200000000"/>
    <e0 Z="77" value="-3.6609329200000000"/>
    <e0 Z="78" value="-3.6609329200000000"/>
    <e0 Z="79" value="-3.6609329200000000"/>
    <e0 Z="80" value="-3.6609329200000000"/>
    <e0 Z="81" value="-3.6609329200000000"/>
    <e0 Z="82" value="-3.6609329200000000"/>
    <e0 Z="83" value="-3.6609329200000000"/>
    <e0 Z="84" value="-3.6609329200000000"/>
    <e0 Z="85" value="-3.6609329200000000"/>
    <e0 Z="86" value="-3.6609329200000000"/>
    <e0 Z="87" value="-3.6609329200000000"/>
    <e0 Z="88" value="-3.6609329200000000"/>
    <e0 Z="89" value="-3.6609329200000000"/>
    <e0 Z="90" value="-3.6609329200000000"/>
    <e0 Z="91" value="-3.6609329200000000"/>
    <e0 Z="92" value="-3.6609329200000000"/>
    <e0 Z="93" value="-3.6609329200000000"/>
    <e0 Z="94" value="-3.6609329200000000"/>
    <e0 Z="95" value="-3.6609329200000000"/>
    <e0 Z="96" value="-3.6609329200000000"/>
    <e0 Z="97" value="-3.6609329200000000"/>
    <e0 Z="98" value="-3.6609329200000000"/>
    <e0 Z="99" value="-3.6609329200000000"/>
    <e0 Z="100" value="-3.6609329200000000"/>
    <e0 Z="101" value="-3.6609329200000000"/>
    <e0 Z="102" value="-3.6609329200000000"/>
    <e0 Z="103" value="-3.6609329200000000"/>
    <e0 Z="104" value="-3.6609329200000000"/>
    <e0 Z="105" value="-3.6609329200000000"/>
    <e0 Z="106" value="-3.6609329200000000"/>
    <e0 Z="107" value="-3.6609329200000000"/>
    <e0 Z="108" value="-3.6609329200000000"/>
    <e0 Z="109" value="-3.6609329200000000"/>
    <e0 Z="110" value="-3.6609329200000000"/>
    <e0 Z="111" value="-3.6609329200000000"/>
    <e0 Z="112" value="-3.6609329200000000"/>
    <e0 Z="113" value="-3.6609329200000000"/>
    <e0 Z="114" value="-3.6609329200000000"/>
    <e0 Z="115" value="-3.6609329200000000"/>
    <e0 Z="116" value="-3.6609329200000000"/>
    <e0 Z="117" value="-3.6609329200000000"/>
    <e0 Z="118" value="-3.6609329200000000"/>
  </GAP_data>
  <gpSparse label="GAP_2025_3_3_-480_18_6_19_500" n_coordinate="1" fitted="T">
    <gpCoordinates label="GAP_2025_3_3_-480_18_6_19_5001" dimensions="325" signal_variance=".20000000000000001" signal_mean=".00000000000000000E+000" sparsified="T" n_permutations="1" covariance_type="2" zeta="4.0000000000000000" n_sparseX="200">
      <descriptor> soap l_max=8 n_max=8 atom_sigma=0.5 cutoff=3.5 radial_scaling=-0.5 cutoff_transition_width=1.0 central_weight=1.0 n_sparse=200 delta=0.2 covariance_type=dot_product zeta=4 sparse_method=cur_points } n_species=1 Z=73 species_Z={73 }</descriptor>
      <permutation i="1">1  </permutation>
      <sparseX i="1" alpha="3197.0151473181468" sparseCutoff="1.0000000000000000" sliced="T">
        <sparseX_slice start="1" end="50">  0.76666975528862069E+000  0.20223373250280170E-002  0.20426913515079362E-002  0.17533018956536579E-002  0.35224403682028021E-003  0.10986070752356446E-003  0.46811248540781735E-004  0.73396006521776273E-005  0.14746657529283182E-005  0.37479827243603103E+000  0.11962682882597405E-001  0.13535479965701688E-001  0.13536852519094438E-001  0.32681862096028804E-002  0.12361154780721672E-002  0.63823066861219333E-003  0.11783299016682125E-003  0.27184043361822145E-004  0.91612942894917324E-001  0.35467016666768159E-001  0.44907070119087823E-001  0.52271879625248374E-001  0.15177682686785694E-001  0.69584134364893665E-002  0.43516703922404304E-002  0.94602667418202009E-003  0.25061255825192943E-003  0.42708740015847618E+000  0.13606578292744744E-001  0.16774736391663367E-001  0.17373763127811300E-001  0.46125553430946629E-002  0.18011551598198178E-002  0.10424218948261903E-002  0.20167664126517746E-003  0.52301711129414496E-004  0.14763557193436541E+000  
0.57075017526676153E-001  0.78818360188762690E-001  0.94876764975289143E-001  0.30340324100140242E-001  0.14341680299040706E-001  0.10056193080677728E-001  0.22903175251217027E-002  0.68268138295731493E-003  0.11895842122105016E+000  0.45927656412823495E-001  0.69272490968016659E-001  0.86116723647823343E-001  0.30403590646671062E-001  </sparseX_slice>
        <sparseX_slice start="51" end="100">  0.14795538229330324E-001  0.11644114097591961E-001  0.27866252827089201E-002  0.93895297557370044E-003 -0.15021398324113019E-001 -0.15093261572409213E-002  0.21472568203534439E-004 -0.18847666771669869E-002  0.33592289265955128E-004 -0.18044803207679726E-003  0.13854044865668939E-003  0.24363737419357281E-004  0.20125729152016551E-004 -0.51925969532499441E-002 -0.65613839946096850E-002  0.29220028378353237E-003 -0.10342168913256684E-001  0.34234755512650163E-003 -0.14422549772124594E-002  0.13507197987528644E-002  0.27752873984285552E-003  0.26541370988894894E-003 -0.59170302958449468E-002 -0.75109288323642826E-002  0.62363371417513641E-003 -0.13204197224220574E-001  0.79542434702817928E-003 -0.20194204488150555E-002  0.23360912067167069E-002  0.56051779883659774E-003  0.56565834140185440E-003  0.14715749907645695E-003  0.92837546224145177E-003  0.34228879779053318E-003  0.12946610045742721E-002  0.63910798122007088E-003  0.39228611161723595E-003  
0.54994156171547597E-003  0.30134634826777066E-003  0.30458339517897291E-003  0.29788035253294796E-001  0.31617018615416255E-004  0.13811145404031733E-002 -0.58961134685559533E-003  0.15703615108330531E-003 -0.20346093705627389E-003  0.43120177133471404E-004 -0.11101410460533122E-004  0.61905361077559177E-005  0.10297127987829578E-001  </sparseX_slice>
        <sparseX_slice start="101" end="150"> -0.12330820192367183E-003  0.65988463507600523E-002 -0.32782020406921246E-002  0.11199032732206703E-002 -0.16334266487663331E-002  0.42781711123664158E-003 -0.12589737356578245E-003  0.83532618174170624E-004  0.11733708356864984E-001 -0.18991085811738298E-003  0.83558752280885502E-002 -0.41459116378138750E-002  0.18215747447866664E-002 -0.23069664074106405E-002  0.81514878781903963E-003 -0.12958124085422684E-003  0.21574051048758324E-003 -0.41269470132352369E-003  0.51350177239807072E-003  0.34604467122610985E-003  0.83437758931257093E-003  0.71756067058400641E-003  0.56931781262388535E-003  0.53170563416817754E-003  0.34864154480527708E-003  0.29824396856932366E-003  0.57868921926983413E-003  0.38531347093119717E-003  0.63333521310241566E-003  0.36767629148637317E-003  0.43091736572544267E-003  0.42389040444642688E-003  0.30484800897314588E-003  0.27969530028278491E-003  0.18427722646726857E-003 -0.65007793899803171E-002 -0.43485284838911160E-004 
-0.28200203806759210E-003  0.72717432531955905E-004 -0.30696152667544553E-004  0.35878584624412159E-004 -0.46899878306566480E-005  0.28354063628991801E-005 -0.58786936609528068E-006 -0.22471894111199555E-002 -0.13547131426013269E-003 -0.13427028608167409E-002  0.40772380571007740E-003 -0.21633811904074395E-003  0.28820047381591414E-003  </sparseX_slice>
        <sparseX_slice start="151" end="200"> -0.47188813214488692E-004  0.32189002457587491E-004 -0.81118981717596594E-005 -0.25607009259165799E-002 -0.14505964642193202E-003 -0.16939559219454265E-002  0.51253488041950090E-003 -0.34591933687506455E-003  0.40752002313706553E-003 -0.96448038526211784E-004  0.40879757672402852E-004 -0.24436794792481416E-004  0.90064255191899659E-004 -0.73316903018178260E-004 -0.58842701589397008E-004 -0.12377971500839903E-003 -0.12150692525984789E-003 -0.98978479625113781E-004 -0.83433899941480331E-004 -0.55453806409183820E-004 -0.43997098144596263E-004 -0.17860102973312646E-003 -0.99362307477491834E-004 -0.17468484358074777E-003 -0.84791548914054098E-004 -0.10444634681705615E-003 -0.10461039928642740E-003 -0.70366804187450190E-004 -0.66713792913539768E-004 -0.40715573624246179E-004  0.27560845061172132E-004  0.13163562440504549E-004  0.24241460699424116E-004  0.99938554054979038E-005  0.12684047250460652E-004  0.12915093511275841E-004  0.81863130930396816E-005  
0.80230925757328963E-005  0.45513939594135858E-005  0.17659391039949656E-002  0.12236589163252869E-004  0.76385666583772142E-004 -0.19113181398439331E-004  0.82991446826301696E-005 -0.96525000068256078E-005  0.12216286530022490E-005 -0.77517126907319653E-006  0.15148792035296886E-006  0.61044982718482378E-003  0.38681578034359077E-004  </sparseX_slice>
        <sparseX_slice start="201" end="250">  0.36363914888016689E-003 -0.10723632598343065E-003  0.58457400362121446E-004 -0.77537480612208858E-004  0.12306315674775525E-004 -0.88004627092393715E-005  0.20948414612462483E-005  0.69561534508955178E-003  0.41565611130894750E-004  0.45869022667281343E-003 -0.13474027383055158E-003  0.93395176581990833E-004 -0.10964596214050634E-003  0.25297418968351188E-004 -0.11249625641266445E-004  0.63959044342131675E-005 -0.24465987933800472E-004  0.19468226471254938E-004  0.15792967984650454E-004  0.32958549375398111E-004  0.32612570918734284E-004  0.26608518343973036E-004  0.22307918841110767E-004  0.14843213149806067E-004  0.11729691595802249E-004  0.48517035188983783E-004  0.26765773832464126E-004  0.47215645009768274E-004  0.22706516862360944E-004  0.28051896248977719E-004  0.28128085307449170E-004  0.18856452664815517E-004  0.17914769945333657E-004  0.10891392152620135E-004 -0.10588094842025876E-004 -0.50216188013808008E-005 -0.92690156273063495E-005 
-0.37895367413576813E-005 -0.48182588786506706E-005 -0.49112273000940283E-005 -0.31037619002986258E-005 -0.30482085235529401E-005 -0.17229462567930030E-005  0.20338228406079060E-005  0.95788613373836747E-006  0.17720851053345471E-005  0.71852096607729463E-006  0.91515576051375626E-006  0.93379847045758850E-006  0.58839521884176352E-006  </sparseX_slice>
        <sparseX_slice start="251" end="300">  0.57906550671036303E-006  0.32612589159181207E-006 -0.52482467192739601E-003 -0.36430256366096100E-005 -0.22697959503324538E-004  0.56706379454245103E-005 -0.24658525104064202E-005  0.28672397643705749E-005 -0.36226953552114113E-006  0.23044998069570163E-006 -0.44897594526703859E-007 -0.18142139191302717E-003 -0.11524283660364617E-004 -0.10805430294817968E-003  0.31816738059096473E-004 -0.17368441948588254E-004  0.23032258496266617E-004 -0.36496253887695586E-005  0.26162865141143628E-005 -0.62093490493459322E-006 -0.20673198438632406E-003 -0.12385615059290842E-004 -0.13629727824748594E-003  0.39976111272341735E-004 -0.27747738175352909E-004  0.32570082003860958E-004 -0.75046097827306729E-005  0.33454920399597650E-005 -0.18971699526837291E-005  0.72711194070557622E-005 -0.57790522116731843E-005 -0.46906663230013711E-005 -0.97849964456937742E-005 -0.96862727402112396E-005 -0.79036598542646009E-005 -0.66243796747190101E-005 -0.44079746927887343E-005 
-0.34826404259831108E-005 -0.14418921365037589E-004 -0.79511877466873262E-005 -0.14028573041672519E-004 -0.67432814689949236E-005 -0.83319858812102894E-005 -0.83551086327285473E-005 -0.56001082843630374E-005 -0.53210131374226534E-005 -0.32343035737664647E-005  0.31467072614403278E-005  0.14918546954016617E-005  0.27540243567517859E-005  </sparseX_slice>
        <sparseX_slice start="301" end="325">  0.11254720469762276E-005  0.14311294325362720E-005  0.14588229576584532E-005  0.92179585519656681E-006  0.90539404708212138E-006  0.51166300754394949E-006 -0.85480418092132946E-006 -0.40245117050825912E-006 -0.74461888801326988E-006 -0.30178982379437788E-006 -0.38441376684329133E-006 -0.39226606929681563E-006 -0.24713316769196950E-006 -0.24324066162603195E-006 -0.13696619834106053E-006  0.17963466953252008E-006  0.84543959908809419E-007  0.15644206564770761E-006  0.63378188570646540E-007  0.80737046551192223E-007  0.82390727007057361E-007  0.51899475551272689E-007  0.51087504281690390E-007  0.28761502582233524E-007  0.00000000000000000E+000  </sparseX_slice>
      </sparseX>
      <sparseX i="2" alpha="3529.1090894464678" sparseCutoff="1.0000000000000000" sliced="T">
        <sparseX_slice start="1" end="50">  0.66793529602005430E+000  0.11364013459315024E-001  0.54874555961061154E-002  0.22097912323839047E-002  0.56584268007367662E-003  0.81451837474358243E-004  0.15785808572519939E-004  0.50495484519309199E-005  0.11353195843677373E-005  0.35070640899720840E+000  0.37790636517579544E-001  0.16725968370787426E-001  0.96946557512051466E-002  0.32860328375980347E-002  0.53899914248166196E-003  0.16928039475174158E-003  0.82819518337748639E-004  0.24895237131172386E-004  0.92071032961270824E-001  0.67652499016509257E-001  0.28127063956111458E-001  0.24754408430772822E-001  0.12085435500036721E-001  0.28915651472344907E-002  0.11583737552194593E-002  0.71913892413945227E-003  0.28614713089796412E-003  0.46234142860336874E+000  0.35992230940454444E-001  0.75850706206015651E-002  0.73026320857806507E-002  0.31471503513624006E-002  0.60177157358965892E-003  0.32200213884385498E-003  0.19910340781701926E-003  0.84231497653061474E-004  0.17165526220989136E+000  
0.10078763136043742E+000  0.26340857097240152E-001  0.39370967386424351E-001  0.24545209848354847E-001  0.83863981994420338E-002  0.39220579767727734E-002  0.26831962510022222E-002  0.14877098718384680E-002  0.16001519748747178E+000  0.84165595390854414E-001  0.26708306876038632E-001  0.54077414235182038E-001  0.37203373602068233E-001  </sparseX_slice>
        <sparseX_slice start="51" end="100">  0.17742490379159682E-001  0.92556462775772452E-002  0.65499980095930733E-002  0.45817932044510921E-002  0.27006476097382198E+000  0.17288559743060521E-001 -0.61314224293975844E-002 -0.50271797378188899E-002 -0.15933471482917853E-002 -0.77261224425243002E-004  0.14838143615664379E-003  0.11111117025060467E-003  0.77809326752740940E-004  0.10026797187232482E+000  0.47703151168423254E-001 -0.67837278082446498E-002 -0.50565009042530284E-003  0.21229394790788603E-002  0.43563373515076260E-002  0.26002481142815949E-002  0.18170912612873907E-002  0.15331947414419778E-002  0.13218474532919658E+000  0.55562718974178936E-001  0.18838034764038957E-001  0.45301659561256674E-001  0.27508492424723863E-001  0.21454059980912623E-001  0.13709435151267838E-001  0.94898732887758151E-002  0.80577645848103063E-002  0.54597335665921877E-001  0.18407201603639838E-001  0.23022137881275259E-001  0.47814973400328406E-001  0.25962851302188113E-001  0.18797572065428845E-001  
0.14324022057899276E-001  0.95535202868059881E-002  0.82810411603325019E-002  0.16030099232889700E-001  0.20544701073947351E-002 -0.50809680987882229E-005 -0.75597045397798326E-003 -0.13627541115502124E-003  0.14725490168234154E-003  0.70070489258661695E-005 -0.41235063213773118E-004 -0.14341895135989185E-004  0.59515559645701415E-002  </sparseX_slice>
        <sparseX_slice start="101" end="150">  0.37575586859836421E-002 -0.69734601097697719E-004 -0.30261172105649496E-002 -0.32339274445637406E-002 -0.58582063524775135E-003 -0.28352123909959745E-003 -0.49452795902691141E-003 -0.16045808111283809E-003  0.78460239575894441E-002  0.18711315030605262E-002  0.78889003531123234E-003 -0.32708242227653299E-002 -0.83609645885464635E-002 -0.22430352889408083E-002  0.38224171279274769E-003 -0.44732182977832204E-003  0.24224993573495362E-003  0.45830515147693056E-002  0.89873187816142070E-003  0.27995025944518039E-002  0.21572997070949413E-002 -0.39451667138071045E-002  0.15504978172433342E-003  0.30464642975385568E-002  0.12185924328402967E-002  0.15579144373855710E-002  0.19235701642616567E-003  0.51188174814963312E-003  0.12895660411251372E-002  0.20254298269485392E-002  0.22095298115428104E-002  0.22528735509426017E-002  0.15871227209695411E-002  0.69613701082826753E-003  0.73910916382739582E-003 -0.28297355577864359E-002 -0.47561146962178669E-003 
-0.65345296163270481E-004  0.16400321217736598E-003  0.34282228761313733E-004 -0.36837226263829917E-004 -0.19674210318249052E-005  0.10535074375540447E-004  0.38101616513419284E-005 -0.10506066925990041E-002 -0.71738317290825796E-003 -0.57193792911330479E-004  0.74927631402027181E-003  0.86318782291530324E-003  0.17115296141142128E-003  </sparseX_slice>
        <sparseX_slice start="151" end="200">  0.77111588151977019E-004  0.12970299671521225E-003  0.45546372650678572E-004 -0.13850302894246518E-002 -0.64198800933187744E-004 -0.59071434299247915E-004  0.10059535673668460E-002  0.22605388594426311E-002  0.66438924056124002E-003 -0.43265945421331594E-004  0.14410496859482564E-003 -0.26096405856302669E-004 -0.80902954162011395E-003 -0.42246973181939184E-004 -0.49291738781828578E-003 -0.25725987668164793E-003  0.11160990360673491E-002  0.75336323269127530E-004 -0.67419505562694429E-003 -0.25733281473996141E-003 -0.33233782088404817E-003 -0.48021162730545178E-004 -0.20326154391262381E-003 -0.45872425139192218E-003 -0.70153992474609236E-003 -0.80416821440372759E-003 -0.80097545036511076E-003 -0.54772318108296293E-003 -0.23858520075166527E-003 -0.24807567451337527E-003  0.59941459709598082E-005  0.41855219706108346E-004  0.83275099766879834E-004  0.12251381537989399E-003  0.14723146932483347E-003  0.14308578659810262E-003  0.94969704784926659E-004  
0.41371810755662856E-004  0.41916824915100166E-004  0.75626759316197508E-003  0.12921510785719043E-003  0.18695583538460337E-004 -0.44393504990139996E-004 -0.93432822040185697E-005  0.10047759600916357E-004  0.53815623166682958E-006 -0.28766511666259163E-005 -0.10422606681012207E-005  0.28078234822523189E-003  0.19281782552309785E-003  </sparseX_slice>
        <sparseX_slice start="201" end="250">  0.16601804514646270E-004 -0.20424935072927870E-003 -0.23608973395228500E-003 -0.47001822084516149E-004 -0.21122542870686716E-004 -0.35457110055911896E-004 -0.12495353178011791E-004  0.37015950856517023E-003  0.12404573784050748E-004  0.14352413560805887E-004 -0.27687845208377383E-003 -0.61872173367568263E-003 -0.18257310700454791E-003  0.11094382803724591E-004 -0.39735836504489752E-004  0.66598407994843746E-005  0.21621908186947135E-003  0.92149077546274681E-005  0.13172582489597701E-003  0.66365647874863477E-004 -0.30615469823709271E-003 -0.22074332238353080E-004  0.18271652201989528E-003  0.69553471171527443E-004  0.89888339667982222E-004  0.12834008131656601E-004  0.55707768264042831E-004  0.12512099066361846E-003  0.19113397902125975E-003  0.21962091735744070E-003  0.21850267791296860E-003  0.14920257564125314E-003  0.64975285203378174E-004  0.67489213650206715E-004 -0.22655411318075921E-005 -0.16246679624850141E-004 -0.32152749870743184E-004 
-0.47224158600170981E-004 -0.56879987929195545E-004 -0.55213673347696463E-004 -0.36594312532023355E-004 -0.15942566215738844E-004 -0.16132186374984738E-004  0.42814077641574016E-006  0.31533699336441447E-005  0.62074004656380313E-005  0.91016927075779945E-005  0.10987364843241888E-004  0.10652984149083703E-004  0.70504478273561632E-005  </sparseX_slice>
        <sparseX_slice start="251" end="300">  0.30717972399292932E-005  0.31043786582116271E-005 -0.22456680745698248E-003 -0.38401859831718765E-004 -0.55705640479251923E-005  0.13190957394770425E-004  0.27772023070254663E-005 -0.29867325664623706E-005 -0.15999107972891615E-006  0.85514195815474437E-006  0.30986125805294698E-006 -0.83375773471375307E-004 -0.57272481663881119E-004 -0.49501660822401754E-005  0.60711953176570681E-004  0.70188276980972703E-004  0.13976283138765451E-004  0.62801157770536919E-005  0.10540955295288953E-004  0.37153832583791905E-005 -0.10991551117611128E-003 -0.36099295434385886E-005 -0.42396294899279582E-005  0.82340981827827130E-004  0.18394960170640644E-003  0.54291055906391860E-004 -0.32871021172219076E-005  0.11818145234376047E-004 -0.19727024394987311E-005 -0.64204296687756662E-004 -0.27041859985067998E-005 -0.39114642112628692E-004 -0.19669605580123551E-004  0.91031806935106953E-004  0.65848491413090005E-005 -0.54295250030618403E-004 -0.20665342727331344E-004 
-0.26708083063691805E-004 -0.38109423953404771E-005 -0.16563353828994499E-004 -0.37192622998537238E-004 -0.56811924627818994E-004 -0.65287268234470212E-004 -0.64951109630078462E-004 -0.44348031285106514E-004 -0.19312595972785544E-004 -0.20058736279659173E-004  0.67273190565438371E-006  0.48309166676531947E-005  0.95579692964133887E-005  </sparseX_slice>
        <sparseX_slice start="301" end="325">  0.14037021475490041E-004  0.16909090441548934E-004  0.16412752706546053E-004  0.10877187929123329E-004  0.47387370449070496E-005  0.47947896443523220E-005 -0.17979253846974027E-006 -0.13260384944526048E-005 -0.26095956702362558E-005 -0.38260298196042701E-005 -0.46192297067559597E-005 -0.44783836112395919E-005 -0.29637050145159602E-005 -0.12912563338413935E-005 -0.13048673118503973E-005  0.37750850502970940E-007  0.27880939892950789E-006  0.54853802008073270E-006  0.80416387497721619E-006  0.97099186425255285E-006  0.94132874071587885E-006  0.62290707415203568E-006  0.27139535834181565E-006  0.27423825448021344E-006  0.00000000000000000E+000  </sparseX_slice>
      </sparseX>
      <sparseX i="3" alpha="3431.4669327505599" sparseCutoff="1.0000000000000000" sliced="T">
        <sparseX_slice start="1" end="50">  0.54260655158400062E+000  0.14709198476651583E-004  0.48141359894030280E-004  0.18360479178741900E-004  0.21238466574123421E-004  0.14560047862345870E-004  0.30866882246903451E-005  0.12255296341272585E-005  0.45093295226401608E-006  0.14092652122219509E+000  0.20333449897124039E-003  0.84101721786959108E-003  0.34582592921311137E-003  0.44052547284744782E-003  0.33287594420877432E-003  0.71533362582306906E-004  0.32229368898201821E-004  0.13225584051348718E-004  0.18300815135582855E-001  0.14227888978363937E-002  0.74107139019438896E-002  0.33370220730958920E-002  0.46045029045341619E-002  0.38267345338989065E-002  0.84160859170276836E-003  0.43335001936629458E-003  0.19998667435837240E-003  0.47079840324631345E+000  0.36009498451776683E-003  0.22911493741731071E-002  0.10246451845025543E-002  0.15265900893052925E-002  0.12681027447464107E-002  0.24996349070034008E-003  0.14256905222549625E-003  0.66859311729457275E-004  0.86462478685319283E-001  
0.38499035360154647E-002  0.29084131665032091E-001  0.14730952348328562E-001  0.22991118776061779E-001  0.20869711389868810E-001  0.43316958494265430E-002  0.28448565491599716E-002  0.15124914316791273E-002  0.20424664598337847E+000  0.78526408200870323E-002  0.59305798785484934E-001  0.36156640600538852E-001  0.59996908394045825E-001  </sparseX_slice>
        <sparseX_slice start="51" end="100">  0.58457694872161625E-001  0.12338899379660701E-001  0.10260615555819084E-001  0.62740647992651560E-002  0.47424349104711183E+000  0.36679749458931085E-004  0.15205976167907958E-002  0.77994767052720767E-003  0.14942024060229698E-002  0.13153945435368320E-002  0.22900062314742004E-003  0.17512463981755714E-003  0.79350219760444398E-004  0.87095171635192661E-001  0.98380537133329043E-003  0.19931751419116912E-001  0.12088099008943623E-001  0.22968072312407051E-001  0.21912124887366206E-001  0.41770749362804406E-002  0.36354805356298950E-002  0.18987204213800756E-002  0.29096203738444648E+000  0.10550818892258998E-001  0.61291472047408549E-001  0.47991782368470827E-001  0.88881543739419686E-001  0.89226319477345925E-001  0.18902786809183926E-001  0.19887532390744367E-001  0.12103779180797086E-001  0.20724675010280841E+000  0.15006548480743219E-001  0.35271342811449065E-001  0.36764378650932468E-001  0.69210007720614766E-001  0.70185290238638787E-001  
0.16367540149115040E-001  0.20294096038681812E-001  0.12589122476519389E-001 -0.17623395920729413E-001 -0.97392906826350602E-004 -0.62839126981042179E-003 -0.25599848985141118E-003 -0.18365852527492613E-003 -0.19245672612994003E-003 -0.57188015675901727E-004 -0.21100509928625708E-006 -0.16002845431818808E-004 -0.32365498346046940E-002  </sparseX_slice>
        <sparseX_slice start="101" end="150"> -0.84255610290904863E-003 -0.78920501570714490E-002 -0.34819156938904381E-002 -0.26128823213144785E-002 -0.30642403425559504E-002 -0.89527754237927494E-003  0.76184647226569663E-004 -0.26914602949542699E-003 -0.10812460855090109E-001  0.96661617827556369E-003 -0.21995954929041540E-001 -0.10253342963926073E-001 -0.80269366300321152E-002 -0.10960893482501198E-001 -0.24929338102009108E-002  0.11977765088012080E-002 -0.68055151556273318E-003 -0.10891581507861297E-001  0.67011469023472506E-002 -0.13999533297815111E-001 -0.66355801463720537E-002 -0.60398775441061420E-002 -0.99470945651264232E-002 -0.81094326498181151E-003  0.27346629696075766E-002  0.46380696527688879E-003  0.28619640038634952E-003  0.29184826120949663E-002  0.57175210030959035E-002  0.31953556209499351E-002  0.18235985337922962E-002  0.22404006446154448E-002  0.15521511583695975E-002  0.82419192046248406E-003  0.11981099786462170E-002  0.75856743595973429E-002  0.24426121080464241E-004  
0.16503053107770209E-003  0.66531786587410079E-004  0.54010021797232936E-004  0.53887405660192897E-004  0.15453777377374819E-004  0.18471308458140516E-005  0.40366548958587281E-005  0.13931147665496976E-002  0.21442783904016455E-003  0.20733512484870736E-002  0.90270010057457264E-003  0.77204316075165725E-003  0.86214901641625983E-003  </sparseX_slice>
        <sparseX_slice start="151" end="200">  0.24485031356763363E-003  0.16336634825855685E-004  0.69533538677985966E-004  0.46540296456786577E-002 -0.16769005533403942E-003  0.57936705764468537E-002  0.26579960372628969E-002  0.24304129724277966E-002  0.31354775370592385E-002  0.72243380309392282E-003 -0.12081379022936221E-003  0.19912737739158316E-003  0.46880857101137211E-002 -0.14876589043150432E-002  0.37637043023562443E-002  0.17610669699991788E-002  0.19610684149180251E-002  0.29459931088121152E-002  0.34690676728722374E-003 -0.42681921562844006E-003 -0.40124408885896174E-004 -0.17421428472792780E-003 -0.93269448180430823E-003 -0.20210482053664440E-002 -0.10977493767776298E-002 -0.64938059448313825E-003 -0.80623213930863542E-003 -0.51683670352257625E-003 -0.25247787256877811E-003 -0.37526736434253415E-003  0.53024106806185911E-004  0.14925962218750047E-003  0.35997631505106241E-003  0.18998975249765813E-003  0.11834865222501823E-003  0.14736809062053702E-003  0.87294311906733753E-004  
0.40188817791910391E-004  0.59314080440829970E-004 -0.21080575112504404E-002 -0.66681423926518412E-005 -0.45112648766639238E-004 -0.18182838299716993E-004 -0.14833040479237146E-004 -0.14770212741321339E-004 -0.42306191019393006E-005 -0.52463600125067248E-006 -0.11016442994788017E-005 -0.38714633774694233E-003 -0.58576590941926065E-004  </sparseX_slice>
        <sparseX_slice start="201" end="250"> -0.56676991043749087E-003 -0.24668786535651072E-003 -0.21207549263834133E-003 -0.23635112757501770E-003 -0.67059869506045259E-004 -0.48666419948954441E-005 -0.18996812446396297E-004 -0.12933539837156809E-002  0.44804312838319770E-004 -0.15838780086041039E-002 -0.72644263897611919E-003 -0.66828245624424494E-003 -0.86009379304373326E-003 -0.19828519114899312E-003  0.30876618552220553E-004 -0.54681505073005602E-004 -0.13028181577670137E-002  0.40358100034139572E-003 -0.10297270154119179E-002 -0.48189491875809967E-003 -0.54062525398163334E-003 -0.80915207443076477E-003 -0.96348426943451506E-004  0.11342933734337351E-003  0.10026507030941748E-004  0.48414117727474573E-004  0.25324749220358899E-003  0.55130536914844107E-003  0.29910066862324423E-003  0.17721990332161361E-003  0.22010886826609360E-003  0.14062445242339776E-003  0.68410134161403020E-004  0.10181110931015951E-003 -0.20838987737649985E-004 -0.57318998381216759E-004 -0.13891482623107636E-003 
-0.73233154330044426E-004 -0.45721828763764692E-004 -0.56935206220640963E-004 -0.33611751503918970E-004 -0.15428183757360492E-004 -0.22767316855017715E-004  0.40949620473311236E-005  0.11005931231820641E-004  0.26803990086384166E-004  0.14114388402104069E-004  0.88322671043318347E-005  0.10998671032356021E-004  0.64711159806519669E-005  </sparseX_slice>
        <sparseX_slice start="251" end="300">  0.29616364368512831E-005  0.43696277178834623E-005  0.62721767174398011E-003  0.19822177022619893E-005  0.13411392541433307E-004  0.54054549320015676E-005  0.44107076251114899E-005  0.43915865408350859E-005  0.12578010062200555E-005  0.15626419798678690E-006  0.32747692926357140E-006  0.11518899427075345E-003  0.17413476266276550E-004  0.16849317447984851E-003  0.73335956774914885E-004  0.63062808306866631E-004  0.70274246804278090E-004  0.19937947410206611E-004  0.14528280831253926E-005  0.56473382166179315E-005  0.38481610206438880E-003 -0.13304072635119116E-004  0.47086775956248190E-003  0.21595972079139873E-003  0.19873059204329776E-003  0.25573949720345034E-003  0.58959662315395042E-004 -0.91468235582100823E-005  0.16259838626721718E-004  0.38763201063508798E-003 -0.11993275277856509E-003  0.30613744740934232E-003  0.14326854224299174E-003  0.16078951840637389E-003  0.24060809681026701E-003  0.28666009815926649E-004 -0.33672115650983492E-004 
-0.29665329286305384E-005 -0.14404820569887195E-004 -0.75261278427994307E-004 -0.16387816826554953E-003 -0.88903907041618137E-004 -0.52680700774429944E-004 -0.65431197111699593E-004 -0.41795875199359174E-004 -0.20328269725814240E-004 -0.30255463175029259E-004  0.62002963868652111E-005  0.17034400494480525E-004  0.41293795554112292E-004  </sparseX_slice>
        <sparseX_slice start="301" end="325">  0.21768011661639078E-004  0.13592038317139849E-004  0.16925546005614285E-004  0.99902906278946132E-005  0.45849595351832009E-005  0.67659674673076152E-005 -0.17230612270843614E-005 -0.46256221445143896E-005 -0.11268107025737893E-004 -0.59331923348409823E-005 -0.37132066541549944E-005 -0.46239976248996574E-005 -0.27200808554338750E-005 -0.12447133670143386E-005 -0.18364449914540011E-005  0.36251129533867857E-006  0.97203862288105074E-006  0.23684951418217189E-005  0.12470527131688827E-005  0.78054167710127557E-006  0.97199722934918783E-006  0.57168195174200640E-006  0.26156345422482558E-006  0.38590591655123692E-006  0.00000000000000000E+000  </sparseX_slice>
      </sparseX>
      <sparseX i="4" alpha="-5567.8071269975599" sparseCutoff="1.0000000000000000" sliced="T">
        <sparseX_slice start="1" end="50">  0.81447275877397995E+000  0.81933719356783748E-005  0.40280616668446935E-005  0.63178496605255874E-005  0.51319105158444818E-005  0.18429387867433543E-005  0.63219323358139386E-006  0.39279754341151720E-006  0.14733251337128034E-006  0.69107806302028729E-001  0.18579745680371212E-003  0.96236884287295154E-004  0.15812632075263249E-003  0.13383405461221893E-003  0.51838161848529466E-004  0.19429161349138572E-004  0.13101749821939450E-004  0.57366415232758111E-005  0.29318898885383419E-002  0.21103594749986667E-002  0.11525526120185160E-002  0.19806987288402359E-002  0.17471782626198734E-002  0.73050820062610269E-003  0.29967889224923012E-003  0.21937973885394806E-003  0.11243988580113882E-003  0.31521129253943114E+000  0.82304536641764460E-003  0.45657176074162330E-003  0.76995700044720091E-003  0.65267661965537078E-003  0.27304124762597232E-003  0.11248211807960074E-003  0.81572648933520022E-004  0.41986543220409268E-004  0.18911993678749947E-001  
0.13276641413624141E-001  0.77761138572822177E-002  0.13669700665381855E-001  0.12083023540400100E-001  0.54647916984931905E-002  0.24707387929474578E-002  0.19441177738465821E-002  0.11734554929951938E-002  0.60995384973919785E-001  0.42180682623685836E-001  0.26556877655321488E-001  0.47421069323553333E-001  0.42048598084269292E-001  </sparseX_slice>
        <sparseX_slice start="51" end="100">  0.20627783107373097E-001  0.10316632307524082E-001  0.87029978080270728E-002  0.61841843945102636E-002  0.39584650874731825E+000  0.97665867058785113E-003  0.58410813188998327E-003  0.98095573140755251E-003  0.78480685859852787E-003  0.34284560682652581E-003  0.14866505732218156E-003  0.10729573286853415E-003  0.61797316632509618E-004  0.23749931707310365E-001  0.15847410197723955E-001  0.10016811094873188E-001  0.17470134703583381E-001  0.14591959320615354E-001  0.69085075492043013E-002  0.33011140501138596E-002  0.25834384959086704E-002  0.17479136887242788E-002  0.10832707724025603E+000  0.72180392261807794E-001  0.49119444712906760E-001  0.86357035076437688E-001  0.72532759698623078E-001  0.37412808891395845E-001  0.19880418364623370E-001  0.16619278128806890E-001  0.13212232583179896E-001  0.96193799485271750E-001  0.62890426876665545E-001  0.46276962670332017E-001  0.79482671147123540E-001  0.63530178696176470E-001  0.34695237365788729E-001  
0.19728661456447142E-001  0.16262173588752919E-001  0.14394833326035793E-001 -0.39227667651276334E-002 -0.81983055340403271E-004 -0.61224119397540696E-005 -0.38791533674102748E-004 -0.11668673474320858E-003 -0.45474894288932538E-004 -0.16123780793764416E-004 -0.18291776268469777E-004 -0.32842963837028418E-005 -0.23535749518245372E-003  </sparseX_slice>
        <sparseX_slice start="101" end="150"> -0.12253025399268788E-002 -0.31437099155434877E-004 -0.62541978322489694E-003 -0.20850491079248733E-002 -0.85086136963185134E-003 -0.30650322507955278E-003 -0.39970303559122816E-003 -0.61503345785090838E-004 -0.10735015946111192E-002 -0.44817009131785006E-002  0.64600092119756840E-003 -0.23052102113538461E-002 -0.93969705974425166E-002 -0.38595516301532032E-002 -0.12896711202909311E-002 -0.21655381318634735E-002 -0.18842112646320474E-003 -0.13481174958487017E-002 -0.37453400891907717E-002  0.21610471726371885E-002 -0.15363503232418995E-002 -0.98036224014190557E-002 -0.35527101143466295E-002 -0.65933079619942211E-003 -0.21501701421154477E-002  0.29701886749182774E-003  0.94466628428147265E-005  0.14812356534482341E-002  0.10342586135234147E-002  0.12666347858362001E-002  0.24682945430042134E-002  0.16368653204550515E-002  0.11340159624741400E-002  0.10305418835805733E-002  0.60495921649151554E-003  0.30927905588323235E-002  0.23956228723617817E-004  
0.45564071352230943E-005  0.13839433102315472E-004  0.29872927559375832E-004  0.11598498067992765E-004  0.41152689050138934E-005  0.42776854236016508E-005  0.83529016299199349E-006  0.18556072349792968E-003  0.36477702721799223E-003  0.61397286346091974E-004  0.23176958931888630E-003  0.53657223411733546E-003  0.21928637604745003E-003  </sparseX_slice>
        <sparseX_slice start="151" end="200">  0.80181310316497782E-004  0.94259248646141186E-004  0.17028727876371176E-004  0.84637088960263184E-003  0.14107638303201416E-002  0.11927737058746297E-003  0.96922623107645323E-003  0.24514390904913845E-002  0.10227650389979135E-002  0.36207269937991516E-003  0.51933772594324934E-003  0.70629578133667056E-004  0.10628837534830797E-002  0.13330796961997504E-002 -0.13602815812509695E-003  0.93343742806414236E-003  0.26272564888274535E-002  0.10093716676938969E-002  0.25851553307414436E-003  0.53725118337840392E-003 -0.14487437493859774E-004 -0.10532984303820225E-004 -0.49789016864370021E-003 -0.31973935012449405E-003 -0.40925458574683407E-003 -0.82617566371414296E-003 -0.52556568549828073E-003 -0.35051980602772404E-003 -0.31940692937281541E-003 -0.17889196743155103E-003  0.58721137924864486E-005  0.85364906771141793E-004  0.50714867863187988E-004  0.68279727509481953E-004  0.13933871582660719E-003  0.85045158778365764E-004  0.54510811037744090E-004  
0.49656385007632953E-004  0.26530477719900170E-004 -0.86897184045845951E-003 -0.65763753381935940E-005 -0.12790507841699423E-005 -0.38244889992271310E-005 -0.81572766217999494E-005 -0.31666119149064097E-005 -0.11235507576996532E-005 -0.11634323040027876E-005 -0.22797103730257862E-006 -0.52136425130474325E-004 -0.10020610934919347E-003  </sparseX_slice>
        <sparseX_slice start="201" end="250"> -0.17387462208193900E-004 -0.64120893572405254E-004 -0.14655166062404852E-003 -0.59895537607202206E-004 -0.21913360737074488E-004 -0.25645983561908469E-004 -0.46628221277169431E-005 -0.23780222283339441E-003 -0.38831263014034093E-003 -0.35888392080257630E-004 -0.26906629942218517E-003 -0.66993242745291457E-003 -0.27967635885928048E-003 -0.99228275392682623E-004 -0.14140624782372772E-003 -0.19526564227041739E-004 -0.29863517554395822E-003 -0.36839358163758560E-003  0.32282938671998765E-004 -0.26116371245339643E-003 -0.71877045746148122E-003 -0.27676680431188485E-003 -0.71608686682901184E-004 -0.14654210485158834E-003  0.32817100413371854E-005  0.29594201682594283E-005  0.13551042545376291E-003  0.86673368424253509E-004  0.11118123659525225E-003  0.22482093706636228E-003  0.14274253567484767E-003  0.95028420368762964E-004  0.86608581078284781E-004  0.48397824611818584E-004 -0.23332681507800331E-005 -0.32887423980139685E-004 -0.19466880397617954E-004 
-0.26272626540747508E-004 -0.53641947769116989E-004 -0.32677900497410362E-004 -0.20906007758818229E-004 -0.19044663942452306E-004 -0.10152203695642781E-004  0.46355881849653696E-006  0.63353159177998559E-005  0.37364113256187404E-005  0.50549363908397177E-005  0.10325575422343599E-004  0.62782182250005970E-005  0.40089998587343430E-005  </sparseX_slice>
        <sparseX_slice start="251" end="300">  0.36521174704650857E-005  0.19424453181536565E-005  0.25868874538782706E-003  0.19554872676628573E-005  0.38075033244550858E-006  0.11375934164221995E-005  0.24249178153641304E-005  0.94133213777692530E-006  0.33399562680829222E-006  0.34578382476599997E-006  0.67767240896699463E-007  0.15520763479393232E-004  0.29797352472575208E-004  0.51781711589439882E-005  0.19073819972933108E-004  0.43565972029076269E-004  0.17805416682264244E-004  0.65144755103090412E-005  0.76223909163196174E-005  0.13863121260263627E-005  0.70792580163186599E-004  0.11548042811639897E-003  0.10718657628265459E-004  0.80051960747804280E-004  0.19915912790385970E-003  0.83145478728925877E-004  0.29503045117254163E-004  0.42029759631979722E-004  0.58082812699760188E-005  0.88902258155318327E-004  0.10957861967177307E-003 -0.95233581800247330E-005  0.77730987361200384E-004  0.21368973584728684E-003  0.82291835972347704E-004  0.21302485790165253E-004  0.43560180140001267E-004 
-0.96540375250277330E-006 -0.88100517733527295E-006 -0.40276515087722229E-004 -0.25755826685119644E-004 -0.33042265335864953E-004 -0.66820871483492359E-004 -0.42421504268915659E-004 -0.28238789173151588E-004 -0.25736968161037386E-004 -0.14380439723689575E-004  0.69460272758690874E-006  0.97752804779109437E-005  0.57851502629573390E-005  </sparseX_slice>
        <sparseX_slice start="301" end="325">  0.78086402757048768E-005  0.15943649383921575E-004  0.97116971211917384E-005  0.62125577875088660E-005  0.56594363271577774E-005  0.30165462224292649E-005 -0.19516038965359049E-006 -0.26630759784796077E-005 -0.15703243092117258E-005 -0.21247320590391385E-005 -0.43402306868703527E-005 -0.26387167990163133E-005 -0.16848091149643605E-005 -0.15348281796218176E-005 -0.81623201640421249E-006  0.41081709774469322E-007  0.55971750409407358E-006  0.32998492744454780E-006  0.44654242873639588E-006  0.91218176376810604E-006  0.55452251081291887E-006  0.35402618661257013E-006  0.32251120142890684E-006  0.17149381537229536E-006  0.00000000000000000E+000  </sparseX_slice>
      </sparseX>
      <sparseX i="5" alpha="1730.3687192134632" sparseCutoff="1.0000000000000000" sliced="T">
        <sparseX_slice start="1" end="50">  0.63368347895130983E+000  0.93892443720415292E-002  0.49638941363610032E-002  0.16014409357549731E-002  0.44261955061705141E-003  0.10261028028781688E-003  0.19925408814803207E-004  0.37006998922797788E-005  0.49101296534016468E-006  0.30109253814625753E+000  0.32469125881433802E-001  0.18225051727011322E-001  0.54576660785653382E-002  0.23020734661370989E-002  0.82065749755752494E-003  0.23186420754519186E-003  0.64213179151252457E-004  0.10988089092472778E-004  0.71531544957890020E-001  0.57153569080100233E-001  0.34746688498415369E-001  0.11279832534022009E-001  0.72408501210945563E-002  0.37509446710937509E-002  0.15067242921806589E-002  0.62312836929882939E-003  0.15669580058167611E-003  0.47053763162771117E+000  0.21243997580165229E-001  0.16810216466864265E-001 -0.30517159173848002E-003  0.19104406993201211E-002  0.12548730695391376E-002  0.52484544755665885E-003  0.22352000590421334E-003  0.45380739610164592E-004  0.15809093662748230E+000  
0.57580378527048240E-001  0.50656307012828986E-001  0.11814985735359156E-001  0.14867692144926399E-001  0.10896704389861376E-001  0.57595864814629378E-002  0.34777719039499146E-002  0.12199059233237042E-002  0.17469736085294693E+000  0.40113579294641821E-001  0.48173436069729007E-001  0.42038683705765093E-001  0.31611338292415768E-001  </sparseX_slice>
        <sparseX_slice start="51" end="100">  0.24371640179743661E-001  0.14045464308546659E-001  0.11164681096369771E-001  0.59114326048690128E-002  0.35254966159082024E+000 -0.90695251949106243E-002  0.34152411059198166E-002 -0.76540099530196205E-002 -0.13092341866092481E-002  0.22623310600184755E-003  0.34963214372214552E-003  0.22703733398460045E-003  0.52130938458689303E-004  0.11844941288923751E+000 -0.16248689103891524E-001  0.15781678076176035E-001 -0.45347588310995180E-002  0.32889377922837456E-002  0.62628539656259747E-002  0.47714848742348723E-002  0.38856273343237939E-002  0.16700943951750591E-002  0.18510889227524169E+000  0.96235374142415644E-002  0.36868683836590928E-001  0.70350303245443654E-001  0.41129796489019245E-001  0.34848457609451322E-001  0.20560887748086003E-001  0.19431962768927804E-001  0.12625451862120987E-001  0.98070462633405658E-001  0.22538408229413123E-001  0.23311635485608641E-001  0.78139250887575201E-001  0.42761277364694074E-001  0.34005593120127367E-001  
0.17541465390954501E-001  0.18023743504122603E-001  0.14046375711145845E-001 -0.88400839063381368E-002 -0.21301786534170235E-002  0.55940281234362582E-003  0.20894343922954386E-002  0.16236667310544935E-004 -0.91567184162978839E-004 -0.27415166838426406E-005 -0.21679423329528767E-004 -0.33441773744291814E-005 -0.29700858139317930E-002  </sparseX_slice>
        <sparseX_slice start="101" end="150"> -0.53943097403540115E-002  0.64485076921997524E-003  0.33821739719643779E-002 -0.18723031401801208E-002 -0.81038137838451870E-003 -0.30919279231165559E-003 -0.30254717446995000E-003 -0.10810852178291800E-004 -0.46415535676266615E-002 -0.47420496794182594E-002 -0.11921256013744123E-002 -0.63840325014173508E-002 -0.67346512098422637E-002 -0.12300554093527712E-002 -0.14160013996976010E-002 -0.89508255679415869E-003  0.40119105275984013E-003 -0.34776775108545290E-002 -0.15805764911381619E-003 -0.10927280330106644E-002 -0.12127940016436614E-001 -0.46933835092484158E-002  0.72394921349753496E-003 -0.10282263419010818E-002 -0.36687491582256795E-003  0.10834523016210848E-002  0.61660975918470388E-004  0.70455019832035143E-003  0.10021357771958419E-002  0.27690859912530086E-002  0.23697036701105173E-002  0.91851180992904202E-003  0.86963816984929115E-003  0.55105688351016582E-003  0.34254101798738835E-003  0.33105564704315757E-002  0.52861149137013806E-003 
-0.18460963326271087E-003 -0.55921857290915447E-003 -0.16027359949335851E-004  0.23209091507898719E-004  0.24693256848549762E-005  0.58900156086282276E-005  0.10303888624502672E-005  0.11122786744138429E-002  0.13697239963723744E-002 -0.24157507694086745E-003 -0.87697930359880675E-003  0.46115014526335469E-003  0.22277527931935102E-003  </sparseX_slice>
        <sparseX_slice start="151" end="200">  0.96593973513184957E-004  0.85673948246007653E-004  0.80424069196771127E-005  0.17382329578505527E-002  0.12960615345798767E-002  0.33530474237769201E-003  0.18625883807937436E-002  0.18089132031575174E-002  0.41913804471472508E-003  0.41610134417863388E-003  0.27508576473412281E-003 -0.63262663747123797E-004  0.13023686095761204E-002  0.16371997595448460E-003  0.40595067790828390E-003  0.34543662309896939E-002  0.13657038280219698E-002 -0.31466997474885174E-004  0.32083608790748193E-003  0.16156683634285600E-003 -0.21250132600555589E-003 -0.32656527689413094E-004 -0.24808009177499691E-003 -0.36371332614382971E-003 -0.10396100289311637E-002 -0.87454082424820337E-003 -0.32609132691692683E-003 -0.30574225330334739E-003 -0.19140497963558085E-003 -0.11526625526710366E-003  0.86476801967867640E-005  0.44164773030406667E-004  0.66752621398245550E-004  0.19581017576692969E-003  0.16183647504191160E-003  0.58322656680637055E-004  0.53995493935180396E-004  
0.33530756874008372E-004  0.19533272585063995E-004 -0.91722258726770190E-003 -0.14406808031441808E-003  0.50950501243358999E-004  0.15297798111320828E-003  0.45311744108618883E-005 -0.63322513197639734E-005 -0.69669182038394321E-006 -0.16121736045036263E-005 -0.28348584398423615E-006 -0.30816786622448313E-003 -0.37372674616708624E-003  </sparseX_slice>
        <sparseX_slice start="201" end="250">  0.66982534365109348E-004  0.23955729636172788E-003 -0.12564294126004316E-003 -0.61009690682424961E-004 -0.26592066761569423E-004 -0.23492171269906960E-004 -0.22623767709081264E-005 -0.48159472436542665E-003 -0.35484754447499914E-003 -0.91889526638331930E-004 -0.51141567393016957E-003 -0.49489112167449569E-003 -0.11576061063680977E-003 -0.11427618241519801E-003 -0.75679108101992274E-004  0.16769002956066440E-004 -0.36083417284101530E-003 -0.46309680422100580E-004 -0.11245573526779835E-003 -0.94753198533858020E-003 -0.37493722830454182E-003  0.66049692942681724E-005 -0.88321964099667501E-004 -0.44967277046275378E-004  0.57186097479489661E-004  0.90478157028863535E-005  0.67625188712107482E-004  0.99300492642848771E-004  0.28428261370110785E-003  0.23895084044987013E-003  0.88935359396175162E-004  0.83345765488617503E-004  0.52146806534680661E-004  0.31354992488607959E-004 -0.33883507369185713E-005 -0.17035117684557041E-004 -0.25787510279550299E-004 
-0.75735034926060151E-004 -0.62542871584625909E-004 -0.22503233659771996E-004 -0.20820845403278690E-004 -0.12924581243616774E-004 -0.75171013348197673E-005  0.66381506109827075E-006  0.32854577077745978E-005  0.49811726031640327E-005  0.14646418880413167E-004  0.12085146823488477E-004  0.43414030207884572E-005  0.40143379991379030E-005  </sparseX_slice>
        <sparseX_slice start="251" end="300">  0.24909701793260775E-005  0.14464505065106248E-005  0.27286355461196880E-003  0.42822943354784477E-004 -0.15154276174531235E-004 -0.45479984671975531E-004 -0.13493309720986002E-005  0.18823089130404289E-005  0.20744537920641829E-006  0.47930912736029370E-006  0.84304077762215382E-007  0.91676524937840600E-004  0.11109332721683014E-003 -0.19927374991675357E-004 -0.71214566954943496E-004  0.37345646213015542E-004  0.18139059784736478E-004  0.79083001970530691E-005  0.69850037890177641E-005  0.67354159166090316E-006  0.14326909323523695E-003  0.10549985415765083E-003  0.27320999050014391E-004  0.15207127928514968E-003  0.14713068298481986E-003  0.34432033640174954E-004  0.33980820380362828E-004  0.22505679557589639E-004 -0.49772624044911404E-005  0.10734416748301547E-003  0.13790826933430672E-004  0.33454091238849709E-004  0.28173782266835488E-003  0.11148820314334118E-003 -0.19333228112783181E-005  0.26266302742856638E-004  0.13380302291832371E-004 
-0.16986991709188002E-004 -0.26916248993800734E-005 -0.20101184088149875E-004 -0.29518831957807832E-004 -0.84514871457524020E-004 -0.71035177344082196E-004 -0.26436192152940832E-004 -0.24774071536058009E-004 -0.15499889829812188E-004 -0.93190868709892789E-005  0.10079967929069789E-005  0.50637287603606180E-005  0.76660053784089566E-005  </sparseX_slice>
        <sparseX_slice start="301" end="325">  0.22515576189023950E-004  0.18592837718047120E-004  0.66892496396863707E-005  0.61889532458098203E-005  0.38417292966594401E-005  0.22342153947332136E-005 -0.27927553406970186E-006 -0.13811370266859786E-005 -0.20941455328930510E-005 -0.61579029318053306E-005 -0.50808330866739728E-005 -0.18250634223471888E-005 -0.16875164625799058E-005 -0.10471147098228014E-005 -0.60798604150614424E-006  0.58747404586509422E-007  0.29030043745528158E-006  0.44020215256286833E-006  0.12945065110002385E-005  0.10680410279401281E-005  0.38361523110913766E-006  0.35469259103827841E-006  0.22008478531910374E-006  0.12777728733913836E-006  0.00000000000000000E+000  </sparseX_slice>
      </sparseX>
      <sparseX i="6" alpha="-7007.7563703366541" sparseCutoff="1.0000000000000000" sliced="T">
        <sparseX_slice start="1" end="50">  0.69097033899652793E+000  0.15041927826434364E-003  0.94449193213301820E-004  0.79332100881691935E-004  0.30829484142452134E-004  0.11590314402181775E-004  0.63330272121380132E-005  0.18158319999949166E-005  0.67175244710011712E-006  0.18202129154083588E+000  0.23050971376872534E-002  0.14869781272764204E-002  0.13703390366605489E-002  0.58623212110580616E-003  0.24174532495264804E-003  0.14232176597159856E-003  0.43672638826044037E-004  0.17656309901089137E-004  0.23974799426492055E-001  0.17781758105776299E-001  0.11772085522293394E-001  0.11866816614186751E-001  0.56270855114732236E-002  0.25511153032469129E-002  0.16069703314451277E-002  0.52848518651470687E-003  0.23381066813405395E-003  0.46928768270849175E+000  0.58410971000096229E-002  0.37358987255039040E-002  0.37078795694969464E-002  0.17110518893040405E-002  0.76541718910966402E-003  0.48116688894631499E-003  0.15777668806598008E-003  0.72633717910460118E-004  0.87415197738297187E-001  
0.64290655055900578E-001  0.42182232010675953E-001  0.45591464557681531E-001  0.23587226103499066E-001  0.11664953449448385E-001  0.77583159734557509E-002  0.27376458420433078E-002  0.13821547205770577E-002  0.15936351874505905E+000  0.11756226988892060E+000  0.76515615348369398E-001  0.88105757283610614E-001  0.50640922982791867E-001  </sparseX_slice>
        <sparseX_slice start="51" end="100">  0.27632345688875466E-001  0.19088725114323250E-001  0.73030797950108493E-002  0.42196887300750873E-002  0.32473744076920141E+000  0.39199685098027046E-002  0.24499132489062833E-002  0.26881962131356418E-002  0.13554602648170897E-002  0.66018411512936141E-003  0.44082015039475765E-003  0.15264590460119300E-003  0.77570954695181760E-004  0.60489521979424095E-001  0.43729241787796344E-001  0.28039311280799128E-001  0.33237798721492857E-001  0.19036219950354916E-001  0.10286249237981177E-001  0.71753198165417972E-002  0.26815210193323505E-002  0.14936949638696109E-002  0.15595421479305233E+000  0.11501561991688677E+000  0.73332031645747656E-001  0.91589433233215403E-001  0.59434223079307902E-001  0.35701185055620921E-001  0.25421676942065714E-001  0.10376046957627189E-001  0.65993631977335930E-002  0.76308923470201587E-001  0.57636695666089359E-001  0.36173968504071556E-001  0.48138829574483594E-001  0.35960113232553340E-001  0.23835627586694035E-001  
0.17209240422558787E-001  0.75252084047606298E-002  0.52418093308380653E-002 -0.67920866076818603E-001 -0.83911213756664019E-003 -0.53635921607871485E-003 -0.56449554560076328E-003 -0.27620526367026283E-003 -0.13021812881612178E-003 -0.85190763996868403E-004 -0.29248868996119023E-004 -0.13951124820133774E-004 -0.12651761717661771E-001  </sparseX_slice>
        <sparseX_slice start="101" end="150"> -0.92974983687732441E-002 -0.60936649112432661E-002 -0.69586156835451185E-002 -0.38350865475882180E-002 -0.19971846263646966E-002 -0.13756825386747546E-002 -0.50704616176216945E-003 -0.26424560019481169E-003 -0.32618799088838919E-001 -0.24247781143705498E-001 -0.15770813233095964E-001 -0.19088632789979184E-001 -0.11772132364614456E-001 -0.67602239291146898E-002 -0.48005055211400461E-002 -0.19091241287391043E-002 -0.11303421141007830E-002 -0.22571539222890916E-001 -0.16979913289472515E-001 -0.10832026292071400E-001 -0.14102315474936847E-001 -0.98891249091115647E-002 -0.62371917648264066E-002 -0.45325898596453463E-002 -0.19147637278769437E-002 -0.12419188327761595E-002  0.33382359475261853E-002  0.25159807653443102E-002  0.16355258231993324E-002  0.20727570831797454E-002  0.13750006962959414E-002  0.82943336365427192E-003  0.60394756455183179E-003  0.24962992843780007E-003  0.15182483320997251E-003  0.19192728787049432E-001  0.23729940227591574E-003  
0.15180262321018087E-003  0.15953291915925225E-003  0.77966715072382971E-004  0.36710488722958207E-004  0.23997551389364530E-004  0.82349182881087048E-005  0.39172279770376876E-005  0.35750697149654299E-002  0.26286757573759307E-002  0.17242094853597391E-002  0.19663632411758983E-002  0.10820927065452023E-002  0.56269431752720167E-003  </sparseX_slice>
        <sparseX_slice start="151" end="200">  0.38739892355410034E-003  0.14268636820017664E-003  0.74148972095353563E-004  0.92172523766596848E-002  0.68534571950905248E-002  0.44607185658352803E-002  0.53931516675713191E-002  0.33194073763798179E-002  0.19027703963993988E-002  0.13510399423946756E-002  0.53668175813531690E-003  0.31678194287472749E-003  0.63781493911051331E-002  0.47971479436501943E-002  0.30620940824375447E-002  0.39834474513573102E-002  0.27864412387627914E-002  0.17539170211171194E-002  0.12749349672316220E-002  0.53779635856321048E-003  0.34774331715542960E-003 -0.13340298229395917E-002 -0.10054584495458453E-002 -0.65405180577772298E-003 -0.82810856764769505E-003 -0.54815029432504964E-003 -0.33006692718984509E-003 -0.24035775462341870E-003 -0.99249058703276220E-004 -0.60195803008137329E-004  0.26655329288677819E-003  0.20090668591252157E-003  0.13078006932056547E-003  0.16542387953951123E-003  0.10926316952341916E-003  0.65675590701317908E-004  0.47829412465863357E-004  
0.19730677055423315E-004  0.11933857814091045E-004 -0.52629579299952036E-002 -0.65073921093130512E-004 -0.41630054234770774E-004 -0.43746799091276585E-004 -0.21378608924867781E-004 -0.10065428762650680E-004 -0.65794822204819776E-005 -0.22577333179677936E-005 -0.10738228332292430E-005 -0.98034217621826604E-003 -0.72084527223722768E-003  </sparseX_slice>
        <sparseX_slice start="201" end="250"> -0.47283772613948371E-003 -0.53920916297175796E-003 -0.29670525596004529E-003 -0.15427706272121497E-003 -0.10621270121385541E-003 -0.39118755866499397E-004 -0.20325687835172496E-004 -0.25275202930622898E-002 -0.18793517078633777E-002 -0.12232602575619035E-002 -0.14788784635555781E-002 -0.91013762176160628E-003 -0.52166734466214818E-003 -0.37040191103401301E-003 -0.14712845507250966E-003 -0.86830649370298277E-004 -0.17489921464039697E-002 -0.13154427192676448E-002 -0.83969284814056533E-003 -0.10923051195946263E-002 -0.76397764398029812E-003 -0.48083482046257833E-003 -0.34952722908954397E-003 -0.14742753387801409E-003 -0.95312981540151862E-004  0.36581264255802456E-003  0.27571327656214132E-003  0.17935794994484533E-003  0.22707792821294393E-003  0.15029341336526353E-003  0.90490554296995763E-004  0.65896339562310230E-004  0.27208703297293962E-004  0.16500107715601719E-004 -0.10336945391051584E-003 -0.77911777328459623E-004 -0.50718368764525255E-004 
-0.64150633233697345E-004 -0.42367170519956665E-004 -0.25463658463617829E-004 -0.18544434683424306E-004 -0.76496088728554198E-005 -0.46261263689898406E-005  0.20043353968800808E-004  0.15107125828036338E-004  0.98346522250702367E-005  0.12438663041263500E-004  0.82140085400375055E-005  0.49363693477678266E-005  0.35950271601237377E-005  </sparseX_slice>
        <sparseX_slice start="251" end="300">  0.14828817360864245E-005  0.89665253937915685E-006  0.15648563989767951E-002  0.19348729186365672E-004  0.12378081422329688E-004  0.13007415593842779E-004  0.63565703680563551E-005  0.29927763125026950E-005  0.19562880821530516E-005  0.67129459063193973E-006  0.31927880623062541E-006  0.29148907288403662E-003  0.21433211672772592E-003  0.14059121739294368E-003  0.16032523049121718E-003  0.88220227400541532E-004  0.45871470271541064E-004  0.31580369014993237E-004  0.11631212412749547E-004  0.60434092969276267E-005  0.75151775042705561E-003  0.55879552556732431E-003  0.36371777507441703E-003  0.43972069540933623E-003  0.27061338294367976E-003  0.15510787443294207E-003  0.11013194241515649E-003  0.43745709583289319E-004  0.25817156014235256E-004  0.52003485273212238E-003  0.39112566170245442E-003  0.24966950122801618E-003  0.32477914656800565E-003  0.22715486760490017E-003  0.14296675539379432E-003  0.10392510638303863E-003  0.43834536044776113E-004  
0.28339123518849050E-004 -0.10876854083727350E-003 -0.81978938465838210E-004 -0.53329315126214434E-004 -0.67517947564433111E-004 -0.44687065186744573E-004 -0.26905628092003775E-004 -0.19593015187569684E-004 -0.80899664000208816E-005 -0.49059434271722628E-005  0.30735254501788319E-004  0.23165822875988861E-004  0.15080323709385729E-004  </sparseX_slice>
        <sparseX_slice start="301" end="325">  0.19074152989901771E-004  0.12597122864102972E-004  0.75711302287090218E-005  0.55138329386673716E-005  0.22744591640905449E-005  0.13754769060064318E-005 -0.84281059356060087E-005 -0.63524530595800886E-005 -0.41354177963270335E-005 -0.52303772619286746E-005 -0.34539182434458581E-005 -0.20756903298550656E-005 -0.15116706444452010E-005 -0.62353441671337978E-006 -0.37702920686259904E-006  0.17719831165074995E-005  0.13355836290641869E-005  0.86946035101222698E-006  0.10996698846250036E-005  0.72617109999371387E-006  0.43640275298242454E-006  0.31782070562678907E-006  0.13109446271349223E-006  0.79267618520264652E-007  0.00000000000000000E+000  </sparseX_slice>
      </sparseX>
      <sparseX i="7" alpha="-4043.3782881593061" sparseCutoff="1.0000000000000000" sliced="T">
        <sparseX_slice start="1" end="50">  0.39398591687722939E+000  0.14467186036854596E-004  0.12432944646608439E-004  0.22868110918302878E-004  0.21891631195791690E-004  0.87391610883591254E-005  0.29181235464526241E-005  0.14004251935618427E-005  0.48568498816349942E-006  0.13422512678001428E+000  0.24402716101794877E-003  0.22391173413521608E-003  0.41302484457775025E-003  0.47592966979788571E-003  0.19246040319561089E-003  0.78349233369028791E-004  0.37339786738917702E-004  0.14399940072399266E-004  0.22864249567485194E-001  0.20691573519544719E-002  0.20958971707806138E-002  0.37571405860984545E-002  0.52426709408474820E-002  0.21340996143672905E-002  0.10572873361460360E-002  0.50692474068723004E-003  0.22026001299416746E-003  0.46387821047498484E+000  0.67473694971275386E-003  0.72078067352426476E-003  0.10473279645417703E-002  0.17673411464827645E-002  0.65422682911037285E-003  0.37762482438245582E-003  0.16832139216897156E-003  0.74605807393969629E-004  0.11174860232062754E+000  
0.82224841909069174E-002  0.10154412627186565E-001  0.13817007798315427E-001  0.28291740506327535E-001  0.10454193625464672E-001  0.72711806072405108E-002  0.33560227461781377E-002  0.17048892983292092E-002  0.27308462680472895E+000  0.17359691910986352E-001  0.26970839978752742E-001  0.27633604151679200E-001  0.80471608467306596E-001  </sparseX_slice>
        <sparseX_slice start="51" end="100">  0.26903566062997007E-001  0.25406023303771192E-001  0.11945363337195274E-001  0.71909985325507783E-002  0.47247340517522013E+000  0.48224608336486832E-003  0.68680125265834760E-003  0.54114433106988789E-003  0.17899497980679055E-002  0.59573235182594411E-003  0.46529423793979124E-003  0.20447661198445298E-003  0.92708942651534190E-004  0.11381919105003016E+000  0.60901633751246345E-002  0.10131489504995391E-001  0.76365233963777276E-002  0.29385298243279276E-001  0.97459828194631556E-002  0.90155608181608973E-002  0.41865236844638035E-002  0.22175563483490322E-002  0.39335587850500664E+000  0.20439755412968465E-001  0.40580328642777622E-001  0.26133103367315887E-001  0.12373192662639916E+000  0.37619761360776903E-001  0.45145692360754157E-001  0.22096894620723444E-001  0.14100360306795080E-001  0.28329834777752871E+000  0.14380337549030741E-001  0.31988050025235533E-001  0.16755495787106122E-001  0.98731020025227129E-001  0.28174182026027145E-001  
0.40788021198029316E-001  0.21083646473674916E-001  0.14467688159848157E-001 -0.30984320255272407E-001 -0.15149190206317680E-003 -0.49256403474046021E-004 -0.39286336804357849E-003 -0.29126367497276490E-003 -0.13037428980845978E-003 -0.40183229926007858E-004 -0.83014680312881765E-005 -0.12441676006930995E-004 -0.74641455541445785E-002  </sparseX_slice>
        <sparseX_slice start="101" end="150"> -0.17173451661860253E-002 -0.88379014160686227E-003 -0.50377619019955763E-002 -0.44849206923924211E-002 -0.19991551900973648E-002 -0.74858591377002196E-003 -0.12698329581578485E-003 -0.20641900740551194E-003 -0.25795874181263580E-001 -0.38662841928273984E-002 -0.39858928215713374E-002 -0.12802205293175680E-001 -0.16629126701641399E-001 -0.63974127247374436E-002 -0.32909594828563087E-002 -0.25184586482472561E-003 -0.53393696785067140E-003 -0.26273845674737492E-001 -0.13511345962511467E-002 -0.41094314790927414E-002 -0.62476501984866564E-002 -0.16558135562012334E-001 -0.48846031662861562E-002 -0.30865270766196897E-002  0.14777345186851057E-003  0.67072649988915865E-004  0.12183533224874631E-002  0.11897712864275497E-002  0.11173556960923528E-002  0.39097206057389644E-002  0.22744019897614188E-002  0.16450960734315091E-002  0.12306920608200495E-002  0.30064111941069030E-003  0.58109345581149551E-003  0.11173485291886026E-001  0.37580971587954705E-004  
0.15027058728602944E-004  0.99609593240611476E-004  0.76900029228587851E-004  0.36907582511122824E-004  0.11836559611774268E-004  0.42117415196559112E-005  0.31605691042322988E-005  0.26917008305689443E-002  0.43071196763124842E-003  0.25515702331563913E-003  0.12720836299822088E-002  0.11795054707559041E-002  0.56751386619198463E-003  </sparseX_slice>
        <sparseX_slice start="151" end="200">  0.22112655466649075E-003  0.72292244817233114E-004  0.54824602754242801E-004  0.93024413116387407E-002  0.10147077835866733E-002  0.11148476654612807E-002  0.31885199506447343E-002  0.43387292853745560E-002  0.18369134494740490E-002  0.99524478994844645E-003  0.24937924599044680E-003  0.17171437740520618E-003  0.94748061532189849E-002  0.44361987486586028E-003  0.11743024224873410E-002  0.15119427111174330E-002  0.43009157733652544E-002  0.14763162975880970E-002  0.10293811080052445E-002  0.20113980164299187E-003  0.63809506064806189E-004 -0.62134804836071135E-003 -0.38937799325348748E-003 -0.35531166701510507E-003 -0.13593146153836062E-002 -0.82108931252066180E-003 -0.56913689013944385E-003 -0.38074662985820265E-003 -0.98652261101194285E-004 -0.17536709605206211E-003  0.15844065513501211E-003  0.64399442679291693E-004  0.58032216274308862E-004  0.23843080070314675E-003  0.14987332721041455E-003  0.10289639594006148E-003  0.61601725071262723E-004  
0.18657780808052821E-004  0.27119553530173204E-004 -0.30849468150628552E-002 -0.10262741462736974E-004 -0.41454575611494472E-005 -0.27193171826861721E-004 -0.21044922580675657E-004 -0.10120990346415496E-004 -0.32458232030746680E-005 -0.11704469858206724E-005 -0.86410386747249304E-006 -0.74316595828838978E-003 -0.11766693181203565E-003  </sparseX_slice>
        <sparseX_slice start="201" end="250"> -0.70175813801404599E-004 -0.34723764952581017E-003 -0.32276560009661246E-003 -0.15563822283869765E-003 -0.60643205211120776E-004 -0.20125405262550922E-004 -0.15015508465326202E-004 -0.25683603590983982E-002 -0.27760087357001279E-003 -0.30594369335279720E-003 -0.87005922508037107E-003 -0.11871077262159753E-002 -0.50393847496469669E-003 -0.27313514676451968E-003 -0.69853714336954738E-004 -0.47347014972927580E-004 -0.26159494823818842E-002 -0.12211037151000620E-003 -0.32232622456340867E-003 -0.41235542727591354E-003 -0.11767880214749418E-002 -0.40565493636568652E-003 -0.28325754477502926E-003 -0.57173457435067360E-004 -0.18349045633048426E-004  0.17155127811622570E-003  0.10607340847064727E-003  0.96572639927647205E-004  0.37062128448498089E-003  0.22435413778731656E-003  0.15525887929140298E-003  0.10335766830358160E-003  0.26841140154165508E-004  0.47563892613748600E-004 -0.61864377434897019E-004 -0.24820400617901723E-004 -0.22334125200809389E-004 
-0.91967374592260865E-004 -0.57938688578555299E-004 -0.39759002550182508E-004 -0.23688351941302474E-004 -0.72152388636048849E-005 -0.10413307602402608E-004  0.12077711974070416E-004  0.47831350423495678E-005  0.42979833518302300E-005  0.17737028927208132E-004  0.11199296353344157E-004  0.76818372357214692E-005  0.45548413506000892E-005  </sparseX_slice>
        <sparseX_slice start="251" end="300">  0.13953587093940944E-005  0.19993391641654923E-005  0.91757372778164298E-003  0.30508267305133255E-005  0.12329608851349380E-005  0.80836298394569433E-005  0.62567396662004557E-005  0.30093182916444804E-005  0.96509321576343899E-006  0.34824543827251600E-006  0.25688899972501535E-006  0.22104418636248064E-003  0.34979798740771906E-004  0.20868800290569027E-004  0.10322169177249807E-003  0.95959137006517900E-004  0.46276766934845724E-004  0.18031368194383024E-004  0.59884721942582104E-005  0.44643490942819393E-005  0.76392240458657648E-003  0.82530521236249960E-004  0.90970993286595828E-004  0.25863386700586671E-003  0.35292814017849015E-003  0.14984138698303685E-003  0.81215623680393423E-004  0.20791830559240126E-004  0.14081777474101376E-004  0.77807711514426853E-003  0.36314499686787144E-004  0.95843187081370425E-004  0.12257368413372765E-003  0.34986055564263126E-003  0.12062732123036590E-003  0.84236756272487774E-004  0.17029746864555467E-004  
0.54685468934454936E-005 -0.51025497424532893E-004 -0.31528766750666770E-004 -0.28701434591656409E-004 -0.11016639616895652E-003 -0.66696104662180953E-004 -0.46151632704782628E-004 -0.30716022123504142E-004 -0.79776160526576616E-005 -0.14134509637541921E-004  0.18400682677141210E-004  0.73776527779306451E-005  0.66381322890057511E-005  </sparseX_slice>
        <sparseX_slice start="301" end="325">  0.27337573186200065E-004  0.17224412944280969E-004  0.11819537231305909E-004  0.70403400491437704E-005  0.21450290379792527E-005  0.30946783706710266E-005 -0.50803420720525563E-005 -0.20106544061554984E-005 -0.18065833582860875E-005 -0.74562820506802589E-005 -0.47084926380631782E-005 -0.32295820173037607E-005 -0.19144691889831838E-005 -0.58666081770624356E-006 -0.84029038158993777E-006  0.10684919306106307E-005  0.42260267356061770E-006  0.37968317563761702E-006  0.15672338388160984E-005  0.98979003853196369E-006  0.67888717075113327E-006  0.40234034144381383E-006  0.12332709248003852E-006  0.17658034938144255E-006  0.00000000000000000E+000  </sparseX_slice>
      </sparseX>
      <sparseX i="8" alpha="13735.952569720041" sparseCutoff="1.0000000000000000" sliced="T">
        <sparseX_slice start="1" end="50">  0.47856245368780737E+000  0.38063264633669794E-005  0.34049504362688705E-006  0.43059050209217957E-007  0.25056676972110544E-007  0.29755588740295780E-006  0.34159536733783164E-006  0.10301467535165547E-006  0.84541182617420170E-008  0.53519193954567522E-001  0.11849930501950070E-003  0.90760403664379373E-005  0.19743623035257269E-005  0.54319737608000465E-006  0.11957566116906829E-004  0.17070742564156158E-004  0.63812175654357655E-005  0.57606306995983450E-006  0.29926126668256754E-002  0.18458133881460383E-002  0.12134895323543197E-003  0.54523381741416736E-004  0.11746947557935164E-004  0.24402606530785992E-003  0.42965640878128085E-003  0.20046998630372478E-003  0.21704686227980098E-004  0.36499234532505936E+000  0.79868586293139045E-003  0.48589137659213718E-004  0.17778012567154906E-004  0.13590435722362084E-005  0.95767137613656845E-004  0.15771598631876739E-003  0.65419157110976252E-004  0.60912242948719887E-005  0.28862882420758150E-001  
0.17607441780537560E-001  0.92396158082267766E-003  0.76645404255379834E-003  0.14240208280585627E-003  0.28007555779797385E-002  0.56393676890151307E-002  0.29258343401194760E-002  0.33787530872028660E-003  0.13918707069400987E+000  0.84053205492773106E-001  0.35527595684765093E-002  0.56205220972737049E-002  0.12981037132474334E-002  </sparseX_slice>
        <sparseX_slice start="51" end="100">  0.16250099274736408E-001  0.37113137415100465E-001  0.21416450211206563E-001  0.26683792723603606E-002  0.55496922413919125E+000  0.12052914565301711E-002  0.63048501623440766E-004  0.30116133111928741E-004 -0.82924962255000027E-007  0.15337250910115848E-003  0.26698896524419947E-003  0.11449014748184985E-003  0.10627460547944682E-004  0.43885883275725505E-001  0.26582572919176640E-001  0.12046625726616752E-002  0.13451221747618149E-002  0.23500492220353598E-003  0.45150098592895089E-002  0.95658669459367813E-002  0.51351757266891174E-002  0.60075441890339656E-003  0.29929470681241110E+000  0.17954780273293261E+000  0.66053278831554171E-002  0.14143564782884071E-001  0.34635986630060984E-002  0.37246081129858333E-001  0.89140611747860005E-001  0.53227513184999055E-001  0.67540062041128186E-002  0.32178750899519509E+000  0.19181919985230997E+000  0.61823056196245859E-002  0.17872782831732353E-001  0.47649151095913375E-002  0.42795481339950918E-001  
0.10711047322010712E+000  0.66181709581852821E-001  0.85728254227206268E-002  0.21139187825377381E-001  0.38064930737882721E-004 -0.55144430335524339E-005  0.30143405983203489E-005 -0.18056753062073104E-005  0.80145250236052507E-005  0.24086289626334579E-004  0.12707205309367662E-004  0.10222788810914320E-005  0.16716457221337218E-002  </sparseX_slice>
        <sparseX_slice start="101" end="150">  0.84810512777348129E-003 -0.10008915133836467E-003  0.16820933758940885E-003  0.17599195340063747E-004  0.26100334977829860E-003  0.87989978557165976E-003  0.58371139566731000E-003  0.69601922205777658E-004  0.11400356537359961E-001  0.57943470601411490E-002 -0.49886849848483834E-003  0.19031205850771047E-002  0.59526748978609614E-003  0.23208688807520080E-002  0.82963054752042027E-002  0.61154376428320329E-002  0.82814142626943621E-003  0.17334190986427876E-001  0.88096000386293088E-002 -0.60634181034128034E-003  0.34759852884673646E-002  0.12963238713065417E-002  0.39025962117289889E-002  0.14170843336422110E-001  0.10802426167725365E-001  0.15231256115312275E-002  0.46688290992433158E-003  0.23188715263167023E-003  0.64305925941677758E-004  0.37430674765789813E-003  0.24073313250611131E-003  0.25603108583923653E-003  0.98267643462908081E-003  0.91414501419710020E-003  0.16179997052305376E-003 -0.54297112823690962E-002 -0.97238929780846261E-005  
0.14783996338691199E-005 -0.79547534682770131E-006  0.47304515027937550E-006 -0.21185830944283160E-005 -0.63724842867412135E-005 -0.33675198005084715E-005 -0.27446797695121351E-006 -0.42937097264906230E-003 -0.21671226366024889E-003  0.26865986314061248E-004 -0.44334211761150993E-004 -0.46871446189240056E-005 -0.68924299317967404E-004  </sparseX_slice>
        <sparseX_slice start="151" end="200"> -0.23272216296127694E-003 -0.15460013362859665E-003 -0.18540306978197414E-004 -0.29282413792464891E-002 -0.14810517520379917E-002  0.13423301196782792E-003 -0.50141565240619272E-003 -0.15706635154122097E-003 -0.61245393557674802E-003 -0.21938599319868755E-002 -0.16193075576526163E-002 -0.22012537062041242E-003 -0.44523778844879945E-002 -0.22521301036801727E-002  0.16354393187563475E-003 -0.91571832817453555E-003 -0.34177436925070357E-003 -0.10295322741347788E-002 -0.37470026958632235E-002 -0.28600642835952864E-002 -0.40449352689027270E-003 -0.16959436357166728E-003 -0.84115252030593529E-004 -0.24137965422855431E-004 -0.13937929950637632E-003 -0.89591254071986530E-004 -0.95245974212384172E-004 -0.36718685570535941E-003 -0.34198694159429105E-003 -0.60400202551260504E-004  0.30802421275112004E-004  0.15257239058645018E-004  0.45313537407048659E-005  0.25950317969190149E-004  0.16671506031186680E-004  0.17716844636949088E-004  0.68602515047291361E-004  
0.63971109901766738E-004  0.11276043990806893E-004  0.14819150056680295E-002  0.26531626405536756E-005 -0.40436961419934316E-006  0.21740352968216864E-006 -0.12923936929850463E-006  0.57905840848919741E-006  0.17418328097221230E-005  0.92054244666955418E-006  0.75075785508049373E-007  0.11718694683325688E-003  0.59130760590842124E-004  </sparseX_slice>
        <sparseX_slice start="201" end="250"> -0.73487736895550162E-005  0.12115853687651386E-004  0.12815547732679092E-005  0.18837711664164857E-004  0.63610513863225323E-004  0.42260187155627318E-004  0.50694392886369996E-005  0.79919623981001924E-003  0.40411705907355947E-003 -0.36721671705803869E-004  0.13702687139918043E-003  0.42926191378417076E-004  0.16738429547455869E-003  0.59964766350092925E-003  0.44263477960804529E-003  0.60182196323484055E-004  0.12151742983741800E-002  0.61451743127923625E-003 -0.44745333923098915E-004  0.25024625380802855E-003  0.93403344386187726E-004  0.28136800946246292E-003  0.10241640135724940E-002  0.78178922616252595E-003  0.11058356987227873E-003  0.46286886941788762E-004  0.22955764002018584E-004  0.65989642415725342E-005  0.38088465479062079E-004  0.24482188626790725E-004  0.26026851960096117E-004  0.10035909821710686E-003  0.93477078919526052E-004  0.16507808134833486E-004 -0.11889029717208941E-004 -0.58885679809903002E-005 -0.17519565014081047E-005 
-0.10028894383865437E-004 -0.64428037813673129E-005 -0.68466345077861429E-005 -0.26517035213289143E-004 -0.24728340656288644E-004 -0.43583999170419858E-005  0.22944466987549069E-005  0.11363537026118538E-005  0.33867951626290543E-006  0.19379092891643047E-005  0.12449301978414852E-005  0.13229333143159501E-005  0.51248352918154986E-005  </sparseX_slice>
        <sparseX_slice start="251" end="300">  0.47794298512008386E-005  0.84230156444378536E-006 -0.44051756664117145E-003 -0.78867397893872120E-006  0.12021719120228656E-006 -0.64630408392160705E-007  0.38420022267281554E-007 -0.17214506461401498E-006 -0.51782109804745971E-006 -0.27366479574780442E-006 -0.22319734570886689E-007 -0.34835269542212160E-004 -0.17577108197012383E-004  0.21847625089138894E-005 -0.36018287849848950E-005 -0.38099311320880796E-006 -0.56001450051074839E-005 -0.18910449170777114E-004 -0.12563363099995949E-004 -0.15070950017589749E-005 -0.23757096829664633E-003 -0.12012724091277931E-003  0.10917279050998707E-004 -0.40735628477365367E-004 -0.12761233017597321E-004 -0.49760541214753452E-004 -0.17826615060581954E-003 -0.13158905164909558E-003 -0.17891486849907152E-004 -0.36122559183033399E-003 -0.18267062681548085E-003  0.13302776214358193E-004 -0.74393698958201719E-004 -0.27767186570975591E-004 -0.83645921795577087E-004 -0.30446835693090135E-003 -0.23241480264853020E-003 
-0.32875172514931159E-004 -0.13759349709668504E-004 -0.68238610747016135E-005 -0.19617923159755136E-005 -0.11323000076857069E-004 -0.72780952742598412E-005 -0.77372859031422497E-005 -0.29835175064280365E-004 -0.27789344491290377E-004 -0.49074999750094923E-005  0.35341611500779261E-005  0.17504439452462510E-005  0.52083581539656787E-006  </sparseX_slice>
        <sparseX_slice start="301" end="325">  0.29814058619010566E-005  0.19153247671035128E-005  0.20353738306010874E-005  0.78830961046867940E-005  0.73513681011821695E-005  0.12956813001693683E-005 -0.96456812680918544E-006 -0.47771298754806461E-006 -0.14239064705628937E-006 -0.81473521121165230E-006 -0.52339253025012411E-006 -0.55618592522261598E-006 -0.21546005506248746E-005 -0.20093902255632627E-005 -0.35412266924223881E-006  0.20274859114423151E-006  0.10041314516528310E-006  0.29932569622056065E-007  0.17126536007977804E-006  0.11002212864288803E-006  0.11691548626655026E-006  0.45292221786906640E-006  0.42239861289548780E-006  0.74440598428546773E-007  0.00000000000000000E+000  </sparseX_slice>
      </sparseX>
      <sparseX i="9" alpha="-8644.9818344461528" sparseCutoff="1.0000000000000000" sliced="T">
        <sparseX_slice start="1" end="50">  0.48286359228070863E+000  0.32432464686124672E-005  0.13091739988471177E-005  0.12913941788696583E-005  0.13321691127953185E-005  0.57728872821915934E-006  0.25637590932549523E-006  0.13701481712166568E-006  0.37325311046865699E-007  0.53799317829098213E-001  0.90336411494528255E-004  0.30003038970633555E-004  0.29893544772113542E-004  0.36872377187686001E-004  0.18566814598553184E-004  0.11289631079709398E-004  0.69512947710942930E-005  0.16984545710400367E-005  0.29970851449012425E-002  0.12598775570731482E-002  0.37547498528457576E-003  0.37755903601399075E-003  0.52524979507168534E-003  0.31076527157784686E-003  0.27255480404951793E-003  0.19828999897983056E-003  0.43296493474912118E-004  0.36610891912221033E+000  0.55598831055058123E-003  0.12046047838950957E-003  0.11391752261969961E-003  0.19404660516888762E-003  0.11851508256063202E-003  0.97158595318487954E-004  0.64525537602176178E-004  0.14225874449825784E-004  0.28843477473427796E-001  
0.10976107331809667E-001  0.25564773292627305E-002  0.25083520199430851E-002  0.41076140553430252E-002  0.29517261306319822E-002  0.35377409390206240E-002  0.27889121145062198E-002  0.55802830333494355E-003  0.13879255218615924E+000  0.47841976323700325E-001  0.11329010409285479E-001  0.11594680859929908E-001  0.17345461565632637E-001  </sparseX_slice>
        <sparseX_slice start="51" end="100">  0.14869663642550322E-001  0.23887007356927434E-001  0.20313714859092835E-001  0.37926430631976113E-002  0.57734948447391810E+000  0.83737604732015054E-003  0.11303643956995268E-003  0.91555703024702892E-004  0.23394388213110817E-003  0.16769523143368814E-003  0.16638161988123174E-003  0.11169911923735288E-003  0.22115884633083361E-004  0.45485826703281627E-001  0.16516845335534398E-001  0.29297409409417044E-002  0.27554509312736480E-002  0.51865178209048951E-002  0.43234390447330342E-002  0.62284726115883178E-002  0.49984855424920300E-002  0.91994383809989384E-003  0.30953490716404025E+000  0.10175408712937475E+000  0.22288588767774221E-001  0.23874667337554851E-001  0.33035607517009832E-001  0.31989823751109071E-001  0.60441908681121558E-001  0.52349877874148444E-001  0.91476518700744167E-002  0.34516210432005301E+000  0.10826746180745815E+000  0.24264951300189325E-001  0.28389287445349253E-001  0.33036793075844277E-001  0.35315456054345627E-001  
0.77029569940966949E-001  0.68021294627721302E-001  0.11305195938768940E-001  0.58935119247848181E-001  0.67746544361490439E-004 -0.49232275230016301E-004 -0.65457182166886576E-004 -0.50319886222005148E-004 -0.84575445121215141E-005  0.22789235332181186E-004  0.14238111919038974E-004 -0.40167555728422027E-006  0.46431367705949021E-002  </sparseX_slice>
        <sparseX_slice start="101" end="150">  0.13025826853444863E-002 -0.68966544441774198E-003 -0.81804770292815299E-003 -0.85943451523230047E-003 -0.77945536677519225E-004  0.98909334706496154E-003  0.80715214589230995E-003  0.47258098558774627E-004  0.31596939385348036E-001  0.78854028245232688E-002 -0.16338658781866555E-002 -0.39063409077785377E-003 -0.33027249960653890E-002  0.55551844718297030E-003  0.10366505843631515E-001  0.92910737663868502E-002  0.82708448752369943E-003  0.49828003941621610E-001  0.12060035648922626E-001  0.11984621086323005E-003  0.40177907326913401E-002 -0.24122527329927014E-002  0.21945455699757567E-002  0.19397954474325154E-001  0.17893662819307283E-001  0.19249802202736266E-002  0.35966143816646289E-002  0.99731687209510820E-003  0.14363548744619667E-002  0.27879487051568090E-002  0.16630427051722051E-002  0.10996070165785290E-002  0.29447091664303680E-002  0.29671696892833097E-002  0.58949263856935251E-003 -0.13621548498502620E-001 -0.13978516165447219E-004  
0.12585829506008015E-004  0.15807759295260170E-004  0.11759128458917318E-004  0.16683329827806202E-005 -0.55927235234034644E-005 -0.34416095209356568E-005  0.11801377365267769E-006 -0.10731583054894480E-002 -0.26819556232827107E-003  0.16925165807316216E-003  0.18883424571964786E-003  0.19604136538475686E-003  0.83313403841755731E-005  </sparseX_slice>
        <sparseX_slice start="151" end="200"> -0.24229066110867666E-003 -0.19525196212650617E-003 -0.10997494615049501E-004 -0.73029332549875252E-002 -0.16217061897691035E-002  0.32179653521114922E-003 -0.32570875265366059E-004  0.70067738924090733E-003 -0.21652104647703734E-003 -0.25359908997847564E-002 -0.22473979903366056E-002 -0.19733078375881681E-003 -0.11516640348516141E-001 -0.24831572080288556E-002 -0.20420903648737346E-003 -0.12205518186906121E-002  0.42319229693348195E-003 -0.65363394408219744E-003 -0.47344711549890820E-002 -0.43228615317246295E-002 -0.45650946931820660E-003 -0.11756043618759663E-002 -0.29679261005476190E-003 -0.53474339181787205E-003 -0.10060040912481861E-002 -0.57943499926390262E-003 -0.36810792575667342E-003 -0.10004034706172006E-002 -0.10049281101465314E-002 -0.19188367201297330E-003  0.19213146990505869E-003  0.44404982418412067E-004  0.10062660992719341E-003  0.18231484217620599E-003  0.10191063203830169E-003  0.62679450759282941E-004  0.17080109048093787E-003  
0.17080320825003210E-003  0.31819454082492759E-004  0.37035706142746682E-002  0.37856319246215324E-005 -0.34344018431272215E-005 -0.43076539771483507E-005 -0.32010969845220326E-005 -0.45257810571583189E-006  0.15231774024673088E-005  0.93764757812672855E-006 -0.31929086186536231E-007  0.29178162564354735E-003  0.72631239075353362E-004  </sparseX_slice>
        <sparseX_slice start="201" end="250"> -0.46126351928681521E-004 -0.51404781353586674E-004 -0.53332785896629245E-004 -0.22092131837351988E-005  0.66001087398746369E-004  0.53193718942367537E-004  0.30051507437300634E-005  0.19855987007757776E-002  0.43918249599389844E-003 -0.87030476643619266E-004  0.96415048036346298E-005 -0.19024195110418628E-003  0.59493102734905992E-004  0.69086388331032333E-003  0.61225783854728538E-003  0.53840494611399146E-004  0.31312659331369738E-002  0.67247717626879729E-003  0.57094192435374296E-004  0.33410084491016786E-003 -0.11424014502690760E-003  0.17879890648406693E-003  0.12897267394018786E-002  0.11776035029608767E-002  0.12443592636768547E-003  0.31963574252483613E-003  0.80374666018997142E-004  0.14597663143917948E-003  0.27444310600516729E-003  0.15790796945106044E-003  0.10015910327237523E-003  0.27240360798820373E-003  0.27364672637231424E-003  0.52161108969783498E-004 -0.73876727903896130E-004 -0.17008825685844103E-004 -0.38859860310031847E-004 
-0.70344174557012185E-004 -0.39285348380331996E-004 -0.24130497023565203E-004 -0.65781551648184651E-004 -0.65782328932412749E-004 -0.12238917443529489E-004  0.14203219619574164E-004  0.32575335389651340E-005  0.75035034520323648E-005  0.13570788833407241E-004  0.75720641424509015E-005  0.46449848703070367E-005  0.12667461144144970E-004  </sparseX_slice>
        <sparseX_slice start="251" end="300">  0.12667586539670997E-004  0.23538083391746613E-005 -0.11007200579846472E-002 -0.11248837001454927E-005  0.10209096107228071E-005  0.12804041462753120E-005  0.95144254807908988E-006  0.13449392431086313E-006 -0.45273455417701788E-006 -0.27870258391477195E-006  0.94869377484954991E-008 -0.86718985904935998E-004 -0.21582038350362028E-004  0.13710629942794955E-004  0.15278738847855779E-004  0.15851272526038941E-004  0.65576427697873793E-006 -0.19617733820296607E-004 -0.15811060964229268E-004 -0.89337886077843383E-006 -0.59013005142341383E-003 -0.13050108097051132E-003  0.25858977550279489E-004 -0.28771468987742919E-005  0.56537051813614147E-004 -0.17690928407520091E-004 -0.20534864940654471E-003 -0.18198452639994403E-003 -0.16004559742933500E-004 -0.93062819059085079E-003 -0.19982353236977027E-003 -0.16992284745441906E-004 -0.99330017449736046E-004  0.33940612124563755E-004 -0.53156087143022965E-004 -0.38335060238646549E-003 -0.35002401328358457E-003 
-0.36987831831671222E-004 -0.94997371371791160E-004 -0.23882916116821359E-004 -0.43393796054816097E-004 -0.81579764936655561E-004 -0.46936569294442106E-004 -0.29768910814603166E-004 -0.80965841882132565E-004 -0.81335514383834429E-004 -0.15502393458627744E-004  0.21956539969474384E-004  0.50541203959976845E-005  0.11551871729745489E-004  </sparseX_slice>
        <sparseX_slice start="301" end="325">  0.20910295475863010E-004  0.11677307880635662E-004  0.71721503654957616E-005  0.19552223298633915E-004  0.19552458011156652E-004  0.36375279150856533E-005 -0.59697762138446723E-005 -0.13689110969601992E-005 -0.31544992782151787E-005 -0.57049542260089779E-005 -0.31830358665169202E-005 -0.19524628152142975E-005 -0.53247192511796748E-005 -0.53247726041064860E-005 -0.98934968497383253E-006  0.12545827283509300E-005  0.28762829149906412E-006  0.66308132064402631E-006  0.11991382106045975E-005  0.66901952274431194E-006  0.41034699864968743E-006  0.11191127848276687E-005  0.11191241295893009E-005  0.20792110130280721E-006  0.00000000000000000E+000  </sparseX_slice>
      </sparseX>
      <sparseX i="10" alpha="7116.7430816800834" sparseCutoff="1.0000000000000000" sliced="T">
        <sparseX_slice start="1" end="50">  0.64285235715914080E+000  0.25037382865137117E-004  0.20424597022258250E-004  0.14791215736724061E-004  0.83661396895995322E-005  0.47533450692791928E-005  0.21606210332217859E-005  0.77675704435227851E-006  0.22603478534900382E-006  0.83631230662808559E-001  0.41405439250066615E-003  0.34459008711905018E-003  0.27955122142764001E-003  0.16439837896930511E-003  0.10980090481401292E-003  0.54151509171443991E-004  0.21340718418604309E-004  0.61949927776168817E-005  0.54399604079264901E-002  0.35375964140689654E-002  0.29412518875564704E-002  0.27144993753059682E-002  0.16718760829338591E-002  0.13156550611836838E-002  0.71967909885324219E-003  0.31225398250810766E-003  0.97326994998143620E-004  0.38600640686765481E+000  0.11028070178006224E-002  0.86080624196008390E-003  0.87460273334361190E-003  0.47986248622362945E-003  0.44040341028148052E-003  0.23267278109959780E-003  0.10330916669062685E-003  0.27906250537212653E-004  0.35508862660967810E-001  
0.14932287130948647E-001  0.10823726239681796E-001  0.12936461620964223E-001  0.77208675511752714E-002  0.81343383433337985E-002  0.49751240963178140E-002  0.24159589960701315E-002  0.80717739456407094E-003  0.11589048751515398E+000  0.42563185840158398E-001  0.22708335463443110E-001  0.36582694526892480E-001  0.23573451491049079E-001  </sparseX_slice>
        <sparseX_slice start="51" end="100">  0.29741014802557298E-001  0.21367289553571936E-001  0.11254409612101304E-001  0.45778294344103439E-002  0.52180492197373185E+000  0.80452415485107091E-003  0.46179388871328965E-003  0.73692704051395467E-003  0.36035749682480602E-003  0.49575976041900133E-003  0.26620133305428102E-003  0.13178915138729308E-003  0.34137730116780858E-004  0.48001014958632460E-001  0.13354080548606777E-001  0.63769188331065877E-002  0.11943548817046151E-001  0.68856829596842771E-002  0.98626867485651949E-002  0.64020120265740419E-002  0.34209303359051782E-002  0.12127164792394257E-002  0.22155239332645763E+000  0.75321771310775248E-001  0.24126850499087832E-001  0.56334434205759197E-001  0.39427976647321838E-001  0.57341685175970096E-001  0.45074485300446804E-001  0.25484517473246718E-001  0.11357246162038892E-001  0.21177520278471043E+000  0.82268218813825442E-001  0.17321990294047494E-001  0.48834295910378668E-001  0.39330459316618702E-001  0.59241033296691108E-001  
0.51521970463916683E-001  0.30906703030665991E-001  0.14991037429853735E-001  0.50506054348035685E-001 -0.13156339054521101E-003 -0.28074626708752274E-003 -0.18134850881703114E-003 -0.10965858135598339E-003 -0.30370909807187032E-004 -0.28663137082629227E-004 -0.31404098738627532E-005 -0.80209219072497990E-006  0.46460693798967443E-002  </sparseX_slice>
        <sparseX_slice start="101" end="150"> -0.64295749295161572E-003 -0.34552478920335337E-002 -0.24426012173558971E-002 -0.13822709267101046E-002 -0.24039006348889727E-003 -0.13508982716643696E-003  0.20809917711523659E-003  0.14220972208752909E-003  0.21444292200154352E-001  0.75429479958875638E-002 -0.92252461028769477E-002 -0.77169783347972006E-002 -0.24803938766126857E-002  0.17453264592379818E-002  0.34336236012106783E-002  0.38587523981919352E-002  0.23614041674599878E-002  0.28988475370358122E-001  0.20129254316776587E-001 -0.51177872588349365E-002 -0.63671748851874942E-002  0.65631849869491167E-003  0.55208022107702025E-002  0.94531958156089096E-002  0.88589750677890381E-002  0.52752867949190218E-002  0.19840181788236470E-002  0.45756486304634626E-002  0.28264313135684034E-002  0.13979375954285521E-002  0.15056643940098645E-002  0.17514136581174252E-002  0.29863215926804426E-002  0.25613980041083459E-002  0.14407080089852897E-002 -0.98873814130988457E-002  0.46578483723738921E-004  
0.69911470838920643E-004  0.43891934619640670E-004  0.29641669079082170E-004  0.93169890196634995E-005  0.79910636235054732E-005  0.14941555929444979E-005  0.64213197517573277E-006 -0.90954363043695922E-003  0.34178221587933790E-003  0.84708994991213103E-003  0.57644978021382414E-003  0.36819862969327688E-003  0.83764095507190636E-004  </sparseX_slice>
        <sparseX_slice start="151" end="200">  0.50374626193771758E-004 -0.31842811888049897E-004 -0.23999782776517842E-004 -0.41980689019139941E-002 -0.11816593390311463E-002  0.21499635602940941E-002  0.16909091211329710E-002  0.60454034859210623E-003 -0.37949722847346325E-003 -0.75815627657981348E-003 -0.79667410029404871E-003 -0.50376130376717702E-003 -0.56749654327748920E-002 -0.41610855563809987E-002  0.10597087138132567E-002  0.12521636681189815E-002 -0.25717138013859356E-003 -0.13135782495427581E-002 -0.21653920731226216E-002 -0.18868253425332849E-002 -0.11499167847407027E-002 -0.54928595055563957E-003 -0.15126611642755751E-002 -0.94069102963726346E-003 -0.46203404991168666E-003 -0.51684583077107014E-003 -0.56219292814139847E-003 -0.95429561371034586E-003 -0.78778289678895495E-003 -0.44149346510861660E-003  0.76036363652853126E-004  0.25558975380116588E-003  0.15951685565621982E-003  0.78320639293184439E-004  0.92201781046418669E-004  0.93899558657358943E-004  0.15549860681180982E-003  
0.12249435394721063E-003  0.69066953144454414E-004  0.26657705470092110E-002 -0.12857212374453200E-004 -0.19075704913652456E-004 -0.11967227523130562E-004 -0.81156309805798186E-005 -0.25639795761292733E-005 -0.21895940018244552E-005 -0.41548716298813392E-006 -0.18006341975013256E-006  0.24522515314585820E-003 -0.95238083955341443E-004  </sparseX_slice>
        <sparseX_slice start="201" end="250"> -0.23099366707909073E-003 -0.15700715715365418E-003 -0.10076402283970119E-003 -0.23173696544146146E-004 -0.13942354736663531E-004  0.84634907236018837E-005  0.64206261219744438E-005  0.11318556415970383E-002  0.31451519795804836E-003 -0.58511195022498824E-003 -0.45907683888579752E-003 -0.16498108896085517E-003  0.10257175381112205E-003  0.20557178173262399E-003  0.21548461378192323E-003  0.13649023905381628E-003  0.15300467407826344E-002  0.11253844104459360E-002 -0.28697972397423736E-003 -0.33822231957435526E-003  0.70979042013854322E-004  0.35717574009287478E-003  0.58831155089916689E-003  0.51114340082796168E-003  0.31189019635628518E-003  0.14809485420854809E-003  0.41147105745750913E-003  0.25604225678683252E-003  0.12578078272992087E-003  0.14088675785167698E-003  0.15275978093758996E-003  0.25923036523715492E-003  0.21364934769871869E-003  0.11973023468744449E-003 -0.28991975868614464E-004 -0.98415715388045134E-004 -0.61449611408267508E-004 
-0.30184811086549474E-004 -0.35597807245885912E-004 -0.36142888066599575E-004 -0.59785645515238367E-004 -0.47003931916538035E-004 -0.26512852932906476E-004  0.55271887317219432E-005  0.18948408987844990E-004  0.11836279204922294E-004  0.58168711189703167E-005  0.68723099096571515E-005  0.69563549046205117E-005  0.11493486837757424E-004  </sparseX_slice>
        <sparseX_slice start="251" end="300">  0.90184374341153404E-005  0.50889657306905731E-005 -0.79194000269783933E-003  0.38241507287845682E-005  0.56704272210499372E-005  0.35572364672802085E-005  0.24128642949324076E-005  0.76249619292275775E-006  0.65101516317171120E-006  0.12362487257070683E-006  0.53598610347005586E-007 -0.72850834315725511E-004  0.28340218024166439E-004  0.68662881831172944E-004  0.46667635339665649E-004  0.29957550112253803E-004  0.68934234124493685E-005  0.41474757358543448E-005 -0.25124553619377470E-005 -0.19066617747813751E-005 -0.33624865458340819E-003 -0.93373237595425338E-004  0.17390708225957754E-003  0.13643035614071782E-003  0.49042691352473306E-004 -0.30475431671759426E-004 -0.61088412918728922E-004 -0.64026193144870079E-004 -0.40558418075188469E-004 -0.45454220408529153E-003 -0.33437986462779714E-003  0.85274819147801263E-004  0.10048807265145380E-003 -0.21111174584341194E-004 -0.10615465708326618E-003 -0.17484258525291303E-003 -0.15188635682236886E-003 
-0.92683960432279476E-004 -0.43995624219434532E-004 -0.12229431854734384E-003 -0.76101383450201694E-004 -0.37385179649985476E-004 -0.41877804877531444E-004 -0.45399606553403482E-004 -0.77041142322082908E-004 -0.63489576025229050E-004 -0.35579841287844245E-004  0.86128588498981940E-005  0.29251773369872220E-004  0.18264884252631627E-004  </sparseX_slice>
        <sparseX_slice start="301" end="325">  0.89721557852993248E-005  0.10582063687412899E-004  0.10742428940785434E-004  0.17768536216537826E-004  0.13968366658231096E-004  0.78790987841841631E-005 -0.23221421818712134E-005 -0.79648274561766894E-005 -0.49754076154291374E-005 -0.24451963139316066E-005 -0.28891237856769515E-005 -0.29240033490415466E-005 -0.48308356549792797E-005 -0.37901656326887115E-005 -0.21387768050206030E-005  0.48780171752391613E-006  0.16739791441417941E-005  0.10457121907837430E-005  0.51393485895079553E-006  0.60729489900124113E-006  0.61453140331367577E-006  0.10152260777740817E-005  0.79644375185536024E-006  0.44943972149536893E-006  0.00000000000000000E+000  </sparseX_slice>
      </sparseX>
      <sparseX i="11" alpha="-36417.345526393641" sparseCutoff="1.0000000000000000" sliced="T">
        <sparseX_slice start="1" end="50">  0.85102806809279563E+000  0.13225246266323251E-001  0.76523566285638502E-002  0.27978930207167010E-002  0.58952418870104862E-003  0.13711411012898864E-003  0.23576049080561727E-004  0.25928493376368562E-005  0.78321226394149913E-006  0.35101839971357163E+000  0.35337765294105206E-001  0.26767015623153773E-001  0.12676768156953179E-001  0.26600847236907224E-002  0.10484155824277580E-002  0.25168211343289132E-003  0.34360648024045567E-004  0.15601453238744847E-004  0.72391218079097236E-001  0.48884239492453678E-001  0.49182787857712580E-001  0.30198129243501005E-001  0.69929716353550947E-002  0.44787689157603505E-002  0.15200519113573031E-002  0.29694987495704060E-003  0.16456718614197191E-003  0.31981638684598052E+000  0.71902194941724116E-002  0.19417207163933317E-001  0.13642531513851705E-001  0.16370546973597582E-002  0.15879776955209223E-002  0.47428926104850402E-003  0.67957802490226628E-004  0.48866422610281482E-004  0.93276386359919930E-001  
0.20942941679694595E-001  0.58807649738501978E-001  0.50824175526007272E-001  0.10390631007080467E-001  0.11332677683666390E-001  0.47842588906506370E-002  0.12138975183010757E-002  0.78512844699283799E-003  0.60093506389536054E-001  0.18133431661865054E-001  0.49170138172043548E-001  0.50370186839334696E-001  0.15738559867238142E-001  </sparseX_slice>
        <sparseX_slice start="51" end="100">  0.17213633092792720E-001  0.88739184166207220E-002  0.32942814941506779E-002  0.20351581960538555E-002  0.77152686187514002E-001 -0.16697287746330332E-001 -0.27754843499520096E-002  0.13820181879306119E-002 -0.18499681899200261E-002  0.34007275047212527E-003  0.18839321156065742E-003  0.27574035900946787E-004  0.42302412446360664E-004  0.22502048242443458E-001 -0.26089329101733102E-001  0.15096513759880730E-002  0.10336519824353709E-001 -0.12315595256390543E-002  0.45818217557263502E-002  0.27617391769288852E-002  0.97284369280202249E-003  0.72748702524306412E-003  0.20501841987213554E-001  0.10554281556285433E-001  0.21971470736194803E-001  0.24855503431840422E-001  0.13581554239431611E-001  0.14108813135595966E-001  0.91361859966531574E-002  0.47195488530761944E-002  0.28482661839520731E-002  0.34972624341809322E-002  0.19443807440994370E-001  0.15305895635556776E-001  0.12136646412367358E-001  0.13905720997594557E-001  0.84179820705964394E-002  
0.58321040854341843E-002  0.38308540643940616E-002  0.20864384180666242E-002 -0.12872871605126485E-001  0.41266094384523064E-002  0.10136248051673710E-002 -0.71215869015824621E-004  0.45670795049637355E-003 -0.46846727192885659E-004 -0.32323541159128145E-004 -0.45978321575402401E-005 -0.75251811818083157E-005 -0.37544509749579502E-002  </sparseX_slice>
