<GAP_2025_2_24_-480_19_54_41_993>
<Potential label="GAP_2025_2_24_-480_19_54_41_993" init_args="IP GAP label=GAP_2025_2_24_-480_19_54_41_993"/>
<GAP_params label="GAP_2025_2_24_-480_19_54_41_993" gap_version="1686220958">
  <GAP_data do_core="F">
    <e0 Z="1" value="-2.4689390000000002"/>
    <e0 Z="2" value="-2.4689390000000002"/>
    <e0 Z="3" value="-2.4689390000000002"/>
    <e0 Z="4" value="-2.4689390000000002"/>
    <e0 Z="5" value="-2.4689390000000002"/>
    <e0 Z="6" value="-2.4689390000000002"/>
    <e0 Z="7" value="-2.4689390000000002"/>
    <e0 Z="8" value="-2.4689390000000002"/>
    <e0 Z="9" value="-2.4689390000000002"/>
    <e0 Z="10" value="-2.4689390000000002"/>
    <e0 Z="11" value="-2.4689390000000002"/>
    <e0 Z="12" value="-2.4689390000000002"/>
    <e0 Z="13" value="-2.4689390000000002"/>
    <e0 Z="14" value="-2.4689390000000002"/>
    <e0 Z="15" value="-2.4689390000000002"/>
    <e0 Z="16" value="-2.4689390000000002"/>
    <e0 Z="17" value="-2.4689390000000002"/>
    <e0 Z="18" value="-2.4689390000000002"/>
    <e0 Z="19" value="-2.4689390000000002"/>
    <e0 Z="20" value="-2.4689390000000002"/>
    <e0 Z="21" value="-2.4689390000000002"/>
    <e0 Z="22" value="-2.4689390000000002"/>
    <e0 Z="23" value="-2.4689390000000002"/>
    <e0 Z="24" value="-2.4689390000000002"/>
    <e0 Z="25" value="-2.4689390000000002"/>
    <e0 Z="26" value="-2.4689390000000002"/>
    <e0 Z="27" value="-2.4689390000000002"/>
    <e0 Z="28" value="-2.4689390000000002"/>
    <e0 Z="29" value="-2.4689390000000002"/>
    <e0 Z="30" value="-2.4689390000000002"/>
    <e0 Z="31" value="-2.4689390000000002"/>
    <e0 Z="32" value="-2.4689390000000002"/>
    <e0 Z="33" value="-2.4689390000000002"/>
    <e0 Z="34" value="-2.4689390000000002"/>
    <e0 Z="35" value="-2.4689390000000002"/>
    <e0 Z="36" value="-2.4689390000000002"/>
    <e0 Z="37" value="-2.4689390000000002"/>
    <e0 Z="38" value="-2.4689390000000002"/>
    <e0 Z="39" value="-2.4689390000000002"/>
    <e0 Z="40" value="-2.4689390000000002"/>
    <e0 Z="41" value="-2.4689390000000002"/>
    <e0 Z="42" value="-2.4689390000000002"/>
    <e0 Z="43" value="-2.4689390000000002"/>
    <e0 Z="44" value="-2.4689390000000002"/>
    <e0 Z="45" value="-2.4689390000000002"/>
    <e0 Z="46" value="-2.4689390000000002"/>
    <e0 Z="47" value="-2.4689390000000002"/>
    <e0 Z="48" value="-2.4689390000000002"/>
    <e0 Z="49" value="-2.4689390000000002"/>
    <e0 Z="50" value="-2.4689390000000002"/>
    <e0 Z="51" value="-2.4689390000000002"/>
    <e0 Z="52" value="-2.4689390000000002"/>
    <e0 Z="53" value="-2.4689390000000002"/>
    <e0 Z="54" value="-2.4689390000000002"/>
    <e0 Z="55" value="-2.4689390000000002"/>
    <e0 Z="56" value="-2.4689390000000002"/>
    <e0 Z="57" value="-2.4689390000000002"/>
    <e0 Z="58" value="-2.4689390000000002"/>
    <e0 Z="59" value="-2.4689390000000002"/>
    <e0 Z="60" value="-2.4689390000000002"/>
    <e0 Z="61" value="-2.4689390000000002"/>
    <e0 Z="62" value="-2.4689390000000002"/>
    <e0 Z="63" value="-2.4689390000000002"/>
    <e0 Z="64" value="-2.4689390000000002"/>
    <e0 Z="65" value="-2.4689390000000002"/>
    <e0 Z="66" value="-2.4689390000000002"/>
    <e0 Z="67" value="-2.4689390000000002"/>
    <e0 Z="68" value="-2.4689390000000002"/>
    <e0 Z="69" value="-2.4689390000000002"/>
    <e0 Z="70" value="-2.4689390000000002"/>
    <e0 Z="71" value="-2.4689390000000002"/>
    <e0 Z="72" value="-2.4689390000000002"/>
    <e0 Z="73" value="-2.4689390000000002"/>
    <e0 Z="74" value="-2.4689390000000002"/>
    <e0 Z="75" value="-2.4689390000000002"/>
    <e0 Z="76" value="-2.4689390000000002"/>
    <e0 Z="77" value="-2.4689390000000002"/>
    <e0 Z="78" value="-2.4689390000000002"/>
    <e0 Z="79" value="-2.4689390000000002"/>
    <e0 Z="80" value="-2.4689390000000002"/>
    <e0 Z="81" value="-2.4689390000000002"/>
    <e0 Z="82" value="-2.4689390000000002"/>
    <e0 Z="83" value="-2.4689390000000002"/>
    <e0 Z="84" value="-2.4689390000000002"/>
    <e0 Z="85" value="-2.4689390000000002"/>
    <e0 Z="86" value="-2.4689390000000002"/>
    <e0 Z="87" value="-2.4689390000000002"/>
    <e0 Z="88" value="-2.4689390000000002"/>
    <e0 Z="89" value="-2.4689390000000002"/>
    <e0 Z="90" value="-2.4689390000000002"/>
    <e0 Z="91" value="-2.4689390000000002"/>
    <e0 Z="92" value="-2.4689390000000002"/>
    <e0 Z="93" value="-2.4689390000000002"/>
    <e0 Z="94" value="-2.4689390000000002"/>
    <e0 Z="95" value="-2.4689390000000002"/>
    <e0 Z="96" value="-2.4689390000000002"/>
    <e0 Z="97" value="-2.4689390000000002"/>
    <e0 Z="98" value="-2.4689390000000002"/>
    <e0 Z="99" value="-2.4689390000000002"/>
    <e0 Z="100" value="-2.4689390000000002"/>
    <e0 Z="101" value="-2.4689390000000002"/>
    <e0 Z="102" value="-2.4689390000000002"/>
    <e0 Z="103" value="-2.4689390000000002"/>
    <e0 Z="104" value="-2.4689390000000002"/>
    <e0 Z="105" value="-2.4689390000000002"/>
    <e0 Z="106" value="-2.4689390000000002"/>
    <e0 Z="107" value="-2.4689390000000002"/>
    <e0 Z="108" value="-2.4689390000000002"/>
    <e0 Z="109" value="-2.4689390000000002"/>
    <e0 Z="110" value="-2.4689390000000002"/>
    <e0 Z="111" value="-2.4689390000000002"/>
    <e0 Z="112" value="-2.4689390000000002"/>
    <e0 Z="113" value="-2.4689390000000002"/>
    <e0 Z="114" value="-2.4689390000000002"/>
    <e0 Z="115" value="-2.4689390000000002"/>
    <e0 Z="116" value="-2.4689390000000002"/>
    <e0 Z="117" value="-2.4689390000000002"/>
    <e0 Z="118" value="-2.4689390000000002"/>
  </GAP_data>
  <gpSparse label="GAP_2025_2_24_-480_19_54_41_993" n_coordinate="1" fitted="T">
    <gpCoordinates label="GAP_2025_2_24_-480_19_54_41_9931" dimensions="325" signal_variance=".20000000000000001" signal_mean=".00000000000000000E+000" sparsified="T" n_permutations="1" covariance_type="2" zeta="4.0000000000000000" n_sparseX="200">
      <descriptor> soap l_max=8 n_max=8 atom_sigma=0.5 cutoff=4.0 radial_scaling=-0.5 cutoff_transition_width=1.0 central_weight=1.0 n_sparse=200 delta=0.2 covariance_type=dot_product zeta=4 sparse_method=cur_points } n_species=1 Z=23 species_Z={23 }</descriptor>
      <permutation i="1">1  </permutation>
      <sparseX i="1" alpha="-2896.3964337140796" sparseCutoff="1.0000000000000000" sliced="T">
        <sparseX_slice start="1" end="50">  0.29241809614431269E+000  0.13749010685024598E-003  0.18930649115438602E-003  0.19158257496078429E-003  0.79376435078802040E-004  0.27735160551478997E-004  0.97072888395290450E-005  0.35986068717717637E-005  0.69747548547477203E-006  0.21551728434395068E+000  0.57970386770917544E-003  0.17931469127150711E-002  0.22203388392808372E-002  0.11338124068815225E-002  0.54750660922972061E-003  0.23228681666210015E-003  0.99882560368143194E-004  0.22961602700355971E-004  0.79420016174492611E-001  0.44029247674587570E-002  0.88076113643026140E-002  0.13371361443752193E-001  0.89386140487406514E-002  0.58959527802754375E-002  0.29457721372269973E-002  0.14174422425888686E-002  0.39014963526275896E-003  0.49864609252055564E+000  0.66252772409173557E-003  0.33011452054153459E-002  0.31367616090058415E-002  0.18413273301948747E-002  0.10853290152385935E-002  0.56068267115319038E-003  0.29275521151977989E-003  0.85849942385105401E-004  0.25986948344853994E+000  
0.15068566347815296E-001  0.23710141068449268E-001  0.27516759815547853E-001  0.24137676672117147E-001  0.18341790897404568E-001  0.10908254761579694E-001  0.60570952054642612E-002  0.21640599143328992E-002  0.42515823894720078E+000  0.31980760873491672E-001  0.33965214078041837E-001  0.31338220105803123E-001  0.40766837793084550E-001  </sparseX_slice>
        <sparseX_slice start="51" end="100">  0.32888574437503398E-001  0.23459328200248337E-001  0.14570229559381052E-001  0.67443993617709013E-002  0.33123348401929520E+000  0.58142680037997520E-003  0.13841873980097090E-002 -0.14453334177542600E-002 -0.47501588377940417E-003  0.14005197322219538E-003  0.21803969132127454E-003  0.21598897819145868E-003  0.10383574546384632E-003  0.17262237824395685E+000  0.11489137246305655E-001  0.10648895694829094E-001 -0.12146880673889611E-001  0.17194478788212667E-002  0.57226668549385292E-002  0.58219830345830198E-002  0.46397424607173008E-002  0.26701318414493105E-002  0.39939940156066900E+000  0.41651403834746602E-001  0.25881700517076802E-001 -0.10262023762100355E-001  0.26276192070158445E-001  0.25764913556995585E-001  0.25177125402819196E-001  0.19659252799994850E-001  0.12754696702535257E-001  0.18760060061641051E+000  0.34686117568410925E-001  0.14906643329257320E-001  0.16775420302446359E-001  0.33175608428551398E-001  0.23296177857024668E-001  
0.21630466576721286E-001  0.18330358758187882E-001  0.13088478756550731E-001  0.54008861958881091E-001  0.75460599715706600E-003  0.57436134695363576E-003 -0.61101743709338963E-003 -0.49802293572554499E-003 -0.15861287846355023E-003 -0.16204973956713336E-003 -0.40656699354698832E-004  0.20615726265327912E-004  0.28146726244163547E-001  </sparseX_slice>
        <sparseX_slice start="101" end="150">  0.44051046835001289E-002  0.35302998634484744E-002 -0.73616345386593044E-002 -0.59662142070123795E-002 -0.26313932656611455E-002 -0.26591803528212567E-002 -0.99374862681386083E-003  0.39850754736304685E-003  0.65123570490516328E-001  0.99371056928963791E-002  0.66417412466232310E-002 -0.13810016836781992E-001 -0.12455807248625765E-001 -0.51905872829896560E-002 -0.70072883896516369E-002 -0.17885789765311698E-002  0.15025057525579907E-002  0.43259352612816611E-001  0.94652238111943270E-002  0.41907036726023077E-002  0.37720440884001067E-002 -0.11080811129854443E-002  0.10378996955250808E-002 -0.14252430745956555E-002  0.35324666325696622E-002  0.31301437234175283E-002  0.49876481800461333E-002  0.29746729209829594E-002  0.20003722941503606E-002  0.83242141997691092E-002  0.47029436040189687E-002  0.27606234871949808E-002  0.50207767169964876E-002  0.50250714043038108E-002  0.22058791072267544E-002 -0.29142225929353017E-002 -0.18084789608989923E-003 
-0.83472130498281794E-004  0.10898372694434014E-003  0.85985633530308493E-004  0.31620210353759990E-004  0.26115215587702953E-004  0.96262836934352687E-005 -0.32423889861184912E-005 -0.15187475270327978E-002 -0.56236184950177257E-003 -0.41532414708036482E-003  0.12698648722679828E-002  0.99797163302969318E-003  0.48602214453171186E-003  </sparseX_slice>
        <sparseX_slice start="151" end="200">  0.44812110933818759E-003  0.22184094340855628E-003 -0.65718928911602867E-004 -0.35139525917166578E-002 -0.62352301342746385E-003 -0.67438654327430490E-003  0.23013464007163565E-002  0.19256053677430772E-002  0.89998716645792762E-003  0.10765054384466891E-002  0.42914595264899899E-003 -0.26466993846926328E-003 -0.23341980957866625E-002 -0.45146567726871519E-003 -0.46778714175321680E-003 -0.72064759990913294E-003 -0.15893049785684624E-003 -0.21117472948558742E-003  0.12807639687470514E-003 -0.45240785634464693E-003 -0.50278042538198873E-003 -0.38059975462106721E-003 -0.69943703570633190E-003 -0.53660312633103610E-003 -0.18387251373523767E-002 -0.11331186451802951E-002 -0.51161658736801978E-003 -0.91003171195594109E-003 -0.10007029599903405E-002 -0.39873157959299788E-003  0.14521490689453234E-004  0.11955056605327751E-003  0.88021013796536386E-004  0.22053897689108010E-003  0.14358508688262588E-003  0.54729950521091209E-004  0.96831892745321727E-004  
0.12254449009874171E-003  0.48500885280299209E-004  0.61881565845591207E-003  0.39652841450939118E-004  0.18014183625228494E-004 -0.23668282144899611E-004 -0.18671836977803482E-004 -0.69316371536151969E-005 -0.56664969291730065E-005 -0.21033455065393359E-005  0.70017851798712170E-006  0.32249587016703013E-003  0.12224965155486922E-003  </sparseX_slice>
        <sparseX_slice start="201" end="250">  0.89148998039123941E-004 -0.27572128708324122E-003 -0.21680230553997897E-003 -0.10644223923314357E-003 -0.97255976211772175E-004 -0.48451345386287910E-004  0.14167966627277321E-004  0.74616430882713911E-003  0.13328535182456367E-003  0.14436173290078189E-003 -0.49974812569589635E-003 -0.41883636403621368E-003 -0.19751960386594448E-003 -0.23341284602352425E-003 -0.94039040528114853E-004  0.57112299244626540E-004  0.49565133943865053E-003  0.95866569410836942E-004  0.10105964128328408E-003  0.15615036251453822E-003  0.33234066010150193E-004  0.44667241448838310E-004 -0.27612295433000264E-004  0.97412110156787156E-004  0.10876105217504561E-003  0.80817809982994341E-004  0.15277297576120881E-003  0.11691561675018505E-003  0.39893037385071962E-003  0.24572647782574917E-003  0.11073063515350454E-003  0.19680373983465101E-003  0.21706748128655424E-003  0.86462118238688561E-004 -0.43607859751480235E-005 -0.37069445815057038E-004 -0.27170840244828812E-004 
-0.67678208030509280E-004 -0.44023665919785116E-004 -0.16780980648186148E-004 -0.29660328580378513E-004 -0.37622602078536773E-004 -0.14898456915554061E-004  0.65476935969318560E-006  0.57473174059743618E-005  0.41937842541730321E-005  0.10384463456191423E-004  0.67489960252579312E-005  0.25728722963048440E-005  0.45427429753641508E-005  </sparseX_slice>
        <sparseX_slice start="251" end="300">  0.57754121768401871E-005  0.22883455262622096E-005 -0.14166661071879664E-003 -0.90873822148905574E-005 -0.41262802866540556E-005  0.54224853037650892E-005  0.42777667756536115E-005  0.15885417573228939E-005  0.12981775991006151E-005  0.48197909877312952E-006 -0.16038358099778946E-006 -0.73829574725648651E-004 -0.28008522044229900E-004 -0.20416674866835001E-004  0.63168276463628387E-004  0.49670660872092257E-004  0.24392925802675665E-004  0.22281230277416258E-004  0.11102413149167858E-004 -0.32451525193405205E-005 -0.17082077227107759E-003 -0.30519906484839987E-004 -0.33058446264380214E-004  0.11449368402819038E-003  0.95961597754819463E-004  0.45267829293025247E-004  0.53472992894352713E-004  0.21550962701176689E-004 -0.13081896437828611E-004 -0.11347037586559086E-003 -0.21946807639011698E-004 -0.23149277987108140E-004 -0.35772092249917424E-004 -0.76046418702968135E-005 -0.10224555643813188E-004  0.63246513506932631E-005 -0.22311144539054527E-004 
-0.24914334448327369E-004 -0.18501770389222042E-004 -0.35007153848663381E-004 -0.26788579730660797E-004 -0.91393454290091857E-004 -0.56294207966480103E-004 -0.25366037710617975E-004 -0.45082274440564864E-004 -0.49728978624757330E-004 -0.19807771518212139E-004  0.99832278115066004E-006  0.84953289434139224E-005  0.62259442407668896E-005  </sparseX_slice>
        <sparseX_slice start="301" end="325">  0.15504908742272075E-004  0.10085428417340726E-004  0.38443830728539316E-005  0.67946979062533460E-005  0.86193635429376783E-005  0.34133030016066219E-005 -0.21198715934290964E-006 -0.18627079261408067E-005 -0.13590134617479592E-005 -0.33644918371853067E-005 -0.21865656113155480E-005 -0.83357329929344437E-006 -0.14717289410817957E-005 -0.18712191164827534E-005 -0.74143101916478759E-006  0.34316324566053019E-007  0.30185221180387036E-006  0.22019702818509075E-006  0.54503563987523859E-006  0.35420596072614631E-006  0.13503284067184471E-006  0.23840069354334500E-006  0.30313516605534067E-006  0.12011297556064176E-006  0.00000000000000000E+000  </sparseX_slice>
      </sparseX>
      <sparseX i="2" alpha="-1903.1862202121654" sparseCutoff="1.0000000000000000" sliced="T">
        <sparseX_slice start="1" end="50">  0.65280379246743925E+000  0.21613494976477229E-001  0.13985901462031384E-001  0.35908034915370806E-002  0.39177037808602299E-003  0.11434373478776617E-003  0.15946922282277363E-004  0.26730237896553209E-005  0.66247120642984419E-006  0.46180650212332447E+000  0.52433053593578458E-001  0.45803819862114271E-001  0.14449807147803995E-001  0.14380607062246414E-002  0.88495865259005841E-003  0.24561547929724168E-003  0.50881479709347796E-004  0.16261673519829249E-004  0.16334559316612532E+000  0.70939506180197176E-001  0.78525525059769744E-001  0.36868658600522887E-001  0.60214616810158710E-002  0.45120893801493629E-002  0.22059447844184135E-002  0.52549599833993639E-003  0.20784020794948813E-003  0.40054050098458915E+000  0.15966113275983157E-001  0.26589493459501970E-001  0.12141977224842532E-001  0.52390211823005631E-003  0.11906645830771318E-002  0.44558776773396630E-003  0.86393872378717290E-004  0.42826091238142942E-004  0.20035898062780205E+000  
0.56668491877916824E-001  0.71452503597578085E-001  0.52552505238478452E-001  0.96894192846664704E-002  0.10017083424311018E-001  0.54929605024855097E-002  0.13953480978423985E-002  0.88339666250238330E-003  0.12287971882224302E+000  0.64334818237148886E-001  0.43412439952502969E-001  0.43481232501524018E-001  0.12623985041721672E-001  </sparseX_slice>
        <sparseX_slice start="51" end="100">  0.15814175342179514E-001  0.10537028398337606E-001  0.41172452764303468E-002  0.29254029226042340E-002  0.20226256250878813E+000  0.16822772994122225E-001 -0.67337627693509179E-002 -0.17313686824215687E-002 -0.14494179909720082E-002 -0.11936599416271792E-003  0.48998806102102150E-004 -0.10402630203854387E-004  0.36641773552350109E-004  0.10117608767106198E+000  0.47581360755878002E-001 -0.17044914739637346E-001 -0.16085902035357934E-001 -0.82386733614390022E-002  0.16519911380513883E-003 -0.10499188186158332E-003  0.14163757281802691E-003  0.92837211423315571E-003  0.87753465265427835E-001  0.61664096688767517E-001  0.24824516508272915E-002 -0.15200844204755429E-001 -0.29529405911009180E-002  0.15189359009753907E-001  0.13079235366161079E-001  0.77838927419863497E-002  0.63150554545314645E-002  0.31334180855468866E-001  0.30482141049202726E-001  0.26176676195577692E-001  0.20502176389144533E-001  0.15369563628889835E-001  0.26013947895847135E-001  
0.24209370961506837E-001  0.12781914638890781E-001  0.81755723192961528E-002  0.65119126589602602E-001  0.95063153854328033E-002  0.58402085127399255E-002  0.21873886209951886E-002  0.19156574195063086E-004  0.21019709966132996E-003  0.19931410750366452E-004  0.18003883129488134E-005  0.17626318700553233E-004  0.32573988874517262E-001  </sparseX_slice>
        <sparseX_slice start="101" end="150">  0.17233313037843909E-001  0.11527181459144465E-001  0.31904796826904467E-002 -0.29514486058851161E-002  0.10973424633066472E-002  0.10452966845202236E-003  0.82691732583712319E-004  0.37636185925484747E-003  0.28252529496393598E-001  0.74762866978347322E-002  0.58369543001327417E-002  0.10190821256853356E-002 -0.55101580190899373E-002  0.49846968979379326E-002  0.34254412532312931E-002  0.10960379539477225E-002  0.16898698297192116E-002  0.14266794492064494E-001  0.67757393122161716E-002  0.32977905661922356E-002  0.47811547574533398E-002  0.25626392633604010E-002  0.96784793404380374E-002  0.91285357166388716E-002  0.30672572459692158E-002  0.30534502723727312E-002  0.32479136125761685E-002  0.22998389794816479E-002  0.23412877111472722E-002  0.24659795132460217E-002  0.20516491808136852E-002  0.31211187564201002E-002  0.27668041069146333E-002  0.14943205733297725E-002  0.13147110867520900E-002 -0.11796905552470090E-001 -0.15563384926205795E-002 
-0.91367549904460910E-003 -0.34041564141048733E-003  0.44609622632642533E-005 -0.32720574087734367E-004 -0.34916217053851353E-005 -0.42410846640120701E-008 -0.27919493530606866E-005 -0.59010660975487867E-002 -0.29753440185680269E-002 -0.18343538909475644E-002 -0.49605486577013343E-003  0.47072578865161598E-003 -0.17670433527208819E-003  </sparseX_slice>
        <sparseX_slice start="151" end="200"> -0.13653041717777732E-004 -0.11023246549837554E-004 -0.62014299982777977E-004 -0.51181955216909594E-002 -0.16593921882576291E-002 -0.10514844106369325E-002 -0.20263779410609892E-003  0.79853127961037121E-003 -0.87746466225780166E-003 -0.62249411432475942E-003 -0.24516695256433189E-003 -0.31308440467960817E-003 -0.25845559664840162E-002 -0.13883754324687347E-002 -0.68871126141470211E-003 -0.84648247444259336E-003 -0.52392609335766543E-003 -0.17256828571485196E-002 -0.16527448190853471E-002 -0.64998287604003144E-003 -0.57127423078332147E-003 -0.83210666903358720E-003 -0.54396366745798500E-003 -0.52810094042556217E-003 -0.54735898390143782E-003 -0.43906780613823377E-003 -0.72871727285429497E-003 -0.64795024042155517E-003 -0.32850641064415757E-003 -0.28835268585303812E-003  0.10659173722619042E-003  0.65932991862215168E-004  0.60400318941696544E-004  0.61260558308728465E-004  0.47751940406135698E-004  0.85891422703611813E-004  0.76983727788120329E-004  
0.37684779962731174E-004  0.32670820749975610E-004  0.25645269903752247E-002  0.33733854374648492E-003  0.19779612413262505E-003  0.73686631734744647E-004 -0.10140376727527201E-005  0.70829114405229619E-005  0.75842425084804758E-006 -0.91181699639936379E-009  0.60471445191138005E-006  0.12828316045967964E-002  0.64591595868964855E-003  </sparseX_slice>
        <sparseX_slice start="201" end="250">  0.39733178122257167E-003  0.10740201480018205E-003 -0.10194987289968192E-003  0.38290296607378132E-004  0.29382081371257813E-005  0.23737408275445128E-005  0.13447265554571610E-004  0.11126435232539215E-002  0.36252018300884860E-003  0.22857763485171188E-003  0.44200924050446610E-004 -0.17242501069453676E-003  0.19060681926666136E-003  0.13533655090634748E-003  0.53562081649793209E-004  0.68103922409278064E-004  0.56185611597066234E-003  0.30275551265395253E-003  0.15022332135918365E-003  0.18387374916563519E-003  0.11422724024534890E-003  0.37497804155884907E-003  0.35928716161682454E-003  0.14183858626832057E-003  0.12429832820749502E-003  0.18089150600693245E-003  0.11798021732438380E-003  0.11438314311556059E-003  0.11849593498752105E-003  0.94942268312193549E-004  0.15800583432822509E-003  0.14051102857310770E-003  0.71108446814783643E-004  0.62417334942366481E-004 -0.32770095720979496E-004 -0.20238030230912725E-004 -0.18509015251405263E-004 
-0.18760269501378814E-004 -0.14610226914020613E-004 -0.26345065207483581E-004 -0.23619109500057142E-004 -0.11550793660013394E-004 -0.10010997643036600E-004  0.50373471786249230E-005  0.31060800269037337E-005  0.28359784150198746E-005  0.28725699649330408E-005  0.22351150398768536E-005  0.40403800891850153E-005  0.36232911836686686E-005  </sparseX_slice>
        <sparseX_slice start="251" end="300">  0.17702875496257241E-005  0.15338291060538124E-005 -0.58756093251956124E-003 -0.77280495798748904E-004 -0.45311063081599813E-004 -0.16880048019913232E-004  0.23265693723244755E-006 -0.16225465568558673E-005 -0.17375861298673212E-006  0.22258484317000395E-009 -0.13853003363933941E-006 -0.29391062628363138E-003 -0.14797967041687687E-003 -0.91022296266567645E-004 -0.24603727639242860E-004  0.23354974434115300E-004 -0.87718019843655269E-005 -0.67295294974254651E-006 -0.54368115105763964E-006 -0.30806607518772704E-005 -0.25491869203890586E-003 -0.83070627749992358E-004 -0.52369588560082581E-004 -0.10128037495674848E-004  0.39495724170969664E-004 -0.43669006054208362E-004 -0.31007165028061444E-004 -0.12273631735820357E-004 -0.15603664430551871E-004 -0.12872732659102932E-003 -0.69371560745076549E-004 -0.34421549513428936E-004 -0.42126395415465653E-004 -0.26173165231310213E-004 -0.85910278475738612E-004 -0.82316561827544898E-004 -0.32500776718829733E-004 
-0.28478908677222406E-004 -0.41444204858514719E-004 -0.27028515309371501E-004 -0.26203278354153373E-004 -0.27145013346490131E-004 -0.21748521321101660E-004 -0.36197790582656299E-004 -0.32190012916922986E-004 -0.16289437823133552E-004 -0.14298493413789648E-004  0.75079841517896496E-005  0.46365121090501395E-005  0.42401667016028900E-005  </sparseX_slice>
        <sparseX_slice start="301" end="325">  0.42976331408959784E-005  0.33468356700663276E-005  0.60354846288064988E-005  0.54110326972157832E-005  0.26461521582158427E-005  0.22933808039855591E-005 -0.16321592060675956E-005 -0.10063547217106350E-005 -0.91879308342161891E-006 -0.93062773584616533E-006 -0.72408997537461814E-006 -0.13090318193635313E-005 -0.11739106458855944E-005 -0.57353817134658065E-006 -0.49692539085025045E-006  0.26441930439648574E-006  0.16302700499391556E-006  0.14883412672223053E-006  0.15074793661763692E-006  0.11728843753097704E-006  0.21205484147736800E-006  0.19016774418560796E-006  0.92907518638649871E-007  0.80496207351390670E-007  0.00000000000000000E+000  </sparseX_slice>
      </sparseX>
      <sparseX i="3" alpha="3375.4204434024300" sparseCutoff="1.0000000000000000" sliced="T">
        <sparseX_slice start="1" end="50">  0.43213258304767777E+000  0.70096384771514047E-002  0.36767220021352610E-002  0.19941089196361260E-002  0.39443726725685952E-003  0.38700367255089531E-004  0.15165284657666026E-004  0.38571993498692915E-005  0.38971597030380384E-006  0.33564179890612800E+000  0.26054822745940055E-001  0.14467158675593462E-001  0.11454620239462660E-001  0.22051063665274044E-002  0.12650598157847037E-003  0.18508416225180408E-003  0.79088950318028682E-004  0.94453473286208427E-005  0.13034820977675760E+000  0.50965476264082488E-001  0.38016889617969452E-001  0.37696338233363588E-001  0.12033680959739428E-001  0.19728364096168053E-002  0.15761508673657661E-002  0.10164009831818870E-002  0.12808206710596516E-003  0.50678259137466053E+000  0.18769825795227228E-001  0.12501173991737641E-001  0.16723000483097942E-001  0.18465102062020726E-002 -0.27408227169257285E-004  0.40153578763764733E-003  0.15549481523578792E-003  0.17725699136530970E-004  0.27833365106793106E+000  
0.52633707128958367E-001  0.77599909969804245E-001  0.84699699823477956E-001  0.29610394415460293E-001  0.81082885807686727E-002  0.53123839304005088E-002  0.36504764942070504E-002  0.40889391138838389E-003  0.29716411698129214E+000  0.27279166725248213E-001  0.12251912009209437E+000  0.10298134465157398E+000  0.51483419054943358E-001  </sparseX_slice>
        <sparseX_slice start="51" end="100">  0.21286626714485741E-001  0.10641394771724577E-001  0.87435964221937619E-002  0.11135036194147106E-002  0.27732917903407128E+000 -0.65892874772452330E-002 -0.25407080527451902E-002  0.49678659420360127E-002 -0.19885456103347870E-002 -0.14947934134753099E-003  0.20215363225170943E-003  0.30506086363980809E-004 -0.70540147363149472E-006  0.15231391973991260E+000 -0.28079029994424604E-001  0.26985750244096000E-001  0.27044736109234680E-001  0.27778865175117759E-002  0.68793137799308644E-002  0.27319414522263543E-002  0.23045654353252894E-002  0.14512992364859400E-003  0.22997744381001070E+000 -0.22345255459267237E-001  0.11765091678293514E+000  0.59022065966251779E-001  0.37385645234969844E-001  0.31668119464849341E-001  0.11825612113188656E-001  0.12628633518689220E-001  0.21763969172803547E-002  0.88990597516718825E-001  0.25871234576991881E-001  0.85627468548140726E-001  0.34248953135934249E-001  0.40359688763716060E-001  0.29423313461709313E-001  
0.11704336612138520E-001  0.13730723532536475E-001  0.45011079574929658E-002  0.67965064198833788E-001  0.13735326297867372E-003 -0.28565508470428137E-002 -0.43402253303364012E-003 -0.85363044795256794E-004  0.21479830848771458E-003 -0.14211150673860543E-004  0.85852140261061623E-005 -0.27414201859651767E-005  0.37327573569989843E-001  </sparseX_slice>
        <sparseX_slice start="101" end="150"> -0.37508101655094055E-002 -0.81725477807710455E-002 -0.13190619510696029E-002 -0.34693821982984545E-002  0.12546839257248131E-002 -0.70158799767681057E-003  0.27611163114371823E-003 -0.26254372815356233E-004  0.56360574055969767E-001 -0.35381617913905015E-002 -0.94753290780452797E-002  0.16483435310458243E-002 -0.78257429182913753E-002  0.33921585115363213E-002 -0.10609364406079320E-002  0.11359351730729349E-002  0.84393776696249244E-003  0.30842479593533652E-001  0.12191999193342053E-001 -0.17115687915971694E-002  0.97570012215178418E-002  0.94159655083014544E-003  0.70895277194911368E-002  0.24933482430074794E-002  0.32563926832003052E-002  0.46835190216882221E-002  0.53447137901216184E-002  0.33690110785828654E-002  0.36418280686861628E-002  0.47733937696395230E-002  0.49478600287165614E-002  0.56070128625991967E-002  0.27048042705869199E-002  0.29192199470491897E-002  0.41244516477234802E-002 -0.62798341306875257E-002  0.90734507399649222E-004  
0.52390227476063116E-003  0.10690305817067488E-003 -0.57463318770050168E-005 -0.31855075177867301E-004 -0.53489913905379831E-005  0.37720503762200263E-006  0.65100347271039816E-006 -0.34489921150489258E-002  0.57372857269160401E-003  0.18154049736996455E-002  0.44421033963911827E-003  0.63316071175539574E-003 -0.53554024908224581E-004  </sparseX_slice>
        <sparseX_slice start="151" end="200">  0.31065332978140999E-004 -0.11962753755414474E-004  0.46955845139704309E-005 -0.52076027699521242E-002  0.48962531329248857E-003  0.27534738636061104E-002  0.13984551874271370E-003  0.16549396175262999E-002 -0.15438985068868023E-003  0.17425945055151957E-004 -0.12397438562547136E-003 -0.13498419303083857E-003 -0.28497825803544168E-002 -0.10545472353619826E-002  0.11812180552236247E-002 -0.14534684026327725E-002  0.26825712400403869E-003 -0.89101921719402682E-003 -0.40178357008939546E-003 -0.47956801257820317E-003 -0.68210452472972733E-003 -0.69839624052942125E-003 -0.40776826184852353E-003 -0.84944325287277184E-003 -0.10695822555126082E-002 -0.10897615380722090E-002 -0.12052394630787486E-002 -0.55778481160194111E-003 -0.55784868831491061E-003 -0.78355891558406045E-003  0.45629881031901825E-004  0.30364215886461359E-004  0.12392903197318655E-003  0.13297172890855785E-003  0.13017410852203011E-003  0.14003868490086515E-003  0.66680798614950800E-004  
0.58354694861986808E-004  0.79742765425051015E-004  0.13477538583913198E-002 -0.19156655888412705E-004 -0.11338960092942732E-003 -0.23178331478558300E-004  0.14116108923099114E-005  0.69376752458806690E-005  0.11754253526489476E-005 -0.10116779548140799E-006 -0.14317134182994064E-006  0.74020942812856030E-003 -0.12221717520208920E-003  </sparseX_slice>
        <sparseX_slice start="201" end="250"> -0.39499394548049224E-003 -0.96486575840795970E-004 -0.13817110250638126E-003  0.10922608573670617E-004 -0.65728549452717143E-005  0.22020805305401228E-005 -0.10457259548512416E-005  0.11176356859291595E-002 -0.10446319581591271E-003 -0.60375845785600899E-003 -0.30895046794932812E-004 -0.36306525949953084E-003  0.30723087694966703E-004 -0.34880793392603417E-005  0.25826059978186212E-004  0.29187732449863114E-004  0.61160938144532470E-003  0.22581501516532113E-003 -0.26335318259157074E-003  0.31454494862931458E-003 -0.62404742268330385E-004  0.19028931688343497E-003  0.87123610568934793E-004  0.10319450101711280E-003  0.14769284198395784E-003  0.14988711616758393E-003  0.87567667156722185E-004  0.18440659153142337E-003  0.23166863318871848E-003  0.23630065418984712E-003  0.26107224935823057E-003  0.12090215138677947E-003  0.12078439611693296E-003  0.16959863781385739E-003 -0.13849265633087869E-004 -0.92662610472317579E-005 -0.38162038058520817E-004 
-0.40775923096682048E-004 -0.39971092549427053E-004 -0.42943128165322361E-004 -0.20469604935521028E-004 -0.17889984921115597E-004 -0.24417020419499892E-004  0.21017166190038006E-005  0.14141030023233282E-005  0.58760604622437171E-005  0.62520777021187841E-005  0.61370579894490003E-005  0.65845303055516501E-005  0.31419617460563854E-005  </sparseX_slice>
        <sparseX_slice start="251" end="300">  0.27424303932951175E-005  0.37382474863777921E-005 -0.30865440399705939E-003  0.43848906563872467E-005  0.25975176264672933E-004  0.53100447642842153E-005 -0.32461133020015187E-006 -0.15895907533656868E-005 -0.26939379603284255E-006  0.23318754484920542E-007  0.32813763295474201E-007 -0.16951826807954805E-003  0.27982957498560400E-004  0.90500398051575185E-004  0.22105940744054047E-004  0.31660431016640068E-004 -0.24971652105975731E-005  0.15046051252088669E-005 -0.50158753473963529E-006  0.23976457958011673E-006 -0.25595413760347736E-003  0.23919174255081626E-004  0.13836682762043701E-003  0.70827474414956223E-005  0.83206633361655957E-004 -0.70179622658139980E-005  0.79705301274795887E-006 -0.59086970568023098E-005 -0.66860756384233684E-005 -0.14006706635167045E-003 -0.51711223156366372E-004  0.60386231438625596E-004 -0.72054789941232948E-004  0.14327846064319890E-004 -0.43572040425138831E-004 -0.19959147171073830E-004 -0.23635045723114849E-004 
-0.33833629539087120E-004 -0.34326237108876522E-004 -0.20054684503885693E-004 -0.42247691898800268E-004 -0.53071526088217078E-004 -0.54134657619230908E-004 -0.59807492259443309E-004 -0.27697287815953585E-004 -0.27669382800281747E-004 -0.38851361941978692E-004  0.31716747113452192E-005  0.21224873516449719E-005  0.87437982056104399E-005  </sparseX_slice>
        <sparseX_slice start="301" end="325">  0.93414341341319004E-005  0.91574603950037426E-005  0.98379132956037548E-005  0.46895703954820120E-005  0.40984118169771314E-005  0.55934667031475149E-005 -0.68069263308865456E-006 -0.45807722384480675E-006 -0.19040163181311559E-005 -0.20255796011204885E-005 -0.19884056571007613E-005 -0.21332885957340805E-005 -0.10179815308507366E-005 -0.88849895511200451E-006 -0.12110764676086328E-005  0.11022952774689169E-006  0.74193596643214903E-007  0.30847864751497097E-006  0.32812874179517680E-006  0.32212155074651379E-006  0.34557669192559156E-006  0.16491073288344924E-006  0.14392898274733350E-006  0.19617564504855585E-006  0.00000000000000000E+000  </sparseX_slice>
      </sparseX>
      <sparseX i="4" alpha="-1420.3924152946438" sparseCutoff="1.0000000000000000" sliced="T">
        <sparseX_slice start="1" end="50">  0.49780509704094178E+000  0.41525711170843646E-002  0.22544521806080763E-002  0.98357380583707779E-003  0.34190017859893156E-003  0.92772108885865086E-004  0.17075931913262174E-004  0.33853968364237225E-005  0.40270733465233491E-006  0.25733745109647516E+000  0.15611439793356175E-001  0.84439474160787620E-002  0.50176991771217214E-002  0.23836285068903024E-002  0.93743228189462980E-003  0.22305977196491631E-003  0.74548489149260774E-004  0.98753200648322692E-005  0.66514549700747938E-001  0.30992728062560277E-001  0.21522487495917106E-001  0.15582412917840092E-001  0.10025128656897364E-001  0.56047288363864980E-002  0.17874944224034286E-002  0.97740036389218896E-003  0.15569824848636464E-003  0.47556122765316022E+000  0.74239113586568274E-002  0.46246969785616425E-002  0.72025758109354222E-002  0.32703610029709979E-002  0.14467812854433385E-002  0.36901670172832449E-003  0.23317716857927480E-003  0.25374997160711913E-004  0.17383414971005240E+000  
0.29864927597295476E-001  0.32048661473186912E-001  0.36361702055209701E-001  0.23164283348538109E-001  0.14302969201931592E-001  0.55149145519963038E-002  0.46978264254063842E-002  0.90046235283076394E-003  0.22715565046572883E+000  0.46981288376228239E-001  0.46318936768337711E-001  0.47286289081219506E-001  0.31157316823255756E-001  </sparseX_slice>
        <sparseX_slice start="51" end="100">  0.21574460130280700E-001  0.12655996265151213E-001  0.13593946672092124E-001  0.52735635390665893E-002  0.40565477422419338E+000 -0.84752046469891533E-002 -0.52182039944294626E-002  0.34497025099490810E-002 -0.11071651644518042E-005 -0.28874182389681196E-003 -0.70147577443888988E-004  0.20329526369560039E-003  0.19300724457612154E-004  0.14828091243072419E+000 -0.81397919264993897E-002 -0.10480146101903421E-001  0.16697035939359714E-001  0.41756653524245308E-002  0.78458363526705320E-003  0.16545605566914601E-002  0.43890285034611518E-002  0.12254963079306380E-002  0.27402405849838546E+000  0.84512920959050344E-001  0.22116751504928894E-001  0.34416363737426500E-001  0.15869913725771057E-001  0.10144862840372791E-001  0.16859299414582914E-001  0.23091419352730163E-001  0.14481757393271916E-001  0.16528134889441226E+000  0.12945478563389484E+000  0.39755823244803819E-001  0.18594499559039728E-001  0.12722878212231526E-001  0.13180796495342786E-001  
0.23237101246174303E-001  0.25502274125379556E-001  0.22535653342843801E-001  0.12764401512896090E+000  0.96289683251749771E-002  0.76020346361576740E-003  0.72647643316689839E-003  0.20397557762063493E-003 -0.40002441943179151E-003 -0.10863281371196041E-003 -0.26284552041253514E-004  0.74825771583346082E-005  0.46658321884270486E-001  </sparseX_slice>
        <sparseX_slice start="101" end="150">  0.30683810237907633E-001 -0.69619550683836734E-002  0.42620019278965924E-003 -0.85831756504868567E-004 -0.37536498080536231E-002 -0.15829044599622805E-002 -0.73479436421716412E-003  0.31921903154089255E-003  0.86224872209530901E-001  0.42354162811397048E-001 -0.23816493685273901E-001 -0.11293397943727506E-002 -0.95627980431711582E-003 -0.68258204221542411E-002 -0.13334031154798762E-002 -0.24488891354410437E-003  0.38226973108785047E-002  0.73550005834742388E-001  0.37762687986535558E-001 -0.85171703640031134E-002  0.20905031023573844E-002  0.33129094766655327E-002  0.34084816008895236E-002  0.69705894527626964E-002  0.65528738232749177E-002  0.10874790901286046E-001  0.16364833039166721E-001  0.22551232343668459E-001  0.11664511408827051E-001  0.21341001349728813E-002  0.53660349109008109E-002  0.66050240157307268E-002  0.53269023481716787E-002  0.60216768678091146E-002  0.57585574184406789E-002 -0.16070650785776616E-001 -0.13023983075602541E-002 
-0.66550297110019440E-004 -0.23924906021981790E-003 -0.99006897466322416E-004  0.76906078887993264E-004  0.24281585797101365E-004  0.35454779616646627E-005 -0.10053762464200942E-005 -0.58743811568047590E-002 -0.42310129433839778E-002  0.13992431180716942E-002 -0.37198895567773412E-003 -0.25875203327762025E-003  0.72434882656981735E-003  </sparseX_slice>
        <sparseX_slice start="151" end="200">  0.31569868261679008E-003  0.93716686065433327E-004 -0.41216968362689623E-004 -0.10855893313349631E-001 -0.59095031556022299E-002  0.38368156961976329E-002 -0.12376681537963131E-003 -0.12392169813452494E-003  0.12836793271514795E-002  0.22673493132567660E-003 -0.89530299979723331E-004 -0.54466504703112948E-003 -0.92601008975453040E-002 -0.51788929215987574E-002  0.58913633992838501E-003 -0.58441143940157509E-003 -0.53326975297061474E-003 -0.71020003550193941E-003 -0.13489352940879392E-002 -0.11578640011860209E-002 -0.14982459160291807E-002 -0.29137989595278933E-002 -0.43844226761853254E-002 -0.24724116175212254E-002 -0.64350884705330379E-003 -0.15270497734125260E-002 -0.17438765651299074E-002 -0.12592020250989978E-002 -0.11968236784922477E-002 -0.10033791664075149E-002  0.25940455231733144E-003  0.42965838079708616E-003  0.28310865023529878E-003  0.12331855775794890E-003  0.23220846320550745E-003  0.24301065003341015E-003  0.16354958583676479E-003  
0.13015726141853932E-003  0.95657901284596159E-004  0.34749845994555685E-002  0.28193803790963785E-003  0.13722556350590255E-004  0.52015790192448959E-004  0.21664896844776887E-004 -0.16689696098353948E-004 -0.52624218144117964E-005 -0.77115824404992684E-006  0.21587461668162285E-006  0.12702275921081842E-002  0.91626678130469021E-003  </sparseX_slice>
        <sparseX_slice start="201" end="250"> -0.30670297025561842E-003  0.80327204547207641E-004  0.56500800241422272E-004 -0.15743967097550798E-003 -0.68523636045395058E-004 -0.20381280123565200E-004  0.88998338541714065E-005  0.23473885768590316E-002  0.12808184163576209E-002 -0.83545088629661732E-003  0.25218752056042660E-004  0.26562515893022604E-004 -0.27939252414649628E-003 -0.49714011339546542E-004  0.19396358587307836E-004  0.11825461927373041E-003  0.20023276242711031E-002  0.11233272158581249E-002 -0.12537501331511610E-003  0.12578350588127285E-003  0.11494180093161363E-003  0.15352506623423254E-003  0.29160338507503488E-003  0.25120659506424551E-003  0.32517230961829637E-003  0.63005578586964347E-003  0.94990377767140534E-003  0.53647602023192251E-003  0.13986613424233710E-003  0.33193122361835223E-003  0.37866120161135204E-003  0.27302380325537124E-003  0.25933698476802427E-003  0.21713471395710951E-003 -0.79325352622598239E-004 -0.13165481814069851E-003 -0.86987777352891054E-004 
-0.38047001000960894E-004 -0.71430818357294336E-004 -0.74643436899589745E-004 -0.50182502920031759E-004 -0.39914405727090574E-004 -0.29315321497010423E-004  0.12128760872711822E-004  0.20170687583114961E-004  0.13364296116820401E-004  0.58696820426254751E-005  0.10986806206276645E-004  0.11463890171214610E-004  0.76990047890674617E-005  </sparseX_slice>
        <sparseX_slice start="251" end="300">  0.61203113187416793E-005  0.44921770871610933E-005 -0.79601733881278956E-003 -0.64586232182031408E-004 -0.31384897043814918E-005 -0.11917419615093668E-004 -0.49647043907353653E-005  0.38235778900196446E-005  0.12055560822136906E-005  0.17668349313517945E-006 -0.49439016751593214E-007 -0.29097199098808917E-003 -0.20990055623904946E-003  0.70287651997002422E-004 -0.18399775654231431E-004 -0.12946769473261200E-004  0.36070930518009209E-004  0.15698706125135832E-004  0.46696384938585559E-005 -0.20385936055034169E-005 -0.53771806885233927E-003 -0.29342059399653140E-003  0.19142105064635817E-003 -0.57652370366310941E-005 -0.60829194863738003E-005  0.64014292934035658E-004  0.11393144859781137E-004 -0.44434051617663709E-005 -0.27092280593111664E-004 -0.45867469661688154E-003 -0.25734737833525971E-003  0.28704813468440362E-004 -0.28808961520559563E-004 -0.26327091647696136E-004 -0.35167865486316889E-004 -0.66797323733474629E-004 -0.57550432957636644E-004 
-0.74496530507511116E-004 -0.14432735329248099E-003 -0.21760919448285626E-003 -0.12290510238103594E-003 -0.32044710785343608E-004 -0.76048789739788038E-004 -0.86752115663107414E-004 -0.62547443789463643E-004 -0.59410700330289104E-004 -0.49740544777864009E-004  0.18171118256155647E-004  0.30160282193535858E-004  0.19929481737389785E-004  </sparseX_slice>
        <sparseX_slice start="301" end="325">  0.87179886824146510E-005  0.16365883007944348E-004  0.17101121551677470E-004  0.11496626418376200E-004  0.91440793753610263E-005  0.67157629838123040E-005 -0.39291723114855384E-005 -0.65348309749787275E-005 -0.43301134147583520E-005 -0.19020699310049234E-005 -0.35599225088711242E-005 -0.37143267943695018E-005 -0.24944108831117723E-005 -0.19828928127523269E-005 -0.14553691399851377E-005  0.63643744053356038E-006  0.10585661927334046E-005  0.70149159364859491E-006  0.30818281753631998E-006  0.57673942187257362E-006  0.60172521993265686E-006  0.40408377222260648E-006  0.32121438122565991E-006  0.23575422194354919E-006  0.00000000000000000E+000  </sparseX_slice>
      </sparseX>
      <sparseX i="5" alpha="-860.27581457195333" sparseCutoff="1.0000000000000000" sliced="T">
        <sparseX_slice start="1" end="50">  0.32021738393208188E+000  0.37515368371420253E-003  0.31846375891878936E-003  0.19446353897223902E-003  0.11726790264601424E-003  0.89819300362464828E-004  0.11282558892174705E-004  0.30554208267601244E-005  0.12292492060688026E-005  0.27975992812991463E+000  0.21705592223326148E-002  0.28962071425035593E-002  0.21302400421058330E-002  0.13664098547376490E-002  0.16125187351517154E-002  0.25572321376079500E-003  0.76911565433117221E-004  0.36345909333720178E-004  0.12220700891719095E+000  0.75358184970524137E-002  0.14664980529414035E-001  0.13132120806955552E-001  0.82808400829262087E-002  0.14751755629548396E-001  0.30365980008355640E-002  0.10131395906325460E-002  0.55266117444339980E-003  0.54469311336987669E+000  0.19052672019897155E-002  0.34800163857661077E-002  0.29555657221493749E-002  0.19256957743116877E-002  0.35872668652523060E-002  0.61990542542593029E-003  0.16595624412736837E-003  0.91895191362895934E-004  0.33649412741221180E+000  
0.13563036080209243E-001  0.27515136975675650E-001  0.28875284278592692E-001  0.17668650517868013E-001  0.47408686547071650E-001  0.10781423276270694E-001  0.34450059370350096E-002  0.21394320836693966E-002  0.46326433641637854E+000  0.18546769059258714E-001  0.30276603579734423E-001  0.36464831439183082E-001  0.23165090958459915E-001  </sparseX_slice>
        <sparseX_slice start="51" end="100">  0.80268656527472809E-001  0.20508312578335099E-001  0.77598386520338330E-002  0.51948301547829461E-002  0.22862368504933436E+000 -0.15807707030776230E-002 -0.21360621368406779E-002 -0.79811406445457042E-003 -0.77450679524574729E-003  0.14763821452272530E-002  0.30216213240224804E-003  0.35142276796326186E-004  0.51676631229485238E-004  0.14123646052818745E+000 -0.20952629188200861E-002 -0.12639446359295687E-001 -0.28197367142316467E-002 -0.46262961077397965E-002  0.20937538491586853E-001  0.56830973303339605E-002  0.14942510440834680E-002  0.14792971152315219E-002  0.27498765788471030E+000  0.94185897030394181E-002 -0.46952532028924267E-002  0.72481131897014538E-002  0.52186695833676550E-002  0.59939125997153689E-001  0.18563321761320233E-001  0.10139750798496397E-001  0.75159711531034446E-002  0.81614540603178867E-001  0.11807166068052098E-001  0.24739089810562193E-001  0.16249070276358923E-001  0.19051429184479034E-001  0.34114811489588386E-001  
0.12425107415757012E-001  0.12511046584668997E-001  0.78909467242064529E-002  0.23521478209779297E-001  0.59743638704238481E-003  0.12443764077211324E-003  0.72446746382806907E-003 -0.10058226187651290E-003 -0.22995153530358449E-003 -0.71107906712622541E-004 -0.36635962600965311E-004 -0.14191507133680438E-005  0.14530823121074468E-001  </sparseX_slice>
        <sparseX_slice start="101" end="150">  0.15993649929298319E-002 -0.85999084035262650E-003  0.43576468191694820E-002 -0.12549577295939006E-002 -0.33167869998530094E-002 -0.14645251480953638E-002 -0.50801186636175832E-003 -0.32822133625542294E-005  0.28291540316558689E-001 -0.17863149523202021E-002  0.61352972758482778E-004  0.51804764838039525E-002 -0.27645660501593537E-002 -0.74713282899963986E-002 -0.33263316842934805E-002  0.28558059834338684E-003  0.42898017736614242E-003  0.11874789756156237E-001 -0.54788844162370282E-002  0.69798793744482298E-002 -0.75992547944291381E-003 -0.24285945055029938E-003 -0.18014759328673926E-002 -0.24259206858995706E-003  0.35656536641133782E-002  0.16478028974204074E-002  0.86388179551561892E-003  0.22661275853722374E-002  0.31620688090782715E-002  0.35960080035141850E-002  0.14202925924945010E-002  0.21794056679164389E-002  0.15796307100862863E-002  0.13697944282234761E-002  0.10615633968267505E-002  0.82563862525653932E-003 -0.72455671236992702E-004 
-0.28143741708709474E-005 -0.47162319765522614E-004  0.11601898650485343E-004  0.41213323732144485E-004  0.11725769435204961E-004  0.43394223459006946E-005  0.63002673398583877E-006  0.51005335287736698E-003  0.18282507528918112E-004  0.23953829846883222E-003 -0.15191576177862016E-003  0.21127955464439094E-003  0.62353880839973114E-003  </sparseX_slice>
        <sparseX_slice start="151" end="200">  0.26266150311385952E-003  0.69284637326144600E-004  0.13107306545560954E-004  0.99307485035706172E-003  0.10213371244498005E-002  0.13295056561542966E-003 -0.11076771640585725E-003  0.55266458028316475E-003  0.13830752706113143E-002  0.70098159743232707E-003 -0.71413316900431293E-005 -0.28790326309122386E-004  0.41682265893505947E-003  0.13443250773696018E-002 -0.11191873886834487E-002 -0.14607457188833294E-003  0.19955317326605804E-003  0.31437151018420817E-003  0.30358520752920854E-003 -0.40613341145637693E-003 -0.19638616183372258E-003  0.42883943049765898E-004 -0.69690790112864997E-003 -0.67014789402335107E-003 -0.55252635251679930E-003 -0.31887105968091725E-003 -0.49207135562692413E-003 -0.31495883165514915E-003 -0.22691040244609919E-003 -0.16279283812267099E-003  0.10644005817936669E-005  0.11839091618728634E-003  0.71977962822317350E-004  0.51556081165107322E-004  0.60233039064713240E-004  0.67056034901209042E-004  0.48047789513078770E-004  
0.29603784054352392E-004  0.22281917814668676E-004 -0.18733204290152995E-003  0.15736513479765729E-004  0.53503303271987597E-006  0.10208375249361516E-004 -0.25866051704315119E-005 -0.90358826480343014E-005 -0.25300644624046812E-005 -0.94058162594146271E-006 -0.14222023875037352E-006 -0.11572779380761575E-003 -0.43198907298698305E-005  </sparseX_slice>
        <sparseX_slice start="201" end="250"> -0.52832042671566969E-004  0.32723786494404791E-004 -0.46596498897009160E-004 -0.13658893020715990E-003 -0.56856666519835735E-004 -0.15023907041812763E-004 -0.29800619591668556E-005 -0.22532223515307989E-003 -0.22313330556407757E-003 -0.30653071499945910E-004  0.24247011580714076E-004 -0.12168372149246762E-003 -0.30298387509521010E-003 -0.15196336132721239E-003  0.15790653289992732E-005  0.58256178056173979E-005 -0.94574354732605086E-004 -0.29307249577380018E-003  0.24215567850812160E-003  0.33144274328924824E-004 -0.44150269591073223E-004 -0.69417322994063505E-004 -0.66020246690240577E-004  0.88142868735077687E-004  0.42220734906314385E-004 -0.97300882170929951E-005  0.15184438866876633E-003  0.14538278782436998E-003  0.12002833160152251E-003  0.69505103101506071E-004  0.10679432121350005E-003  0.68446089308029723E-004  0.49209085192628332E-004  0.35248493508971907E-004 -0.34154046729280322E-006 -0.36495223864263636E-004 -0.22087086002102870E-004 
-0.15866223092981392E-004 -0.18595272800744011E-004 -0.20631686708908968E-004 -0.14825208295492960E-004 -0.90914579227220902E-005 -0.68501345828488381E-005  0.54796048026399369E-007  0.56250242279822391E-005  0.33888866661249568E-005  0.24415066911604607E-005  0.28704577943803833E-005  0.31741254587878639E-005  0.22873391511147267E-005  </sparseX_slice>
        <sparseX_slice start="251" end="300">  0.13960725036561149E-005  0.10530433508904159E-005  0.42979280877443086E-004 -0.36052887971833741E-005 -0.12202246460847223E-006 -0.23385138540717875E-005  0.59308050218503931E-006  0.20707814679008195E-005  0.57952972090667639E-006  0.21547802921734004E-006  0.32622873261410365E-007  0.26551236394719921E-004  0.99238953371152214E-006  0.12109925660483269E-004 -0.74950174276126081E-005  0.10680568026834019E-004  0.31301653458030651E-004  0.13024769080683732E-004  0.34418842920043375E-005  0.68372586602411898E-006  0.51695307874627402E-004  0.51130700348982069E-004  0.70356852277197139E-005 -0.55561492199106112E-005  0.27890261265844519E-004  0.69433993584747759E-004  0.34813560219273776E-004 -0.36190295195660777E-006 -0.13315219694028155E-005  0.21698037841781186E-004  0.67152393419015569E-004 -0.55472231938024396E-004 -0.76037448185490005E-005  0.10121024409185167E-004  0.15912210309532548E-004  0.15126270254836577E-004 -0.20193349495740631E-004 
-0.96697528822670518E-005  0.22323580524051599E-005 -0.34791808821636816E-004 -0.33306609936284248E-004 -0.27499140078479451E-004 -0.15925751722824956E-004 -0.24466498373035399E-004 -0.15681600733779020E-004 -0.11273472678919584E-004 -0.80747791851019560E-005  0.78359064725016515E-007  0.83621947890538110E-005  0.50600923282489211E-005  </sparseX_slice>
        <sparseX_slice start="301" end="325">  0.36352417625457586E-005  0.42609595459654850E-005  0.47270735757932112E-005  0.33970158808655794E-005  0.20828863639179129E-005  0.15694428435304328E-005 -0.17779162972456019E-007 -0.18227355614457099E-005 -0.10979747973451063E-005 -0.79110351901373357E-006 -0.93018935097135485E-006 -0.10284837393439244E-005 -0.74121356035926781E-006 -0.45233020415324618E-006 -0.34119968709604542E-006  0.28843196488263417E-008  0.29532005537712465E-006  0.17786795512611443E-006  0.12816774374278101E-006  0.15071676928923859E-006  0.16662524392031779E-006  0.12009534803225799E-006  0.73277935638315286E-007  0.55276563269477466E-007  0.00000000000000000E+000  </sparseX_slice>
      </sparseX>
      <sparseX i="6" alpha="6127.2184811873312" sparseCutoff="1.0000000000000000" sliced="T">
        <sparseX_slice start="1" end="50">  0.15797345027660623E+000  0.56142608153623717E-006  0.84880353126651022E-005  0.78836569358188731E-005  0.15070752574644453E-004  0.60252641688064450E-005  0.49468343271761231E-005  0.11057219494958660E-005  0.32464971491748968E-006  0.11880123217340349E+000  0.13886647655142487E-004  0.13895805807219815E-003  0.15323293989155890E-003  0.35407392313862413E-003  0.17295139751636072E-003  0.15732305037629627E-003  0.39536973175861445E-004  0.12095844630224157E-004  0.44671217667292332E-001  0.17635765491644300E-003  0.11787255755698783E-002  0.15273694698544602E-002  0.42189946624423746E-002  0.24953020071861124E-002  0.25080247022060040E-002  0.70958222513482132E-003  0.23041814129674525E-003  0.36647000251665723E+000  0.53046927773619733E-005  0.57050255194089816E-004  0.16059998975452688E-003  0.69945166862500391E-003  0.45913881076807745E-003  0.55884438193486608E-003  0.16446631738888706E-003  0.47773168736286348E-004  0.19487686063999407E+000  
0.45972711594709948E-004  0.64272519590103500E-003  0.23673613611182812E-002  0.12338063050708888E-001  0.94761829197573151E-002  0.12698756719575169E-001  0.42166146274411160E-002  0.14179998365344382E-002  0.42507225900745826E+000  0.26233703875054397E-003  0.24274018921976241E-003  0.21757884882849096E-002  0.21692025639309869E-001  </sparseX_slice>
        <sparseX_slice start="51" end="100">  0.18811414074386537E-001  0.33170454052668677E-001  0.13038695106104368E-001  0.60780285642902335E-002  0.34044614823686836E+000 -0.66396344971034343E-004 -0.48972994932233835E-003 -0.32148639682215375E-003 -0.35937076395319919E-004  0.24582961928795586E-003  0.53862299359377539E-003  0.19747713923260252E-003  0.58377865870669483E-004  0.18103821903503101E+000 -0.13306466124084284E-002 -0.61208586657652943E-002 -0.44013944110988974E-002  0.41786762716565170E-003  0.52320896459632669E-002  0.12359820991102229E-001  0.51032846837601627E-002  0.19071455628994005E-002  0.55845444842306868E+000  0.77298936707075115E-003 -0.20056614029723770E-002 -0.41284550887827620E-002  0.11161503543704647E-001  0.16752262101675356E-001  0.47575473347993398E-001  0.23263731806939025E-001  0.14590963345455035E-001  0.36684512380522322E+000  0.71206920242155311E-002  0.16984457759655368E-001  0.70909745953408859E-002  0.14815903336352789E-001  0.10601121663324227E-001  
0.35968599338772590E-001  0.21877047497237616E-001  0.19607307647351385E-001  0.12541204957203187E-001 -0.45066754299394015E-004 -0.14942654088336504E-003 -0.13461331553929495E-003 -0.30168426584943267E-003 -0.11087566534353080E-003 -0.91051045318576751E-004 -0.16625174446938550E-005  0.81996590066192304E-005  0.66690060139135152E-002  </sparseX_slice>
        <sparseX_slice start="101" end="150"> -0.86522949650405924E-003 -0.20388546975003280E-002 -0.20446890954544253E-002 -0.54422656441937183E-002 -0.22983081102476766E-002 -0.20586729902528004E-002 -0.46633279002249925E-004  0.31536405717596773E-003  0.20572098504291730E-001  0.25599378930715359E-003 -0.54257462173178486E-003 -0.29325349157919619E-002 -0.13351710435618521E-001 -0.58150830735635506E-002 -0.70980581997215006E-002  0.27698998825615925E-003  0.33299914482153772E-002  0.19111227791740525E-001  0.60169507290213312E-002  0.87608165073117111E-002  0.32723696636418657E-002 -0.38118972244359311E-002 -0.62871891606706043E-003 -0.62335263726993996E-002  0.17939269957530461E-002  0.74427891725838795E-002  0.49781093437910784E-003  0.28079548192612648E-002  0.26315225210808372E-002  0.22333054428265052E-002  0.51554271521331834E-002  0.40458594464779576E-002  0.13408469662970564E-002  0.14787901043647087E-002  0.21150145635401595E-002  0.28304687079686410E-003  0.66121473877901359E-005  
0.37466678136100236E-004  0.28449908739360069E-004  0.49001373077967934E-004  0.27179905181629665E-004  0.15539163726762343E-004  0.15475771744081637E-006  0.25621442856972639E-006  0.15051514507619137E-003  0.12608970094244413E-003  0.50050337329367312E-003  0.44043409428359430E-003  0.88112145955394721E-003  0.56353097292271604E-003  </sparseX_slice>
        <sparseX_slice start="151" end="200">  0.34790609333043337E-003  0.35229009114151878E-005 -0.11129728349551998E-004  0.46429893516892004E-003 -0.31611552013598324E-004  0.13787346360973312E-003  0.60239184877754518E-003  0.20432575058586672E-002  0.14629120927354528E-002  0.11446827163585620E-002 -0.82079400542443829E-004 -0.41993610559052557E-003  0.43132802964289982E-003 -0.86986002276869044E-003 -0.21141316435443367E-002 -0.73937921947326440E-003  0.36584112451805976E-003  0.42550048150563890E-003  0.92735656425219234E-003 -0.34875523086012563E-003 -0.11040395250428434E-002  0.15889071594884365E-004 -0.59117778247908372E-003 -0.87051043725416388E-003 -0.60078850604983853E-003 -0.11527626496906590E-002 -0.99580829890943837E-003 -0.32881795321786219E-003 -0.32079376947048103E-003 -0.46888168709579171E-003  0.25357277101822186E-006  0.62785564413021870E-004  0.14492624760720942E-003  0.92238575207825049E-004  0.13545004769722972E-003  0.13413129454696335E-003  0.44276138202713346E-004  
0.38884121914114535E-004  0.59276325306518966E-004 -0.73203594635657971E-004 -0.14335983956504058E-005 -0.81781735752507779E-005 -0.62041641489337443E-005 -0.10665533688793207E-004 -0.59460166188351849E-005 -0.33825547074824612E-005 -0.36689823761656241E-007 -0.61394138856552881E-007 -0.38927297219944527E-004 -0.27341182807018388E-004  </sparseX_slice>
        <sparseX_slice start="201" end="250"> -0.10924597495968453E-003 -0.96062188956856133E-004 -0.19174126699924904E-003 -0.12327683598623200E-003 -0.75724264467558308E-004 -0.84243164271818408E-006  0.22731914994001526E-005 -0.12008029251192780E-003  0.68781273669087569E-005 -0.30097526069830699E-004 -0.13127864931022822E-003 -0.44400227512698753E-003 -0.32012059228855806E-003 -0.24901474466284222E-003  0.17551457178214982E-004  0.90792601916119358E-004 -0.11155312244959019E-003  0.18871033644727380E-003  0.46142868228229647E-003  0.16139357038216572E-003 -0.78350815830263514E-004 -0.93865995380466456E-004 -0.20154958343731317E-003  0.75432276385810010E-004  0.23945838073330207E-003 -0.41093446922563517E-005  0.12826936024138458E-003  0.18997093121599692E-003  0.13077101574183631E-003  0.25056077374646424E-003  0.21662386375113977E-003  0.71567132127207966E-004  0.69604703163818831E-004  0.10178099320105243E-003 -0.92745247377589616E-007 -0.19266750221964604E-004 -0.44728703288755089E-004 
-0.28442492302052815E-004 -0.41674465068289910E-004 -0.41321395965319858E-004 -0.13640012484154503E-004 -0.11948231757745149E-004 -0.18231673982709648E-004  0.16960971157491062E-007  0.29561581246145312E-005  0.69023304038981372E-005  0.43853332971794017E-005  0.64111947834160371E-005  0.63650165193818335E-005  0.21010417584604263E-005  </sparseX_slice>
        <sparseX_slice start="251" end="300">  0.18357566135176059E-005  0.28038449250144698E-005  0.16858793571277935E-004  0.32842480762698823E-006  0.18739539911554742E-005  0.14215858258616824E-005  0.24436912464524496E-005  0.13625757620980329E-005  0.77501457573611147E-006  0.84292665922023019E-008  0.14108302216876963E-007  0.89649595950190385E-005  0.62636507243282043E-005  0.25032701246147227E-004  0.22011239226412236E-004  0.43931520181309678E-004  0.28249810685055320E-004  0.17349968456452165E-004  0.19359463591770602E-006 -0.51972816905834848E-006  0.27654500759326898E-004 -0.15759073407239942E-005  0.68965924442883193E-005  0.30079773839707460E-004  0.10172454432123800E-003  0.73358748335712473E-004  0.57053359899335395E-004 -0.40189953290064098E-005 -0.20797889466152141E-004  0.25690692826893678E-004 -0.43232752870373346E-004 -0.10573191332702860E-003 -0.36981924063748714E-004  0.17942273041950105E-004  0.21515893046473780E-004  0.46176938286517255E-004 -0.17279424553160929E-004 
-0.54858461863248678E-004  0.94638240409891563E-006 -0.29386097511922463E-004 -0.43529816521102863E-004 -0.29962290146565457E-004 -0.57405977401025380E-004 -0.49631982534168344E-004 -0.16397458433806323E-004 -0.15946215030125070E-004 -0.23318031121994416E-004  0.21359237726479925E-007  0.44139597092722820E-005  0.10249114167462462E-004  </sparseX_slice>
        <sparseX_slice start="301" end="325">  0.65171141092424031E-005  0.95483228291698829E-005  0.94678129487734514E-005  0.31252842808425899E-005  0.27374240083608323E-005  0.41771342826373506E-005 -0.55240779587280032E-008 -0.95777296278204321E-006 -0.22367156209261243E-005 -0.14210376975971378E-005 -0.20773577322837626E-005 -0.20624789760426139E-005 -0.68080791905508852E-006 -0.59479712535280262E-006 -0.90849234340392802E-006  0.89957812588540785E-009  0.15515561257888107E-006  0.36240635250789967E-006  0.23023884947137149E-006  0.33655312135440830E-006  0.33415621254360435E-006  0.11030228841833171E-006  0.96359077878085345E-007  0.14718331153058217E-006  0.00000000000000000E+000  </sparseX_slice>
      </sparseX>
      <sparseX i="7" alpha="-2191.0821571004935" sparseCutoff="1.0000000000000000" sliced="T">
        <sparseX_slice start="1" end="50">  0.60808378653602957E+000  0.97919411240420060E-003  0.56415058093699114E-003  0.29333332819159641E-003  0.15217209739932979E-003  0.49545027626511953E-004  0.14134003502674508E-004  0.29968333759377691E-005  0.77634996891226293E-006  0.22365721678842773E+000  0.73328675148392744E-002  0.40561910982056795E-002  0.24296559951033441E-002  0.20005797849796119E-002  0.72647780363615199E-003  0.28497127873281620E-003  0.66482526000781104E-004  0.24068695357271333E-004  0.41131297799026134E-001  0.27654039647547243E-001  0.18452181516683017E-001  0.10376585073500156E-001  0.14546006723418995E-001  0.54851862928764327E-002  0.31306450938134015E-002  0.78202018778124197E-003  0.39042721469280373E-003  0.48811849409032532E+000  0.77549808603771513E-002  0.63410849751299996E-002  0.24570704885152027E-002  0.44781890841402673E-002  0.10435613962413647E-002  0.74388611220761887E-003  0.10355260506448781E-003  0.95102548470816993E-004  0.12694913826820917E+000  
0.40963528021054352E-001  0.53075698858376624E-001  0.15255886012699586E-001  0.49222363181639646E-001  0.11845118174051291E-001  0.12368122532427547E-001  0.21594803923059109E-002  0.22689883769146588E-002  0.19591022614684514E+000  0.30735863175876895E-001  0.92005904657077447E-001  0.12170428184921605E-001  0.87452284239762201E-001  </sparseX_slice>
        <sparseX_slice start="51" end="100">  0.15515088405187411E-001  0.26882951505430387E-001  0.56301294314600779E-002  0.74471238362096700E-002  0.36603476292519155E+000 -0.78214633372752779E-002  0.27888944450116617E-002 -0.30370305102456444E-002  0.21954663140617901E-002 -0.58760018958991373E-003  0.54810813111987934E-003 -0.81785438432083557E-004  0.13225258479223541E-003  0.95197781465257342E-001 -0.43028513951789527E-001  0.35735441568405753E-001 -0.18034562768491840E-001  0.26920243050454259E-001 -0.48611836095146816E-002  0.95018014736597926E-002 -0.28859800639440247E-003  0.31541328744150786E-002  0.20776346230543632E+000 -0.43202566576306868E-001  0.10597211380876347E+000 -0.16614379054977507E-001  0.74943993173431492E-001  0.10413715197922051E-002  0.34880459546586973E-001  0.89746953087452997E-002  0.16468158280384698E-001  0.11016692981811857E+000  0.37901410479580296E-001  0.72589900220160972E-001  0.18657633280942682E-001  0.41219351131526000E-001  0.15657039997204594E-001  
0.32089963488145315E-001  0.17715786134540796E-001  0.20881576450794248E-001  0.11130587976408872E+000 -0.34356422099472840E-002  0.30058274831774668E-002 -0.90400612067582497E-003 -0.52643321988806878E-003 -0.24206386575234282E-003  0.85359155878624984E-004 -0.87026360355720988E-004  0.47186806415757235E-004  0.28948269101275230E-001  </sparseX_slice>
        <sparseX_slice start="101" end="150"> -0.18453774723219993E-001  0.15258724548531159E-001 -0.56273821215870419E-002 -0.79866174226280520E-002 -0.25804005619366522E-002 -0.14215173469074334E-004 -0.11827178214271618E-002  0.94384749581834313E-003  0.63177865320584073E-001 -0.19122356244267041E-001  0.25669480475857022E-001 -0.66949172432027590E-002 -0.19960596291939418E-001 -0.32491538753168349E-002  0.21296954426359587E-002  0.58083563365997804E-003  0.56722085987820012E-002  0.47376395761928210E-001  0.21115994505225010E-001  0.19282281446320090E-001  0.65162232655463269E-002 -0.48531873351885055E-002  0.39944971138206158E-002  0.14803578493828948E-001  0.91135888383900628E-002  0.13348159367598410E-001  0.10186917612646878E-001  0.64513562597769683E-002  0.15155929666398314E-001  0.34744987056464323E-002  0.10774733492957862E-001  0.18171030714193919E-002  0.14212937701600148E-001  0.46254419444575747E-002  0.70432739008477550E-002 -0.14291055025110173E-001  0.65249746902327902E-003 
-0.55143492397243888E-003  0.16821056214147821E-003  0.27957791885259148E-004  0.58691072604858091E-004 -0.16247813507579773E-004  0.17098978650645631E-004 -0.54801104034039509E-005 -0.37167965204071450E-002  0.35128500522447542E-002 -0.24792702276060538E-002  0.10765635723483343E-002  0.82497934737841444E-003  0.62228913483776459E-003  </sparseX_slice>
        <sparseX_slice start="151" end="200">  0.89378504697856512E-005  0.22387678587019034E-003 -0.98245066129000651E-004 -0.81116860275405496E-002  0.36338506246912177E-002 -0.34286769963781409E-002  0.12287533886636407E-002  0.22685689696996881E-002  0.71897462776290106E-003 -0.17691133845294728E-003 -0.18327282636791475E-003 -0.71373458301441978E-003 -0.60828653451203939E-002 -0.40118858926144639E-002 -0.19561708877972499E-002 -0.13489174587046596E-002  0.34801471896826324E-003 -0.11342913128270088E-002 -0.19928994004697986E-002 -0.18405521860380108E-002 -0.19037560145813003E-002 -0.18497114135126193E-002 -0.16611547860201250E-002 -0.35399362529553069E-002 -0.81673753749184346E-003 -0.24738798172879886E-002 -0.67175846335164617E-003 -0.30743476379110376E-002 -0.11320108528851773E-002 -0.15336741542802132E-002  0.16793265850266641E-003  0.22610173457782271E-003  0.43561151373362804E-003  0.13513823462529560E-003  0.30343419863767949E-003  0.13770426835437864E-003  0.35597725288407772E-003  
0.16178501967590894E-003  0.17874709270058784E-003  0.30908595817627366E-002 -0.14217810432053723E-003  0.12005300235852429E-003 -0.36539792011709360E-004 -0.59578596620805517E-005 -0.12789315734477103E-004  0.35321919715897378E-005 -0.37286413481381695E-005  0.11856276279923752E-005  0.80386620290647556E-003 -0.76547688925512121E-003  </sparseX_slice>
        <sparseX_slice start="201" end="250">  0.53839505106455883E-003 -0.23392556375424493E-003 -0.17859693928083412E-003 -0.13559166739325376E-003 -0.20311697577945004E-005 -0.48834853865209516E-004  0.21205408318603637E-004  0.17543898920283762E-002 -0.79180558986129362E-003  0.74093783211354343E-003 -0.26703577447526262E-003 -0.49237106088608862E-003 -0.15657373267745844E-003  0.37586709238230722E-004  0.39755398227292614E-004  0.15436902949202670E-003  0.13155979459531133E-002  0.87430518275837508E-003  0.41902723913136514E-003  0.29318683011717473E-003 -0.76737820626384277E-004  0.24740882523333123E-003  0.43112922252116652E-003  0.40068369735696497E-003  0.41241459291979730E-003  0.40005431620730183E-003  0.36187600212531958E-003  0.76904693330272851E-003  0.17763498137886186E-003  0.53709642277557370E-003  0.14651545473472308E-003  0.66709638109143732E-003  0.24624955195896235E-003  0.33267932702283752E-003 -0.51364746032005661E-004 -0.69684945488212373E-004 -0.13395456579993120E-003 
-0.41655131028109281E-004 -0.93220736132537405E-004 -0.42486661673219931E-004 -0.10931062609635106E-003 -0.49819524911069551E-004 -0.54873769303321060E-004  0.78553426071396055E-005  0.10738540250118468E-004  0.20596548344757971E-004  0.64200001582397826E-005  0.14319773877058503E-004  0.65543576675417624E-005  0.16783247783802941E-004  </sparseX_slice>
        <sparseX_slice start="251" end="300">  0.76706917829781081E-005  0.84229970498088143E-005 -0.70803128118698984E-003  0.32576983180776418E-004 -0.27506758419863259E-004  0.83714589268278092E-005  0.13641285252310848E-005  0.29303984561209917E-005 -0.80926327488388756E-006  0.85435716684120374E-006 -0.27159776154928424E-006 -0.18414373170009740E-003  0.17539241637515204E-003 -0.12334784811912815E-003  0.53594075825675514E-004  0.40913068570780584E-004  0.31067859427027638E-004  0.46603592176728240E-006  0.11189830168826673E-004 -0.48572570605485095E-005 -0.40188267700143874E-003  0.18142479232767527E-003 -0.16972388305067985E-003  0.61180179027980815E-004  0.11280194608149298E-003  0.35874856650990408E-004 -0.86049886391244772E-005 -0.91076929201307529E-005 -0.35361737315248246E-004 -0.30136745929717189E-003 -0.20032865817468025E-003 -0.95957284385055533E-004 -0.67171861766120904E-004  0.17589686721483437E-004 -0.56690084473673513E-004 -0.98760697907799108E-004 -0.91805039959253401E-004 
-0.94477909515655725E-004 -0.91641487604267454E-004 -0.82915280551226580E-004 -0.17619330885875105E-003 -0.40698729469301460E-004 -0.12304948363994807E-003 -0.33571827878155611E-004 -0.15282987688203844E-003 -0.56419607382541828E-004 -0.76215040750859191E-004  0.11766256595889909E-004  0.15966848392697938E-004  0.30690688173022940E-004  </sparseX_slice>
        <sparseX_slice start="301" end="325">  0.95444419210524122E-005  0.21357401596450053E-004  0.97352688923300676E-005  0.25043292866332033E-004  0.11414783998982404E-004  0.12571583130128850E-004 -0.25447979086907861E-005 -0.34796897409025923E-005 -0.66735794225976673E-005 -0.20803301895264199E-005 -0.46396714347383529E-005 -0.21239317242345909E-005 -0.54377616534038149E-005 -0.24855228748338649E-005 -0.27290218976393932E-005  0.41220330671453219E-006  0.56377498455574234E-006  0.10811681285510196E-005  0.33705402294209429E-006  0.75163726399344322E-006  0.34412876307755853E-006  0.88091567345651921E-006  0.40269014776736507E-006  0.44209683218063911E-006  0.00000000000000000E+000  </sparseX_slice>
      </sparseX>
      <sparseX i="8" alpha="9274.1384890278259" sparseCutoff="1.0000000000000000" sliced="T">
        <sparseX_slice start="1" end="50">  0.40401886169691087E+000  0.28810637259038031E-003  0.11193431363862296E-003  0.10375401625526779E-003  0.71498434528366467E-004  0.24123787837708279E-004  0.55787401764178012E-005  0.22201050571320615E-005  0.82721593128930545E-006  0.15656999441536912E+000  0.34179357286969105E-002  0.12324124560798410E-002  0.12941865500486736E-002  0.11159892141209265E-002  0.47327991564357399E-003  0.13152578269852848E-003  0.62739125723927373E-004  0.25654990641907040E-004  0.30337894434268875E-001  0.20913050181059281E-001  0.70540685178861629E-002  0.83234147023179324E-002  0.89186666197128284E-002  0.46875700708389496E-002  0.15831772964819339E-002  0.91096318203618017E-003  0.41071732988703810E-003  0.44396077267801848E+000  0.76431889104551414E-002  0.18205979876014793E-002  0.14315686050843496E-002  0.15080759933875541E-002  0.97967625823906107E-003  0.34483799043892528E-003  0.20252117807553134E-003  0.72523228555967063E-004  0.12165683006192149E+000  
0.70048036019650720E-001  0.14907239829261159E-001  0.14142278837407957E-001  0.18658660587553118E-001  0.13945823649390437E-001  0.62521213809394348E-002  0.46205224530704260E-002  0.19493580305606675E-002  0.24392570045990283E+000  0.13018219498670094E+000  0.15861638681759611E-001  0.20421937382030419E-001  0.27707979654231489E-001  </sparseX_slice>
        <sparseX_slice start="51" end="100">  0.22770338176673965E-001  0.16353602476041427E-001  0.16841701920424262E-001  0.84086008670430836E-002  0.45624315171462543E+000  0.49206089118086624E-002 -0.52282621094510947E-003 -0.15040393494244431E-002 -0.11576666174147212E-002  0.86504608888914898E-004  0.19099162438799492E-003  0.17865702150764206E-003  0.48227108419850881E-004  0.12502252223828025E+000  0.52075049093526275E-001 -0.38527047888899974E-002 -0.12063600231524458E-001 -0.10349141742614925E-001  0.15766192330148245E-002  0.41474430360291283E-002  0.47846791500202809E-002  0.18759976975166188E-002  0.35450659484479874E+000  0.16809218355815814E+000 -0.52627876040497370E-002  0.90723043583787848E-002  0.61025380465417637E-002  0.97582050245828937E-002  0.26151386794598570E-001  0.35506095070834222E-001  0.20425585236781889E-001  0.25760902920746770E+000  0.14276878532376983E+000  0.26755114748630076E-002  0.43107089422034339E-001  0.35719496250087288E-001  0.12035547168810787E-001  
0.32481053836940450E-001  0.46077044401167222E-001  0.31474071405508321E-001  0.10842619592573167E+000  0.10916942548684456E-002 -0.23941673840980544E-003  0.27811623962767238E-003 -0.37237664009941233E-003 -0.40981702048631038E-003 -0.81065544608591687E-004 -0.22754716288413192E-004 -0.11283969254084745E-004  0.29711605402497874E-001  </sparseX_slice>
        <sparseX_slice start="101" end="150">  0.12728696583577769E-001 -0.12023351313868896E-002  0.12722131879123830E-002 -0.56257340806367415E-002 -0.59550355770025898E-002 -0.12399266520444765E-002 -0.25362328590887765E-003 -0.30599266339930975E-004  0.84248500750425517E-001  0.45895625412075827E-001 -0.11685281339437032E-002 -0.27959485338737507E-002 -0.15458672326813477E-001 -0.12170437962534260E-001  0.10244592358403014E-002  0.41415268064945981E-002  0.48252655448762123E-002  0.86579274285305041E-001  0.61272966151332139E-001  0.37144291934616655E-002 -0.68896014806184422E-002 -0.37899054520964220E-002  0.38003208093532973E-002  0.10868270640401485E-001  0.13815273511235812E-001  0.15303535918001213E-001  0.14549122674060343E-001  0.13589888356925392E-001  0.38644374821670451E-002  0.46695450325771621E-002  0.11588219455679998E-001  0.10219190007801932E-001  0.53467914854959811E-002  0.54272676911067642E-002  0.67719509066723063E-002 -0.17369657351291527E-001 -0.14664534392349918E-003  
0.42642376132306016E-004 -0.45759681638747081E-004  0.79852264654373836E-004  0.72533303394475211E-004  0.91205331258152014E-005  0.25728745319527816E-005  0.23790387961032708E-005 -0.47597391090956290E-002 -0.18329235284817230E-002  0.23752931939592352E-003 -0.18296718974003000E-003  0.11489556734234935E-002  0.10476168315969605E-002  </sparseX_slice>
        <sparseX_slice start="151" end="200">  0.13214849763374989E-003  0.16884121431016975E-004  0.15274755681230851E-004 -0.13496439471115229E-001 -0.70263725950659118E-002  0.25311348563934727E-003  0.43521000958264837E-003  0.28718821109981023E-002  0.20833687297752276E-002 -0.39655965263909066E-003 -0.80769743159840980E-003 -0.79175545755578319E-003 -0.13869824678616621E-001 -0.98475574265527305E-002 -0.60303804540926898E-003  0.89740832324213503E-003  0.27506382626363253E-003 -0.82506525483573481E-003 -0.20012267795047247E-002 -0.24643688958591258E-002 -0.25695673511301792E-002 -0.32961641668648556E-002 -0.31268737306971422E-002 -0.83576636261058364E-003 -0.12133315916908918E-002 -0.31120625401070468E-002 -0.26021200401547145E-002 -0.12422230039972578E-002 -0.12912224779781946E-002 -0.16036190919040130E-002  0.37337984077536764E-003  0.36176838829877323E-003  0.91513108642625091E-004  0.16370839759697882E-003  0.42684700405765520E-003  0.34155400674142381E-003  0.15039664404552735E-003  
0.15713276855870096E-003  0.19227103288570768E-003  0.37680726801511896E-002  0.31735729465548357E-004 -0.92148140072778784E-005  0.99651187112260099E-005 -0.17389761515348016E-004 -0.15770828848728756E-004 -0.19795484904777649E-005 -0.55947408438771367E-006 -0.51937865675564776E-006  0.10325501844339398E-002  0.39685456054175638E-003  </sparseX_slice>
        <sparseX_slice start="201" end="250"> -0.51465779544078719E-004  0.39924619740722173E-004 -0.25004199025539141E-003 -0.22773785658843448E-003 -0.28697544904221296E-004 -0.36986843567147207E-005 -0.33698697921568690E-005  0.29278392671713859E-002  0.15222120356250810E-002 -0.54942195197544662E-004 -0.93521872069016299E-004 -0.62430952799522065E-003 -0.45261849710947761E-003  0.85838844355785038E-004  0.17491528954136285E-003  0.17185332519160630E-003  0.30088392875577395E-002  0.21344361747652721E-002  0.13043748541595809E-003 -0.19321252360989584E-003 -0.58700155298273519E-004  0.17987355585301023E-003  0.43379037386211458E-003  0.53394513111312315E-003  0.55794674659372817E-003  0.71505072870843144E-003  0.67786266568822405E-003  0.18071574109271779E-003  0.26376637100008701E-003  0.67665970101830094E-003  0.56547785576498231E-003  0.26935652848369463E-003  0.27980215776139884E-003  0.34804080664106946E-003 -0.11454968091810748E-003 -0.11091446036730827E-003 -0.27985791375942476E-004 
-0.50361381217236592E-004 -0.13128949548874797E-003 -0.10500710347932482E-003 -0.46143722550515176E-004 -0.48169475307853879E-004 -0.59026471124075333E-004  0.17571421867864652E-004  0.17002649489975274E-004  0.42792500839312392E-005  0.77464592672873255E-005  0.20191151399289027E-004  0.16141795379579416E-004  0.70788828944448288E-005  </sparseX_slice>
        <sparseX_slice start="251" end="300">  0.73833416678422486E-005  0.90605487844673384E-005 -0.86324565373269721E-003 -0.72698962413352682E-005  0.21108129945128133E-005 -0.22832356345314440E-005  0.39844137858000572E-005  0.36132842643248247E-005  0.45350926139312510E-006  0.12818183188217970E-006  0.11901143904326840E-006 -0.23655182228006526E-003 -0.90911453201694012E-004  0.11790155704179817E-004 -0.91481721009237673E-005  0.57289377923288062E-004  0.52177125301486030E-004  0.65746366132766997E-005  0.84759848019467701E-006  0.77243978929674150E-006 -0.67075259336882363E-003 -0.34871555756151631E-003  0.12587303993567005E-004  0.21419021710437304E-004  0.14303604746211307E-003  0.10369757746092782E-003 -0.19664047777227622E-004 -0.40070126224970689E-004 -0.39371416144495260E-004 -0.68930927246875376E-003 -0.48897496828664475E-003 -0.29879832525573860E-004  0.44253300190030356E-004  0.13440636587008215E-004 -0.41214751254027813E-004 -0.99376901026428861E-004 -0.12231956270295706E-003 
-0.12782662736509642E-003 -0.16381436510167960E-003 -0.15529152558905069E-003 -0.41396762553416666E-004 -0.60431715062606489E-004 -0.15503100005413698E-003 -0.12955555199309194E-003 -0.61707352178351732E-004 -0.64099102026322094E-004 -0.79735607291559591E-004  0.26242730059298094E-004  0.25409412865058432E-004  0.64107528943407937E-005  </sparseX_slice>
        <sparseX_slice start="301" end="325">  0.11538568947645653E-004  0.30080299661721408E-004  0.24058261044282662E-004  0.10571330555582060E-004  0.11035128356852408E-004  0.13522962658287264E-004 -0.56929455883406342E-005 -0.55085600391815112E-005 -0.13862906571447480E-005 -0.25099949146511253E-005 -0.65422685882580418E-005 -0.52301303597064897E-005 -0.22934907664952003E-005 -0.23920685756539327E-005 -0.29355851340503815E-005  0.92222558070497300E-006  0.89233839075667247E-006  0.22454890165536932E-006  0.40664220816528854E-006  0.10599018791746380E-005  0.84731168957807010E-006  0.37153461003124386E-006  0.38749338765252220E-006  0.47555950410877910E-006  0.00000000000000000E+000  </sparseX_slice>
      </sparseX>
      <sparseX i="9" alpha="-8764.2204725822830" sparseCutoff="1.0000000000000000" sliced="T">
        <sparseX_slice start="1" end="50">  0.60955300088374065E+000  0.10348880713746234E-001  0.45673904336118367E-002  0.17714783519329862E-002  0.62740019011731367E-003  0.14441469901498759E-003  0.20051200997865983E-004  0.27108712323386920E-005  0.66440703752151623E-006  0.31879611606283736E+000  0.37564511960973837E-001  0.14064472128292501E-001  0.65053694155790551E-002  0.35981916054997386E-002  0.11596648564882663E-002  0.21924419104971945E-003  0.48405760959607909E-004  0.16880661402381009E-004  0.83365157311508356E-001  0.73442470097166146E-001  0.26695707729052151E-001  0.15561338318551863E-001  0.12197498984222456E-001  0.54284559976137932E-002  0.15840575941267309E-002  0.56179989516658277E-003  0.23536111260545338E-003  0.42914390332196672E+000  0.46438833963413792E-001  0.12151858841769326E-001  0.34623048235333936E-002  0.27296958734575024E-002  0.10029637777915679E-002  0.23527818690986276E-003  0.12381716930351812E-003  0.55739407967274319E-004  0.15870459357246242E+000  
0.13638908014606566E+000  0.41001155968048639E-001  0.17809811552604457E-001  0.17782646366247452E-001  0.88755097101158760E-002  0.35629304498509076E-002  0.24303974694059953E-002  0.12619303095581672E-002  0.15106519817916450E+000  0.13326139603424497E+000  0.42293755788266489E-001  0.18908650262032520E-001  0.22834773025236295E-001  </sparseX_slice>
        <sparseX_slice start="51" end="100">  0.13882292805753154E-001  0.81433380620497056E-002  0.74653847052218152E-002  0.50120477030628739E-002  0.33522212169971538E+000  0.41736608581651354E-001  0.10913815910048204E-001 -0.38809492046625160E-002 -0.39913444352376948E-002 -0.15642671210584860E-002 -0.27077037466352789E-003  0.73968704705120207E-004  0.51191413344487915E-004  0.12397074773525890E+000  0.11218120203033775E+000  0.23302837498767652E-001 -0.15079495356326578E-001 -0.13438801459686124E-001 -0.65214717579338112E-002 -0.68150208077658416E-003  0.20117374380141891E-002  0.13918212085866810E-002  0.16688186555687348E+000  0.14623220827824052E+000  0.34765282386512962E-001 -0.31494767613773038E-003  0.10956749781085889E-001  0.12934759180104356E-001  0.12322038832988460E-001  0.13687709737256783E-001  0.10837030338699202E-001  0.92177276392649360E-001  0.88860949120861871E-001  0.36535403161331796E-001  0.27995670252786087E-001  0.42406753200770898E-001  0.36747334799191601E-001  
0.22616386625038596E-001  0.16953452403182245E-001  0.14078250645396358E-001  0.92496309985574038E-001  0.12454866794218613E-001  0.48954665281141846E-002  0.66752968612435160E-003 -0.46512738200886369E-006  0.44777169340686718E-004 -0.11364461292801271E-005 -0.20665441574977636E-004 -0.69305798453892877E-005  0.34206682582647828E-001  </sparseX_slice>
        <sparseX_slice start="101" end="150">  0.32917787405228216E-001  0.93946517815496986E-002 -0.14879947539680328E-002 -0.37796780068186694E-003  0.72649194727346768E-003 -0.29073333063114687E-004 -0.32324725104697529E-003 -0.74426029046315221E-004  0.46046951463861480E-001  0.39602768979731057E-001  0.44390602855915832E-002 -0.74967048789605310E-002  0.78435480152622909E-003  0.49961603042661742E-002  0.24090301032580678E-002  0.57540121082516279E-003  0.73725710849973345E-003  0.35969185739401222E-001  0.32970938403812891E-001  0.72237879650823827E-002 -0.16203533333447419E-002  0.56213502735983295E-002  0.96975472222297007E-002  0.70654925777724848E-002  0.43296038312398300E-002  0.35762444733945711E-002  0.70179027488531665E-002  0.98234146788623595E-002  0.83845365539407506E-002  0.54921164612815555E-002  0.32269971955139749E-002  0.23133112796177697E-002  0.23842568492171545E-002  0.26181885685734232E-002  0.24870336942456757E-002 -0.13317246206251724E-001 -0.17207237199080181E-002 
-0.57300185952830125E-003  0.19576371999863121E-004  0.69350096546477822E-004  0.23936779761863988E-004  0.80960692167695129E-005  0.30722313140740606E-005  0.53414442840477154E-006 -0.49249403994956207E-002 -0.45403799347463036E-002 -0.96064053740097584E-003  0.61193202687431759E-003  0.36342183360816741E-003  0.76244789960489177E-004  </sparseX_slice>
        <sparseX_slice start="151" end="200">  0.46577810078114951E-004  0.18985375653526405E-004 -0.11112354669792234E-004 -0.66296546293274370E-002 -0.53606904519083662E-002 -0.59466055281744280E-004  0.14278563715809385E-002 -0.46712366931983302E-004 -0.75389756285160897E-003 -0.47799240826331915E-003 -0.29665398181833016E-003 -0.27525130186828564E-003 -0.51786985059697217E-002 -0.44086600712206362E-002 -0.68153984885501665E-003 -0.97335639109401471E-004 -0.16805825522215158E-002 -0.21408338868423851E-002 -0.14740695574545120E-002 -0.99603203888387420E-003 -0.81951867420136854E-003 -0.14289346416078458E-002 -0.20589322903005322E-002 -0.18771342313294620E-002 -0.13630393672852568E-002 -0.87793081759273588E-003 -0.59943647886714728E-003 -0.54130430736450087E-003 -0.57390544725551842E-003 -0.55107153325058354E-003  0.14547467263781994E-003  0.21918727691160671E-003  0.21839588702546360E-003  0.17824607573112923E-003  0.12645886674169765E-003  0.85952748017187924E-004  0.71071613013587304E-004  
0.73286145320176834E-004  0.70738459812067598E-004  0.28996829206822776E-002  0.37459592621420627E-003  0.12467560494091941E-003 -0.42849131392498906E-005 -0.15063020306844041E-004 -0.51573598882897710E-005 -0.17214986197663932E-005 -0.64958971553527131E-006 -0.11141813461039494E-006  0.10723512459423902E-002  0.98887567713666418E-003  </sparseX_slice>
        <sparseX_slice start="201" end="250">  0.20977992247748478E-003 -0.13270459010992773E-003 -0.78959440676811706E-004 -0.16580635734935930E-004 -0.10047892934196807E-004 -0.40215511166460971E-005  0.24644656406457129E-005  0.14435338958934609E-002  0.11682137441754331E-002  0.15081515551378749E-004 -0.30913977389658673E-003  0.10371971821836433E-004  0.16330798033532939E-003  0.10332243841703804E-003  0.64355833206483317E-004  0.60010361896357896E-004  0.11276042641663979E-002  0.96031399602711459E-003  0.14939263896379080E-003  0.22016908614947666E-004  0.36538798817654125E-003  0.46422063421516741E-003  0.31893028193766016E-003  0.21579322592496636E-003  0.17825363785641801E-003  0.31113469788494213E-003  0.44802417628005863E-003  0.40794920279506249E-003  0.29570579754556177E-003  0.19016094271854237E-003  0.12982226770125448E-003  0.11740834072890864E-003  0.12458345918284086E-003  0.11959090214358557E-003 -0.44795920785248044E-004 -0.67441875069859775E-004 -0.67109401114156644E-004 
-0.54694262541392396E-004 -0.38765526742366500E-004 -0.26342946113367690E-004 -0.21795021130068033E-004 -0.22484878558985745E-004 -0.21699094688462356E-004  0.68969892924046004E-005  0.10375647402943320E-004  0.10310874941508905E-004  0.83915063765752568E-005  0.59418932405617784E-005  0.40370182157952870E-005  0.33420482510437824E-005  </sparseX_slice>
        <sparseX_slice start="251" end="300">  0.34494425001118943E-005  0.33282454998727037E-005 -0.66438101968931444E-003 -0.85827586057980116E-004 -0.28565213085228409E-004  0.98197184573013999E-006  0.34510213744884855E-005  0.11812776419056365E-005  0.39413440978681685E-006  0.14869337988556383E-006  0.25492096315087622E-007 -0.24569921392532011E-003 -0.22657489887390294E-003 -0.48069450307723310E-004  0.30401786436072988E-004  0.18090220332270666E-004  0.37989237405183137E-005  0.23015259494217448E-005  0.92058251115317628E-006 -0.56500902514634433E-006 -0.33074530834706784E-003 -0.26767038163146858E-003 -0.34707662699401556E-005  0.70817987828816260E-004 -0.23779296460160469E-005 -0.37411296128935248E-004 -0.23667996469512867E-004 -0.14743743529996526E-004 -0.13750374958879239E-004 -0.25835889348088382E-003 -0.22003159468703893E-003 -0.34236249294677440E-004 -0.50508288176031457E-005 -0.83714987822784012E-004 -0.10634949778748328E-003 -0.73059323693255556E-004 -0.49435285590827751E-004 
-0.40840640821008327E-004 -0.71287790250144521E-004 -0.10265011932364004E-003 -0.93464541456465355E-004 -0.67744929948265794E-004 -0.43562874775256451E-004 -0.29740097613540829E-004 -0.26897525910360416E-004 -0.28542047561972781E-004 -0.27397992016102126E-004  0.10263728946688465E-004  0.15452039023896318E-004  0.15375227039021834E-004  </sparseX_slice>
        <sparseX_slice start="301" end="325">  0.12530277799476772E-004  0.88807855939668080E-005  0.60348584286527744E-005  0.49930724974545214E-005  0.51511903560039930E-005  0.49711399887947019E-005 -0.22348133441622050E-005 -0.33619124704085554E-005 -0.33407870557654988E-005 -0.27187799575806628E-005 -0.19250674494150025E-005 -0.13079138944697622E-005 -0.10827771222366346E-005 -0.11175876390838612E-005 -0.10783141262613511E-005  0.36207035211331953E-006  0.54466266306740056E-006  0.54121780638544669E-006  0.44043132650458899E-006  0.31184377174106519E-006  0.21186910157977378E-006  0.17540236944515016E-006  0.18104406564747597E-006  0.17468083457486179E-006  0.00000000000000000E+000  </sparseX_slice>
      </sparseX>
      <sparseX i="10" alpha="1904.2332666540624" sparseCutoff="1.0000000000000000" sliced="T">
        <sparseX_slice start="1" end="50">  0.83060609482652892E+000  0.31925596652584152E-003  0.23282747853826680E-003  0.16146273891260549E-003  0.76010867476908976E-004  0.24240752368001435E-004  0.85708395781488190E-005  0.32292944573732093E-005  0.82461713369865703E-006  0.18730533409733563E+000  0.34033289347069010E-002  0.25654843913351572E-002  0.23078939406272906E-002  0.12791911603422584E-002  0.44475064269785213E-003  0.19208424933147981E-003  0.89598859459891079E-004  0.25532391304444436E-004  0.21119089060285316E-001  0.18755902288831006E-001  0.14652590167126230E-001  0.16883554738524414E-001  0.10995200104466021E-001  0.42228192969887782E-002  0.22145917716985624E-002  0.12608047574500668E-002  0.40275703503536703E-003  0.39925329712684449E+000  0.55740352570507364E-002  0.39017710529926667E-002  0.46453145595901279E-002  0.27572427309968351E-002  0.83770673903595127E-003  0.40381883855264026E-003  0.24559528197013966E-003  0.70390658771415289E-004  0.63663211864249475E-001  
0.46384208465596995E-001  0.34183335098435887E-001  0.49948445579625883E-001  0.34799566646696110E-001  0.12276460145713292E-001  0.71321676275773694E-002  0.50823720256417447E-002  0.16829980468314398E-002  0.95955950877020413E-001  0.64148945594668799E-001  0.46501478105564133E-001  0.78389144054305332E-001  0.58559504397890476E-001  </sparseX_slice>
        <sparseX_slice start="51" end="100">  0.21443244507442356E-001  0.13839891543783959E-001  0.11302349307485726E-001  0.43545058948718006E-002  0.22670917719105729E+000  0.36580734970374052E-003  0.14957723824751701E-003  0.14808899132818119E-002  0.10923085655965212E-002  0.99011821704549555E-004  0.42013207043955384E-004  0.15925970617465396E-003  0.32561469362021060E-004  0.36150069349329676E-001  0.85966892025738893E-002  0.59195673698132032E-002  0.18568138644412275E-001  0.15702997948172454E-001  0.32990446661771097E-002  0.17763680458664432E-002  0.36006125482282696E-002  0.10170193171527119E-002  0.77056184484226395E-001  0.33804199906216297E-001  0.26339855578152487E-001  0.50045259513120346E-001  0.44519557674413707E-001  0.16761594566480808E-001  0.10752766015939646E-001  0.13654548575138608E-001  0.61230698759421574E-002  0.30939485842191188E-001  0.27911563119892006E-001  0.21989172142445848E-001  0.25212465533487050E-001  0.23992977732603327E-001  0.16209152345881606E-001  
0.10633385641156573E-001  0.11015939401903862E-001  0.74671051436221055E-002  0.69863339611088621E-001  0.42633549570462689E-003  0.16754523090712937E-002 -0.31136662993537838E-004 -0.18774017585565223E-004  0.11246091602639906E-004 -0.16252847713840789E-003 -0.30906706023341378E-004 -0.37287301814655852E-004  0.11140107353432039E-001  </sparseX_slice>
        <sparseX_slice start="101" end="150">  0.33964429112846237E-002  0.12320675232901307E-001 -0.15631017100759404E-002 -0.72036882225652251E-003 -0.28714421396881952E-003 -0.28379367397517595E-002 -0.59582831137076117E-003 -0.73223620752717637E-003  0.23745851193396492E-001  0.61856564334646378E-002  0.16111238520896163E-001 -0.69181096812502051E-002 -0.34004533083784412E-002 -0.22555692206483332E-002 -0.74427612147469121E-002 -0.13753673702853477E-002 -0.97914472456657052E-003  0.13483676714749523E-001  0.16093097913074379E-002 -0.37323714496440763E-002 -0.43705246737728186E-002 -0.35777795663699129E-002 -0.75682579145556339E-004 -0.24300571718278334E-002  0.92055053873284492E-003  0.30209853686764716E-002  0.29381473673352160E-002  0.35184842101826722E-003  0.68045222560550031E-002  0.64938198835783091E-002  0.13053647974594241E-002  0.55809920530123123E-002  0.38218102661921097E-002  0.23799851626985676E-002  0.34208836345668739E-002  0.31484147902092525E-003  0.24237356120194706E-004 
-0.11712746732165088E-003  0.58140040602627979E-004  0.34823691472990711E-004  0.18428096318656283E-005  0.12612274757178879E-004  0.41562324152368360E-005  0.28984625251207689E-005  0.50203266765245555E-004  0.29530792546499947E-003 -0.76525558488040111E-003  0.76085589747834105E-003  0.53141864129121878E-003  0.10854278370230370E-003  </sparseX_slice>
        <sparseX_slice start="151" end="200">  0.23885507225739826E-003  0.91321414144258182E-004  0.65342837339221667E-004  0.10701147342737601E-003  0.86338699389020826E-003 -0.63321181132990458E-003  0.20910828574105507E-002  0.15937481418293216E-002  0.60524718546647112E-003  0.73503252070534976E-003  0.31650331435938319E-003  0.19366345278354366E-003  0.60764640556031404E-004  0.77067991385792762E-003  0.86808001881921878E-003  0.12401686580646068E-002  0.12504941509708068E-002  0.59550695794286434E-003  0.45043809150137543E-003  0.23901879937836680E-003  0.63404704497334308E-004  0.18725403056507608E-004  0.40675995084244780E-004 -0.79039452036051415E-003 -0.82818038911951111E-003 -0.28619086756583902E-003 -0.59783524992641952E-003 -0.42562244343940874E-003 -0.17901537998600241E-003 -0.20537538540437195E-003  0.59670376565672721E-007  0.11641734476946675E-004  0.54773824502749378E-004  0.69652823960628327E-004  0.45695642188460235E-004  0.43687876190191538E-004  0.28796306099789020E-004  
0.12250349298985352E-004  0.10164548951153475E-004 -0.96351007547735345E-004 -0.52745010402622647E-005  0.25172070689327431E-004 -0.12712987933537957E-004 -0.76428563119198750E-005 -0.41948302100785316E-006 -0.27224960549482954E-005 -0.91721399078400100E-006 -0.62783825380863515E-006 -0.15363716845891374E-004 -0.64714639600456844E-004  </sparseX_slice>
        <sparseX_slice start="201" end="250">  0.16382667656359909E-003 -0.16621666447201881E-003 -0.11644856171263113E-003 -0.23879248618112306E-004 -0.51656933919867664E-004 -0.20153213423473174E-004 -0.14185820135584291E-004 -0.32748744911117990E-004 -0.19014882041185410E-003  0.13279955497937912E-003 -0.45656641276302904E-003 -0.34872705894506900E-003 -0.13241163037290801E-003 -0.15949930363124527E-003 -0.69917041917044070E-004 -0.42399817818771734E-004 -0.18595816405945937E-004 -0.17074800026571995E-003 -0.19070941139501732E-003 -0.27143060807832361E-003 -0.27331772539826600E-003 -0.13081894929363984E-003 -0.98652505293347748E-004 -0.53415663395193145E-004 -0.14903969390217212E-004 -0.57305392442018040E-005 -0.89694979303079458E-005  0.17046642527627240E-003  0.17875251455451584E-003  0.61972972943436533E-004  0.12851824059008379E-003  0.91855348662262169E-004  0.38363555336611893E-004  0.43779370749672237E-004 -0.25824866965643730E-007 -0.36386614466356119E-005 -0.16770826256152094E-004 
-0.21354295713724696E-004 -0.14055044554841377E-004 -0.13352514474456301E-004 -0.88120204899953134E-005 -0.37525729561258119E-005 -0.30958751768916077E-005  0.55883990698398376E-008  0.56867508425924363E-006  0.25677266529842325E-005  0.32736572888104680E-005  0.21616563751515510E-005  0.20406828350906324E-005  0.13483955627195607E-005  </sparseX_slice>
        <sparseX_slice start="251" end="300">  0.57491071450800452E-006  0.47157439611232535E-006  0.22281406051853242E-004  0.12084834140579334E-005 -0.57650619764313433E-005  0.29132342210539160E-005  0.17516006918933298E-005  0.96248044499320764E-007  0.62361261395239417E-006  0.21024544959597331E-006  0.14382832395322543E-006  0.35528970814280784E-005  0.14830645060532781E-004 -0.37515834260949659E-004  0.38088122132150441E-004  0.26686504105551944E-004  0.54731024779512118E-005  0.11833217919123845E-004  0.46195554332360886E-005  0.32499940912853549E-005  0.75732273239765738E-005  0.43583358856302956E-004 -0.30389993928560610E-004  0.10461918495096112E-003  0.79914020916932880E-004  0.30343198447328707E-004  0.36540980188343447E-004  0.16027009586882904E-004  0.97164911295222267E-005  0.43003280064437109E-005  0.39144043776726930E-004  0.43708474708452711E-004  0.62201349360874292E-004  0.62631057085902253E-004  0.29982164853343269E-004  0.22607823435800691E-004  0.12248877589492852E-004  
0.34229267922146484E-005  0.13252012100950959E-005  0.20559469193775308E-005 -0.39045763290382915E-004 -0.40944726044322089E-004 -0.14196918345230088E-004 -0.29434318043642613E-004 -0.21040157829417621E-004 -0.87854557114446491E-005 -0.10023965784943035E-004  0.59720636217687758E-008  0.83409906806749327E-006  0.38418800617986462E-005  </sparseX_slice>
        <sparseX_slice start="301" end="325">  0.48920713712332709E-005  0.32202176893684960E-005  0.30586317058439620E-005  0.20186318006357628E-005  0.85965687256359978E-006  0.70908617117042582E-006 -0.18276319527083513E-008 -0.18435549798652134E-006 -0.83186819761197143E-006 -0.10606125417921280E-005 -0.70041514855671632E-006 -0.66108293345885473E-006 -0.43683255525600298E-006 -0.18625815351785702E-006 -0.15275100739141344E-006  0.29885469101406451E-009  0.29882575164186587E-007  0.13475047456266952E-006  0.17181075318806567E-006  0.11347349598179079E-006  0.10707952261292386E-006  0.70759168106273815E-007  0.30171737053408007E-007  0.24739337205709944E-007  0.00000000000000000E+000  </sparseX_slice>
      </sparseX>
      <sparseX i="11" alpha="-3981.0812655144296" sparseCutoff="1.0000000000000000" sliced="T">
        <sparseX_slice start="1" end="50">  0.42629177373020843E+000  0.68204835592768629E-004  0.24450744909443917E-004  0.42846963291624794E-004  0.97448350494998357E-005  0.10614167573556411E-004  0.96160844713470559E-005  0.19641758053007267E-005  0.14641228141378657E-006  0.17939849312422632E+000  0.14370478528791079E-002  0.35408312668777821E-003  0.79070115858609531E-003  0.18898351354097913E-003  0.29711660849871343E-003  0.30327056553811988E-003  0.67531846784586001E-004  0.41973095805651464E-005  0.37748581275241271E-001  0.15360011429743045E-001  0.26219306813018029E-002  0.73771062022103444E-002  0.18693168318153683E-002  0.42220539030550664E-002  0.48110406054758404E-002  0.11743938974548324E-002  0.61777660080189199E-004  0.51026538448762992E+000  0.43340082801133486E-002  0.32467620707583340E-003  0.13595658824992636E-002  0.22907902334248477E-003  0.93593792434810280E-003  0.10718179283089730E-002  0.25317214279702385E-003  0.11757182422335913E-006  0.15184236118396444E+000  
0.65578827692732752E-001  0.34489694750636001E-002  0.18747790576664231E-001  0.33473564114978090E-002  0.19287848598132564E-001  0.24378995537173213E-001  0.64245612992932036E-002  0.37621481537517181E-004  0.30539032025878621E+000  0.14000398259407543E+000  0.23609276720541576E-002  0.27825895536642938E-001  0.34963282578332373E-002  </sparseX_slice>
        <sparseX_slice start="51" end="100">  0.46573931942380152E-001  0.63901025213588258E-001  0.19146817730593443E-001  0.43098370809827562E-003  0.38986897348945976E+000  0.36201858405589507E-002 -0.62796803016236774E-003 -0.15669887272590335E-003 -0.24323878741329045E-003  0.77802668791567074E-003  0.10292253780490495E-002  0.25693118576812664E-003 -0.17872366474454618E-004  0.11601536629111303E+000  0.54636937042538296E-001 -0.65563070971442631E-002 -0.38769257955009832E-003 -0.31628361277272121E-002  0.16589522695361538E-001  0.23792477021710425E-001  0.67391795486699798E-002 -0.29879911389961206E-003  0.32998396171597338E+000  0.16492744602135825E+000 -0.58633367427656131E-002  0.11060978919479136E-001 -0.26337577620561725E-002  0.60933804470588923E-001  0.91670167693416751E-001  0.30841239128487598E-001  0.11359372258542017E-002  0.17827908706716150E+000  0.97191203262585527E-001  0.85596520262427259E-002  0.17280576517527523E-001  0.46066219054512556E-002  0.43345779816777168E-001  
0.68499999026914421E-001  0.26583570689740613E-001  0.26422572841906435E-002 -0.48929016761018386E-001 -0.40681385576593783E-003  0.13166012818484668E-004 -0.67583020143531760E-004  0.12221586705427502E-004 -0.14089156387007637E-003 -0.16951839620652751E-003 -0.43770259231493967E-004 -0.12989395624637352E-005 -0.14560065529161743E-001  </sparseX_slice>
