<GAP_2025_3_3_-480_19_4_59_951>
<Potential label="GAP_2025_3_3_-480_19_4_59_951" init_args="IP GAP label=GAP_2025_3_3_-480_19_4_59_951"/>
<GAP_params label="GAP_2025_3_3_-480_19_4_59_951" gap_version="1686220958">
  <GAP_data do_core="F">
    <e0 Z="1" value="-4.1048137599999999"/>
    <e0 Z="2" value="-4.1048137599999999"/>
    <e0 Z="3" value="-4.1048137599999999"/>
    <e0 Z="4" value="-4.1048137599999999"/>
    <e0 Z="5" value="-4.1048137599999999"/>
    <e0 Z="6" value="-4.1048137599999999"/>
    <e0 Z="7" value="-4.1048137599999999"/>
    <e0 Z="8" value="-4.1048137599999999"/>
    <e0 Z="9" value="-4.1048137599999999"/>
    <e0 Z="10" value="-4.1048137599999999"/>
    <e0 Z="11" value="-4.1048137599999999"/>
    <e0 Z="12" value="-4.1048137599999999"/>
    <e0 Z="13" value="-4.1048137599999999"/>
    <e0 Z="14" value="-4.1048137599999999"/>
    <e0 Z="15" value="-4.1048137599999999"/>
    <e0 Z="16" value="-4.1048137599999999"/>
    <e0 Z="17" value="-4.1048137599999999"/>
    <e0 Z="18" value="-4.1048137599999999"/>
    <e0 Z="19" value="-4.1048137599999999"/>
    <e0 Z="20" value="-4.1048137599999999"/>
    <e0 Z="21" value="-4.1048137599999999"/>
    <e0 Z="22" value="-4.1048137599999999"/>
    <e0 Z="23" value="-4.1048137599999999"/>
    <e0 Z="24" value="-4.1048137599999999"/>
    <e0 Z="25" value="-4.1048137599999999"/>
    <e0 Z="26" value="-4.1048137599999999"/>
    <e0 Z="27" value="-4.1048137599999999"/>
    <e0 Z="28" value="-4.1048137599999999"/>
    <e0 Z="29" value="-4.1048137599999999"/>
    <e0 Z="30" value="-4.1048137599999999"/>
    <e0 Z="31" value="-4.1048137599999999"/>
    <e0 Z="32" value="-4.1048137599999999"/>
    <e0 Z="33" value="-4.1048137599999999"/>
    <e0 Z="34" value="-4.1048137599999999"/>
    <e0 Z="35" value="-4.1048137599999999"/>
    <e0 Z="36" value="-4.1048137599999999"/>
    <e0 Z="37" value="-4.1048137599999999"/>
    <e0 Z="38" value="-4.1048137599999999"/>
    <e0 Z="39" value="-4.1048137599999999"/>
    <e0 Z="40" value="-4.1048137599999999"/>
    <e0 Z="41" value="-4.1048137599999999"/>
    <e0 Z="42" value="-4.1048137599999999"/>
    <e0 Z="43" value="-4.1048137599999999"/>
    <e0 Z="44" value="-4.1048137599999999"/>
    <e0 Z="45" value="-4.1048137599999999"/>
    <e0 Z="46" value="-4.1048137599999999"/>
    <e0 Z="47" value="-4.1048137599999999"/>
    <e0 Z="48" value="-4.1048137599999999"/>
    <e0 Z="49" value="-4.1048137599999999"/>
    <e0 Z="50" value="-4.1048137599999999"/>
    <e0 Z="51" value="-4.1048137599999999"/>
    <e0 Z="52" value="-4.1048137599999999"/>
    <e0 Z="53" value="-4.1048137599999999"/>
    <e0 Z="54" value="-4.1048137599999999"/>
    <e0 Z="55" value="-4.1048137599999999"/>
    <e0 Z="56" value="-4.1048137599999999"/>
    <e0 Z="57" value="-4.1048137599999999"/>
    <e0 Z="58" value="-4.1048137599999999"/>
    <e0 Z="59" value="-4.1048137599999999"/>
    <e0 Z="60" value="-4.1048137599999999"/>
    <e0 Z="61" value="-4.1048137599999999"/>
    <e0 Z="62" value="-4.1048137599999999"/>
    <e0 Z="63" value="-4.1048137599999999"/>
    <e0 Z="64" value="-4.1048137599999999"/>
    <e0 Z="65" value="-4.1048137599999999"/>
    <e0 Z="66" value="-4.1048137599999999"/>
    <e0 Z="67" value="-4.1048137599999999"/>
    <e0 Z="68" value="-4.1048137599999999"/>
    <e0 Z="69" value="-4.1048137599999999"/>
    <e0 Z="70" value="-4.1048137599999999"/>
    <e0 Z="71" value="-4.1048137599999999"/>
    <e0 Z="72" value="-4.1048137599999999"/>
    <e0 Z="73" value="-4.1048137599999999"/>
    <e0 Z="74" value="-4.1048137599999999"/>
    <e0 Z="75" value="-4.1048137599999999"/>
    <e0 Z="76" value="-4.1048137599999999"/>
    <e0 Z="77" value="-4.1048137599999999"/>
    <e0 Z="78" value="-4.1048137599999999"/>
    <e0 Z="79" value="-4.1048137599999999"/>
    <e0 Z="80" value="-4.1048137599999999"/>
    <e0 Z="81" value="-4.1048137599999999"/>
    <e0 Z="82" value="-4.1048137599999999"/>
    <e0 Z="83" value="-4.1048137599999999"/>
    <e0 Z="84" value="-4.1048137599999999"/>
    <e0 Z="85" value="-4.1048137599999999"/>
    <e0 Z="86" value="-4.1048137599999999"/>
    <e0 Z="87" value="-4.1048137599999999"/>
    <e0 Z="88" value="-4.1048137599999999"/>
    <e0 Z="89" value="-4.1048137599999999"/>
    <e0 Z="90" value="-4.1048137599999999"/>
    <e0 Z="91" value="-4.1048137599999999"/>
    <e0 Z="92" value="-4.1048137599999999"/>
    <e0 Z="93" value="-4.1048137599999999"/>
    <e0 Z="94" value="-4.1048137599999999"/>
    <e0 Z="95" value="-4.1048137599999999"/>
    <e0 Z="96" value="-4.1048137599999999"/>
    <e0 Z="97" value="-4.1048137599999999"/>
    <e0 Z="98" value="-4.1048137599999999"/>
    <e0 Z="99" value="-4.1048137599999999"/>
    <e0 Z="100" value="-4.1048137599999999"/>
    <e0 Z="101" value="-4.1048137599999999"/>
    <e0 Z="102" value="-4.1048137599999999"/>
    <e0 Z="103" value="-4.1048137599999999"/>
    <e0 Z="104" value="-4.1048137599999999"/>
    <e0 Z="105" value="-4.1048137599999999"/>
    <e0 Z="106" value="-4.1048137599999999"/>
    <e0 Z="107" value="-4.1048137599999999"/>
    <e0 Z="108" value="-4.1048137599999999"/>
    <e0 Z="109" value="-4.1048137599999999"/>
    <e0 Z="110" value="-4.1048137599999999"/>
    <e0 Z="111" value="-4.1048137599999999"/>
    <e0 Z="112" value="-4.1048137599999999"/>
    <e0 Z="113" value="-4.1048137599999999"/>
    <e0 Z="114" value="-4.1048137599999999"/>
    <e0 Z="115" value="-4.1048137599999999"/>
    <e0 Z="116" value="-4.1048137599999999"/>
    <e0 Z="117" value="-4.1048137599999999"/>
    <e0 Z="118" value="-4.1048137599999999"/>
  </GAP_data>
  <gpSparse label="GAP_2025_3_3_-480_19_4_59_951" n_coordinate="1" fitted="T">
    <gpCoordinates label="GAP_2025_3_3_-480_19_4_59_9511" dimensions="325" signal_variance=".20000000000000001" signal_mean=".00000000000000000E+000" sparsified="T" n_permutations="1" covariance_type="2" zeta="4.0000000000000000" n_sparseX="200">
      <descriptor> soap l_max=8 n_max=8 atom_sigma=0.5 cutoff=4.0 radial_scaling=-0.5 cutoff_transition_width=1.0 central_weight=1.0 n_sparse=200 delta=0.2 covariance_type=dot_product zeta=4 sparse_method=cur_points } n_species=1 Z=74 species_Z={74 }</descriptor>
      <permutation i="1">1  </permutation>
      <sparseX i="1" alpha="5738.9444206083763" sparseCutoff="1.0000000000000000" sliced="T">
        <sparseX_slice start="1" end="50">  0.54562092338896662E+000  0.18587625837355284E-004  0.32587698635243681E-005  0.21865967788065345E-005  0.47464058736225070E-005  0.46942403881420943E-005  0.20753196224042309E-005  0.37200400021894378E-006  0.99051227190830244E-007  0.10613573547876756E+000  0.50954190429699413E-003  0.80462411686224353E-004  0.59576446649649564E-004  0.14573645597654381E-003  0.16036158306287785E-003  0.78455039260550249E-004  0.15123306714597335E-004  0.41057969556956629E-005  0.10322912724507435E-001  0.70461000264244534E-002  0.10178199859898704E-002  0.83227669434739887E-003  0.22595487203743085E-002  0.27529910029695562E-002  0.14919438232171922E-002  0.31315229982819604E-003  0.87280290281694655E-004  0.42645893173537658E+000  0.18804583613911186E-002  0.19756600157150292E-003  0.18635891647097357E-003  0.47107864816654154E-003  0.63078465393595889E-003  0.37992938522939552E-003  0.83302154252850466E-004  0.21118022465439282E-004  0.58658754093547864E-001  
0.37316950948900460E-001  0.37981137505351554E-002  0.40836893100330406E-002  0.10654721895646976E-001  0.15559843488056667E-001  0.10409557122382639E-001  0.25600937972457645E-002  0.68816262149340034E-003  0.16666078284467437E+000  0.10174309970951712E+000  0.94251129057888981E-002  0.14311577699672774E-001  0.27859005751268495E-001  </sparseX_slice>
        <sparseX_slice start="51" end="100">  0.46350722984051955E-001  0.38444876269835518E-001  0.11743618089144932E-001  0.33646778700135559E-002  0.50240081827110050E+000  0.19871965768660260E-002  0.69594226142747809E-004  0.16182071960720544E-003  0.35261444304151223E-003  0.62795355287868153E-003  0.48624861030693145E-003  0.12433211568919068E-003  0.28615973242970969E-004  0.69104440925740473E-001  0.40017181939598322E-001  0.17803561333500225E-002  0.41865390583677832E-002  0.84473050552044630E-002  0.15809465632550989E-001  0.13549058609935150E-001  0.39245269578150697E-002  0.99996274289360955E-003  0.27766525499092831E+000  0.15954164920257380E+000  0.12500931533944810E-001  0.29642684389526424E-001  0.37265275245430093E-001  0.71331148080201676E-001  0.74469124385509844E-001  0.27024061568008774E-001  0.80596190137252367E-002  0.23130214713149269E+000  0.13017535200112954E+000  0.15005143073769017E-001  0.37302135281185679E-001  0.31512869756886358E-001  0.59809657009943222E-001  
0.75444634566748089E-001  0.32110775812056347E-001  0.10638362615761461E-001 -0.78916176799248439E-002 -0.16046249673461009E-003 -0.82752866541523537E-004 -0.84949908412884123E-005 -0.17533682176917382E-003 -0.20495083394345153E-003 -0.52201505002716623E-004  0.81002108814339993E-005 -0.15896397916879242E-005 -0.10854795771383903E-002  </sparseX_slice>
        <sparseX_slice start="101" end="150"> -0.31639666860350498E-002 -0.15575168289277341E-002  0.52350602311498032E-004 -0.38442998227603354E-002 -0.49280036447912528E-002 -0.13048444794489097E-002  0.27157582670336074E-003 -0.10835095565865534E-005 -0.43615136673699467E-002 -0.10334701595974705E-001 -0.29727606650725162E-002  0.38125330270852740E-002 -0.11606067627770085E-001 -0.18168764594036255E-001 -0.44327626392309709E-002  0.22621093249902209E-002  0.94306641663861814E-003 -0.51381923845997346E-002 -0.77016912579304427E-002  0.19387522315328109E-002  0.96843047326203822E-002 -0.55236516397264212E-002 -0.14942183407136708E-001 -0.24571870772744650E-002  0.45528828060162306E-002  0.30681605150936881E-002  0.57070419165088897E-004  0.31410377900849963E-002  0.30989105627017783E-002  0.22141297611509739E-002  0.61968254166127083E-002  0.69420408530095016E-002  0.27966862130432237E-002  0.10263337921802705E-002  0.14644515045423917E-002  0.57301732424146030E-002  0.40913778881139170E-004  
0.12644697429363919E-004  0.76518425072276252E-005  0.36495894392608920E-004  0.38689201839971659E-004  0.11310206908695737E-004 -0.53925324785618746E-006  0.50678897149000917E-006  0.78817630052310881E-003  0.84052966585332085E-003  0.24540869988311004E-003  0.10284456336284740E-003  0.79391805797428597E-003  0.92665457939035000E-003  </sparseX_slice>
        <sparseX_slice start="151" end="200">  0.27868992226385192E-003 -0.25870537577813632E-004  0.80300573222396921E-005  0.31669335650617672E-002  0.31010677031585417E-002  0.39160546502225969E-003 -0.46231195951111675E-003  0.23587995790131100E-002  0.33709922494335864E-002  0.90734632818792699E-003 -0.34522770800578706E-003 -0.11213399266256505E-003  0.37308868359791458E-002  0.29632337685163951E-002 -0.57721775403438700E-003 -0.17509803445233448E-002  0.11456778168217171E-002  0.27386984166216195E-002  0.49176120882077844E-003 -0.79010182950994086E-003 -0.45073890418066394E-003 -0.58604069591153197E-004 -0.88177085288768673E-003 -0.88839627687395991E-003 -0.64091818657065094E-003 -0.16172460475060821E-002 -0.17792164157354319E-002 -0.72467814504614141E-003 -0.27687521286583753E-003 -0.35221361589020443E-003  0.30089466862945695E-004  0.13814794313630284E-003  0.13932916804351318E-003  0.10891342097962400E-003  0.22384866256521880E-003  0.23707015336926334E-003  0.10560998320958120E-003  
0.49129623485384581E-004  0.50886003602571793E-004 -0.12591367945694891E-002 -0.89634309921220102E-005 -0.27608355044194367E-005 -0.16719094995177820E-005 -0.79665380020976988E-005 -0.84485630045097909E-005 -0.24748110975658772E-005  0.11515713500673855E-006 -0.11111642265776430E-006 -0.17319228208502035E-003 -0.18410777066227299E-003  </sparseX_slice>
        <sparseX_slice start="201" end="250"> -0.53578407951597343E-004 -0.22506958462066585E-004 -0.17330893525680123E-003 -0.20236328051172152E-003 -0.61009370415618505E-004  0.55656205749529925E-005 -0.17704067699750960E-005 -0.69589564032903250E-003 -0.67939225738001998E-003 -0.85648035568617608E-004  0.10031151862426320E-003 -0.51509640880474216E-003 -0.73637830630959389E-003 -0.19919036716391681E-003  0.74758423694654114E-004  0.24310534938705799E-004 -0.81981760285780646E-003 -0.64973625866388495E-003  0.12554620994641567E-003  0.38096655514791239E-003 -0.25063938160843857E-003 -0.59872570597565081E-003 -0.10918190011204097E-003  0.17138760166884469E-003  0.98010443943456763E-004  0.12877540907059512E-004  0.19240770602400794E-003  0.19368005532465409E-003  0.13958858842214993E-003  0.35273512741461132E-003  0.38820596716077592E-003  0.15803239758417260E-003  0.60239932933257845E-004  0.76709148313225986E-004 -0.93504960993542004E-005 -0.42650624057998975E-004 -0.42949436776741055E-004 
-0.33557212394136896E-004 -0.69049440328458465E-004 -0.73149260721372687E-004 -0.32566360537101773E-004 -0.15118173357623023E-004 -0.15667660500875457E-004  0.14528635170287417E-005  0.65838393755085583E-005  0.66197753916134678E-005  0.51696476180401182E-005  0.10649674569964861E-004  0.11285315913192995E-004  0.50211806019130123E-005  </sparseX_slice>
        <sparseX_slice start="251" end="300">  0.23260906497994029E-005  0.24120201862318474E-005  0.28858286290245707E-003  0.20541375655318691E-005  0.63262684320803770E-006  0.38311618524890506E-006  0.18254642641852623E-005  0.19359402599122685E-005  0.56712639362554639E-006 -0.26368069357715782E-007  0.25465073593113113E-007  0.39694118075386589E-004  0.42191463019506643E-004  0.12277101496095209E-004  0.51577123652530211E-005  0.39712323274922736E-004  0.46370469172750473E-004  0.13981087955263792E-004 -0.12747018961908828E-005  0.40580572593247878E-006  0.15949304081464333E-003  0.15569548481393443E-003  0.19626753039140421E-004 -0.22980990467258659E-004  0.11803147198472598E-003  0.16873880781935314E-003  0.45651216190577796E-004 -0.17125759296222589E-004 -0.55692958548716272E-005  0.18789484344425511E-003  0.14890330465907375E-003 -0.28764464538530063E-004 -0.87285890043291864E-004  0.57436022468838520E-004  0.13719964463400209E-003  0.25031835408520909E-004 -0.39263916893891548E-004 
-0.22455399094520629E-004 -0.29514169057170274E-005 -0.44088057393194976E-004 -0.44378304227177854E-004 -0.31983178776213555E-004 -0.80824089886486923E-004 -0.88952783855273589E-004 -0.36210611846325938E-004 -0.13801984365586038E-004 -0.17575936449871288E-004  0.21430498620545031E-005  0.97730569077394523E-005  0.98410345706903752E-005  </sparseX_slice>
        <sparseX_slice start="301" end="325">  0.76888660492046815E-005  0.15821690845708795E-004  0.16761265394720046E-004  0.74620364073923104E-005  0.34638408732122395E-005  0.35898043588662875E-005 -0.47090948558700697E-006 -0.21335329579507852E-005 -0.21450703883539951E-005 -0.16751448876763168E-005 -0.34509930355653334E-005 -0.36570054151426485E-005 -0.16270805523488692E-005 -0.75370308282356128E-006 -0.78156048833587979E-006  0.76316784411151465E-007  0.34569213001475178E-006  0.34754404059779244E-006  0.27140248292672770E-006  0.55914163706502092E-006  0.59252610793876830E-006  0.26362237778576009E-006  0.12210795376968265E-006  0.12662348388344696E-006  0.00000000000000000E+000  </sparseX_slice>
      </sparseX>
      <sparseX i="2" alpha="-1893.2676180044245" sparseCutoff="1.0000000000000000" sliced="T">
        <sparseX_slice start="1" end="50">  0.54657700412791721E+000  0.19391732426043224E-004  0.97730625672092442E-005  0.60421503116104721E-005  0.36343087214975453E-005  0.21135811399016380E-005  0.14323809146529979E-005  0.68497312973804431E-006  0.24544934010233514E-006  0.89785683205188038E-001  0.49688687440055173E-003  0.24739699583518806E-003  0.17236864274449811E-003  0.11487879095046640E-003  0.71075401485872806E-004  0.51028512581190654E-004  0.26475402826944527E-004  0.98602462960144879E-005  0.73745042763779817E-002  0.64008987570560259E-002  0.31587374467982932E-002  0.24793916655314534E-002  0.18238365228857398E-002  0.12068656947663364E-002  0.91753385302762911E-003  0.51622535260176336E-003  0.20040445608914223E-003  0.37674916507760409E+000  0.15928536009806205E-002  0.63331056008621752E-003  0.54408343599308333E-003  0.43655219455427161E-003  0.28973043967589658E-003  0.20381015016432777E-003  0.12304380547654200E-003  0.45244176972774525E-004  0.43761584313331277E-001  
0.29580534180075096E-001  0.11800436565385430E-001  0.11250739837842590E-001  0.98920360056802565E-002  0.72262340605629537E-002  0.53891236113998917E-002  0.35041610420027186E-002  0.13638519037739256E-002  0.12984440647401724E+000  0.72862016969124657E-001  0.24783944277365202E-001  0.27018232042597682E-001  0.27882270827702966E-001  </sparseX_slice>
        <sparseX_slice start="51" end="100">  0.25015562474615654E-001  0.18456516235982125E-001  0.13289006966878869E-001  0.55101424424643212E-002  0.53931924267545661E+000  0.14321696595172803E-002  0.26244764630859206E-003  0.37924346447276475E-003  0.39256367394727550E-003  0.32063145641105168E-003  0.20589933974611921E-003  0.14947907768311048E-003  0.51343307257847088E-004  0.62645034675212763E-001  0.27584706155033858E-001  0.57214822907054865E-002  0.79470118285275022E-002  0.89707649354520309E-002  0.84731617100467643E-002  0.57972938990433877E-002  0.44602796675166289E-002  0.16702250176608574E-002  0.26286445307997858E+000  0.10712205878056494E+000  0.25968325433132433E-001  0.30126477649877897E-001  0.38963131189021047E-001  0.50850840561300917E-001  0.34931195288481924E-001  0.27664860520608518E-001  0.11956428609565646E-001  0.26607892696118246E+000  0.91457881118336234E-001  0.27143664733123997E-001  0.21724432695747992E-001  0.34045556467201255E-001  0.64941863660467378E-001  
0.42438541910789294E-001  0.34116203248095639E-001  0.16355621869191317E-001  0.15864551014010203E+000 -0.11220120409113563E-003 -0.26111427385462198E-003 -0.23622768354040918E-003 -0.20407007870905258E-003 -0.50414236004541148E-004 -0.65495883641609288E-004 -0.24470587383263351E-004 -0.15186995632402456E-004  0.18427589259547454E-001  </sparseX_slice>
        <sparseX_slice start="101" end="150"> -0.14870384642594707E-002 -0.43131182841578677E-002 -0.51555765619655403E-002 -0.46670430216113352E-002 -0.82818735348353701E-003 -0.14447632291186248E-002 -0.47710466944950311E-003 -0.32153519169085423E-003  0.77323896417445429E-001  0.15219470096441204E-002 -0.63283850787932911E-002 -0.16621680940482018E-001 -0.15190901767648668E-001  0.58727593836181893E-002 -0.45225395886705651E-003  0.17485788922922290E-002  0.99490219907064602E-003  0.11068973503360555E+000  0.12629254780761469E-001  0.10030125196242596E-001 -0.65646618020715180E-002 -0.15475245119477234E-002  0.31387389080526587E-001  0.14958237408691804E-001  0.12396810210978647E-001  0.79098748344030630E-002  0.23023652383409615E-001  0.49476263566042870E-002  0.96134027519286982E-002  0.13100736964474387E-001  0.19048462247520083E-001  0.22520200631152891E-001  0.14887505623878975E-001  0.98795933377186177E-002  0.65510755744260093E-002 -0.21449409156177913E-001  0.47541571021865918E-004  
0.56724976577323201E-004  0.44904049307882974E-004  0.32100944883104580E-004  0.86576441217238068E-005  0.12621349997156015E-004  0.36927504749742486E-005  0.27727780676985655E-005 -0.24914723488925882E-002  0.77336624388618799E-003  0.97395095506013678E-003  0.96857753368474883E-003  0.73797976482793519E-003  0.14133261484870999E-003  </sparseX_slice>
        <sparseX_slice start="151" end="200">  0.27626269635599494E-003  0.71159841990800921E-004  0.59936377257391271E-004 -0.10454452132575429E-001  0.14646616748900058E-002  0.17998404871718346E-002  0.29589828563714310E-002  0.24324365205355592E-002 -0.96805018845716288E-003  0.10379446304614044E-003 -0.29222696509884446E-003 -0.14858978184034615E-003 -0.14965626282319695E-001 -0.50095529942900305E-003 -0.12028674945679314E-002  0.92285432754390061E-003  0.39738768628032632E-003 -0.50916676232468580E-002 -0.25499519008215970E-002 -0.19147195815209218E-002 -0.12854437063394338E-002 -0.44022709153610784E-002 -0.12519649135718167E-002 -0.25226865835304654E-002 -0.33592544749729948E-002 -0.40690146750080045E-002 -0.50294971603554511E-002 -0.34398798688687151E-002 -0.20681863003960696E-002 -0.14922323948768604E-002  0.42087130420277941E-003  0.17923086120155064E-003  0.35490151115389175E-003  0.45594607153932838E-003  0.44422995855369397E-003  0.56788319069695739E-003  0.41224540944223055E-003  
0.22826668907574958E-003  0.17960502392481143E-003  0.46285978568969561E-002 -0.10442731354990879E-004 -0.12375407929184970E-004 -0.97822590788191083E-005 -0.69620538873190518E-005 -0.18871587808455607E-005 -0.27543609286741340E-005 -0.80452817121680857E-006 -0.60443381168006436E-006  0.53763828600755543E-003 -0.17012651128388856E-003  </sparseX_slice>
        <sparseX_slice start="201" end="250"> -0.21262840285045682E-003 -0.21093378934400737E-003 -0.16006679240116305E-003 -0.30879288820471954E-004 -0.60312343283059810E-004 -0.15545665137272508E-004 -0.13085696346494489E-004  0.22559807770711105E-002 -0.32543712091780304E-003 -0.39441936835070987E-003 -0.64389399833024625E-003 -0.52772198285872072E-003  0.20884535351459085E-003 -0.23611119457960960E-004  0.62617518022650099E-004  0.31858170732496878E-004  0.32294533258746851E-002  0.10151403922362531E-003  0.25817423227056580E-003 -0.20055256144675552E-003 -0.86915281053545553E-004  0.11022293211980375E-002  0.55230018582628040E-003  0.41355615256799733E-003  0.27833762995320058E-003  0.94997216827537854E-003  0.27202742221275102E-003  0.54819173122545709E-003  0.73009318608358779E-003  0.88160275728847238E-003  0.10896095641050687E-002  0.74609328740932223E-003  0.44745544451014010E-003  0.32361332452304276E-003 -0.12843944783766945E-003 -0.55195595197942062E-004 -0.10923339592931359E-003 
-0.14026957629810900E-003 -0.13617374384647735E-003 -0.17401559126235011E-003 -0.12653661424259815E-003 -0.69906024423043602E-004 -0.55129601761505968E-004  0.19598261506678011E-004  0.84992812812626872E-005  0.16810773801202354E-004  0.21576981658023151E-004  0.20871477452563702E-004  0.26661770374001107E-004  0.19420168257713782E-004  </sparseX_slice>
        <sparseX_slice start="251" end="300">  0.10704457002909017E-004  0.84611260313199822E-005 -0.10602053446062832E-002  0.23933462829354843E-005  0.28356663804565650E-005  0.22413762839098340E-005  0.15949622122476342E-005  0.43240697548672226E-006  0.63113272826551975E-006  0.18433934526243648E-006  0.13849471792142942E-006 -0.12314895394094754E-003  0.38992781388634259E-004  0.48722161946785198E-004  0.48330041806764247E-004  0.36670383497832936E-004  0.70759470890111515E-005  0.13820113327382873E-004  0.35622520091824675E-005  0.29984937176656236E-005 -0.51674458467284255E-003  0.74613634619652251E-004  0.90389212055955930E-004  0.14752799791199368E-003  0.12089908124379810E-003 -0.47836820644400749E-004  0.54174094343449035E-005 -0.14339540864517896E-004 -0.72957340248642794E-005 -0.73972373105324666E-003 -0.23202874917947494E-004 -0.59125692052134350E-004  0.45948362599728483E-004  0.19917359554816323E-004 -0.25249816901550220E-003 -0.12652269127592095E-003 -0.94730139550168373E-004 
-0.63761892874926652E-004 -0.21759625726223416E-003 -0.62323398631477077E-004 -0.12559493660603091E-003 -0.16727108455582177E-003 -0.20196275082248448E-003 -0.24961353615006210E-003 -0.17092536343919751E-003 -0.10250090105232241E-003 -0.74137447098574091E-004  0.29419749407019737E-004  0.12646605931032026E-004  0.25027445004027442E-004  </sparseX_slice>
        <sparseX_slice start="301" end="325">  0.32138005893844633E-004  0.31195919111138078E-004  0.39864618026358825E-004  0.28989393531290488E-004  0.16014204135773670E-004  0.12630129294573621E-004 -0.63485286734136625E-005 -0.27540212693181191E-005 -0.54470863062388167E-005 -0.69913551283862093E-005 -0.67619621792843641E-005 -0.86378067156266701E-005 -0.62920347538603053E-005 -0.34679326465696156E-005 -0.27413616127342207E-005  0.10282497838755267E-005  0.44619263667765006E-006  0.88249210370108596E-006  0.11326664717431480E-005  0.10953736526656176E-005  0.13992263851296576E-005  0.10192934846603702E-005  0.56175465368743828E-006  0.44409358690990777E-006  0.00000000000000000E+000  </sparseX_slice>
      </sparseX>
      <sparseX i="3" alpha="1083.8460965239312" sparseCutoff="1.0000000000000000" sliced="T">
        <sparseX_slice start="1" end="50">  0.73946754643905255E+000  0.90808433377299153E-003  0.20952358644812856E-002  0.11367892499335736E-002  0.19820457469064959E-003  0.13613113920644319E-003  0.27098677674641352E-004  0.47623199656629621E-005  0.18117262906730693E-005  0.33339835462658346E+000  0.56777424889483232E-002  0.15139777082759638E-001  0.95904467420621954E-002  0.20055404618958923E-002  0.17355478024683644E-002  0.43359130664718740E-003  0.95305694725132561E-004  0.43761640263068099E-004  0.75158445697166593E-001  0.18288576928190969E-001  0.54943116170211671E-001  0.40595079031821607E-001  0.10284701242266995E-001  0.11090306621168144E-001  0.34812823671001025E-002  0.95849738031722215E-003  0.52919808825035726E-003  0.45221443667734146E+000  0.81169302520875536E-002  0.21709372410829004E-001  0.14511382547947267E-001  0.32702332512109006E-002  0.28120181639440514E-002  0.69136936600266443E-003  0.17067477225669219E-003  0.68885781401820191E-004  0.14416962161988636E+000  
0.36745870305010503E-001  0.11121964372688645E+000  0.86815610537511356E-001  0.23808623312439589E-001  0.25442712625935428E-001  0.78852022827225806E-002  0.24782809073865117E-002  0.11920144918304723E-002  0.13827374691707317E+000  0.36970813608900463E-001  0.11274806447002297E+000  0.93088068616897474E-001  0.27917592197777778E-001  </sparseX_slice>
        <sparseX_slice start="51" end="100">  0.29636500875723028E-001  0.93657756942185401E-002  0.36840356204955915E-002  0.15997904106076120E-002  0.85202084755100535E-001  0.30461701309679257E-002  0.31857343630567760E-002  0.14622025431131154E-002  0.53331276068189159E-003 -0.25905722764012624E-003 -0.27548061685086594E-003 -0.10906987317948645E-004 -0.60553092066751725E-004  0.27163114054080381E-001  0.10704153943156349E-001  0.14753057182953593E-001  0.80282067168799057E-002  0.37827148766413111E-002 -0.22834710082315301E-002 -0.30299522575070485E-002  0.43316814180364590E-004 -0.97793643027573388E-003  0.36843470130877805E-001  0.16183238346916148E-001  0.22543882694499258E-001  0.13612786389020880E-001  0.79292030591780575E-002 -0.12303996958834152E-002 -0.24360138227399819E-002  0.28202012800297776E-002 -0.14031764669034428E-004  0.49085286308867514E-002  0.12343100160553388E-001  0.85259300237475535E-002  0.60183360021143963E-002  0.55682584484738487E-002  0.71188348613178331E-002  
0.81187695126984337E-002  0.78544709352385330E-002  0.55520619329448616E-002  0.12685605290668608E+000  0.35101429514324714E-002  0.54337422473260157E-002  0.26641694893655573E-002  0.75790665072836294E-003 -0.45618041572165899E-004 -0.26258567004080449E-003 -0.15262401734677578E-004 -0.72641400681670769E-004  0.40442736154393089E-001  </sparseX_slice>
        <sparseX_slice start="101" end="150">  0.12889927470043789E-001  0.26441037735640952E-001  0.15146353987193009E-001  0.52862390604007181E-002 -0.37090586081104488E-003 -0.29155275043530370E-002 -0.27655098446999314E-004 -0.11847395626357277E-002  0.54855667083999950E-001  0.19268556245747304E-001  0.39106070250859937E-001  0.24182492587150873E-001  0.10127595897140707E-001  0.16871299737246006E-002 -0.23972663376974268E-002  0.26255707114451110E-002 -0.30892968857766147E-003  0.10335400237395227E-001  0.18072835329805911E-001  0.13306722681104744E-001  0.90616244646276010E-002  0.76330828137255559E-002  0.91542757869524979E-002  0.10950655609769539E-001  0.10885225558998657E-001  0.82973019681287247E-002  0.10881111846326504E-001  0.13351129074972280E-001  0.11635104606674719E-001  0.75854122998482371E-002  0.55340330611894899E-002  0.60887922830034080E-002  0.74585324741448210E-002  0.75778641693401870E-002  0.62481357502512493E-002 -0.21645179784416001E-001 -0.60300231935904328E-003 
-0.90504480011726403E-003 -0.46169815256380520E-003 -0.12747271173551989E-003  0.92592934299610158E-005  0.41204692842695685E-004  0.27268402974378079E-005  0.11445250947007518E-004 -0.69006584627023422E-002 -0.22391201216691056E-002 -0.43974328289997557E-002 -0.26367068170538473E-002 -0.89083642034981875E-003  0.78812460299930052E-004  </sparseX_slice>
        <sparseX_slice start="151" end="200">  0.45646135078214093E-003  0.88509653425069013E-005  0.18666799605089184E-003 -0.93599063585925978E-002 -0.33371837729853715E-002 -0.65092241178132349E-002 -0.42037990956141445E-002 -0.17052070822499946E-002 -0.24537371870776746E-003  0.36204444697493911E-003 -0.40903137008325492E-003  0.48927589426707950E-004 -0.17635074650074072E-002 -0.30110097518121870E-002 -0.22482382379777469E-002 -0.15153796698468777E-002 -0.12666834922462531E-002 -0.14915631755920153E-002 -0.17613455192849470E-002 -0.17263746857057445E-002 -0.13036221423642139E-002 -0.26256587139309780E-002 -0.31541970756863323E-002 -0.27652319208564058E-002 -0.17940600027431201E-002 -0.12873915580242613E-002 -0.13928872963694218E-002 -0.16894860255185107E-002 -0.16960216837887834E-002 -0.13853801481803802E-002  0.31679132516081719E-003  0.37290908582084700E-003  0.32885024236495737E-003  0.21302263002185535E-003  0.15055687975150427E-003  0.15997649768904475E-003  0.19180523724890251E-003  
0.19010709423523744E-003  0.15382472623233623E-003  0.46961226373653893E-002  0.13083363832115907E-003  0.19624939036657493E-003  0.10021056309246129E-003  0.27644914809988885E-004 -0.20111104900766322E-005 -0.89182009798152589E-005 -0.59211393955480570E-006 -0.24776131122156731E-005  0.14971618966526344E-002  0.48596196255507772E-003  </sparseX_slice>
        <sparseX_slice start="201" end="250">  0.95351713956942955E-003  0.57235776378255219E-003  0.19320275046165025E-003 -0.17131096294860943E-004 -0.98789846179757698E-004 -0.19421832813916312E-005 -0.40409269572635812E-004  0.20307185512893574E-002  0.72422234296083698E-003  0.14114414473174639E-002  0.91248422568156531E-003  0.36979910466495132E-003  0.53068143708437478E-004 -0.78283544073487810E-004  0.88507589444080851E-004 -0.10599603774566755E-004  0.38260931117544794E-003  0.65277444305703904E-003  0.48758856318571996E-003  0.32855497891169541E-003  0.27456069547002432E-003  0.32313451928518260E-003  0.38145665982473566E-003  0.37374289813154541E-003  0.28215671011251018E-003  0.56966102602504405E-003  0.68386600124323987E-003  0.59966656115912264E-003  0.38899874915812794E-003  0.27899828130532243E-003  0.30170965853306271E-003  0.36585828311987991E-003  0.36715346487693480E-003  0.29983861563874801E-003 -0.97200055038422798E-004 -0.11434312101897632E-003 -0.10085526552056613E-003 
-0.65327351364598122E-004 -0.46149009294237859E-004 -0.49010251243084958E-004 -0.58743296569938864E-004 -0.58203171942392180E-004 -0.47084248567002131E-004  0.14911788848189383E-004  0.17530220783068290E-004  0.15465684698749370E-004  0.10016948153999187E-004  0.70728670664786586E-005  0.75073850593203415E-005  0.89955299842584916E-005  </sparseX_slice>
        <sparseX_slice start="251" end="300">  0.89097475322500497E-005  0.72060209363050156E-005 -0.10758627780518696E-002 -0.29973505882531529E-004 -0.44959138959283717E-004 -0.22958141426534173E-004 -0.63332528250657029E-005  0.46075259325670236E-006  0.20429629675597005E-005  0.13565461663692223E-006  0.56756981818356005E-006 -0.34299375925790643E-003 -0.11133313913580260E-003 -0.21844287766423361E-003 -0.13112709581964723E-003 -0.44261429241407665E-004  0.39248921844598990E-005  0.22630535264190950E-004  0.44510937298159958E-006  0.92569283371161291E-005 -0.46522943942054596E-003 -0.16591781475881564E-003 -0.32334964491500265E-003 -0.20904967512508799E-003 -0.84718274475208645E-004 -0.12156460030479261E-004  0.17932464786610052E-004 -0.20274971580389702E-004  0.24282106689177988E-005 -0.87654251861843296E-004 -0.14954430638674629E-003 -0.11170316283260429E-003 -0.75268965568172738E-004 -0.62898812268390888E-004 -0.74025264684853377E-004 -0.87385067898208856E-004 -0.85616934234672751E-004 
-0.64635912432627385E-004 -0.13050704620248536E-003 -0.15666744834190398E-003 -0.13737912517242142E-003 -0.89116254484382045E-004 -0.63915036271643689E-004 -0.69116798061408903E-004 -0.83811486535076077E-004 -0.84107292273373106E-004 -0.68686346363616430E-004  0.22268141042223728E-004  0.26194983034668949E-004  0.23105199483630345E-004  </sparseX_slice>
        <sparseX_slice start="301" end="325">  0.14965980354613603E-004  0.10572208267352054E-004  0.11227490776367394E-004  0.13457046846359606E-004  0.13333164262585594E-004  0.10785965116638708E-004 -0.48312798637839367E-005 -0.56795048075936352E-005 -0.50106642195709214E-005 -0.32453428098137025E-005 -0.22914683572552757E-005 -0.24322012122546888E-005 -0.29142930583036692E-005 -0.28864695831441541E-005 -0.23345001024873997E-005  0.78264470345683154E-006  0.92003333213297917E-006  0.81169235051768027E-006  0.52572149813225187E-006  0.37119510376397725E-006  0.39398556919159538E-006  0.47207357746401134E-006  0.46756132160735768E-006  0.37814841100923095E-006  0.00000000000000000E+000  </sparseX_slice>
      </sparseX>
      <sparseX i="4" alpha="-3228.2675852591601" sparseCutoff="1.0000000000000000" sliced="T">
        <sparseX_slice start="1" end="50">  0.85188609400794790E+000  0.30557655461230901E-002  0.20606195800929464E-002  0.96172250290540756E-003  0.33438150980633904E-003  0.91206866112418487E-004  0.20811075652999420E-004  0.42208495207677316E-005  0.78396029955588423E-006  0.22960869015840654E+000  0.15800751587786745E-001  0.11675342367802880E-001  0.64993412173060686E-002  0.28009689866304228E-002  0.94634763687533659E-003  0.27468796601556276E-003  0.74039169504604513E-004  0.17566614324631717E-004  0.30943192386332845E-001  0.40886742627641290E-001  0.33103747963256706E-001  0.21991942916107881E-001  0.11751339963741548E-001  0.49249795791655362E-002  0.18215836963250930E-002  0.65468694608076421E-003  0.19957280108989344E-003  0.33078649029799495E+000  0.17429235588928019E-001  0.11372283433743451E-001  0.86416102989004991E-002  0.45516197473890333E-002  0.13091636922847743E-002  0.33422066822704535E-003  0.14188118695731175E-003  0.41364112588670590E-004  0.63043390031735702E-001  
0.64478308614293628E-001  0.46152693593550349E-001  0.41934218458070112E-001  0.27413861166781898E-001  0.99926788797785621E-002  0.33656410179424678E-002  0.19243020873197080E-002  0.74658059703692776E-003  0.64222026238782953E-001  0.57668006173172665E-001  0.37702372466142067E-001  0.45563607771133545E-001  0.36160897775296706E-001  </sparseX_slice>
        <sparseX_slice start="51" end="100">  0.14305302618341374E-001  0.61636758423736764E-002  0.49382489163285245E-002  0.26018148900931277E-002  0.20479397220528653E+000  0.51554734158372077E-004 -0.64428648625497664E-002 -0.38028172902657316E-003  0.74906936098920825E-003 -0.59197734049921784E-003 -0.33172552305642039E-003  0.19880450912186136E-004  0.15318935046082427E-004  0.39030935798663666E-001  0.19895940028511463E-002 -0.24477253069859879E-001 -0.55946226933859347E-003  0.53386069242004289E-002 -0.35444063546991723E-002 -0.25636462288001426E-002  0.60873914052657341E-003  0.44246506382168385E-003  0.56230041889874093E-001  0.27191165456286637E-001 -0.45442101195072382E-002  0.16776669757059069E-001  0.22128639576764222E-001  0.85633581745650569E-002  0.70325633335592891E-002  0.85111751683507406E-002  0.53015067728403526E-002  0.24616302194990617E-001  0.45725885501920423E-001  0.44742983414943219E-001  0.28855753585314205E-001  0.23614137839097014E-001  0.24592094065443562E-001  
0.20146290353632561E-001  0.13151259958526652E-001  0.78618750203121642E-002  0.13583417763342392E+000  0.52621934757268113E-002  0.13149337846835880E-002  0.51090790003299096E-003 -0.87116468455201128E-004 -0.29199113813926854E-003 -0.84467532771329416E-004 -0.58580066226682363E-005 -0.11659430005159770E-004  0.25888140209321977E-001  </sparseX_slice>
        <sparseX_slice start="101" end="150">  0.20017649346808390E-001  0.57044951422731581E-002  0.25081570928401514E-002 -0.47679028489738812E-003 -0.20730876310635889E-002 -0.70562896881827780E-003 -0.11470845848463369E-004 -0.15576592217389449E-003  0.37295831591897123E-001  0.32873254230916756E-001  0.12502841304203378E-001  0.51307197708951599E-002  0.54373869253276474E-003 -0.11765349167388774E-002  0.10356248972133422E-002  0.13887070386560646E-002  0.35149810233147825E-003  0.23090306655278552E-001  0.27989872259858807E-001  0.17248536375109036E-001  0.78408278800544597E-002  0.64964274008813862E-002  0.82101490271763583E-002  0.75811509077526110E-002  0.47559421970690971E-002  0.25164774344164213E-002  0.10829454749367242E-001  0.13066775091337001E-001  0.92490577398474175E-002  0.64553523363581359E-002  0.58048936575482331E-002  0.54454833151915526E-002  0.41499479824793090E-002  0.25531973615381641E-002  0.17211834429222046E-002 -0.15184607146829466E-001 -0.67780976038745442E-003 
-0.22586755503214832E-003 -0.96922312298355109E-004 -0.31852126809283959E-004  0.21375683550729211E-004  0.16850209619644176E-004  0.25238205592907898E-005  0.12117087449233373E-006 -0.28939788622378755E-002 -0.25576951677530003E-002 -0.95123883380068407E-003 -0.47511996679926031E-003 -0.20274603657625826E-003  0.13349485227755404E-003  </sparseX_slice>
        <sparseX_slice start="151" end="200">  0.13608793608107763E-003  0.14264486302207561E-004 -0.71739326837613057E-005 -0.41692198591256283E-002 -0.39241720457836426E-002 -0.16681725651182574E-002 -0.88816686149831314E-003 -0.60610412037333066E-003 -0.25000189296662054E-003 -0.26109095788559626E-003 -0.33119585476259480E-003 -0.21926022512194445E-003 -0.25812151372273801E-002 -0.28631219475150536E-002 -0.16645383021396522E-002 -0.95496649379834826E-003 -0.10132713300910585E-002 -0.13353336791123189E-002 -0.13495262480004168E-002 -0.96754566481347000E-003 -0.57035508234272827E-003 -0.17120486100477906E-002 -0.20612774118788425E-002 -0.14592360214115490E-002 -0.97408245199362355E-003 -0.77959457170949267E-003 -0.70607101273548016E-003 -0.58304114666713641E-003 -0.38986726569072768E-003 -0.24513367210856615E-003  0.13533047189369498E-003  0.16487005045618389E-003  0.11771180480400203E-003  0.77339888415147004E-004  0.61202228112889283E-004  0.60343111632263317E-004  0.59808308519109458E-004  
0.47511415493867691E-004  0.30402192039771171E-004  0.32860141240278079E-002  0.14622694620991490E-003  0.48614393036976797E-004  0.21264036205736897E-004  0.71299817235586498E-005 -0.45979923416058326E-005 -0.36463435544311918E-005 -0.53594235582651224E-006 -0.22473113160514363E-007  0.62626944009790836E-003  0.55183106323367700E-003  </sparseX_slice>
        <sparseX_slice start="201" end="250">  0.20481821654460178E-003  0.10429822129307487E-003  0.45352780685292984E-004 -0.28626867355382656E-004 -0.29417753284619465E-004 -0.29409451367538173E-005  0.16249748632886888E-005  0.90223706222947056E-003  0.84729642611277363E-003  0.36018897415181461E-003  0.19530595223152248E-003  0.13451391905011220E-003  0.55340277768815255E-004  0.57071505565473447E-004  0.72300644200573510E-004  0.47871966833568070E-004  0.55858602834216642E-003  0.61938769281562789E-003  0.36066100148559297E-003  0.20833021265617848E-003  0.22123239744045075E-003  0.29039998251909505E-003  0.29296952105493723E-003  0.21004460428460748E-003  0.12392552526658345E-003  0.37049466339429677E-003  0.44542139249880217E-003  0.31454671855903884E-003  0.20954424912382255E-003  0.16763685036716466E-003  0.15203324346038086E-003  0.12572476870165224E-003  0.84038193453735206E-004  0.52729846467831222E-004 -0.41416792236351748E-004 -0.50374638542729064E-004 -0.35875655450315969E-004 
-0.23551084170698798E-004 -0.18666850507539068E-004 -0.18439662194223481E-004 -0.18293164877460503E-004 -0.14528530383496879E-004 -0.92898457155053241E-005  0.63376365098932448E-005  0.76957898440298394E-005  0.54671306573716826E-005  0.35861249737702013E-005  0.28470508666205449E-005  0.28176123181591502E-005  0.27977447710645183E-005  </sparseX_slice>
        <sparseX_slice start="251" end="300">  0.22214665182609307E-005  0.14194406102377916E-005 -0.75275086729425936E-003 -0.33493907183867001E-004 -0.11134493230007500E-004 -0.48732467101301589E-005 -0.16350777931845702E-005  0.10530838734654617E-005  0.83529248244413676E-006  0.12269614272447553E-006  0.51199856343447591E-008 -0.14346404074969254E-003 -0.12639961815914612E-003 -0.46911533092360063E-004 -0.23903289891889835E-004 -0.10400268983204361E-004  0.65557808320291836E-005  0.67386885872838244E-005  0.67261726451212996E-006 -0.37278816056196214E-006 -0.20668192693760660E-003 -0.19408215789334826E-003 -0.82505085196786932E-004 -0.44763134016631537E-004 -0.30838968012458282E-004 -0.12686445732087072E-004 -0.13078034792890980E-004 -0.16567119538417626E-004 -0.10969551552166087E-004 -0.12795931527452656E-003 -0.14188603670609398E-003 -0.82622524359832772E-004 -0.47736151640077189E-004 -0.50693822261984993E-004 -0.66534584754799280E-004 -0.67119517324207065E-004 -0.48121401092231452E-004 
-0.28392267750299639E-004 -0.84871874761178459E-004 -0.10203107863873963E-003 -0.72046306773042442E-004 -0.47992526392154573E-004 -0.38393803249608947E-004 -0.34821639713369067E-004 -0.28797332289417792E-004 -0.19248779154334475E-004 -0.12076846904570811E-004  0.94876422010765825E-005  0.11539069697577244E-004  0.82171904750452495E-005  </sparseX_slice>
        <sparseX_slice start="301" end="325">  0.53941405568636931E-005  0.42756762268367774E-005  0.42238966303959584E-005  0.41904671170148756E-005  0.33280685268422052E-005  0.21279870157528482E-005 -0.20531664714796105E-005 -0.24930275949702297E-005 -0.17709172896103641E-005 -0.11615903124005310E-005 -0.92224354263152788E-006 -0.91276216027007363E-006 -0.90635302715411318E-006 -0.71965796152785615E-006 -0.45982633168222642E-006  0.33257607572061919E-006  0.40380433530536496E-006  0.28681847184496792E-006  0.18812676440146216E-006  0.14937092732149217E-006  0.14784412010931171E-006  0.14681036346374609E-006  0.11656885393304272E-006  0.74480140918749064E-007  0.00000000000000000E+000  </sparseX_slice>
      </sparseX>
      <sparseX i="5" alpha="9740.0362326376453" sparseCutoff="1.0000000000000000" sliced="T">
        <sparseX_slice start="1" end="50">  0.36237811800821101E+000  0.38844236964123661E-005  0.30010381908331166E-005  0.60877249681818699E-005  0.21871625425941071E-005  0.90417529939502137E-006  0.11235135212495308E-005  0.46463935298952336E-006  0.70870413572851930E-007  0.74237070756795989E-001  0.11488069916450124E-003  0.80273775361531919E-004  0.17131325632484498E-003  0.65434588475320527E-004  0.31350391042938017E-004  0.43847389540918228E-004  0.21079504668851040E-004  0.27997892912395732E-005  0.76041328113866128E-002  0.17759315933777154E-002  0.10782763192626755E-002  0.24433335085197109E-002  0.99778511407548273E-003  0.55182451135069076E-003  0.87374078155052885E-003  0.48737902682647656E-003  0.62257317253962179E-004  0.37910557723134242E+000  0.54515771134910256E-003  0.24205431614150925E-003  0.45894979039909779E-003  0.18516081844950313E-003  0.13519821543430299E-003  0.23430823873186058E-003  0.15010559323856229E-003  0.11699933867238615E-004  0.54916650131955902E-001  
0.13045667989466717E-001  0.46399498296545404E-002  0.98264737296978547E-002  0.43768852137146333E-002  0.35346225712017450E-002  0.69985044402634802E-002  0.51010117531153521E-002  0.55280367276322494E-003  0.19830258995474553E+000  0.55795983193747997E-001  0.10430222216450465E-001  0.24939235777277503E-001  0.13704757230060961E-001  </sparseX_slice>
        <sparseX_slice start="51" end="100">  0.13084414742253064E-001  0.32273669190321187E-001  0.28688062081054382E-001  0.46438480266126209E-002  0.53417700173481852E+000  0.75209563508561576E-003  0.16114914629009554E-003  0.22540163789326934E-003  0.95492685474418885E-004  0.14393737809365416E-003  0.32585643944887678E-003  0.24913128677619300E-003  0.12811785646861202E-004  0.77380057890593740E-001  0.19073181892164861E-001  0.31007684042701389E-002  0.56905108963505582E-002  0.28363888944784553E-002  0.39572603992329815E-002  0.10120907043005518E-001  0.86105456530661748E-002  0.86736373981344522E-003  0.39515583270939819E+000  0.12510064365221008E+000  0.10649210566537042E-001  0.31197560741317375E-001  0.20848842758424777E-001  0.23523334596876378E-001  0.71627219868619321E-001  0.70579223806946589E-001  0.13270073378920812E-001  0.39371178197897533E+000  0.14552455379271301E+000  0.65609020116846372E-002  0.28699705326027100E-001  0.21966847893733547E-001  0.23362125058182762E-001  
0.83066790753336228E-001  0.88098454333126713E-001  0.20237645279077881E-001  0.54739434247562226E-002  0.43547475306766075E-004 -0.93538850224565825E-004 -0.17078563445950670E-003 -0.89209146340863953E-004 -0.51135625671057835E-004 -0.17183426942625870E-004  0.12651335024551197E-004 -0.25880478519785637E-005  0.79294701516885262E-003  </sparseX_slice>
        <sparseX_slice start="101" end="150">  0.12892169141440239E-002 -0.18856502198673344E-002 -0.36730376804081435E-002 -0.20713156117200494E-002 -0.12711528274395186E-002 -0.34856825737336063E-003  0.49403888042991672E-003  0.35804771535168502E-004  0.40493332082602229E-002  0.10076808731925492E-001 -0.61226312914537413E-002 -0.12783939111571281E-001 -0.80431015649401263E-002 -0.55675162613703201E-002  0.22389171198406609E-003  0.49670029926591830E-002  0.22827118274835012E-002  0.57056946722092421E-002  0.18033567222252120E-001 -0.32422430266161283E-002 -0.99266699099467264E-002 -0.67966322214257444E-002 -0.51590548951335443E-002  0.34413308578351899E-002  0.10124859575500999E-001  0.62066363179185567E-002  0.41343634077752090E-004  0.17165111236791405E-002  0.37702484966140098E-002  0.46453105323289124E-002  0.35407630179433696E-002  0.27724136663775929E-002  0.22408880174718837E-002  0.18393493328765105E-002  0.19668474998307743E-002  0.96173026782821300E-003 -0.38686558841895410E-005  
0.17530984727357097E-004  0.36299712703548920E-004  0.17313525526463904E-004  0.89899669737002488E-005  0.46283023925253887E-005 -0.14501080089651057E-005  0.68602068571165521E-006  0.13931476562637008E-003 -0.14383545275916548E-003  0.35025952980350728E-003  0.76449846285299124E-003  0.39157337829424758E-003  0.22125523754325377E-003  </sparseX_slice>
        <sparseX_slice start="151" end="200">  0.10401204419259614E-003 -0.62866339994300282E-004 -0.32109775612950239E-006  0.71143707720713488E-003 -0.13401661761184242E-002  0.11090051032214836E-002  0.24757568947070840E-002  0.13742031679807054E-002  0.93305683110807866E-003  0.16560056747296951E-003 -0.71303478926680369E-003 -0.38347557238316109E-003  0.10024472011225026E-002 -0.25309302734644185E-002  0.57561144130519970E-003  0.17315333012096925E-002  0.99784467399610601E-003  0.83842696248506753E-003 -0.31165755145437122E-003 -0.15013888989882302E-002 -0.10627827984711186E-002  0.10272511260179414E-004 -0.36752545909661571E-003 -0.91508514435515353E-003 -0.12128097859046860E-002 -0.86986087343011661E-003 -0.63918036523123549E-003 -0.51484508331806739E-003 -0.40289744939187190E-003 -0.45836115719408794E-003  0.12761878575074012E-005  0.40510112803565700E-004  0.11229204794554714E-003  0.16334692846569875E-003  0.11003122049671425E-003  0.74994022090479423E-004  0.61606658655862333E-004  
0.45127727123794487E-004  0.54617880513064271E-004 -0.22125287193192240E-003  0.81626137748393247E-006 -0.38152487766848992E-005 -0.79247993453287813E-005 -0.37714932875997105E-005 -0.19532213618793439E-005 -0.10155350914738402E-005  0.31020149631586429E-006 -0.15044312450745643E-006 -0.32050350320119986E-004  0.30716662177577313E-004  </sparseX_slice>
        <sparseX_slice start="201" end="250"> -0.76208010096885377E-004 -0.16681865505963097E-003 -0.85240276804423299E-004 -0.48058188475522380E-004 -0.22864189966375729E-004  0.13507562317719214E-004  0.33385450770633291E-007 -0.16367114751040363E-003  0.28835918245077749E-003 -0.24112892735898644E-003 -0.53925750032131001E-003 -0.29831330014045560E-003 -0.20245124729152171E-003 -0.37272199748038630E-004  0.15389943108427693E-003  0.83201027909270576E-004 -0.23062009133738599E-003  0.54568679349751041E-003 -0.12509203766006215E-003 -0.37608073926023369E-003 -0.21558802670680385E-003 -0.18176330359674444E-003  0.65849115239540322E-004  0.32442791439968516E-003  0.23072053143379688E-003 -0.23632641025224388E-005  0.79458235103660942E-004  0.19864918839348301E-003  0.26383263940180139E-003  0.18891342803770253E-003  0.13856105960808032E-003  0.11159612192232138E-003  0.87200740354953889E-004  0.99402466466735418E-004 -0.41520754635291550E-006 -0.12398103994718882E-004 -0.34484919114878319E-004 
-0.50294677663784330E-004 -0.33822057329026511E-004 -0.23003165669994287E-004 -0.18907944407862437E-004 -0.13822562020129208E-004 -0.16761698084330682E-004  0.67543859446025438E-007  0.18972788559456059E-005  0.52952133195106036E-005  0.77430577473665135E-005  0.51983308390649594E-005  0.35279734171643227E-005  0.29016594935331852E-005  </sparseX_slice>
        <sparseX_slice start="251" end="300">  0.21169619051140445E-005  0.25720481582322493E-005  0.50782537595407280E-004 -0.18682934669019344E-006  0.87414631186931054E-006  0.18159088258238083E-005  0.86414775434100310E-006  0.44749604016119718E-006  0.23274030396085524E-006 -0.71032892396827012E-007  0.34477932210944891E-007  0.73562801958939777E-005 -0.70333960985217125E-005  0.17460570868380195E-004  0.38224633476206128E-004  0.19530343457394518E-004  0.11010352717564043E-004  0.52403257355171936E-005 -0.30935415794633925E-005 -0.73770024855267261E-008  0.37566229668141627E-004 -0.66043944173447289E-004  0.55245578433979931E-004  0.12355762641158308E-003  0.68343655758673538E-004  0.46380907851560617E-004  0.85489779979506059E-005 -0.35251758737534998E-004 -0.19061045244797894E-004  0.52932526282418538E-004 -0.12498903607304409E-003  0.28659649780542274E-004  0.86161670811122758E-004  0.49383609316794521E-004  0.41640208150085344E-004 -0.15072528755735327E-004 -0.74315324071682937E-004 
-0.52858210986045280E-004  0.54242255517997985E-006 -0.18201469688888247E-004 -0.45510588657682498E-004 -0.60448272814148931E-004 -0.43280736891352482E-004 -0.31742933250617758E-004 -0.25565452217457000E-004 -0.19975763024227123E-004 -0.22772391446624279E-004  0.95299521531415457E-007  0.28401205068657898E-005  0.79005884092064846E-005  </sparseX_slice>
        <sparseX_slice start="301" end="325">  0.11523625434069804E-004  0.77489605386024391E-005  0.52698823740929500E-005  0.43317759035567727E-005  0.31665161921229146E-005  0.38400651488076257E-005 -0.21924331112276134E-007 -0.61465032905821365E-006 -0.17156504781830183E-005 -0.25089667542676132E-005 -0.16843124588797062E-005 -0.11430200176431201E-005 -0.94012069776407318E-006 -0.68583795266947619E-006 -0.83332599666055070E-006  0.35582531014890363E-008  0.99562338708317323E-007  0.27793560096818946E-006  0.40648762568212653E-006  0.27286725440990854E-006  0.18516222032395556E-006  0.15229680840997900E-006  0.11109640354952730E-006  0.13499596186468275E-006  0.00000000000000000E+000  </sparseX_slice>
      </sparseX>
      <sparseX i="6" alpha="2251.2583186591987" sparseCutoff="1.0000000000000000" sliced="T">
        <sparseX_slice start="1" end="50">  0.41760506463601382E+000  0.97814872719360014E-005  0.16744405995040725E-004  0.41295218629879639E-005  0.17728850828179748E-004  0.42853099367872764E-005  0.17210240128238992E-005  0.66491919256635919E-006  0.46363146396209490E-006  0.12109468211712392E+000  0.22537160908719762E-003  0.38239160850451993E-003  0.10135292115126666E-003  0.50017159544697579E-003  0.13167319685895046E-003  0.58656356189860635E-004  0.26293996496532969E-004  0.17881598737463892E-004  0.17557164985329405E-001  0.27012510586652324E-002  0.43725515137958146E-002  0.12919227631765162E-002  0.70965194995009501E-002  0.20478427724663008E-002  0.10118567721409981E-002  0.52482952806777569E-003  0.35048654210557609E-003  0.44221197398957374E+000  0.80004950561457196E-003  0.80410281827488622E-003  0.21150043187215457E-003  0.14995397090782308E-002  0.42559572042279192E-003  0.23892917218087649E-003  0.13975316623274106E-003  0.73839464246922544E-004  0.90672338076424303E-001  
0.14815466104212334E-001  0.13009050179412091E-001  0.43159722899711135E-002  0.30734563771766695E-001  0.98252860409379222E-002  0.60904204115076396E-002  0.40594083794805750E-002  0.21933902195741825E-002  0.23413440891838652E+000  0.48760244601897408E-001  0.19724648629872322E-001  0.10233740938063790E-001  0.72005185264491497E-001  </sparseX_slice>
        <sparseX_slice start="51" end="100">  0.28219316473937842E-001  0.21205974516043842E-001  0.17081510047909639E-001  0.87525926601887752E-002  0.50023605313837460E+000  0.85403974565081021E-003  0.11070018038850370E-003  0.41833220032259290E-004  0.10463330273883561E-002  0.33527843377953204E-003  0.26980897493453714E-003  0.19676424642952315E-003  0.86000576771667485E-004  0.10256975205571497E+000  0.17561584826062234E-001  0.17634332536937438E-002  0.16764735877914862E-002  0.22328025446960800E-001  0.84090846429997358E-002  0.72012963956409066E-002  0.58470957277891398E-002  0.27500698557223644E-002  0.37456287704119479E+000  0.97103461937345897E-001  0.46318407671873865E-002  0.11939969614307934E-001  0.84760786222772569E-001  0.43635262533563243E-001  0.40564691397680631E-001  0.37030987194740926E-001  0.18921941127845922E-001  0.29960856566426630E+000  0.10902502757400723E+000  0.20031875182289689E-002  0.12067992327494885E-001  0.60293306508192493E-001  0.42487440378487076E-001  
0.43258719436620130E-001  0.42168603266812030E-001  0.23292709965999064E-001  0.33525623521132919E-001 -0.90598457410751080E-005 -0.24522853743488366E-003 -0.21220155958684687E-004 -0.43487215667123577E-003 -0.12506542345311290E-003 -0.29560280797702081E-004 -0.37730345703513458E-005 -0.32447936586491893E-005  0.68741844385307380E-002  </sparseX_slice>
        <sparseX_slice start="101" end="150">  0.63887527462925815E-003 -0.40408159901008742E-002 -0.74627538143680696E-003 -0.89134226853481418E-002 -0.27349593069435200E-002 -0.63208250731727972E-003 -0.21092254284038806E-004 -0.17615293587837449E-005  0.25103056690721718E-001  0.11064784030672637E-001 -0.90562324335741965E-002 -0.46513683898695051E-002 -0.28591713244572565E-001 -0.80781820738231210E-002 -0.69428734775060026E-003  0.14378954354157519E-002  0.17680978489187944E-002  0.28396910846587728E-001  0.25225364875531751E-001 -0.64739951783979004E-003 -0.47246506718705908E-002 -0.20983968088832280E-001 -0.31261399153914220E-002  0.33485347675476693E-002  0.49667158250931978E-002  0.58183160330243502E-002  0.13457301259748788E-002  0.54480862025683766E-002  0.44359572593483301E-002  0.36094092600131838E-002  0.80953545325510110E-002  0.50994071746830634E-002  0.34320525275833955E-002  0.25820699440165583E-002  0.28898861201937685E-002  0.14329606006891953E-002  0.29238337082642016E-005  
0.46311554726144601E-004  0.11945385498950785E-004  0.77607794384910937E-004  0.22237927309389965E-004  0.43975351293004448E-005  0.14511515837346761E-005  0.32218989313878827E-005  0.29381811366091645E-003 -0.12993685098745235E-004  0.76307596746238342E-003  0.26957761983913852E-003  0.15667711366491243E-002  0.46077454588132891E-003  </sparseX_slice>
        <sparseX_slice start="151" end="200">  0.90461714589098885E-004  0.28041065466599774E-004  0.71872299703966742E-004  0.10729611388732773E-002 -0.94531995259539928E-003  0.16323413084341966E-002  0.10244541333153116E-002  0.46772723459907262E-002  0.10606304397685490E-002  0.51060734808608616E-004 -0.10515761943469200E-003 -0.23537081061070723E-004  0.12137478785083249E-002 -0.24710038342419345E-002 -0.97690786429535275E-005  0.74613063898343465E-003  0.29314510697843574E-002 -0.71247375954277018E-004 -0.55367609667283848E-003 -0.59273926538171878E-003 -0.62131099311106954E-003  0.81344905408462856E-004 -0.95874055956374302E-003 -0.10929339452563067E-002 -0.83920520137335732E-003 -0.19761905952787101E-002 -0.10644525809900714E-002 -0.61624868741636657E-003 -0.51275404075820142E-003 -0.56463613134466863E-003  0.24585143440696411E-005  0.98847237077065171E-004  0.14204633402091114E-003  0.11172858048700518E-003  0.26524942751863400E-003  0.13906633532141641E-003  0.70370725174512255E-004  
0.63584859089535926E-004  0.70157461173376044E-004 -0.32810154021491346E-003 -0.64372929602827189E-006 -0.10092643038009719E-004 -0.26194301447119650E-005 -0.16953367901503914E-004 -0.48490424541319945E-005 -0.95712607716318974E-006 -0.32145591798368046E-006 -0.70503338552900331E-006 -0.67274826390077767E-004  0.26266315218583555E-005  </sparseX_slice>
        <sparseX_slice start="201" end="250"> -0.16629789301521628E-003 -0.58991535335023664E-004 -0.34220034835509837E-003 -0.10048211667607933E-003 -0.19692377346822602E-004 -0.62651352349890262E-005 -0.15759801768570389E-004 -0.24567332980805821E-003  0.20382066115119619E-003 -0.35557447459803041E-003 -0.22320328584743521E-003 -0.10211737639121313E-002 -0.23143311392645187E-003 -0.11222811724386485E-004  0.21917808147449938E-004  0.43783857511960872E-005 -0.27790893076866976E-003  0.53378239957116295E-003  0.20115395000156047E-005 -0.16181402006232477E-003 -0.63987115729914352E-003  0.14968330718796381E-004  0.12006849334664781E-003  0.12723689831004473E-003  0.13379521127907583E-003 -0.18625347228888643E-004  0.20738200991856097E-003  0.23715777662509235E-003  0.18219794281993816E-003  0.43063864269274527E-003  0.23157816380473816E-003  0.13367956191261165E-003  0.11093890882847976E-003  0.12228874004429496E-003 -0.79608925800677265E-006 -0.30238884282979006E-004 -0.43617179712687825E-004 
-0.34359929034356445E-004 -0.81746182893376753E-004 -0.42778755467846093E-004 -0.21583405672996873E-004 -0.19479152959468003E-004 -0.21525027733685433E-004  0.12889046351153227E-006  0.46252755111598269E-005  0.66967981431236648E-005  0.52835264057622605E-005  0.12596687626894712E-004  0.65797629821134870E-005  0.33099719140674578E-005  </sparseX_slice>
        <sparseX_slice start="251" end="300">  0.29838097189657400E-005  0.33021410053260544E-005  0.75296153111276403E-004  0.14754675049775265E-006  0.23125265066725989E-005  0.60030959999000087E-006  0.38848092794512254E-005  0.11110782204377951E-005  0.21929725092876727E-006  0.73693606606951714E-007  0.16156576970384278E-006  0.15438926696545838E-004 -0.60029531350777861E-006  0.38103830549864456E-004  0.13518514084679277E-004  0.78413661894014000E-004  0.23023888595374995E-004  0.45119556566023025E-005  0.14366695134138522E-005  0.36117630291224131E-005  0.56379670282766469E-004 -0.46684918047541005E-004  0.81471550290239449E-004  0.51142078721689885E-004  0.23399445108009110E-003  0.53030288663797406E-004  0.25722569461094208E-005 -0.50146128628437461E-005 -0.99762059395925194E-006  0.63777431183170450E-004 -0.12227002023195400E-003 -0.46000836120255431E-006  0.37070562998519748E-004  0.14662073455883832E-003 -0.34254717505341300E-005 -0.27506694362970757E-004 -0.29139356171746298E-004 
-0.30644486403599472E-004  0.42743383520189330E-005 -0.47505756834463495E-004 -0.54332262659701051E-004 -0.41741728270930051E-004 -0.98671638019481788E-004 -0.53058340929431597E-004 -0.30625278143535377E-004 -0.25413395319627506E-004 -0.28014280346973436E-004  0.18269484081622049E-006  0.69269436495929645E-005  0.99927900462961913E-005  </sparseX_slice>
        <sparseX_slice start="301" end="325">  0.78723072018382714E-005  0.18730411045882778E-004  0.98012572882485031E-005  0.49446103875674898E-005  0.44623757295970593E-005  0.49312959883180837E-005 -0.41831198033142370E-007 -0.14984025961386659E-005 -0.21697604138360412E-005 -0.17119421980394171E-005 -0.40817967124641456E-005 -0.21319601551141098E-005 -0.10723871840326635E-005 -0.96667984884690076E-006 -0.10698634579724985E-005  0.67881248977408186E-008  0.24271098425772534E-006  0.35150084350407945E-006  0.27734754792248079E-006  0.66132721267438355E-006  0.34539649682301205E-006  0.17371964473385974E-006  0.15659007299854858E-006  0.17331298850546648E-006  0.00000000000000000E+000  </sparseX_slice>
      </sparseX>
      <sparseX i="7" alpha="3341.4260520241078" sparseCutoff="1.0000000000000000" sliced="T">
        <sparseX_slice start="1" end="50">  0.74047363985156811E+000  0.42882521139908196E-002  0.30600937723290682E-002  0.11995758475338925E-002  0.41998653476027275E-003  0.97498852682116179E-004  0.20179110572114491E-004  0.41050025098504179E-005  0.50615606881703412E-006  0.25006616613860083E+000  0.15388893338239479E-001  0.16618761071010311E-001  0.58250271672931819E-002  0.31370695004646985E-002  0.84569771464424630E-003  0.22975611634833240E-003  0.73134094630950179E-004  0.94804774825492411E-005  0.42225059800773873E-001  0.27738775700782523E-001  0.45431496583462232E-001  0.14603486022914013E-001  0.12081155931843592E-001  0.39159807736143656E-002  0.14356736881726260E-002  0.69593793634857202E-003  0.11173132887042170E-003  0.39628913803317012E+000 -0.66921941712087896E-005  0.25598615821200051E-001  0.27861094887695944E-002  0.51527525724389305E-002  0.13002104520740475E-002  0.21879076391320937E-003  0.21484272933028245E-003  0.77509750882523297E-005  0.94632977359304399E-001  
0.61053565925314171E-003  0.10001967990644640E+000  0.12391120515069033E-001  0.29387003742538741E-001  0.94935428786514179E-002  0.28334467096676991E-002  0.32064629196431773E-002  0.45630136872895958E-003  0.10604366750621498E+000  0.32603406388371876E-002  0.11413441119854341E+000  0.13842278993824231E-001  0.40311028082889847E-001  </sparseX_slice>
        <sparseX_slice start="51" end="100">  0.15417321122352407E-001  0.71784194618693025E-002  0.93809091046239204E-002  0.31957354844142859E-002  0.31889445736928496E+000 -0.27783732464395479E-001  0.11531693432433252E-001 -0.82387654651222865E-002  0.18476815941821684E-002  0.83221146876578454E-004 -0.45101829838099295E-003  0.20745763307234103E-003 -0.23118339394661028E-004  0.76151297292708683E-001 -0.70228871868035447E-001  0.45760278581891502E-001 -0.25248406899079597E-001  0.11737605913843379E-001  0.17491263053176578E-002 -0.21912581849324888E-002  0.34652323314952375E-002  0.34269352162169780E-003  0.12067978819457278E+000  0.86010793167632469E-002  0.82731693231258355E-001  0.59473624628560021E-002  0.31904514833679037E-001  0.13799005902354547E-001  0.10830230592206763E-001  0.18345810273159634E-001  0.86300273266935925E-002  0.68667991315150473E-001  0.10731582096438350E+000  0.42625208834699273E-001  0.49753078463505594E-001  0.23337259639485988E-001  0.17767209164462703E-001  
0.24529139023812506E-001  0.21827900953344980E-001  0.14112347200637971E-001  0.10963484917670445E+000 -0.15741492879197978E-002 -0.12583782581062448E-002 -0.11593221298971893E-005  0.87280485377588552E-003  0.89715021357269866E-004 -0.21331771109685832E-003  0.43062625353756404E-004 -0.58891051972511344E-005  0.26180561625843531E-001  </sparseX_slice>
        <sparseX_slice start="101" end="150"> -0.46716078985394142E-002 -0.56899514175394079E-002 -0.65919998433390959E-003  0.34987224990323303E-002 -0.62750242100981268E-003 -0.19941018812207230E-002  0.59118394622559355E-003 -0.54954728642520522E-004  0.41489308050491606E-001  0.24659362449132804E-002 -0.73945667531107682E-002 -0.25441806433383744E-002  0.38394479377614147E-002 -0.21331211830123578E-002 -0.11227972065577501E-002  0.39118900722046939E-002  0.12874370004947193E-002  0.33386507747989784E-001  0.21485076587771979E-001  0.49804967986201475E-002  0.14707232576104004E-002  0.43779255642984218E-002  0.34936783711362407E-002  0.80358014160876231E-002  0.91059722601626765E-002  0.54027987093671027E-002  0.81162917267440914E-002  0.89907394336047851E-002  0.68700492691091634E-002  0.63937519533390679E-002  0.84679459557167550E-002  0.72008801493434506E-002  0.45214505180450398E-002  0.42116787018274381E-002  0.35712853251065940E-002 -0.12471085976028832E-001 -0.15356936479010109E-003  
0.27484440173901098E-003 -0.69621270378107303E-004 -0.10150302869075490E-003 -0.35754531266584927E-004  0.31263654072805366E-004 -0.22383415866456442E-005 -0.10749460636818389E-006 -0.29780679901367678E-002 -0.29218330584009913E-003  0.11581225180900868E-002 -0.16520849690021048E-003 -0.36222992298270767E-003 -0.21903707369687355E-004  </sparseX_slice>
        <sparseX_slice start="151" end="200">  0.29272860511547305E-003 -0.39563256595804311E-004  0.49885477627094308E-005 -0.47194549148298391E-002 -0.34952755548711169E-003  0.14883627218942388E-002  0.84556797061469772E-005 -0.56772539092672322E-003 -0.70506375578103400E-004 -0.19854231849147784E-004 -0.51495769780899616E-003 -0.10224360957174873E-003 -0.37977523724546155E-002 -0.13354766027289227E-002 -0.65099704223651534E-003 -0.20759529443895028E-003 -0.10467835381039177E-002 -0.10781486568090075E-002 -0.16745265908030816E-002 -0.13785580262827600E-002 -0.54151578912121825E-003 -0.13056545792590392E-002 -0.17218256863828477E-002 -0.13976491806849578E-002 -0.10480721765959667E-002 -0.15157468773873656E-002 -0.16195814998455143E-002 -0.11053658723962543E-002 -0.84214715529960088E-003 -0.62095926315470997E-003  0.10501925865495994E-003  0.18107865416553510E-003  0.14607701242745053E-003  0.98114978999793332E-004  0.16771596483477404E-003  0.21774299828548348E-003  0.15220741923594995E-003  
0.97832877686704057E-004  0.67959120418273773E-004  0.26984057573123501E-002  0.34281297684264377E-004 -0.59711895802708296E-004  0.15500849987743690E-004  0.21914815389069927E-004  0.77931640300208670E-005 -0.67798555363186467E-005  0.48461298978873208E-006  0.21928290517612430E-007  0.64437337900637159E-003  0.65835222182632992E-004  </sparseX_slice>
        <sparseX_slice start="201" end="250"> -0.25164199701551804E-003  0.37032696030290248E-004  0.77892987710311847E-004  0.48756154624772293E-005 -0.63579200961038550E-004  0.85153386210116177E-005 -0.11077327190946174E-005  0.10211624182554239E-002  0.75868729648503942E-004 -0.32327297672531168E-003 -0.13087549489569911E-005  0.12231310950977297E-003  0.15702125094707562E-004  0.40635621777771941E-005  0.11141035298008588E-003  0.22170265780410554E-004  0.82173091311983745E-003  0.28545061458697541E-003  0.14165570914373776E-003  0.43326205552594319E-004  0.22730825584587645E-003  0.23459325356590263E-003  0.36314884826252770E-003  0.29856609175839201E-003  0.11740706998759025E-003  0.28250834293868873E-003  0.37339287845771825E-003  0.30341328803246538E-003  0.22675912573433859E-003  0.32820861232713314E-003  0.35153082796173158E-003  0.23992472920753100E-003  0.18243532377061879E-003  0.13438198732409481E-003 -0.32135638076678655E-004 -0.55595137489925741E-004 -0.44853649753093654E-004 
-0.30082069400758765E-004 -0.51458275715701471E-004 -0.66904826074787413E-004 -0.46741535994178917E-004 -0.29988864210299346E-004 -0.20810521263091006E-004  0.49167136000655138E-005  0.85345713069123446E-005  0.68863260010230912E-005  0.46118407280264799E-005  0.78943667312803373E-005  0.10278870356351291E-004  0.71770536372409950E-005  </sparseX_slice>
        <sparseX_slice start="251" end="300">  0.45963747138003307E-005  0.31863818171715543E-005 -0.61813974597774320E-003 -0.78608727942087824E-005  0.13680328191269794E-004 -0.35541308208373928E-005 -0.50197970592477447E-005 -0.17856522604634784E-005  0.15532157650950734E-005 -0.11101577261820446E-006 -0.50131264438940808E-008 -0.14761041616311393E-003 -0.15100759809267584E-004  0.57652849100716892E-004 -0.84928738714829877E-005 -0.17839761241897331E-004 -0.11179041300524263E-005  0.14566267612314049E-004 -0.19503256914230924E-005  0.25396831454856905E-006 -0.23392370703030621E-003 -0.17381459651432044E-004  0.74063064251283478E-004  0.29602298876523906E-006 -0.28014940401253857E-004 -0.36002688516890260E-005 -0.92908867189258650E-006 -0.25521337338474579E-004 -0.50790359213707482E-005 -0.18823875413157850E-003 -0.65363609455948671E-004 -0.32455868675265312E-004 -0.99129729146743115E-005 -0.52076805540677369E-004 -0.53749362992393532E-004 -0.83194758790517063E-004 -0.68396410983939494E-004 
-0.26896932893375594E-004 -0.64715854858925231E-004 -0.85541521166102746E-004 -0.69512105322145368E-004 -0.51944923351014418E-004 -0.75186504580492509E-004 -0.80535435642256848E-004 -0.54966587722724527E-004 -0.41793163968032875E-004 -0.30783857247409302E-004  0.73615004354778618E-005  0.12736885970933885E-004  0.10276037141266118E-004  </sparseX_slice>
        <sparseX_slice start="301" end="325">  0.68915166631847057E-005  0.11788879926169778E-004  0.15328342800746583E-004  0.10708598533381548E-004  0.68701155721619525E-005  0.47673028366733291E-005 -0.15928296217132032E-005 -0.27651795400417212E-005 -0.22311593076627091E-005 -0.14941602871205583E-005 -0.25577021957496649E-005 -0.33304145645813181E-005 -0.23253645307812067E-005 -0.14891374386224146E-005 -0.10322928264014712E-005  0.25800833749734982E-006  0.44795559805259346E-006  0.36144613998002408E-006  0.24204165187574342E-006  0.41433600215021499E-006  0.53953697800028849E-006  0.37670892221308204E-006  0.24122602098990772E-006  0.16721607228826424E-006  0.00000000000000000E+000  </sparseX_slice>
      </sparseX>
      <sparseX i="8" alpha="6666.7193770098920" sparseCutoff="1.0000000000000000" sliced="T">
        <sparseX_slice start="1" end="50">  0.27054496541821210E+000  0.12517180635721998E-005  0.18418722229369446E-005  0.13367589548062498E-005  0.88414370368556736E-006  0.51513199926065838E-006  0.88179658648777988E-006  0.78119293667362784E-007  0.68884625398510725E-007  0.59465725848263484E-001  0.36792430415312369E-004  0.56145578687534658E-004  0.36409582493007757E-004  0.31878260239338063E-004  0.18152850299011714E-004  0.40210822033838815E-004  0.32066486082619141E-005  0.37337689856742232E-005  0.65352769459127939E-002  0.60023374543472896E-003  0.86680756402292953E-003  0.49931612946514225E-003  0.58557358099323251E-003  0.33583321689640352E-003  0.92380817606864548E-003  0.76563069636634179E-004  0.10349099864186857E-003  0.34573607497628167E+000  0.15934455161136445E-003  0.22080626940058099E-003  0.61626597166867140E-004  0.16582835609853797E-003  0.74782305686621120E-004  0.29471119770142811E-003  0.16978649550166488E-004  0.33725362128875362E-004  0.53734964616562728E-001  
0.46156193557918297E-002  0.49068507716226260E-002  0.12673320478520122E-002  0.44660574887265348E-002  0.23064652929110207E-002  0.97074490895386334E-002  0.82527365860230015E-003  0.13655509541788183E-002  0.22091232293905128E+000  0.24545603240942463E-001  0.14264413586739818E-001  0.24015995309785497E-002  0.18248095422334857E-001  </sparseX_slice>
        <sparseX_slice start="51" end="100">  0.11613521087322802E-001  0.52274034802486692E-001  0.69915988097061926E-002  0.94156078178301503E-002  0.50589443631297415E+000  0.19681369111876714E-003  0.23464075818433418E-003 -0.33860119016301410E-004  0.22266576621509892E-003  0.79541526867832744E-004  0.47314788652491038E-003  0.22719196715819971E-004  0.58916414043096951E-004  0.78627084653687118E-001  0.66450713332391791E-002  0.52927704883848140E-002 -0.49676204653229081E-003  0.61169181631807084E-002  0.28802816651770096E-002  0.15676033415023091E-001  0.13518799970281675E-002  0.24136581306269497E-002  0.45714097065524084E+000  0.57674023706410553E-001  0.22287672509845917E-001  0.16146847883304538E-002  0.36671430296556951E-001  0.25947655888057742E-001  0.12062720514567801E+000  0.18660630952865919E-001  0.23901769239603406E-001  0.47298825224265967E+000  0.70908386321110448E-001  0.17804457780014268E-001  0.42175316705591950E-002  0.37543717134826800E-001  0.31731250608279998E-001  
0.13979365809229405E+000  0.25674828628888927E-001  0.30505513430919378E-001 -0.23320744112978551E-001 -0.70835568476214343E-005 -0.44184530805426058E-004 -0.40768244126460421E-004 -0.23224218405887078E-004 -0.20978846210667440E-004 -0.20147942344392533E-004 -0.27648819861771748E-005  0.30097876944182305E-006 -0.36245548279241167E-002  </sparseX_slice>
        <sparseX_slice start="101" end="150"> -0.71944598323076564E-004 -0.99710441892646075E-003 -0.78942441361557630E-003 -0.63852042363546726E-003 -0.49304553566399938E-003 -0.63125495339326867E-003 -0.36211875592509639E-004  0.28775575007209031E-004 -0.21073304695555319E-001  0.52907777868743731E-003 -0.40926061963954706E-002 -0.13622281695786170E-002 -0.37007296579004618E-002 -0.15013963625074096E-002 -0.43221951003769056E-002  0.55734135365111028E-003  0.50634000797027535E-003 -0.30835276882636188E-001  0.14984638675970691E-002 -0.44250543881040405E-002  0.71206840312206367E-003 -0.52038724399390427E-002 -0.90254677650492996E-003 -0.66725250646637677E-002  0.15252259507419835E-002  0.10777689997575578E-002  0.10051140762170941E-002  0.67666597668889395E-004  0.71716693003924948E-003  0.67975792320799694E-003  0.46212187283736951E-003  0.53396877980001851E-003  0.34639260155231751E-003  0.21091140307633236E-003  0.12157648278223517E-003  0.65581974517630922E-002  0.37415316550515719E-005  
0.92496627001669599E-005  0.93677056041803872E-005  0.41827498806402420E-005  0.37276971819133816E-005  0.37723685711044088E-005  0.65023030393419365E-006  0.27828725302961442E-006  0.10192876402703923E-002  0.71260901372389331E-004  0.21209934425328966E-003  0.17821169791668541E-003  0.10774271483817976E-003  0.84064827734842989E-004  </sparseX_slice>
        <sparseX_slice start="151" end="200">  0.11681829454371091E-003  0.77649524688967497E-005  0.85390571138507335E-005  0.59261785338017951E-002  0.22230221598194228E-003  0.89453462059170107E-003  0.25826384180155213E-003  0.54029732084555045E-003  0.19192394378332874E-003  0.77580127667659180E-003 -0.14570523228515757E-003  0.45332875607038304E-004  0.86714143123577080E-002  0.18778432604551316E-003  0.99826846639706254E-003 -0.26499500763908448E-003  0.69334554041759310E-003  0.88248831496415730E-005  0.11810477048347808E-002 -0.38062688417443648E-003  0.54264444065488171E-004 -0.39973524071533218E-003 -0.20819879495512220E-004 -0.20436561478558529E-003 -0.20590043910041444E-003 -0.10680263005666497E-003 -0.13436874312645187E-003 -0.90221801366050885E-004 -0.53188782595203878E-004 -0.20369246104782604E-004  0.79487625559445424E-004  0.67277078837775490E-005  0.31635054428770767E-004  0.35140035532374947E-004  0.15786444317796488E-004  0.20102970961212567E-004  0.14330699264346630E-004  
0.94277968211373752E-005  0.36702172757258976E-005 -0.14300248641054257E-002 -0.81127986427809159E-006 -0.20224250409401626E-005 -0.20467961726136374E-005 -0.91809192021896857E-006 -0.81783997172467001E-006 -0.82807251000324305E-006 -0.14236341028598844E-006 -0.59625002986519223E-007 -0.22225721015309592E-003 -0.15417491702953634E-004  </sparseX_slice>
        <sparseX_slice start="201" end="250"> -0.46370244946643303E-004 -0.38949975144308668E-004 -0.23672564304198438E-004 -0.18458519099603734E-004 -0.25649826739017098E-004 -0.17066467120308775E-005 -0.18137329194000642E-005 -0.12922121840332993E-002 -0.47659836037331282E-004 -0.19551283521999365E-003 -0.56633420140918656E-004 -0.11903674622571699E-003 -0.42440612736241527E-004 -0.17047290939943368E-003  0.31761455996350694E-004 -0.93447394847746101E-005 -0.18908149937293358E-002 -0.39651170990794071E-004 -0.21810805194078352E-003  0.57509912505173468E-004 -0.15306804903512030E-003 -0.26242449371353229E-005 -0.25962851546358531E-003  0.83066220498113821E-004 -0.10811641773658404E-004  0.87162873256952078E-004  0.45449101665822658E-005  0.44719848379738677E-004  0.45017865320259775E-004  0.23450376369323942E-004  0.29457028657237762E-004  0.19778100878549071E-004  0.11675453641819636E-004  0.45095363236275679E-005 -0.24511710711836418E-004 -0.20667967385694180E-005 -0.97822839306152664E-005 
-0.10850539479898728E-004 -0.48814930669975336E-005 -0.62151305432294912E-005 -0.44306685996447080E-005 -0.29122578231967751E-005 -0.11313412938718822E-005  0.37793553260150244E-005  0.31747640699699303E-006  0.15124672455866036E-005  0.16752449755216002E-005  0.75478166473670991E-006  0.96079515129343748E-006  0.68495266568364996E-006  </sparseX_slice>
        <sparseX_slice start="251" end="300">  0.44983220029306756E-006  0.17440850747381696E-006  0.32766802208647434E-003  0.18585998827730255E-006  0.46344662808601009E-006  0.46902081875583826E-006  0.21040935265630873E-006  0.18743090452272751E-006  0.18977906273481041E-006  0.32624439505744631E-007  0.13654636738447926E-007  0.50926793144174185E-004  0.35318234804615184E-005  0.10625886381269263E-004  0.89254211841498790E-005  0.54254725382084490E-005  0.42303927988911156E-005  0.58785208701302172E-005  0.39114750763608565E-006  0.41524619464420257E-006  0.29609038352148458E-003  0.10914751121458740E-004  0.44801979958096387E-004  0.12978925342416701E-004  0.27284124929260992E-004  0.97288152640207271E-005  0.39070526596361694E-004 -0.72775515262573262E-005  0.21373682158183296E-005  0.43325093477609983E-003  0.90762690416862031E-005  0.49979145587692310E-004 -0.13175559976636411E-004  0.35086560029657891E-004  0.60629310143370457E-006  0.59504779701722096E-004 -0.19033778500375295E-004  
0.24700763809011949E-005 -0.19972020764370415E-004 -0.10414332782484971E-005 -0.10247974721973924E-004 -0.10316000299446336E-004 -0.53744401168434754E-005 -0.67507417619901093E-005 -0.45325920149814830E-005 -0.26757964462561490E-005 -0.10337723078184261E-005  0.56164784043301526E-005  0.47351892401639838E-006  0.22416483196199895E-005  </sparseX_slice>
        <sparseX_slice start="301" end="325">  0.24863329900529178E-005  0.11186131219018045E-005  0.14242133588293097E-005  0.10152997545051980E-005  0.66733275232721461E-006  0.25922559919433455E-006 -0.12246816028303721E-005 -0.10286471612513545E-006 -0.49014922048055790E-006 -0.54287710520593116E-006 -0.24460453864191238E-006 -0.31136603578902472E-006 -0.22197352301851512E-006 -0.14577368149800783E-006 -0.56515825984511088E-007  0.19842604081006255E-006  0.16664466865321142E-007  0.79421971344652236E-007  0.87961928193569456E-007  0.39634895180349713E-007  0.50452384424556707E-007  0.35967629236878891E-007  0.23619882776091110E-007  0.91567761098325341E-008  0.00000000000000000E+000  </sparseX_slice>
      </sparseX>
      <sparseX i="9" alpha="12224.048090030179" sparseCutoff="1.0000000000000000" sliced="T">
        <sparseX_slice start="1" end="50">  0.67445734454414308E+000  0.43593375337942146E-003  0.29285566674925901E-003  0.17963798784516666E-003  0.87784797244316583E-004  0.30127198819639878E-004  0.85285751810233210E-005  0.24667256833119200E-005  0.68562201423188943E-006  0.17984272966631734E+000  0.42049198694565438E-002  0.26213525367697597E-002  0.20993081225411788E-002  0.13283722190615239E-002  0.52949295918435760E-003  0.17455877128406879E-003  0.62357186397088099E-004  0.20599711232438372E-004  0.23977355777549274E-001  0.21219999271784609E-001  0.11923978967676396E-001  0.12542426306159786E-001  0.10317205877478986E-001  0.48964029592148284E-002  0.18952387544839187E-002  0.81806630492472620E-003  0.31908795663554705E-003  0.46162578747911021E+000  0.78749213218152325E-002  0.26253270559267279E-002  0.32913382314386417E-002  0.27125446140098923E-002  0.10402238329893757E-002  0.35692546915178796E-003  0.17127615556034070E-003  0.66037220505057876E-004  0.87038913488879724E-001  
0.62232232247024878E-001  0.18055439393218305E-001  0.29149632466631440E-001  0.31807845329219826E-001  0.15952277718622086E-001  0.67506543993703198E-002  0.35818971943100864E-002  0.16157162687835121E-002  0.15797764631782527E+000  0.11079314022072877E+000  0.19421945799388371E-001  0.38282551391559061E-001  0.57380212506354895E-001  </sparseX_slice>
        <sparseX_slice start="51" end="100">  0.37392463401766357E-001  0.19746522790425308E-001  0.10958274155451296E-001  0.57427574665496221E-002  0.37828331530327758E+000  0.32486495384677007E-002 -0.28349748480586980E-002 -0.55759489862727905E-003  0.67274099848732463E-003  0.14254715110490761E-003  0.86259075670640668E-004  0.13005460517590011E-003  0.63812946998335535E-004  0.71324803873653961E-001  0.34927916054165419E-001 -0.16193978621451749E-001 -0.25966813394079718E-002  0.11524340521141487E-001  0.68438918684865383E-002  0.40316548157172411E-002  0.32765088090288925E-002  0.17747714830543377E-002  0.18307867555201576E+000  0.12724078086295651E+000  0.21065539279206369E-004  0.75845603624643421E-002  0.50555820060416312E-001  0.50893561759358823E-001  0.34392730252653769E-001  0.20257482910683310E-001  0.11923604698634746E-001  0.10608400056311731E+000  0.10607404722889545E+000  0.38565978803157756E-001  0.17476733779446287E-001  0.45912493142408306E-001  0.59519867896513326E-001  
0.42916373842178189E-001  0.23416338931974465E-001  0.14610063294497610E-001  0.89439199612278003E-002  0.86355644985892162E-003  0.55882720393980235E-003 -0.36341408717388470E-003 -0.47902433568088618E-003 -0.16238453298016457E-003 -0.75288217550575720E-005  0.13265914832324784E-004  0.66950860557711036E-005  0.16863639269545769E-002  </sparseX_slice>
        <sparseX_slice start="101" end="150">  0.55272303401817553E-002  0.30703825253241930E-002 -0.41887401945354631E-002 -0.54617965161649264E-002 -0.22260311353191993E-002 -0.20556094648284092E-003  0.20706643415893683E-003  0.15777256490562126E-003  0.43286102096045430E-002  0.99422319076127846E-002  0.44131532404336742E-002 -0.87760274652697676E-002 -0.10944684877943454E-001 -0.40581769251857415E-002  0.58315417942987255E-003  0.16118071663376538E-002  0.14584639297870376E-002  0.35471177415947993E-002  0.43070405233832567E-002  0.24921870257299476E-002  0.49834572738205703E-004 -0.33100178031564672E-003  0.18977135647865611E-002  0.37924788114977290E-002  0.40837501881907023E-002  0.35853127347470490E-002  0.59302270870010174E-004  0.16506817707887108E-002  0.38907878886573289E-002  0.47153386032925274E-002  0.39814461903165520E-002  0.29651805274727794E-002  0.23948658416993247E-002  0.19837167176183232E-002  0.14905292512419359E-002 -0.10124432663453507E-002 -0.17135896422744318E-003 
-0.12188354055804147E-003  0.73707852081547821E-004  0.10056695119083760E-003  0.34145110181893278E-004  0.18938143933332549E-005 -0.23949720729221845E-005 -0.11884010925840013E-005 -0.19089479890856305E-003 -0.10649111239469289E-002 -0.67046382045482837E-003  0.85900466465025011E-003  0.11551132232577659E-002  0.47793607499908869E-003  </sparseX_slice>
        <sparseX_slice start="151" end="200">  0.52965004579418176E-004 -0.34797422551028197E-004 -0.27642667661973730E-004 -0.48999457490071731E-003 -0.17734118652997077E-002 -0.91392302176458403E-003  0.18283968865541089E-002  0.23765079619701064E-002  0.95562719964087915E-003 -0.43039034286763308E-004 -0.28629277456312078E-003 -0.27059983214974338E-003 -0.40153036789014184E-003 -0.56114555017919244E-003 -0.40132623840197706E-003  0.42129040392039122E-004  0.21661608814903195E-003 -0.20396833929133877E-003 -0.64928318665817975E-003 -0.76580184918930978E-003 -0.68602000922074490E-003 -0.94935603214024868E-005 -0.47593855698176135E-003 -0.11363259417626619E-002 -0.13793263048738377E-002 -0.11608704107282466E-002 -0.85644304561675909E-003 -0.68495492002998957E-003 -0.56357167108415246E-003 -0.42002119354349489E-003  0.75990081200824852E-006  0.69115982698777595E-004  0.16611190208617709E-003  0.20182599329860262E-003  0.16948324692943637E-003  0.12397698531975171E-003  0.98130530824821867E-004  
0.80136021851609314E-004  0.59223090999053364E-004  0.21498435162257130E-003  0.37314658318008405E-004  0.26620061165224465E-004 -0.16061976632409449E-004 -0.21938984805840540E-004 -0.74492910295900461E-005 -0.41528748731616442E-006  0.51983885203149511E-006  0.25779315136219783E-006  0.40535006686962111E-004  0.23166287428661581E-003  </sparseX_slice>
        <sparseX_slice start="201" end="250">  0.14643824761692215E-003 -0.18725547196199487E-003 -0.25204865686670556E-003 -0.10433558956366007E-003 -0.11621041957354208E-004  0.75327200618349218E-005  0.59935369416652600E-005  0.10404648782332424E-003  0.38473924842674336E-003  0.19928843444299327E-003 -0.39877323673319598E-003 -0.51897565111726392E-003 -0.20917450131982321E-003  0.88536815661289268E-005  0.62105717666426614E-004  0.58794101494419822E-004  0.85261810381965088E-004  0.12008366628330169E-003  0.86723241598902671E-004 -0.95468403853743726E-005 -0.48252042000635024E-004  0.43182674899484884E-004  0.14065398646517514E-003  0.16644792389452321E-003  0.14921203294957113E-003  0.20158827443772008E-005  0.10373077314837197E-003  0.24776373246500105E-003  0.30076279982196635E-003  0.25310289385293075E-003  0.18667369060331585E-003  0.14924926701524510E-003  0.12277460320732304E-003  0.91478625315053651E-004 -0.22819601686219737E-006 -0.21308437887364115E-004 -0.51223021282860749E-004 
-0.62237919749307254E-004 -0.52260682071050543E-004 -0.38218473347922401E-004 -0.30240901537429110E-004 -0.24689727767139101E-004 -0.18241679923072533E-004  0.34263302057905294E-007  0.32847171196012194E-005  0.78976902630192663E-005  0.95962869914094640E-005  0.80573829612546262E-005  0.58908320429953827E-005  0.46596804748858912E-005  </sparseX_slice>
        <sparseX_slice start="251" end="300">  0.38034287318691740E-005  0.28093699372582047E-005 -0.49216751396919861E-004 -0.85496572710990607E-005 -0.60998694926631477E-005  0.36802597326894655E-005  0.50270312935960124E-005  0.17069108172799938E-005  0.95173785054393468E-007 -0.11909454951943151E-006 -0.59058985957921218E-007 -0.92797514420358510E-005 -0.53077638325518684E-004 -0.33555716262761091E-004  0.42906099153349924E-004  0.57754080405349760E-004  0.23907677789235361E-004  0.26633086445356929E-005 -0.17255862742274402E-005 -0.13730648601061350E-005 -0.23819548196295609E-004 -0.88141953473909278E-004 -0.45663687345747051E-004  0.91372941152668283E-004  0.11892047618053575E-003  0.47934857769056107E-004 -0.20246928933576205E-005 -0.14228090575987006E-004 -0.13470115367111734E-004 -0.19519138456121585E-004 -0.27498121171437786E-004 -0.19865295113323732E-004  0.21902037352391224E-005  0.11063793443316180E-004 -0.98849000215572299E-005 -0.32221608577849392E-004 -0.38134762705153555E-004 
-0.34186648745890627E-004 -0.46149963532944229E-006 -0.23767824660330591E-004 -0.56770848493724839E-004 -0.68914799867622641E-004 -0.57994133040580282E-004 -0.42772619731453550E-004 -0.34197199760304433E-004 -0.28130918072011046E-004 -0.20960004213328070E-004  0.52241321505071569E-007  0.48824381784798376E-005  0.11736897719032325E-004  </sparseX_slice>
        <sparseX_slice start="301" end="325">  0.14260791839886677E-004  0.11974645785516306E-004  0.87570361075156160E-005  0.69290533186560759E-005  0.56570775339095890E-005  0.41796210297738685E-005 -0.11093033066648014E-007 -0.10643837060722969E-005 -0.25591941795841471E-005 -0.31096162991679046E-005 -0.26109384047709908E-005 -0.19088661545925011E-005 -0.15099074592925165E-005 -0.12324409649931292E-005 -0.91032404482274319E-006  0.17957315148694881E-008  0.17245209275773879E-006  0.41464495556096969E-006  0.50382577871667518E-006  0.42302813437563873E-006  0.30927464735744651E-006  0.24463271167279110E-006  0.19967650782737115E-006  0.14748678276175680E-006  0.00000000000000000E+000  </sparseX_slice>
      </sparseX>
      <sparseX i="10" alpha="-4340.1827667565294" sparseCutoff="1.0000000000000000" sliced="T">
        <sparseX_slice start="1" end="50">  0.47481652646889860E+000  0.10380927608018124E-003  0.19330432294999985E-003  0.34377008503179992E-004  0.60815634818177856E-004  0.72406494198816795E-005  0.10614083864433077E-004  0.59561827359369245E-006  0.86636011245006568E-006  0.15502288438074119E+000  0.94778527411893462E-003  0.26804964964840328E-002  0.30030861965861977E-003  0.11668269809130354E-002  0.12480175620229031E-003  0.28179418936743778E-003  0.14693197678670299E-004  0.28082376392718733E-004  0.25306716744303126E-001  0.49424698849197743E-002  0.18831732298205148E-001  0.16769090988715484E-002  0.11285384464891596E-001  0.12659325518420883E-002  0.37806637397947308E-002  0.21252404893059792E-003  0.46369324709031413E-003  0.45892859766210270E+000  0.14886315692901489E-002  0.40574396329717561E-002  0.38190218727080256E-004  0.29248169364377132E-002  0.27516467705755764E-003  0.78042284596945531E-003  0.30245849268243728E-004  0.79721190677470928E-004  0.10594979235434414E+000  
0.15265446125814708E-001  0.40852077898444292E-001  0.26958306143707238E-002  0.40761472774009884E-001  0.53752244192925040E-002  0.15318544336202982E-001  0.10627037672788487E-002  0.20461475822318984E-002  0.22178614897674576E+000  0.41041947129263817E-001  0.46072808939477676E-001  0.10696198596383998E-001  0.77845751722694742E-001  </sparseX_slice>
        <sparseX_slice start="51" end="100">  0.18090827556395322E-001  0.35117923717189373E-001  0.62074429468486434E-002  0.66404552204002900E-002  0.47471814159134879E+000  0.13449596842705780E-003 -0.20433023780590254E-002 -0.93727690201762153E-003  0.18079601810548588E-002  0.15931124705012797E-003  0.52094340250900665E-003 -0.86777168799420191E-005  0.56920888588514175E-004  0.10959501932253828E+000  0.94419754627954548E-002 -0.20249755627351325E-001 -0.29419927039722395E-002  0.26300273701187905E-001  0.49724331718965231E-002  0.10932252819683869E-001  0.90069726305002317E-003  0.17880524092346881E-002  0.32444428272224790E+000  0.73115494757036326E-001 -0.26603094564567348E-001  0.21711432277149056E-001  0.80388951534826114E-001  0.34883806030451499E-001  0.43543767931186077E-001  0.16250513264930103E-001  0.13312219904691560E-001  0.23730988854987251E+000  0.89128386390605843E-001  0.19920376077145651E-001  0.41094341230891840E-001  0.52755167550184945E-001  0.41037845924031660E-001  
0.34538049373440793E-001  0.26912204084062526E-001  0.17948234514219386E-001  0.11229315564697552E+000  0.15940038366895622E-003 -0.18502749054773570E-002 -0.10263342277052021E-004 -0.75033696497372240E-004  0.81175099330682657E-004 -0.93821842684553480E-004 -0.32683442148902085E-004 -0.39309251227429980E-005  0.25924373822463067E-001  </sparseX_slice>
        <sparseX_slice start="101" end="150">  0.93331687416872016E-003 -0.20292338268379086E-001 -0.66706624498138892E-003 -0.11230589606769181E-002  0.44417994288169877E-003 -0.19362872843916681E-002 -0.43040369710441433E-003  0.21111907917159685E-004  0.76746324074261296E-001  0.55779068581953885E-002 -0.32665823987670949E-001 -0.10238775323753962E-004 -0.23461079831180198E-002  0.39537052438707085E-003 -0.66350945988500627E-002  0.29114840188581162E-002  0.24419592686161402E-002  0.79386799001192970E-001  0.11037536770204696E-001  0.21492266466852240E-001  0.65515652595477224E-002  0.36655595057552108E-002  0.33216805629875650E-002 -0.49317630063117580E-002  0.13112826614078369E-001  0.74995625833229268E-002  0.13278552980170780E-001  0.25151687798929540E-002  0.23182034655350264E-001  0.54599831342601593E-002  0.66067917939797941E-002  0.58737379616686826E-002  0.26411667952974259E-002  0.74806589616665600E-002  0.33604966821340599E-002 -0.10863233050676950E-001 -0.37685493287739102E-004  
0.32256515323886878E-003  0.60083310911382603E-005 -0.13988232617575361E-004 -0.18607184482005959E-004  0.31187233146354997E-004  0.59468490942595630E-005  0.21372569921061880E-005 -0.25079223475707028E-002 -0.92696717478576640E-004  0.35269550032035633E-002  0.17569729937503382E-003 -0.18668955374189077E-003 -0.16606498369160536E-003  </sparseX_slice>
        <sparseX_slice start="151" end="200">  0.59036071105453768E-003  0.10084441650801900E-003  0.36563139448230329E-004 -0.74244347253227651E-002 -0.49498026257694153E-003  0.55761486189479679E-002  0.12677522501418391E-003 -0.76449504645438127E-003 -0.72448352441532133E-003  0.15162184258937709E-002 -0.19241278802713946E-003 -0.19256958847836876E-003 -0.76798741092323642E-002 -0.13681861365854450E-002 -0.38740392122039845E-002 -0.10759448856062302E-002 -0.15514296172531327E-002 -0.15877458283361861E-002  0.66650042009371621E-003 -0.15327348518904052E-002 -0.84341671095183130E-003 -0.18166512360498414E-002 -0.86026721754757778E-003 -0.55162625158415709E-002 -0.12785735994060930E-002 -0.12611806967937360E-002 -0.12419502600367505E-002 -0.53080760905259991E-003 -0.14755495023739513E-002 -0.56451466470155314E-003  0.12426887622355104E-003  0.16034521405910345E-003  0.67481106442026804E-003  0.16612321082315639E-003  0.15693592638128933E-003  0.18511764413004113E-003  0.90677126434468255E-004  
0.16089755965286774E-003  0.63399083856095157E-004  0.23461774425040968E-002  0.83419379515247071E-005 -0.70124597097501754E-004 -0.13290411435950918E-005  0.29489926290722344E-005  0.40360515834106911E-005 -0.68070765770100997E-005 -0.12881126748757258E-005 -0.46703482115278885E-006  0.54164637838232093E-003  0.20854822763865600E-004  </sparseX_slice>
        <sparseX_slice start="201" end="250"> -0.76683675107398590E-003 -0.38427169592675003E-004  0.39361935523922420E-004  0.35893142796624856E-004 -0.12884495698588968E-003 -0.21900125039331123E-004 -0.80103128499915365E-005  0.16034859230798599E-002  0.10873463473366357E-003 -0.12128124562810953E-002 -0.27345506956244633E-004  0.16370735144248638E-003  0.15653778025698789E-003 -0.33071902477041509E-003  0.41332132480749058E-004  0.41643490513845790E-004  0.16586542249712108E-002  0.29838359975315533E-003  0.84122297054490635E-003  0.23550818420475347E-003  0.33585976860771083E-003  0.34365050212076286E-003 -0.14543872783624146E-003  0.33157041918566995E-003  0.18296762497973168E-003  0.39234969286162198E-003  0.18817150382717000E-003  0.11989829238203762E-002  0.27846042567111594E-003  0.27251809951096183E-003  0.26942327639777552E-003  0.11496706349807453E-003  0.31978169626895064E-003  0.12236280505573000E-003 -0.37955885435410503E-004 -0.49609594516713785E-004 -0.20748855243235759E-003 
-0.51167371771940069E-004 -0.48083870427127992E-004 -0.56870891567646963E-004 -0.27907015009235105E-004 -0.49336913053702222E-004 -0.19482359343368640E-004  0.57965006322032693E-005  0.76744686394632392E-005  0.31899191638374095E-004  0.78801497119216902E-005  0.73667051108010037E-005  0.87359680156128991E-005  0.42946668626240160E-005  </sparseX_slice>
        <sparseX_slice start="251" end="300">  0.75644149648053331E-005  0.29936226387383474E-005 -0.53741885386166704E-003 -0.19123169414548629E-005  0.16066328780816234E-004  0.30465711524721074E-006 -0.67496675014826251E-006 -0.92463920860621633E-006  0.15597789101514855E-005  0.29508659137438041E-006  0.10702174177580093E-006 -0.12407031565262418E-003 -0.47831729383036207E-005  0.17569150049091258E-003  0.88057789374728534E-005 -0.90091952492553348E-005 -0.82220044222846856E-005  0.29523558191010620E-004  0.50173998129192325E-005  0.18357334633388706E-005 -0.36729684266555255E-003 -0.24920544243006610E-004  0.27787304877877338E-003  0.62637687849401866E-005 -0.37488656468269580E-004 -0.35857536857250691E-004  0.75779539009689483E-004 -0.94659351811360198E-005 -0.95392637634271183E-005 -0.37993377499420883E-003 -0.68370036174334535E-004 -0.19272638781667943E-003 -0.53968903739703802E-004 -0.76938623539432057E-004 -0.78723028692570304E-004  0.33325532039197038E-004 -0.75954274621146365E-004 
-0.41916943327009500E-004 -0.89872197401071817E-004 -0.43120658925687140E-004 -0.27469851515657867E-003 -0.63802076750583235E-004 -0.62424749859139961E-004 -0.61723633364721637E-004 -0.26337107528153301E-004 -0.73258124179647436E-004 -0.28031995454593660E-004  0.86942309130002807E-005  0.11368405265745709E-004  0.47538075681097238E-004  </sparseX_slice>
        <sparseX_slice start="301" end="325">  0.11723712160984397E-004  0.11015342324390872E-004  0.13029443273858732E-004  0.63940341773817644E-005  0.11302670715331120E-004  0.44635554944265586E-005 -0.18777290658172823E-005 -0.24871230716012818E-005 -0.10335755970985721E-004 -0.25534171977735799E-005 -0.23866444833153938E-005 -0.28304933530684146E-005 -0.13915763010290863E-005 -0.24507544086814572E-005 -0.96995660544664667E-006  0.30413750194613968E-006  0.40301039103949794E-006  0.16744601807331697E-005  0.41369388637188628E-006  0.38660922163912339E-006  0.45854636695890735E-006  0.22545226480427364E-006  0.39700342677743115E-006  0.15713668520910227E-006  0.00000000000000000E+000  </sparseX_slice>
      </sparseX>
      <sparseX i="11" alpha="9585.3347868066376" sparseCutoff="1.0000000000000000" sliced="T">
        <sparseX_slice start="1" end="50">  0.52042286422527650E+000  0.74017203361683468E-005  0.33813611125248956E-005  0.33417739186476358E-005  0.30795819063708974E-005  0.19512062017271350E-005  0.74814151223099171E-006  0.22649309527165584E-006  0.11000060060232329E-006  0.68670488212553421E-001  0.20623095964826822E-003  0.78866234213391100E-004  0.93596864053107509E-004  0.97444022178596712E-004  0.69086516728460133E-004  0.28796408826617284E-004  0.93046579123565346E-005  0.48819291336751483E-005  0.45305810673502318E-002  0.29039317624439728E-002  0.95937981979124574E-003  0.13701056083636099E-002  0.15492769639817181E-002  0.12494777128198955E-002  0.57083528317648726E-003  0.19865665564782251E-003  0.11797721870042650E-003  0.36956936469555557E+000  0.87148776454587398E-003  0.93843240270392479E-004  0.26384017263622318E-003  0.36566556370583704E-003  0.31789344402135335E-003  0.15160391268459876E-003  0.54245849959784866E-004  0.30582472571270649E-004  0.34482181382121627E-001  
0.17818294186196789E-001  0.22374826641158815E-002  0.64185996364380929E-002  0.83367016040307978E-002  0.87121919429109709E-002  0.46023432345926847E-002  0.18072213583211526E-002  0.12726372573307367E-002  0.13122167059742615E+000  0.58216657888036649E-001  0.83224379437242275E-002  0.23346494562869767E-001  0.23738160640231362E-001  </sparseX_slice>
        <sparseX_slice start="51" end="100">  0.36969124062835687E-001  0.22329690717977992E-001  0.10091983584036231E-001  0.93377767053258696E-002  0.56297894993852693E+000  0.11169746851790049E-002 -0.18971271839498497E-003  0.11984707501982085E-003  0.34545809007183252E-003  0.38488803589097564E-003  0.21366345486422078E-003  0.85899717667576515E-004  0.45845817304891739E-004  0.52528007244562913E-001  0.23471617958486922E-001 -0.20054306641130873E-002  0.45581547730038276E-002  0.80022951549082455E-002  0.11241995574712048E-001  0.67908894331284884E-002  0.29931288892751438E-002  0.21566382963249591E-002  0.28269410588736549E+000  0.11530325293778160E+000  0.13726435511276570E-001  0.41314377411704170E-001  0.34880129994103205E-001  0.78395216134597004E-001  0.51317963619642616E-001  0.25654559514429048E-001  0.25573924334633350E-001  0.30450746869634998E+000  0.12052055938755789E+000  0.27985103221153416E-001  0.49520808517510916E-001  0.28914567888767111E-001  0.91333742155381897E-001  
0.62303624466592912E-001  0.34079442419144873E-001  0.36912139028571954E-001  0.62911993601795002E-001  0.79895358964592798E-004 -0.16136583401757130E-003 -0.16192734593428138E-003 -0.12184962117998118E-003 -0.62511541405223454E-004 -0.15532343038968951E-005  0.11059386196181870E-004 -0.25373369306955747E-005  0.58699204580310235E-002  </sparseX_slice>
